249 10
</s> 0.040027 0.044194 -0.038303 -0.032780 0.013666 0.030211 0.009409 0.002113 -0.036035 0.022185 
egg -0.737493 0.109877 -0.236620 0.214396 -0.604035 0.606301 0.715790 0.435350 0.698277 -0.074036 
butter -1.218327 -0.080032 -0.655159 0.123331 -0.569916 -0.073095 0.684480 0.538919 0.434629 -0.328359 
wheat -0.632041 -0.040585 -0.621105 0.089204 -0.494637 0.491262 0.946004 0.397084 0.589841 -0.560643 
onion -0.630433 0.653317 -0.290852 0.709808 1.293260 -0.194479 -1.332981 -0.269303 -0.584026 0.079186 
garlic 0.117903 0.686305 -0.107669 0.813135 1.841731 -0.278372 -1.266038 0.539157 -0.976946 -0.102320 
milk -1.172670 -0.393970 -0.567333 -0.027513 -0.511932 0.313846 1.087157 0.378785 0.691493 0.085537 
vegetable_oil -0.127332 0.880005 0.204135 -0.162185 0.391724 1.152398 -0.600453 -0.164363 0.069637 0.249292 
cream -1.190570 -0.475250 0.163419 -0.217588 -0.667131 0.457653 0.381444 0.689471 0.521445 0.627405 
tomato -0.403456 -0.266109 -0.279125 1.440818 1.676167 -0.209722 -1.511821 -0.212676 -1.334550 0.554752 
olive_oil -0.805991 0.021004 0.778395 0.782351 0.581574 -1.056036 -1.296162 1.193768 -1.608301 -0.592454 
black_pepper -0.114262 0.727876 -0.097765 0.631441 1.191420 -0.316071 -1.498533 0.558179 -0.220202 -0.485986 
pepper -1.051585 0.529165 -0.075119 0.126007 1.011507 -0.183852 -1.219805 -0.388706 -1.055417 0.121515 
vanilla -0.564620 -1.584472 -0.971423 -1.337369 -0.754434 1.422169 2.096047 0.535334 1.097810 -0.533281 
cayenne 0.806479 0.754409 -0.118105 -0.175434 2.258475 1.044145 -1.562951 0.170781 -1.073495 0.612579 
vinegar 0.579335 0.705189 0.235050 1.336368 0.338978 1.406249 -1.812154 -0.581092 -0.095891 -0.165775 
cane_molasses -0.016070 -0.125427 -1.514933 0.408305 -0.228546 1.634335 -0.266640 -1.006007 0.694068 -0.364841 
bell_pepper -0.361353 0.458322 -0.010502 0.248567 1.604312 -0.128222 -1.215835 0.217724 -1.322146 0.257778 
cinnamon -0.631514 -0.047327 -1.917657 -1.762510 -0.731947 0.857001 0.162100 0.213824 0.447060 -1.566176 
parsley -1.230144 0.762968 0.235293 1.002667 0.302649 -1.061619 -0.880539 1.178701 -0.268163 -0.093450 
chicken -0.572216 0.622042 0.134114 -0.427831 1.364113 -0.196156 -0.407191 0.137778 -1.048621 -0.243602 
lemon_juice -0.361830 0.210228 0.919131 -0.177370 -0.754515 0.529764 -0.412131 1.309142 -0.719465 -0.271721 
beef 0.427005 0.977599 -0.604123 2.011814 1.818850 0.149888 -1.116424 -0.427855 -0.248702 -0.340013 
cocoa -0.516454 -1.424067 -1.312434 -0.383255 -0.683212 1.481469 2.392538 0.804519 0.346121 0.304999 
corn -0.410266 -0.739269 -0.740628 0.352309 1.050021 1.098483 -1.069852 -1.262604 -0.297426 0.910266 
bread -1.001449 -0.339878 0.200052 1.367198 0.223574 -0.463542 -0.610074 0.046767 0.219741 -0.058204 
scallion 1.167904 1.633498 1.079112 0.044871 2.306917 0.974299 -0.722796 0.621008 -0.045245 0.200279 
mustard -0.742448 0.615680 0.456761 0.829545 -0.466553 1.045741 -1.850977 -0.563332 0.870018 0.492192 
ginger 1.229497 2.063197 -0.476691 -2.527443 1.356593 2.029192 -1.170509 0.374553 0.734310 -0.946054 
basil -0.971143 -0.695123 0.311854 1.726047 1.570556 -1.742333 -0.349996 1.306319 -1.356608 0.104004 
celery -1.482946 0.721959 0.058417 0.464587 1.031670 -0.994020 -1.238837 -0.636933 -0.023395 -0.667526 
carrot -0.444207 2.381881 -0.334305 0.318133 1.342668 -0.466531 -0.671666 -0.221093 -0.328375 -1.415113 
potato -1.551696 1.512611 -0.460458 0.271478 1.186793 -1.092592 -0.871951 -0.071176 0.507709 -0.338410 
chicken_broth -1.213256 0.559261 -0.322448 -0.902629 1.354544 -1.348501 -1.317811 0.456326 -0.779898 -1.196333 
yeast -1.225326 -0.633554 -0.368575 0.784172 -0.416319 0.212363 0.927302 -0.232443 0.360278 0.091303 
rice 0.802344 1.900692 0.558234 -0.826703 2.455240 0.739476 -0.095438 0.183617 -0.369757 -0.392452 
mushroom -0.769557 0.543990 0.566716 1.112223 2.117912 -1.413561 -0.006856 0.377921 0.334651 -0.310982 
cheese -1.343309 -1.287797 0.590801 0.888041 0.982146 -0.843739 -0.157423 0.338851 -0.237682 0.875737 
soy_sauce 2.310482 1.520135 0.646275 -0.471923 3.149231 1.635737 -0.775239 -0.007055 0.797387 -0.970412 
cumin -0.868034 0.979703 -0.802762 -1.951700 1.514293 0.781453 -1.505242 -0.532716 -2.887629 0.465137 
oregano -0.775393 -1.051984 -0.411694 1.520677 1.864396 -1.185726 -1.022392 0.433283 -1.664384 0.382329 
parmesan_cheese -1.753154 -0.737190 1.060188 1.103091 1.380598 -2.158877 0.323928 1.251899 -0.209661 0.295287 
macaroni -1.007901 -0.417685 1.101237 1.533174 1.843676 -1.611920 0.154540 1.249320 -1.067170 0.476129 
thyme -1.608336 0.079382 -0.944781 1.032035 1.063094 -2.359221 -1.228698 0.488716 -0.416314 -1.691776 
cheddar_cheese -2.030956 -0.591615 0.296961 0.412409 1.763556 -0.456307 0.072471 -1.194674 0.026701 1.661182 
lard -0.702868 -0.691464 -1.058173 0.110103 -0.585286 0.648106 1.116863 0.058278 0.653314 -0.578438 
lemon -0.430735 -0.315987 0.251970 -0.532841 -0.880532 0.347004 -0.620213 1.611500 -0.397874 -0.412986 
cream_cheese -1.098744 -0.851098 0.473138 0.036195 -0.889366 0.918490 0.792732 0.441011 0.878806 0.837089 
walnut -0.205301 -0.524855 -0.586068 0.049125 -1.274897 1.158496 1.488385 0.069292 0.294018 -1.655649 
green_bell_pepper -0.850232 0.170570 -0.212802 1.186179 1.918289 -0.396523 -0.983117 -0.589054 -0.877634 0.699354 
starch 0.951186 0.175356 0.032551 -0.523638 0.860947 1.016467 0.258232 0.492353 1.082136 -1.040093 
nutmeg -0.740837 -0.147456 -2.080591 -0.542397 -0.535905 0.058241 0.860137 0.559232 0.549653 -1.620718 
honey 0.698697 0.136740 0.230583 -0.447466 -0.290768 1.760335 -0.097450 -0.450297 -0.415770 -1.392124 
apple -0.503575 -0.385717 -0.543656 -0.487562 -1.280209 1.155871 0.133795 -0.939273 -0.054790 -2.030478 
almond -0.450109 -0.112713 0.257294 -1.022858 -1.004099 0.997616 0.833789 0.407396 0.106969 -1.205535 
cilantro 0.497114 0.348536 0.011792 -1.626201 2.088583 1.200198 -1.865334 0.526702 -2.461774 0.719134 
pecan -0.290528 -0.900442 -1.079595 -0.373881 -1.106240 1.478406 0.853479 0.082135 0.941671 -0.817564 
white_wine -0.757579 0.447829 0.743928 0.324268 0.659872 -1.347498 -1.176380 1.902916 -0.324335 -0.694282 
bacon -1.218016 0.450217 0.180754 1.520075 0.882074 -0.606220 -0.944527 -0.814132 0.416342 -0.178432 
pork 0.884631 0.376726 -1.134420 0.759728 1.523689 0.511260 -1.463349 -0.245102 0.035687 -1.102165 
raisin -0.607992 0.138904 -1.184281 -1.313218 -0.848024 0.891056 1.020993 -0.410403 -0.564660 -2.144567 
bean -0.274406 0.735272 -0.394477 0.705147 1.917128 0.139578 -1.196516 -0.866007 -1.179729 0.030335 
rosemary -1.251688 -0.882403 -0.686314 1.744482 1.134669 -2.438796 -0.752767 0.490994 -0.941802 -1.891314 
fish 1.314622 1.856354 0.716062 -0.324159 1.839343 0.879011 -1.093621 2.179865 -0.337612 0.391116 
cucumber 0.500891 1.621645 1.421777 0.816373 -0.357859 1.958574 -0.343993 0.936564 -0.376056 0.994716 
olive -1.262606 -0.328340 1.114316 1.123935 0.652092 -0.536752 -1.077274 0.262530 -1.714694 0.679429 
coconut -0.183244 0.554824 -0.853398 -2.825108 -0.270157 2.429431 0.617831 0.430564 -0.748960 0.441497 
orange 0.406380 -0.859417 -0.200648 -0.872623 -1.707381 1.588548 -0.638163 1.087746 -0.508467 -1.556504 
tamarind 0.432556 -0.535021 -1.053495 2.165306 1.048867 1.245318 -1.746101 -1.044664 0.866781 0.789968 
vegetable 0.528501 2.544037 0.088934 0.274160 2.053404 0.101435 -0.148344 0.369989 0.303587 -0.940210 
orange_juice 0.698828 -1.321451 0.264218 -1.403615 -0.734637 1.481552 -0.617937 0.636774 0.095362 -1.694322 
buttermilk -1.156707 -0.706433 -0.494336 0.339732 -0.525798 0.412599 0.994286 -0.307634 0.225010 -0.121787 
pineapple 0.363908 -1.139222 0.500325 -1.502906 -0.965467 2.624547 -0.234549 0.008966 -0.150886 -0.195152 
shrimp 1.006424 1.931739 0.006109 -0.169251 2.353512 0.453360 -1.554503 2.625356 0.242682 1.121126 
coriander -0.662773 2.642881 -1.088641 -2.539913 0.745526 1.335342 -1.389490 0.277277 -3.410119 0.154834 
bay -1.452185 1.196056 -1.537064 -0.125125 1.380865 -1.562451 -2.783661 0.604684 0.478930 -0.720997 
lime_juice 1.014571 -0.731458 0.958579 -2.025452 1.396487 2.167049 -2.011797 0.844078 -1.759887 1.062645 
red_wine 0.063042 0.022959 0.224067 1.151461 0.092515 -0.248345 -1.617080 0.517418 -0.581305 -1.517391 
gelatin -0.385649 -2.044596 0.591038 -1.584110 -0.916310 1.850034 1.195781 0.375539 0.863245 -0.038220 
pork_sausage -1.662005 -1.092121 -1.214154 1.474198 1.503666 -1.865010 -1.389838 -0.125727 -0.115266 -0.204127 
sesame_oil 2.739492 1.599009 1.810853 -1.144866 4.087009 1.839823 -0.214368 0.263296 1.415287 -0.839502 
chive -0.740903 0.976073 0.580338 1.083316 -1.015390 0.472659 -0.165838 1.672532 0.861199 0.769724 
seed -1.399473 0.667971 0.308566 -0.319119 -1.173008 1.123942 -1.432954 -1.437199 -0.553947 -0.620305 
mozzarella_cheese -1.638561 -1.951933 0.754180 2.151379 1.812687 -2.028994 0.322938 0.426280 -0.484263 0.679250 
ham -1.209856 0.200857 0.714905 1.471748 0.430231 -0.649130 -0.647846 -0.070395 0.791784 -0.019918 
oat -0.414616 -0.706927 -0.832366 -0.266024 -0.434550 1.583284 2.685682 -1.190173 0.265284 -1.396078 
turmeric -1.039475 2.838668 -1.025751 -3.032870 1.130610 1.018165 -0.935804 0.017101 -3.447916 0.031709 
nut 0.374907 0.777918 0.997475 -0.160796 0.556375 0.259138 1.015886 0.449722 -0.355799 -1.734153 
shallot -0.175381 0.610364 0.798292 -0.202898 -0.024850 -0.742965 -1.809478 2.262266 -0.089310 -1.392871 
lettuce 0.614125 0.056977 2.622901 0.910893 0.485943 1.591382 -0.929989 -0.315514 -0.869589 0.357527 
cider 0.035678 0.048272 -0.004437 0.594583 -0.405723 1.504675 -1.850923 -1.481345 0.070855 -1.021669 
dill -1.215580 1.072418 1.308179 0.820398 -0.569228 0.233167 -1.404364 0.391988 0.024605 0.418685 
pea -0.742188 1.867511 0.748305 -0.385238 1.857070 -0.499561 -0.604305 0.227044 -0.733673 -0.197896 
zucchini -1.413303 0.673202 -0.571838 0.401806 1.041824 -0.949737 0.481024 0.102261 -2.232052 -0.293361 
cherry -0.023823 -1.264702 -0.469509 -0.869239 -1.649258 1.625103 0.983756 0.882927 0.625727 -1.219799 
lime 0.785045 -0.900430 0.368402 -2.044286 0.618694 2.082227 -1.613039 1.301438 -1.137270 1.058635 
yogurt -0.794189 0.395749 0.776098 -1.224933 -1.109126 1.286127 -0.119983 0.125678 -2.291859 -0.436924 
strawberry -0.064622 -2.622251 1.453375 -0.690946 -1.851819 1.941563 1.444277 1.180314 -0.417728 -0.387596 
soybean 2.220956 2.267312 0.861534 -0.397426 3.071806 1.465787 0.270393 0.506740 0.680773 -0.930335 
celery_oil 0.844219 -0.704107 -1.174226 2.432640 1.423526 1.872539 -1.833648 -1.948141 0.198217 0.669036 
peanut_butter 0.475291 0.424761 -0.424563 -0.494273 1.105251 2.431867 2.339550 -0.943764 0.028861 0.459909 
banana -0.129022 -1.219059 0.157240 -1.448901 -1.029720 2.299899 1.269700 -0.149829 -0.579949 -0.287179 
meat -0.441276 -0.226175 -0.876992 1.109486 0.969462 -0.602676 -1.156929 -0.359269 -0.128588 -1.091941 
tabasco_pepper -0.255974 -0.065033 -0.823363 1.455561 0.907945 0.963098 -2.136483 -0.587525 0.525535 1.373435 
milk_fat -1.276101 -0.454619 -0.899479 0.020863 -0.987523 -0.350985 0.491251 1.552649 0.683864 -0.331923 
cabbage -0.209787 1.934527 0.430509 0.629800 1.027023 0.806816 -1.276035 -1.388735 -0.106124 -0.630317 
mint 0.088130 -0.157599 0.716606 -1.312455 -0.435389 1.028274 -0.857347 1.547180 -2.439844 -0.350871 
fennel -1.752828 -0.636139 -0.244075 0.924964 0.944533 -2.540796 -1.358056 1.157109 -0.905590 -1.124663 
sage -1.894761 -1.271843 -1.106415 0.805841 1.079679 -2.586143 -0.717528 -0.735791 -0.111944 -2.579046 
broccoli -1.085924 1.252434 1.407669 0.389808 1.781225 -0.734450 1.056707 0.091917 -0.746350 0.211595 
turkey -1.118562 -0.611689 0.175215 0.767146 0.886548 -0.792457 -0.563765 -0.900568 -0.675335 -0.893610 
fenugreek -1.656404 2.382146 -0.249781 -4.608653 1.194811 1.284132 -1.917301 -0.822544 -1.950646 0.265787 
cranberry -0.289791 -2.081351 0.153112 -0.080619 -1.475438 0.803142 -0.056108 -0.502395 0.291436 -2.332685 
wine 1.054325 0.034579 1.017827 -0.159628 0.981431 0.585042 -0.960850 0.887991 0.407097 -1.106514 
beef_broth 0.452286 1.420951 -1.125978 1.785019 2.080808 -0.601156 -1.556825 -0.056166 0.659489 -1.398260 
grape_juice 0.055575 -0.661015 1.162104 1.058184 0.097208 -0.342410 -1.082995 0.592286 -1.195120 -1.555688 
pumpkin 0.739567 1.564472 -1.821611 -0.046917 0.881954 0.654268 1.238799 1.196174 1.553919 -1.139074 
raspberry 0.285865 -2.686568 0.928701 0.077573 -1.697764 1.547148 1.136136 1.106361 0.125279 -0.928281 
whole_grain_wheat_flour -1.064187 -0.318746 -0.258796 0.273972 -0.199861 0.611568 1.510484 -1.625544 -0.582904 -1.095876 
lemon_peel -0.669487 -0.434218 0.620460 -0.654875 -1.027508 -0.282670 0.468854 1.872780 -0.425463 -1.344802 
coffee -0.520613 -1.042816 -1.399233 0.190173 -1.034936 1.603242 0.882016 0.133937 1.348382 0.235570 
sesame_seed 1.323972 1.752641 1.403155 -0.123806 1.174292 1.799883 0.560782 -0.182295 -0.359654 -0.869571 
avocado 0.655605 -1.123311 2.027983 0.059064 1.112309 1.831779 -1.880218 0.059818 -1.423210 1.466946 
sherry 0.026448 0.406232 0.388593 -0.044337 0.603901 -0.252035 -1.060440 0.852215 0.533699 -1.242105 
sake 3.135039 1.308451 0.592405 0.648827 3.364847 1.726478 -0.305884 1.173066 2.082535 -0.829556 
feta_cheese -0.591135 -0.436295 1.697216 0.916389 0.313303 -0.302576 -0.372773 0.914436 -2.479888 -0.036402 
apricot -0.235217 -0.560061 -0.782310 -1.041100 -1.079855 0.760692 0.238595 0.283964 -0.363018 -2.218878 
roasted_sesame_seed 2.501401 2.045135 1.342008 0.346582 3.669110 1.463345 0.126102 0.511838 0.914583 -0.710031 
rum -0.007040 -1.622630 -0.848228 -2.108789 -1.164186 2.138986 0.275249 1.266688 0.677371 -0.099843 
orange_peel 0.007296 -0.713928 -0.430730 -0.666693 -1.784580 0.828312 0.099294 1.167262 -0.429460 -2.378997 
squash -1.312931 0.614176 -1.023841 0.039270 0.868268 -1.077952 0.021137 0.084325 -2.072115 -1.014615 
crab -0.377816 0.946898 -0.061581 0.328764 0.975857 0.475663 -1.406228 1.789936 1.620361 2.113305 
marjoram -1.915192 -0.886264 -1.310276 0.909846 0.908787 -2.522901 -1.185416 -0.529775 -0.446765 -2.333866 
swiss_cheese -2.362438 -0.590642 1.287383 1.428919 0.225326 -0.823698 -0.130679 -1.112703 1.489765 0.569403 
sweet_potato -0.397301 1.663570 -2.353979 -1.073301 -0.293253 0.843982 -0.561625 -0.038866 -0.163825 -1.573406 
shiitake 1.847786 2.152937 0.915670 0.681347 3.283253 -0.373607 0.032041 1.579621 1.773391 -1.877124 
radish 2.098982 2.109973 2.430085 0.472583 2.160089 1.570981 -0.869299 1.057096 0.959868 -0.307327 
peach 0.254745 -1.665483 -0.019779 -1.041471 -1.110764 1.786531 0.069187 0.517846 -0.095689 -0.770063 
tarragon -0.991094 0.523691 1.513462 0.678229 -0.542524 -0.615488 -1.619895 1.505226 0.459151 -0.422370 
black_bean 0.088415 -0.339621 0.104203 -0.045532 2.794292 0.749641 -1.494750 -1.042079 -2.592872 0.916429 
lamb -0.342349 0.530000 -1.041532 -0.154902 0.171028 -0.638151 -1.268313 1.012272 -2.803165 -2.015399 
maple_syrup -0.370190 -0.314553 -1.267213 -0.252489 -0.420804 1.096840 0.142961 -1.006929 0.247372 -1.280992 
pear 1.666725 0.690877 0.983773 0.078660 -0.667653 1.490658 0.100069 1.102399 0.419559 -2.671636 
fruit 0.323423 -1.234871 0.237752 -1.275045 -1.308706 1.694826 1.205322 0.918839 -0.401713 -1.434995 
blueberry -0.080474 -2.847707 0.947090 -0.483180 -1.525851 1.340220 1.988487 1.089949 -0.273671 -0.974725 
clam 0.395755 2.432990 -0.592246 0.317041 2.762454 -1.024417 -1.381670 3.601680 1.107641 0.756462 
smoke -1.327015 -0.050924 0.163705 0.837097 0.501950 -0.520535 -2.468173 -0.776190 0.788585 -0.349390 
tuna 0.167068 1.325632 2.042901 1.032564 0.714825 1.254295 -0.252019 0.457564 -0.393707 1.230934 
kidney_bean -0.961080 0.151463 -0.689533 1.144118 2.649229 -0.017291 -1.938140 -2.065822 -2.005803 0.744710 
peanut 1.097184 0.873819 -0.045512 -1.298665 1.784614 2.657460 1.367827 -0.515856 -0.537666 0.727122 
asparagus -0.813198 0.782663 1.442132 0.614751 0.400937 -0.752304 0.184080 1.369259 -0.432093 -0.259409 
salmon 0.133194 1.286459 0.625093 0.629040 -0.254118 0.875533 -1.186800 1.394809 -0.382347 0.330464 
leek -1.642514 2.124628 -0.110335 0.047497 0.413359 -2.058138 -0.929606 1.467358 0.416375 -1.824909 
chickpea -0.770144 1.593310 -0.229967 -0.280684 1.019095 0.111911 -0.892165 -0.133246 -3.597241 -0.332335 
blue_cheese -0.557452 -1.241842 1.597584 1.544698 -0.495141 0.047194 -0.931307 -0.108440 0.192208 -0.538154 
brandy -0.671216 -0.929036 -1.956435 0.396405 -2.940712 0.534563 -0.936874 2.589921 0.292818 -1.226778 
artichoke -1.110978 -0.361857 1.242639 1.431918 0.497420 -1.214314 -0.244081 1.636131 -1.048191 0.348679 
horseradish -0.326131 0.304141 0.495796 1.832289 -0.575342 1.314489 -1.817942 -0.364579 1.274560 0.745313 
mango 0.763421 -0.323777 0.485102 -2.375539 0.157505 2.589761 -1.211251 0.693588 -1.742261 0.519742 
date -0.383815 -0.288429 -1.290400 -1.115491 -1.655015 1.129730 1.268040 0.381268 -0.152505 -2.487314 
cardamom -0.474449 0.859975 -1.854479 -2.528341 -0.505190 0.664043 -0.240188 0.911296 -1.812957 -1.876029 
white_bread -1.350405 -0.719735 0.094855 0.979905 -0.068737 -1.046360 -0.328027 0.175255 0.586695 -0.847241 
oyster 1.335058 1.017308 0.695167 -0.593542 3.243861 -0.287415 -1.064668 0.983127 1.407813 -1.407183 
cottage_cheese -1.251289 -0.961860 0.907978 1.784282 0.323916 -0.197616 1.461329 0.071319 -0.418909 1.007085 
grape -0.218344 -1.192971 2.268841 -1.529197 -1.287213 1.715090 -0.239181 -0.233839 -1.265617 -1.260035 
brown_rice -1.139131 0.712000 0.428040 -0.814689 1.564924 -0.623551 0.011319 -1.006394 -1.125860 -1.145957 
cauliflower -1.726744 2.036456 1.265660 0.043196 0.739925 -0.580651 0.435994 -0.269506 -1.214329 -0.138806 
cured_pork -1.353142 -1.738831 0.982173 2.658176 1.473837 -2.690498 -0.303664 0.672015 -0.348490 -1.020284 
egg_noodle -1.410694 0.113833 0.443089 0.461179 1.706919 -0.713182 0.013033 -0.752800 0.342594 0.394279 
beer -0.602641 -0.237356 -1.730158 0.798762 0.876750 0.244242 -1.800480 -0.591184 0.450965 0.243766 
hazelnut -0.262135 -0.767109 -0.102121 0.236489 -1.329428 0.195770 0.918153 1.224935 1.198538 -1.874994 
mandarin 0.542203 -0.816502 2.315051 -1.093960 -1.127596 2.688822 0.416665 -0.076629 -0.384458 -0.529557 
romano_cheese -1.112013 -0.928216 0.652704 1.212841 1.173503 -1.837437 -0.000669 1.618483 -0.763926 -0.089106 
plum -0.020112 -0.334743 -0.973379 -0.861252 -1.046415 0.507616 -0.602166 0.352864 -0.507689 -2.768285 
pimento -1.454906 0.046727 0.977044 0.502910 0.778422 -0.128265 -0.661961 0.006775 -0.828715 1.347473 
smoked_sausage -1.979985 0.907095 -0.885543 1.203512 1.302179 -0.875993 -2.307496 -1.799222 0.676842 -0.237808 
scallop -0.282687 0.549255 0.876799 -0.774495 1.477050 -1.082105 -1.756518 3.698640 0.392388 0.775980 
goat_cheese -0.808878 -0.915479 1.550798 1.461818 -0.894581 -0.794137 -0.665341 0.917944 -0.648725 -1.349355 
lentil -1.314093 1.858004 -0.954110 -0.357955 1.501704 -0.726149 -0.817377 -0.621164 -2.343820 -0.945524 
currant -0.200134 -0.359348 -1.118389 -0.535316 -1.706891 0.457666 -0.189102 1.012316 -0.521508 -2.627426 
saffron -1.338382 1.565914 -0.838378 -1.964689 0.707925 -1.488434 -1.064397 2.454526 -1.689817 -1.059648 
barley 0.078460 2.058960 0.499802 0.465518 1.820757 -0.109017 0.595884 -1.081019 -0.325578 -2.119750 
caraway -2.953985 1.155385 0.137842 0.189866 -1.721616 0.286229 -1.940558 -3.182012 0.001374 -1.870596 
beet -0.151530 1.155766 1.282856 1.459726 -1.643011 0.793514 -2.143383 -0.180255 -0.470632 -2.019928 
squid 2.140368 2.225837 0.725619 0.009434 3.691523 0.082986 -0.402954 3.369700 0.973072 0.069560 
corn_flake -1.006483 0.487070 -0.615736 0.186761 0.299432 0.623151 1.284563 -0.555113 -0.024921 0.317348 
anise 0.254374 -0.070181 -0.591870 -0.619973 -0.270531 0.196940 0.453901 1.455272 0.139561 -1.760425 
roasted_beef -0.153120 0.477484 -0.571920 2.553209 0.736820 -0.100076 -1.508468 -0.641054 0.417496 -0.660882 
pistachio -0.385800 -0.022200 0.190488 -0.898823 -1.671453 0.823428 0.642475 1.265960 -0.357077 -1.638349 
peanut_oil 1.699837 1.152591 0.478247 -1.540750 3.161730 1.372359 -0.612854 0.226616 -0.572332 -0.432826 
cereal 0.083021 -0.385478 -0.572988 0.425164 0.801928 1.411856 3.012963 -1.873184 -0.926639 -1.380446 
cashew -0.110492 0.923469 1.197908 -2.035059 0.829495 1.163247 0.570210 -0.928110 -1.116272 -1.334195 
veal -0.726766 -0.359941 -0.369494 1.276363 0.689452 -2.088569 -1.448732 1.368582 0.661801 -2.028024 
seaweed 2.359097 2.667003 2.622182 0.545276 2.336340 2.457546 0.080602 1.454295 1.934873 0.786612 
turnip -2.106333 3.488874 -0.861183 0.238800 -0.279646 -1.652604 -1.384951 -0.269296 -0.120608 -3.219180 
sauerkraut -2.831357 -0.218192 -0.403734 1.272873 -0.222702 -0.105391 -2.125451 -3.061716 1.939963 0.039571 
berry -0.601640 -2.888300 0.973428 0.049438 -2.317376 1.283491 0.940651 -0.067346 0.153374 -1.615485 
kelp 2.407475 2.734413 1.802805 0.005690 4.092387 1.126537 -0.017761 1.624457 3.650260 -0.396689 
tomato_juice -0.568647 0.549703 -0.958625 1.477805 1.728586 -0.035607 -1.875591 -0.754742 -0.293811 0.576540 
cod -0.486258 1.886256 -0.652293 -0.308578 1.363422 -0.325118 -1.281099 1.739558 -0.129557 0.574896 
provolone_cheese -1.448452 -2.385139 1.690128 2.576728 1.407413 -1.917723 -0.719473 0.422806 0.508848 0.494804 
mussel 0.409069 1.890809 -0.401465 -0.811080 2.524658 -1.264050 -2.107821 4.601207 0.078951 0.490950 
blackberry -0.443262 -3.147327 0.549519 -0.202456 -1.783304 0.912272 1.913399 1.317770 0.168309 -1.003028 
roasted_peanut 1.370928 0.287950 -0.062614 -2.339761 2.261548 2.614659 0.913317 -0.671687 -1.604143 0.174353 
rhubarb -0.387506 -1.889892 0.002798 -0.363930 -1.141262 0.864523 1.922849 0.873690 0.908306 -1.036069 
chinese_cabbage 2.959754 1.696504 1.614060 -0.447534 4.751844 0.619916 -0.817689 1.874893 2.460924 -1.086215 
corn_grit -1.194404 -0.878957 -0.041050 0.011037 1.919702 -0.456520 -1.869240 -0.613891 -0.403894 0.843084 
chicory 0.650073 0.433522 3.117520 1.761751 -0.660679 -0.194431 -1.672994 1.736627 0.040707 -2.206276 
bourbon_whiskey 0.247681 -2.081150 -3.086107 0.317442 -0.804151 1.764381 -1.235978 -0.330482 2.167025 -0.798870 
citrus 1.164383 -0.653646 -0.384948 -1.142786 -1.581550 1.691705 -0.302882 2.293916 0.824125 -2.149311 
lima_bean -1.327092 1.286380 -1.159358 1.309410 1.411241 -0.204789 -2.138021 -1.752623 -1.275242 -0.117263 
lovage 0.293307 1.883390 -4.214729 2.455580 0.498865 0.648427 -2.200916 3.066267 1.093948 2.350084 
melon 0.788796 -2.077766 2.021214 -2.231420 -0.933424 2.522918 -0.659419 1.353838 -2.096509 -0.420544 
parsnip -1.826172 3.076030 -1.294897 0.571889 -0.255411 -1.477929 -1.040429 0.001444 -0.417758 -2.778975 
fig -0.169768 -1.240663 -0.593438 0.682636 -1.926425 -0.170746 0.245322 1.483549 -0.465628 -2.924327 
lemongrass 1.459645 0.927223 0.122631 -4.059341 3.239946 1.621746 -1.201894 1.877842 -1.944041 0.535079 
whiskey -0.457661 -1.402239 -2.506135 -0.222083 -1.893864 2.398337 -1.975704 -0.236797 1.814848 0.125479 
watercress 0.523390 -0.019131 2.192674 0.194311 -0.376946 0.756107 -2.164050 1.092345 -0.095100 -1.038354 
tequila 1.214745 -2.064863 -0.654594 -0.976154 0.096278 2.075157 -1.926722 1.842109 -0.700278 0.719653 
rye_flour -3.162229 -0.492942 -0.231839 0.724328 -2.203866 0.737197 -0.549425 -2.872922 0.475025 -0.366092 
peppermint -0.733864 -0.292232 0.005281 0.129230 -1.180537 1.650583 1.481210 0.929753 0.955336 1.098945 
savory -1.015528 0.309935 -0.908664 1.158142 0.751820 -1.824613 -1.233799 0.539663 -0.537626 -2.063113 
lobster -0.309894 0.299973 -0.042033 -0.941447 0.827308 -0.952584 -1.770984 3.851297 0.429662 0.405603 
roasted_pork -0.328565 -0.459688 -1.589274 0.880825 -0.035867 0.301207 -2.058162 -1.158152 -0.336735 -1.651031 
mace -0.548436 0.148268 -1.653534 -1.511565 -0.735211 0.247842 -0.092068 0.746445 0.665264 -2.230137 
endive -0.418147 -0.259204 2.649592 1.303408 -0.420982 -1.056420 -1.922619 1.306510 -0.446993 -2.101237 
brassica 0.462954 2.066851 1.581266 0.284660 1.317808 -0.146481 -2.067059 0.295421 0.514676 -2.135564 
grapefruit 1.118798 -1.306424 1.431123 -0.800929 -1.202194 2.422682 -1.304518 0.740670 -0.565785 -0.896582 
enokidake 2.683092 2.915870 1.194670 0.792536 4.505144 0.759327 0.385431 1.927825 3.913005 -0.777101 
porcini -1.164608 0.298389 0.075901 1.158724 0.956112 -2.772779 -0.534129 1.629031 0.471097 -2.234696 
kiwi 0.317927 -2.027520 2.432584 -2.324580 -1.068671 2.387800 0.688709 0.950884 -0.488077 -0.353149 
wasabi 1.957954 2.444937 3.470547 1.186786 1.447198 2.929052 -0.245492 1.188335 2.316865 1.554557 
watermelon 0.955401 -1.617977 1.940593 -1.472001 -1.031274 2.420732 -0.874972 1.738696 -2.404494 -0.254592 
lime_peel_oil 1.181544 -1.273587 1.102126 -2.215117 0.606370 2.223263 -1.349174 1.810054 -1.962879 0.847094 
okra -0.896790 0.760990 -1.137461 -0.561311 2.010816 -0.324774 -2.192149 -0.273499 -0.517903 0.330433 
macadamia_nut -0.039725 -0.222174 -0.060549 -1.045917 -0.293987 1.976820 1.135168 0.244317 0.247202 0.376595 
smoked_salmon -1.494646 1.124423 1.910987 1.155301 -1.418128 0.294268 -0.880857 1.535373 0.701554 1.106702 
kale -1.295669 1.104888 0.512565 0.402973 1.176179 -1.462458 -1.814303 -0.300523 -0.513955 -1.693255 
popcorn 0.242805 0.194934 -0.648619 0.670532 0.623672 2.065372 1.772358 -0.843687 -1.082869 0.746767 
rye_bread -2.513847 -0.422097 0.982121 2.705940 -1.206420 -0.119727 -1.391025 -1.910659 1.956611 0.323714 
star_anise 1.548247 0.261073 -0.212202 -1.860411 0.580181 1.106623 -1.318311 1.314891 -0.177559 -2.320854 
brussels_sprout -1.351493 1.141755 0.920601 0.811123 -0.252149 -0.665616 -0.187667 -0.053093 -0.018866 -1.212416 
tea 0.552272 -0.728376 -0.484210 -1.406835 -0.717558 1.488813 -0.160832 1.026878 -0.136221 -1.252747 
thai_pepper 1.914027 1.183019 0.116761 -2.880886 3.355231 2.405683 -1.004081 0.747879 -1.588352 0.528592 
champagne_wine -0.118233 -0.655753 1.592574 -0.069584 -1.670095 0.825955 -1.476211 1.341489 0.241347 -0.972879 
anise_seed -0.218753 -0.276041 -0.134153 -1.200689 -0.979761 1.011869 -0.418918 0.139032 -0.599283 -1.713140 
yam -0.823252 1.828362 -2.259603 -1.586721 -0.282426 0.418341 -0.581513 -0.245186 -0.538153 -2.148711 
bitter_orange -0.436319 -3.350668 -0.244249 -1.604185 -1.972683 0.436968 -1.340011 2.839727 1.942795 -1.700266 
wheat_bread -1.032527 -0.174876 0.777883 0.854644 0.186155 0.467358 -0.223295 -0.936126 0.263175 0.410723 
