249 40
</s> 0.010007 0.011049 -0.009576 -0.008195 0.003416 0.007553 0.002352 0.000528 -0.009009 0.005546 -0.010891 0.003124 -0.001878 -0.002393 -0.008289 -0.004705 0.006448 0.007563 0.007423 0.003994 0.003862 -0.009507 -0.010239 0.012424 0.009503 0.007725 -0.001510 0.010039 -0.001237 0.001837 -0.000373 -0.007458 0.003281 -0.003344 -0.009563 0.011885 0.010948 -0.002738 -0.000565 0.001273 
egg -0.013994 0.256222 0.178922 -0.060515 0.569713 0.205473 -0.119478 -0.513008 0.887382 -0.282309 -0.121857 0.037452 0.139636 0.264986 0.380760 0.516480 0.242454 0.402734 -0.361900 -0.040748 -0.105340 -0.505290 0.384249 0.225788 0.037321 0.874721 0.170587 -0.276889 0.140870 -0.122101 0.043123 0.173904 0.774979 -0.078632 0.145893 0.082194 0.253498 -0.126695 -0.109150 -0.603805 
butter 0.332104 -0.002532 0.743677 0.310239 0.255596 0.619551 0.230291 0.410904 0.564719 0.160352 -0.446154 -0.082927 -0.097373 0.426104 -0.203465 0.173376 -0.304126 0.196103 0.028077 0.140091 -0.128598 -0.139983 0.470678 0.190445 0.747604 0.538719 0.372932 -0.257811 0.138665 -0.036737 -0.118080 0.375669 0.120280 0.166401 0.356053 0.382262 -0.338236 -0.578659 0.283928 -0.006680 
wheat -0.115587 -0.018101 0.226893 0.172414 0.614657 0.047136 -0.169349 0.300713 0.449036 -0.002719 0.130630 -0.074424 -0.079310 -0.348901 0.277129 -0.096247 0.265971 0.256966 -0.312251 0.266826 0.198393 -0.527279 0.157247 -0.863843 0.449488 0.715051 0.240967 -0.260143 -0.040823 0.121401 0.253174 0.233229 -0.005979 -0.246503 -0.069172 0.034830 -0.454840 -0.069277 -0.068955 -0.461689 
onion -0.371630 -0.208124 -0.292516 -0.286670 -0.218430 0.054873 0.218502 0.040223 0.017183 -0.295203 0.347214 0.559064 0.228253 0.277207 0.143044 0.059840 0.054412 0.183321 -0.211760 0.186505 0.300722 0.114721 0.595966 0.071470 0.717104 -0.277957 -0.788127 0.451895 0.366373 0.389153 -0.176948 -0.152291 -0.072357 0.611950 0.005185 0.117284 -0.303728 0.293208 -0.092586 0.749940 
garlic -0.890487 -0.544717 -0.363186 -0.063174 0.036669 -0.015129 0.154407 -0.533930 0.071931 -0.211330 0.142936 -0.177488 0.125897 -0.020682 -0.263614 0.116092 0.011715 0.461149 -0.458454 0.303746 0.574360 0.813047 0.007529 -0.103438 0.327463 -0.108146 -0.792283 0.684842 0.692792 0.061723 -0.203792 -0.377485 0.047528 0.263301 0.055260 0.335978 -0.057864 0.362844 -0.193483 0.193382 
milk 0.511784 0.168182 0.882855 0.196433 0.623095 -0.116981 0.343744 0.004570 0.883785 0.170309 -0.170626 0.227426 0.027337 -0.162899 0.344149 0.135231 -0.316595 0.056639 -0.280400 -0.089309 -0.430715 -0.684237 0.296162 0.177694 0.524104 0.246052 0.494551 -0.229847 0.134908 0.056072 0.180783 0.487294 0.188575 0.442766 0.827088 0.271971 -0.041247 -0.225165 0.498052 -0.430035 
vegetable_oil 0.109715 -0.429214 0.174553 0.008285 0.155670 0.734478 0.489338 -0.054529 0.095501 -0.172092 -0.527452 0.411485 -0.470218 0.227525 -0.117542 0.056804 -0.124328 0.325889 0.208317 0.331434 0.169240 0.244166 -0.058109 0.384593 0.455937 0.028925 -0.215062 0.116104 0.021267 0.544624 -0.116900 0.677077 0.403877 -0.318559 0.068479 -0.025582 -0.126359 -0.188405 -0.248431 0.702671 
cream 0.278347 0.002281 0.198986 -0.031341 0.356314 0.095546 0.017772 0.169200 0.760955 -0.173639 -0.281376 0.098804 -0.342835 0.155691 -0.373676 -0.291666 -0.005431 0.394445 -0.103898 0.280055 0.078261 -0.874169 0.196299 0.263579 0.563905 0.238348 0.043623 -0.609143 0.129160 -0.211843 0.196725 0.271004 0.104384 -0.134619 -0.026855 0.586831 -0.603138 -0.388784 0.140875 -0.107478 
tomato -0.500526 0.568541 -0.226704 0.740025 0.013152 -0.038290 0.124793 -0.119539 -0.089175 -0.506674 0.720804 -0.713994 0.173590 -0.340693 -1.034530 -0.067197 -0.240946 -0.289548 -0.469875 -0.338549 0.551010 0.357544 0.498233 -0.119380 0.272529 -0.533276 -0.785335 0.121800 0.849342 0.541435 -0.060482 -0.060727 -0.170172 1.199910 0.194796 -0.067675 -0.115710 -0.413039 -0.725853 0.056235 
olive_oil -0.219289 0.762206 0.091058 0.030549 0.229573 0.843168 0.452555 0.167211 0.141316 0.680097 -0.401680 0.409633 0.724077 -0.213443 -0.866242 -0.225604 -0.609171 0.440863 0.563481 0.905422 0.563564 1.069679 -0.340238 -0.090643 -0.257829 -0.339382 -0.161369 -0.357702 0.861030 0.654419 -0.044084 0.067956 -0.066672 0.448125 0.076263 0.269344 -0.873834 -0.108171 0.195255 0.749756 
black_pepper -1.182811 -0.234397 0.091155 0.160820 0.225250 -0.065604 0.110915 -0.162426 0.143935 -0.221049 -0.228044 -0.022557 -0.035907 0.284055 -0.680844 0.104639 -0.122237 0.337979 0.310665 -0.046636 0.634303 0.591047 0.346167 0.301811 0.001201 -0.189853 0.009734 0.211055 0.486840 -0.162252 -0.259848 -0.191133 0.025796 0.387065 -0.718432 0.296102 -0.210298 -0.425784 0.010675 -0.206708 
pepper -0.696990 0.048925 -0.446482 0.247702 -0.183167 -0.118213 0.382760 -0.714382 -0.552906 -0.401056 -0.081279 0.371326 0.011874 0.096469 0.013514 0.315808 0.099952 0.020754 0.221935 0.065687 0.455064 0.483715 0.130858 0.253637 0.590289 -0.106452 -0.591955 0.273807 0.435511 -0.122910 0.147178 -0.068401 -0.415847 0.358910 -0.481060 0.423659 -0.001878 -0.463373 0.329168 0.167650 
vanilla 0.440936 0.439906 0.789466 -1.187380 0.320236 0.963315 -0.003626 -0.155707 1.554284 -0.664614 1.107152 -0.505014 0.687203 -0.066668 1.163292 -0.085621 -0.205944 0.469633 -0.293184 -0.401138 -0.314456 -0.901088 -0.165694 0.310735 0.680149 0.883335 1.130817 -0.085559 -0.446874 -0.364427 -0.523781 0.975494 -1.425434 -0.341769 0.423143 0.428763 0.408323 0.402382 0.176696 -0.738369 
cayenne -0.885634 -0.411868 -0.591591 -0.487098 0.352278 -0.020877 0.225436 -0.361677 0.002492 0.119501 0.311856 0.393318 -0.482816 0.270632 -0.293958 -0.079726 -0.097382 0.488512 -0.874060 -0.049963 0.408182 0.373534 0.165441 0.224893 0.364512 -0.487641 -1.121118 0.400396 0.568104 -0.357338 -0.009954 0.041385 -0.478683 -0.225718 0.048703 0.471262 0.162725 0.085484 -0.828724 0.449879 
vinegar -0.763818 0.752781 -0.470349 0.115815 -0.476116 -0.126940 -0.091952 -0.255962 0.395827 0.006575 -0.356175 -0.948794 -0.506109 -0.156105 -0.925549 0.632332 -0.038766 0.028666 -0.554797 0.439261 0.351811 1.033054 0.260015 0.382035 0.664284 0.608240 -0.525446 0.703737 -0.595293 0.716832 -0.869260 -0.303521 0.195479 -0.851883 -0.097721 0.479959 0.198750 0.601599 -0.364299 0.906497 
cane_molasses -0.676962 0.424339 -0.085904 0.151277 -0.000078 0.777374 0.789890 -0.145810 0.129719 0.184491 0.118402 1.151890 -0.025554 -0.968051 0.469411 0.975703 -0.022432 0.255708 -0.558843 0.065369 -0.541209 0.055587 0.371412 -0.283868 0.400154 0.253280 0.917634 0.856540 -0.785354 0.245883 0.083881 0.892523 0.106591 -0.245120 0.373035 -0.660510 0.245345 -0.486234 -0.353278 0.009374 
bell_pepper -0.433278 -0.224587 -0.348896 0.192962 -0.057760 0.044243 0.305557 -0.463685 -0.024432 -0.151683 0.282399 0.282741 -0.207375 0.115376 -0.629727 0.301211 -0.258255 0.184151 0.010994 -0.116876 0.470132 0.536858 0.312081 0.063704 0.152026 -0.222153 -0.643853 0.246360 0.990420 0.178809 -0.134350 -0.242797 -0.028357 0.240645 0.046131 0.432506 0.194383 0.019040 -0.374379 0.291839 
cinnamon -0.321640 0.674457 0.509276 -0.468320 0.090708 0.468299 0.343077 0.560545 0.541833 -0.369145 0.739130 0.414425 1.024775 0.426291 0.085009 0.693277 -0.753577 -0.010632 0.126911 -0.258759 -0.060410 0.521033 0.162706 -0.915777 0.190539 0.979677 0.220237 0.250743 -0.024057 -0.751922 -0.843034 0.647968 -0.701151 -0.811712 0.178764 0.116914 -0.058178 -0.720377 -0.280846 -0.956743 
parsley -0.051039 0.348938 0.469917 -0.348571 0.007711 -0.542738 -0.306702 -0.148222 0.533732 0.037869 -0.167116 0.016858 0.220715 -0.166172 -0.607742 -0.009191 -0.466681 0.369704 0.107086 0.308998 0.782629 0.125430 0.356636 0.172608 -0.067920 -0.049831 0.307722 0.108642 0.874655 0.270780 0.676146 -0.432233 0.556064 0.319574 -0.495534 0.011005 -0.583112 -0.235676 0.012893 0.277360 
chicken -0.582163 -0.266513 -0.162945 0.544253 0.287957 0.490690 -0.564170 -1.014565 -0.590684 -0.109414 -0.052096 0.102933 -0.294860 0.543289 0.263557 0.229451 0.017322 0.714153 0.563195 0.438972 -0.336666 0.472941 0.316774 -0.344629 -0.155488 -0.963120 -0.627525 0.060637 0.557676 0.646268 -0.268820 0.091051 -0.281854 -0.278663 0.107165 0.157535 0.530326 -0.024633 0.638187 -0.150902 
lemon_juice 0.471965 0.510954 -0.503642 0.278082 0.312362 -0.098298 0.032587 0.048619 0.473509 -0.179815 0.037173 0.624670 0.082905 -0.115292 -0.294062 -0.082468 0.139757 0.386905 -0.002373 0.241887 0.634969 0.327727 0.148472 0.322800 -0.671983 0.535098 -0.130461 0.307817 0.329395 0.749217 -0.035673 -0.015830 -0.006830 -0.393933 -0.088687 0.946390 -0.096291 -0.003133 -0.042999 -0.353811 
beef -1.168501 -1.018233 -0.683240 0.000702 -0.025415 -0.074804 -0.301004 -0.520296 0.490561 0.031132 0.028196 -0.345151 0.139586 0.380158 -1.189931 0.453860 0.284935 0.314066 0.033579 0.593267 -0.623730 0.371579 0.259546 -0.141854 0.680909 -0.533248 0.075873 0.293732 -0.163239 0.421709 -0.409062 -0.008241 -0.091614 0.799183 -0.302184 -0.452078 0.212583 0.062288 -0.536431 0.502503 
cocoa 0.146458 0.387803 1.194454 0.161925 -0.254657 0.666180 -0.048689 0.121716 1.386622 -0.861721 0.388500 -1.170969 0.023198 -0.195697 0.876456 0.997818 0.611625 -0.047214 -0.407277 -1.329445 -0.095863 -1.220348 -0.171364 0.067867 0.448108 0.837388 0.815858 0.399423 0.180585 -0.368212 -0.036599 0.493676 -2.233451 -0.708720 0.170773 0.249503 -0.025814 0.145161 0.307103 0.196931 
corn 0.261520 -0.486468 -0.169008 0.488200 0.377426 0.321044 0.584550 0.055473 0.240163 -0.890104 0.251146 -0.301727 -0.945368 -0.719288 0.018196 0.693926 0.211287 -0.108580 -0.775354 -0.468607 0.046106 0.261918 0.429868 -0.564158 0.307047 -0.432460 -0.415525 0.347391 0.117392 -0.068181 -0.517424 0.603961 0.098302 0.887898 0.160521 -0.374723 -0.514014 0.118159 -0.510178 0.688042 
bread -0.249101 0.614778 -0.051701 0.369511 0.069194 -0.376317 0.408592 0.199325 0.514845 -0.503073 -0.150245 -0.136707 -0.341663 -0.445213 -0.002982 -0.181432 0.049905 0.206862 -0.068133 0.382440 0.533557 0.406568 0.698181 -0.064163 0.038400 0.204291 0.039818 0.312379 0.354639 0.300375 0.566178 -0.163642 0.227253 0.676481 -0.077608 -0.262899 0.294637 -0.077645 0.356114 0.401818 
scallion -0.996961 -1.014671 -0.046535 -0.341902 0.357133 -0.065170 0.061514 -0.693871 0.139440 0.285815 0.113406 0.219026 0.305308 0.414331 0.178883 -0.292319 0.681017 0.419962 -0.396117 -0.266298 0.570459 0.228465 0.334605 0.230393 -0.128095 -0.317217 -0.864179 0.435857 0.351860 0.412244 0.138603 0.374127 -0.061999 -0.754223 0.417467 0.395798 -0.276569 0.902805 0.231324 0.731188 
mustard 0.510549 -0.191067 0.142800 -0.157201 -0.865871 -0.013562 0.150670 -0.061588 0.719382 -0.893058 -0.215759 0.609412 0.137661 -0.516462 -1.028996 0.639216 -0.353455 -0.135568 0.104453 -0.124050 0.838502 -0.457706 0.963292 0.333529 0.505666 0.009348 -0.016792 1.377464 -0.416933 0.665183 0.007048 0.095899 0.230078 -0.222881 -0.144876 0.097299 0.318628 -0.083752 -0.610930 0.320184 
ginger -0.919167 -0.836176 -0.201939 -1.524742 0.520041 1.196903 0.752837 -0.023966 -0.376845 0.010051 -0.466147 0.076952 -0.466344 1.197677 -0.199514 0.385459 0.077010 0.239425 -0.370099 -0.671901 0.597494 0.319802 0.032746 -0.901521 -0.013652 0.313843 0.012912 1.387227 0.011534 -0.053799 -0.373528 0.076462 -0.095845 -1.048641 0.146570 0.585792 -0.363828 -0.697962 -0.444643 -0.032219 
basil -0.566336 0.681110 0.178293 0.351023 -0.237825 0.248756 0.231504 -0.312220 -0.159694 0.764116 0.210491 -0.585618 0.032597 -0.806493 -0.644708 -0.116179 -0.311516 0.118077 0.724570 0.132005 0.488746 0.997223 0.130700 -0.646415 -0.269811 -0.239677 0.017044 0.197378 1.231276 0.634322 1.032742 -0.168654 0.110763 1.095312 -0.935003 -0.010459 0.059848 0.528029 -0.230881 -0.276275 
celery -0.323452 0.261128 0.293203 0.386283 -0.262241 -1.104938 0.502539 -0.858770 -0.612483 0.512943 0.199357 0.154260 0.032407 0.115669 0.170296 0.412611 -0.957389 0.172133 -0.136396 0.096610 -0.344530 0.454788 1.013906 0.157539 0.631981 -0.407279 0.227385 0.008866 0.283459 1.169216 0.332525 -0.289115 -0.077214 0.168317 -0.429744 -0.033305 -1.259010 -0.683606 0.267288 -0.044305 
carrot -0.457265 -0.899681 0.112996 -0.812184 -0.746553 0.208702 -0.619144 -0.226281 -0.209974 0.066913 0.427127 0.152732 -0.088021 1.096135 0.216711 0.332712 -0.074178 -0.004806 0.557640 0.583401 -0.268247 0.946861 0.419299 0.380514 0.510190 -0.023474 0.327551 0.157843 0.694357 0.711821 -0.063089 -0.324498 -0.054476 0.335787 -0.155616 -0.006050 -1.260641 -0.182989 -0.273254 0.739750 
potato -0.477113 0.253419 0.036507 -0.875340 -0.315844 -1.274992 0.350540 -0.275220 0.001118 0.143110 0.419384 0.426039 -0.748605 0.745829 0.049085 0.527612 -0.219712 0.282304 0.563168 0.217265 -0.387104 -0.364075 1.120227 0.094112 -0.412328 0.145520 -0.306040 0.360523 0.592402 0.042769 0.162340 -0.162803 -0.154741 1.077285 0.081948 -0.375206 -1.069859 -0.355612 0.008828 0.144074 
chicken_broth -0.402512 0.334422 0.949300 -0.287330 -0.296482 -0.471674 -0.063219 -0.700964 -0.686224 0.333489 0.184603 0.246589 0.013519 0.281634 -0.270588 0.224922 -0.352567 1.517238 0.506309 0.396182 -0.232670 0.985369 0.297499 -0.106819 0.368538 -0.664583 -0.124614 -0.106546 0.515093 -0.066930 -0.242244 -0.804012 -0.560093 0.074856 0.791990 0.700238 -0.383134 -0.919020 0.244006 0.355373 
yeast 0.002419 0.385832 0.525336 -0.160846 0.374233 0.444933 -0.188985 0.931986 0.893511 -0.123824 -0.418607 -0.076417 -0.402237 -0.210819 0.285249 0.042650 0.749011 0.381685 -0.108230 0.224626 -0.116033 -0.256303 0.361736 0.577712 0.305792 0.660317 0.400066 0.129111 0.635192 -0.212955 0.252248 0.359502 -0.047536 0.423968 -0.152252 -0.391119 0.935906 -0.134771 0.202563 -0.006526 
rice -0.366778 -1.157554 0.027574 -0.880921 -0.016022 0.224324 -0.471106 -0.110244 -0.632659 0.049028 0.300611 0.701910 -0.900517 0.245881 -0.127510 0.131776 0.684590 0.300394 -0.242555 -0.765031 0.284073 0.670322 0.360112 0.314673 -0.014718 0.054995 -0.162810 -0.109374 0.639430 1.086732 -0.337102 -0.244958 -0.110460 -0.423102 0.346164 0.203478 -0.715908 -0.097991 -0.167142 0.357468 
mushroom -0.603963 -0.481893 0.746199 -0.517705 -0.481827 -0.330031 -0.197556 -1.081176 -0.007576 0.636605 -0.268035 -0.545687 -0.469123 -0.027702 -0.275747 0.017720 -0.147024 0.292792 0.540507 -0.311908 -0.244363 0.206110 0.722537 -0.176600 0.489115 -0.448568 -0.086509 0.357944 0.558291 0.217310 0.875419 -0.645846 -0.018145 0.654810 -0.150169 0.115395 -0.020211 -0.294549 0.600593 -0.260662 
cheese 0.136080 0.370149 0.134024 0.313496 0.647817 -0.251954 0.685211 -0.317269 0.870762 0.126192 -0.180881 -0.519668 -0.168292 -0.482861 -0.104712 0.063556 0.291997 0.376592 0.461972 0.120078 0.090512 -0.053910 -0.040050 -0.538946 -0.115095 -0.079216 -1.211849 -0.658358 0.496509 -0.424329 0.431820 -0.272347 0.025931 0.907647 0.511272 0.403586 0.253571 0.184124 0.228235 0.110837 
soy_sauce -0.844252 -1.483194 0.433614 -1.038339 0.123013 0.484216 0.246893 -0.022479 -0.316127 -0.226516 0.178733 -0.363031 -0.266893 0.734505 -0.287088 0.050209 0.229471 -0.584754 -0.242239 -1.747735 0.925856 1.382854 0.557081 0.528148 0.296538 -0.701776 -0.635487 0.859935 -0.830380 1.771894 0.006277 0.328919 0.306225 -1.290163 1.577623 0.684829 -0.005800 0.183347 -0.066874 0.106422 
cumin 0.833588 -0.132218 -0.677319 -0.648618 1.129469 0.102222 0.316694 -1.061438 -1.652716 -0.135153 0.069785 0.183811 0.574303 -0.144711 0.289189 1.293041 -0.598929 0.082849 -0.597148 0.347209 -0.027032 0.809984 0.287610 0.913959 -0.130833 -0.619836 -1.211177 1.184480 0.646329 -0.267142 0.380691 0.460575 -1.555580 0.371095 0.453932 0.486401 -0.332183 -0.877020 -1.503689 0.218505 
oregano -0.489525 0.288973 0.285827 0.579792 -0.215666 -0.388822 0.911554 -0.085263 0.128033 0.148148 0.233593 -0.343318 0.781135 -0.362084 -0.571996 -0.073045 -0.391439 -0.716549 0.014240 -0.364978 0.060715 1.037593 -0.038574 -0.448813 0.289441 -0.821780 -0.984992 0.463380 1.393635 0.463504 0.051091 0.153485 -0.100470 1.148303 -0.431226 -0.349786 0.495796 0.267311 0.050526 0.369345 
parmesan_cheese 0.145820 0.245412 0.678672 0.267185 0.172880 -0.016859 0.056442 -0.646625 -0.276458 0.870755 0.351846 -0.367058 0.591170 -0.863441 -0.160116 -0.324717 0.328251 0.269376 1.389507 -0.240785 0.034427 0.136174 0.635501 -0.312366 -0.220739 -0.001344 -0.339692 -0.459491 0.513495 0.315651 0.841815 -0.269228 0.305488 1.493056 -0.293134 0.693703 0.025213 0.551969 0.743302 0.248463 
macaroni -0.174059 0.684909 -0.273108 -0.723624 -0.754646 -0.460338 0.381550 -0.117503 -0.109311 0.977217 0.457238 0.107036 -0.798781 -0.128704 -0.365561 -0.358266 0.068373 -0.274308 0.612329 -0.066772 0.610835 0.577420 0.811422 -0.448621 -0.597576 0.151758 -0.270647 -0.533902 1.378144 0.470519 1.193366 -0.129753 0.104188 1.217264 0.148132 0.111255 0.162919 0.561529 0.547975 0.327727 
thyme -0.653602 0.775870 0.342445 -0.209270 0.268671 -0.361587 -0.328465 0.334664 0.438446 0.205446 0.177530 0.091854 0.309370 0.211663 -0.479838 0.134108 -0.559724 0.445814 0.003464 0.141426 0.399556 0.880094 0.761362 0.061512 0.153350 -0.714690 0.542608 -0.112434 0.477082 0.682212 -0.409228 -1.538123 -0.003905 1.718143 -0.237605 0.010050 -1.052872 -0.057776 1.049714 -0.573273 
cheddar_cheese -0.199147 0.331831 0.712354 0.340093 -0.210710 -0.012463 0.717195 -1.096801 0.482613 0.009303 0.308696 0.113884 -0.536865 -0.201375 0.703542 0.312030 -0.010854 -0.104879 0.698233 0.306384 -0.429084 -0.412091 0.064735 0.184315 0.657551 -0.528770 -1.909450 -0.198078 -0.070397 -0.423505 0.540785 0.413462 -0.030762 1.244421 0.337232 -0.219052 0.536820 -0.034391 0.036867 0.420268 
lard 0.091321 0.261304 0.377227 -0.203487 0.307041 0.336897 0.127689 0.703255 0.862822 -0.220549 0.449339 -0.052627 -0.372777 -0.443244 0.661239 0.044991 0.071457 0.263093 -0.065288 0.220100 -0.260425 0.050796 -0.011309 0.024967 0.327109 0.717476 0.675971 -0.358052 0.301904 -0.236101 0.285845 0.512664 -0.201313 -0.036724 0.339470 -0.546457 -0.000546 -0.269654 -0.215767 -0.097568 
lemon 0.844193 0.448134 -0.304989 0.105966 0.447478 -0.356876 -0.320445 0.178472 0.583735 0.159244 -0.111325 0.274312 0.147388 0.251637 -0.105191 -0.252829 0.022009 0.136290 0.284896 -0.098150 0.503491 0.454266 -0.019596 0.242730 0.015411 0.043457 0.565106 0.679133 0.852918 0.606320 -0.066366 0.423459 0.062510 -0.210677 -0.050437 0.523118 -0.354138 -0.352135 -0.269037 -0.234046 
cream_cheese 0.497523 0.507397 -0.312305 0.355773 0.492675 0.003056 0.764259 -0.401985 0.735989 0.336260 0.203874 0.008070 -0.492402 -0.408862 -0.269922 0.132210 -0.221631 0.081740 0.371759 -0.267257 -0.516051 -0.793944 -0.194686 0.030216 0.420479 0.794382 0.409940 -0.400909 0.186006 0.153740 0.745386 0.856884 0.665830 -0.201326 -0.092369 0.509245 0.329117 -0.010496 -0.063582 -0.192938 
walnut 0.702892 0.415499 -0.062185 -0.543963 0.101072 0.460477 0.008439 0.052985 0.612069 -0.366608 0.545339 -0.249000 0.716531 0.024498 0.181165 -0.442254 0.491419 0.510096 -0.163383 0.188336 0.304857 -0.044629 0.375193 -0.358992 -0.086746 1.432098 0.426975 -1.174665 -0.394822 0.418095 -0.881276 0.628133 -0.668642 -0.111158 -0.369614 -0.816111 -0.052418 -0.039295 0.078080 -1.081776 
green_bell_pepper -0.834047 0.439065 -0.359194 0.283662 -0.125275 -0.619496 0.481493 -0.483452 -0.378709 0.386510 0.619761 -0.046235 -0.425220 -0.468390 0.054332 0.010041 -0.478390 -0.085499 -0.274096 -0.127966 0.402819 0.237377 0.399252 -0.025175 1.154206 -0.631071 -1.253517 0.042762 0.415036 0.552042 0.039538 -0.171855 -0.059288 0.411104 -0.550825 -0.360312 -0.102933 -0.221262 -0.329239 0.200925 
starch -0.015618 -0.869627 -0.356709 -0.625311 0.111226 0.094596 -0.100968 -0.038388 0.549693 0.175560 -0.652625 0.424747 -0.398450 0.283184 0.287591 -0.302487 0.368526 -0.205440 -0.575743 -0.610989 -0.065096 0.540389 0.372137 -0.421064 0.595964 0.375243 0.468278 0.318321 -0.292240 -0.075321 -0.073506 -0.326967 0.161269 -0.685870 0.460678 0.454845 -0.572907 -0.423414 0.202344 -0.486032 
nutmeg -0.122191 0.282021 0.388545 -0.343389 0.033468 0.336128 0.380100 1.004918 -0.098230 -0.078526 0.694644 0.408286 0.648673 1.030110 -0.326853 0.282456 0.070815 0.485831 -0.648290 0.608736 -0.363245 0.470930 0.437368 -0.405999 0.318434 0.792663 0.933596 -0.420427 -0.129364 -0.266505 -0.025454 1.138677 -0.451847 0.504896 0.351378 0.499489 -0.064288 -0.454542 0.255977 -1.159230 
honey -0.492607 -0.025397 -0.169666 -0.024590 0.467944 1.194080 -0.271088 0.128080 0.021765 -0.183617 -0.435052 0.160501 -0.362649 -0.343445 0.052585 0.079890 0.819930 -0.374777 -0.000991 0.180865 0.488989 0.371003 0.130336 -0.693039 -0.032782 0.280422 0.291971 0.618350 0.037005 0.840872 -0.716040 0.174898 -0.335182 -0.959440 0.097313 0.129497 0.396147 -0.512377 -0.069442 -0.075087 
apple 0.309608 0.406873 0.010281 -0.635758 0.079679 0.227561 0.576545 -0.255095 -0.445248 -0.421191 0.065443 -0.193557 0.771280 0.786394 0.298446 0.067671 0.231043 -0.294082 -0.061758 0.307930 -0.102098 0.674270 0.824211 -0.508861 0.813448 0.769154 0.676943 0.249284 -0.343577 0.233949 -0.605453 0.726823 -0.153867 -0.721578 -0.613328 -0.214266 0.436680 -0.766974 0.326010 -0.310092 
almond 1.271494 -0.221077 -0.034350 -0.307046 0.043873 0.369975 -0.504111 -0.135540 0.393589 -0.259978 -0.038821 0.495587 0.442050 0.122031 -0.036849 -0.073343 0.295048 0.216754 0.351536 -0.088515 0.141732 -0.007407 0.212343 -0.188526 0.125353 0.899473 0.271957 -0.345997 0.019264 0.669431 -0.781428 0.561224 -0.689925 -0.702145 -0.020020 0.172242 0.229710 -0.776955 0.184418 -0.470371 
cilantro -0.059349 -0.443911 -0.388062 -0.341978 0.936815 0.246594 0.835010 -0.441187 -0.723425 -0.452068 0.545508 0.305757 -0.781346 -0.080814 -0.400469 0.175812 -0.348473 0.538817 -1.075807 -0.300430 0.588309 0.669700 -0.399899 0.511826 -0.300050 -1.409315 -1.130601 0.549070 1.017872 0.155832 0.160402 0.265747 -1.375891 -0.605113 0.378055 0.705691 -0.131201 -0.043015 -0.617424 0.038423 
pecan 0.137970 0.669748 -0.066084 -0.548860 0.309236 0.546780 0.339391 0.405930 0.737433 -0.331827 0.352920 -0.417954 0.221038 0.013655 0.540550 -0.464206 -0.251073 0.417297 -0.234697 -0.268341 -0.125047 -0.425211 0.563322 -0.158068 0.229683 0.999837 0.363107 -0.671940 -0.744393 0.029045 -0.729698 0.528491 -0.912758 0.153551 -0.032586 -0.330103 0.115789 -0.453730 0.189158 -1.255850 
white_wine 0.596727 0.020669 -0.426426 -0.416043 0.350600 -0.152918 -0.029235 -0.312513 0.113769 0.433826 0.615804 0.699610 0.160917 -0.405091 -0.394481 -0.457737 0.129073 0.731749 0.714131 -0.131803 0.967467 0.616579 0.344256 0.197703 -0.270468 0.117274 0.420587 0.206588 0.575327 0.520566 0.643153 -0.759789 0.529470 0.227915 -0.297160 0.141465 -0.743692 -0.290305 0.411167 -0.025604 
bacon -0.204516 -0.290380 0.082597 0.351008 0.011457 -0.398583 0.137013 -0.974928 0.499945 -0.162010 0.083481 -0.180170 -0.013570 -0.295379 -0.279024 -0.052562 0.095152 -0.291645 0.398599 1.002338 0.032593 0.208695 0.917835 -0.013379 0.460426 -0.399419 -0.168400 -0.117530 -0.401108 0.003301 -0.317177 0.276386 0.019820 0.884422 0.244875 -0.293200 -0.592957 0.010835 0.383026 0.449715 
pork -1.039095 -0.893056 -0.450460 -0.149028 0.196059 0.320860 -0.108317 -0.029081 0.219455 -0.389557 0.715815 -0.441998 -0.305437 0.268751 -0.764601 0.567656 0.046008 0.473206 0.225705 0.333747 -0.828978 0.912445 0.644566 -0.596968 0.606235 -1.107758 0.495273 0.766484 -0.533775 0.467850 -0.624784 0.090025 0.446021 -0.151014 0.141386 -0.172145 0.059723 -0.022353 -0.181081 0.235927 
raisin 0.074199 0.499199 0.050028 -0.239140 0.164978 0.435557 0.267055 0.144985 -0.223226 0.227476 0.745039 0.168438 0.886993 0.487196 0.358289 0.865774 0.409912 0.726581 0.063877 0.526980 -0.401650 -0.009320 0.288207 -0.300277 0.342273 0.845318 0.242061 -0.923149 -0.020040 0.547244 -0.406799 0.639883 -0.953425 -0.976582 -0.344677 -0.030826 0.291222 -1.099292 -0.325037 -0.705848 
bean -0.944230 -0.423456 -0.101855 0.222740 -0.226444 -0.179450 0.597103 -0.477848 -0.283756 -0.026877 0.052152 0.270451 -0.007614 -0.311178 -0.712273 0.717345 0.639085 0.563239 -0.273704 0.370370 0.002829 0.256737 0.252717 0.171407 0.545256 -0.774397 -0.510983 -0.261622 0.431615 0.212429 -0.595851 -0.509702 -0.616645 -0.045639 0.457059 -0.541469 -0.353644 -0.120917 -0.246298 -0.140156 
rosemary -0.513869 0.404500 0.364608 -0.177875 -0.363819 -0.739990 -0.024488 -0.178155 -0.244250 0.369152 -0.043329 -0.223200 0.562281 -0.663103 -0.244783 -0.752405 -0.812053 0.999797 0.707905 0.480799 -0.130680 1.243636 0.688657 -0.410256 1.068802 -0.138726 0.986059 -0.277945 1.192263 0.484657 -0.343335 -1.231247 -0.170834 1.712164 -0.547102 0.382156 0.530166 -0.138638 0.180155 -0.034758 
fish -0.275731 -0.502498 0.089730 -0.340947 0.492941 0.390073 0.196671 -0.958228 -0.023449 0.430852 0.682434 -0.610122 -0.849648 0.554318 -0.749569 -0.432547 0.205145 1.068829 0.632354 -0.397857 0.925635 0.688768 -0.956650 0.587968 -0.343881 -0.289977 -0.393098 1.220376 0.699318 0.445936 -0.226617 0.431378 0.435697 -0.963804 0.220809 -0.124746 -0.423771 0.213705 -0.501453 -0.176019 
cucumber -0.035700 -0.375640 0.435846 0.002666 0.581410 0.293752 0.836038 -0.989865 0.610129 -1.138650 -0.354119 0.712417 0.028615 -0.273944 -0.220707 0.587348 0.569523 1.082392 -0.068490 -0.228977 -0.074237 -0.355380 -0.082462 1.105851 -0.998453 -0.013618 0.137998 0.506953 0.230138 0.890490 -0.061110 0.338675 0.938381 -1.090433 -1.027483 -0.352761 -0.055191 1.679445 -0.702815 -0.191188 
olive -0.216257 0.032255 0.412383 0.542071 -0.189034 -0.185159 0.744836 -0.374998 0.859265 0.462925 0.232614 0.286269 0.091308 -0.977979 -0.463674 -0.312357 -0.616262 -0.004940 0.182041 0.516668 0.642012 0.680876 -0.247024 0.052412 -0.445292 -0.731405 -0.761674 -0.067523 1.298479 0.706856 0.326293 0.327430 -0.010808 0.330607 -1.341376 -0.021029 0.055217 0.364038 0.179866 -0.020736 
coconut 0.084729 -0.010902 0.443231 -0.382098 -0.535990 0.827652 0.200382 -0.201609 -0.276206 -0.628792 -0.304992 0.557622 -0.104335 0.720161 0.457775 0.329966 -1.252373 1.176357 -0.569876 -1.134997 -0.042547 -0.473545 -0.290735 -0.358227 0.262031 0.569147 -0.535783 0.329473 -0.386317 0.424082 0.279779 0.775177 -2.047309 -1.610201 -0.290261 0.398529 0.189804 -0.402251 0.221290 -0.088868 
orange 0.794506 0.736454 -0.194303 -0.402415 0.471564 0.513222 -0.099840 0.521572 0.188610 0.253542 -0.574200 0.039129 0.046974 0.628272 -0.339506 -0.245586 0.962672 -0.110140 0.085014 -0.299664 0.828087 0.648479 0.171623 -0.485844 0.647346 -0.528695 1.128733 -0.413500 -0.204414 0.549461 -0.292463 0.675908 -0.948903 -0.777140 -0.351099 0.123023 -0.361169 -0.532844 -0.248647 -0.826481 
tamarind -0.569061 -0.583446 -0.644123 0.849993 -0.241975 0.591423 0.391652 0.173704 -0.171729 -0.685305 1.000128 0.002323 -0.612681 -0.996961 -1.011156 0.160965 -0.822499 -0.255443 -0.111936 -0.628854 0.229992 0.845418 1.040029 1.188398 1.011133 -0.074208 -0.586237 1.544771 -1.040809 -0.356887 -0.947409 0.207162 0.355331 0.924041 -1.015910 0.030142 -0.159768 -0.500171 -0.366968 -0.075889 
vegetable -1.184854 -1.165285 0.265116 -0.810794 0.051760 -0.268215 0.052634 -0.205794 0.069017 0.263930 -0.440883 0.102288 0.402882 0.407079 0.034455 0.483138 0.426682 0.174937 0.522561 -0.085149 -0.043713 0.433775 -0.006920 0.416883 0.042866 0.421108 -0.140103 -0.084578 0.408951 0.461249 -0.513422 0.171582 -0.172271 -0.152341 0.504225 0.260021 -0.628917 -0.032178 -0.193869 0.442478 
orange_juice 0.381703 1.444106 -0.967650 -0.296074 0.268900 0.933264 0.088631 -0.338582 0.139766 0.105343 -0.506475 0.553451 0.200378 0.906390 0.112173 0.765882 0.195381 0.298853 0.353168 -0.873886 0.614725 0.714378 0.163450 -1.136577 0.285795 0.431650 0.562369 0.207191 -0.675692 0.415216 -0.862903 -0.043870 -0.358140 -0.722628 0.180757 0.605595 0.325398 0.064529 -0.152962 -0.292325 
buttermilk 0.467319 0.525718 0.662398 0.116290 0.473341 -0.044664 -0.093503 0.363548 0.755872 0.028697 0.370687 0.157257 -0.080816 -0.033781 0.004321 0.387321 0.400152 -0.143770 -0.197895 0.165592 -0.677882 -0.505565 0.486721 0.598079 -0.101939 0.514428 0.152889 -0.195787 0.375508 -0.105055 0.421728 0.564177 -0.034429 -0.157134 -0.185954 0.205100 0.135426 -0.099562 -0.628889 -0.554297 
pineapple 0.491099 0.918379 -0.981188 -0.162300 -0.160614 0.904120 0.424419 -0.572225 0.120244 0.587095 -0.372992 0.628991 -0.599795 0.508755 0.560607 -0.351722 0.308446 -0.503684 -0.104861 -1.387517 -0.240385 -0.140935 0.714686 0.485824 0.956746 -0.028625 0.841996 0.105496 -0.015572 0.658019 -0.721497 0.537407 -0.669280 -0.964012 -0.403109 0.098827 -0.191298 0.082996 0.356981 -0.352778 
shrimp -0.737490 0.077072 0.060385 -0.432690 0.619113 0.308943 0.213845 -0.832826 0.037478 0.849885 1.710630 -0.274151 -0.984623 0.602231 -0.875331 -0.307090 0.216282 0.334459 0.122987 -1.651375 0.901158 0.351164 -0.528059 0.711773 -0.144735 -0.411825 -0.482723 1.341165 0.954328 0.079530 0.044754 -0.307079 0.839205 -0.572938 0.612405 0.115901 -0.564159 0.238783 0.616458 0.354674 
coriander 1.040512 -0.390055 -0.911073 -2.176150 -0.075268 1.309527 0.410068 -1.032181 -1.459692 -0.738598 0.455823 0.805187 0.382838 0.756705 -0.276787 1.371964 -0.511323 0.462400 -0.431747 0.806337 0.407042 1.085068 -2.245435 0.563764 0.227293 -0.162631 -1.702429 1.020896 0.956406 0.580267 0.190998 -0.005949 -1.430091 -0.067601 0.246423 0.305777 -0.634014 -0.623978 0.543042 -0.881661 
bay -0.703893 0.316185 0.089839 -0.351484 -0.604690 0.101831 0.180205 -0.138403 -0.117033 0.620308 0.852528 1.061601 0.441668 1.261611 -1.472799 0.372336 -0.832266 -0.404657 0.148266 0.152517 0.148002 0.469468 1.500370 0.250069 0.206266 0.186216 0.532679 1.533885 0.531447 -0.482551 -0.273114 -1.097778 -0.599383 1.387428 -0.210036 0.158578 -0.800972 -0.805852 -0.367227 0.578290 
lime_juice -0.258194 0.400876 -0.498549 -0.078723 1.200953 1.203585 -0.252285 -0.905081 0.126573 -0.566347 0.258216 0.658228 -1.208414 0.211009 -0.560000 0.712729 -0.508417 0.453815 -1.270010 -1.457814 0.639756 0.170893 0.200616 -0.171711 -0.728573 -1.658531 -0.803553 0.238540 0.544690 0.749857 0.060753 -0.360165 -1.568608 -1.048728 -0.324969 0.883248 0.099528 0.016675 -0.606226 0.748420 
red_wine 0.539729 0.057174 -1.231259 -0.255144 0.336502 0.511805 0.319403 0.179528 0.220094 -0.119674 0.523515 0.431080 0.646489 -0.432596 -0.553951 0.498321 -0.249133 0.347548 0.795267 0.136524 0.835804 0.834879 0.738262 -0.230868 0.349760 -0.446037 0.570797 -0.304422 -0.136011 1.000595 -0.476812 -1.070585 0.259781 0.778418 -0.196354 -0.050218 -0.687477 0.007311 -0.803485 -0.150963 
gelatin 0.554005 0.899309 -0.530948 -0.666320 0.347841 -0.061011 -0.038600 -1.079313 1.210303 -0.615869 0.472643 0.055196 -0.557275 -0.287060 0.380197 0.054182 0.000476 -0.486557 0.206242 -0.774657 -0.536365 -0.301430 -1.058298 -0.019919 0.993712 1.092477 1.303287 -0.715651 0.061279 0.440044 -0.541496 0.969520 -0.838725 -0.908141 0.663835 0.379784 0.071361 0.342367 0.679126 -0.021406 
pork_sausage -0.543272 1.005160 0.951226 -0.692541 -0.083872 -0.486577 0.099787 -1.270477 0.530474 0.802152 1.120982 -0.059046 -0.091166 -0.012212 -0.698024 -0.276256 -0.028297 -0.228219 -0.036003 0.086984 -0.125032 1.321590 0.196907 -0.306820 1.066406 -1.551630 -0.623545 -0.789839 0.390824 -0.824851 -0.604296 -0.535210 0.218252 1.947824 -0.751406 -0.525686 0.163783 -0.817563 0.879031 0.350713 
sesame_oil -2.253872 -1.115179 0.203026 -1.814897 0.682329 0.960114 -0.284570 -0.882519 -0.171397 1.390995 -0.451943 -0.358212 -0.557727 0.286947 0.881570 -0.953851 0.955939 -0.490575 0.307533 -1.701396 0.138060 1.977409 -0.593752 0.263598 -0.168567 -0.463117 -1.026014 0.599073 -0.908951 1.391142 -0.543629 0.182400 -0.528094 -1.240461 1.385532 0.095485 -1.393446 -0.306867 -0.785051 0.788764 
chive -0.233285 1.160659 0.464667 0.925361 0.146707 0.191117 0.145780 -0.398099 0.855150 -1.273859 -0.062913 -0.533367 0.448682 0.044934 0.513017 -0.415794 -0.429698 0.760736 0.921099 0.597082 1.094980 -1.088746 0.091176 1.295320 -0.141496 0.579333 0.391608 -0.104844 0.115139 0.398692 0.572565 -0.078823 0.699472 -0.663069 0.446234 -0.228831 -1.399919 0.284430 -0.315766 0.192096 
seed -0.108689 0.206604 -0.267552 -0.090895 1.484726 0.166200 0.283217 0.000040 0.492410 -0.356129 0.670808 0.543900 -0.239299 0.264446 -0.072608 0.531243 0.311289 -1.044421 -0.106746 1.414784 0.539009 -0.047542 -0.444673 0.196036 -0.202035 0.199464 -0.049200 0.091147 0.273753 1.624440 -0.678862 -0.176640 -0.288788 -0.525386 -0.953791 -0.069862 -0.170796 -1.359482 -0.200487 0.616763 
mozzarella_cheese -0.630214 0.693030 0.342664 -0.199121 0.285279 -0.099684 0.917102 -0.214528 0.392446 1.341307 0.674115 -0.783923 0.590315 -0.372186 -0.366522 -0.583988 0.368715 -0.392332 1.087009 -0.405050 0.003728 -0.097568 0.753339 -1.128581 0.166125 -0.024269 -0.517656 -0.492519 0.465596 0.297059 1.279319 -0.431077 0.470539 1.900490 -0.463920 -0.078550 1.503768 0.632068 -0.155374 0.318809 
ham 0.044567 0.281160 0.043198 0.146874 0.080167 -0.466310 -0.616588 -1.161918 0.861490 -0.340738 0.153643 -0.327227 -0.209052 -0.450489 -0.246390 -0.418594 0.155042 0.097070 1.247256 0.792500 0.192738 0.139608 0.301807 -0.026732 0.533339 -0.586420 -0.542913 -0.182365 0.084612 -0.065318 -0.352844 0.396766 -0.077948 0.820241 0.705772 -0.164359 0.058161 -0.020072 0.931278 0.501629 
oat 0.494503 0.424973 0.860308 -0.522486 0.276654 1.448723 -0.883273 0.261165 0.338968 -0.183951 1.168090 -0.755720 -0.041795 -0.685241 0.980490 0.504000 0.240251 -0.622923 -0.930902 0.592319 -0.534845 0.626969 0.179834 0.933962 0.616543 1.528320 1.212942 -0.337440 -0.601677 0.479588 -0.209884 0.085421 -0.712885 0.168363 -0.481805 0.120204 -0.081255 0.124449 -0.321580 -0.921305 
turmeric 0.005269 -0.910370 -0.153877 -0.760449 -0.069812 0.812592 -0.940379 -2.641491 -2.361781 -1.669837 0.640430 1.512149 0.584250 1.731634 -0.446444 0.467530 -2.130509 0.002942 -0.184213 0.559342 0.645850 1.164622 -1.089604 -0.697850 0.418921 0.401747 -0.753865 0.108208 0.684061 0.333832 0.745562 1.160029 -1.639250 -0.597778 0.233954 0.754607 -1.085564 -0.430034 -0.230554 0.078691 
nut 0.265670 -0.513191 0.045641 -0.399823 -0.019168 0.072696 -0.027129 -0.026773 -0.315077 0.295125 -0.276325 0.009110 -0.203887 -0.262800 -0.268740 -0.002924 1.330146 0.298463 0.117679 0.200259 0.534001 -0.064508 0.150837 -0.627919 -0.416481 0.935945 0.460875 -0.352599 0.201720 1.232305 -0.696212 -0.351792 -0.373874 0.046560 0.240973 0.301625 0.100031 -0.947858 -0.195560 -0.135439 
shallot 0.195875 -0.225163 -0.078970 -0.432063 0.290153 -0.264385 0.751356 -0.357349 -0.130408 -0.026184 0.070988 -0.221999 0.363598 0.371723 -0.188363 -0.159168 -0.296046 1.567307 0.737821 -0.057614 1.473787 0.591353 0.201712 0.241649 0.055253 -0.608336 0.949495 0.898434 0.398182 -0.033584 -0.097087 -0.426903 -0.472837 0.125824 -0.107899 0.669292 -0.409933 0.410453 0.776958 0.341339 
lettuce 0.461433 -0.058162 -0.508873 -0.980553 0.021611 0.195774 0.739294 -1.126978 0.273770 0.210299 -1.413478 -0.002824 0.275199 -1.041528 -0.321915 0.226104 0.362330 -0.035453 0.054024 0.049789 1.086435 -0.000070 0.755134 0.448118 -0.289917 -0.226087 -0.689250 0.174183 0.069262 0.919046 0.153629 0.090178 -0.263642 -1.209967 -0.781096 -0.071421 0.343732 0.776372 -0.535311 0.636644 
cider 0.292545 0.103317 -1.085332 0.019285 0.427437 0.635843 0.566176 -0.306270 0.072098 -1.130611 1.173465 0.733132 -0.129252 -0.301494 -0.335281 0.943616 0.227202 -0.300754 -0.324985 0.469575 0.433319 1.317024 0.752422 0.159200 0.228296 -0.122546 0.158829 0.080148 -1.172501 0.877076 -0.645433 -0.345615 0.518987 -0.483247 -0.137428 -0.723387 -0.386796 -0.720176 -0.460518 0.312636 
dill 0.432110 0.276550 0.208891 0.233873 0.384363 -0.365700 0.322445 -0.919628 0.712871 -0.535273 -0.267727 0.336569 0.014523 -0.097180 0.575058 -0.060011 -0.428258 -0.517402 0.833620 0.375972 0.758084 0.002524 0.450293 1.123920 -0.373248 0.014512 -0.235392 0.771949 0.010038 0.532976 0.288449 0.406140 0.458824 0.453995 -0.913191 0.074049 -1.361946 0.534649 0.301683 0.413949 
pea -0.747772 -0.775012 0.379493 0.048295 -0.366136 -0.255629 0.133681 -1.121938 -0.611118 0.065841 0.235519 0.490471 -0.270396 -0.046934 0.123490 0.207922 -0.061487 0.464862 0.651544 -0.047645 0.201703 0.186327 0.152835 0.387562 0.111962 -0.357759 -0.716905 -0.560113 0.443606 0.814330 0.426296 -0.096073 -0.271316 -0.534141 -0.268962 0.293553 -0.694370 -0.535653 0.365288 -0.218963 
zucchini -0.557467 0.323777 -0.111646 -0.241220 -0.095529 0.417578 0.088577 0.379483 -0.236864 0.700668 0.151512 0.393114 0.451209 0.406875 -0.544013 0.762394 0.123248 -0.314340 0.321127 0.877267 -0.173085 -0.055005 0.403592 -0.759089 -0.618579 0.356698 -0.513421 -0.181604 1.303288 0.560138 0.356517 -0.258279 -0.441468 0.624110 0.089240 0.246736 -0.688201 0.578248 0.203899 -0.326999 
cherry 0.818536 0.334354 -0.899841 0.267588 -0.623114 0.878595 0.226664 -0.750683 1.584355 -0.101846 0.389488 -0.547772 0.301058 0.127955 0.309670 -0.114356 0.027888 0.555593 0.171007 -0.545790 0.080677 0.137908 -0.316622 -0.354420 0.244173 0.675234 1.107036 -0.600964 -0.582434 0.373249 -0.445191 0.882625 -1.450298 -0.642652 -0.228234 -0.107191 0.297121 -0.255197 -0.183339 -0.724425 
lime -0.059791 0.355708 -0.734867 0.384121 1.127846 0.047932 0.225292 -0.446772 0.221500 -0.138206 -0.510973 0.651919 -1.335257 0.681494 -0.944643 -0.313447 -0.137736 0.511862 -0.976114 -0.940474 0.621292 -0.483549 -0.626099 -0.292678 0.287859 -0.792721 -0.403743 0.470818 0.110116 0.737823 -0.245728 -0.010871 -1.916788 -1.005066 -0.300981 1.049194 -0.300363 0.602197 -0.192681 0.320557 
yogurt 1.302247 0.698393 -0.283098 -0.803196 0.375317 0.246246 0.089254 -0.390667 -0.116309 -0.551693 -0.810950 0.515877 0.568536 0.181446 -0.029408 -0.234235 -0.252014 -0.070472 -0.183397 0.733832 -0.320000 0.471057 -0.011100 0.160745 -0.431809 0.818258 -0.548533 0.258191 0.418772 0.614798 -0.320383 0.752574 -0.343031 -0.559349 -0.364862 0.922798 -0.541871 -0.152487 -0.747091 0.112310 
strawberry 0.967104 1.147662 -0.341753 -0.954637 0.354287 0.624847 0.368419 -0.967170 1.948716 -0.802834 0.167318 -0.468328 0.182707 0.380775 0.169191 -1.638511 0.903698 -0.887800 -0.358066 -0.851300 -1.089122 0.131527 -0.482519 -0.819325 -0.218795 0.380177 1.468311 0.219557 0.281816 0.619836 -0.101684 0.473156 -0.681634 -0.759060 -0.946135 1.007708 -0.389153 0.202169 0.304006 -0.531734 
soybean -1.038103 -2.220737 0.813894 -1.195520 0.656284 0.482963 0.078754 -0.508744 0.736789 0.304977 -0.141716 -0.465456 -0.047516 0.914462 -0.258539 -0.444392 0.519510 -0.647811 -0.357944 -0.417584 -0.200343 1.194029 -1.075378 -0.294702 -0.827416 -0.243615 -0.392312 0.833408 -0.758951 1.829749 -0.403561 0.404591 -0.171575 -0.382447 0.740744 0.369934 -0.673070 -0.335115 -0.619769 -0.082547 
celery_oil -1.727951 0.285466 -1.605338 0.037674 -0.246580 0.834029 0.344076 -0.451509 0.897696 0.710682 0.965931 1.492294 -0.320864 -1.755458 -0.649531 0.057275 -0.430284 -0.186398 0.206245 0.153054 -1.035387 1.044661 1.190152 1.245109 1.245064 -0.594259 -0.835374 1.368691 -1.922678 -0.083021 -0.577761 -0.162161 0.215668 -0.775433 -0.760471 -0.744015 0.978068 -0.245396 -0.858509 0.066700 
peanut_butter 0.236514 -0.909263 1.621667 -1.279802 -0.617873 1.379869 -0.403547 -1.236766 -0.255035 -0.256060 0.196029 -0.568633 -0.930879 -0.856464 0.377840 0.426104 0.463480 -0.273948 -1.284513 -0.479861 -0.886714 -0.251043 -0.530211 0.066080 -0.089740 0.735627 -1.039637 -0.358916 -1.181390 -0.091200 0.075632 -0.243033 -1.437603 -0.975039 -0.014893 0.373263 -0.065720 0.028020 0.725468 -0.032430 
banana 0.619369 0.616615 -0.276125 -0.847042 0.389993 1.312401 0.253123 -0.520659 0.312115 0.117407 0.433860 0.103575 -0.521710 0.361131 0.496022 0.037653 0.068962 -0.567291 0.069179 -0.652807 -0.760638 -0.426122 0.209402 -0.376274 0.080493 0.772487 0.981918 -0.150897 0.079599 0.200868 -0.514973 0.605081 -0.958236 -0.726139 -0.274425 0.401629 0.250325 0.392339 0.194676 -0.386932 
meat -0.555771 -0.140854 -0.404862 -0.222465 -0.006829 -0.103572 0.257539 -0.321047 -0.019044 0.051912 -0.204114 -0.740664 0.313598 0.406287 -0.018086 0.683763 0.577897 0.453610 0.215674 0.039695 -0.266260 0.795097 0.433714 -0.262158 1.105511 -0.934473 0.186572 0.301902 -0.368397 0.138909 -0.433247 -0.179320 0.104052 0.705139 0.042529 -0.222068 0.004540 -0.650699 0.096177 0.286657 
tabasco_pepper -0.653175 -0.052328 -0.699415 0.485851 -0.164203 -0.106200 0.222908 -0.540172 0.359965 -0.094260 0.662804 0.214443 -0.418917 -0.136370 -0.589607 -0.057905 0.160267 -0.040868 -0.566425 0.097006 0.322506 -0.191542 0.374763 0.165623 0.622264 -0.301538 -0.594213 1.750786 -0.383331 -0.098939 -0.239338 0.597575 -0.082419 0.561003 -0.406502 0.139098 0.146318 -0.067479 -0.427160 0.929944 
milk_fat 0.416313 -0.185179 0.170900 0.040636 0.270107 0.097212 0.253334 0.593929 1.383215 -0.170587 -0.341893 -0.135910 0.011669 0.395628 -0.125505 0.046708 0.393756 1.212607 0.540777 0.279109 0.089699 -0.146470 -0.410661 -0.192780 0.015557 0.344968 0.441761 0.233004 0.451771 -1.188753 0.619912 0.492558 -0.295794 0.051813 0.043636 0.327142 -0.620805 -0.470278 0.478969 -0.539325 
cabbage -0.205335 -0.839522 0.186276 -0.797286 -0.063571 -0.522314 0.744834 -0.652048 -0.557518 -0.043773 0.443457 0.453598 -0.500577 0.014874 0.250820 0.151521 0.670771 -0.210186 0.202042 0.528129 -0.454109 0.938157 0.456246 0.734149 0.523982 -0.515470 -0.411032 0.914818 -0.254404 1.023509 -0.376300 -0.070263 -0.310105 -0.950741 -0.524287 -0.451051 -0.724333 0.276670 0.195630 0.044034 
mint 0.778115 0.692162 -0.005285 -0.631060 0.441286 0.399317 -0.126036 0.306802 -0.025762 -0.078225 -0.438267 -0.286080 -0.136126 -0.337590 -0.737935 -0.180261 -0.162898 0.230593 0.221458 -0.029141 0.588484 0.425706 -0.582185 -0.178579 -0.609653 -0.686506 0.176643 0.595008 1.258431 0.830974 -0.825902 0.212848 -0.718418 -0.985253 0.169193 1.026065 -0.929956 0.092347 -1.018593 -0.467485 
fennel -0.255786 0.171001 0.375555 0.849163 0.555825 -0.208172 0.570700 1.099226 -0.373951 0.363075 0.109943 -0.504050 0.739877 0.011966 -1.632360 0.644883 0.543246 0.251686 1.095377 0.271172 0.366428 1.106969 0.177383 -0.697317 1.016679 0.860204 0.626265 0.573412 1.526858 0.562700 1.579790 -1.342505 -1.028327 0.785873 0.000853 -0.496281 -0.609268 0.272847 -0.065556 0.494993 
sage -0.889506 0.665130 1.088993 0.614266 0.177307 -0.456010 -0.551783 -0.365792 -0.146822 0.159600 -0.707983 0.729842 0.745526 0.214480 0.427225 -0.527464 -0.932527 0.269468 1.537569 -0.099408 -0.048962 0.999108 2.039298 -0.455496 0.926325 -0.322824 1.099480 0.330355 0.722705 -0.092346 -0.088334 -1.589330 -0.872197 1.095984 0.060140 -1.166887 0.192683 -0.564799 0.959029 -0.631756 
broccoli -0.207551 -0.598168 0.334587 -0.025855 -0.660093 -0.311309 -0.418395 -1.156550 -0.716646 0.154174 -0.431801 0.236945 -0.551025 -0.137496 -0.039264 0.344424 1.181177 -0.281651 0.440550 -0.163179 -0.354318 -0.156621 0.835810 -0.313137 -0.342534 -0.145212 -0.816733 -0.439925 0.732889 0.838040 0.989926 0.548813 -0.355352 -0.123946 -0.306583 0.329896 0.339644 -0.182320 0.947494 -0.231338 
turkey -0.340849 0.108849 0.122233 0.509422 0.078577 0.032131 0.154459 -0.658444 0.110996 -0.087530 -0.046984 0.191560 -0.114286 0.396184 -0.547697 0.179403 0.240099 0.416645 0.529820 0.608744 -1.135383 0.906236 1.055082 -0.496026 0.147908 -0.912484 -0.131510 0.089768 0.186626 0.670580 -0.685660 -0.616985 -0.281671 0.470171 -0.250569 -0.592682 0.548675 -0.120677 0.783690 0.055387 
fenugreek 0.268649 -0.940839 -2.196703 -1.394476 0.914544 -0.017995 -0.594843 0.175056 -0.651123 -1.114291 -0.075883 -0.545393 0.207226 1.011727 0.312835 -0.591585 -3.048710 2.134852 0.229834 -0.950659 -1.400916 1.290920 1.057853 -0.831901 -0.888314 1.049041 -2.337189 0.930979 0.835958 1.263562 1.353921 0.994218 -1.285448 -0.361100 0.034854 0.729213 0.135197 -1.622540 -0.269952 0.497130 
cranberry 0.379161 1.272805 -0.427190 -0.332234 0.497336 0.169188 0.125396 -0.280957 0.647310 -0.230473 -0.200592 0.022843 0.465149 0.510344 -0.001883 -0.463295 -0.016894 -0.267224 0.363825 0.449275 -0.352344 0.655572 0.880859 -0.851332 0.555022 -0.139782 1.034238 -0.049383 -0.766794 1.011995 -0.345703 0.457643 -0.475362 -0.713326 0.302561 0.123086 0.784162 -0.674704 0.197168 -1.416543 
wine 0.009114 -0.774481 -0.561161 -0.498365 0.915234 0.133636 0.215888 -0.126929 0.002924 -0.083050 0.106897 0.517017 -0.154610 -0.257777 -0.562355 0.027365 0.576618 0.919929 0.195077 -0.589252 -0.189476 0.390258 0.463104 -0.619997 0.236001 -0.583884 0.950444 0.099315 0.130349 0.943169 -0.269626 -1.137837 0.477166 -0.668829 0.718885 0.365617 -0.564228 0.158659 -0.185461 0.081539 
beef_broth -1.584953 -0.432313 -0.081249 -1.437371 -0.143912 -0.992407 0.078103 0.164005 -0.566483 0.333568 0.006055 -0.448602 0.333224 -0.177345 -1.182596 0.218121 -0.166083 0.488907 0.421745 0.270072 -0.480423 0.593345 0.100604 -0.165735 1.257215 -0.319515 0.745478 0.821785 0.162536 0.734798 -0.712512 -0.283835 0.141180 0.772742 0.255332 -0.466754 -0.568710 -0.745943 -0.222250 0.243663 
grape_juice 0.748276 0.204203 -0.688727 0.099656 0.198283 0.295401 0.278830 -0.255836 0.057857 0.741201 -0.386154 -0.632477 0.334801 -0.984683 -0.504595 0.779837 -0.016939 0.067925 0.960475 0.475874 0.711593 1.324233 0.649139 -0.191784 -0.262276 -0.347529 0.834446 0.035983 -0.030592 1.304104 -0.217947 -0.730390 -0.299045 0.255100 -0.206981 0.717962 0.066687 0.470159 0.051303 0.146767 
pumpkin -0.992452 -0.643343 0.700724 -0.847361 0.800373 -0.125769 0.509513 0.659813 -0.560580 1.499141 0.235880 -0.556687 0.651852 1.025783 0.864182 -0.192051 0.351740 -0.232185 -0.734459 -0.042489 0.449519 0.097413 0.332179 -0.001974 0.044655 1.082624 0.416673 0.499854 -0.080203 -0.727961 -0.025839 1.076814 -0.282886 -0.743418 0.319292 -0.127952 -0.481936 -0.129333 0.055110 -0.967330 
raspberry 1.188648 0.479684 0.014946 -0.829487 0.369634 0.105261 0.492677 -0.254063 1.696372 -0.041795 -0.183307 -0.080721 0.437050 -0.166182 -0.066483 -0.412622 0.873140 -0.953623 -0.059229 -0.636141 0.063981 0.471181 -0.407285 -0.167815 0.276551 0.593644 1.626267 -0.122492 0.316748 0.106217 -0.079682 0.113545 -0.389356 -0.937459 -0.189679 0.905864 0.104088 0.134552 0.548923 -0.406157 
whole_grain_wheat_flour -0.413807 0.709257 1.025089 -0.642466 0.879308 0.576500 -0.716843 0.459945 0.041875 -0.404649 0.044271 -0.137773 0.408227 -0.972224 0.589516 0.552561 0.777899 -0.411246 -0.014667 0.337451 -0.025884 -0.370535 0.557333 -0.477132 0.002392 1.275196 -0.116946 -0.266901 0.395626 0.518248 -0.609630 -0.341296 -0.216525 0.110836 -0.124729 0.028880 1.075865 0.128239 -0.576947 -0.154580 
lemon_peel 0.907021 0.439393 0.331728 0.311108 0.539581 -0.321626 0.110215 0.421692 0.567209 -0.019778 0.085519 -0.276474 0.630110 -0.040794 0.379322 -0.059217 -0.179809 0.360452 0.541398 -0.338676 0.877286 0.645376 0.305807 -0.309498 -0.705483 0.663295 0.632450 -0.161426 0.798626 -0.195739 0.215908 0.300359 -0.147768 -0.885617 -0.014446 1.272680 -0.648130 -0.593996 0.300726 -0.278431 
coffee 0.229669 -0.117190 0.570772 -0.148467 0.462519 0.648042 -0.025017 -0.129595 1.587103 0.301912 0.601830 -0.292633 -0.278985 -0.597933 0.386277 0.506620 -0.588611 0.815077 -0.184875 -0.199311 -0.382527 -0.587359 0.306853 -0.654239 0.097494 0.176537 0.706901 -0.057890 -0.732795 -1.318697 -0.368000 0.752996 -0.579266 -0.725534 0.202272 -0.088501 -0.224093 -0.318774 -0.633686 -0.116026 
sesame_seed -0.493380 -0.880429 0.920372 -0.504297 0.511871 0.801631 -0.817405 -0.331217 -0.333061 -0.059566 -0.357852 -0.045085 -0.396517 -0.500985 0.494520 0.599790 1.248377 0.387197 0.134801 -0.193540 0.757325 0.408085 0.169584 0.127223 -1.029292 0.335349 -0.290769 -0.077582 -0.547795 1.472392 -0.885997 0.139869 0.127625 -1.402921 -0.273634 0.660442 -0.274745 -0.018942 -0.862616 0.206902 
avocado 0.545439 0.331434 -0.742610 0.299846 1.475246 0.583451 0.926490 -1.390598 0.439026 -0.168709 -0.892609 -0.189818 -0.638523 -0.242965 -0.596734 -0.778577 0.299104 -0.107333 -0.177545 -0.076667 0.926201 0.314242 0.771761 0.435548 -0.241690 -0.894470 -1.078685 -0.416801 0.755269 -0.437067 -0.528880 0.824864 -0.701824 -0.357051 -0.424941 -0.527075 -0.109564 1.082849 -1.897792 0.820461 
sherry -0.046539 -0.385932 -0.281026 0.056436 0.397511 0.474590 -0.004421 -0.543062 -0.330284 0.042247 0.288968 0.840853 -0.242717 -0.662359 -0.127897 0.349009 0.348774 0.974416 0.299061 -0.017539 0.975698 0.876395 0.680764 -0.275534 -0.299938 -0.258244 0.752729 0.210021 -0.203545 0.132145 0.009000 -0.471371 0.208832 0.255106 0.406163 0.457322 -0.368276 -0.494556 0.312490 -0.227921 
sake -1.832843 -1.692279 -0.119944 -1.803870 1.096539 -0.171036 -0.269302 -0.683204 0.358825 0.218761 -0.203276 0.325662 -0.908675 0.286829 0.133505 -1.268435 2.010375 -0.102289 0.095827 -2.126695 0.302532 1.471714 -0.973712 1.476443 -0.287788 0.234608 0.191107 0.545845 -2.173293 1.507828 -0.234389 -0.119863 -0.733829 0.462512 0.610219 0.719301 -0.530401 0.354350 -0.901251 -0.496939 
feta_cheese 0.427454 0.861155 0.140353 -0.127746 -0.071886 -0.085388 0.371893 -0.372287 0.089349 0.400538 0.031956 -0.472110 0.954767 -1.541404 -0.791781 -0.641899 0.193828 -0.127435 1.071577 0.780392 0.017271 0.462611 0.015075 0.232474 -0.554032 -0.203436 -0.052917 -0.349525 1.142659 0.634945 0.129841 -0.118908 0.064471 -0.268440 -0.533802 1.485295 0.357076 0.583370 -1.840584 -0.050110 
apricot 0.701472 0.427058 -0.105354 0.244587 -0.247619 0.691236 -0.210708 -0.044885 0.354364 -0.092782 0.232265 0.834105 0.382468 0.580204 0.336427 0.742657 -0.152487 -0.018988 0.200762 -0.036752 0.241568 1.105228 0.387001 -0.813011 0.205140 0.043548 1.247469 -0.247641 -0.056407 0.142627 -0.527762 0.530219 -1.171702 -0.522131 0.309887 0.173379 -0.209120 -0.968423 0.455637 -0.416736 
roasted_sesame_seed -2.321425 -1.492031 0.991232 -3.226780 1.347701 -0.520896 0.328375 -0.150728 -0.386936 -1.255810 -0.232129 -0.289576 0.381634 -0.287543 0.040382 -0.006567 1.465211 0.762210 1.132853 -1.899466 0.650628 0.885125 -1.251069 0.760955 -1.550486 -0.068960 -0.627641 -0.339608 -0.367100 1.230203 0.267078 0.805966 0.295789 -0.217672 0.427079 -0.590780 -0.614905 0.604806 -1.509429 0.741291 
rum 0.151915 0.559175 -0.990372 -0.580447 1.006101 0.363480 0.278528 0.287568 1.080284 -1.137230 0.428311 -0.110175 -0.172908 0.079862 0.826494 -0.304701 -0.333523 0.569972 0.091637 -1.086660 0.252499 -0.235883 -0.508382 -0.472136 1.244734 -0.111270 1.709765 -0.009398 0.080399 -0.315821 -0.582768 0.160339 -1.403742 -0.622454 0.739631 0.248736 -0.188427 -0.132640 -0.177919 -0.408361 
orange_peel 0.386640 0.760382 -0.140370 0.079603 0.028609 -0.026095 0.184191 0.685254 0.690908 0.165804 -0.096298 -0.014119 0.714436 0.879403 0.574007 -0.158303 1.457464 0.724486 0.393536 0.142157 0.462377 0.746405 0.176072 -0.586184 0.157522 -0.464402 1.350030 -0.041686 -0.447897 0.219355 -0.258402 0.675693 -0.908578 -0.783946 -0.253495 0.417772 -0.414495 -0.595350 -0.328938 -1.046771 
squash -0.808561 0.013989 0.693186 -0.074954 -0.090568 0.210712 0.076082 -0.086081 -0.931968 0.611365 0.705230 -0.519431 -0.178306 0.600989 0.185762 0.637177 -0.636659 0.348589 0.242547 1.654002 -0.041519 0.898362 0.201413 -0.126891 -0.004296 -0.811567 -0.078915 -0.364065 0.699267 0.282475 -0.041915 0.230846 -0.615897 0.274981 -0.178801 0.426660 -0.270358 -0.018830 0.366617 -1.149324 
crab -0.626640 0.339265 0.429231 0.691287 0.311810 0.332677 -1.013193 -1.365353 0.776777 0.069250 0.617138 1.100051 -0.229799 0.995712 -1.531267 -1.325647 -0.253800 0.940669 -0.121463 -0.962932 0.227815 -0.956921 1.004556 -0.024153 -0.913245 0.669851 -0.766145 2.134464 -0.026788 -1.015854 -0.533242 0.667983 0.549414 0.398292 0.042000 0.513504 -0.023077 0.389870 -0.193400 0.670285 
marjoram -0.075729 0.379676 1.832802 0.482912 -0.303548 -1.112913 0.193538 -0.337824 0.351080 0.064802 -0.112678 0.329350 1.005522 0.995257 0.557321 -0.404305 -0.987188 0.514804 0.090591 0.955565 -0.172210 1.754176 0.592206 -0.468241 0.385999 -0.747642 0.927863 0.094352 -0.175642 0.843794 -0.209618 -1.656005 -0.270875 1.477826 -1.195981 0.282871 0.134005 -1.052708 0.699888 0.520991 
swiss_cheese 0.046490 0.639353 1.046655 -0.012791 0.147360 -0.338315 0.292053 -1.173303 0.284708 -0.121830 -0.296981 0.155761 -0.442041 0.011866 -0.344388 0.176239 0.912434 -0.464706 0.913191 0.656440 -0.145947 -0.330579 0.783363 -0.027247 0.357385 0.055424 -0.711894 0.354427 -1.009470 0.263096 1.724118 0.579712 0.709843 0.933659 -0.019316 -0.018681 0.602188 -0.292885 1.280290 -0.156900 
sweet_potato -0.051586 0.174912 0.531494 0.387608 0.144403 0.862286 0.666151 0.838876 -0.520666 -0.074324 1.243320 -1.146993 -0.244089 2.148556 0.682024 0.887792 -0.330695 0.835982 -0.055419 0.389151 -0.062174 0.273926 0.551826 -0.614143 0.274559 -0.308888 -0.397338 0.965020 -0.469071 0.110845 0.075854 -0.066191 -1.421970 -0.363811 -0.047089 0.124569 -1.426637 -0.429268 -0.037756 -0.837025 
shiitake -1.634921 -1.736984 1.234154 -1.299784 0.010321 -0.234387 0.171793 -0.793265 -0.123958 1.157691 -0.287063 -1.074672 -0.124020 1.359301 -0.535389 -1.334885 1.368052 0.626295 0.449603 -1.135654 1.119023 0.487061 -0.346518 -0.239406 0.234579 -0.316039 0.731472 0.236289 -0.874079 1.326758 -0.072845 -0.209367 0.258879 0.558346 1.068665 -0.067854 -0.874807 0.204125 0.192297 -0.708489 
radish -0.982716 -0.932756 0.467328 -2.422590 0.977218 -0.227857 0.319030 -1.644795 1.006797 1.007862 -0.136401 -0.984601 0.531758 0.452407 0.000576 -0.602767 0.560448 0.012391 0.804837 -0.656610 1.325562 0.328838 -0.769289 1.038104 -1.151598 -0.894814 -0.957009 -0.244459 -0.883359 1.169858 -0.275611 0.627631 -0.363172 -0.980331 0.570835 -0.630706 -0.438057 0.319423 -1.517408 0.960193 
peach 0.299525 0.546449 -0.824611 -1.095306 0.114363 0.356131 0.448126 -0.156102 0.655268 -0.281148 0.709394 0.352611 0.181619 0.199669 -0.139917 -0.476977 0.163626 -0.277675 -0.415078 -0.941191 -0.119140 0.298962 -0.145468 -0.419782 0.316121 -0.013019 0.672302 0.416223 -0.096874 -0.538359 -0.362880 0.869314 -0.408526 -1.287828 -0.309020 0.542175 0.099323 -0.992366 0.131118 -0.159708 
tarragon 0.768464 0.052739 0.075062 0.072670 0.164794 -0.280430 0.288843 -0.592811 0.441717 -0.463398 -0.090784 0.371710 0.031717 -0.387586 -1.110407 -0.255996 -0.155344 0.949709 0.836323 0.290444 0.839490 0.006273 0.694365 0.565370 -0.815236 -0.303920 0.979131 0.584201 0.042648 0.505331 0.579014 -0.225697 0.458844 0.053697 -0.096110 0.596467 -1.026156 0.313385 0.513674 0.037185 
black_bean -0.964140 -0.179222 0.151103 -0.267266 0.245323 0.810824 0.748992 -1.078424 -0.205436 0.063292 0.230875 0.113085 -0.483794 -0.109929 -1.229458 0.573731 0.509710 -0.490947 -0.412538 0.294924 -0.642375 0.622617 0.733665 -0.351425 -0.106894 -1.885202 -2.116748 -0.143845 1.009212 -0.347337 -0.376140 -0.028866 -1.401754 -0.183102 0.963361 -0.256049 0.466923 0.393512 -1.765112 -0.317838 
lamb -0.271215 0.412609 -0.501417 -0.056807 0.690895 0.513729 -0.193850 -0.030669 -0.500739 0.229399 -0.270775 0.131545 1.506917 0.820979 -0.855333 1.026764 -0.821244 0.734462 1.186959 1.080849 -0.952365 1.916567 -0.352480 -0.118037 -1.004541 -0.424092 0.557435 0.702767 1.141159 0.551926 -0.814373 -0.334139 -0.825942 0.242286 -0.977192 0.137019 -1.233398 -0.046787 -0.255561 -0.788372 
maple_syrup -0.535852 0.392252 0.262395 -0.125226 0.046063 0.448876 0.439959 0.200608 0.003420 -0.456876 0.219585 0.289833 0.205174 -0.099360 0.647891 0.449032 0.231533 -0.124581 -0.009119 0.277322 0.293060 0.708935 0.637048 -0.490928 0.606170 0.963575 0.491053 0.473704 -0.621800 -0.329695 -0.187625 0.388314 -0.245754 -0.574384 0.213274 -0.384760 -0.087622 -0.456336 0.325414 -0.567647 
pear -0.154458 -0.621101 -0.621700 -0.520536 0.339941 0.661381 0.601068 0.086876 0.417036 -0.123797 -0.151231 -1.370584 0.373135 0.940861 -0.622547 -0.238162 0.906855 0.450713 0.287639 0.207519 0.746671 0.708588 0.415178 -0.239535 -0.532012 0.252353 1.102704 -0.168066 -0.421210 0.076630 -0.269978 0.982618 -0.544800 -1.339549 0.441354 0.171292 -0.500789 -0.040135 -0.207090 -0.507889 
fruit 0.887556 0.785251 -0.169608 -0.495427 -0.108771 0.773103 -0.418210 -0.404192 0.558822 0.114120 -0.166163 -0.264904 0.417561 0.039075 0.342224 -0.847161 0.723261 0.349519 0.005083 -0.610731 -0.710526 0.323321 0.358609 0.024358 0.428694 0.860119 1.121886 0.305988 0.362289 0.016479 -1.252556 0.587620 -1.274240 -0.710150 0.069675 0.373870 -0.151984 -0.047109 0.083859 -0.508046 
blueberry 0.502446 1.137110 0.199414 -1.491164 0.717067 0.380548 -0.409504 0.306029 0.837661 -1.189042 -0.202755 0.138336 0.456130 -0.492272 0.043616 -0.977276 1.034705 -1.132444 0.629376 -1.135199 -1.367249 0.497185 -0.194122 -0.513682 -0.267757 0.616166 1.073594 0.153774 0.359458 -0.058230 0.359900 2.036479 -0.634979 -1.452484 -0.644363 1.676414 0.152372 0.369829 0.792037 -0.762053 
clam -1.095445 -0.096745 0.858327 -0.397975 0.837127 -0.980803 -0.210243 -0.607481 -0.058553 0.559859 1.079746 0.870735 -0.688471 1.457063 -2.037560 -1.127414 0.103368 1.283252 0.714633 -2.134661 0.880904 1.695168 -0.783408 1.049450 0.483580 0.380008 -0.081798 0.903617 1.159944 -0.605739 0.927595 -0.224348 0.712397 0.238805 -0.365571 -0.660457 -1.240698 0.973480 0.335100 -0.295018 
smoke -0.615905 0.416045 -0.063929 0.020096 0.338756 -0.191517 0.211000 -0.131544 0.258520 -0.308433 0.389747 -0.049024 -0.382672 -0.536997 -0.795802 0.290919 0.472246 -0.066451 0.153466 0.224471 0.805986 0.404349 0.997212 -0.089643 0.699136 -0.950426 -0.664859 0.779443 -0.362379 -0.062742 0.119495 -0.520264 -0.534609 0.151750 -0.210156 -0.865723 -0.555112 -0.148032 1.103779 0.392565 
tuna 0.048476 0.352359 0.226486 -0.010172 -0.009636 -0.240768 -0.441153 -1.144367 0.009713 -0.034766 -0.808238 -0.233985 -0.347565 -0.393429 -0.435559 -0.263824 0.927379 0.846737 1.192692 -0.100147 -0.432270 -0.635055 -0.088986 0.141128 -0.097710 0.321364 -1.255984 0.534700 0.180717 1.226616 -0.539278 0.549574 -0.182401 -0.229396 -1.010236 -0.131393 0.094776 0.894958 -1.035261 0.357164 
kidney_bean -1.103782 -0.259896 -0.613668 0.169669 -0.227706 -0.224155 -0.044926 -0.116097 0.358788 -0.271084 1.416132 0.003575 0.193326 -0.950360 -0.392290 0.854092 -0.022870 -0.211488 0.098476 0.426734 -1.039768 1.466421 0.251855 0.124720 0.939292 -1.238757 -1.947135 -0.909172 0.248053 0.532282 -1.047312 -0.836130 -0.976022 1.173949 0.122268 -0.537233 -0.715548 -0.060803 -1.214292 -0.371617 
peanut -0.183648 -0.656480 0.482810 -0.199142 -0.321069 1.144330 0.314220 -0.916781 -0.451501 -0.819113 -0.466533 -0.168667 -1.770395 -0.250393 0.136324 -0.301008 -0.137718 0.481238 -1.186366 -0.673484 -0.514169 0.284926 0.119210 0.088754 -0.749778 0.849276 -0.324496 0.429486 -0.152245 0.825799 -1.264591 -0.049814 -0.839281 -0.940412 0.470650 -0.063110 -0.567297 -0.167793 0.048008 1.121137 
asparagus -0.195500 0.160924 0.140880 0.014822 -0.264674 -0.059975 -0.351292 -0.549084 -0.060939 0.391154 -0.169988 0.366477 -0.333427 -0.085862 -0.285432 -0.517689 0.198146 0.864903 1.655632 0.642354 1.242015 0.081725 1.017282 -0.511837 -0.614294 0.464404 -0.316490 0.155016 0.342976 0.084139 0.510107 0.491900 0.468258 -0.272264 0.643313 0.779653 -0.185822 0.407649 0.561299 -0.698055 
salmon 0.085502 0.578980 -0.010164 -0.139932 0.566061 0.217090 -0.550069 -0.507678 -0.018944 0.039978 0.275908 0.093368 -0.325619 0.135557 -0.912273 -0.435208 0.290287 0.902627 1.109663 0.156931 0.277935 -0.249421 -0.166691 -0.067134 -0.851322 0.031795 -0.200250 1.432912 0.203648 0.441989 -0.943920 0.333834 0.579221 -0.771028 -0.627100 1.015969 0.273738 0.390325 -0.387486 -0.038259 
leek 0.376638 -0.588000 1.059658 -0.877089 0.361291 -0.860877 -0.072863 -0.392675 -0.637095 -0.074289 0.035964 0.021228 -0.099802 1.085352 -0.693456 0.474218 0.262928 0.618778 1.346042 0.468883 1.121784 0.552609 0.524490 -0.055343 -0.217759 0.071458 0.501136 0.335584 0.563733 -0.340475 -0.348806 -0.262606 -0.677214 1.209437 0.263214 0.232465 -1.400591 -0.560842 0.880558 -0.311786 
chickpea -0.350068 -0.078114 -0.282558 0.095312 -0.449855 0.473832 0.336220 0.049797 -0.590665 -0.224779 0.887578 -0.075344 1.689656 0.373890 -0.421473 0.907784 -0.282372 -0.484369 0.538606 1.291178 0.267258 1.569878 0.272819 0.377132 -0.731196 -0.368254 -1.327038 -0.317719 2.368415 0.729392 0.025730 0.614033 -1.025227 -0.722088 0.446262 -0.351870 -0.676903 -0.205875 -1.140706 -0.705963 
blue_cheese 0.376819 0.304205 -0.526237 0.074509 0.233903 0.186183 1.225278 -0.839866 0.663270 0.021543 -0.319287 -0.505838 0.320399 -0.339653 -0.806387 -0.080344 0.698154 -0.122512 1.023378 1.004476 0.527434 0.176129 0.952359 0.324915 0.106755 -0.138446 0.864627 -0.071935 -0.908158 0.299483 0.727643 0.178651 0.172416 -0.197017 -0.727936 0.082963 0.839598 0.706495 -0.196308 0.020948 
brandy 1.727899 0.168799 0.299556 -0.229398 -0.259648 -1.482839 -0.294949 0.879405 1.865561 -0.156848 -0.873324 0.290362 0.214853 0.149917 -1.437537 1.042500 1.195644 0.824561 -0.534025 -0.966164 0.505427 1.635889 -0.222852 -0.788561 1.488086 0.310729 1.548493 0.913903 0.069232 -0.070150 0.420598 0.583727 -0.624828 -0.274398 0.566477 -0.884486 -0.031158 0.275050 0.605693 -0.974972 
artichoke 0.293807 0.765115 0.530868 0.145796 -0.318659 -0.359078 0.394601 -0.327910 0.241515 0.794174 0.049796 0.166371 0.269473 -0.943277 -0.794263 -0.383029 0.149362 0.392558 1.276840 0.119783 1.258083 0.565750 0.066295 -0.629378 -0.599503 -0.161870 -0.329860 -0.192129 0.694303 0.386673 0.618436 0.184092 0.537452 0.387870 0.017877 0.387525 0.086887 0.602042 0.248356 -0.694587 
horseradish 0.063224 0.951016 -0.175813 -0.084436 0.481072 -0.678524 0.936107 -0.690075 0.194144 -0.905630 0.040481 0.311613 -1.108737 -0.300653 -0.689066 -0.214582 0.005590 -0.301971 0.195831 0.337003 0.854939 -0.471325 0.652473 0.955750 0.411483 0.320585 0.407776 1.675534 -1.144513 0.410195 -0.390038 0.537070 0.490544 0.433767 -0.139154 -0.366619 -0.171677 0.419535 -0.586290 0.461944 
mango 0.585146 0.481342 -1.050847 -0.813838 1.073840 1.157443 0.063811 -1.063326 -0.256017 -0.919141 -0.235371 0.231241 -0.468637 0.818853 -0.314215 -0.832174 -0.527916 0.166581 -0.770262 -0.267537 0.339985 0.320564 -0.220829 -0.324165 -0.320539 -0.771322 0.050940 1.015502 0.353408 0.089872 0.453202 0.316222 -1.453594 -1.406748 0.647382 1.372451 0.102519 -0.089284 -0.803210 0.938467 
date 0.557460 0.365210 0.177915 -0.035054 -0.197975 1.168030 0.539719 0.483147 0.360523 -0.063971 0.478785 -0.252570 0.333053 0.504026 0.555274 1.196817 0.019128 0.504286 0.216937 -0.196737 0.539027 0.737422 0.665167 0.190991 0.124302 1.267465 1.251552 -0.662797 0.329174 0.345210 -0.569147 0.739972 -1.487989 -0.515052 0.205632 -1.224293 0.648046 -0.843539 0.289969 -0.699370 
cardamom 0.874908 -0.382243 -0.091994 -0.683473 0.966304 -0.050372 -0.308741 0.477870 -0.092604 -0.221627 0.888190 0.856431 1.360926 1.530604 0.073349 1.153041 -0.237596 0.163899 -0.543809 0.620438 0.544864 1.420654 -0.201714 -0.078342 0.180880 0.140871 0.094938 0.524173 -0.005264 -0.392473 -0.061745 0.600242 -1.529697 -1.167398 0.916927 0.553727 -0.671938 -1.398444 -0.391679 -0.995415 
white_bread 0.187459 0.579595 0.725586 0.171547 -0.127555 -0.252514 0.073769 -0.000006 0.058744 -0.801631 -0.225653 0.028183 0.056632 -0.580105 -0.123451 0.001202 0.065937 0.692173 -0.117537 0.323873 0.749536 0.358357 1.101600 -0.459975 0.240735 0.118339 0.648935 0.076288 0.322930 0.194727 0.803028 -0.637404 -0.108654 0.828048 0.026937 -0.562329 0.393137 -0.242871 0.594921 0.279482 
oyster -1.971875 -1.595040 0.948123 -1.249740 0.466504 0.285460 -0.235739 -1.041161 -0.252429 0.728860 0.250363 0.830306 -0.775062 0.291356 -0.387667 -0.168152 0.284581 0.377896 0.792422 -1.346532 0.398208 0.786916 0.678837 0.135298 0.126722 -0.246495 0.873279 -0.110345 -0.064998 -0.079515 -0.167042 -0.960329 0.677825 -0.499624 0.858876 0.830931 -0.503622 -0.111679 -0.445828 0.876511 
cottage_cheese 0.168668 0.811776 -0.211567 0.017019 -0.087227 -0.473823 0.514336 0.238540 0.526083 0.080259 -0.487192 -0.659924 -0.158069 -1.112729 -0.299807 0.299844 0.014938 0.102455 0.382242 -0.534261 -0.506642 -0.649082 0.108768 0.157318 0.271021 -0.050354 -0.846075 -1.266185 0.674809 0.494193 0.976415 0.783285 0.181902 0.641680 -0.730389 0.250452 1.045472 0.293833 0.863895 -0.016565 
grape 0.664685 0.737955 -0.871902 -0.262479 -0.454957 0.804732 0.875674 -1.342805 0.027020 -1.105992 -0.315690 1.040638 0.089907 0.556098 -0.692528 -0.663511 0.055978 -1.027613 0.836262 0.156955 -0.571137 0.835075 1.246118 -0.779922 -0.035427 0.699746 0.881484 -0.216442 0.250123 0.840943 -0.652335 -0.773345 -0.944690 -1.461534 0.357134 1.482721 0.132506 0.281396 -0.310268 -0.003547 
brown_rice -0.325580 0.015483 0.274423 -0.125251 -0.465991 -0.077226 -0.539757 -0.948618 -0.953844 -0.244554 -0.380917 0.346234 -0.533983 1.101563 0.567916 0.128679 0.174373 0.246314 -0.232591 0.048361 0.140937 0.734033 1.254967 -0.619968 0.352251 -0.261988 -0.371889 -0.710299 0.366340 1.146999 0.071105 -0.320985 -0.320862 0.173266 0.179076 0.244086 0.124594 -0.288093 0.147710 -0.204399 
cauliflower 0.356927 -0.243351 -0.081531 -0.444675 -0.338230 -0.801758 -0.634659 -0.930229 -0.423146 -0.058137 0.326617 -0.271330 -0.031889 0.676450 0.227688 0.234882 0.515896 -0.262378 1.777052 1.110962 0.644851 -0.305472 0.586170 -0.079735 -0.172966 0.754179 -1.592662 -0.580924 0.059512 0.677104 -0.402944 0.495499 -0.136140 -0.337097 0.300991 0.198064 -0.583133 -0.351090 0.426317 0.427088 
cured_pork 0.570190 0.715670 1.487800 -0.443212 0.006941 -0.441465 0.635013 -0.359267 0.473481 0.489124 -0.093245 0.019468 0.613063 -1.106976 -1.790718 -0.654496 0.811561 0.522130 1.031460 -0.536317 -0.280343 1.421606 0.323100 -0.882270 0.059950 -0.563904 -0.010448 -0.523907 0.225989 0.285606 1.044910 -1.427578 -0.032783 2.121655 -0.453252 -0.185171 0.200042 0.264152 0.816563 -0.282159 
egg_noodle -0.154647 0.311968 -0.313067 -0.862639 -0.548853 -0.993243 0.168459 -0.913975 -0.024569 0.702034 -0.226622 0.041868 -1.121023 0.728135 0.018322 -0.078004 0.031438 -0.241394 -0.631394 0.375366 0.009105 -0.270402 0.672277 -0.083513 0.910084 0.033600 -0.320243 -0.196619 0.000489 0.670937 1.023384 0.015733 -0.007824 1.257403 -0.188944 -0.706767 -0.022130 0.370096 0.693993 0.058540 
beer -0.722839 0.581476 -0.688653 -0.180013 1.002131 -0.402451 0.589425 0.517400 0.280467 -0.481436 0.212434 0.888236 -0.690258 0.287077 -0.747298 0.264067 -0.894349 -0.104560 -0.121318 0.129282 0.002250 0.135890 0.298929 0.017134 1.039888 -0.320221 -0.597447 1.352055 -0.388021 -0.629407 -0.629009 0.027070 -0.476458 1.367792 0.322443 -0.435949 -0.427069 -0.678956 -0.184920 0.299057 
hazelnut 0.924399 -0.317944 0.681966 0.010493 0.117300 0.003273 -0.063055 0.191233 1.125576 0.239808 -0.020897 -0.615871 0.667329 -0.157324 -0.239899 0.272982 0.468402 1.111104 0.678156 0.582414 -0.157194 0.367618 0.354157 -0.538313 -0.059714 0.633467 1.388972 -0.370055 -0.593199 -0.087869 -0.524673 -0.091730 -1.229770 -0.416297 0.878364 -0.034660 -0.114756 -0.254507 0.633922 -0.711235 
mandarin 0.534431 0.793225 -1.070852 -0.333299 -0.728493 0.675674 0.365950 -1.463888 0.537169 -0.922032 -0.164742 -0.255412 -0.143920 0.741899 0.252651 -1.646285 0.784009 -0.657712 -0.257969 -0.306212 -0.299270 0.422493 0.764452 -0.496716 0.537064 -0.075244 0.641874 -0.648361 -0.387912 1.431177 -0.094186 0.384000 -0.378333 -1.669792 0.102098 0.581951 0.585761 0.782039 0.007675 -0.838283 
romano_cheese 0.197993 0.601367 0.737377 0.042563 0.303262 -0.078335 0.140930 -0.214467 -0.279198 0.704732 0.549726 -0.774632 0.899710 -0.756733 -0.675651 -0.517958 0.456298 0.877808 1.097479 -0.402245 0.005456 0.481195 0.349318 -0.115569 -0.074487 -0.087443 0.232914 -0.326317 0.757690 -0.257329 1.143569 -0.245109 0.093099 1.679580 -0.322326 0.809037 -0.389865 0.378117 0.100181 0.568560 
plum 1.002267 0.127169 -0.649689 -0.475392 0.659993 0.309103 0.666532 0.167091 0.014579 0.112537 -0.201490 -0.108453 0.743485 0.322946 -0.171221 0.883194 0.518155 0.553909 0.160596 0.235781 0.386900 1.382614 0.197246 -0.594495 0.303498 0.510311 0.823825 1.099502 -0.257224 0.114518 -0.696651 -0.096096 -0.615246 -0.608610 -0.025637 -0.193921 0.122237 -1.369050 -0.190595 -0.234089 
pimento 1.335763 1.096287 0.247097 0.441755 -0.362313 -0.890171 -0.488962 -1.173475 0.096779 0.364167 0.043355 0.267508 0.179585 0.161374 -0.479765 -0.445961 0.254414 -0.118087 -0.235284 -0.075639 0.647348 0.011003 1.340505 0.456606 0.784035 -0.337550 -1.347767 0.172493 0.990984 0.411606 1.004019 0.314512 0.128138 -0.082878 0.483579 -1.008154 -0.022781 0.065489 -0.518665 -0.379154 
smoked_sausage -0.463379 -0.034938 0.295904 0.737263 -0.255779 -0.806683 0.092600 -0.339849 0.233176 -0.057376 1.708684 0.524606 0.251033 0.935796 -1.480263 0.822161 0.376946 -0.535778 0.101372 0.531561 -1.336219 0.648995 0.806819 0.298576 1.388619 -0.318137 -0.861512 0.559061 -0.630930 0.445528 0.110911 -0.259144 -0.780061 1.435858 -0.159186 -0.263063 -1.055779 0.028835 0.098252 0.710261 
scallop 0.235142 0.148999 0.635092 0.452985 1.349895 0.085132 0.150167 -1.019432 -0.234654 0.487245 1.596709 0.049037 -0.331843 0.829374 -1.442059 -0.634582 -0.204301 1.628677 0.654439 -0.803218 1.258777 0.513111 -0.373957 -0.041713 -1.001297 0.438461 0.143797 0.809631 0.340530 0.065699 0.887541 -0.195924 0.693431 -0.043147 -0.271870 1.017239 -0.520831 -0.922067 0.418541 1.430584 
goat_cheese 0.330352 0.691185 0.253212 -0.788389 0.878292 0.298247 0.953305 0.223380 0.785167 0.746299 -0.315602 -0.820276 0.809942 -0.556311 -0.239283 0.053958 0.120551 0.705177 1.792187 1.151322 0.762815 -0.202697 0.890610 -0.221298 -0.894778 -0.760851 0.175993 -0.569752 0.084112 0.160402 -0.152366 -0.063969 -0.340694 0.178186 -0.029844 0.397243 0.472746 0.952547 0.069830 0.394890 
lentil -0.869378 -0.016770 0.236517 -0.562838 0.218415 -0.058107 -0.437301 -0.359257 -1.264879 0.060230 0.509853 -0.181741 1.059415 0.209910 -0.236376 1.055075 -0.487849 -0.056697 0.843044 0.964813 -0.937437 -0.016181 -0.016622 -0.314713 -0.657037 -0.525942 -0.979810 0.083396 1.851605 1.479725 -0.627568 -0.191548 -1.579616 0.113301 -0.473292 -0.671647 -1.181271 -1.005607 0.212809 0.024960 
currant 0.931358 0.303560 -0.179360 0.470887 0.217761 -0.054414 -0.311459 0.179064 1.302363 0.513680 0.796858 0.201739 1.742997 -0.076468 0.289418 -0.086357 0.203458 0.780954 0.157148 0.767672 0.072256 0.894168 0.595541 -0.248953 0.451108 -0.077940 0.490897 -0.747613 0.218490 -0.065351 -1.384233 0.728917 -1.312824 -0.701137 -0.348622 -0.380543 -0.135601 -1.184412 0.143112 -0.599683 
saffron 1.502052 0.211313 0.672800 -0.345532 0.328113 -0.942595 -0.427498 0.387288 -0.843622 0.937141 0.957407 1.006855 0.610774 1.248656 -0.643574 0.967878 0.291615 1.025782 0.119027 -0.291948 0.836368 1.893874 -0.795916 -0.625100 -0.575783 0.769256 0.363776 0.057828 1.994875 0.504160 0.417091 -0.298523 -0.926659 0.594117 -0.074907 0.302312 -1.786692 -0.585474 -0.236359 -0.368012 
barley -0.990916 -0.012031 0.468296 -1.216944 -0.190422 -0.639094 -1.942412 -0.137020 -1.450145 0.225260 -0.954047 -0.332969 -0.317572 -0.133769 0.247582 0.368462 0.870202 -0.279699 1.080036 0.631915 0.099691 0.725494 0.618474 0.100917 0.725825 0.997484 0.386495 0.231354 -0.006424 1.623099 -1.097641 -0.431036 -0.832863 0.748964 0.984144 0.442453 -0.709038 0.957750 -1.078620 -0.576569 
caraway 0.640188 1.589292 1.645170 -2.196041 2.783182 -1.795797 -1.118424 1.251149 -0.241344 -2.015617 -0.235588 1.063775 -0.352606 0.680060 -0.314057 0.987430 0.217934 -0.313351 1.101959 0.573798 -0.658363 1.587744 1.832999 0.118604 1.689564 -0.582041 -0.739046 1.109026 0.291075 -0.486092 0.791166 0.088557 -0.369972 -0.389080 -1.084382 -1.629878 0.385295 0.622860 -0.447142 0.315535 
beet 0.076723 -0.140382 -0.114105 -0.294052 -0.036252 -0.687719 0.635800 -0.300463 1.037885 -0.995662 0.194730 -0.692340 0.325751 -0.082994 -1.237223 0.543664 -0.206232 0.401743 1.083884 1.784728 0.474053 0.384976 0.765898 0.229992 -0.740592 -0.635544 0.856172 0.417668 -0.299921 1.390841 -0.548595 0.531464 -0.691371 -1.576097 -0.870446 -0.654341 -0.822206 0.476521 -0.250408 0.223436 
squid -1.387817 -1.711756 0.351085 -1.506268 0.380869 -1.083309 -0.799307 -0.609063 0.616885 1.811929 0.740800 0.264899 -0.233737 0.359800 -1.828075 -0.798060 0.312629 0.137134 0.381739 -3.212823 -0.189002 1.412698 -1.355965 0.461041 -0.289062 0.846162 0.110361 0.456331 0.947595 0.685017 0.910504 0.611011 0.349601 -1.187920 0.600185 -0.556311 -0.792497 0.580623 -0.100116 0.235427 
corn_flake 0.097642 -0.201499 0.124434 0.184562 -0.111822 0.332879 0.085103 -0.164911 -0.151930 -0.655947 -0.259874 0.193657 -0.852730 -0.388011 0.898897 0.110314 -0.260289 0.113722 -0.544268 0.094952 -0.357131 -0.058516 0.646298 0.567404 0.667983 1.015504 0.041949 -0.189943 0.214277 0.369661 0.374615 0.261681 -0.318542 0.449412 0.142839 -0.098903 -0.151372 -0.211261 0.945380 -0.183489 
anise 0.780880 0.658781 2.260445 -0.020460 0.898525 0.228672 -0.444404 0.729847 0.286345 0.243620 1.357187 0.336247 0.315655 0.663201 -0.532088 -0.412054 0.626328 1.364545 -0.448121 -0.377988 0.331831 2.029944 0.767777 0.460191 -0.056319 0.152375 0.887424 -0.064608 -0.164203 -1.359336 0.148779 0.193651 0.292536 -0.835515 0.056531 -0.021190 0.015216 0.520886 -0.710460 -0.700665 
roasted_beef -0.434252 -0.472104 -0.952436 0.096988 -0.060327 0.042426 -0.832716 -0.182381 0.536168 -0.237124 -0.454818 -0.360458 0.419656 -0.234109 -1.187906 0.465573 0.202097 -0.220524 0.905878 0.012960 -1.038705 0.957936 0.378564 0.549905 0.965168 -0.373779 -0.057800 0.651339 -0.613192 0.456808 0.165579 0.464826 -0.173952 0.759822 -0.873513 -0.590569 -0.357229 -0.564325 0.199601 0.391048 
pistachio 1.542539 0.019513 -0.006428 0.483112 -0.018149 0.099650 0.044374 -0.244420 0.851407 -0.436222 -0.166403 -0.222311 0.762451 0.162544 0.043694 -0.027049 0.383100 1.010923 0.283572 -0.392709 0.124140 0.648651 0.198162 -0.337249 -0.397069 0.593191 0.613321 -0.353896 0.194088 -0.377913 -0.254487 0.435987 -1.601953 -1.179522 0.353957 0.090867 -0.676817 -0.709878 0.141527 -0.183932 
peanut_oil -0.407575 -1.531522 0.586987 -0.882741 0.031341 1.032529 0.377361 -0.720202 -1.141781 0.100483 0.112651 -0.018534 -1.108210 0.386817 -0.048857 0.123749 0.007882 0.610585 -1.033641 -0.574974 0.447786 1.107880 -0.229903 0.188921 0.247743 -1.039433 -0.385001 0.713148 -0.390173 0.878788 0.308718 0.374251 0.033947 -1.336594 0.400395 1.263738 -0.525205 0.091434 0.191328 0.720235 
cereal -0.079140 -0.240411 1.807364 -0.182196 0.638090 1.705354 -1.169824 -0.333356 0.113313 -0.198878 0.686787 -0.489790 -0.100995 -1.154900 -0.180822 0.319472 0.838846 -0.761113 -1.019142 0.834651 -1.841806 0.841237 0.519726 0.590005 -0.939885 1.155357 0.286795 -0.670392 -0.633061 0.887078 -0.211953 0.464855 -1.395784 0.185215 -0.297911 -0.511009 0.899678 -0.762007 1.187596 0.048037 
cashew 1.017321 -0.867645 -0.017031 -0.476890 -0.136046 0.616002 -0.202308 -1.414122 -0.785861 -0.269135 -0.455366 0.635643 -0.101956 0.707754 0.408373 0.550485 0.697371 0.693307 0.440104 -0.246688 -0.315150 0.432517 0.660014 -0.110676 -0.208167 0.530597 -0.771691 -0.542127 -0.143601 1.130929 -0.515592 -0.000146 -0.573321 -1.136750 0.107607 0.156204 -0.021879 -0.787245 0.340129 -0.273165 
veal 0.181567 0.791055 -0.054160 -1.565085 -0.188395 -0.567867 0.784961 0.029134 -0.360550 0.717522 -0.538693 0.307623 0.226897 -0.461199 -1.377478 -0.041720 -0.211398 1.004746 2.364645 -0.102803 -0.000649 0.826988 0.717743 -0.805682 0.519895 -0.277510 1.569629 0.461039 0.308616 -0.552190 -0.528220 -1.373457 -0.048773 1.499693 0.199696 -1.067045 -0.644976 0.285387 1.335093 -0.481793 
seaweed -2.123239 -0.782633 1.809547 -0.862759 0.461645 -0.655521 0.488818 -0.696221 1.939112 0.082479 -0.212776 0.655942 -1.239388 -0.366149 0.233232 -1.421535 1.013443 -0.371186 0.462383 -1.564559 1.194766 0.758788 -1.155163 1.106829 -1.668731 0.918280 -0.620744 0.711374 -1.083436 2.245937 -0.239771 0.148955 -0.906940 0.009415 0.465882 0.482410 -0.316638 1.521931 -2.521546 0.033490 
turnip -0.220274 0.505234 0.730316 -0.849574 -0.871451 -2.129926 0.541057 -0.002185 0.325976 1.174590 1.043718 0.193868 -0.515182 1.598186 0.019777 2.578830 -1.004468 0.571905 2.774610 0.885548 -0.036253 0.729887 0.395047 -0.198638 -0.144465 0.205826 0.873175 -0.416398 -0.553565 1.071313 -1.051117 -1.149001 -1.344771 0.004989 -0.428182 0.805356 -2.475937 -0.756989 -0.042430 0.448611 
sauerkraut 0.168663 0.635658 1.158351 -0.463000 2.659127 -2.579480 0.197612 -0.226947 1.173936 -0.691776 1.114709 1.300004 -0.809687 -0.632574 -1.412434 0.251684 -0.034058 -1.916704 0.701594 0.552732 -0.700213 0.917863 -0.233100 1.071729 2.661476 -0.094012 -0.522184 0.720212 -1.330555 0.321554 -0.579091 -0.880326 0.031627 0.273557 -0.366899 -1.365085 0.774645 -0.993186 2.050477 0.199056 
berry 0.713836 0.451390 0.427402 -1.004667 0.247305 0.363933 0.420789 -0.458985 0.508230 -0.691978 -0.387906 -0.091426 1.474188 0.304177 -0.831058 -0.166810 0.805167 -1.706504 0.033234 -0.640716 -0.345126 0.949116 0.120355 0.063699 1.401933 0.841385 1.785703 -0.068898 0.034989 -0.411725 0.365660 0.304983 -0.535237 -0.738926 -0.867307 1.268714 0.448704 -0.118164 1.424830 -0.079986 
kelp -3.081906 -2.717897 0.208818 -2.067578 1.480704 0.031938 0.441333 -0.440057 0.683294 0.734653 -0.822041 -0.344023 0.273799 0.173914 0.125713 -0.076295 -0.061749 -0.518058 1.629222 -3.875628 1.543835 0.799003 -2.119524 0.716176 -1.283932 2.159784 1.328710 -0.008324 0.660615 1.240177 -0.784328 0.388999 -1.162507 0.369092 0.671376 -1.278759 -0.929451 0.511925 -1.232781 0.916793 
tomato_juice -1.017212 0.683439 -0.454471 -0.063449 -0.568356 0.102705 -0.107119 0.186778 0.347372 0.101340 0.775175 0.096253 0.678816 -0.125781 -1.171807 0.767644 -0.579930 -0.244204 -0.107422 -0.183329 0.156577 0.133465 0.421167 0.618797 0.890293 -0.208872 -0.895176 0.786438 -0.264741 0.323960 -0.317276 -0.065080 0.454819 1.316903 -0.499693 -0.185420 -0.356192 -0.631780 -0.854845 0.269996 
cod -0.522341 -0.336575 0.269050 -0.296893 0.562317 -0.185743 -0.678392 -0.397658 0.349422 0.364286 0.645811 0.812313 -0.202785 1.090877 -1.241975 0.248241 -0.058104 0.562522 0.984388 -0.430519 0.099051 -0.304817 -0.595946 0.306202 -0.379978 -0.075909 -0.388203 1.318688 1.218289 0.114126 0.148990 -0.011100 -0.307333 -0.324328 -0.142906 0.124725 -0.762323 -0.067063 0.102815 0.566849 
provolone_cheese -0.852666 0.410825 0.528804 -0.169448 0.100159 0.172602 1.815476 -1.031608 0.964169 0.717145 0.256293 -0.886966 0.772051 -1.674614 -0.911949 -0.897101 0.613297 -0.085927 1.543899 -0.036930 0.709756 -0.628195 0.264632 -1.023114 0.330274 -0.613752 -0.320864 -0.056188 0.329932 0.036088 0.271433 -0.808695 0.201593 1.765105 -0.472333 -0.040873 1.455925 0.171716 0.774582 0.463158 
mussel -0.826640 -0.063756 0.071259 -1.130928 1.869959 -0.708444 0.849571 -0.966563 -1.377076 1.351481 3.264623 0.630759 0.686097 1.861153 -1.851822 -1.726585 -0.368896 0.826354 0.526499 -1.089201 1.232289 0.925837 -0.911998 0.980074 -0.161047 0.942321 0.697395 0.810341 1.531830 -0.150044 -0.337161 -1.411272 0.643465 0.210216 0.340358 -0.010987 -1.806288 -0.900302 0.261341 1.650303 
blackberry 0.796117 0.953653 0.396944 -0.337386 1.139446 0.030518 -0.254116 0.177514 1.824885 -0.227947 0.469311 -1.120707 1.283711 -0.401729 0.243588 -1.100547 0.825062 -1.067337 -0.437170 -0.915612 -1.071627 0.568071 -0.988927 -0.801321 0.015215 0.293050 1.841925 0.103533 -0.168331 0.095173 -0.382431 1.120563 -0.356227 -0.150488 -0.484879 1.835894 -0.600404 -0.150528 0.598282 -0.022443 
roasted_peanut 0.081499 -0.640745 0.920541 0.093767 0.984392 1.757163 0.761254 -0.721434 -1.535545 -1.127713 -0.275197 -0.626829 -1.573090 0.244674 0.420795 -0.013758 0.070142 0.965640 -0.853281 -1.418839 -0.407385 0.608279 0.022241 0.287091 -0.410013 0.541211 -0.663183 0.214319 -0.771112 1.158401 -0.374936 -1.477488 -2.124020 -0.940116 0.294314 0.620295 -0.691464 0.011517 -0.762460 1.573167 
rhubarb 0.212878 0.367090 0.210610 -0.907300 0.345589 0.197598 0.269340 0.642763 1.095068 0.029139 0.755338 -0.498053 0.561763 -0.327364 0.449340 -0.478685 0.670912 -0.633484 0.049816 -0.950702 -0.426648 -0.090528 -0.182649 0.103550 0.452120 0.396436 1.500791 -0.155084 0.423151 -0.561233 -0.448318 1.527357 -0.429267 -1.141850 0.018368 0.866671 0.426602 0.090004 0.931625 -0.484333 
chinese_cabbage -3.321047 -2.493648 0.310758 -1.544908 1.061340 -0.891394 -1.329004 -1.192420 0.692874 0.878301 0.152677 0.769042 0.726516 1.278237 -0.838408 -1.480786 -0.448209 0.042567 0.090551 -3.854297 1.388258 2.952054 -0.047949 1.535054 -1.437741 0.570904 0.989511 -1.421355 -2.617201 2.119322 0.809688 0.161972 -1.507823 -0.015290 0.970082 -0.672255 -1.185472 0.688998 -1.790985 0.970539 
corn_grit -0.316902 -0.189880 -0.138150 0.162419 0.648752 -0.964951 0.486213 -0.325889 0.246795 -0.047451 0.674366 0.987117 -0.654336 -0.321080 -0.835925 0.490895 -0.133807 0.275720 -0.587975 -0.942290 0.497568 0.353442 1.241897 -0.801878 0.042310 -0.578920 -0.760355 -0.689715 0.928473 -1.603801 0.161377 -0.225865 -1.175867 1.249082 0.978717 -0.665354 -0.793588 0.281417 -0.335381 0.857568 
chicory -0.438297 -0.023350 0.538779 -0.251625 -0.116026 0.072694 0.410639 -1.071276 1.284559 -0.279140 0.233789 -1.114916 -0.048829 -0.100531 -1.665262 -1.253646 0.730661 0.375429 1.564421 1.481727 2.469751 0.542905 0.762134 0.265481 -1.648133 -0.450736 1.144472 -0.598851 0.003476 0.869267 -0.721647 -0.006180 -0.762880 -1.120027 0.320051 -0.394433 0.427315 1.170277 0.381702 0.873239 
bourbon_whiskey -1.355527 0.170133 0.146928 0.868405 0.177197 0.326880 -0.141353 -0.038648 1.361101 1.492015 1.457206 1.687265 -2.264807 -0.271324 0.373983 1.741078 -1.871558 0.633781 -0.040784 -0.487490 0.619934 0.736185 -1.053407 -0.130185 1.618333 -0.390967 1.983465 0.416196 -0.567169 -1.283902 -0.941501 1.505035 -0.769996 -0.690324 -0.027516 -0.258234 0.766459 0.110691 -0.005795 -1.865439 
citrus 1.243268 0.707914 0.010517 0.009994 1.503890 0.770436 -1.083925 -0.010730 0.420729 -0.077561 -0.362608 -0.124847 0.446039 0.202175 -0.119619 0.499188 0.955357 0.597826 0.900715 -1.767213 1.983814 0.836064 -0.028614 0.333588 0.770661 0.628537 2.251451 -0.254330 -0.055346 -0.441560 -1.447949 0.859700 -1.239299 -0.790086 -0.189647 -0.355690 -0.177441 -0.340720 -0.030137 -0.140786 
lima_bean -0.998623 0.581731 -0.517730 -0.073410 -0.221418 -0.866842 0.709246 -0.514578 -0.736559 0.208073 1.768887 -0.179732 -0.504222 0.075929 -0.222734 1.043099 -0.817331 -0.715320 0.130339 0.659788 0.948831 0.421356 1.610394 0.234684 1.156474 -0.296883 -0.606379 0.218911 0.086018 -0.019705 -0.765148 -1.075885 -0.870704 0.694724 0.371266 -0.401373 -1.505334 -0.595981 -0.616913 0.624685 
lovage -0.749993 1.358399 -0.885392 1.778564 0.974676 -0.751426 -1.774664 -0.661679 -1.218274 1.999584 2.911432 0.845327 1.119021 0.137965 -0.402223 -0.280888 -0.818889 2.922130 -2.486851 -0.372435 1.543067 0.138511 -0.618486 1.755317 1.148276 -0.115480 0.253091 2.404743 -1.038461 -0.444064 0.206544 3.950751 1.358863 1.162412 -0.216434 -1.317419 -2.088563 0.733293 1.001475 0.331698 
melon 0.433786 2.022215 -1.090873 -0.998062 0.978638 0.463058 0.414986 -1.124666 -0.615294 -0.466987 1.044672 0.736375 -0.696671 -0.082533 0.549795 -1.845697 0.989790 -0.076994 -0.433761 -0.662465 0.160396 0.589086 0.080571 -0.767967 -0.143115 -0.146845 0.922973 -0.898010 0.374689 1.389352 -0.938509 0.364691 -1.510880 -1.178420 -0.760023 2.007078 -0.160539 0.712539 -1.308691 0.563403 
parsnip -0.509782 1.043782 0.861956 -1.597257 0.426812 -1.058017 -0.317778 0.281743 -0.623690 -0.889600 -0.476968 -0.043909 0.162910 2.308440 -0.596205 -0.477952 -0.031591 -0.474287 1.287152 2.537344 -1.014535 0.359123 1.495212 0.179194 0.148207 -0.897845 0.542886 1.003653 -0.704840 -0.318020 0.220171 -0.382349 -1.535451 0.968959 0.249597 0.781945 -2.987088 -0.202215 -0.172465 -1.298522 
fig 1.075428 0.681346 0.221834 0.668651 -0.029653 0.713707 0.433090 0.592152 1.059660 -0.013299 0.348182 -0.487280 1.990842 0.318004 -0.736502 0.589331 0.528787 1.143070 0.118748 0.230060 0.736397 1.695268 0.864366 -1.173513 -1.192287 0.302810 1.552054 0.177922 -0.455602 -0.296891 -0.213000 0.435522 -1.539478 0.155288 -0.040486 -0.069681 0.483601 -0.631921 0.231127 -0.278192 
lemongrass -0.245282 -0.807121 0.076700 -1.775980 3.222391 2.663791 -0.247421 -0.983980 -1.943718 -0.880413 -0.523660 -0.139322 -0.146703 2.297235 -0.191041 -0.988858 -0.630832 1.637671 -0.780330 -2.761038 -0.031205 0.803949 -0.610978 0.326192 -0.019720 -0.956209 -0.859640 1.221239 0.111560 0.841439 1.509818 -2.935837 -2.020905 -0.978078 2.100713 1.016716 -1.200480 0.134855 0.234677 1.827828 
whiskey 0.741073 0.724500 -2.376917 -0.699100 0.812862 0.855380 1.405861 2.101678 1.528645 -0.128246 -0.367879 -1.085806 0.898003 -1.315681 -0.079687 1.492524 0.273443 1.618161 0.389318 -1.678540 -0.162920 -0.192327 0.341641 0.031978 0.354512 -0.177410 -0.594951 1.637360 -1.746590 -0.028805 -0.124140 0.311905 -1.238428 0.675918 0.341649 -0.800936 0.144783 -1.123646 0.292939 -0.345112 
watercress 0.348846 0.668560 -0.491588 -0.642451 0.275074 0.572166 1.246317 -1.171808 0.010493 0.192104 0.148961 -0.552309 0.400348 -0.329284 -0.367921 -0.118128 0.746894 1.981179 0.029043 0.523289 1.248567 0.311250 0.488992 0.805152 -0.754623 -0.975484 0.064149 0.057209 -1.324801 0.601873 -0.394188 -0.451139 -0.628967 -0.836394 -0.913601 0.454190 -0.443710 -0.045228 -0.306974 0.696293 
tequila 0.487704 0.622869 -1.452900 0.670725 1.051244 0.139094 -0.316154 -0.530265 1.263785 0.658196 -0.002529 1.345624 -1.002257 0.120140 -0.815520 -0.539328 0.733157 0.161446 -1.226003 -2.055889 -0.313950 0.749672 -0.440590 -0.617023 0.841984 -1.669260 -0.007411 0.846956 0.406050 -0.270978 -0.171601 1.088017 -1.295726 -0.765585 0.626730 0.151056 0.377957 1.195086 -1.623273 -0.260862 
rye_flour 0.260177 0.783342 2.368609 -0.157179 2.570350 -0.813550 -0.478300 0.364467 1.669958 -0.976872 1.162942 -0.410422 0.960986 0.613176 0.008116 -0.075205 1.316883 -0.969333 0.068612 1.803759 -0.721091 -0.285743 -0.473234 0.116699 -0.263827 0.231196 -0.706363 0.820889 -2.057869 1.119621 -0.472904 0.089843 -0.445777 1.030912 -1.769375 0.159634 0.990938 -0.686963 -0.345893 0.158958 
peppermint 0.557046 0.206650 0.944366 -0.410196 0.049795 0.274128 0.629502 -0.408348 1.427581 -0.512538 -0.055288 -0.011586 -0.631574 -0.124657 -0.087802 -0.179854 -0.136124 0.916542 0.221368 -0.174385 -0.212913 -1.071522 -0.377942 0.390868 -1.024158 0.815397 0.632337 -0.230398 -0.306587 -0.341568 -0.364410 0.104435 -0.371273 -1.450663 0.008256 -0.093312 -0.395806 0.652558 -0.373725 -0.511621 
savory -0.485935 0.410197 0.906074 -0.237543 0.618229 -0.198294 -0.034056 -0.211071 -0.573860 0.308708 0.743309 0.429407 1.308524 0.910273 0.178570 -0.918567 -0.044394 0.482264 0.806168 0.659331 0.740580 1.008399 0.650703 -0.071217 0.024116 -0.561326 0.463404 -0.044840 0.504798 -0.002966 -1.095695 -1.183165 -0.210627 1.702154 -0.828797 0.335372 -0.768498 -0.978122 -0.027403 0.536593 
lobster 0.608856 0.482794 0.520102 -0.533488 1.039337 -0.836319 -0.047967 -0.574077 0.343025 1.522740 1.650069 1.450433 0.315696 0.241141 -1.648135 -0.801026 0.090273 1.234707 0.082966 -1.277476 0.924435 0.077681 -0.061125 0.325351 0.103699 -0.115994 0.421973 0.810726 1.108684 -1.368856 -0.179537 -0.712473 0.419782 -0.247255 -0.303777 0.066368 -0.780600 -0.917309 0.327564 0.563702 
roasted_pork -0.655426 -0.343628 -0.728797 -0.318801 0.321618 -0.222254 -0.354899 0.005211 0.179614 -0.263130 1.088518 -0.118555 -0.194993 0.654395 -0.515255 0.307577 -0.629226 0.059543 0.254930 0.991920 -0.885698 1.768411 0.179151 -0.593599 0.577076 -1.543673 0.933327 1.049673 -0.388593 0.860820 -1.009140 0.250394 0.184202 -0.019683 -0.516819 -0.885619 -0.105148 -0.706790 0.637876 -0.628309 
mace -0.274659 0.394614 0.465935 -0.266945 0.158531 -0.422522 0.262565 0.767858 0.370459 -0.522071 0.556185 0.335129 1.323233 1.393836 0.277322 0.508904 0.278974 0.872429 -0.353885 0.064801 0.227498 0.886075 0.160611 -0.661094 0.291042 0.394714 0.726089 0.446696 -0.117817 -0.074933 -0.663321 0.679517 -0.215380 -0.258965 0.459682 -0.612326 -0.680312 -1.283617 -0.477847 -0.978720 
endive 1.091033 0.124087 -0.666932 -0.568322 0.693850 0.241105 0.745092 0.357068 0.080706 0.170899 0.061195 -1.124143 0.944147 -1.357784 -0.647223 0.136649 -0.031928 1.306059 2.361301 0.336558 1.466879 1.153904 1.368149 0.261678 -0.825050 -0.214002 0.158245 -0.518443 -0.463508 0.630725 -0.303532 -0.366977 -0.785245 0.324480 0.202554 -0.429313 -0.486094 -0.283950 0.674435 0.528757 
brassica -1.266819 -0.218438 0.313073 -1.479905 0.845939 -0.787243 0.849994 -0.078767 -0.517996 -0.266120 0.537720 -0.704377 0.060999 -0.306685 -1.195444 0.162894 1.284202 0.785602 0.714428 0.294690 0.767385 1.109021 1.071955 0.198455 -1.545731 -0.469893 -0.253599 0.082931 0.080914 -0.279973 -0.862422 1.253284 -1.019200 -0.228675 1.173394 -1.997135 -0.869005 -0.484768 -0.110650 1.003480 
grapefruit 0.750245 1.561713 -1.567080 -0.287740 0.733600 0.805661 0.874648 -0.908058 0.140887 -0.097075 0.235577 0.424670 0.147986 0.379570 -0.573963 -0.642034 0.937426 0.365174 -0.381046 -0.516640 1.057395 0.973105 -0.081307 -0.165937 0.279126 -0.880984 0.839034 0.157680 -0.547195 1.159427 -0.385095 0.162052 -0.604566 -1.387246 -0.629304 0.805143 0.705632 0.334995 -0.406826 -0.495535 
enokidake -4.134111 -1.242578 -0.201222 -2.825714 1.660454 -1.679881 0.802962 0.795134 0.996352 1.282368 0.218292 -0.696315 -0.809129 1.090603 -0.809284 -2.250427 1.047382 -0.553028 0.841318 -1.890796 0.009118 1.569217 -0.655429 1.007292 -0.640809 0.798191 0.694678 0.909208 -0.478580 1.298103 -0.757620 1.714890 0.535254 0.293554 1.173941 -0.719576 -0.712502 0.892366 -0.973152 -0.665440 
porcini -1.053456 -0.179732 0.361411 -0.842355 0.377575 -0.438150 0.528919 -0.519793 -0.080429 0.756802 -0.088877 -0.695052 1.083352 0.496717 -0.807710 -0.337621 0.185002 1.307167 1.739177 0.983415 0.084942 0.591513 0.617462 -0.615944 -0.388902 -0.533094 2.246518 -0.279265 0.285378 -0.248965 0.304749 -0.753555 0.275479 2.155019 0.443943 0.527162 -0.899240 -0.502760 1.457999 -0.390658 
kiwi 0.389124 0.898621 -1.284338 -1.330158 1.233126 0.158321 0.574610 -1.000151 0.913265 -0.705636 -0.471797 0.922214 -0.723390 0.550298 -0.939882 -0.686221 0.268516 -1.455019 -0.095609 -1.515201 -0.397010 0.061139 -0.393542 -0.269208 -0.013808 1.084612 0.948921 -0.648350 0.237904 1.256788 -1.186442 0.562124 -0.835842 -1.099926 -0.855235 0.897363 0.463808 0.368194 0.147356 0.125169 
wasabi 0.076993 -0.328777 0.928870 -0.254980 -0.332210 -0.573979 -1.109906 -1.959233 1.362099 0.430000 -0.489681 -0.501769 0.434342 0.213788 0.658846 -0.591153 1.119026 0.612462 -0.281621 -2.835986 1.604555 1.136595 -0.924520 1.447179 -1.360646 1.077835 -1.764807 0.955285 -1.888804 2.189819 -0.821698 2.034497 0.100279 0.113478 -1.250833 -0.933788 -1.965786 0.397791 -0.515489 1.783206 
watermelon 0.931396 2.255082 0.101823 -0.425493 1.205860 1.690657 0.660065 -1.010296 0.883404 0.103902 -0.045412 0.732203 -0.237066 1.074977 -1.610896 -0.988685 0.433237 -0.998058 -0.597425 -0.865786 0.714013 0.258222 0.250626 -1.122589 -1.012530 -0.800026 0.708092 1.466139 1.090298 0.074498 -0.871417 0.232356 -0.941034 -1.346591 -0.068656 0.795874 -0.123205 0.600567 -0.345914 0.263358 
lime_peel_oil 1.036468 1.063759 -1.149466 -0.623812 1.600430 1.213604 0.753310 -1.358139 -0.282951 0.619259 -0.554902 0.657105 -1.272697 0.574013 -0.691640 -0.650538 0.261861 0.061567 -0.792395 -0.590617 0.584276 -0.173501 -0.025968 -0.433530 -0.932717 -0.434174 0.046948 0.980559 1.391343 0.132128 -0.842119 0.188312 -1.354697 -0.449524 0.526760 0.537379 0.325961 1.010761 -0.995427 -0.086702 
okra -0.557279 0.147468 -0.031151 0.592601 0.044556 0.118862 0.202177 -0.826869 -0.787417 0.514942 0.952735 1.225328 -0.003304 0.227117 -0.881852 1.024210 -1.104532 0.929075 0.159990 -0.468050 -0.624040 0.690592 0.545869 0.836835 0.514671 -0.637185 -0.488582 1.032934 0.589315 -0.194446 0.112717 -0.471301 -1.209404 -0.114909 0.433172 -0.649310 -0.965030 0.137004 -0.120037 0.689407 
macadamia_nut 0.773450 0.235435 0.158525 0.013825 0.092876 1.243278 0.115305 -0.411734 0.753825 -1.054583 0.077486 -0.131229 -0.339668 0.336554 0.415514 -0.223706 -0.140471 0.479487 -0.289853 -0.802736 -0.270858 -0.258832 -0.291348 0.095437 -0.536210 0.233216 0.046530 -0.437660 -0.721315 0.199261 0.068548 0.067692 -0.981410 -0.647054 0.243256 0.007614 -0.334160 0.399291 0.166884 -0.610453 
smoked_salmon 0.953909 0.238505 0.823717 -0.287228 0.892422 -0.886372 -0.345106 -1.281423 0.890044 -0.825694 -0.425520 -0.661981 -0.350422 -0.536438 -1.022717 -0.697766 0.620594 0.475223 1.438725 0.954915 1.415089 -1.158978 -0.373988 1.113065 -0.727478 0.586487 -0.259329 0.414263 0.347455 -0.062561 0.014852 1.228384 0.324548 -0.281531 -0.524265 0.514095 -0.794768 1.158095 -0.083524 0.092910 
kale -1.090209 -0.184356 0.446545 -1.232421 -0.096968 -0.425584 0.230922 0.010240 -0.063358 0.068376 1.454545 -1.292759 0.470666 0.355677 -0.047847 0.767607 -0.667966 -0.074589 1.682283 1.239276 1.371046 1.015081 0.953538 0.029711 0.334845 -0.689580 -0.231425 -0.598949 0.525719 -0.037807 0.126375 -1.124412 -1.123796 0.141169 0.781233 -0.604331 -1.311569 0.069757 0.692029 0.876409 
popcorn 0.093615 -0.379808 0.505493 0.712503 -0.354991 0.910308 -0.558399 -1.069244 -0.139548 -0.189711 0.175164 -0.423228 -1.216986 -1.334030 -0.117788 1.226005 -0.057303 -0.052584 -1.436648 0.483166 -0.877947 0.021977 -0.390022 0.471341 -0.181995 0.723011 0.122404 -0.112542 0.267009 0.338677 0.414208 -0.161187 -1.729298 -0.172435 -0.268826 0.561385 0.020340 0.027089 0.281436 -0.272568 
rye_bread -0.317797 1.343648 -0.079066 -0.130162 1.805377 -1.388856 -0.083839 -0.089230 1.163099 -1.482111 0.273160 -0.370883 -0.746109 -0.718217 -0.158699 -0.406796 0.141418 -0.751135 1.049678 1.833030 0.685271 -0.508264 1.361213 1.197490 1.086126 -0.592892 -0.152085 0.880482 -0.150378 0.390804 1.340650 1.220037 -0.340815 1.414326 -0.798772 -1.273541 0.173098 0.065425 0.443014 0.676224 
star_anise -0.266401 -0.233253 -0.250110 -1.138502 0.406212 0.779439 0.432243 -0.021302 -0.894225 0.501339 0.393113 0.754520 0.241054 1.008462 -0.288750 0.410404 0.436610 1.446439 -0.572608 -0.686066 0.917964 1.020251 -0.245186 -0.582986 -0.714438 -0.522730 1.215092 0.495461 -0.753361 0.364734 -0.821246 -0.478823 -0.786014 -1.291912 0.195655 0.685865 -1.162400 -0.842763 -0.678799 0.073838 
brussels_sprout 0.513811 -0.434413 0.031316 -0.319133 -0.278000 -0.277041 -0.016145 -0.614383 0.343661 0.136315 0.443988 -0.382173 0.009164 -0.225872 -0.260183 0.483453 -0.103535 0.293370 1.091985 1.733405 -0.135538 0.378631 1.507289 0.023238 -0.876510 0.124182 0.212645 -0.004255 -0.061936 0.455428 0.348416 0.348321 -0.185363 -0.022113 0.424753 -0.169442 -0.688150 -0.344838 0.753074 -0.611006 
tea 0.393133 0.774568 -0.378377 -0.583767 1.329518 0.195211 -0.670226 0.155275 0.287736 -0.178239 0.050691 0.195591 -0.008961 0.187950 0.251229 0.406546 0.303696 0.775166 -0.182280 -0.167218 0.146770 0.010404 -0.731907 -0.497767 0.103432 -0.362111 1.086293 0.322401 -0.031036 -0.030887 -0.881179 0.909169 -1.016838 -0.775080 0.033505 0.484172 -0.431255 -0.513815 0.050117 0.118846 
thai_pepper -1.255117 -1.197128 -0.078448 -0.674112 -0.158314 2.027582 -0.189606 -1.493223 -0.971300 1.495226 0.354185 0.088012 -2.860268 1.029648 0.582483 0.350659 -1.899567 1.118404 -1.461731 -1.643672 0.166750 1.202850 -0.917222 -0.592558 0.187979 -1.423395 -1.033109 1.493384 0.895179 1.761908 0.372405 0.804798 -1.685875 -1.322175 0.754846 1.366212 -0.148608 0.907733 -0.209880 -0.451680 
champagne_wine 0.999131 0.592253 -0.498647 -0.760148 1.185542 -0.086451 0.430983 -0.564844 0.450532 -0.277498 -0.013002 0.226153 0.309911 -0.349330 -1.041310 -0.968433 0.808808 0.762560 0.435909 0.078683 0.661621 0.147254 0.393793 0.004289 -0.344570 -0.655597 1.500385 0.303977 -0.827578 0.523852 -0.765765 0.243184 -0.036787 -0.157385 -0.535034 0.189957 -0.912860 0.211842 -0.018223 0.191289 
anise_seed 0.927771 0.507084 0.566589 -0.618684 1.154458 0.439053 0.095271 0.740710 0.568883 0.241893 -0.403625 0.700067 0.161809 0.637470 0.148410 1.439969 1.076961 -0.150940 0.058541 0.572815 0.852032 0.114847 -0.088041 -0.922774 -0.429975 -0.486963 0.287752 0.505225 0.737795 0.271263 -1.158861 0.308306 -1.475167 -0.805209 -0.094666 -0.184661 0.461154 -0.864942 -0.481424 0.538646 
yam -1.279585 -0.033482 0.117826 -1.664330 0.336630 -0.597482 0.318310 0.536077 -1.047127 -0.544299 0.096354 0.295429 -0.373802 0.852985 0.609868 1.821514 -0.944164 0.381397 1.279966 0.339127 -0.397021 0.431770 0.761202 0.130443 -0.001992 -0.027942 1.121844 0.097020 0.625837 -0.138224 -0.684303 0.334280 -1.578638 -0.869343 0.364403 1.002730 -0.686591 -0.143006 0.493331 -0.582278 
bitter_orange 0.627626 0.696315 -0.908749 1.415599 1.980028 0.224019 -1.641083 -1.270466 1.965488 -0.206696 -0.280606 0.423093 1.315054 1.434793 0.556472 -0.637563 -1.040081 1.153148 1.443113 -1.892713 0.457988 0.021633 -0.316195 -0.793956 1.679749 -0.685181 2.595115 -1.706577 -0.916332 -0.397186 0.915044 0.888472 -1.117204 0.004892 -0.236175 2.205100 -0.633670 -0.586623 -0.752527 0.796502 
wheat_bread -0.746296 0.812245 0.261619 -0.017778 0.343249 0.136467 0.448200 -0.580137 0.352798 -0.875780 0.233271 0.472085 -0.830172 -0.534614 0.468634 -0.469175 -0.000034 -1.102338 -0.066199 0.808779 0.098950 -0.015107 1.408332 0.378019 -0.403930 0.138928 -0.171844 -0.354809 0.361739 0.984406 0.103102 0.095875 -0.081184 0.419463 -0.072126 0.096622 0.727302 0.317743 0.300619 0.495783 
