249 65
</s> 0.006158 0.006799 -0.005893 -0.005043 0.002102 0.004648 0.001447 0.000325 -0.005544 0.003413 -0.006702 0.001922 -0.001156 -0.001473 -0.005101 -0.002896 0.003968 0.004654 0.004568 0.002458 0.002377 -0.005850 -0.006301 0.007646 0.005848 0.004754 -0.000929 0.006178 -0.000762 0.001130 -0.000230 -0.004590 0.002019 -0.002058 -0.005885 0.007314 0.006737 -0.001685 -0.000348 0.000783 -0.005596 -0.006165 0.007007 0.000097 -0.003973 -0.004680 -0.004733 0.002611 0.000310 0.002048 -0.006482 -0.005858 -0.000200 0.001759 0.003923 -0.004877 0.006276 0.001426 0.001723 -0.000936 0.004595 -0.003520 -0.003227 0.003321 -0.001159 
egg 0.222622 0.296916 0.099511 0.404103 0.140724 0.940086 0.197632 0.178036 0.051925 -0.068310 0.413388 -0.413472 -0.309575 0.469573 0.197901 0.362602 0.093967 0.147878 0.113156 0.141270 0.110215 0.487745 0.392766 0.251840 0.333325 -0.087179 0.313905 0.472421 0.064419 0.227574 0.547700 -0.305620 -0.232553 0.486112 0.498435 0.077534 0.040620 0.479342 0.298300 0.197551 -0.079431 -0.273938 0.159520 0.058601 0.175319 0.002483 0.212466 -0.525619 -0.203161 -0.006610 -0.563897 0.068944 0.345237 0.169197 0.376623 0.163197 0.379158 0.080367 -0.341443 0.922596 0.011394 -0.422857 -0.266694 -0.044540 -0.102276 
butter 0.607417 -0.208331 -0.243485 -0.317304 0.032635 0.628476 0.171545 0.364670 -0.094534 -0.408450 0.247165 -0.331367 -0.296060 0.107432 -0.128132 0.179733 -0.685599 0.126913 -0.056042 -0.102116 -0.177111 0.052262 0.490175 0.030496 0.246266 -0.021655 0.076625 -0.024251 -0.630923 0.179067 0.295631 -0.409270 0.283886 0.496440 -0.095859 0.527254 -0.018485 -0.007486 0.144074 0.958324 0.232788 -0.398654 0.069547 -0.010392 -0.424450 -0.495305 -0.041383 -0.146789 0.579906 0.265708 0.311983 0.134469 0.081405 -0.081935 0.445049 0.010912 0.043165 -0.392817 -0.366125 0.603862 0.081514 0.086362 -0.228940 0.191526 -0.217183 
wheat -0.264117 -0.427395 0.124307 0.296501 0.044282 0.517323 0.096796 -0.133952 0.029965 -0.231102 -0.358428 -0.094310 -0.438080 0.361111 -0.103667 0.378000 -0.536611 0.131920 0.173177 -0.054077 0.825465 -0.088079 0.344887 0.495772 0.240587 0.364890 -0.026141 0.295166 -0.276486 -0.227326 0.398699 -0.391712 0.214868 -0.443938 -0.238462 -0.135670 0.190910 0.151446 0.088981 -0.042793 0.414040 -0.349739 -0.256751 0.435387 0.108202 -0.541652 0.270654 -0.110540 0.210224 0.164375 0.304323 -0.196548 0.237286 0.097397 0.018050 0.250674 0.092157 0.339151 -0.082268 0.430824 0.750610 -0.335378 0.574670 -0.157046 -0.024776 
onion 0.288531 -0.260302 0.444994 0.100980 -0.084429 -0.369838 0.445230 -0.079524 0.199539 0.345759 -0.243955 -0.323326 0.039066 -0.036058 -0.322338 -0.586645 0.228446 0.042135 -0.061015 0.041526 0.149934 -0.395492 -0.127016 -0.453489 0.205311 0.606957 0.324550 0.302311 -0.241025 -0.418158 -0.153550 0.050581 0.340785 -0.194189 -0.559800 -0.067852 -0.527524 0.148614 -0.240015 0.165108 -0.340756 0.287824 0.733674 -0.162450 0.202057 -0.020090 -0.009035 0.085530 -0.258664 -0.178020 -0.250893 -0.219589 0.298906 0.068666 0.048430 -0.120768 -0.191601 -0.235020 -0.960855 -0.026726 0.245992 0.109688 0.395725 -0.477576 -0.173232 
garlic 0.408347 0.193515 0.271568 0.511044 -0.124722 -0.421758 0.383703 -0.277149 0.022508 0.323369 0.378832 0.120823 0.036297 -0.013276 -0.363857 -0.613955 0.340049 -0.378546 -0.702865 0.173408 -0.076026 -0.015504 -0.554056 -0.127291 -0.253947 0.206899 -0.295382 0.234880 -0.270281 -0.554465 -0.434457 0.046196 0.025386 0.037829 -0.373865 0.258383 0.226231 0.512532 -0.634894 0.412980 0.521253 -0.235471 -0.222552 0.099376 -0.006980 -0.028336 0.363823 0.315937 -0.862650 -0.352883 -0.008799 0.499680 -0.586798 -0.178543 0.171281 -0.168657 0.209334 0.154247 -0.438950 0.266183 0.361940 0.527465 -0.031861 -0.032614 -0.086833 
milk 0.320508 -0.374694 0.508611 0.096486 0.052750 0.573278 -0.012130 0.283973 -0.239416 -0.828994 0.068280 0.309195 -0.732087 0.498269 -0.368512 0.308871 -0.264334 0.346313 0.025412 -0.070625 0.633576 0.060656 -0.157145 -0.188475 0.006387 0.044129 0.264141 0.170280 -0.277887 0.630722 0.099162 0.002900 -0.000233 0.864549 0.179699 0.270224 0.058417 -0.362169 -0.302074 0.343488 -0.330974 -0.476310 0.595751 0.330587 -0.085374 -0.338389 0.520433 -0.258304 0.581275 0.156053 -0.050531 -0.173525 0.608009 0.180734 0.339486 0.422129 0.271685 0.282028 -0.181682 0.505600 0.062516 -0.441597 -0.266693 0.336785 0.266970 
vegetable_oil 0.219140 0.354877 -0.099464 -0.211554 -0.100847 0.334674 0.664701 0.039588 -0.036976 -0.140152 -0.111292 0.027684 0.085505 -0.209847 -0.680082 -0.226813 -0.373438 -0.212647 0.022984 0.127294 0.119946 -0.352051 -0.295893 -0.382886 0.148632 0.288467 -0.338659 -0.492549 -0.297110 -0.461262 0.291711 -0.037023 0.004212 0.532189 -0.010088 0.074676 -0.065897 -0.010742 -0.133796 0.506471 0.018369 0.128296 -0.282013 -0.311564 0.118934 -0.542147 -0.189275 -0.325703 0.426465 -0.126633 0.018199 0.277524 0.654912 -0.125246 0.018793 0.061596 0.260123 -0.096667 -0.340707 -0.465816 -0.326497 0.178345 0.459033 0.146301 0.191117 
cream 0.286983 0.045064 0.087778 0.357457 -0.145614 1.051314 0.002149 -0.094884 -0.027082 -0.004158 -0.365505 -0.023035 -0.624379 0.218654 -0.260140 0.084138 -0.320467 -0.224724 0.342752 -0.433687 0.157970 -0.084955 0.105908 -0.147611 0.260835 0.115689 -0.582572 0.038358 -0.472806 0.038979 0.113198 -0.433879 0.063129 -0.071588 0.124789 -0.243300 0.332397 -0.058759 -0.007938 0.271531 -0.271536 0.329812 0.256694 -0.069939 0.102587 -0.207910 0.123842 -0.075881 0.485510 0.451922 0.276082 -0.134890 0.324127 0.146837 0.335752 0.419082 0.425364 -0.105200 -0.340400 0.373071 -0.025246 -0.303429 -0.067137 0.093905 -0.451013 
tomato 0.402792 0.229816 0.146671 0.347691 -0.158543 -0.716555 0.048410 -0.330085 -0.031608 0.546511 -0.129997 -0.189038 0.412871 -0.114742 -0.177903 -0.151772 0.437922 0.208650 -0.746629 0.505587 -0.842851 0.039021 -0.149686 0.096575 0.160968 0.481422 0.072475 -0.208645 0.336220 -1.007422 -0.402460 0.175665 0.030008 -0.326615 -0.046144 0.843959 0.377792 0.029365 0.326411 0.394220 -0.329505 -0.388986 1.007757 0.208460 0.364986 0.109388 0.774983 -0.002923 -0.509861 0.659743 0.071291 -0.173025 0.295215 -0.176035 -0.702367 0.105379 -0.524860 -0.109700 -0.528858 0.288707 0.915200 0.280228 -0.379274 -0.124320 -0.375747 
olive_oil 0.395451 -0.364102 0.223950 -0.210718 -0.225614 -0.372526 0.713910 -0.000392 0.146709 0.252518 0.234359 -0.215984 -0.273216 -0.070169 -0.193014 0.166420 0.170028 -0.312968 -0.523811 0.289414 -0.613403 -0.275784 -0.592289 -0.462378 0.592998 0.584077 -0.317724 -0.340842 -0.173760 -0.170287 -0.761528 0.535748 -0.333548 0.699195 -0.747930 -0.029631 0.622104 0.475054 0.452479 0.808828 0.122553 0.285094 0.199986 -0.056506 -0.140855 -0.592263 -0.416691 0.237632 -0.153994 0.223678 0.695802 -0.075965 -0.391148 0.148942 -0.115086 -0.232027 0.212806 -0.806181 -0.418633 -0.287623 0.187946 -0.595126 0.022107 -0.202018 0.315539 
black_pepper 0.460173 0.323407 0.281413 0.225175 -0.025093 0.164975 0.311735 0.622152 0.209805 0.275259 0.236341 -0.312309 -0.375558 -0.013343 0.204147 -0.240610 0.298005 -0.513541 0.120710 0.237780 -0.474418 0.050667 -0.025515 -0.281201 -0.015156 0.152898 0.330527 -0.063335 0.298603 -0.309461 -0.530554 0.110939 0.464708 -0.747201 -0.615497 -0.229730 0.288333 -0.131750 -0.017107 0.503572 0.204075 -0.215854 -0.138063 -0.453683 0.019223 -0.214212 0.203184 0.487555 -0.349075 0.074437 -0.057331 0.019566 -0.072586 -0.076357 -0.155202 -0.103283 0.122809 -0.274425 -0.554974 -0.201497 0.314708 0.297110 -0.479550 0.429006 -0.162924 
pepper 0.591409 0.658994 0.101898 0.262643 -0.040628 -0.310782 -0.280014 0.059307 0.602104 0.479944 -0.089482 -0.574601 -0.090053 0.025253 0.065267 -0.513243 0.074744 -0.048317 -0.117307 0.340598 -0.324994 -0.052360 -0.196956 -0.400880 -0.219691 0.061684 0.273019 0.077932 -0.025970 -0.460980 -0.402246 0.066309 0.476841 -0.340127 -0.257244 -0.370012 0.098758 0.118200 -0.127109 0.079143 0.365672 -0.185240 0.078777 -0.184281 -0.006008 0.089899 0.016238 0.667297 -0.114838 -0.013478 -0.631817 0.374836 0.031375 -0.085845 0.053387 -0.023290 0.125414 -0.048714 -0.601440 -0.581588 -0.061283 0.202585 0.181467 0.097741 0.011811 
vanilla -0.380975 0.046130 0.565498 0.818054 -0.533021 0.848810 -0.951509 -0.361955 -0.177488 -1.361344 -0.607238 -0.061147 0.275057 1.095152 0.436190 0.543959 -0.353766 0.243608 -0.865132 -0.289907 0.323158 0.211116 0.522954 0.240578 1.058823 0.149984 0.729993 0.541627 -0.568421 -0.100803 0.353669 -0.028491 1.088524 -0.053558 -0.099815 -0.153343 0.201021 -0.273974 0.064221 -0.719249 -0.908862 -0.414213 -0.754721 0.131952 -0.087751 -0.591289 -0.093587 -0.615838 0.171222 0.381838 0.467176 0.173203 0.033306 -0.858633 1.060362 0.099020 1.162049 0.437215 -0.042455 0.546092 -0.929326 0.299742 -0.639041 0.032516 0.707205 
cayenne 1.079974 0.033096 0.380685 0.526092 -0.073559 -0.300600 0.014108 -0.903552 -0.199015 0.517996 0.231774 -0.325108 0.317361 -0.410977 0.109084 -0.494859 0.821534 -0.489892 0.035604 -0.395887 0.074386 -0.293628 -0.227705 -0.106705 0.101787 0.430771 -0.240690 -0.066714 0.878199 -0.832533 -0.296125 0.112139 -0.636835 0.063222 -0.518743 0.147412 -0.072078 0.054021 -0.763544 -0.030110 -0.313374 0.102880 0.137241 -0.137940 -0.295565 0.172931 -0.167179 0.156563 -0.033175 -0.240004 -0.359610 0.368866 0.244016 -0.502852 0.532302 0.131214 0.146292 0.242437 -0.433866 -0.220484 -0.207821 -0.075261 -0.234989 -0.358562 -0.249693 
vinegar 0.190566 0.784424 0.377568 -0.034025 -0.413970 0.475112 -0.517245 -0.013653 -0.278752 0.969064 0.399134 0.565458 0.564241 -0.042193 0.301595 -1.330228 -0.039496 0.025500 -0.238464 0.624373 -0.184961 -0.623092 -0.840851 0.524809 -0.128342 0.202141 -0.413378 0.590922 0.119166 -0.253744 -0.200008 0.140062 0.066890 -0.432693 -0.395009 -0.317972 -0.199599 0.013319 -0.335572 0.524116 0.080930 0.113631 -0.108314 -0.084075 -0.212561 -0.141282 -0.279090 -0.094460 -1.213937 0.372049 0.447646 0.202257 0.945112 -0.242416 -0.101688 -0.905050 0.036376 -0.305701 0.114615 0.413106 -0.347692 0.095021 0.708588 0.077814 0.202647 
cane_molasses -0.126474 0.271245 -0.539784 -0.487361 0.214266 0.770372 0.547184 0.542166 0.208721 -0.165919 0.583850 -0.654186 -0.014328 1.080299 -0.056920 0.181187 0.046523 1.016321 -0.505938 0.506272 0.263534 -0.470788 0.094572 -0.256518 0.008173 0.091700 0.196521 0.162858 0.538741 -0.477650 0.543729 0.306339 -0.299458 0.269121 -0.621568 -0.146387 0.257982 -0.370811 -0.861544 -0.091591 -0.522148 -0.437517 -0.310050 0.321185 -0.126315 -0.058659 -0.183733 -0.619612 0.322258 -0.223519 0.140691 0.147009 1.059308 -0.083139 -0.026601 0.234946 -0.267459 0.405102 0.058983 -0.042785 -0.368931 0.633750 0.540055 -0.842429 0.612227 
bell_pepper 0.517767 0.208833 0.329951 0.242240 -0.041972 -0.301514 0.201810 0.091159 0.117807 0.277905 0.111093 -0.110419 0.031367 -0.214520 -0.120368 -0.304671 0.145225 -0.190191 -0.017839 -0.192364 -0.243255 -0.062856 -0.503033 0.192033 0.282898 -0.079859 -0.031054 -0.204586 0.335116 -0.864597 -0.215487 0.226329 -0.023002 0.018146 -0.232789 0.228058 0.128618 0.084469 -0.160646 0.533742 0.388673 0.275026 0.165125 0.273178 -0.281757 -0.056459 0.262354 0.247890 -0.465362 0.078298 -0.391084 0.153363 0.010894 -0.477024 -0.468229 0.041794 0.126896 -0.010748 -0.411370 -0.325103 0.318601 0.064633 0.091550 -0.005926 -0.144436 
cinnamon 0.076812 -0.102783 -0.335193 -0.341867 -0.186324 0.560241 -0.391125 0.417647 -0.228258 -0.294209 -0.710289 -0.206679 0.896107 0.930277 0.452713 -0.191335 0.216154 -0.099369 -0.824849 -0.089607 0.340254 0.450902 0.404109 0.550511 1.008290 -0.091859 0.260887 -0.258237 0.115822 0.140801 0.195185 0.202024 0.226718 -0.677035 -0.496304 -0.529503 0.330350 -0.589051 -0.269886 0.410413 0.399030 -0.670830 0.004844 0.661886 0.203756 -0.593912 0.056925 -0.306209 0.247651 -0.239073 0.146729 0.151272 0.161676 -0.060128 1.237444 0.329991 0.144399 -0.382848 -0.366978 0.244010 0.013244 -0.636245 -0.247438 -0.136782 0.917434 
parsley 0.813913 -0.484343 0.354300 0.014908 -0.296716 0.379559 0.440023 0.577455 0.512480 -0.254866 -0.025254 0.206685 -0.229909 -0.482347 -0.217129 0.291597 -0.083873 -0.083400 0.031990 0.010534 -0.432244 -0.297409 -0.498983 -0.043155 0.267665 -0.300527 -0.205415 0.076447 -0.443205 0.259047 -0.390214 -0.025696 0.017945 -0.345577 -0.457363 -0.248049 0.940397 0.440393 0.090994 0.427025 0.159305 0.171817 0.551535 -0.212861 0.546677 0.036741 -0.133148 0.267501 -0.472330 0.067459 -0.005575 -0.230677 0.042925 0.433006 -0.366743 -0.264692 -0.114310 0.256999 -0.411818 0.505811 0.443004 0.139422 -0.030482 0.075053 -0.094173 
chicken 0.066868 0.566688 -0.072578 -0.355768 0.289015 -0.469671 0.331511 -0.671439 0.459027 -0.196192 0.135991 0.020680 -0.530432 -0.544451 -0.035741 -0.380413 -0.602990 0.093909 -0.471532 0.192144 -0.272359 0.171629 0.116835 -0.291545 -0.287368 -0.065063 0.611826 -0.142736 -0.167968 -0.587952 -0.037934 0.806005 -0.220652 0.584010 -0.606229 -0.189836 -0.298428 -0.323145 0.331080 0.016684 0.539905 0.199657 0.609664 0.040867 0.099335 -0.516767 0.066119 0.406272 -0.761669 -0.485712 -0.193280 0.365494 -0.213495 -0.181476 0.572271 0.118698 0.182326 0.030659 0.111581 -0.479221 -0.189126 -0.024223 0.005234 0.207473 -0.567655 
lemon_juice 0.786365 -0.112358 0.332181 0.340227 -0.231657 0.323135 -0.197153 0.195454 0.193876 -0.039989 0.130777 0.609999 0.452121 0.418231 -0.117268 -0.316720 0.395677 0.446671 -0.142437 0.148465 -0.628946 -0.020111 -0.127784 0.283737 0.258952 0.084100 -0.327771 0.293894 -0.016595 0.018646 0.532273 -0.027814 -0.444187 0.072329 -0.109688 0.207065 -0.006976 0.410987 0.246082 0.097965 0.106273 -0.485030 -0.725710 0.186770 0.747586 -0.523318 -0.016664 0.244025 -0.235706 -0.092606 -0.126687 -0.195587 -0.210182 -0.065821 -0.056449 0.003810 0.354885 -0.330550 -0.167139 0.093017 -0.057758 -0.684187 0.377307 0.148783 -0.713513 
beef 0.022758 0.818214 -0.153929 0.272558 -0.234716 -0.342011 0.383166 0.328588 -0.538214 0.893189 -0.059819 -0.549938 -0.379999 0.328117 -0.558530 -0.129269 -0.367440 -0.471728 -0.070917 -0.047210 -0.626599 -0.515582 -0.530545 0.127787 -0.409014 0.312268 0.516002 -0.008020 0.018186 -0.756531 0.372291 0.933612 -0.011684 -0.398378 -0.506666 0.228916 -0.139696 -0.380332 -0.422062 0.017857 -0.188953 0.132605 0.594741 -1.072489 -0.120293 -0.244142 0.174611 0.142660 -0.685915 -0.559037 0.670026 0.643127 0.088374 0.601574 -0.183609 -0.377393 -0.200907 0.190822 -0.251992 0.047044 -0.070290 0.501893 -0.511428 -0.036283 0.170407 
cocoa -0.512953 0.105110 0.257150 0.192019 -0.313649 0.833956 -0.487787 0.092529 -0.600183 -1.169826 -0.605275 -0.586188 0.276531 -0.142007 0.450793 -0.678285 -0.508034 0.871136 -0.429180 -0.489106 0.746130 0.528671 1.225717 0.472964 1.259538 -0.579542 0.392183 0.751873 -0.202905 -0.226898 -0.278279 -0.600317 0.619734 0.602454 0.445087 0.761980 0.654589 -0.253584 0.276539 -0.270363 -1.066319 -0.549001 -0.872590 -0.011393 -0.176730 0.160913 0.592014 0.128149 -0.080661 0.147110 0.277252 -0.008442 0.438955 -0.309937 0.984079 -0.624436 0.585413 1.492533 -0.244246 0.394425 -0.307844 0.128871 -0.535993 -0.220005 0.109738 
corn 0.134128 0.407706 -0.310625 0.286387 0.099704 0.077281 -0.042336 0.067489 -0.244168 0.219584 -0.204760 0.031553 -0.418801 -0.496318 -1.233319 -0.200257 -0.264690 -0.042316 -0.264967 0.361051 0.370196 -0.104622 -0.233616 -0.054340 0.083275 0.049503 0.030853 0.135049 0.922753 -0.333046 -0.429042 -0.281678 0.258241 -0.185996 -0.028522 0.993902 -0.812604 -0.252808 -0.777790 0.333528 -0.236654 -0.152542 -0.179043 -0.073789 0.197784 -0.515464 0.489774 -0.184363 -0.023627 0.027080 0.048079 -0.372699 0.313027 0.077984 0.417498 -0.234487 -0.135256 0.854766 -0.535227 -0.006440 0.033398 0.310247 0.302389 -0.939877 -0.114635 
bread 0.438025 -0.208975 0.033214 0.087369 0.125686 0.181947 0.085056 -0.178800 -0.206513 -0.145703 -0.177891 0.084348 -0.397242 0.130589 -0.125285 -0.316330 0.173313 0.118906 0.204471 0.521430 0.465987 -0.102353 -0.118594 -0.110193 -0.106613 -0.153093 -0.106366 0.535481 0.111300 0.170239 -0.112329 0.311704 -0.086906 -0.020973 -0.686781 0.728625 0.426445 0.205557 0.478519 0.365088 0.717108 -0.220850 -0.183798 -0.307359 0.155311 -0.106241 0.168594 -0.008694 -0.154723 0.043918 -0.185469 -0.120659 0.553928 0.556060 -0.664191 -0.488599 -0.126444 -0.175424 -0.265598 -0.211268 0.682183 0.106032 -0.134961 -0.555890 -0.152278 
scallion 0.358396 -0.458285 0.160387 0.189791 -0.091831 0.315766 0.189582 -0.566277 -0.274214 -0.201074 0.341626 -0.403540 0.522872 -0.368914 -0.216856 -0.774000 0.339473 0.097575 0.340463 0.226464 0.339003 -0.086010 -0.825742 -0.380236 0.233385 0.107755 0.103063 -0.068076 -0.388874 -0.601059 0.108730 0.371894 -0.571305 0.380400 -0.330789 -0.121032 -0.935237 0.114519 0.141472 -0.310721 -0.208872 -0.177914 0.275479 -0.073646 0.026892 -0.141362 -0.383962 0.636322 -0.905548 -0.149218 -0.351718 0.445944 -0.156913 -0.232884 0.114807 0.425273 0.116969 0.405100 -0.658920 -0.316045 -0.349903 -0.204857 0.004167 0.348941 -0.272577 
mustard 0.553957 0.616016 -0.055579 -0.096732 -0.540812 0.632984 0.163588 0.648713 -0.489110 0.025367 -0.230763 0.255784 0.631236 0.374749 0.098696 -0.350475 -0.211892 0.403159 0.344602 0.297590 -0.432273 -0.175166 -0.519870 0.056830 0.480245 -0.040383 -0.587049 0.631746 0.016127 -0.049986 -0.027509 0.062619 -0.079079 0.110091 -0.386586 0.034219 0.037180 -0.529198 -0.681716 0.638610 0.162963 0.058008 0.036856 -1.009085 0.775177 0.005636 -0.200192 -0.580194 -0.164058 -0.072271 -0.771626 -0.193820 0.241651 0.006868 0.297956 -0.249072 0.130326 -0.232234 -0.348861 0.366054 0.445288 1.142380 0.443102 -0.035131 -0.388091 
ginger -0.008049 0.144921 -0.569766 -0.384244 0.277418 0.837992 0.713443 -0.390932 -0.745058 -0.563280 0.838185 0.295215 0.500545 -0.156682 0.488982 -0.602743 0.472055 -0.137617 0.557575 -0.816697 0.180384 -0.346606 0.413422 0.684386 0.813831 0.041425 0.186689 -0.921177 0.470599 -0.438840 -0.083246 -0.219370 0.609822 -0.675427 -0.433496 -0.542994 -0.019653 0.093102 0.010040 0.943228 -0.630356 0.171919 -0.389508 0.308512 -0.180442 -0.573854 0.163833 0.057508 -0.410021 -0.691404 -0.558731 1.428475 0.172607 -0.491695 0.616850 0.743041 0.264632 -0.002214 -0.185213 -0.767961 0.134565 -0.136903 0.735246 -0.449818 0.256742 
basil 0.117566 0.060904 0.723881 0.201226 -0.354003 -0.546584 0.155311 0.749989 0.202690 0.169534 0.216402 -0.305383 -0.848910 -0.556232 -0.018962 0.322436 0.018808 -0.427657 -0.905053 0.080095 -0.332222 0.231496 -0.699275 -0.418511 0.225633 0.079248 -0.346538 0.833953 -0.007815 -0.514700 -0.473810 0.911554 0.143917 -0.039380 -1.209234 0.458843 0.613784 0.409478 0.374037 0.442231 0.188297 -0.336813 0.395333 0.084726 0.310941 0.621477 -0.245417 0.040512 -0.722271 0.112457 -0.044719 -0.161539 0.061755 0.266391 -0.385177 0.307786 -0.495111 -0.365911 0.785858 -0.259977 0.366772 -0.266128 0.241721 -0.408968 0.220056 
celery 0.965431 -0.160014 0.214583 -0.885775 0.357656 -0.159685 0.368571 0.383491 1.339838 -0.012679 -0.200632 0.061324 -0.066636 -0.273785 0.059152 -0.335372 -0.860771 0.119435 0.219986 0.216722 -0.109670 -0.748884 0.070221 -0.210484 -0.130636 0.238891 0.142181 0.224150 0.336342 0.087773 -0.304104 -0.458550 0.455219 0.169999 -0.809363 0.308616 0.557192 0.140009 -0.480136 -0.289277 0.073061 0.063573 0.440113 0.064117 -0.000231 -0.285239 0.351331 -0.203246 -0.845748 -0.091750 0.292000 0.990696 0.145259 0.036912 -0.539737 0.267072 -0.279011 -0.218293 0.203388 0.093181 0.774020 0.340051 -0.056260 0.183255 0.063999 
carrot 0.585450 -0.339835 0.330259 0.430369 0.236140 -0.411862 0.422413 1.184147 0.044207 0.842335 -0.515584 -0.488818 0.194758 -0.157144 0.245515 -0.931425 -0.390420 0.081425 0.175459 -0.128662 0.300272 -0.021097 -0.150047 -0.140846 -0.546459 -0.144090 0.461263 -0.525211 -0.529115 -0.012006 0.162080 -0.286279 -0.123267 -0.094010 -0.646572 0.264508 0.124021 0.413253 -0.202030 0.671876 -0.541271 1.065143 0.338441 0.202716 0.526425 0.000875 0.031070 0.611527 -0.228288 -0.622441 0.254157 0.777744 -0.281888 -0.113382 -0.330678 0.085841 0.347274 -0.632291 -0.629693 0.177775 -0.277854 -0.057386 -0.084727 -0.238732 0.481920 
potato 0.987119 -0.593867 0.125256 -0.191406 0.183376 -0.246090 0.304023 0.327976 0.409274 0.291732 -0.556109 -0.485981 0.126002 0.234130 -0.552572 0.362994 -0.076233 0.110329 0.103981 0.200989 -0.011447 -0.583543 0.562319 -0.110004 -0.218638 -0.039327 0.280717 0.024355 -0.022720 0.383804 -0.257440 -0.067435 0.273278 -0.434258 -0.514960 0.542373 0.006419 -0.063586 -0.261799 0.524109 0.110210 0.309379 0.106417 -0.364413 0.279654 1.300782 0.448302 0.216761 -0.946827 -0.766846 0.074262 0.601159 0.040041 0.463032 -0.120715 0.497747 0.799105 -0.137031 -0.276951 0.069095 0.217229 -0.089688 -0.171926 0.025060 -0.087843 
chicken_broth 0.468085 0.187641 0.398450 -0.801589 0.225461 -0.140209 0.326781 -0.211316 0.559339 0.840633 -0.023318 -0.073378 -0.158079 -0.190951 0.100158 -0.194296 -0.422870 -0.184526 -0.570766 0.267818 -0.511883 -0.423082 0.030007 -0.844492 -0.327247 -0.194729 0.105220 -0.390306 -0.276376 -0.263455 -0.313385 0.463157 0.337801 -0.400301 -0.520399 0.243729 0.812036 -0.112793 0.237314 0.408630 0.051524 0.454112 0.530886 0.714237 -0.247781 -0.261837 -0.242869 0.576285 -0.444311 -0.532836 -0.255353 0.415011 0.037334 -0.035872 0.643897 0.295666 0.358236 -0.389150 -0.395920 0.235332 0.512078 -0.709940 -0.658727 0.883497 0.411783 
yeast 0.226265 -0.027375 -0.133048 0.467753 -0.201527 1.158605 0.525746 -0.344829 -0.443297 -0.652418 0.123704 -0.136739 -0.325938 0.522665 -0.105355 0.063965 0.094686 -0.181146 -0.100810 0.223478 0.249551 0.149582 0.693143 -0.079465 -0.191843 -0.513206 0.352951 0.348559 -0.226147 0.216032 0.092101 0.245963 -0.021388 0.229557 0.030914 0.672421 0.233194 0.289762 0.438095 0.164584 0.274125 -0.462989 0.099883 -0.606860 0.002150 -0.054940 0.079138 0.300130 0.288563 0.229907 -0.007692 -0.449871 0.329466 0.034667 -0.128177 -0.430006 0.258166 -0.229705 0.215040 0.130197 -0.317174 0.356516 -0.392540 -0.449950 0.481714 
rice 1.115936 -0.529093 -0.556362 -0.124001 0.316545 -0.070043 0.351012 -0.032568 0.282356 0.408870 0.153165 -0.008896 0.488189 -0.462344 -0.082622 -0.614379 -0.611369 0.022823 0.152948 -0.397387 0.369565 0.252343 -0.351260 0.258350 -0.054479 -0.414452 -0.236888 -0.572665 0.413606 -0.206887 0.327530 0.031170 0.067339 -0.338075 -0.627020 0.441675 -0.215234 0.341040 0.114685 0.126786 -0.875819 0.358952 -0.059262 0.266783 -0.041124 -0.514596 0.033088 0.815272 -0.355039 -0.499449 -0.668962 -0.081887 -0.154932 -0.212969 -0.119960 -0.149145 0.347104 0.054243 0.183131 -0.385062 -0.218689 -0.200792 0.403916 -0.138885 -0.219568 
mushroom 0.526475 0.316895 0.520704 0.187324 -0.249493 0.097465 0.203854 0.192164 0.199381 0.023801 0.267773 -0.259352 -0.517998 -0.356752 0.301651 0.113922 -0.559339 -0.089629 0.385293 -0.132717 0.636378 -0.539529 -0.073790 -0.350703 -0.547738 -0.270146 0.106386 0.126946 -0.370969 0.083597 -0.023173 0.794400 0.174119 0.256584 -0.213201 0.123199 0.663068 -0.037637 -0.079208 0.586685 0.134072 0.188696 0.349660 -0.155217 -0.122675 0.754916 0.098080 0.830355 -0.655750 -0.194507 -0.344324 0.457662 -0.286604 -0.067463 -0.373464 0.292397 -0.152175 0.033472 0.302764 -0.045218 0.778602 -0.035972 -0.618058 0.294383 0.005010 
cheese -0.367725 0.043701 0.699220 0.060519 -0.259843 0.355337 -0.199619 -0.469096 0.076062 0.338493 0.105736 -0.067106 -0.391632 -0.139141 -0.633894 0.558133 0.183811 0.060474 -0.125811 0.167931 0.031482 -0.159819 0.167724 -0.116884 -0.334588 -0.141227 -0.348101 0.389193 0.048216 -0.217665 -0.169974 0.313862 0.346487 0.346796 0.669484 0.386539 0.317107 0.859965 0.117216 0.510843 0.350867 -0.757952 0.299943 0.122148 -0.120486 0.015056 0.342686 -0.017029 -0.580031 0.361071 0.234656 -0.653368 0.112012 -0.045664 -0.266608 0.455467 0.324996 -0.182534 -0.606250 -0.440258 0.385932 -0.574051 -0.586691 -0.104084 -0.090642 
soy_sauce 0.642325 -0.261050 -0.215576 0.274145 0.830645 0.254406 -0.526893 -0.674309 -0.561975 -0.771413 0.345087 -0.093952 0.541104 -0.933700 0.464799 -0.987388 -0.389072 0.876005 -0.063974 0.555269 0.017038 0.045081 -1.783235 0.827199 -0.384426 0.061432 -0.715534 -1.098104 0.303540 -0.683383 1.106528 0.456076 0.959458 -0.249896 -0.220378 -0.195974 -0.770983 -0.039127 0.008992 0.951333 -1.388898 0.568078 -0.340815 0.592973 0.299301 -0.040432 -0.668879 0.148656 -0.740606 -0.273699 -1.057760 0.593400 -0.342722 -0.915594 -0.102827 0.166097 -0.134553 0.255491 -0.261642 -0.198125 -0.183538 1.160908 0.004488 0.614751 0.329631 
cumin 0.740679 -0.436089 0.263665 -0.694588 0.227290 -1.080160 -0.824197 -0.333456 -0.186423 0.319430 0.045262 0.059031 0.679348 0.473953 0.344152 -0.369834 -0.180875 -0.614017 -0.134666 -0.141283 -0.713519 -0.440582 -0.198884 0.091305 -0.241459 0.161836 0.506545 -0.089768 1.168149 -1.257668 -0.639267 0.109298 0.195052 0.423461 -0.029874 0.988600 0.575122 -0.293661 -0.545804 0.082944 0.180633 -0.008289 0.724245 0.644037 1.172999 0.000495 -0.615348 0.710255 0.104913 0.223179 -0.479345 1.421621 0.044214 0.220443 0.870630 1.228693 0.597966 0.394621 -0.881276 -0.631084 -0.778202 0.123161 1.269778 -0.231542 0.017402 
oregano 0.243556 0.351341 0.201574 -0.395728 -0.547426 -0.893828 0.311366 0.008973 0.025240 -0.113194 -0.314632 -0.532932 -0.098340 -0.605849 -0.261679 -0.057378 0.793124 -0.053975 -0.581520 0.277872 -0.146468 -0.091787 -0.311192 -0.410800 -0.112378 -0.008050 0.165087 0.294746 0.393274 -0.806547 -0.400913 -0.022260 0.152306 0.169976 -0.395299 0.533181 0.095280 0.660362 -0.149318 1.031274 0.406152 -0.458241 0.824759 0.048566 0.161581 0.088675 0.636330 -0.305728 -0.779519 0.639218 0.265591 -0.276243 -0.554488 0.066822 -0.392764 -0.169472 -0.612449 -0.029811 0.071217 -0.676461 0.905438 -0.029529 -0.176576 -0.059525 0.404074 
parmesan_cheese -0.117687 0.016543 0.916823 0.252295 -0.768713 -0.470471 0.117921 0.576266 0.817178 0.001939 -0.228310 -0.021140 -0.729044 -0.485304 -0.321263 0.963499 -0.132371 0.525490 -0.300970 0.194705 0.195694 -0.057274 -0.596328 -0.803919 -0.520092 0.077534 -0.166540 0.403748 -0.094105 0.129672 -0.358922 0.578176 0.352404 0.584931 -0.007566 0.442995 0.801882 0.376444 0.648496 0.218461 -0.059723 -0.680779 0.341082 -0.258709 -0.163521 0.549493 -0.167661 0.802053 -0.731055 0.183486 -0.108256 -0.269657 -0.385096 -0.091808 0.034313 0.777331 -0.169712 -0.354268 0.049676 -0.277698 0.483094 -0.464627 -0.487523 -0.098143 0.013003 
macaroni 0.814090 -0.470464 0.208248 0.636703 -0.700215 -0.801819 0.064517 -0.145517 0.434631 -0.144407 -0.337116 -0.187519 0.108495 -0.550567 -0.279489 0.414128 -0.158298 0.125200 -0.226784 -0.212767 -0.022853 0.316154 -0.476903 0.008031 -0.330665 -0.540277 -0.289639 0.494486 -0.235175 0.049203 -0.550608 0.330513 -0.126111 -0.027103 -0.958655 0.347850 0.317641 0.811146 0.871716 0.947745 0.006516 -0.296582 0.123368 0.159411 -0.573617 1.158319 0.087798 0.255232 -0.733515 -0.235283 -0.376649 -0.188210 0.295238 0.478989 -0.807635 -0.155048 0.070588 -0.548704 0.241059 -0.718297 0.630111 -0.599579 -0.100373 -0.356520 -0.428530 
thyme 0.830432 -0.210543 1.199119 -0.079835 0.399231 -0.431364 0.630615 0.671924 0.638413 0.102474 -0.195951 -0.318268 -0.589346 0.174198 -0.363375 0.161342 0.217448 -0.122275 -0.685772 0.641586 -0.081581 -0.221102 0.396624 -0.269845 -0.200988 0.904208 0.295698 -0.052334 -0.008516 0.910243 -0.679872 1.090071 0.486985 -0.728684 -0.947096 0.175314 0.457859 0.273891 -0.131059 0.371018 -0.514918 0.673544 0.353851 0.227747 0.007771 -0.127689 -0.165341 0.422681 -0.525577 0.512698 -0.159285 -0.246175 -0.380593 0.439296 -0.466085 -0.692241 0.031023 -0.765908 -0.272463 0.275018 0.863319 -0.241846 -0.515923 0.436789 -0.043509 
cheddar_cheese -0.064759 0.646960 0.521301 -0.469594 -0.548676 -0.162149 -0.561148 -0.402774 0.111557 0.251429 0.103709 -0.653962 -0.179552 -0.826617 -0.949507 0.325683 -0.391842 0.294379 -0.109192 0.325562 0.510876 -0.474100 0.146680 -1.024396 -0.155340 -0.046803 0.016035 0.339049 0.529422 -0.086008 -0.083939 0.558960 0.816157 0.972270 0.513247 -0.226584 0.138060 0.419953 -0.580530 -0.015234 0.532434 -0.267005 0.656144 -0.506668 -0.067945 0.676355 1.164650 0.071734 -0.156673 -0.216136 0.336526 -0.270145 0.913215 -0.355301 0.160687 0.649724 0.246340 -0.264163 -0.566399 -0.214773 -0.147353 0.100406 -0.548371 -0.296973 -0.121907 
lard 0.180496 -0.135145 -0.253947 0.382370 -0.123754 0.767920 0.298796 0.073289 -0.618613 -0.569751 -0.527955 -0.153104 -0.385999 0.518624 -0.098477 -0.028849 -0.383141 -0.109909 -0.439334 0.021704 0.487683 0.004107 0.183257 -0.158365 0.125887 -0.079227 -0.081530 0.452083 0.170595 0.361494 -0.006136 -0.257971 -0.049235 0.036974 0.022645 0.486971 0.505935 -0.015761 0.119161 0.028446 0.113728 -0.463539 -0.106239 0.198541 -0.185002 -0.273185 0.121897 -0.278586 0.575783 -0.240688 0.357785 -0.123311 0.210381 -0.136014 0.023619 -0.062216 0.209262 0.128039 0.017046 0.558567 -0.430695 -0.210649 -0.289364 -0.154805 0.920636 
lemon 0.812490 -0.128888 0.370439 -0.411727 -0.164415 0.497123 0.550199 0.555470 0.053299 -0.426203 -0.345872 0.633633 0.158766 0.081332 0.391825 -0.176828 0.051434 0.755675 -0.378696 -0.135069 -0.607537 0.531453 -0.135803 0.088745 -0.112220 0.044626 -0.048686 0.106767 -0.189349 -0.068915 -0.536040 -0.225239 -0.161161 -0.328277 -0.640492 0.075299 0.038758 0.394186 -0.274904 0.104045 0.367130 -0.039160 -0.030022 -0.188901 0.493569 -0.306706 -0.520116 0.226411 0.487707 0.325747 0.000556 -0.213448 0.294254 0.017561 -0.080810 0.164742 0.649369 -0.025816 -0.020429 -0.036435 -0.284200 -0.621277 0.126148 0.104639 0.055229 
cream_cheese 0.550731 0.712388 0.066864 0.095458 -0.225069 0.995742 -0.005620 0.184910 0.356572 -0.393698 -0.402109 0.113890 -0.189429 0.176509 -0.180834 0.628261 -0.232918 0.021719 0.341407 -0.258911 0.334492 0.362553 -0.452868 0.243184 0.427330 -0.040781 -0.089639 0.667601 0.034079 -0.168112 0.240913 -0.128743 -0.011279 0.582846 0.421188 -0.191019 0.298511 0.319127 0.322731 0.270116 0.382231 -0.412210 -0.024597 -0.195075 -0.515977 -0.138343 0.107673 -0.633980 0.345189 0.204736 0.425243 -0.157782 0.717034 0.268167 -0.277954 0.439333 -0.171681 0.439009 0.234177 -0.271165 -0.385439 -0.594766 0.050545 -0.102680 -0.296108 
walnut -0.690056 0.149024 -0.667923 0.870141 -0.694561 0.447241 0.052731 0.168609 0.241672 -0.211314 -0.856717 0.042269 -0.366165 0.609760 0.268852 0.144773 -0.355901 -0.441082 -1.078658 0.134206 0.307020 -0.054893 0.398043 0.934111 0.452766 -0.101073 -0.314909 0.315623 -0.278432 0.470500 0.564009 -0.230452 -0.286946 -0.318249 -0.088323 0.077172 0.000956 -0.051669 0.750699 -0.584293 -0.406228 -0.192457 -0.344066 0.371347 0.646037 -0.485668 0.473814 0.050076 0.327531 0.308885 0.302104 0.204724 0.390825 -0.342311 -0.207115 0.253315 0.790968 -0.546823 -0.144997 0.688025 -0.226191 -0.319171 -0.540523 -0.072119 0.747519 
green_bell_pepper 0.733680 0.415474 0.054698 0.018150 -0.573714 -0.578292 0.224949 -0.160159 0.564816 0.117701 -0.222779 -0.258225 0.388549 -0.606688 -0.561366 -0.299309 -0.265499 -0.026050 -0.635418 0.034849 -0.051343 -0.218395 -0.471037 -0.269034 -0.376395 0.466062 -0.110624 0.583562 0.597118 -0.281295 -0.266959 -0.158177 -0.140666 -0.354724 -0.053234 -0.177084 0.019517 0.393395 -0.406837 0.251622 0.160545 -0.296047 0.868278 0.304745 0.019215 0.615756 0.446941 -0.021038 -0.441751 -0.068917 0.221931 0.895939 0.735899 -0.265197 -0.130141 -0.417466 -0.292351 -0.049049 -0.331602 -0.664715 0.475335 0.734214 0.042654 0.182350 -0.260905 
starch 0.537236 0.391370 -0.578153 0.052321 -0.182202 0.673698 0.196204 -0.208254 -0.119033 -0.055367 0.445865 0.115000 -0.520465 0.070097 0.559550 -0.502169 -0.111349 0.537931 0.338913 -0.910598 0.324018 -0.682486 -0.101340 0.149408 0.171516 0.442003 -0.204204 -0.370420 -0.122442 0.308180 0.012844 -0.237387 0.264186 -0.498816 -0.463683 -0.353583 -0.431654 -0.264463 -0.357121 0.044226 -0.338872 -0.158424 -0.110473 0.696438 -0.531824 -0.073988 -0.362928 -0.006859 0.311506 0.031473 -0.386501 0.237591 -0.315605 0.509097 0.195380 0.082677 0.485216 0.053096 0.244100 0.465440 -0.117105 0.013299 0.173702 -0.198153 -0.116272 
nutmeg 0.376979 -0.381858 -0.109852 0.006448 -0.552677 0.618577 0.146825 -0.207419 0.593651 -0.829231 -0.277460 -0.654593 -0.176414 1.159027 -0.088822 0.148920 -0.112308 -0.216942 -0.384487 0.277769 0.069229 0.248118 0.153066 0.450409 0.307683 0.246706 0.789265 -0.653500 -0.364744 0.255616 0.095531 0.132828 0.146074 0.017591 -0.119956 0.282698 -0.091104 -0.679679 -0.073152 0.287471 0.409031 0.295061 -0.798658 0.507372 -0.032480 -0.395402 0.040994 -0.110585 0.531038 -0.248039 0.659143 0.415710 -0.050402 0.236004 0.323333 0.410168 -0.633466 -0.724869 -0.224887 1.055335 0.288356 -0.567647 -0.353669 -0.299233 0.676014 
honey -0.527703 0.071066 -0.337243 0.627538 0.095933 0.844814 0.732062 -0.014554 -0.209972 -0.043576 0.788799 0.162361 0.101819 -0.041869 0.545974 -0.669719 -0.486351 0.248318 -0.687132 -0.044774 -0.131366 -0.393943 0.223103 0.274179 0.332272 0.637002 0.321774 -0.060392 0.727175 -0.214539 0.384654 0.001548 -0.115968 0.088603 -0.323301 -0.820697 -0.168519 0.094078 0.220163 0.518133 -0.399354 -0.372674 -0.741551 0.102327 0.242057 -0.269786 -0.242219 0.215658 -0.177191 -0.028719 -0.000828 -0.225141 0.063358 -0.264848 0.093467 -0.070621 0.109138 -0.176795 0.053681 -0.147383 -0.086210 -0.057886 0.589157 -0.487128 0.211741 
apple 0.106862 0.635442 -0.892066 -0.185092 -0.241504 0.671323 -0.061896 0.082784 0.182855 0.024473 -0.515334 0.175642 0.145707 0.365959 0.801629 -0.500082 0.431265 -0.219792 -0.414732 0.036076 0.241217 -0.167179 0.092603 0.383197 0.139803 0.230199 1.184160 -0.117403 -0.349643 0.342212 0.552565 -0.370978 -0.008640 0.497543 -0.601662 0.033355 -0.137228 -0.248399 0.604157 -0.082391 0.173793 -0.073361 -0.243218 0.239973 0.367413 -0.135518 0.162496 -0.218280 0.208387 0.156204 -0.274392 0.797868 0.184980 -0.006135 0.542076 0.261346 0.097861 -0.561855 -0.296386 0.017937 0.253869 0.085802 0.358222 -0.159206 0.995686 
almond -0.111619 0.348406 -0.052894 0.121010 -0.473586 0.596689 -0.103118 0.235984 0.595732 -0.217899 -0.592923 0.117388 -0.039076 0.279067 0.505336 -0.204505 -0.281691 -0.003717 -0.527210 -0.493512 -0.323134 -0.339895 0.401485 0.265661 0.042767 0.125451 -0.428731 -0.068121 -0.098565 0.048100 0.745097 -0.415317 0.151853 0.240244 -0.332217 -0.122961 -0.170050 -0.165223 -0.015072 -0.045647 -0.412690 -0.168594 -0.219785 0.048415 0.313893 -0.828567 -0.275993 0.055279 0.566931 0.133560 -0.234627 -0.268422 0.099346 -0.556635 0.447037 0.278875 1.194155 -0.212135 0.224528 -0.136105 -0.074607 -0.485378 0.015057 -0.340379 0.487964 
cilantro 1.231403 -0.205409 -0.206230 0.366957 0.043055 -0.215144 0.018688 -1.455173 -0.281132 -0.446847 0.281023 -0.549112 0.501546 0.262328 -0.333575 -0.482431 -0.210917 -0.463828 -0.257620 0.137823 -0.936055 -0.239018 -0.675965 0.136001 0.134563 -0.109371 0.044690 -0.094496 0.795925 -1.518340 -0.868715 -0.291304 -0.423079 -0.131226 0.085375 0.314933 0.017787 0.122996 -0.655784 -0.103979 -0.433052 0.672822 -0.201130 0.907591 0.498189 -0.265794 -0.030553 0.503775 -0.222462 0.038787 -0.323577 0.173315 -0.389727 -0.456527 0.499277 0.649905 -0.023782 0.407300 -0.436802 -1.380285 -0.360279 0.034212 0.094586 0.471327 -0.424604 
pecan -0.137939 0.373471 -0.504062 0.574020 -0.703735 0.548867 -0.217527 -0.025053 -0.043561 -0.526906 -0.481442 0.182387 -0.288869 0.774952 0.378694 0.312973 -0.163559 -0.199878 -0.653708 0.412419 0.767961 0.063719 0.932234 0.640242 0.646230 0.247428 -0.034192 0.192987 0.098654 0.580695 0.372428 0.004586 0.009077 0.143511 0.005490 -0.077060 0.189971 -0.436815 0.353258 -0.529970 -0.746241 0.053947 0.061231 0.516777 0.135351 -0.163240 0.398950 -0.268716 0.549063 0.304427 0.593540 0.147182 0.236364 -0.285785 0.158825 0.519985 0.276167 -0.556287 -0.450438 0.180138 -0.066642 -0.096456 -0.292880 -0.093547 0.384780 
white_wine 0.645806 -0.393662 0.167563 -0.009384 0.386268 -0.020763 0.823119 0.653290 0.606566 -0.011517 -0.384437 0.154351 -0.087266 0.018940 -0.059454 0.225537 0.334929 -0.058177 -0.170238 0.238382 -0.486917 -0.317081 -0.818478 -0.055686 -0.038298 0.469655 -0.213349 0.381518 -0.461343 0.096524 0.201329 0.156068 -0.277671 -0.357319 -0.236739 0.142575 0.824061 0.607230 0.372795 0.188719 -0.220701 -0.195543 -0.057670 0.379421 0.021760 -0.279389 -0.343615 0.366786 -0.075959 -0.132492 -0.485166 -0.018320 -0.236767 -0.036393 -0.572476 0.455285 0.551524 -0.344900 -0.129546 -0.277235 0.639646 -0.044304 -0.227493 -0.359287 -0.681800 
bacon 0.163795 0.189597 0.333775 0.088181 0.399473 -0.399278 -0.393113 0.181445 -0.243123 0.546503 -0.512227 -0.149854 -0.484995 -0.071076 -0.623485 0.345310 -0.482913 0.264548 0.007660 0.630388 0.120741 -0.295291 -0.530146 -0.098705 -0.213614 -0.012807 0.061178 -0.080987 -0.059204 0.113845 0.376465 0.029082 0.207257 0.495381 -0.609476 0.393577 -0.315282 -0.348355 -0.446990 -0.050825 0.047813 -0.179804 0.177897 -0.372834 -0.193337 0.283614 0.029219 0.208984 -0.530545 0.514074 0.118157 0.259494 0.186102 0.166988 -0.301461 0.077903 0.496396 -0.619622 -0.799468 0.179667 0.456790 -0.019458 -0.212755 0.036063 0.148966 
pork 0.037574 0.663189 0.180563 -0.275495 0.614803 0.107256 0.109011 0.130452 -0.592552 0.885820 0.058573 0.202772 -0.618731 -0.357582 0.051584 -0.355555 -0.246125 0.267007 -0.251994 0.388316 -0.041319 -0.082600 -0.364504 0.500574 -0.227768 0.073341 0.883262 -0.431807 0.328812 -0.646225 0.592915 0.732878 -0.367832 -0.143141 -0.928699 0.158156 -0.135505 -0.711864 -0.512038 0.354793 -0.561376 0.305010 0.086287 -0.087022 -0.622405 -0.409248 -0.150060 -0.393767 -0.407889 -0.762781 0.388518 0.287130 -0.286134 0.218217 0.198786 -0.189322 -0.178163 -0.233297 -0.314671 0.239499 0.159412 0.366222 -0.030405 -0.655769 0.019979 
raisin -0.559631 -0.234674 -0.020648 -0.610845 -0.584117 0.625474 -0.176287 0.442871 1.141038 -0.122071 -0.415456 -0.599468 0.169957 0.370366 0.385492 -0.308729 -0.556826 0.215836 -1.026179 0.088307 -0.051594 -0.074339 0.539798 0.685015 0.050034 -0.148805 0.734822 0.045907 0.763221 -0.532365 0.596260 -0.131446 0.198808 0.187159 -0.362378 -0.191813 0.406078 -0.293227 0.469603 -0.114557 -0.126693 -0.357283 -0.460150 0.224047 0.508406 -0.473178 0.077426 -0.478159 0.724749 -0.015289 0.149548 0.738881 0.239753 -0.507868 0.713609 0.140175 0.089693 -0.209399 -0.040131 0.603298 -0.414973 -0.659871 -0.052729 0.281721 0.515244 
bean 0.030708 -0.052863 -0.155076 -0.091500 0.029713 -0.315547 0.195576 -0.068223 0.752456 0.562419 -0.088850 -0.636840 -0.137125 -0.379806 -0.538418 -0.539392 -0.225801 0.034749 -0.189481 0.470396 0.067072 -0.463737 -0.036852 0.419673 0.181757 -0.549702 0.119557 -0.305657 0.827275 -0.774763 -0.351726 0.508777 -0.416286 0.017627 -0.407671 -0.272552 -0.149197 0.268845 -0.587931 0.364336 -0.405015 -0.257801 0.245855 -0.167152 -0.362815 0.167220 0.190547 0.572729 -0.200757 0.083206 0.051207 0.373157 0.060072 0.228783 0.516544 -0.779701 0.005588 -0.108866 -0.534657 -0.060821 0.273914 0.199254 -0.092195 0.814355 -0.301574 
rosemary 0.947713 0.217661 0.773912 0.367773 -0.331996 -0.558530 0.170516 0.648112 1.126071 0.435020 0.352674 0.298912 -1.080286 -0.599923 -0.264890 -0.009110 0.426382 -0.235741 -0.642949 -0.197792 0.091067 -0.252825 0.495325 0.408943 -0.019196 0.035356 0.302009 0.402540 -0.048200 0.136778 -0.061441 0.403628 0.053673 -0.213084 -0.864332 0.489263 1.104787 0.666854 0.054405 0.227670 0.025625 -0.094673 0.507271 0.134931 -0.033001 -0.248108 -0.502142 0.453977 -0.620333 0.071066 0.103899 -0.157982 -0.036448 0.388372 -0.357084 -0.404126 -0.787784 -1.086687 -0.152190 0.010878 1.229538 0.370190 -1.004895 0.258038 0.458189 
fish 0.596639 -0.146418 0.195932 -0.213165 0.391698 0.122177 0.265066 0.099532 -0.519763 -0.329503 0.207529 0.395497 -0.075627 -0.751919 -0.121694 -0.273452 -0.030470 -0.439332 0.435729 0.558556 -0.913752 0.216448 -1.019472 0.258155 0.170340 -0.144129 -0.001316 0.461671 -0.171315 -1.413706 0.206957 0.360619 -0.711112 -0.481708 -0.054422 -0.203816 -0.008423 0.730057 -0.050461 0.134086 -0.413910 0.317139 -0.218287 -0.062277 -0.036965 -0.319443 -0.265041 0.266828 -0.596501 -0.341070 0.380915 0.433755 -0.003091 -1.110679 0.187057 0.748965 0.738783 0.248849 0.593460 -0.472851 0.491494 -0.328433 -0.062145 0.363721 -0.018095 
cucumber 0.249490 0.366634 0.721659 0.238356 0.277180 0.557533 0.813972 0.723675 0.101713 -0.311086 0.262721 0.118241 -0.038599 -0.381650 0.184785 0.226305 0.611870 -0.271817 0.300744 0.617287 0.297767 -0.450381 -0.707761 0.170897 1.235927 -0.818188 0.054967 -0.048632 0.195289 -0.963169 0.841872 -0.059590 -1.199495 0.369711 0.302938 0.605067 0.012362 0.223417 -0.116900 -0.230504 -0.359934 0.025470 -0.740381 -0.790910 0.345344 0.019286 0.474844 -0.665905 -0.364446 -0.150257 -0.527950 -0.478839 -0.082332 0.050634 0.339590 -0.040115 1.342151 0.506755 0.096251 -0.466941 -0.747416 0.359151 1.173811 0.765436 -0.464737 
olive 0.826058 0.432114 0.505960 -0.153122 -0.158162 -0.565463 0.757944 0.110456 -0.010735 -0.343836 -0.067859 0.007655 -0.169845 -0.413676 -0.246420 0.475649 0.246436 -0.384015 -0.389756 0.451060 -0.413856 -0.093384 -0.911934 -0.094459 0.337074 -0.231814 -0.568016 0.692322 0.188272 -0.555577 -0.663768 0.281455 -0.419598 0.587978 -0.853964 -0.219388 0.253118 0.143674 0.277923 0.373091 0.349769 -0.665396 0.730187 0.114679 0.881357 0.211343 0.576799 0.295087 -0.103375 0.426348 0.242413 -0.608392 -0.162654 -0.218139 -0.777111 -0.544188 -0.089301 -0.005744 -0.271115 -0.825983 0.159139 -0.483964 -0.223521 0.237818 0.279650 
coconut 0.455959 0.091727 -0.228066 -0.621127 -0.410346 0.477625 -0.390422 -0.649532 0.354550 -0.545318 -0.337190 -0.616560 0.904610 0.497922 1.067823 -0.351111 -0.393948 0.045932 -0.168524 -0.462712 0.248076 -0.200051 0.854429 -0.041774 1.048713 -0.472120 -0.706399 0.365903 -0.246988 -0.535928 -0.258847 -0.137677 0.530039 0.027346 0.138110 -0.219906 -0.252955 -0.937947 0.295166 0.055848 -0.455925 0.248453 -0.570425 0.433385 0.529654 -0.484495 -0.431845 -0.100720 0.250803 -0.780502 -0.333892 0.908508 0.273501 -1.002785 1.082260 0.269718 -0.320602 0.927839 -0.464607 -0.489750 -0.128840 -0.676569 0.710856 0.458531 0.092676 
orange -0.225019 0.179708 -0.689059 -0.061716 -0.349613 0.761128 0.287648 -0.125571 0.180490 -0.832626 -0.138032 0.514381 0.049554 -0.369791 1.258410 -0.324360 -0.484851 0.176166 -0.484708 -0.853377 -0.208191 -0.182915 -0.328437 0.574725 0.371044 0.621708 0.510322 -0.059757 0.441287 0.293665 -0.160289 0.466720 -0.297267 -0.176794 -0.432489 0.154846 0.534709 0.076082 -0.111513 0.167665 -0.411377 0.225035 -0.941218 -0.092432 0.366863 -0.295900 0.210058 0.406446 0.925848 0.601512 0.083368 0.180133 -0.282492 0.196307 -0.124072 0.105989 0.328420 -0.595652 -0.373011 0.567938 0.032032 -0.943371 0.446600 0.312644 0.268408 
tamarind 1.348772 1.571804 0.047952 -0.237405 0.188703 -0.238625 0.159824 0.567666 -0.126460 0.593089 -0.306454 0.513501 0.090857 -0.468707 0.079412 -0.303301 0.468845 -0.561378 -0.059992 1.312020 0.135509 -0.253684 -0.445712 0.553994 0.493945 0.626697 -0.377650 -0.186396 1.126507 -0.526740 -0.019076 -0.009501 0.284750 -0.131100 0.007384 0.326230 -0.232690 -1.069933 -0.598895 0.272903 0.035116 0.115318 -0.229126 -0.268575 -0.680249 0.237515 0.509220 0.505363 0.322696 0.067899 0.018225 -0.053584 -0.040103 -0.377834 0.218714 -0.679684 -0.598406 -0.115038 -0.676886 0.024104 0.256818 1.717465 0.176008 -0.824288 -0.387852 
vegetable 0.202518 -0.254043 -0.079576 0.143488 -0.089493 0.055751 0.402422 0.568827 0.557521 0.242896 0.139988 -0.543544 0.448061 -0.379215 -0.503174 -0.283387 -0.013683 -0.029821 0.775779 -0.502693 0.141208 0.057892 0.079161 -0.333275 -0.147941 -0.270541 0.234960 -0.509559 0.188684 -0.619218 0.179226 0.371945 0.656041 0.054255 -0.215332 -0.213989 -0.128545 0.098599 -0.204655 0.307236 -0.447748 0.025371 0.143163 -0.210604 0.185366 -0.706314 -0.544206 0.359852 -0.614946 -0.368404 0.412125 0.480242 -0.145099 0.193828 0.127329 0.103193 0.763600 -0.347569 -0.105145 0.220691 -0.339916 0.215983 -0.150694 0.137565 0.326034 
orange_juice -0.232187 0.615498 -0.720050 -0.031522 -0.523087 0.790683 0.117746 0.068645 0.554321 -0.414723 0.268632 0.474833 0.752067 0.364109 0.833650 -0.571226 -0.026053 0.670482 -0.396760 -0.379565 -0.520309 0.117058 0.347297 0.959467 0.040825 0.759296 0.511196 -0.047525 -0.529756 0.191479 -0.095406 1.060940 0.031612 -0.186665 -0.378857 -0.207698 0.027789 0.312793 -0.486505 -0.047081 -0.301316 0.164127 -0.323846 0.778831 0.045812 -0.684044 -0.260781 -0.478770 -0.266777 -0.033336 -0.002195 -0.129255 0.420649 -0.841329 0.446755 0.080406 0.457431 -0.479345 -0.270252 -0.467118 0.134884 -0.278379 0.316633 0.019078 0.123229 
buttermilk 0.367663 -0.235579 0.499552 0.077473 0.221803 0.635707 0.150421 -0.263274 -0.125267 -0.682013 -0.340299 -0.114250 -0.072331 0.663745 0.322539 0.396949 -0.337628 -0.093862 0.102372 -0.024764 0.407490 -0.109406 0.062216 0.399621 0.353783 -0.756568 0.526510 0.181505 0.013232 0.103184 0.575310 -0.153916 -0.032274 0.001119 0.061219 0.433007 0.053758 -0.117696 0.050345 0.076020 0.589910 -0.244747 0.296509 -0.123806 0.208396 -0.095290 0.565617 0.075302 0.210546 0.647923 0.316856 -0.659872 0.353645 -0.038682 0.067013 0.500014 0.247546 -0.167389 0.430968 0.390069 -0.742690 -0.263141 -0.095569 -0.124080 0.183130 
pineapple 0.577938 -0.054839 -1.120663 0.047210 -0.114670 0.581689 0.007967 0.566297 0.167669 -0.250299 -0.676821 0.912754 0.175824 0.316332 1.068741 -0.302087 -0.494397 0.740524 -0.390885 -0.781744 0.325137 -0.510959 -0.120282 0.025851 0.327172 0.616724 0.443179 0.926409 -0.147404 -0.214934 0.358902 0.564885 0.497572 0.523956 -0.149524 -0.248563 -0.706326 -0.003956 -0.208856 -0.435587 -0.657012 0.144369 -0.681098 0.284192 -0.182188 -0.050948 0.467528 0.179817 0.242524 0.575166 -0.000805 0.506706 0.379517 -0.434927 0.292693 -0.086262 0.048077 -0.106506 -0.068543 -0.371287 -0.491045 -0.595831 0.822029 0.433945 -0.463926 
shrimp 1.127685 -0.432748 -0.042594 -0.310026 0.420781 0.554107 0.376125 0.170463 -0.600147 -0.119301 -0.044297 0.299343 0.542409 -1.290427 -0.350754 -0.172234 0.605899 0.397621 -0.106089 0.422319 -0.829051 0.283817 -1.081193 -0.624653 0.339953 -0.067111 -0.029390 0.825148 -0.092933 -0.696590 0.248729 0.892708 0.273418 -0.935835 0.066293 -0.353355 0.122429 0.405967 -0.152113 0.306309 -0.480967 0.476541 -0.006829 0.732231 -0.704551 -0.219548 0.465222 0.472644 -0.506758 0.232181 -0.036601 0.700748 0.070691 -1.147686 0.074926 0.481813 0.412635 0.554228 0.741336 -0.358009 -0.018946 -0.187741 -0.814980 -0.470008 -1.204547 
coriander 1.076239 -0.061132 0.295770 -0.898547 0.552476 -0.687462 -0.576633 -0.747612 0.710206 0.906574 -0.083043 -0.761539 1.210657 0.583568 0.120557 -0.517664 -0.695936 -0.964242 -1.186987 0.018609 -0.539487 -0.376043 -0.228894 0.557642 0.891838 -0.004948 0.438175 -0.056028 -0.145200 -0.950957 -1.413116 1.054926 -0.021661 0.344384 0.812523 -0.325295 0.054414 0.694963 -0.201320 0.816546 0.046888 1.282524 -0.362956 0.447934 1.161542 -0.989428 0.108406 0.409656 1.087834 -0.528707 -1.342466 2.036470 -1.119930 0.077971 0.369524 0.309430 0.961395 0.393807 0.162495 -0.934159 -0.418067 -0.254852 0.356008 -0.974278 0.243748 
bay 1.244638 -0.021636 0.597622 -0.412507 -0.668926 -0.617675 0.795316 2.130434 -0.278638 0.161695 -0.626303 -0.545512 0.237312 0.161116 -0.520321 -0.610280 0.309322 -0.371964 -0.196956 -0.514209 -0.957668 -0.312516 0.090331 0.015390 -0.176268 0.341624 0.203101 -0.882332 0.391360 0.304488 -0.222264 0.323210 0.900099 -0.764689 -0.948013 -0.363481 0.805069 -0.419586 -0.521305 0.626802 -0.068239 0.457395 -0.076122 0.087158 0.082002 0.623864 -0.124498 0.349012 -0.558330 -0.015733 0.153279 1.169135 0.215336 0.453076 0.666841 -0.144311 0.014890 -0.097158 -0.592686 0.151209 1.025318 0.389137 -0.549506 -0.990001 -0.824879 
lime_juice 0.791091 0.052747 -0.235713 0.263530 0.163746 -0.031428 0.115342 -1.145404 -0.475438 -0.058639 0.498062 -0.098515 0.854981 -0.196743 0.379007 -0.506812 -0.457895 0.596977 -0.697535 -0.838926 -0.688452 -0.493999 0.012094 0.114439 0.563467 -0.767221 -0.571612 0.125618 0.990262 -0.347663 -0.197352 0.819919 -0.358100 -0.784394 -0.317016 0.748370 0.393515 0.087694 -0.650442 0.355890 -0.570787 0.556516 -0.476722 0.201725 0.772966 -1.159433 0.407400 0.214002 -0.751658 0.372455 -0.018613 0.131522 0.104755 -1.384076 0.509209 0.290367 -0.387733 0.883247 -0.811210 -1.580782 -0.625270 -0.444892 0.610472 0.051254 -1.367177 
red_wine 0.050236 0.137726 0.043209 0.215250 0.482446 -0.480777 0.832780 1.067796 0.404315 0.385332 -0.717167 0.244252 0.022748 0.644041 0.276039 0.036413 -0.039988 0.167429 -0.127351 0.025652 -0.260784 -0.601772 -0.437302 0.753241 0.195607 0.945315 0.112126 0.127626 0.656317 -0.014791 -0.280005 0.514804 -0.649907 -0.160652 -0.424493 0.542743 0.785597 0.759703 0.212689 0.533045 -0.433872 -0.044739 -0.005607 0.421528 0.234297 -0.711908 -0.395753 -0.157969 -0.144040 -0.402088 0.070871 -0.169218 -0.139480 0.139104 -0.936400 -0.287156 0.086480 -0.940783 -1.079548 -0.328032 0.327916 0.332007 -0.219361 -0.399347 -0.480616 
gelatin 0.669656 0.483900 -0.602103 0.685730 0.642942 0.725156 -0.493074 0.131360 0.355270 -0.501207 -0.546892 0.079087 0.329712 0.174289 0.363805 0.089245 -0.249010 0.927263 -0.966089 -0.585869 0.274402 0.365336 0.457211 -0.043049 0.905905 0.427510 0.492181 0.967077 -0.343138 -0.080607 -0.005241 0.040532 0.751016 1.000125 0.170101 -0.207189 -0.261348 -0.143247 0.217858 -0.704134 -0.456181 0.288512 -0.420378 0.279841 -1.022429 -0.815490 -0.349631 -0.953392 0.181175 0.523918 0.419650 -0.329922 0.595939 0.298892 0.381826 -0.082517 1.120860 0.445467 0.398338 -0.209260 -0.245412 -0.434030 -0.369751 0.484154 0.376929 
pork_sausage 0.203914 -0.065764 0.527776 -0.505977 0.097341 -1.086311 -0.539095 -0.061377 0.501554 0.544499 0.015619 -0.551169 -0.899786 -1.086719 -0.549379 0.666190 0.138259 -0.496963 -1.244147 -0.550518 -0.100195 -0.229039 -0.565789 -0.778953 -0.936588 -0.573197 0.713145 0.895525 0.296888 -0.013294 0.658071 1.163161 0.653744 -0.631126 -0.747430 0.314752 0.658260 0.089085 -0.388338 0.405784 0.028341 0.520574 0.401469 -0.102240 -0.482423 0.516262 0.823866 0.146644 -0.602108 1.402994 0.573590 0.507597 0.332358 -0.068207 0.187089 -0.332916 0.178463 -0.953190 -0.483667 -0.009638 1.452779 0.212137 -1.085102 -0.606058 0.331758 
sesame_oil 0.513632 -0.662860 -0.760531 -0.248642 1.033335 -0.326942 1.038631 -1.040321 -0.786555 0.032093 1.329823 -0.235852 0.836546 -1.117854 1.267812 -0.947379 -0.889480 1.096654 0.763408 0.263159 1.112465 -0.069631 -0.862539 0.667578 0.036354 0.953869 -1.069806 -0.701928 1.320812 -0.705036 0.104053 1.134271 0.999984 -0.044676 0.695779 -0.620881 -0.993638 0.250575 0.472255 0.412825 -1.029057 0.187896 -0.475381 0.428561 0.073097 -0.577670 -0.873411 0.562854 -0.828207 0.123076 1.001806 1.939599 -1.136275 -0.335583 -0.030240 0.254927 0.565456 0.109566 -0.063616 -0.668360 0.090989 -0.233774 -0.500380 0.206737 0.756810 
chive -0.089616 -0.512746 0.924382 0.068570 0.055495 0.400415 -0.173491 0.270663 -0.130083 -0.450042 -0.751926 0.548695 -0.237175 0.366275 -0.041100 -0.677523 -0.639843 0.428629 1.009895 1.641872 -0.081453 0.039210 0.231153 -0.415327 1.511454 0.356335 -0.687049 -0.217452 -0.560347 0.266593 0.002705 -0.574161 -0.197990 0.008765 0.469343 0.199897 1.024918 0.516655 0.510372 -0.239815 0.972463 0.116475 -0.161035 -0.252056 -0.083201 -0.384961 -0.050694 -0.564502 -0.514088 0.380820 0.309028 0.300116 0.823914 -0.234766 -0.696307 0.175631 1.047255 0.283848 -0.379491 0.315222 -0.160619 0.015603 -0.176895 0.524531 -0.266374 
seed 0.504721 0.138486 0.208567 0.507372 0.734355 0.014550 1.047073 -0.443059 0.129034 0.517769 -0.575562 -0.161139 0.904936 0.266551 -0.891849 -0.672712 -0.410571 0.233063 -0.106809 0.439661 -0.660197 -0.550768 -0.115021 1.222839 0.024986 0.359568 0.746381 -0.033895 0.193509 0.366728 0.314158 -0.519165 -0.001173 0.360524 -0.483187 -0.689867 0.545661 -0.152975 0.276323 -0.188154 0.073162 0.395676 0.120370 -0.445812 0.528277 -0.521371 0.647305 -0.347726 0.360783 0.984626 0.565692 -0.061725 -0.389590 -0.118448 0.133392 -0.069923 0.504166 0.243481 -0.285371 -0.581376 -0.022151 -0.256107 0.766435 -0.359994 0.357104 
mozzarella_cheese -0.462517 0.211472 1.096117 0.429013 -1.474941 -0.360586 0.520463 -0.111195 0.454945 -0.144361 -0.570078 -0.323677 -0.401152 -0.906620 -0.290783 0.972176 0.620741 0.108821 -0.172378 0.014903 0.694084 0.387646 -0.794338 0.399524 -0.328278 0.134052 0.135788 0.680434 0.185701 0.333007 0.019028 1.369583 0.599046 0.144155 -0.333203 0.407634 0.638575 0.816584 0.815982 0.436787 0.569822 -0.903111 0.749838 -0.385792 -0.542155 1.263527 0.419730 0.133419 -0.518853 0.415319 0.236209 -0.105683 0.092959 0.552091 -0.224774 0.451089 -0.979946 -0.647529 0.113492 -0.632497 0.576701 -0.195454 -0.410786 -0.269816 -0.025611 
ham -0.200796 0.188046 0.572878 0.399066 0.590868 0.092154 -0.679631 -0.256437 -0.386450 0.275770 -0.731132 0.431741 -0.991246 -0.452076 -0.490893 0.209067 -0.177749 0.565311 -0.032291 -0.035304 0.187259 -0.155844 -0.590719 -0.052420 0.083956 -0.157519 -0.058308 0.522168 0.045408 0.068897 -0.006950 0.273542 0.277111 1.052392 0.091434 0.365104 -0.251530 -0.690187 0.041539 0.112757 0.673779 0.522065 0.231901 -0.371262 -0.411519 0.137029 -0.236412 0.871314 -0.564818 0.032166 0.080415 0.256241 0.339509 0.206190 -0.159101 0.371772 0.554434 -0.937221 -0.434232 0.153286 0.919055 -0.568473 -0.543808 -0.298179 -0.114598 
oat 0.295092 0.421080 0.426001 0.690681 -0.008925 0.186952 -0.032716 0.690392 -0.051900 -0.339878 0.013793 -0.268712 0.212831 0.470216 0.247363 -0.235326 -0.973615 -0.408101 -0.867055 0.300085 1.026447 0.182489 0.637176 0.655095 0.079790 -0.034799 0.625051 0.456738 0.189217 0.371256 0.536542 -0.364139 0.459485 0.085318 0.052216 0.371197 0.560736 -0.473553 0.951286 -0.643964 -0.604507 0.249893 -0.625889 0.784721 0.360099 -0.825596 0.078489 0.079571 0.785436 0.856521 0.626786 0.068674 0.472769 -0.313390 0.493217 -0.423297 0.200363 -0.359347 0.626271 1.219360 -0.785986 0.585194 -0.000609 -0.843489 0.928369 
turmeric 1.319957 0.099707 0.063740 -0.370300 0.972382 -1.737164 -1.055183 -0.162776 0.458145 1.313124 -0.190926 -1.652074 0.592261 -0.307243 0.616094 -0.749590 -0.863144 -0.703963 -1.315669 -1.466753 -1.136854 -0.156585 -0.378289 -0.627174 1.121423 0.131184 0.076682 -0.910216 -0.510304 -1.060147 -0.243177 -0.139151 -0.282423 0.379022 -0.048035 -0.808120 0.441736 -0.840632 -0.125449 0.241582 0.246762 0.766758 -1.008595 0.276730 1.094088 -1.656845 -0.465905 0.427476 -0.384609 -0.878616 -0.879208 1.805382 0.686680 -0.605485 0.707713 1.786789 -0.166880 0.868747 -0.372841 -0.365986 -0.027921 -0.458141 0.607340 0.015197 0.112726 
nut -0.302161 0.049329 -0.284358 0.373278 -0.228109 0.332613 0.798345 0.059645 0.822009 0.721818 0.246423 0.336978 0.492644 -0.201373 -0.583449 -0.095313 -0.570202 0.206579 0.136910 -0.069313 -0.277969 -0.247955 -0.007568 0.768276 -0.068200 0.079379 -0.067552 -0.067412 0.000069 0.022142 0.468314 -0.142964 0.315874 0.163660 -0.772038 0.481198 0.323805 -0.027181 0.637826 0.021746 -0.493275 -0.849938 -0.325423 0.131445 0.083135 -0.719679 0.124938 0.288054 0.466189 -0.156890 -0.586543 0.039128 -0.210405 0.456871 0.317303 -0.202387 0.326287 -0.099916 0.532505 -0.051894 0.258258 -0.602863 -0.313860 -0.023454 0.310358 
shallot 0.358018 -0.196963 0.165107 -0.530588 -0.076664 0.158853 0.290651 0.637784 -0.278163 -0.363975 -0.139023 0.334482 -0.798729 -0.546649 0.134869 -0.521613 0.526204 0.029596 0.320903 0.605767 -0.602520 -0.414539 -0.406248 0.018001 0.497591 0.514496 0.468099 0.682927 -0.966816 -0.190934 -1.265571 0.186279 -0.197531 -0.008469 -0.747795 0.003607 0.708509 0.370024 -0.038545 0.241793 -0.608114 0.033784 -0.554808 0.413366 0.376514 -0.350556 -0.862132 0.539458 -0.380657 -0.306945 -0.460137 0.308811 -0.462716 -0.103570 0.135212 0.396680 0.343363 0.032744 -0.701403 -0.215299 0.392314 -0.026563 -0.668024 0.284610 -0.417184 
lettuce -0.190018 0.244210 -0.487329 0.301995 -0.305272 0.694671 0.012514 -0.256328 -0.256844 0.473479 0.025957 -0.074021 0.658293 -0.406037 0.246738 -0.010822 0.199119 -0.179956 0.674628 -0.132130 0.015713 -1.343533 -0.808742 0.498986 0.639132 0.478068 -0.520152 0.735306 0.106266 -0.494522 0.058920 0.397005 -0.231949 1.117774 -0.815212 0.323532 0.000376 0.054406 0.390096 -0.050808 0.191568 -0.189732 -0.002666 -0.059493 1.025697 -0.043879 -0.803536 -0.262901 -0.906369 1.036744 -0.894558 -0.170308 -0.537054 -0.339578 -0.469052 -0.319833 0.832995 -0.004376 -0.080376 -0.743860 -0.363679 0.332484 0.738145 0.192029 -0.415374 
cider 0.225244 1.029138 -0.625151 0.038982 0.855887 -0.148352 0.607578 0.149354 -0.025478 0.413549 -0.714762 0.095151 0.634885 0.453326 -0.085226 -0.529579 -0.089879 0.522474 -0.270287 0.478877 -0.579670 -0.928316 -0.606584 0.631922 0.146886 -0.177882 0.191268 0.284328 1.096913 0.167660 0.709557 0.038731 -0.386364 0.049608 -0.057772 0.314703 -0.068467 -0.216245 -0.013391 -0.078438 -0.024668 0.393247 -0.628811 0.352615 -0.004473 -1.333371 0.227153 -0.300155 -0.013666 -0.257017 -0.062150 0.161831 0.055277 -0.130508 -0.524873 -0.165646 0.292570 -0.937388 -1.158121 0.201095 0.105232 0.825997 0.587324 -1.018603 -0.123690 
dill 0.791127 0.235583 0.411339 -0.016854 0.571872 -0.212016 0.068581 0.636967 0.459226 -0.271836 -0.015266 0.105391 -0.126200 -0.235628 -0.336064 -0.009044 0.292970 0.152692 0.625418 0.501590 0.025138 -0.092979 -0.440492 -0.256247 0.393519 0.402077 -0.251265 -0.032991 -0.459016 0.328489 -0.319556 -0.343737 -0.016244 0.598071 -0.282268 -0.111963 0.448443 0.359071 0.374492 -0.115709 0.299137 -0.122574 -0.263411 -0.942258 1.052849 0.092244 0.230544 0.300450 -0.448782 0.348453 0.292421 -0.141726 0.365524 -0.085075 -0.500465 -0.304759 1.331247 0.240187 -0.788043 -0.441202 -0.181297 0.559086 0.274061 0.051970 -0.349423 
pea 0.581389 0.197479 -0.105954 -0.221080 0.141519 -0.395305 0.293163 -0.036157 1.157491 0.100718 0.051732 -0.557689 0.223847 -0.504694 -0.202795 -0.528463 -0.845384 0.064969 0.413090 0.296483 0.029946 -0.344005 -0.399657 -0.500231 -0.034562 -0.139935 -0.110151 0.010865 -0.024706 -0.535553 -0.031306 0.079043 -0.316001 0.350304 -0.282290 -0.487841 0.456474 -0.024403 0.262774 -0.182691 -0.233261 -0.186334 0.578764 0.197505 0.181134 -0.184131 0.153233 0.650196 -0.605414 -0.546598 -0.075883 0.565821 -0.111880 -0.280800 -0.067029 0.340292 0.350849 0.087285 -0.087308 -0.276643 -0.023733 -0.098852 -0.220028 0.858010 -0.403000 
zucchini 0.178285 -0.359755 0.359973 0.183181 -0.733931 -0.042928 0.512215 0.343939 0.556355 0.256394 -0.198618 -0.814109 0.503435 -0.018049 -0.658334 0.218507 -0.469713 -0.095778 -0.513609 -0.391208 -0.345170 0.308748 0.153615 -0.457243 0.239933 0.111950 0.090103 -0.605720 0.063829 0.085117 -0.711067 0.703226 -0.205186 -0.029436 -0.667483 0.302177 0.218841 0.109469 0.286022 0.591496 0.106867 -0.053719 0.468063 -0.063241 0.106682 0.270414 0.288411 0.156069 -0.736144 -0.165533 0.292635 0.031864 -0.502495 0.572743 0.071936 0.317437 -0.029598 -0.547077 0.639900 0.036534 -0.142796 -0.604752 0.598217 -0.439743 -0.267610 
cherry -0.572181 0.773772 -0.603581 0.254786 -0.463318 0.463666 -0.218446 0.207250 0.158042 -0.992225 -0.602011 0.245201 0.214919 0.807343 0.779566 -0.183759 -0.691732 0.264598 -0.926361 -0.060417 -0.301939 0.496287 0.569855 1.344105 0.543806 -0.256801 -0.131981 0.914683 -0.430138 -0.507357 0.023466 0.281885 0.385987 0.602130 -0.682765 -0.050180 -0.306025 0.197816 0.140879 -0.812010 -0.638034 0.137977 -0.657539 -0.268444 -0.098540 -0.593071 -0.293878 -0.565205 0.455112 -0.033221 0.498756 0.067952 0.407823 -0.501064 -0.113608 0.075287 0.463877 0.376135 -0.526362 0.131044 -0.174142 -0.535936 -0.833381 -0.046620 0.282354 
lime 0.895582 0.353878 -0.211852 0.498673 0.141657 0.193083 -0.125397 -1.053234 -0.413790 -0.446327 0.497094 0.064807 0.140824 0.075948 0.446452 -0.682197 0.305327 0.103544 -0.060938 -0.890820 -0.781197 -0.546993 -0.070101 0.568725 0.237081 0.196704 -0.573600 0.655872 0.511645 -0.566008 -0.574732 0.286956 -0.063544 0.229350 0.286672 0.226261 0.068863 -0.059677 -0.701192 0.099972 -0.576410 0.873195 -1.194183 -0.054502 0.397012 -0.399953 0.228009 0.218600 -0.231030 0.350970 0.468691 0.000278 0.085128 -0.878872 0.626538 0.128514 -0.022646 0.830249 -0.140937 -0.953571 0.508589 -1.105538 0.564874 0.770468 -1.094869 
yogurt 0.579215 -0.205583 0.085290 0.087997 -0.214737 0.299435 -0.249719 0.191246 0.284426 0.529016 0.263690 0.436598 0.516214 0.476216 0.276769 -0.167627 0.032694 -0.076345 -0.509165 -0.469629 0.004602 -0.475355 -0.166933 0.662048 0.825617 0.129280 0.383858 -0.273380 0.028549 -0.090991 -0.044525 -0.390283 -0.296754 0.534460 0.361953 0.195291 -0.363022 0.538305 0.611839 0.306852 0.669038 0.649898 -0.225207 0.005609 1.743390 -0.542639 -0.428486 -0.369299 0.095816 0.414892 0.128717 -0.034945 0.175347 0.045564 0.365877 0.547455 0.601686 -0.186375 -0.380929 -0.259920 -0.221502 -0.475627 0.455513 -0.158448 0.162686 
strawberry 0.929188 0.973796 -0.682404 0.856607 -0.434486 0.422307 0.215941 -0.151621 -0.325714 -0.954414 0.114909 1.127890 0.149438 0.476510 1.044770 0.279509 -0.358933 1.108349 -0.992703 -0.909463 0.295236 -0.389259 -0.297477 0.554500 0.819425 -0.252335 0.934727 0.040861 -1.187734 -0.115082 -0.340106 -0.439919 0.629085 -0.177780 -0.349378 0.032494 -0.179363 0.662256 0.776324 -1.133684 -0.474137 0.146091 -0.796857 -0.757327 0.068240 -0.081229 0.191610 -1.311030 0.212938 0.964163 0.714513 -0.284352 -0.468514 0.408872 0.722808 0.521992 0.668557 0.385463 0.234371 -0.462244 0.170987 -0.732016 -0.548236 -0.279292 0.424828 
soybean -0.196862 0.471334 0.527258 0.697680 0.245230 -0.309498 1.046457 -0.694675 -0.815623 -0.718026 1.075551 -0.290615 0.489063 -0.601193 0.136005 0.053876 -0.579911 0.415851 0.240415 -0.242003 0.185042 -0.011315 -1.026514 0.989118 -0.109492 -0.429577 -0.299788 -0.747494 0.189369 -0.435229 0.413094 0.250403 0.490563 -0.569564 -0.042073 -0.778793 -1.189178 0.176757 -0.000784 0.735868 -1.297885 0.612521 -0.275025 0.267365 0.753623 -0.648893 -0.167861 0.275470 -0.134568 -0.286431 0.971178 1.105113 -0.854628 0.141592 -0.132399 0.972433 0.448569 0.195753 0.322967 -0.163250 0.008397 0.428994 0.024285 0.096884 0.829848 
celery_oil 1.289145 1.354283 -0.204280 -0.748192 0.102507 -0.193577 0.542653 0.108602 -0.225522 0.371727 -0.103442 0.459292 0.212630 0.676653 0.907701 -0.397658 -0.154098 0.197359 -0.517264 1.064749 0.522592 -1.154541 -0.759357 0.734399 0.190295 0.350200 -0.482950 0.382761 1.746883 -0.942226 1.342969 0.959671 -0.542491 0.055478 -0.147517 -1.358508 0.036251 -0.606675 -1.454121 -0.644988 -0.261656 -0.098834 0.591716 -0.686253 -1.063275 1.076920 -0.483930 -0.477803 -0.455843 -0.126920 0.458541 -0.222316 0.705976 0.020644 0.106025 -0.553944 -0.806867 -0.631370 -0.878824 -0.906914 -0.481225 1.957311 0.434254 -0.592244 0.141970 
peanut_butter -0.018330 0.422233 -0.317686 -0.396853 -0.207133 -0.469835 -0.704127 -0.888558 -0.422252 0.274646 1.069078 -0.828379 0.963468 0.038516 0.194410 0.138466 -1.521806 -0.507129 -0.127558 -0.260077 1.710556 -0.764766 0.326103 -0.280009 0.625282 -0.975058 -0.223781 0.230041 -0.341432 -0.188434 -0.072370 -0.517243 0.326434 0.453467 0.628337 -0.458113 -0.112343 -0.835237 0.754249 -0.227444 -1.823990 0.508563 -0.385155 0.347338 0.173929 -0.004281 0.179524 0.335113 -0.042751 0.271369 -0.132294 0.097520 -0.152342 -0.792722 1.423816 -0.158837 0.509393 0.520884 0.293552 0.200432 0.015463 0.252442 -0.013568 -0.229669 0.341571 
banana 0.292212 0.204369 -0.733831 0.318064 0.091544 0.632993 -0.139138 0.377270 -0.221331 -0.511294 0.038346 0.137490 0.688561 0.433026 0.838594 0.294977 -0.684224 0.063402 -0.855941 -0.830074 0.697928 0.208497 0.635664 0.464635 0.539200 0.189885 0.919710 0.294013 -0.312900 0.261186 -0.030557 0.213572 0.286848 0.619491 -0.079384 -0.127636 -0.197571 0.098466 0.357798 -0.191526 -0.329185 0.141482 -0.929531 0.269006 -0.102283 -0.245983 0.208400 -0.374399 -0.212944 0.397048 0.009433 -0.088280 0.386153 -0.255682 0.488375 0.419825 0.287017 0.292792 0.244270 -0.509400 -0.469403 -0.345750 -0.232149 -0.303752 -0.008294 
meat -0.343232 0.457993 -0.203880 -0.489404 0.449691 0.470465 -0.154338 0.031133 -0.006500 0.707551 -0.032360 -0.519249 -0.080176 -0.215210 -0.188872 -0.344431 -0.216151 0.284713 -0.252570 0.156570 0.115779 -0.120025 -0.013202 0.089936 -0.694773 0.796434 1.018931 0.134676 -0.100621 -0.392920 0.411086 0.539789 0.293045 -0.005154 -0.356581 0.644565 -0.037990 0.377142 -0.523428 0.235230 -0.112343 0.028922 -0.003112 -0.048380 -0.045359 0.004270 -0.345103 0.231663 -0.538079 -0.020767 0.002694 0.927190 -0.582688 0.427153 -0.178832 -0.310106 -0.080864 -0.309563 -0.894401 0.308451 0.753961 0.489875 -0.439283 -0.087311 0.333141 
tabasco_pepper 0.550992 0.846080 0.020346 0.290824 -0.119159 0.020299 0.089705 -0.067253 -0.334961 0.212884 0.140793 0.098185 0.358666 -0.037793 -0.236613 -0.416092 0.338739 -0.229728 0.221387 0.572495 -0.174107 -0.064407 -0.694181 0.008648 0.060579 0.478132 -0.075387 0.344589 0.386768 -0.642340 0.310092 -0.177306 0.186544 -0.206536 -0.358171 0.220578 -0.374286 -0.679930 -0.890483 0.049869 0.367009 0.375665 0.001787 -1.003767 -0.158473 0.421689 0.320899 0.315478 -0.048060 0.001359 0.318743 0.331532 0.617195 -0.060859 0.364231 -0.206547 -0.317525 0.468375 -0.555614 -0.397066 0.503438 0.435329 0.185183 -0.495144 -0.356581 
milk_fat -0.244033 0.176142 -0.140538 -0.550136 -0.130250 1.180072 -0.007932 -0.237248 -0.275692 -0.480603 -0.289476 -0.433664 -0.865840 0.556916 -0.033234 0.160982 0.214059 -0.135230 0.109314 -0.210705 0.120166 0.284352 0.638841 0.272146 0.573695 -0.082368 -0.213370 0.291092 -0.970670 -0.223628 -0.094194 0.045909 -0.109773 -0.426017 0.005246 0.235112 0.460757 0.262280 -0.145199 0.691129 0.375013 -0.045106 -0.138320 -0.090358 0.031768 -0.090518 -0.192024 0.536894 0.582272 -0.214514 0.372364 -0.310913 -0.233837 0.176456 0.035922 0.748803 0.626850 -0.130606 -0.204312 0.563480 0.208789 -0.583570 -0.664725 -0.321794 -0.132965 
cabbage 0.599435 0.164809 -0.172992 -0.471496 0.748826 0.348183 0.692819 -0.119718 0.370188 0.700719 -0.306303 -0.169673 0.180981 -0.597473 0.083015 -0.598576 -0.722592 0.268561 -0.084361 0.262588 0.473578 -1.197172 -0.796338 0.057020 -0.020586 -0.009262 0.560286 -0.190302 0.066941 -0.475630 -0.352276 -0.109756 -0.234575 0.001013 -0.069287 0.012405 -0.232642 -0.386652 -0.124278 -0.328306 -0.139401 0.559319 -0.527171 -0.005384 0.442209 0.466044 0.457422 0.232290 -0.188692 -0.100452 0.084201 1.006037 -0.589928 -0.421315 -0.253586 -0.198587 0.379664 -0.675083 0.081404 -0.075549 -0.028060 0.820493 0.286211 -0.184616 0.429447 
mint 0.373836 -0.215433 0.178705 0.591251 0.023149 0.572645 0.105068 0.483651 -0.437200 -0.461862 0.321180 0.602113 0.552784 -0.057380 0.081406 -0.038221 -0.068273 0.166718 -0.333287 -0.342021 -1.099915 -0.277951 -0.089772 0.120370 0.377585 0.609150 -0.057604 -0.366532 0.482225 -1.050641 -0.761306 -0.628495 -0.245131 -0.208740 -0.052679 0.135750 0.122794 0.442084 -0.044352 0.502606 -0.303142 0.328883 -0.689506 0.673609 1.211449 -0.283069 -0.906277 0.127700 -0.227696 0.443546 0.259316 -0.382674 -0.374484 -0.598021 0.220984 0.160684 0.603765 -0.519062 0.253593 -1.091818 0.063671 -0.673311 -0.161603 0.553730 0.370350 
fennel 0.308431 -0.266432 0.399664 -0.041678 -0.024594 0.588775 0.674654 1.140863 -0.724184 -0.056426 -0.974725 -1.443140 0.338787 -0.016883 -0.693713 -0.738634 0.319695 0.145585 -0.183757 0.098732 -0.558610 -0.873819 -0.652972 0.422292 0.394173 0.736447 0.702499 0.165751 -0.006469 -0.460704 -0.971378 0.415493 0.378708 0.066625 -0.810156 1.391899 1.525394 0.459455 0.709347 0.618675 0.587166 -0.472659 1.098560 0.436310 -0.600852 -0.707865 -0.380409 1.148098 0.071773 -0.483180 -0.063409 -0.466168 -0.536277 0.538285 -0.535877 0.461308 -1.369158 -0.092043 0.693112 -0.120929 0.917780 -0.465761 -0.245151 0.425610 0.196230 
sage 0.539004 0.304236 0.186028 -0.488832 0.200950 0.000897 0.456577 1.006363 0.377947 0.179672 -1.156102 -0.459351 -1.012238 -0.582818 0.495297 -0.176696 0.653868 0.098880 -1.187423 0.148100 0.080391 -0.497151 1.912521 -0.612011 -0.694202 0.418906 0.036153 -0.604049 -0.073179 1.317084 0.762393 1.442873 0.506642 0.308481 -1.028942 0.330833 0.573295 -0.230943 -0.160368 0.102394 0.213998 -0.502213 0.796218 0.482680 0.189470 -0.056917 -0.737066 0.966339 -0.908273 0.521446 -0.786206 0.010463 0.267008 0.544083 0.011318 0.124202 -0.159027 -0.928921 0.069717 0.313024 1.390936 0.170058 -0.432881 0.888340 -0.079090 
broccoli 0.112068 0.498805 -0.578209 0.588700 -0.225434 0.236944 0.010397 -0.800481 1.312630 -0.044181 0.150933 -1.309995 0.255542 -0.268267 0.039878 0.151774 -0.939351 0.658885 0.136439 -0.447481 -0.054403 -0.371638 -0.631946 -0.304114 -0.184465 -0.469783 0.066322 0.070401 -0.430985 -0.113835 -0.004519 -0.170361 -0.175227 0.527999 -0.448754 0.091139 -0.213142 -0.547257 0.586665 -0.197806 0.345561 -0.457878 0.703660 -0.105798 0.358566 0.630871 0.065043 0.871946 -0.924683 -0.162422 -0.881997 0.050780 -0.438526 0.099469 -0.010102 0.281028 0.103033 -0.065389 0.727976 -0.430651 0.268665 -0.034025 0.070893 0.126741 -0.301676 
turkey -0.070051 0.885575 0.304785 -0.068299 0.166497 -0.154871 0.417802 -0.228873 0.348568 0.588822 -0.612912 0.125026 -0.949712 -0.373082 -0.150586 -0.417035 -0.147440 -0.136901 -0.565898 0.008008 0.117320 -0.804096 0.150013 0.285762 -0.431483 -0.632520 0.515533 0.010861 0.163170 0.170907 0.702985 1.115450 -0.219113 0.203346 -0.917825 0.436083 -0.643517 -0.081021 0.126212 0.055914 0.558203 0.464344 0.341346 -0.098486 -0.017943 -0.335558 0.437340 0.395578 -0.662075 -0.137746 0.158456 0.053148 -0.007989 0.084208 0.491854 -0.371313 0.057054 -0.676402 0.138345 -0.528875 0.659491 0.053939 -0.075107 0.056104 -0.244992 
fenugreek 2.462448 0.307014 0.194846 0.251200 -0.892625 -0.217677 -0.909553 -0.835096 1.084223 0.183187 -0.239820 0.127999 -0.162484 -0.129494 1.221014 -0.336349 0.112247 -0.719062 -0.816901 0.178316 -0.190048 -0.480872 0.772253 1.296651 -0.270700 0.186419 -0.601565 -0.702733 0.075945 -0.649946 -0.652254 -0.902630 0.274125 0.011508 0.695391 0.328561 -0.112119 -0.457638 0.596564 0.693689 -0.241646 0.059395 1.287274 0.320701 1.654073 -1.249721 -1.315368 -0.957700 -0.807091 -3.056637 0.225488 1.326320 -0.341571 -0.812202 -0.121021 1.997212 -0.528922 0.717039 -0.904104 -1.969959 -0.352516 -0.257403 -0.025805 -1.196320 -0.161947 
cranberry 0.244009 1.154795 -0.237218 0.199891 -0.039714 1.191331 -0.093958 0.133800 -0.051727 -0.751459 -0.401026 0.129044 0.044643 0.180573 1.050404 0.107647 -0.246338 0.226461 -0.870253 0.082148 -0.389974 -0.175585 0.305166 0.185565 -0.273616 0.477619 0.728022 0.037640 0.248312 0.342632 0.571499 0.603402 0.380728 0.268010 -1.107187 -0.230206 -0.381443 0.152139 0.263792 -0.652223 0.004424 -0.235425 -0.292011 0.197901 0.407747 -0.596914 -0.125354 -1.305304 0.164706 -0.027885 0.126904 0.149391 -0.052885 0.608350 0.246013 -0.059995 -0.061417 -1.057716 -0.217399 -0.130653 0.478607 -0.657473 0.023752 0.468127 0.146517 
wine 0.141892 0.316536 -0.407305 0.540293 0.792141 0.418112 1.128201 0.331170 -0.003576 0.292550 -0.060121 0.286794 -0.330472 -0.153496 0.147587 -0.197767 -0.055321 0.457954 0.037155 -0.215752 -0.052736 -0.567528 -0.797538 0.815349 0.099371 0.387631 0.032458 -0.641429 0.125458 0.185963 0.128446 0.208610 -0.635372 -0.182174 -0.480125 0.651971 0.320560 0.365372 -0.060244 0.252103 -0.871638 0.339659 -0.206122 0.476269 -0.515138 -0.601491 -0.543629 0.257997 -0.027614 -0.644903 -0.305756 -0.145708 -0.545983 -0.088941 0.045287 -0.180038 0.070610 0.158089 -0.342141 -0.566348 0.397827 -0.333485 -0.572480 0.292984 -0.508828 
beef_broth 0.736228 -0.201360 -0.227421 -0.257920 0.414512 0.111328 0.456670 0.282771 0.062084 1.197471 -0.341417 -0.062340 -0.354485 0.345805 -0.246805 -0.476160 -0.215368 -0.199456 0.111383 0.181920 0.018997 -0.545806 -0.719632 0.641290 -0.400847 0.758398 0.865638 -0.346785 -0.004214 -0.181958 -0.174449 0.646678 0.330520 -1.104134 -0.593058 0.198649 0.730476 -0.019285 -0.038752 0.713189 -0.856043 -0.056607 0.642075 -0.399065 -0.300899 0.525983 0.020542 0.178820 -0.329252 -0.979155 0.664604 0.890576 -0.215138 0.575550 -0.522929 -0.714909 -0.099544 0.155518 -0.241822 0.110196 0.796643 0.267620 -0.563037 0.468436 1.162666 
grape_juice -0.080030 0.657951 0.212296 -0.054521 -0.339874 -0.301697 0.280274 0.648752 0.337094 0.037685 -0.007713 0.902390 -0.134689 0.043889 0.089143 0.108265 -0.382124 0.068188 -0.122971 -0.024709 -0.699820 -0.332609 -0.528204 0.620912 -0.431973 0.082875 0.104775 0.886937 0.013546 -0.247374 -0.217838 0.730925 -0.437771 0.454779 -0.693833 0.702979 0.739914 0.280601 0.183276 0.799517 -0.510584 -0.041523 -0.500113 0.537290 0.668353 -0.800368 -0.617754 0.235719 -1.065755 0.453394 -0.035444 -0.497891 -0.587409 0.473194 -0.757369 -0.335762 0.210976 -1.039845 -0.253313 -0.029138 0.060311 0.044370 0.294388 -0.167721 -0.243042 
pumpkin 0.068893 -1.021697 -0.724561 -0.369666 -0.332670 0.632198 -0.010303 -0.130040 -0.165687 -0.564598 -0.067005 -0.337405 0.251645 -0.096017 0.108895 0.412766 0.421841 -0.596064 0.534079 -0.023546 0.845268 0.701799 0.408856 0.343877 -0.110808 0.447350 0.915352 -0.563339 -0.112472 -0.122518 0.517096 0.082161 0.464271 -0.450428 -1.037014 0.073884 -0.430009 0.026906 0.181924 -0.017588 -0.124333 -0.554644 -0.485049 0.993179 0.400623 -0.110731 0.230678 0.191257 0.240672 0.110646 0.467537 1.129583 -0.150604 -0.065833 0.387969 0.831927 0.174300 0.564757 0.470947 0.995771 -0.632332 0.389717 -0.148920 0.018921 0.506458 
raspberry 0.401138 0.253310 -0.207919 0.089272 -0.097234 0.833653 0.049178 0.207356 -0.419282 -0.927090 -0.321249 0.698439 0.131541 0.218468 0.588705 -0.043466 -0.216107 0.598525 -0.412390 -0.968081 0.477746 0.171764 -0.501806 0.776599 0.712774 -0.308950 0.706339 0.468205 -0.774518 -0.131831 0.079164 0.273276 0.332963 0.118343 0.011347 -0.064329 0.219077 0.471385 0.516920 -0.376927 -0.320458 -0.106359 -0.858614 0.390557 -0.170065 -0.360487 -0.223094 -0.588450 0.537408 1.516923 -0.061915 -0.561162 -0.589459 0.634176 -0.065296 -0.170089 1.048079 -0.059986 -0.035911 -0.090857 0.424855 -0.313822 -0.045648 -0.360785 0.322643 
whole_grain_wheat_flour -0.363199 -0.446235 0.125277 0.864003 -0.243629 0.464515 0.647629 -0.063851 -0.165478 0.021685 0.301526 -0.337524 0.607005 0.555243 -0.177820 0.087172 -0.577352 0.148243 -0.444827 0.147937 0.860058 0.160748 0.503110 0.559997 -0.189746 0.191331 0.785171 0.565378 0.674411 0.591277 0.218077 0.194705 0.330116 -0.297883 0.384446 0.321301 0.603070 -0.280705 0.714597 0.052959 0.542768 -0.878384 0.136415 -0.178642 0.660822 -0.602940 -0.158642 -0.095792 -0.551568 0.534712 -0.191035 -0.608324 0.376925 -0.058012 0.544107 -0.406305 -0.006252 -0.444924 0.337992 0.046035 -0.488121 0.335947 0.024008 -0.277148 0.974909 
lemon_peel 0.354513 -0.130585 0.228591 -0.266275 -0.247480 0.493778 0.019866 0.221301 0.621952 -0.834062 -0.226667 0.568435 -0.029261 -0.291330 0.641382 -0.186732 -0.033111 0.491477 -0.217702 -0.150972 -0.294801 0.530264 0.059078 -0.254751 0.477525 0.104103 -0.435822 -0.270293 -0.405331 0.133008 -0.664215 -0.639744 -0.146428 -0.145153 -1.071854 -0.071724 0.840625 0.216029 0.652328 0.342013 0.188818 -0.855199 -0.212467 0.446958 0.095478 -0.397551 -0.576626 -0.100363 0.494087 0.364637 -0.030563 -0.562447 -0.403904 -0.115449 0.241900 0.548141 0.958391 -0.055679 -0.254897 0.347498 -0.216227 -0.548361 -0.009419 -0.371106 0.158291 
coffee -0.221188 0.214114 -0.098193 -0.310192 0.083308 0.916292 0.369983 -0.306184 -0.803080 -0.671135 -0.440240 -0.033667 0.142815 0.859516 0.286626 1.124509 -0.924351 -0.480604 -0.058167 -0.263903 0.393635 0.309770 0.857488 0.221878 0.106897 -0.042460 -0.141202 0.326644 0.087139 -0.188331 -0.056803 -0.201421 -0.053511 -0.308943 -0.281388 0.014791 0.417579 -0.561385 -0.407129 0.072764 -0.236281 -0.598019 -0.677786 0.126370 -0.619968 0.082682 -0.236945 -0.785755 -0.083617 -0.025949 0.750584 -0.101423 0.177036 -0.359078 0.697046 -0.038340 0.895320 0.987013 -0.994352 0.325374 -0.213689 0.046172 -0.548164 -0.596817 0.485781 
sesame_seed -0.862916 -0.199577 -0.148419 0.368574 0.258387 0.414198 1.167915 -0.462034 0.333970 -0.082770 1.231316 -0.142368 0.726234 -0.713795 0.317158 -0.607116 -0.986864 0.448518 0.285620 0.408007 0.267829 -0.054682 -0.376456 0.533485 0.020964 -0.138805 -0.153177 -0.416937 0.405766 -0.223648 0.377256 -0.331842 -0.476428 0.025108 -0.079913 -0.091955 -0.135384 -0.160703 0.530690 0.309693 -0.626938 -0.063107 -0.459181 -0.151753 0.618778 -0.686053 -0.602105 0.281257 -0.795568 -0.211192 -0.332469 -0.359297 0.026556 -0.412292 0.825425 0.198139 0.813001 0.000002 0.240036 -0.109628 -0.584540 0.155932 0.597547 0.411928 0.046097 
avocado -0.131332 -0.050730 -0.534033 0.604251 -0.270691 -0.106650 0.520120 -0.408080 -0.877504 -0.226575 0.103409 0.348577 -0.032715 -0.646374 0.272294 0.097114 -0.200981 -1.172983 -0.116908 0.265348 -0.074472 -0.768868 -0.641683 0.658991 0.007920 0.189987 -0.192055 0.055564 1.248274 -0.708986 -1.219828 0.307801 -0.496178 0.690496 0.031988 0.560570 -0.674546 1.003744 -0.888006 -0.369692 0.734314 -0.089219 0.025848 -0.687710 0.557959 -0.160832 -0.544050 -0.180041 -0.470921 1.434164 0.272457 -0.412925 1.026686 -0.546292 -0.137678 0.770407 0.853768 0.241443 -0.937506 -1.327714 -0.204521 -0.293363 0.287312 0.357965 -0.661421 
sherry 0.064062 0.246739 -0.233675 -0.055764 0.248163 0.125740 0.893490 0.373744 0.523806 0.132707 -0.123806 0.247819 -0.290320 0.112058 -0.124027 0.002735 -0.416256 0.317142 0.162548 0.638709 -0.343606 -0.147801 -0.323127 -0.129786 -0.155210 0.347475 -0.147227 0.078880 0.139006 0.127634 0.031532 0.461726 -0.363075 -0.051047 -0.206574 0.355327 0.438939 0.072678 -0.207298 0.290144 -0.111335 -0.216356 -0.756376 0.931618 -0.152512 -0.813683 -0.583556 0.602869 -0.057598 -0.270912 -0.476301 0.068925 -0.130664 0.277350 0.273168 0.459009 0.386818 -0.359980 -0.588219 -0.183470 0.517072 0.192921 -0.286121 -0.360695 -0.780048 
sake 0.797501 -0.357693 -0.818898 0.588069 0.157895 -0.328171 0.911012 -1.180712 -0.553232 0.392986 1.483114 -0.558953 0.670889 -1.116595 0.672143 -0.535471 -0.050625 0.847321 0.744275 0.443401 1.009235 0.013656 -1.252442 1.076616 -0.469284 0.581888 -0.803351 0.747890 0.132888 0.017197 0.756166 1.232622 1.127979 -0.858379 0.466590 0.105519 -0.756890 -0.111874 -0.887022 -0.896584 -1.646587 0.554549 -1.561250 0.060869 0.197251 -0.803413 -0.404324 0.843710 0.459689 -0.248896 0.634773 0.492179 -0.441393 1.033520 0.145878 1.021934 1.119388 -0.493507 0.852525 -0.285794 -0.172689 1.009925 -0.439154 0.284265 -0.021150 
feta_cheese -0.019480 0.145188 1.167544 0.701797 -0.871228 -0.335621 0.360108 0.472139 0.494655 0.307665 0.002690 1.124664 0.303781 -0.106748 -0.336279 0.096390 -0.069672 0.329182 -0.135022 -0.005105 -0.330900 -0.086613 -0.761599 0.355855 0.520696 -0.101191 -0.535084 0.005071 0.423066 -1.095212 -0.667352 -0.191498 -0.482105 0.625076 -0.155076 0.152005 1.026843 0.885139 0.215171 -0.374652 0.538992 -0.594185 0.020646 -0.252187 0.847521 -0.158473 -0.870570 -0.283032 -0.570997 0.818550 0.605334 -0.676571 -0.407216 0.269494 0.376323 -0.051597 -0.000658 -1.172436 0.744671 -0.614003 -0.017341 -0.366285 -0.357012 0.195215 0.365052 
apricot -0.506202 0.030320 -0.185826 -0.509931 0.200439 0.239899 -0.136190 0.224080 0.534522 -0.705092 -0.402008 -0.069383 0.024343 0.828035 1.099061 -0.337878 -0.501456 0.290492 -1.332381 -0.724044 -0.712764 -0.183038 0.429456 0.170636 -0.035221 0.068812 0.245534 -0.296369 -0.040331 0.032694 0.467562 -0.373702 0.067670 0.236144 -0.882356 -0.153873 0.243537 -0.249662 -0.250642 0.229186 -0.509772 -0.212205 -1.324424 0.551011 -0.051040 -0.735095 0.136659 0.124794 -0.058774 -0.150697 -0.105910 0.127680 0.064962 0.058751 0.344293 0.070569 0.349783 -0.256072 -0.779595 -0.101544 0.325531 -0.506464 0.245188 -0.164412 0.528801 
roasted_sesame_seed -0.513355 -1.443984 -1.058206 0.814245 0.415279 -0.017571 1.000555 -1.055538 -0.249205 0.254053 0.458171 -1.100692 0.211224 -2.218110 0.190997 -0.426726 1.037156 0.367435 0.441951 0.627062 0.931423 -0.112446 -1.637683 0.300095 0.925640 -0.500909 -0.810070 0.363391 0.875995 -0.228203 0.039783 0.092065 0.929534 -1.316573 0.717420 0.344612 -0.034368 -0.310041 0.373322 0.317368 -1.179031 0.063920 0.119286 -0.149758 0.948211 -1.119726 -0.491200 -0.116515 -0.620737 -0.889622 0.477477 0.207270 -0.436705 0.795334 0.345556 1.633405 1.614264 -0.464587 1.028730 -0.946547 -0.419383 0.966907 0.014742 0.683111 1.455967 
rum 0.242290 -0.023290 -0.585494 0.560342 0.398637 0.777271 -0.590516 -0.113061 -0.386417 -1.071965 -0.830841 0.518274 -0.832335 0.498006 0.570555 -0.834130 -0.188360 0.632877 -0.878001 -0.571465 0.266845 0.441419 0.910400 0.752833 0.763868 0.652783 0.550422 0.756231 -0.019385 -0.132133 -0.142842 0.157675 0.446674 -0.362026 -0.011503 -0.066690 0.587698 0.348580 -0.562327 -0.390130 -0.934505 0.206755 -0.451169 0.283401 -0.485533 -0.869364 -0.311998 -0.670823 0.576020 -0.236545 0.132168 -0.072364 0.179224 0.045506 0.543972 0.259839 0.421652 0.550640 -0.817534 -0.333013 -0.205575 -0.157624 -0.554067 0.506381 0.235984 
orange_peel -0.848389 0.544033 -0.196533 -0.401300 -0.529652 0.601396 0.135599 0.253084 0.253131 -1.163660 -0.434855 0.136184 0.020690 0.289539 0.768364 -0.415345 -0.192417 0.538260 -0.256739 0.158649 -0.171520 0.219164 -0.003776 0.304607 0.214890 0.359077 0.651013 0.235804 0.101105 -0.242893 0.321257 -0.301133 -0.168836 -0.683751 -1.125388 0.145125 0.062694 0.173373 -0.232445 -0.521762 -0.071065 0.079808 -0.883464 0.305382 0.315313 -0.484017 -0.415021 0.076613 0.739693 -0.031342 -0.055537 0.086968 -0.313430 0.686744 0.695898 0.366851 0.438387 -1.194562 -0.403187 0.164329 -0.033861 -1.239560 -0.018591 0.488828 0.284935 
squash 0.614352 0.181244 0.851889 -0.390620 0.270400 -0.474746 0.263249 -0.017046 0.150010 -0.160312 -0.350780 -0.484668 -0.482306 -0.343113 -0.400089 0.004910 -0.843835 -0.632048 -0.498938 0.364799 -0.056697 0.532055 0.328304 -0.278167 -0.296045 -0.091865 0.809762 -0.212207 0.066099 -0.649208 -0.624139 0.340163 -0.273130 0.087656 -0.823951 -0.311445 0.449518 -0.283561 0.519797 0.148012 0.141860 0.417503 -0.115516 0.960941 0.342264 0.111648 0.442225 0.246124 -0.366497 -0.198358 0.089663 0.731054 -0.418187 -0.101307 0.024855 0.204680 -0.458008 -1.055860 0.204475 0.136765 -0.268834 -0.572495 0.028191 0.235382 0.366007 
crab 0.950794 0.368849 0.227571 0.672178 -0.296989 0.303210 0.196897 0.814158 -0.303110 -0.319587 0.256594 0.909589 0.393850 -0.218168 -0.210552 0.574857 1.019455 0.117141 0.331891 0.458785 -0.429743 0.432855 -0.372570 -0.296042 0.773656 -0.296982 -0.364121 -0.320630 -0.133937 0.162573 0.686537 0.709672 0.489238 -0.676693 -0.258468 -0.078933 -1.104058 -0.477289 -0.187609 -0.096804 1.127940 0.217197 0.108897 -1.061817 -0.343212 0.196238 -0.392579 0.863210 -1.100204 -0.212426 0.477573 0.196054 1.041039 -0.924756 1.459791 1.154159 0.448206 0.511697 0.014734 -0.019104 0.468709 -0.078859 -0.154119 -0.588217 -1.930292 
marjoram 0.640275 0.695266 1.292257 -1.281280 -0.414434 -1.134953 0.508153 0.860971 0.684149 0.103374 0.318482 -0.236633 -0.641379 -0.715685 -0.261501 -0.578655 0.518192 0.117999 -0.160975 -0.132654 -0.145574 -0.496861 0.567532 -0.008007 -0.658304 -0.378796 0.767142 0.274021 -0.343722 1.494484 0.404297 -0.017088 0.484868 0.381446 -1.811484 0.567647 0.375451 0.317642 0.646293 0.138024 0.743614 0.792783 0.516591 0.119602 0.142839 -0.867282 -0.280999 0.021328 -0.117335 0.305727 0.525840 0.164418 -0.189245 0.300795 0.723158 -0.252760 -0.519311 -0.605173 -0.827435 0.182134 1.372512 0.258217 -0.555039 0.508908 0.517741 
swiss_cheese 0.264612 0.882535 1.022028 -0.631955 -0.020644 0.664656 -0.595435 -0.316571 0.210854 -0.254273 0.290545 -0.697056 -0.033987 -0.541379 -0.235386 1.098870 -0.416752 0.579537 0.316591 0.618874 0.193091 -0.663217 -0.401541 -0.615420 -0.480377 -0.380295 0.419761 0.204555 -0.457129 0.501105 0.428337 0.422434 0.654968 0.646383 0.179251 -0.326067 0.162820 0.369539 0.361598 0.144097 0.343333 -0.990258 -0.261864 -1.241760 0.423638 0.752926 0.720800 0.049812 0.027394 -0.121649 -0.327672 -0.114835 0.802546 0.604355 -0.275565 0.370658 0.365302 -0.256651 -0.119866 -0.237285 1.106623 -0.064338 0.096969 -0.396066 -0.158640 
sweet_potato -0.403224 0.494626 0.653603 -0.712382 -0.025129 0.361075 -0.772920 -0.177194 -0.519349 -0.461969 -0.587721 -0.553062 0.346267 0.243456 0.251228 -0.571200 -0.356506 -0.217874 -0.246471 0.493689 0.006324 -0.096951 0.772644 0.447924 0.814783 0.334709 0.783960 -0.877966 0.171492 0.029452 -0.192297 -0.005056 0.029369 -0.606041 -1.428177 0.637147 -0.008449 0.081142 0.092972 0.561891 -0.722859 1.231279 -0.149863 0.634655 0.128540 0.173656 0.666374 0.791490 0.082973 -0.860519 0.632538 0.864805 -0.413174 -0.924252 0.650358 1.020589 -0.504983 -0.341921 -0.353557 0.848923 -0.644536 -0.484874 0.639600 -0.131640 -0.281004 
shiitake -0.267926 -0.413734 -0.694869 0.239905 0.427855 0.062171 0.791183 -0.262969 -0.358880 -0.072462 1.152835 -0.594239 -0.265905 -1.774040 0.272190 0.110437 -1.034508 -0.039996 0.518872 0.674246 0.218091 0.155153 -0.971788 0.680214 -0.509796 0.754063 0.162839 -0.266929 -0.898379 0.063955 0.212546 0.972025 0.934695 -0.891298 -1.091765 -0.113851 -0.464554 1.065253 0.115197 -0.020381 -1.503465 -0.011800 -0.396367 -0.306532 -0.171076 0.351026 -0.189413 0.557524 -0.301753 -0.594640 -0.018200 0.940696 -0.609413 0.382285 -0.405499 0.996152 0.626598 0.613466 0.358841 0.991312 0.977309 0.172235 -1.248625 1.271001 0.432763 
radish -0.660078 -0.707014 -0.731791 0.099017 0.245952 -0.134945 0.501637 -0.626749 -1.082575 0.157728 0.503352 -0.870489 0.877677 -1.760946 0.323178 0.107955 0.294696 0.020789 0.787791 0.598975 -0.298901 -0.094054 -1.313528 0.377947 0.053447 -0.115251 -0.701147 0.774841 0.559560 -0.463482 0.387718 0.752777 0.588166 0.121062 -0.391041 -0.525431 -0.127407 0.177812 0.049677 -0.156253 -1.035506 0.410952 0.231023 -0.559263 1.170822 -0.074438 -0.438968 -0.637681 -0.595278 0.565373 0.797735 1.014849 -0.828669 -0.240181 0.035426 1.147257 2.010128 -0.021857 -0.351401 -0.411485 -0.450167 -0.336487 -0.458108 1.207691 0.398490 
peach 0.637432 0.293023 -1.074081 -0.091379 -0.017903 0.722338 -0.302963 -0.286763 -0.293821 -0.465997 -0.406465 0.693757 0.159345 0.547658 0.908845 -0.047965 0.146973 0.285972 -0.563846 -0.585239 0.154770 0.291341 -0.222277 0.194028 0.699601 0.109402 0.402642 0.257074 -0.044599 -0.450006 0.415907 -0.012975 0.025637 -0.384372 -0.109718 -0.513585 0.251937 -0.193011 -0.069536 -0.116021 -0.372080 0.250733 -0.645356 0.034934 0.127207 0.019508 -0.049732 -0.455398 0.342195 0.357575 -0.065946 0.452668 -0.487182 -0.094163 0.597597 0.208229 0.164469 0.218066 -0.555152 -0.373975 0.027466 -0.436428 -0.159989 -0.464345 0.199751 
tarragon 0.593295 0.074248 0.724852 -0.119212 0.607868 0.519605 0.011257 0.992086 0.457021 -0.223212 -0.098082 0.274484 0.011309 -0.258278 -0.147791 0.342137 0.159005 0.234877 0.389403 1.141244 -0.654021 -0.512585 -0.532422 0.031857 0.535273 0.054618 -0.290329 -0.454774 -0.931141 -0.110415 -0.194605 0.148704 -0.181889 0.443501 -0.519585 -0.082102 0.863395 0.222604 -0.027589 0.088164 -0.463320 0.035866 -0.492255 -0.618151 0.078608 -0.392473 -0.727158 0.008937 -0.296523 0.226909 -0.350817 -0.613178 -0.056363 0.313975 -0.378452 0.275662 0.759493 -0.239881 -0.137860 -0.320524 0.650227 -0.260845 -0.027559 0.257984 -0.891452 
black_bean -0.402645 -0.061752 -0.168179 0.293376 -0.217277 -0.676494 0.085937 -1.213531 -0.845000 0.443879 0.281528 -0.976094 0.343670 -0.274767 -0.226321 -0.477853 -0.749117 -0.858408 -1.030743 -0.278155 0.134474 -1.025828 -0.322277 0.194058 0.319029 -0.400707 -0.359021 -1.135154 1.637392 -1.557258 -0.363181 0.786634 -0.455470 0.249525 -0.294185 0.228430 -0.086170 -0.049920 -1.578007 0.034709 -0.018102 0.062464 0.497504 0.121106 0.138714 0.704096 0.946133 0.304616 -0.884126 0.513958 0.004238 -0.049314 0.134516 -0.173036 0.511049 0.617620 0.012134 -0.612974 0.187813 -1.014370 -0.207236 -0.151293 -0.408219 0.304185 -0.394082 
lamb 0.104483 0.192562 1.041328 -1.224508 0.690151 -0.814660 0.508493 1.411337 0.486334 0.477919 -0.498230 0.278116 -0.753699 0.576715 0.740048 -0.186149 0.243795 -0.301381 -0.979596 0.147061 -1.036076 0.009349 0.224152 0.821572 0.291048 0.442602 0.752813 -1.071228 0.289368 -1.002235 -0.608399 0.814022 -0.563242 -0.440768 -1.074783 0.001899 0.664710 0.408986 0.441559 0.564501 -0.037181 0.251800 0.139356 0.187516 1.139245 -0.392711 -0.088743 0.518612 -0.317156 -0.612735 0.961078 0.283375 -0.807324 0.462589 0.169267 -0.032770 0.554424 -0.223169 0.166682 -0.430680 -0.210879 -0.533867 0.458849 0.660922 0.591251 
maple_syrup -0.177592 0.604566 -0.324754 -0.173363 -0.075835 0.886340 -0.003334 0.042385 0.099496 -0.136139 -0.357242 -0.439800 0.391214 0.373407 0.515115 -0.061411 0.070346 -0.138570 -0.613516 0.633782 0.386084 -0.129424 0.634312 -0.602919 0.522310 0.380647 0.336677 -0.138732 0.197113 0.394390 0.323912 0.106290 0.271940 -0.197633 -0.519063 0.004650 -0.158463 -0.521047 -0.181330 0.113790 -0.094349 -0.237341 -0.762055 0.468701 -0.135334 -0.285466 -0.012986 -0.103019 -0.080224 -0.008549 -0.119406 0.257746 0.092834 0.120473 0.327412 0.263736 0.147630 -0.635391 -0.073365 0.430844 0.250282 0.296651 0.532587 -0.278891 0.616217 
pear -0.613594 0.390218 -0.755971 0.319344 -0.242037 1.144355 -0.065908 0.286542 -0.845832 -0.542687 -0.590076 0.342428 -0.600457 -0.348957 0.617135 -0.480027 -0.010468 -0.232604 0.216478 0.201756 -0.395151 -0.357396 -0.140958 0.874436 0.399292 -0.217768 0.155861 -0.524907 -0.260451 -0.832940 0.008575 0.291348 0.219023 -0.286780 -0.721883 0.423049 -0.462863 -0.051423 0.488069 -0.211008 -0.491384 -0.309143 -1.152744 0.390475 0.391007 -0.705310 -0.431986 -0.068853 -0.153194 -0.082328 0.257367 0.999736 -0.385792 0.197269 -0.202919 0.514665 0.448519 -0.378049 -0.248019 0.578649 -0.351167 -0.765575 -0.176793 -0.062783 0.310157 
fruit -0.009346 -0.230701 -0.550683 0.161717 -0.384356 0.513831 0.077650 0.563804 0.198757 -0.464265 -0.240450 1.096209 -0.128985 0.552362 0.910503 -0.375212 -0.663400 0.413751 -1.303875 -0.356800 0.613773 -0.111590 0.377819 0.745859 0.515772 0.481582 0.391289 0.028178 -0.409553 -0.359768 -0.044353 0.272068 0.475559 -0.023991 -0.048897 0.004234 -0.185004 -0.049332 0.225146 -0.624059 -0.593305 -0.035905 -0.251286 -0.152839 0.010204 -0.209046 -0.365948 0.175311 0.544035 0.744030 0.152000 -0.003633 0.414774 -0.061589 0.656814 -0.178152 0.851826 0.243313 0.263915 0.216578 0.099559 -0.513913 -0.364929 0.070112 0.308027 
blueberry 0.781715 0.399591 -0.730155 0.356793 -0.186165 0.947682 -0.454881 -0.150699 -0.005276 -1.076213 -0.024129 0.745268 -0.196370 0.250538 1.372966 0.201261 0.076320 0.691758 -1.219117 -1.233087 1.110960 0.150809 -0.473523 -0.070566 1.150193 0.089700 0.883335 -0.393913 -0.838107 -0.285212 0.584937 -0.404083 0.279084 0.129557 0.595788 -0.157339 -0.041275 -0.397083 0.649611 -0.413619 -0.204963 -0.452278 -1.265614 -0.225636 0.735716 -0.230413 -0.142327 -0.123069 -0.019065 0.417161 0.624113 -1.062119 -0.475000 0.830559 0.710600 0.610716 0.764819 -0.273225 0.697868 -1.054371 -0.334557 -0.754166 -0.389958 -0.511384 0.762542 
clam 2.414095 -0.454634 0.111770 -0.777089 0.144924 0.022375 0.540684 0.866566 0.100512 -0.140345 0.132138 -1.067807 -0.374325 -1.906648 0.311431 -0.334973 1.620341 -0.600931 -0.241021 -0.149743 -0.367509 0.405823 -1.368859 -0.464084 0.828884 0.249115 0.072564 -0.028993 -0.465384 -0.498079 0.204664 1.427621 -0.203707 -1.586384 0.642489 0.376380 0.050587 0.828485 -0.099405 0.063010 0.065886 0.398486 -0.537326 0.043673 -0.742484 -0.000229 0.060118 1.386814 -0.405648 -0.668194 0.424909 -0.094239 0.442840 -0.137865 -0.254466 0.999456 0.628626 0.586519 0.426508 0.361144 0.971607 -0.318394 -0.915476 0.509874 -1.067169 
smoke 0.205584 -0.064217 -0.003664 -0.084576 0.045354 0.612134 -0.043206 0.106676 -0.496883 -0.010247 -0.610279 -0.275474 0.085725 -0.414805 -0.098539 -0.144627 0.031132 0.011682 -0.446488 0.773226 -0.047719 -1.293793 -0.226078 -0.419454 -0.285726 -0.064102 0.298995 0.490680 0.429274 0.287825 -0.373102 0.254657 -0.018905 -0.023223 -0.155196 0.141145 0.125288 -0.259861 -0.663870 0.689210 -0.239829 -0.153453 -0.291694 -0.845705 0.207192 0.098412 0.216150 1.003502 -0.302247 0.087505 0.130617 0.418300 0.211101 -0.017410 -0.273698 -0.462449 -0.151792 -0.602524 -0.620912 -0.174090 1.220095 0.177282 -0.138499 -0.233653 -0.432294 
tuna -0.289047 0.712843 -0.205453 0.081597 -0.044982 0.393324 0.135501 0.401604 0.110455 0.318259 -0.041099 0.113830 0.808000 -0.878671 -0.427212 -0.117661 -0.440840 0.302494 0.025762 0.555077 0.407618 -0.000222 -0.133992 0.263975 0.291103 0.388684 -0.078748 0.687843 0.314275 -1.157853 0.264929 0.327630 0.220255 0.520016 -0.061265 0.845142 -0.382016 0.048786 0.370672 -0.648351 1.230561 0.655468 0.803772 -1.257311 0.817500 -0.119656 -0.554821 0.456390 -0.983839 -0.114816 0.277533 -0.376128 0.131482 -0.491621 0.393026 0.279155 0.870072 -0.134060 1.310497 -0.674816 -0.253147 -0.130171 -0.063049 0.229928 -0.652884 
kidney_bean 0.453100 0.298340 0.659110 0.165041 -0.312122 -1.332681 0.215575 0.366086 0.463125 0.807237 -0.347244 -0.940696 0.403435 -0.013860 -0.354106 -0.431697 -0.782224 0.229458 -1.297610 0.742403 0.440940 -0.271739 -0.150336 0.383951 -0.486918 -0.499736 0.056428 0.041631 2.359027 -0.940609 -0.717987 0.125499 -0.217517 0.198758 0.422100 0.029168 -0.277885 0.234288 -1.054904 -0.001510 -0.139118 0.312557 1.057499 0.284550 0.103797 0.112439 0.265312 0.144058 -0.425282 0.045905 1.123172 0.481317 -0.359153 0.337856 -0.021957 -0.774173 -0.299285 -1.070770 -1.151067 -0.211707 0.218520 0.606216 -0.843842 -0.159133 0.227489 
peanut 0.243885 0.576143 -0.703100 0.172671 0.449567 -0.145914 0.506260 -0.542637 -0.493446 0.497817 0.773837 0.422176 0.549917 -0.174972 0.076362 -0.537907 -0.790849 0.198473 -0.374734 0.422225 0.384971 -1.008913 0.486769 -0.183466 0.549293 -0.691407 -0.746652 -0.601265 0.315638 -0.393968 -0.615422 -0.659314 0.295728 -0.023694 -0.105602 0.520366 -0.981418 -0.379410 0.730100 -0.122190 -1.331501 0.212911 -0.279511 0.216696 -0.270660 -0.608375 0.235135 -0.062585 -0.482008 -0.441619 -0.198008 0.179630 0.645548 -0.863179 0.789642 -0.040546 0.474523 1.045473 0.184482 -0.282136 -0.139182 -0.088359 0.280635 0.121974 0.153649 
asparagus 0.137520 -0.215345 0.270941 0.103782 -0.191297 0.351155 0.380935 -0.197605 0.662761 -0.197226 -0.223394 0.236186 -0.308975 -0.298098 -0.061384 0.409986 -0.669322 0.102517 0.060474 0.665359 -0.037631 0.350244 -0.477950 0.101805 0.245291 0.293371 -0.552514 -0.247916 -0.880724 -0.170609 -0.017923 0.383079 -0.397673 0.086980 -0.427040 -0.707844 0.276650 -0.020346 0.230049 0.253629 0.660087 -0.848210 -0.585629 0.060743 0.357107 0.528176 -0.390649 0.738938 -0.988617 -0.804215 -0.642845 -0.216400 0.223068 -0.185701 -0.066013 0.639797 0.562805 -0.744656 0.124088 -0.059984 0.199960 -0.666716 -0.371693 0.031870 -0.650410 
salmon 0.398947 0.433651 0.001789 0.158766 0.357394 0.283834 0.596237 -0.200076 -0.111038 -0.031292 0.275101 1.495861 0.035089 -0.300988 -0.069059 0.236505 0.019701 0.084103 0.023857 0.694203 -0.157126 0.374205 -0.318058 0.973316 0.866847 0.058774 0.559502 0.415134 -0.329039 -0.622710 0.157220 0.590415 -0.692563 -0.434180 -0.307576 -0.409063 0.390123 -0.490555 0.184473 0.422883 0.695107 0.653741 -0.000308 -0.777191 0.369941 -0.156046 -0.369626 0.156696 -1.024450 -0.147034 0.218922 -0.578613 -0.184436 -0.517914 0.897127 0.835213 0.397043 -0.113246 0.798792 -0.436082 -0.078101 -0.551109 0.186304 -0.090636 -0.675329 
leek 0.474035 -0.496319 0.169223 -0.230826 0.362805 0.213074 -0.236681 1.032037 0.455410 0.249140 -0.220912 -0.875645 -0.250339 -0.522426 -0.675948 0.092469 -0.310482 -0.246379 0.070133 0.124645 -0.726060 -0.086749 -0.125023 -0.052414 -0.038128 0.254081 1.027784 -0.237863 -0.726560 0.627128 -0.685863 0.183360 0.097596 -0.707810 -0.661252 0.178984 0.639618 -0.104934 0.165641 0.856486 -0.297285 0.581383 -0.460573 0.335544 0.480339 0.148514 -0.308896 1.562287 -0.339206 -0.335465 0.040537 0.301403 -0.419771 0.244674 0.179162 0.735866 1.103042 -0.539031 -0.571519 0.586547 0.876202 -0.152009 -0.394462 0.536165 -0.271016 
chickpea 0.150013 -0.798089 0.596260 0.025197 -0.293775 -0.911617 -0.055348 0.077173 0.265455 0.472857 -1.025383 -0.757510 0.346915 0.224348 0.033642 -1.168346 -0.376090 -0.990063 -1.108913 0.085236 -1.105381 0.384260 -0.253133 0.059221 0.793440 -0.215630 -0.044875 -1.300762 0.812600 -1.684457 -0.374610 0.042267 -0.780309 0.410839 -1.055101 -0.176303 -0.059688 0.619953 0.185630 0.658236 0.578743 -0.507995 0.476162 0.272015 0.997881 -0.250108 0.365522 -0.005895 -0.549709 -0.134580 0.086348 0.761841 -0.915418 0.005199 -0.208770 0.076080 0.977211 -0.763533 0.041511 -0.225954 -0.732312 -0.053344 0.158691 -0.022389 0.480552 
blue_cheese -0.374292 0.872426 0.029489 0.376563 -0.210164 0.706965 0.242490 0.273150 -0.269639 0.044081 -0.574285 -0.145026 -0.078223 0.116976 -0.006748 0.449009 0.193508 -0.014118 0.530365 0.584826 -0.344968 -0.566671 -0.696603 0.444920 -0.237117 -0.273262 0.362921 0.795794 -0.285611 -0.445244 -0.011910 0.469827 -0.023338 0.882464 -0.577359 -0.102697 0.217233 0.235322 0.153821 -0.449702 0.112191 -0.647639 -0.729482 -0.502947 0.314288 -0.066946 -0.339909 -0.829184 -0.530544 0.686543 -0.119020 -0.180536 -0.022596 0.622671 -0.354280 0.143041 0.124482 -0.880229 -0.319161 -0.121960 -0.002529 0.063700 0.162260 -0.013507 -0.533369 
brandy -0.027829 0.263810 0.160088 -1.192919 -0.927656 1.801688 0.060164 0.420212 -0.332584 -1.615660 -1.364202 -0.354306 0.417490 -0.238925 0.788613 -0.604982 0.187994 0.253014 -0.881438 -0.844540 0.131064 -0.436967 -0.802973 1.125565 0.085777 -0.220771 0.314486 0.373076 -0.250534 -0.049811 -0.419506 -0.171723 -0.092315 -0.283900 0.251967 1.023215 -0.174489 -0.057266 -1.423632 0.608417 -0.062674 -0.029163 -0.580687 -0.058614 -0.759906 -0.443567 -0.798461 0.236593 0.820639 -0.386169 -0.307423 -0.923444 0.077725 1.204311 -0.593660 -0.287568 1.235206 -0.133096 0.303565 1.341992 1.864807 -0.588299 0.111501 -0.351598 0.547567 
artichoke -0.290288 -0.472669 0.388036 -0.125111 -0.020027 -0.214526 0.026830 0.235133 0.438500 -0.476262 0.178911 0.388145 -0.448135 -0.559698 -0.332548 0.441707 -0.106740 0.020257 -0.614394 0.325181 -0.404839 0.185693 -1.060385 0.026249 0.635034 0.245458 -0.560143 0.433470 -0.343411 -0.616324 -0.368313 0.407207 -0.394063 0.311987 -0.616426 -0.188181 0.796289 0.628851 0.706718 0.428688 0.509108 -0.613371 0.053955 0.200263 0.123934 0.414038 -0.044335 0.360215 -0.541614 0.162664 -0.387147 -1.002061 0.057952 0.105084 -0.498969 0.129301 0.379288 -0.859024 0.239445 -0.081672 1.258408 -0.304948 -0.319649 0.162758 -0.252280 
horseradish 0.914246 0.219800 -0.159365 -0.258780 0.881705 0.476168 -0.128403 0.397011 -0.885843 0.424160 0.042239 0.416107 0.274163 -0.031251 -0.583214 -0.396883 0.198637 0.233551 0.404243 1.212037 -0.164154 -0.496011 -0.673778 0.619823 0.475922 0.705301 -0.016717 0.902954 0.106272 0.341538 -0.058094 0.038545 0.555326 0.079370 -0.535941 -0.012453 0.203163 0.204804 -0.296719 -0.605625 0.536430 -0.036678 -1.018092 -1.197871 -0.007846 0.222718 0.507478 -0.384159 -0.171422 0.045658 0.133407 -0.063426 1.384152 0.357042 -0.131686 0.075564 0.660461 0.034782 0.070164 -0.644227 0.174454 0.977293 0.441030 -0.195520 -0.705226 
mango 0.983463 -0.011498 -0.509464 0.416337 0.248838 0.256647 0.113739 -1.007916 -1.483325 0.224516 0.409194 0.617023 0.437635 0.035658 0.821867 -0.871252 -0.150563 0.126539 -0.404056 -0.785518 -0.854734 -0.247951 0.000369 0.032402 0.224768 0.409333 -0.117204 -0.631522 0.031116 -0.835792 -0.965217 0.538764 -0.085412 0.212453 0.234377 0.434091 0.349564 -0.085995 -0.114104 -0.475181 -0.097091 0.514304 -0.899806 -0.126937 0.554543 -0.769728 -0.712475 -0.639492 -0.085826 0.312028 -0.509772 0.881685 -0.083812 -0.359026 0.697810 0.945738 -0.042604 0.736609 -0.695128 -0.881578 -0.195187 -0.969862 0.348181 -0.352558 -0.453413 
