249 60
</s> 0.006671 0.007366 -0.006384 -0.005463 0.002278 0.005035 0.001568 0.000352 -0.006006 0.003697 -0.007261 0.002083 -0.001252 -0.001595 -0.005526 -0.003137 0.004299 0.005042 0.004948 0.002662 0.002575 -0.006338 -0.006826 0.008283 0.006335 0.005150 -0.001007 0.006693 -0.000825 0.001225 -0.000249 -0.004972 0.002187 -0.002229 -0.006376 0.007924 0.007299 -0.001825 -0.000377 0.000849 -0.006063 -0.006679 0.007591 0.000105 -0.004304 -0.005070 -0.005127 0.002828 0.000336 0.002218 -0.007023 -0.006346 -0.000217 0.001906 0.004250 -0.005283 0.006799 0.001545 0.001866 -0.001014 
egg -0.085498 -0.452282 -0.675523 -0.354750 -0.254110 -0.435839 0.427187 0.175800 -0.090190 0.532599 0.131029 -0.025623 0.369711 -0.311698 0.424495 -0.098145 -0.484334 0.216337 0.097011 0.125446 0.007973 0.047543 0.371796 0.090437 -0.134346 0.342857 0.042609 0.121328 0.028102 -0.093178 0.099528 -0.522175 -0.081754 0.394958 -0.314072 0.054267 -0.441431 0.272006 0.748277 0.508352 0.139919 -0.607867 0.342251 -0.012498 -0.173363 0.490568 -0.144365 0.354529 -0.515337 -0.464892 0.385711 0.135129 -0.118679 -0.381201 -0.222960 0.269595 -0.379335 0.239336 0.328369 -0.227307 
butter -0.418458 -0.098456 -0.179418 -0.277668 0.082531 -0.302269 0.664361 0.175785 -0.451850 -0.182971 -0.088634 0.226634 0.061878 -0.872074 -0.200756 0.506692 -0.332684 0.055373 0.140193 -0.250796 -0.275669 0.318315 0.080280 -0.038983 -0.302212 0.449974 0.047886 0.320121 0.287216 0.270930 -0.129971 -0.340558 -0.136620 -0.065667 -0.518535 0.293237 -0.342231 -0.102797 0.449043 -0.286788 -0.072580 0.221245 -0.048346 0.166720 -0.364470 0.196990 -0.430432 0.276458 -0.482465 0.272864 -0.120906 0.309245 -0.274845 0.222771 0.129976 -0.141103 -0.581462 -0.008120 0.672074 -0.352296 
wheat 0.365141 0.038621 -0.015432 -0.588083 -0.192912 -0.122187 0.286432 -0.351034 0.421564 0.428382 -0.617419 -0.405777 -0.178079 -0.106691 0.615633 0.309423 -0.744675 -0.226806 0.144520 -0.283516 0.068205 0.227244 0.095218 -0.315790 0.581520 0.433454 -0.570941 0.316519 0.187819 0.273070 -0.019969 0.038794 0.134034 0.212593 -0.041979 -0.136605 -0.060629 -0.103401 0.199798 -0.387768 -0.044767 0.131411 0.624043 0.418781 0.107666 0.103241 0.181370 0.220490 -0.544598 0.231495 0.533199 -0.009576 0.138280 0.252123 0.490015 -0.077552 -0.117670 0.338486 0.460137 0.019791 
onion 0.399881 -0.288454 -0.201155 -0.047194 0.441426 -0.036403 0.187822 0.035883 -0.245914 0.112543 -0.671084 0.293426 -0.044173 -0.274362 0.063436 0.056559 0.206290 0.144246 0.430508 0.683823 0.011150 -0.228730 -0.419958 0.077718 0.123997 -0.623725 -0.224626 0.452936 0.211591 -0.074169 -0.176789 0.465869 -0.112704 -0.159826 0.199973 -0.057968 -0.071608 0.245869 -0.012398 -0.210916 0.807974 -0.329581 -0.157264 0.332296 -0.205462 -0.244210 -0.040662 -0.096185 0.462046 -0.206130 0.140056 -0.285671 0.661842 -0.309188 0.071793 -0.470146 0.397676 0.045064 -0.364458 -0.206564 
garlic 0.440242 -0.514687 -0.225088 -0.074773 -0.001034 0.164903 -0.142594 -0.275540 -0.328077 -0.443533 -0.242303 0.350570 0.097991 0.292780 -0.487166 0.496276 0.361303 0.453583 -0.127236 0.533646 0.092296 -0.085573 0.178456 0.378847 -0.102688 -0.861017 -0.251872 0.146138 0.387460 0.225366 0.436452 -0.207657 0.168347 0.386725 -0.338085 -0.189234 -0.003181 0.064857 -0.028065 0.270160 0.414041 -0.128784 0.189569 -0.262403 0.376247 -0.756837 -0.068105 -0.652147 -0.265768 -0.104753 0.506648 -0.119428 0.275979 -0.247824 0.522725 -0.501259 -0.002672 0.398958 -0.173149 -0.742506 
milk -0.028820 -0.137582 -0.017605 -0.175842 0.237027 -0.174099 1.229213 0.312220 0.201410 0.457311 0.226752 0.208191 0.043171 -0.480037 0.385775 0.279509 -0.096504 -0.272078 0.306632 -0.043212 -0.244624 -0.009585 0.253412 -0.326641 0.166657 1.009657 -0.071301 -0.151465 0.257892 -0.140325 0.295311 -0.758187 -0.097857 0.099373 -0.361967 0.458934 -0.490332 0.293712 0.480724 -0.433612 -0.201731 -0.159065 -0.272992 0.370251 0.148072 0.175374 -0.248714 0.124642 -0.106833 0.374094 -0.346882 0.205828 0.528380 -0.265590 0.238945 0.556029 -0.235856 0.420436 0.374071 -0.194095 
vegetable_oil 0.738957 -0.204517 0.154726 0.346515 -0.041895 -0.357880 -0.040573 0.626142 0.022838 -0.089242 -0.201754 -0.391869 -0.100366 -0.553715 -0.236867 0.320376 0.266485 -0.006073 0.306761 -0.025803 -0.344647 -0.361097 -0.158161 -0.343678 0.129215 -0.099878 0.435209 0.244236 0.244991 -0.099140 0.052419 -0.087765 -0.174038 -0.239438 -0.266888 -0.003580 0.146099 0.154764 -0.435139 -0.180831 0.881416 0.350838 0.008386 -0.025196 0.009278 0.406403 -0.274070 -0.117365 -0.216039 0.439766 -0.294884 0.256555 0.265888 0.164569 0.053248 -0.372906 -0.336696 -0.249401 0.137353 -0.646958 
cream 0.060102 0.151501 -0.212513 -0.157421 0.003422 -0.296270 0.401208 0.802889 0.661961 0.270569 -0.222429 -0.126623 0.080631 -0.700024 0.105567 -0.088961 -0.263596 0.416820 -0.452643 -0.287378 -0.526668 0.111321 -0.066623 -0.151231 0.176252 0.498842 0.045142 0.251398 0.294687 -0.379774 0.332513 0.015265 0.082967 0.319388 0.192866 0.488660 -0.137763 0.067661 0.454880 -0.202298 0.207230 -0.068635 -0.008412 0.381263 -0.055964 0.101850 -0.097505 0.268204 -0.297660 0.108604 -0.165063 -0.436120 0.004340 -0.302098 0.479790 0.070537 -0.433584 0.346228 0.315232 -0.412865 
tomato -0.051761 0.288946 -0.427679 -0.195120 0.719726 0.607474 -0.307561 0.081442 -0.302320 -0.181048 -0.136544 -0.079329 0.649817 0.364429 0.711836 0.557192 0.572313 -0.097617 -0.160129 1.055585 0.600065 0.807211 -0.368171 0.408972 -0.570330 -0.435286 -0.618639 0.639532 1.484436 -0.068723 0.082243 0.458046 0.209982 -0.030865 0.233120 -0.296457 -0.460579 0.096147 0.301483 0.487422 0.024882 0.096331 0.200857 0.659396 0.163538 -0.753464 0.647949 -0.313297 0.334810 0.141422 0.156786 -0.203385 0.224683 -0.078959 -0.102177 -0.246522 0.050160 -0.084030 -0.355063 -0.298130 
olive_oil 0.157938 0.396234 0.357392 0.226099 -0.014752 -0.188841 -0.166299 0.027290 -0.291401 0.331405 -0.894911 0.075236 -0.159961 -0.072860 -0.171310 0.582344 1.081224 0.710676 0.622805 0.448576 -0.175312 0.667574 -0.565052 0.574349 -0.488213 -0.155197 0.496047 0.458668 0.797225 0.097793 -0.721841 0.154762 0.253795 -0.024841 0.007554 0.070637 -0.172950 -0.198390 0.078491 0.105545 0.725640 -0.030441 -0.622988 0.075051 -0.096347 -0.497766 -0.695254 -0.110027 0.330648 0.357984 -0.288175 0.494691 0.122969 0.778843 0.190073 0.061605 -0.200826 0.036109 0.288474 -0.619757 
black_pepper 0.153921 -0.298561 -0.515994 -0.312677 0.145761 -0.314624 -0.581664 -0.119565 -0.375934 0.050968 -0.263351 0.596960 -0.128555 0.106866 -0.588159 0.381290 0.023541 0.280496 -0.247147 0.166654 -0.441580 0.498583 0.116714 0.326327 -0.353210 -0.550173 -0.454080 -0.008688 0.759954 0.010589 0.077656 0.029372 0.012955 0.274809 0.336700 0.030502 0.044667 -0.113607 0.164218 0.465682 -0.034870 -0.140316 -0.341422 0.353193 -0.365713 0.218924 -0.062263 0.030178 0.371470 0.263805 0.026561 -0.135069 -0.170230 -0.251822 -0.068612 -0.572338 -0.342578 -0.194200 -0.006066 -0.523781 
pepper -0.045748 -0.334005 -0.211390 0.036578 0.749023 -0.162550 -0.584499 -0.353414 -0.236176 -0.301200 -0.525068 0.438404 0.088696 -0.104669 -0.566254 -0.076754 0.109237 0.274562 -0.150302 0.258621 -0.566256 0.003216 -0.426108 0.678931 -0.150239 -0.273518 -0.418440 0.081494 0.207473 0.196961 0.084458 0.284906 0.101723 -0.084833 -0.016783 -0.204487 -0.198250 -0.032850 -0.648038 0.441314 -0.048503 -0.115319 -0.362584 0.359809 -0.213847 0.277110 -0.141006 -0.056800 0.062026 0.027079 0.433345 -0.161760 0.416045 -0.292727 -0.167637 -0.478162 -0.232956 -0.157518 -0.545880 -0.767404 
vanilla -0.108126 -0.438421 -0.539894 -0.157975 0.324527 0.927565 0.158112 -0.400618 0.906644 -0.484058 0.133815 -0.156452 0.978549 -1.185782 0.518552 -0.419877 -0.950689 -0.095958 -0.066929 -1.359948 0.036516 0.362238 0.868597 -0.788119 0.616615 0.520258 0.458911 0.333230 0.673747 0.304567 0.249215 -0.202278 -0.708206 0.718641 0.133968 0.489956 -0.381815 -0.711899 0.824887 -0.012222 -0.146803 -0.685528 -0.344092 0.413377 0.422706 0.630254 -0.818374 -0.943682 -0.073512 0.830646 0.792697 0.482169 -0.033760 -0.510734 -0.410199 1.070769 0.770603 0.346823 0.699764 0.301579 
cayenne 0.445433 0.054276 -0.628326 -0.246749 -0.011930 0.034065 -0.370087 0.268526 0.281935 -0.629970 -0.211839 -0.047129 0.051396 -0.020988 -0.090531 -0.141721 0.660547 0.120806 -0.339815 0.936119 0.019569 -0.206933 -0.053479 0.227327 -0.197184 -1.233171 0.102023 0.544641 -0.083255 0.573568 0.528535 0.393549 0.085566 0.235555 -0.063858 -0.130149 0.345256 0.025245 -0.278949 0.019919 0.153246 -0.374350 -0.101322 0.398435 0.075136 0.314936 -0.342347 -0.423465 0.457681 -0.354674 -0.102648 -0.968386 0.521884 -0.562828 -0.015315 -0.018496 -0.156805 0.104417 0.227077 -0.452086 
vinegar -0.002120 -0.031027 -0.087246 -0.553948 -0.472436 -0.009866 -0.263953 -0.030231 -0.093605 -0.893658 -0.222126 -0.163567 0.218030 -0.397509 -0.725328 0.971597 -0.409798 -0.003704 0.055983 0.296662 0.239255 -0.007925 -0.201154 -0.287686 0.493037 -1.193262 0.677607 0.538362 0.108616 0.113695 0.668939 -0.159698 0.386671 -0.281090 0.650720 -0.798715 -0.231447 -0.270485 -0.183349 -0.060888 0.774819 -0.280908 -0.664707 0.434363 0.400088 -0.499447 0.577890 0.155287 -0.109219 -0.031410 0.434373 -0.423508 -0.714512 0.087752 -0.051030 -0.136827 -0.118447 -0.321538 -0.988568 -0.571647 
cane_molasses 0.049438 -0.205472 0.110342 -0.119970 0.476789 -0.837464 0.134400 0.422773 -0.273319 -0.522350 -0.212781 -0.466349 0.166655 -1.011443 0.710327 0.266688 -0.228688 -0.585235 0.915962 0.830694 0.620414 0.082038 1.070880 -0.084657 0.226786 0.636857 0.146260 0.000611 -0.524935 -0.030453 0.082529 0.039438 0.161120 0.420130 -0.214483 -0.351333 0.000772 0.016647 -0.589317 0.213128 0.316459 -0.065278 -0.189395 -0.071831 0.420443 1.151392 -0.127813 -0.351801 0.093399 0.710844 0.181515 0.628229 -0.080168 -0.056577 0.393829 0.526458 0.032626 -0.314794 -0.864653 0.073980 
bell_pepper 0.225045 -0.083946 -0.313909 -0.421293 0.137988 0.131275 -0.189044 -0.068698 0.012590 0.029840 -0.154255 0.034395 0.084668 0.348977 -0.133515 0.200681 0.224837 -0.083413 -0.209249 0.631503 -0.169460 0.417898 -0.445808 0.118487 -0.604312 -0.614472 -0.424514 0.474492 0.501197 -0.014433 0.193646 0.256665 -0.056094 -0.048533 -0.452328 0.247759 0.109393 0.147108 -0.433003 0.177324 0.250643 -0.224728 -0.013730 0.230752 0.103432 -0.267791 -0.015972 -0.412504 0.452240 -0.036419 0.228475 0.116568 -0.053646 0.014591 -0.071821 -0.393792 -0.292700 -0.177696 -0.023616 -0.505794 
cinnamon 0.471891 0.031435 -0.020665 -0.766805 0.348315 -0.066219 -0.014812 0.132531 -0.492770 -0.411381 0.293111 0.131209 -0.291508 -0.522621 -0.289790 0.372730 -0.398761 -0.599923 -0.113867 0.037689 -0.556787 0.309564 0.415645 0.205352 0.483055 0.780950 0.424284 0.711901 -0.248682 1.302202 -0.296101 0.264145 -0.073240 0.017765 -0.033611 0.209617 0.026503 -0.724692 1.108634 0.627538 0.008850 -0.676411 -0.148045 0.159662 0.570218 0.389459 -0.912033 0.465040 0.162021 0.337921 0.619317 0.757814 0.458373 -0.255184 0.537752 0.513786 0.900694 0.109393 0.303004 0.424702 
parsley -0.276938 0.056665 0.278308 -0.310780 0.109701 -0.113897 -0.058286 0.173467 -0.060048 0.959789 -0.710697 0.772359 0.197644 -0.072062 0.074252 0.485589 0.066309 0.632774 0.144507 0.513141 -0.274366 0.123611 -0.165816 -0.362808 -0.740131 -0.520126 0.087052 0.551238 0.481085 -0.287783 0.464570 -0.048684 0.919446 0.466215 0.309834 -0.254391 0.059203 0.034305 0.016010 -0.027587 -0.122674 0.137522 -0.066573 0.018690 -0.289805 -0.269723 -0.130642 0.461577 -0.113645 0.175637 -0.026357 0.076490 -0.136315 0.446433 0.266116 -0.499217 0.046177 0.406502 0.242046 -0.163961 
chicken 0.227406 -0.892228 0.231268 0.534734 -0.070729 0.240574 0.438460 -0.166688 -0.108109 -0.426315 -0.006101 0.237648 0.256580 0.709979 -0.376206 0.074334 0.448562 0.136305 0.657712 0.251605 -0.222028 0.141619 -0.176020 0.731230 -0.213867 -0.013227 0.266942 0.677000 -0.415136 -0.059830 0.074532 0.707024 -0.104894 -0.181216 0.230010 0.175043 0.071052 0.102513 -0.022069 0.162876 -0.120442 0.727809 -0.396828 -0.238235 0.165366 0.169889 0.162461 -0.457749 0.122834 0.039121 0.447637 0.243743 0.288259 -0.419310 -0.414339 -0.740302 -0.818725 0.070635 0.455292 -0.406685 
lemon_juice 0.121244 0.172781 -0.524762 -0.206063 -0.292003 -0.568033 -0.219865 -0.730373 -0.232549 0.123873 -0.011820 -0.214609 0.514077 0.258170 -0.431543 0.005425 -0.401573 0.658127 0.245056 0.327785 -0.371199 0.150030 -0.335072 -0.010572 0.300697 -0.321919 0.335807 0.050136 0.803738 0.151493 0.243746 -0.184150 0.384434 0.206118 -0.470895 -0.112428 0.408869 0.886223 0.337908 -0.162940 0.501969 -0.296866 -0.171742 0.108466 0.329756 -0.109730 0.154251 0.420390 -0.064272 0.139290 0.597420 0.251777 -0.319460 -0.226468 0.292336 0.432217 -0.114291 -0.121821 0.377854 0.099960 
beef -0.216670 -0.716023 -0.277137 0.434279 0.275553 -0.190187 -0.198985 0.683911 -0.130361 -0.408499 -0.552730 -0.290049 -0.589381 -0.120544 -0.654222 0.435918 0.435627 -0.283217 0.539208 0.574479 0.463924 0.693971 0.983832 -0.028268 -0.535849 -0.757231 -0.001532 0.068813 0.354558 -0.526248 0.046716 0.537301 -0.485134 0.254907 0.433778 -0.284429 -0.243257 -0.544925 0.158001 -0.276077 0.142275 0.464111 0.278846 0.116819 0.375821 -0.745188 -0.333225 -0.146640 0.200340 -0.098760 0.111248 -0.130552 0.345374 -0.704598 -0.211585 -0.787178 -0.449880 -0.008527 -0.722694 -0.144705 
cocoa -0.929312 -0.345746 -0.039801 -0.061822 -0.085424 0.691933 0.292202 -0.160631 0.708285 -0.897084 -0.105469 1.366316 0.723058 -0.812509 1.191019 -0.371065 -0.372442 0.061426 -0.161524 -0.998367 0.427234 0.278975 1.016270 -0.842419 0.348823 0.248758 -0.229507 0.200836 -0.373473 0.660056 -0.071810 -0.742858 -0.425470 -0.281785 0.211973 0.601470 -0.335068 0.162460 -0.032901 -0.300699 0.075811 -0.446273 0.425960 0.479673 0.930062 1.120733 -0.515758 0.291297 0.135759 0.752066 1.204577 0.432038 -0.672039 -0.438299 -0.472660 0.414945 0.783530 0.935044 0.486813 -0.530036 
corn 0.056775 0.116399 0.203373 -0.059858 -0.530155 -0.029097 0.272102 0.498216 0.522290 -0.487216 -0.089522 -0.126421 -0.541216 -0.129847 0.529049 0.350399 -0.260139 -0.197703 0.214693 1.229136 0.241146 -0.349426 0.153441 0.188188 -0.028978 -0.314955 -0.602675 0.157752 0.538351 0.000241 -0.301857 -0.652896 -0.757840 -0.082910 -0.190707 -0.260623 -0.259203 0.343340 -0.171646 -0.680704 0.180471 0.386025 0.223191 0.304466 0.572344 0.147189 0.268637 -0.380586 -0.045934 0.782731 0.141138 -0.223354 0.141963 -1.031422 0.253735 -0.683182 0.670229 0.402429 -0.510925 -0.347845 
bread 0.047401 0.172658 -0.009067 -0.505141 -0.006734 -0.539501 0.230011 0.144246 -0.178690 0.635097 -0.124287 0.591402 0.284239 0.209647 0.007767 0.748467 -0.147411 0.090130 0.422558 0.370703 -0.374397 -0.093798 -0.175943 -0.126099 -0.047893 -0.626369 -0.867122 -0.244985 0.865577 0.221191 -0.082145 0.293706 0.251112 -0.556808 0.410637 -0.172765 0.141030 0.169673 -0.301373 -0.151085 0.311606 0.400444 0.096615 0.060032 0.197174 -0.023347 -0.082680 -0.255063 -0.431224 -0.054659 0.172677 0.348325 -0.101729 -0.039367 -0.458485 0.303135 -0.402855 0.481213 -0.237602 -0.009747 
scallion 0.627246 -0.449640 -0.246807 0.305280 0.125839 0.253671 0.048587 -0.351281 -0.212292 0.624504 0.347450 -0.067851 0.014742 0.027295 -0.545356 -0.189582 0.813296 -0.335929 0.142349 0.356538 0.065107 -0.469344 0.207392 -0.104772 0.264651 -0.713274 0.336387 0.162581 -0.099150 0.449738 0.230844 0.227199 -0.187437 0.395418 0.171800 0.122086 -0.174786 0.744351 -0.077251 -0.147709 0.663110 -0.125867 -0.015275 0.177489 0.044956 0.181671 -0.224509 -0.550334 0.710334 -0.531920 0.290128 -0.594593 0.330656 -0.261139 -0.028198 -0.262074 -0.102935 0.385139 0.386880 -0.970454 
mustard -0.185759 -0.314625 -0.598257 -0.221431 0.243948 -0.400723 -0.127449 1.039757 -0.489555 -0.176795 0.858234 0.331181 0.771749 -0.247372 -0.374216 0.626062 -0.814259 0.487371 -0.030788 0.936902 -0.262374 0.087894 -0.309431 -1.186136 -0.009139 -0.386974 0.475354 -0.082819 0.465131 -0.083453 0.101261 -0.076596 0.016666 -0.451455 0.143427 -0.235058 -0.175699 0.409363 -0.058775 -0.241878 0.604118 -0.492972 0.022547 -0.184742 0.483345 0.247404 -0.163947 0.219588 0.240177 0.229550 0.067998 -0.162109 -0.323116 -0.007204 0.851425 -0.549279 0.063943 0.015702 -0.821183 -0.202276 
ginger 0.954798 -0.061483 -1.159222 -0.872541 0.127019 0.131617 -0.726589 -0.199509 -0.203993 -0.151058 -0.359169 -0.165201 -0.019289 -0.835360 -0.374000 0.369997 0.353815 -0.139009 -0.073652 0.238717 -0.106543 -0.103309 0.165322 0.510448 -0.236238 -0.194991 1.085174 0.959368 -1.289476 1.139489 0.165405 -0.547490 -0.795112 -0.132180 -0.262969 0.620009 0.762664 -0.326825 -0.042121 -0.384211 0.861142 0.264423 1.190590 0.063503 -0.383045 0.708678 -0.080298 -0.516081 0.725167 0.175525 0.132763 -0.094473 -0.786463 -0.252118 0.007229 -0.173756 -0.155282 -0.399521 0.165348 -0.052576 
basil -0.314213 0.638772 -0.413642 -0.013765 -0.456381 -0.202050 0.066423 -0.288263 -0.366156 0.148038 -0.710188 0.513515 -0.148111 1.019717 0.429473 0.683357 0.665009 0.119895 0.690199 0.782925 -0.733968 0.379128 0.084439 0.306639 -0.365773 0.421260 -0.017894 0.067985 0.665840 0.016985 -0.069667 0.430493 0.662830 0.282388 0.920090 0.262930 0.196987 0.003728 -0.282118 0.172658 -0.452448 0.363110 -0.423477 -0.205904 0.059787 -0.965179 -0.494788 -0.214880 0.872408 -0.304296 0.366960 0.248307 0.155870 0.187154 -0.061147 -0.001372 -0.096309 0.282875 -0.864950 -0.771152 
celery -0.459016 -0.443430 1.273742 -0.070084 0.790472 -0.138433 -0.016335 -0.707750 0.335494 0.024688 -0.266688 -0.149601 0.135431 0.382958 -0.219902 1.373363 0.476531 0.404812 0.601472 0.779496 -0.068719 -0.052636 0.279580 -0.378382 -0.498566 -0.256558 -0.189176 0.515957 0.068087 0.416009 0.468313 0.336356 0.531246 0.215935 -0.319294 0.594480 -0.050539 0.351579 0.143366 0.109323 -0.001306 0.108957 -0.437678 0.292507 -0.740901 0.238110 0.157420 0.395063 -0.455597 -0.053850 -0.495196 -0.164659 0.099361 -0.308856 0.028530 -0.593213 -0.166684 -0.085324 -0.622974 -0.029120 
carrot 0.025902 -0.461553 0.042168 0.089460 0.242692 0.369975 -0.598464 -0.111784 -0.782481 0.092837 -1.167696 -0.059231 -0.679685 -0.341812 -1.204650 0.588467 0.867530 0.104500 0.066774 0.310591 -0.121737 -0.274610 -0.354418 -0.274919 -0.076196 0.368173 -0.301652 0.539785 0.300660 -0.366312 0.135687 0.450687 -0.395344 0.610795 -0.212539 0.711881 0.527836 0.031237 0.412423 -0.601097 0.515780 -0.545893 0.179228 -0.281101 -0.264726 0.179786 0.018888 0.428870 -0.004672 -0.298206 0.210461 -0.048781 0.098942 0.214130 0.015746 -1.001601 0.479237 0.234107 -0.161307 0.124649 
potato -0.087384 0.242837 0.240641 -0.013541 0.576350 -0.033792 -0.029450 0.212988 -0.376009 0.760294 -0.473057 0.800843 -0.551322 -0.133293 -0.510205 0.933543 0.083313 0.377255 0.533656 0.078636 -0.039968 -0.053447 -0.341966 0.349844 -0.122713 -0.856333 -0.154041 0.378738 0.234369 -0.328898 0.394483 0.566176 0.512975 0.381577 -0.665182 0.850607 0.035966 0.154066 0.308712 0.172045 -0.512921 -0.166171 0.853646 0.454903 -0.201892 0.242246 0.485979 0.029824 -0.100116 -0.275898 0.198816 0.158576 0.466550 -0.906057 -0.122263 0.001354 0.208677 0.364336 -0.347222 0.578335 
chicken_broth 0.224149 -0.267758 0.884964 -0.136950 0.178025 0.302182 -0.472873 -0.419422 -0.917983 0.093618 -0.476376 0.636886 -0.069099 0.146248 -0.537190 0.610326 0.586301 0.596470 0.214446 0.488098 -0.639892 1.044362 -0.377734 0.213333 -0.465443 -0.117561 0.261293 1.054570 -0.359607 0.132518 0.428193 0.362483 -0.505084 0.457909 0.272279 0.889446 0.041515 -0.215907 0.003797 -0.013241 -0.510355 -0.065670 -0.654891 0.282968 0.266244 -0.122721 0.254225 -0.312833 -0.519767 0.090167 -0.511539 0.180519 0.574446 -0.349889 0.140677 0.169538 -0.572134 0.122565 0.236817 -0.343872 
yeast -0.398916 -0.217731 -0.430230 -0.733519 -0.528229 -0.894690 0.548664 0.394751 -0.352833 0.458378 0.007438 0.519733 0.688101 -0.706715 0.231573 -0.088056 0.007268 0.245930 0.061846 -0.255161 -0.205496 -0.478700 0.455237 -0.235338 -0.141260 -0.008678 -0.277906 -0.406882 0.564114 0.036161 -0.363124 -0.044712 -0.154656 -0.181889 0.134239 0.415761 -0.389196 -0.169163 0.516310 -0.008597 -0.051157 0.596250 -0.061225 0.281765 0.360930 0.142120 0.045127 -0.348552 -0.330039 -0.046776 0.095021 0.681362 0.049118 0.184600 -0.683325 0.209909 0.088638 0.445750 0.159890 -0.064204 
rice -0.161857 -0.199788 -0.131663 -0.778237 -0.016484 0.245491 -0.321414 -0.274675 -0.623545 0.376408 -0.781594 -0.392977 -0.277624 0.035398 -0.748946 0.181939 0.456229 0.000503 0.039183 0.569261 0.557546 -0.457816 -0.375959 -0.148675 -0.243021 -0.120187 0.072632 0.412419 -0.084806 0.410067 0.080782 0.084449 -0.202887 0.359959 0.045264 0.492286 1.080189 0.953611 -0.487327 -0.230397 0.446707 -0.001522 0.270769 -0.091941 0.661440 0.813183 0.381496 -0.314262 0.322550 -0.057670 -0.188225 -0.247587 -0.271682 -0.166319 -0.733180 -0.560429 -0.079852 0.105842 0.517350 -0.014771 
mushroom -0.016123 -0.584033 0.082775 -0.121451 0.370718 0.570346 0.138202 -0.072303 -0.407488 0.470828 -0.277527 0.672349 -0.093431 0.303023 -0.471674 0.219813 0.625893 -0.009199 0.724789 -0.006460 -0.238022 0.446290 -0.100637 -0.433391 -0.657805 -0.090756 -0.618935 0.102299 -0.041830 -0.486086 0.501549 0.210316 0.116186 0.325057 0.017843 0.652910 0.044206 -0.226485 -0.046942 0.248532 -0.495121 0.516414 0.178621 0.221807 -0.511073 -0.219158 0.215880 -0.097689 0.202515 -0.641562 -0.104103 -0.169652 -0.318816 -0.352624 0.269239 -0.055507 -0.681849 0.836865 -0.244785 -0.583048 
cheese -0.195001 0.216659 0.023901 -0.211227 -0.283787 -0.061372 0.532361 -0.590680 0.085349 0.177385 0.163984 0.335743 -0.425632 0.316528 0.927283 -0.200132 -0.080738 0.484533 0.516588 -0.265096 -0.698669 0.327954 -0.161361 0.334993 -0.110310 -0.158313 -0.481960 0.173749 0.823878 -0.449864 0.232841 -0.305258 -0.163091 0.272414 -0.527631 -0.167046 -0.130158 -0.476749 0.035222 0.668335 0.682747 0.722961 -0.061861 0.534205 0.514757 -0.431991 0.342093 -0.101293 0.018683 -0.410096 -0.062268 -0.049934 0.025111 -0.152085 0.244563 0.430942 -0.332850 0.255061 0.077271 -0.552385 
soy_sauce 0.575937 -0.188531 -0.028923 -0.206285 1.131524 1.604902 0.080597 -0.513664 -0.193840 -0.044965 -0.033123 0.106490 -0.191954 -0.692138 -1.474253 0.660076 0.109770 -0.911369 -0.528499 1.454188 -0.245030 -0.303656 0.236211 -0.413207 -0.129078 0.178614 0.765539 -0.377505 -0.083198 0.712912 0.426206 -1.089736 -0.159272 0.364019 0.904412 -0.161355 0.832079 0.359871 -0.928529 -0.592232 0.636033 0.074745 0.475219 -0.676990 0.310368 0.595186 0.793598 -1.073712 1.134301 -0.363295 0.374550 -0.989780 -0.775630 -0.044831 -0.692004 -0.085812 -0.610465 -0.612240 0.526239 -0.801719 
cumin -0.074988 1.116779 -0.725231 0.087560 0.393416 0.517213 -0.674095 -0.296406 0.588435 -1.459803 -0.125982 -0.344154 1.096735 -0.115743 -0.499504 0.829767 0.986763 0.026735 0.267480 1.082443 -0.395087 -0.415698 -1.231683 0.599340 -0.452506 -0.536742 -0.110640 0.553031 -0.522583 0.247191 0.043387 0.317515 -0.037201 0.532115 -0.330350 0.465322 -0.771856 0.252638 -0.812753 -0.356869 0.070126 -0.061780 0.580034 0.062847 1.059310 0.724508 -0.101987 0.177047 0.468685 -0.547860 -0.261216 0.551953 1.587893 -1.122977 0.398259 -0.211222 0.120629 -0.740960 0.192483 -0.112705 
oregano 0.158933 0.156412 -0.094759 -0.139270 0.183427 0.624252 0.375024 0.014587 -0.458523 -0.207068 -0.373940 0.135849 -0.018487 0.949557 0.331803 0.327021 0.862959 0.001699 0.365060 0.911770 -0.415126 0.241953 0.046740 0.164719 -0.117104 -0.812842 -0.747710 0.499459 1.086542 0.215032 0.199760 -0.058269 0.257022 -0.074624 -0.481934 -0.114915 -0.620962 -0.522093 -0.168139 0.681120 0.178991 0.600090 -0.278159 -0.370665 -0.343955 -0.811465 0.096258 0.227669 0.852033 0.185315 0.224703 0.046502 0.312873 0.366311 -0.094051 0.222283 0.277650 0.303466 -0.353204 -0.323476 
parmesan_cheese -0.722252 -0.256081 -0.065821 0.315087 -0.152863 0.053291 0.203459 -0.962912 -0.630439 0.348162 -0.082024 0.584219 -0.347917 0.907210 0.392585 -0.106625 0.316121 0.669773 1.087867 -0.353765 -0.462120 0.266280 -0.231492 -0.167617 -0.162381 0.589463 -0.171653 0.361237 1.011611 -0.375585 0.066875 0.072510 0.941271 0.318709 0.109748 -0.035522 -0.240434 -0.181463 -0.478615 0.240755 -0.127492 0.277085 -0.188913 0.333164 -0.449910 -0.865198 -0.027633 -0.118790 0.658709 -0.496246 -0.757124 0.485200 0.200233 -0.303807 0.275898 0.502740 -0.198804 0.949421 -0.057533 -0.829599 
macaroni -0.260884 0.367131 0.040855 -0.404158 -0.027084 -0.239278 0.196318 -0.555431 -0.434147 0.737787 -0.524342 0.533446 -0.185033 0.557164 0.118566 0.644123 0.550472 0.679004 0.739550 -0.088929 -0.185429 -0.431003 -1.443907 0.015735 -0.336813 -0.249904 -0.440176 0.349623 0.939872 0.115479 0.293384 0.296186 0.646023 -0.112810 -0.175408 0.337580 0.347663 0.373421 -0.387087 0.749441 -0.577455 0.439845 0.428273 -0.284050 -0.500270 -0.791537 -0.097074 -0.854143 0.709665 -0.475463 0.331034 -0.049637 -0.446529 0.049230 -0.278255 0.345281 0.166773 0.908933 -0.355892 -0.002934 
thyme 0.282201 0.035846 0.380056 -0.308406 0.286898 0.036645 0.470750 -0.174005 -0.205055 0.156699 -1.587612 1.119439 -0.268743 0.582744 -0.320522 0.935922 0.125661 0.786711 0.076500 0.622493 -0.118590 0.717579 0.228832 0.363085 -0.475943 -0.037943 0.039760 -0.166708 1.147032 -0.164910 0.314014 0.013486 0.025161 0.031386 0.477938 0.385433 0.096350 0.121665 0.974320 0.409227 -0.350226 -0.459759 -0.955039 -0.034208 -0.482468 -0.209119 0.244205 -0.008654 0.115956 -0.183752 -1.151200 0.310452 0.129712 -0.128636 0.310247 -0.436305 0.196282 0.636930 -0.215858 0.084756 
cheddar_cheese -0.215486 -0.239261 0.473124 0.648877 0.024875 0.535904 0.593645 0.497369 -0.153048 -0.425711 0.264421 1.031594 -0.224241 0.010691 1.139703 -0.329119 0.073585 0.055954 0.667968 0.030821 -0.746740 -0.161765 -0.072101 -0.058233 0.140122 -0.038328 -0.104869 0.678999 0.708758 -0.464074 -0.005642 0.213873 -0.192145 0.021962 -1.141171 -0.189965 -0.387374 -0.770073 -0.883525 0.687167 0.360432 0.535995 0.088966 0.328492 -0.096571 0.092826 0.463077 0.013861 -0.171623 -0.566412 0.088571 -0.556282 0.573086 -0.946285 0.002705 0.057350 -0.524326 0.300080 -0.679446 -0.430847 
lard 0.121195 -0.255255 0.457487 -0.480477 -0.616324 -0.265663 0.272644 0.451586 -0.014700 0.293480 -0.069203 0.121934 0.075353 -0.962891 0.370176 0.413662 -0.062191 -0.152308 0.083357 -0.288831 0.011288 -0.284596 0.188965 -0.288647 0.002326 0.486784 -0.489205 -0.219147 0.471436 0.065168 -0.051389 -0.343811 -0.093104 0.317717 0.179917 0.351155 -0.120781 -0.017030 0.179478 -0.009419 -0.042527 -0.332590 0.243044 0.131707 0.515738 0.201489 -0.493173 -0.054692 -0.247580 0.423558 0.395638 0.472415 0.259751 -0.187309 -0.361949 0.961988 0.325342 0.007958 0.067166 0.200779 
lemon 0.218326 0.097320 -0.354485 -0.306529 0.000286 -0.668021 -0.152809 -0.061553 -0.106328 0.043493 -0.449558 0.338954 0.448961 0.172735 -0.396484 0.131951 0.450043 0.073897 -0.209761 -0.055639 -0.604676 -0.045127 -0.328408 -0.634901 -0.248251 0.071423 0.669375 0.475037 0.468770 0.310131 0.539128 0.063237 0.143113 0.140054 -0.260712 -0.503936 -0.182747 0.937000 0.753845 -0.524895 0.032384 -0.030953 -0.136764 -0.168599 0.391808 -0.078748 -0.302306 0.447480 -0.039767 0.642694 -0.194319 0.421056 0.183751 0.377236 -0.050242 0.130529 0.211292 0.134203 0.324029 0.177784 
cream_cheese -0.247172 -0.183954 -0.013051 -0.158310 -0.034687 -0.963591 0.216367 0.534392 1.088499 0.352311 0.246031 -0.250641 -0.187978 -0.056290 0.654029 -0.208863 -0.202321 -0.163814 0.344166 -0.270006 -0.437864 -0.340019 -0.598133 -0.530976 0.136056 0.423295 0.044576 -0.001479 0.476326 0.162899 0.102612 -0.172452 -0.071906 0.373721 -0.282614 0.081612 -0.213775 0.125835 0.003820 0.150434 -0.028602 0.251945 -0.002230 0.187921 -0.107453 0.013104 -0.588388 0.571395 -0.109217 0.495768 0.196764 0.125380 -0.539556 0.081669 -0.481605 0.766533 -0.745174 0.223410 -0.174366 -0.562070 
walnut -0.451651 0.246622 -0.084348 -0.244263 -0.303956 0.240731 0.070950 0.085906 0.242832 0.351642 -0.315494 -0.700783 0.014763 -0.016319 -0.175499 -0.270613 -0.312765 0.111087 -0.018814 -0.910024 -0.057869 0.154875 0.509111 -0.541481 0.146870 1.180280 0.364627 0.272380 0.711199 0.328980 -0.081951 -0.517941 0.707287 -0.157381 0.870187 0.145681 0.027159 -0.660951 1.093218 0.258362 0.491196 -0.858467 0.209705 -0.086425 0.596938 0.399866 -0.020564 -0.543411 -0.791447 0.102958 1.010900 0.333830 0.370866 -0.483846 0.138607 0.638799 0.523369 -0.490723 0.026459 0.091497 
green_bell_pepper 0.133632 -0.320757 0.521430 0.068495 0.557367 0.053764 -0.445666 0.214329 -0.041298 -0.601036 -0.608128 0.145739 -0.258087 0.439107 0.567324 0.682810 0.425706 0.332687 0.097793 0.884943 0.085543 -0.671114 -0.545032 -0.511391 -0.048397 -0.312832 -0.078660 0.054071 0.637699 0.404746 0.827515 0.321407 0.259423 -0.381164 -0.223654 -0.212469 -0.319295 -0.234434 -0.146539 0.776808 -0.017472 0.336382 -0.402545 0.101965 -0.384443 -0.233792 0.236085 -0.409391 0.227533 -0.211111 0.187373 -0.709737 0.570893 -0.310363 0.268303 -0.527570 0.022874 0.019574 -0.508661 -0.370713 
starch 0.338655 -0.298035 -0.485008 -0.832750 0.490845 0.065390 0.272441 0.044945 0.153633 -0.368657 -0.449367 -0.321893 -0.200187 -0.732822 -0.600301 0.157978 -0.353806 -0.159279 -0.100542 -0.229597 -0.047067 0.306818 0.053296 -0.396155 0.177401 0.268262 0.172610 0.310747 -1.094714 0.302568 0.084686 -0.554144 0.124965 0.030592 0.184073 -0.109706 0.281215 0.810091 0.000264 0.004366 0.162277 -0.217589 0.217991 0.141785 -0.283049 0.081918 0.068421 -0.589579 0.017908 0.111729 -0.657751 -0.307015 -0.466512 -0.308352 0.042401 0.193425 -0.011112 0.140671 0.074756 0.037277 
nutmeg 0.488063 -0.110992 0.290638 -0.226903 0.141947 -0.756314 0.465355 -0.049045 0.288904 0.044437 -0.291822 0.348433 0.246661 -0.102693 -1.071385 0.175942 -0.455995 -0.207756 -0.108751 0.184325 0.386524 0.351107 0.379403 0.280380 0.380507 1.175154 0.097555 0.593623 0.447400 0.588948 -0.744239 -0.304572 0.069382 0.434919 -0.237325 0.932096 -0.201491 -0.885546 0.680093 -0.225662 -0.180911 -0.206458 0.284619 0.088704 -0.143958 -0.037808 -0.438444 -0.389808 -0.909982 0.483395 0.200540 0.013897 0.471564 0.231476 0.287465 0.770352 0.554743 -0.109861 0.099790 0.110750 
honey 0.868433 -0.413423 -0.543285 -0.616220 -0.224113 -0.316480 -0.011104 -0.121745 -0.346335 -0.215955 -0.572376 -0.878513 0.262997 -0.517614 -0.079493 0.126631 0.268961 0.086949 -0.019531 -0.059432 0.201796 0.575822 0.101183 0.160412 -0.023945 0.119834 0.500076 0.130441 -0.212093 -0.108844 -0.240374 -0.561003 0.264917 -0.597285 0.565041 -0.695397 0.441346 -0.004828 -0.273498 0.040929 0.389060 0.039481 0.097629 0.205860 0.283550 0.632946 0.353967 -0.015061 0.420426 0.268462 0.887455 0.279680 -0.454000 -0.282892 -0.137460 0.007856 0.024305 -0.204064 0.476350 -0.020572 
apple 0.205914 -0.602524 -0.489815 -0.422546 0.292857 -0.005761 -0.316188 -0.093555 -0.106128 0.224521 0.150009 -0.526760 0.469861 -0.015002 -0.734839 0.055586 0.256084 0.048730 0.121877 0.156054 -0.565431 0.161720 0.281500 -0.044174 0.489897 0.676910 0.232687 0.523045 -0.265980 0.750475 -0.161199 -0.539110 0.055532 -0.656432 0.389694 0.593179 -0.524401 -0.729665 0.476830 -0.223354 0.518389 0.096019 -0.048261 -0.644154 -0.395811 0.660157 -0.226104 0.043284 -0.859756 -0.041721 0.451688 0.608681 0.163236 -0.432665 -0.089478 0.266577 0.203559 0.034338 -0.702664 0.687633 
almond -0.188728 -0.263736 -0.196671 -0.276263 -0.068328 0.090495 -0.110202 -0.193607 0.105109 -0.171829 -0.315034 -0.933057 -0.006922 -0.317956 -0.339806 -0.530517 -0.527398 0.523316 -0.085258 -0.461143 -0.621105 0.328122 -0.268546 -0.828533 -0.390111 0.742942 0.519511 0.635702 0.021002 0.057468 -0.150272 -0.132878 0.189310 -0.239148 0.193355 0.165250 0.204215 0.073313 0.350656 -0.138905 0.301362 -0.113527 -0.497681 -0.242578 0.468490 0.558885 -0.128858 -0.075334 -0.227728 0.562414 0.323019 0.342871 -0.021263 -0.583681 0.268536 0.374874 0.266043 -0.251308 0.403747 0.119748 
cilantro 0.479179 0.583852 -0.386484 0.110394 -0.124861 0.563373 -0.429801 0.295067 0.424216 -0.601296 0.153602 -0.381896 0.937025 -0.034394 -0.702052 -0.094358 1.570867 0.035898 -0.566585 0.988834 0.081294 -0.055982 -0.865369 0.578023 -0.295229 -0.712057 -0.031321 0.223230 0.220511 0.935474 0.632276 -0.092901 -0.534536 0.675020 -0.574421 -0.038102 0.551948 0.265527 -0.269271 0.122397 0.059242 0.213462 -0.234099 0.498354 0.424780 0.518410 -0.065680 -0.855675 0.680158 0.350516 0.554462 -0.380118 0.825062 -0.330011 0.445622 -0.222058 -0.037776 -0.021237 0.684543 -0.603424 
pecan -0.233673 0.138641 -0.183093 -0.485402 0.346373 0.001897 0.570468 0.190664 0.465068 -0.260373 0.262634 -0.220188 -0.067298 -0.224821 0.306553 -0.155835 -0.013827 0.082794 -0.080328 -0.708451 0.102282 0.095134 0.158688 -0.233184 0.447667 1.096698 0.054154 0.188395 0.558748 0.076826 -0.185592 -0.259696 0.177984 -0.205756 0.673009 0.279803 0.076884 -0.938067 1.184069 0.091028 0.122251 -0.903350 0.152273 0.047532 0.185762 0.829779 0.158657 -0.335825 -0.703638 0.272155 0.628140 0.109768 0.152375 -0.378697 0.285400 0.922605 0.204933 -0.302131 -0.034308 0.082111 
white_wine 0.183924 0.029759 0.294896 -0.135964 0.352789 -0.338007 -0.493337 -0.886334 0.000930 1.218217 -0.741998 -0.174673 -0.092349 -0.148490 -0.211024 0.177090 0.052887 0.629664 0.069728 0.416597 -0.424670 0.096195 -0.169311 0.029992 -0.572242 0.014439 -0.074553 -0.126642 0.713322 0.257905 0.235970 0.193512 0.559669 0.475698 0.076683 -0.089846 0.723637 0.739108 0.497856 0.167736 0.212830 -0.082125 -0.120503 -0.087601 -0.058549 -0.324239 -0.260042 -0.222231 0.372741 -0.228899 -0.497129 0.858547 -0.223899 -0.067635 0.499726 -0.186114 -0.382982 0.008125 -0.073343 -0.245100 
bacon -0.360948 0.029936 0.145991 0.584920 -0.003681 0.230914 0.172278 0.096288 -0.029008 0.381532 -0.269184 0.096745 -0.667800 0.191952 -0.412915 1.042512 -0.091932 -0.087039 0.447733 0.278492 -0.602882 0.247601 0.362248 0.117184 -0.108268 0.165820 -0.187426 0.133712 0.718910 -0.177255 0.333033 0.197618 -0.139116 -0.347169 -0.328077 -0.203535 -0.902855 -0.239754 -0.115224 -0.623004 0.054466 -0.443390 -0.363121 0.201777 0.204847 -0.031880 0.111738 -0.477598 -0.327474 -0.658720 -0.326118 -0.274773 -0.169408 -0.756573 0.332187 -0.156033 -0.413597 0.521611 -0.354512 -0.111727 
pork 0.412540 -1.044856 0.098824 0.054687 0.045670 -0.253332 -0.196054 -0.021578 0.204007 -0.445054 -0.157566 -0.026412 -0.283724 -0.143681 -0.759274 0.697123 0.218170 -0.652444 0.654779 1.061597 0.046602 0.434371 0.788993 0.345597 -0.164812 -0.201211 -0.234153 0.466591 -0.307831 -0.075726 0.007335 0.265803 -0.804157 -0.037784 0.553866 -0.199651 0.356108 -0.515128 0.305269 -0.799304 -0.099792 -0.490244 0.064838 0.054358 0.295241 -0.277876 0.267718 -0.323609 0.716089 0.202813 -0.225353 -0.051154 -0.689296 -0.399154 -0.235213 -0.294739 -0.743168 -0.160421 -0.326858 0.146560 
raisin -0.138061 -0.319403 0.461298 -0.292952 -0.069406 -0.534636 -0.556734 -0.500754 -0.094843 -0.396772 -0.518744 -0.645327 0.476223 -0.045523 -0.343501 0.016232 -0.371866 -0.266058 0.494342 -0.374515 0.080828 0.553690 0.190241 -0.567999 -0.108039 0.591979 0.535850 0.861208 0.272523 0.266028 -0.270265 0.009487 -0.193778 -0.436442 0.180821 0.536994 -0.228995 -0.813840 0.307501 0.437494 0.064509 -0.287669 -0.059815 -0.363754 -0.024306 0.933672 0.023628 0.680775 -0.111957 0.806050 0.805326 0.338752 0.881235 -0.601766 -0.146720 0.895135 -0.036444 -0.478625 0.575551 0.216562 
bean -0.418588 0.041020 0.344291 0.192240 0.395386 -0.386639 -0.088271 0.452149 -0.273814 0.037222 -0.810883 -0.075709 -0.156202 0.525353 -0.365997 0.459570 0.320603 0.490168 0.224523 0.502065 0.713005 0.287761 -0.058328 -0.242842 0.309549 -0.754906 -0.302628 0.598894 -0.213778 0.418446 0.029207 0.099716 -0.422862 -0.261373 -0.484189 -0.345443 -0.096980 -0.618630 -0.118048 0.309293 -0.099923 -0.151109 -0.178361 0.102639 0.168441 0.482322 0.531326 -0.631154 0.449997 0.051248 -0.068225 -0.376834 0.408207 -0.263445 -0.212726 -0.769646 -0.017381 -0.164698 0.369535 -1.032697 
rosemary -0.367594 -0.282939 -0.211515 -1.057183 0.219762 -0.200102 0.218866 -0.659963 -0.434589 0.380178 -0.972312 0.793532 -0.495564 1.043176 0.182310 0.503029 0.403445 0.959040 1.120084 0.895156 -0.194053 0.837133 0.065406 -0.152411 -0.603051 -0.047339 -1.081506 0.358339 0.689110 -0.138829 0.438068 0.192318 0.267037 0.181122 0.546346 -0.067931 0.360262 -0.591580 0.561397 0.151187 -0.465381 -0.380512 -0.682804 -0.095493 -0.961601 -0.466433 -0.105049 0.058716 -0.369631 -0.023255 -0.570982 0.350319 0.499795 0.425254 -0.145628 -0.107476 0.002844 0.140558 -0.228909 -0.152962 
fish 0.171797 -0.068368 -0.536528 0.535511 -0.711245 0.420998 -0.000396 -0.786002 -0.122440 0.422760 0.111048 -0.126276 0.091550 -0.109458 -0.209525 0.120526 0.958240 -0.070524 -0.589008 0.593491 -0.174556 -0.172817 -0.158048 -0.423319 0.382716 -0.595543 0.692757 0.699572 0.209654 0.513057 0.469570 0.282381 0.085605 1.216621 -0.282864 -0.218264 0.830643 0.149420 0.797090 -0.633279 -0.270203 0.649135 0.380436 -0.411240 0.329843 0.263703 -0.180448 -0.134500 0.967770 0.183415 0.519760 -0.130975 -0.454141 -0.150852 0.160361 -0.427415 -1.120273 -0.809691 -0.114118 -1.061571 
cucumber -0.106476 -0.237204 -1.037681 0.879305 -1.245939 0.180293 -0.420803 0.766173 1.045519 0.828305 -0.143433 -0.473820 0.338770 -0.024481 0.006876 -0.222961 -0.369023 0.429343 0.968182 0.492057 -0.261368 -0.020405 0.761143 -0.669394 0.437360 -1.333039 0.644977 -0.160201 -0.173629 -0.056998 0.301476 -0.493213 0.459582 0.225430 -0.633180 -0.052278 0.050693 0.731691 -0.688093 -0.052173 0.220391 -0.929020 0.540036 -0.835297 0.082851 0.672113 0.400647 0.065223 0.593968 0.764276 0.360787 0.552768 -0.434194 0.009985 0.012884 -0.060179 -0.389317 -0.335414 0.535214 -0.949147 
olive 0.284296 0.509432 0.181389 0.384708 -0.042012 -0.213768 0.091173 0.156662 -0.189525 0.475637 -0.175741 -0.182367 0.005221 0.575975 0.629653 0.437909 1.096565 0.716578 0.385133 0.865335 -0.838587 -0.277830 -0.320140 -0.427671 -0.430339 -0.344914 -0.349585 0.320721 1.126675 -0.173520 -0.028644 0.031658 0.395648 0.156633 -0.206565 -0.274202 -0.341912 0.110204 -0.008378 0.690550 -0.094947 0.303637 -0.890930 -0.107428 0.224617 -0.471561 -0.516008 -0.280208 0.828241 0.309822 0.778098 0.180063 -0.219243 0.447622 0.003323 -0.263924 0.131063 0.181279 -0.157181 -0.433587 
coconut 0.355172 0.102773 0.023606 0.523344 0.912863 0.699878 -0.147024 0.179741 -0.072414 -0.868589 0.162502 -0.199484 0.761146 -0.284869 -0.236915 -0.326599 -0.839820 0.127251 0.351126 -0.231615 -0.075726 -0.090405 -0.553851 -0.129246 -0.084632 -0.369817 0.605153 0.775154 -0.955083 1.437582 0.333245 -0.264655 -0.417896 -0.557304 0.612735 1.135159 0.555696 0.192750 -0.186064 -0.148939 -0.026418 -0.293512 0.612485 1.063210 0.140109 0.969469 -0.670400 0.146376 -0.315847 0.576274 1.114093 0.118379 0.158476 0.118469 0.121319 0.727253 0.488243 -0.294540 0.878526 -0.556640 
orange 0.379686 -0.106036 0.195338 -0.982968 -0.325301 -0.322774 0.267736 0.044585 0.360464 -0.087170 -0.743356 -0.409721 0.747860 -0.050881 -1.009302 -0.478931 0.632690 0.272321 -0.114820 -0.518721 -0.102892 1.150246 -0.342510 -0.300320 0.322551 0.791785 0.595419 0.305912 0.353386 0.604981 -0.119046 -0.538213 0.215491 -0.475774 0.594607 -0.114484 -0.717272 0.286162 0.516880 -0.398812 0.187164 -0.130156 0.739366 0.054807 0.125646 0.507954 -0.334045 0.092973 0.429192 0.161611 -0.130320 -0.002505 -0.467636 -0.265601 0.085291 0.327117 0.196988 -0.581770 0.289898 0.565033 
tamarind 0.345258 0.000731 -0.601337 0.307695 0.383339 0.504484 -1.216353 0.753750 0.155448 -1.236797 0.066878 0.346569 -0.312937 -0.080903 -0.217209 0.840413 -0.252105 -0.701138 -0.415390 1.842473 0.300900 -0.409163 -0.105429 -0.480272 -0.159653 -0.425268 -0.924533 0.030929 0.644347 0.210433 -0.449332 -0.059727 -0.186956 -1.140170 -0.034894 -0.718639 0.050955 -0.143553 0.512892 -0.073013 -0.073186 -0.494470 -0.189033 0.462470 -0.343085 0.209863 0.493871 -0.320899 0.083406 0.267210 -0.586996 0.701964 -0.648237 -0.390166 0.562848 -0.507035 -0.782241 0.174952 -1.146858 -0.552133 
vegetable -0.399688 -0.236820 -0.066128 -0.738181 0.439101 0.051448 -0.581209 -0.109981 -0.535082 0.077511 -0.440271 0.192595 -1.008985 -0.208514 -0.761797 0.467034 0.118214 -0.074702 0.368709 -0.175890 -0.017872 -0.226463 0.456401 0.053996 -0.051519 -0.285463 0.605139 0.539261 -0.161558 -0.290655 -0.363229 -0.044106 -0.474487 0.727130 -0.353053 0.410622 0.024653 -0.008132 -0.150828 -0.157783 0.623793 -0.026169 0.027941 -0.202314 0.055118 0.460083 -0.156855 0.389156 0.251298 -0.342671 0.008791 -0.478345 0.147701 -0.028598 -0.386469 -0.445961 0.164608 0.002696 0.456508 -0.734227 
orange_juice 0.482330 -0.281547 -0.035792 -0.933917 0.689007 -0.328836 0.287791 -0.707417 0.055925 -0.562856 0.043572 0.134842 0.291751 -0.114619 -0.131545 -0.759429 -0.321164 0.224955 0.438067 0.256015 0.195604 1.171869 -0.315438 0.167966 0.366811 0.716651 1.735859 0.147549 -0.140146 0.474239 0.800225 -0.331964 -0.055546 -0.024732 0.278487 -0.216799 0.395269 0.042271 0.450612 0.097142 0.822571 0.099024 -0.163357 -0.206894 0.319069 0.614919 -0.090637 -0.347545 0.124982 0.285684 0.442883 0.639653 -0.290286 -0.314282 -0.240225 -0.132987 0.544969 -0.843615 -0.385451 0.231985 
buttermilk -0.401933 0.032096 -0.203345 -0.395229 -0.455485 -0.361281 0.428980 0.359578 0.675981 0.252896 0.358173 0.071026 0.241449 -0.621691 0.041099 -0.227100 -0.079842 -0.357211 0.362262 -0.093131 -0.087234 0.026246 0.162444 -0.513377 0.237209 0.394478 -0.220646 0.175065 0.379582 0.141416 -0.170741 -0.038433 0.474472 0.580671 -0.499983 0.406651 -0.528716 0.118154 0.119431 0.002342 -0.362148 -0.315018 -0.136569 0.477074 0.309110 0.131534 0.513941 0.265932 0.006740 0.228553 0.362425 0.296808 0.193623 0.073092 -0.440133 0.485904 -0.193444 0.160955 0.645031 0.410917 
pineapple -0.280548 -0.715507 0.279716 -0.718303 0.572394 0.118112 0.142759 0.205223 0.216360 -0.694280 -0.344307 -0.957183 0.447421 -0.358426 -0.335510 -0.793126 0.705793 -0.604276 0.593566 -0.586186 -0.068059 0.195963 -0.528478 -0.263713 1.258211 0.157510 0.714860 -0.171753 -0.014307 0.595090 0.508574 -0.361579 0.256496 -0.640012 -0.203685 0.046016 -0.002455 0.869613 0.541301 -0.583112 -0.049084 -0.250246 -0.114206 0.618385 -0.692564 0.639064 -0.543128 0.048070 0.226981 0.374995 0.421045 0.590739 -0.699878 -0.776460 0.262797 0.006335 0.052174 -0.340750 -0.300400 0.120531 
shrimp 0.123317 -0.344774 0.258810 -0.349027 0.130952 0.690057 -0.618370 -0.190064 -0.168927 0.532473 -0.053393 0.617309 0.208466 -0.288522 0.136377 -0.288412 0.568406 -0.636115 -0.533139 0.443514 0.144751 -0.744374 0.226851 0.312839 0.372331 -0.843786 0.757265 0.797446 0.929259 1.043706 0.541931 0.038552 0.113078 0.924396 -0.150967 0.231985 1.060192 1.002670 0.261032 -0.024976 -0.374777 0.714777 -0.305331 -0.304010 0.155639 -0.266020 -0.064055 -0.328982 1.394776 0.263925 -0.048864 0.017839 -0.935251 -0.686854 0.524346 -0.334951 -1.492692 0.054583 -0.235117 -0.523491 
coriander 0.035006 0.400722 -0.156409 0.278202 1.082841 1.052259 -0.377333 -0.339846 0.481450 -0.357288 -1.318727 -0.516354 1.809551 0.418134 -1.336795 0.096191 0.473790 0.103071 0.241855 0.367778 -0.114278 -0.700749 -1.837227 1.184675 -0.751011 -0.915759 1.180944 0.419883 -0.810414 0.576445 -1.035186 -0.319337 -1.005717 0.816363 -0.742720 0.693660 1.015668 -0.359389 0.040923 0.789777 0.469131 -0.147742 -0.287332 -0.232852 1.539292 0.638792 -1.074980 -0.406028 0.082257 0.005913 0.673668 0.317503 1.364062 -0.272346 0.402772 -0.661657 -0.317486 -0.363483 0.045555 0.251412 
bay -0.217996 -0.198977 -0.287329 -0.158047 1.456931 -0.721154 -0.818892 -0.006653 -0.328634 -0.071619 -0.929925 1.523619 -0.614732 -0.514219 -0.604935 1.564140 0.053631 -0.201227 -0.531935 1.000659 0.066247 0.526617 -0.064208 0.055311 -0.289057 -0.455353 -0.069059 0.852802 0.827858 0.272495 0.166128 0.685963 0.053848 -0.370548 -0.041066 0.732222 0.738129 -0.152769 -0.274893 0.431987 -0.185386 -0.205583 0.191009 -0.373188 -0.729401 -0.339939 -0.763931 0.921610 0.279371 0.069222 -0.676556 0.642407 -0.088097 -1.371674 1.258232 -0.790759 0.430121 -0.004466 -0.349756 0.509025 
lime_juice 0.067318 0.285252 -0.037859 -0.530607 -0.143530 0.478225 0.259033 0.283813 0.372165 -1.189114 0.450486 -0.420870 0.838474 0.089791 -0.205357 -0.550462 0.631588 0.658024 0.377177 0.997309 0.258874 0.097740 -0.416231 1.050241 -0.156191 -0.722009 0.455608 0.426216 0.674453 1.441929 1.654319 0.355369 -0.462920 0.230515 0.458051 0.211035 0.968687 0.899114 -0.919309 -0.056771 0.712821 0.099465 -0.022379 0.998118 1.009300 0.769400 0.168905 -0.129828 1.060158 0.153582 0.545294 -0.006192 -0.443371 -0.748011 0.442471 -0.740638 -0.118693 -0.391840 1.190250 0.221256 
red_wine -0.130916 0.072229 0.219374 -0.235842 0.204261 -0.458572 -0.697428 -0.373583 0.133269 0.106852 -0.806453 -0.534298 -0.412380 0.182831 -0.230257 0.579865 0.153028 0.874024 0.552721 1.156563 0.278607 1.078544 -0.746803 -0.174803 -0.344664 0.222728 -0.465012 -0.376338 0.890652 -0.069450 -0.101619 0.132924 -0.080909 -0.124760 0.191503 -0.388922 0.506693 -0.015765 0.855432 0.043926 1.069908 -0.627764 0.128527 0.029180 0.034046 -0.148284 -0.435008 -0.141962 0.584837 -0.222351 -0.350509 0.895219 0.021839 0.286177 -0.177772 -0.367204 0.088691 -0.658487 -0.317536 -0.039704 
gelatin -0.360012 -0.746118 -0.349430 -0.665061 0.347016 1.071695 0.855669 0.168398 1.028811 -0.005690 -0.263181 -0.420670 0.019048 -0.272186 0.370731 -0.244361 -0.106574 0.102545 -0.075492 -0.670871 0.129488 0.580236 -0.333755 -0.434901 0.440791 0.561480 0.631409 -0.013848 0.085857 0.206401 0.207621 -0.012417 -1.187517 0.039373 -0.413173 -0.125851 -0.179243 0.851821 0.667292 0.276439 -0.403576 -0.145497 -0.873668 0.183501 0.207544 1.016288 -1.064579 0.144103 -0.618045 0.981699 0.751083 0.249263 -0.767209 0.116784 -0.647574 1.216703 0.266001 0.305946 -0.381158 0.169145 
pork_sausage -0.697960 -0.053403 0.223735 -0.720165 0.443053 0.771673 0.310351 -0.273431 -0.149676 -0.169677 -1.024182 0.900609 -1.080599 0.050102 0.124108 -0.015118 0.503057 0.568906 0.883007 0.431586 -0.398581 -0.044865 0.477100 0.456401 -0.104221 -0.333316 -0.784615 0.958621 1.865593 0.330202 0.019506 0.643860 0.255729 0.124682 0.330201 0.189471 -0.805205 -1.315200 -0.476892 0.330038 -1.168237 0.359441 -1.071702 -0.494311 0.200709 -0.829308 0.049009 -0.531280 0.013537 -0.251841 -0.617662 -0.743878 -0.044485 -0.960742 0.775077 -0.610413 -0.927049 -0.302752 -0.618587 0.622919 
sesame_oil 0.663336 -0.518450 0.450228 -0.867724 0.818624 1.726897 -0.056425 -1.340874 -0.301607 -0.488411 -0.291467 -0.460389 -1.248109 0.095104 -0.798526 1.082720 2.365029 -0.541402 -0.447615 0.391005 0.076647 -0.941313 0.357392 -0.220596 0.453707 0.139163 1.757103 -0.269540 -0.753735 0.788610 -0.803836 -0.569903 -0.918560 0.685874 0.698731 -0.208980 0.299079 0.646152 -0.065292 0.260002 0.973550 0.132328 1.155126 0.695109 0.359379 0.764354 0.748003 -0.538332 0.815499 -1.301032 -0.101854 -0.703620 -1.337039 -0.334035 -0.034964 0.009147 -0.678630 -0.896991 1.041172 -1.107385 
chive -0.272598 -0.016788 0.641006 0.701683 -0.408350 0.076334 0.354117 -0.505638 0.505023 0.874968 0.265929 0.388650 0.938685 -0.385086 1.238379 1.421418 -0.643985 0.244845 -0.881558 -0.767156 -0.789742 0.419086 0.172691 -0.410883 0.717937 -0.431557 -0.054578 0.309889 0.517367 -0.266726 0.303353 0.751936 0.745903 0.612075 -0.366340 -0.027976 -0.200457 0.632161 0.182369 -0.481029 1.361241 -0.722207 0.113319 0.293773 -0.067813 0.278003 0.195441 0.043137 -0.733176 -0.084253 0.358837 0.858082 -0.543506 0.423346 -0.278841 -0.075413 -0.631438 -0.517975 0.435908 -0.561239 
seed 0.547512 -0.245807 0.206560 -0.203743 0.483439 -0.457630 0.033914 -0.216765 1.253493 0.332525 -0.328541 -1.329412 -0.051848 -0.610829 -0.224801 0.737765 0.594556 0.941604 -0.882431 0.177833 0.180243 -0.167535 0.278127 0.128984 -0.158377 0.002127 0.735794 0.528687 1.061653 -0.040636 -0.011463 0.087038 -0.022783 -0.243801 -0.326474 -0.466224 -0.119610 -0.276202 -0.309869 -0.029074 0.288811 0.038892 -0.528456 0.172269 0.371893 0.701568 0.529016 0.851960 0.080353 -0.033423 1.036548 0.702032 0.552720 0.173547 -0.285548 -0.693518 -0.171173 -0.017439 -0.301264 0.774002 
mozzarella_cheese -0.535643 -0.423831 -0.109350 -0.506040 0.271339 -0.705926 0.462061 -0.454011 -0.003971 0.166834 0.016757 0.829631 -0.568332 1.147988 1.181541 -0.027210 0.354005 0.221205 0.845246 -0.167213 -0.654589 -0.054900 -0.010864 -0.094117 -0.274554 0.022070 -0.131566 0.281236 1.339324 0.250885 -0.059035 -0.111958 0.636209 -0.048666 0.584671 0.057407 -0.506257 -1.004379 -0.804943 0.783007 -0.283442 0.446793 0.635766 -0.051385 -0.929325 -1.130551 0.042666 -0.452152 1.201776 -0.806704 -0.149773 0.239267 0.182630 0.496810 0.093301 0.619353 -0.555834 1.335704 -0.739730 -0.175047 
ham -0.459327 -0.578580 0.391817 0.166410 -0.343918 0.393576 0.607670 0.056567 0.283315 0.612981 -0.239770 0.282313 -0.691709 0.556507 -0.233585 0.316046 0.011515 0.212503 0.120775 -0.280905 -1.120086 0.044991 -0.225175 0.392742 -0.401438 0.241116 -0.162746 0.597322 0.412808 -0.338181 -0.335327 0.565844 -0.099404 -0.727588 -0.211231 -0.210569 -0.548715 -0.062867 0.138971 -0.892466 -0.003866 -0.306096 -0.219519 0.350530 0.583923 0.052324 -0.312569 -0.596123 0.074822 -0.842933 -0.241112 -0.015966 -0.524335 -0.167014 0.339118 0.195838 -1.252634 0.664617 -0.428439 -0.258089 
oat -0.583532 -0.036575 -0.530008 -0.308841 -0.980253 0.717520 0.050671 -0.420447 0.594663 -0.762443 -1.266718 -0.232722 0.995078 -0.948575 -0.156334 0.622058 -0.361906 -0.605089 0.367392 -0.321172 1.031210 -0.700316 0.942173 -1.000229 0.252225 1.343233 -0.119723 0.032528 0.759072 0.015903 -0.525110 -0.571158 -0.328088 -0.142172 0.607218 0.461020 0.154140 -0.373931 0.500811 0.186087 -0.180978 -0.739139 -0.488532 0.198954 0.204165 0.207932 -0.341008 0.271875 -0.770781 -0.096880 0.391644 0.913238 -0.015090 -0.215749 -0.718749 0.295574 0.349974 0.112828 0.173951 0.547200 
turmeric 0.446817 -0.462534 -0.685480 1.313142 0.645127 1.879886 -0.910159 0.042229 0.227356 -0.511032 -0.588080 -0.763455 0.909590 0.865901 -1.373229 0.980969 -0.226106 0.014166 0.105897 0.281064 -0.442355 0.027602 -0.941385 1.292056 -1.209132 0.617896 0.685252 1.694217 -0.831788 1.388852 0.137716 0.886008 -0.118613 0.887102 -0.162914 0.829974 0.850388 0.382462 -1.360973 0.201631 0.473221 0.050592 -0.086811 0.702414 0.698598 0.481729 -2.124097 0.478982 -0.636791 0.061616 0.683264 -0.525170 0.986434 -0.603800 0.800433 -1.166585 -0.108065 -1.240301 0.490908 0.206695 
nut -0.167334 0.083370 -0.145525 -1.005607 0.146162 -0.583459 -0.214209 -0.958754 -0.526408 0.421409 -0.484074 -0.849073 -0.242324 0.045469 -0.254337 0.284487 0.111830 0.798965 -0.075891 -0.306553 0.170997 0.602175 -0.032042 -0.681819 -0.115936 0.415548 0.612379 0.348529 0.073992 -0.171206 -0.491865 -0.426537 -0.280183 -0.335403 0.224216 0.188708 0.379036 0.362934 -0.291329 -0.128862 -0.294052 0.306356 0.284396 -0.080845 0.371636 0.033111 0.382504 0.023484 -0.216388 0.419844 0.102885 0.102682 0.399474 -0.219487 -0.295661 -0.213682 -0.046699 0.478051 -0.020177 -0.308646 
shallot 0.396150 0.136065 0.041378 0.136725 0.112068 0.150861 -0.441556 -0.977750 0.025050 0.887823 -0.164851 1.146292 0.486672 0.177246 -0.570687 0.265501 0.550628 0.650537 0.341106 -0.131661 -0.559387 0.933978 -0.099985 0.220899 -0.310085 -0.756199 -0.138423 0.239104 -0.071055 0.444637 0.499712 -0.299393 0.005393 0.543927 0.458730 -0.271103 0.233967 0.458061 0.885609 -0.607389 0.385986 -0.197089 -0.090965 -0.082543 -0.399189 0.420142 -0.862289 -0.218693 0.508267 0.265050 -0.271147 0.652192 -0.019325 -0.166463 0.723344 -0.274525 -0.092060 0.008105 -0.314510 -0.777360 
lettuce -0.114650 0.654897 -0.281729 -0.582600 -0.198244 0.573215 -0.523916 0.099073 0.602787 0.326993 0.518639 -1.296170 0.393168 -0.223640 -0.216457 -0.104268 0.231551 0.409140 0.919932 0.380232 -0.862782 0.640574 -0.412406 -0.579175 0.176179 -1.345174 0.391310 -0.620048 0.023901 -0.177770 -0.067833 -0.235806 0.348284 -0.197621 0.537697 -0.142971 -0.451312 0.842228 -0.540105 0.166996 0.728685 0.009353 -0.579457 -0.375534 0.223362 0.492568 -0.044633 -0.104073 0.702972 -0.785135 0.930573 -0.051126 -0.355077 -0.039983 0.371120 -0.298360 0.101408 0.292375 -0.283118 -0.874357 
cider 0.177833 -0.331916 0.528195 -0.197698 -0.079118 -0.214891 -0.460279 0.212228 0.493740 -0.157744 0.199080 -0.911213 0.115709 -0.238984 -0.964975 0.481086 -0.326208 0.595160 -0.026655 1.293530 0.479347 0.167496 -0.110468 -0.028609 0.109075 0.429491 -0.344888 0.362879 0.847075 0.479323 -0.478530 -0.217100 -0.600680 -0.307978 -0.334894 -0.618164 0.347199 0.185855 -0.115337 -0.160408 1.198456 -0.795010 -0.102347 -0.277631 0.511255 0.629714 0.503472 -0.357018 -0.243824 -0.486061 0.327813 0.935792 -0.232091 -0.334832 -0.099928 -0.411151 -0.341762 -1.105824 -1.073980 0.619695 
dill -0.115814 0.441852 -0.454464 0.994214 0.225783 0.467177 -0.536189 -0.154256 0.457657 0.916962 -0.158913 0.770270 -0.072496 -0.242286 0.103116 0.620168 -0.010814 0.364864 0.512318 0.147482 -0.855081 -0.310765 -0.414551 -0.254081 -0.294417 -0.044696 0.180520 -0.538468 0.969261 -0.398626 0.128717 0.306591 0.719432 0.240212 -0.394762 -0.338289 -0.543546 0.844782 -0.112497 -0.015088 0.967625 -0.332206 -0.151458 0.011660 -0.205811 0.631450 -0.014701 0.557931 -0.189972 -0.039742 0.238318 0.381771 -0.384563 -0.140749 -0.139030 -0.607785 0.037137 0.060487 -0.194525 -0.150010 
pea 0.068522 -0.537199 0.683420 0.431617 0.470819 0.464221 -0.451636 -0.272114 -0.274645 0.348808 -0.100540 0.037198 0.248083 0.312371 -0.449116 0.319254 0.620504 0.627970 0.293170 0.166957 0.110808 0.022653 -0.311088 -0.512608 -0.284708 0.168950 0.000322 0.529036 -0.036752 -0.208389 0.144203 0.722626 0.189722 0.765333 -0.312097 0.275159 0.362458 0.263143 -0.440240 0.277903 0.119251 0.225782 -0.281155 -0.181391 -0.294195 0.739311 0.210733 0.184036 0.213880 0.114389 0.445603 -0.412025 0.333801 -0.372057 -0.409538 -0.705621 -0.565947 0.114407 0.005522 -0.917079 
zucchini -0.402133 -0.081724 0.101694 -0.058447 -0.011821 -0.745153 0.038858 -0.042732 -0.434315 -0.116576 -0.788182 0.257760 -0.023634 0.290816 -0.313680 0.529815 0.285045 0.052503 0.487385 -0.118954 0.141703 0.319323 -0.499410 0.966886 -0.213120 0.151220 0.926975 0.658844 0.336389 -0.334784 -0.219960 0.122423 0.736207 0.122650 -0.312380 1.138933 0.183881 -0.137807 -0.369510 0.599240 -0.177235 -0.114469 0.047044 0.032760 0.267623 -0.531252 -0.124218 -0.151307 0.865329 -0.299230 0.247049 0.115970 0.588052 0.302201 0.224840 -0.160701 0.599050 0.644040 0.130045 -0.043913 
cherry -0.381278 0.209834 0.045824 0.183847 0.413854 -0.142065 0.356954 -0.318587 0.700220 -0.470537 -0.174272 -0.385102 0.236184 0.165823 -0.187792 -0.643866 -0.240854 -0.183173 0.226260 -0.700895 0.173426 0.621026 0.099892 -0.928697 -0.194046 0.773007 0.392030 0.194872 0.391862 0.556635 0.614426 0.049764 -1.000238 -0.158589 0.381666 -0.544638 -0.037520 -0.092193 1.268331 0.174152 0.384344 -0.435810 0.229618 -0.363868 0.501098 0.629213 -0.882214 -0.233884 -0.568268 0.777889 1.496113 0.580333 -0.715655 -0.093988 -0.175400 0.540928 0.568626 0.017595 -0.047159 -0.148339 
lime 0.232976 0.362739 -0.448206 -0.005924 -0.127840 0.296456 0.463003 0.201191 1.183259 -0.461811 -0.380482 0.072347 0.251725 0.089317 -0.207716 -0.866467 0.664577 0.882050 -0.388390 0.822660 0.042750 0.423947 -0.379298 0.637657 0.429479 -0.792300 0.585196 -0.109094 -0.033539 1.218569 1.483453 -0.340427 -0.692446 -0.303492 0.039571 0.282112 0.486345 0.673396 -0.313455 -0.481787 0.416060 0.610006 0.408853 0.950311 0.357661 0.458005 0.039138 0.409302 0.307591 0.259671 0.917766 -0.662895 -0.627379 -0.202878 0.681189 0.281421 -0.047865 -0.644748 0.446447 -0.498923 
yogurt -0.119112 0.479237 -0.798265 -0.413471 -0.211806 0.095396 0.067246 -0.270324 0.675763 0.152729 -0.089158 -0.677017 0.458257 -0.071398 -0.502340 0.021907 0.368353 -0.066134 0.390804 0.545509 -0.994797 -0.014338 -0.961151 0.199517 -0.044376 -0.384598 1.128665 0.160519 0.068437 -0.226540 -0.353825 -0.106932 0.428881 -0.177598 -0.046181 0.251400 -0.170908 0.153644 -0.052800 0.251548 0.868825 -0.292237 -0.055721 0.162400 0.446470 0.368912 -0.517914 0.744088 -0.870927 0.303390 0.482878 0.286773 0.425254 0.069181 -0.007070 -0.104688 0.159453 -0.299582 0.766559 0.637270 
strawberry -0.686066 -0.527115 -1.055678 -0.289585 0.349031 0.677194 0.874677 -0.827158 1.918006 0.343369 0.051216 -0.325847 0.552061 -0.728735 -0.244638 -0.858964 1.038032 0.204311 0.458789 -0.489585 -0.532165 0.319003 0.105013 -0.551893 0.870650 0.381234 1.094881 0.547636 0.435246 0.658395 0.417658 -0.322419 -0.119205 -0.239434 0.238028 -0.685760 -0.180228 0.170157 0.570632 0.246147 -0.210162 -0.548673 0.814350 0.086745 -0.211985 -0.405012 -0.812675 -0.143070 -0.726709 1.468463 0.380347 0.429555 -1.144940 0.045988 -0.348018 0.476991 0.961605 0.384927 0.305921 0.900288 
soybean 0.789895 -0.138619 -0.691377 0.280681 0.636127 0.912902 0.612788 -0.136770 0.001729 -0.042511 -0.145986 -0.763071 -0.806109 -0.416574 -1.301355 0.476462 1.428937 -0.058232 -0.170270 0.130238 0.072285 -0.597824 0.796173 -0.683776 -0.790414 0.119128 1.603147 0.364989 -0.214929 -0.076861 -0.733959 -1.260902 -1.048841 1.142144 0.260846 -0.433704 0.257011 -0.174176 -0.337313 -0.117474 0.397712 -0.011300 1.025452 -0.162083 0.052024 0.074919 0.352873 -0.365484 0.797073 -0.097153 0.453862 -0.705788 -0.390622 0.178989 -0.180179 -0.504638 -0.489385 -0.156411 0.721872 -0.122896 
celery_oil 0.255766 -0.639653 -0.398193 0.307526 0.908830 -0.576452 -0.594701 1.504562 0.386921 -1.447098 -0.362361 -0.290326 -0.350395 -0.521047 -0.432119 0.117496 0.486546 -0.374852 0.761919 2.304490 0.367918 -0.733135 0.366652 -1.420528 0.801028 -0.271782 -0.210852 -0.609735 -0.552485 0.182711 0.441439 1.300505 0.294803 -0.638843 -0.109401 -2.010780 0.376957 -1.307486 -0.461588 0.617464 0.227334 -0.990134 -0.236633 0.120439 0.005671 0.444248 0.211230 -0.670069 0.472648 -0.843449 -0.108352 1.098620 -0.666728 -0.580557 -0.045562 0.327552 -1.113827 -0.985486 -1.053190 -0.241838 
peanut_butter -0.548568 0.507644 -0.290707 0.676646 -0.312249 1.937712 0.363432 -0.231491 -0.043943 -0.470168 0.311655 -0.531024 0.447408 -1.232658 -0.464707 -0.726444 0.357201 -0.003513 0.645115 -0.533001 0.815899 -0.750703 0.239415 -0.848856 0.209063 0.357591 0.319196 0.537573 -1.058087 0.237871 -0.379625 -0.330975 -0.527308 -0.425877 0.492959 0.727853 0.732821 -0.730544 -1.273565 0.665909 -0.365260 -0.820965 -0.145889 0.928162 0.641421 0.807871 0.073879 -0.131553 -0.639512 -0.181747 0.257338 -0.320467 -0.232752 -0.618403 0.328001 -0.117369 -0.052854 0.621911 0.369191 -0.442606 
banana -0.110996 -0.328462 -0.446070 -0.432334 -0.111643 0.405205 0.393143 -0.221400 0.878555 -0.371237 0.163950 -0.402244 0.293012 -0.291808 -0.103366 -0.339051 0.240127 -0.561360 0.602003 -0.770273 0.187657 0.268800 -0.169120 0.174282 0.550790 0.762555 0.806920 -0.074525 0.147789 0.547303 0.221431 -0.226803 -0.251835 -0.523630 0.123981 0.487218 0.260914 -0.007879 0.323163 0.295971 -0.124965 -0.065070 0.076263 0.495800 -0.145150 0.724134 -0.854782 -0.083742 0.005887 0.590056 0.674300 0.680820 -0.688467 -0.386957 -0.270690 0.176238 0.362582 0.189763 0.429477 0.523072 
meat 0.226964 -0.778645 0.657945 -0.498751 0.704162 -0.180510 0.015225 -0.709688 -0.222158 -0.349606 -0.589117 0.132429 -0.055132 -0.113924 -0.566148 0.431619 0.356361 0.126983 0.367268 0.409079 -0.309023 0.634188 0.630515 0.326572 -0.145190 -0.574254 -0.532483 -0.291985 0.093173 -0.006772 -0.024404 -0.082540 -0.840454 -0.130161 0.222303 0.089247 -0.793151 -0.426248 0.327257 -0.073654 0.085929 0.055420 0.120078 -0.135366 0.287819 0.133286 -0.035227 -0.117452 -0.085233 -0.344611 -0.297498 -0.276887 -0.087688 -0.692809 0.076759 -0.524850 -0.388828 0.045486 -0.624655 -0.162939 
tabasco_pepper 0.397117 -0.138306 -0.635596 0.400058 0.429437 -0.348904 -0.257464 0.501037 0.031165 -0.626234 -0.025804 0.239392 -0.238888 -0.219543 -0.009021 -0.180611 0.049731 -0.347974 -0.414612 1.233911 0.142588 -0.210755 0.267695 -0.187190 -0.018932 -1.108173 0.031718 -0.046281 0.612272 0.213089 0.054718 0.729399 0.013702 -0.546247 -0.059587 -0.527112 -0.554733 -0.075338 -0.536784 -0.421000 0.128652 0.021119 0.277084 0.548007 0.021858 0.250294 -0.230156 -0.148171 -0.125013 0.228927 0.149939 -0.136266 -0.245093 -0.507385 0.242373 -0.091525 -0.477853 0.332893 -1.030760 -0.205094 
milk_fat 0.073460 0.636130 -0.017901 -0.228582 -0.255904 -0.758948 0.794423 0.180767 0.295295 0.373403 -0.346200 0.761942 -0.099799 -0.771342 0.017275 -0.708719 -0.428734 0.106713 -0.043372 -0.517991 -1.052363 0.484023 0.337594 0.241929 -0.008865 0.177688 -0.451156 0.569851 -0.137414 0.363272 -0.246118 0.294770 -0.116473 0.909405 0.090734 0.282756 0.086170 -0.323784 1.203734 0.108153 0.162427 0.189946 0.664619 0.112726 0.470101 0.193938 -0.478077 0.139086 -0.400097 0.388222 -0.132933 0.347366 -0.185158 0.169848 0.122323 0.038567 -0.407573 0.192748 0.195029 -0.346007 
cabbage 0.144819 -1.034653 0.717146 0.315690 0.167470 0.607289 -0.810071 -0.004845 0.582804 0.120490 -0.262301 -0.324389 0.070414 -0.388858 -1.146332 0.232158 1.074005 0.088131 0.502943 0.555996 -0.018482 0.027730 0.226872 -0.498176 0.226246 -0.579628 0.183330 0.146501 -0.201382 -0.011666 -0.478014 -0.420515 0.319885 0.085189 -0.259833 0.361257 0.035488 0.149154 0.152444 0.370296 0.099748 -0.499418 -0.086776 0.235307 0.188903 0.685102 0.782553 -0.525363 0.024830 -0.377289 0.251925 -0.144456 0.170164 0.113795 -0.010762 -0.894744 -0.153037 -0.403202 -0.855563 -0.005600 
mint 0.157063 0.410591 -0.637489 -0.431018 -0.839773 0.322369 -0.292076 -1.123476 0.192475 -0.219495 -0.021630 -0.382051 0.382562 -0.267781 -0.357887 0.448978 0.973221 0.754146 -0.585845 0.811896 -0.513423 0.822161 -0.775306 -0.187415 0.109966 -0.225189 0.816076 0.192952 0.458663 -0.380403 0.469631 -0.216020 0.091334 -0.107129 -0.542449 -0.019323 0.479854 -0.040831 0.342699 -0.279747 0.118444 0.296711 0.070313 -0.020222 0.582653 0.444806 -0.669824 0.233222 0.648510 1.023879 0.190267 0.083676 -0.312977 0.255073 0.326496 0.114485 0.605015 -0.891244 0.919749 -0.372309 
fennel -0.417261 -0.305816 0.288017 -0.678156 -0.535721 -0.358808 0.358617 -0.579980 -0.459694 0.461390 -1.088512 0.262602 0.181251 0.195450 -0.343398 1.091099 0.616655 -0.229395 -0.600075 0.671749 -0.328267 1.855794 0.079299 0.128587 -0.654687 -0.547662 -0.856004 -0.031707 0.672199 1.261087 -0.369952 0.171096 0.020275 0.367955 0.139061 0.879830 0.314309 -0.067082 0.072359 -0.040781 0.225810 0.844931 0.140217 0.245876 -0.128964 -0.672581 -0.702007 1.150967 1.221563 -0.432443 -0.225282 1.401710 0.792095 1.230199 0.024728 0.017808 -0.241183 1.221027 -0.974817 -0.509984 
sage 0.107956 -0.764158 0.118660 -0.505269 0.873860 0.248453 0.627922 0.305380 -1.365253 0.215784 -1.164471 1.181166 -0.638212 0.938040 0.084680 0.990238 -0.048065 0.163383 0.858278 0.230514 -0.870416 1.674865 0.502568 0.349199 0.152680 0.207725 -0.829700 0.416637 0.051650 0.178009 0.474729 0.596243 0.110767 -0.334842 0.821538 0.238143 0.028918 0.286922 0.581038 0.233830 -0.555791 0.599117 -1.340582 -0.433194 -0.900966 0.859459 0.123176 0.177788 -0.619298 -1.105402 -1.047386 1.289983 0.435308 -0.378095 0.672306 0.136586 0.376425 0.133677 0.245358 0.290273 
broccoli -0.551817 -0.576631 0.108810 0.238220 0.296307 0.415930 0.129499 -0.046975 -0.336940 0.595478 0.310814 -0.557928 0.381944 0.175697 -0.844254 -0.490415 -0.103664 0.570663 1.038813 0.180941 -0.262824 -0.051467 -0.664132 -0.096540 -0.118304 0.644560 0.092352 0.045176 -0.239650 0.390238 -0.099555 0.568121 0.714619 0.128182 -0.132315 0.232357 -0.186749 0.506116 -0.528582 0.567084 -0.621583 0.730244 0.024882 0.110239 -0.270406 0.075564 0.751521 -0.234361 0.371248 -0.286381 0.750304 -0.820690 0.212339 -0.419342 -0.469720 -0.594421 0.330009 1.121443 -0.190314 -0.817177 
turkey -0.520059 -1.003670 0.309454 0.146820 0.138387 -0.343674 0.636343 0.103939 -0.004734 -0.022923 -0.362617 0.064735 -0.797758 0.643429 -0.657132 0.043938 0.318279 -0.003136 1.137247 0.663571 -0.475550 0.692583 0.076507 0.207051 0.136485 -0.718761 -0.407044 0.583513 0.186115 0.081637 -0.161260 0.165224 0.052940 -0.754543 0.556118 0.133792 0.347938 -0.544819 -0.112941 -0.187928 -0.249812 0.153489 -0.728386 -0.219545 0.157314 0.078096 0.639135 -0.357224 -0.135105 -0.091814 0.166036 0.569935 0.239824 -0.382337 -0.295557 -0.442019 -0.715974 0.134647 0.113503 0.373741 
fenugreek 0.527679 -0.810822 -0.498518 0.501615 0.472686 0.873265 -0.433533 -0.917954 0.661369 -1.565910 0.911261 -1.057029 0.502184 0.548737 -0.867645 1.014872 -0.299558 -0.661896 1.050225 1.552192 -1.818664 -1.397045 -1.684597 0.715859 -2.650374 -0.775868 0.405716 0.764744 -0.051198 0.533845 0.541487 0.710398 -0.352791 0.675649 0.943050 0.338814 2.135181 -0.521604 1.139509 -0.073268 0.706376 0.621763 1.658483 0.896221 -1.063981 0.482556 0.023232 0.301219 -0.483785 0.942658 0.425939 -0.050062 1.488902 -0.435595 0.281996 1.084756 0.542863 0.208152 0.720031 -0.254369 
cranberry 0.275871 -0.850927 -0.096818 -0.171487 0.558515 -0.571352 0.400249 -0.289577 0.314554 -0.180588 -0.275037 -0.639118 0.333808 0.058737 -0.222956 0.241418 -0.090707 0.149593 0.902677 0.224748 -0.623622 1.290439 -0.058342 -0.014555 0.607956 0.464423 0.485688 0.354400 0.189686 0.412388 -0.161899 -0.578339 -0.599514 -0.564643 0.880443 -0.440001 -0.426745 0.024414 0.736970 0.091810 -0.441863 0.002817 -0.449987 -0.458171 -0.075104 0.504096 -0.211614 0.152377 -0.392799 -0.331613 0.913690 -0.005613 -0.404263 -0.483973 -0.284183 1.067961 0.103344 -0.357045 0.168812 1.018991 
wine 0.059750 -0.973224 0.210850 -0.566868 0.167370 -0.335479 -0.210172 -0.513303 0.105445 0.821294 -0.311506 -0.623637 -0.918305 -0.243278 -0.522456 0.020596 0.489238 0.815377 -0.179639 0.953695 0.509113 1.113887 -0.313596 0.137772 -0.361476 -0.410137 -0.097647 -0.141401 -0.465537 0.142158 0.717260 -0.309819 -0.513937 0.273715 0.644066 -0.023057 0.683547 0.770834 0.169111 -0.279685 0.481236 -0.574291 0.271877 0.003524 0.411640 0.283438 -0.117071 -0.514533 0.340030 0.003362 -0.327578 0.464777 -0.513013 -0.107073 -0.223947 0.211017 -0.457389 0.126208 0.581976 0.044732 
beef_broth 0.089343 -0.683007 0.408194 -0.153586 1.515187 0.149150 -0.607176 -0.106011 -0.598170 0.523076 -0.979881 0.087978 -0.814376 -0.554268 -0.508938 1.442850 0.763416 0.254086 0.103143 1.032304 0.432894 0.572202 0.180828 -0.315784 0.034324 -0.714719 -0.118433 -0.396693 -0.309858 -0.095791 0.551338 0.179565 -0.030914 0.518973 0.509163 0.330742 -0.061120 -1.257352 0.720254 -0.266524 -0.054554 0.221277 0.607817 0.375928 0.667790 -0.727242 -0.115287 -0.206884 0.209415 0.016953 -0.333798 -0.086259 0.427600 0.104291 -1.038688 -0.101408 -0.251545 -0.360763 -0.758685 -0.076258 
grape_juice -0.266158 0.639629 0.313909 -0.601016 -0.312571 -0.340457 -0.013236 -0.731089 0.128845 -0.271448 -0.272282 -0.251124 0.364268 0.753064 -1.058529 0.527761 0.211264 1.139311 1.274888 0.342087 -0.064892 0.878831 -0.391266 -0.083700 -0.051059 0.101409 0.202469 -0.037377 0.770020 -0.379744 0.550123 -0.634301 0.345630 0.057517 0.580579 -0.561177 0.011982 0.098745 0.417405 -0.136755 0.440002 -0.016779 -0.380722 -0.233238 0.426765 -0.384841 -0.125441 0.239814 0.620850 -0.546357 -0.074895 0.934128 -0.515972 0.105897 -0.317295 -0.353375 0.034483 -0.076599 -0.376708 -0.561253 
pumpkin 0.465923 0.307013 -0.564515 -0.859326 0.529121 -0.089119 -0.490275 -0.718591 -0.611282 -0.007986 0.109554 0.009658 -0.357445 -0.704512 -0.499486 0.041717 0.271376 -1.625779 -0.484612 -0.592239 0.660825 -0.371046 0.799111 -0.093093 0.591517 0.005633 0.143620 0.251577 0.048084 0.367278 -0.588171 -0.731682 0.418123 1.142604 0.211994 0.974548 -0.553500 -0.507653 0.558692 -0.322997 -0.241474 0.367960 0.401107 -0.378606 -0.417985 1.022607 -0.550409 -0.125051 -0.100354 -0.258489 0.450333 -0.258295 0.621715 0.005436 -0.117178 0.314431 0.091577 0.202540 0.374787 0.461440 
raspberry -0.276625 0.149846 -0.469358 -1.281565 0.485929 0.033328 0.754629 -0.568884 1.665734 0.818436 -0.307536 -0.147263 0.550581 -0.475985 -0.124337 -0.503733 0.295708 -0.026747 0.209154 -0.788073 -0.653016 0.492913 0.090907 -0.770961 0.809667 0.464234 0.420254 0.007388 0.411455 0.471750 -0.213825 -0.853559 -0.278424 0.049302 0.183124 -0.411291 -0.284737 0.578005 -0.095226 0.239314 -0.245126 -0.282574 -0.318927 -0.448446 0.716734 -0.048168 -0.750230 0.109228 0.028802 0.617997 0.069514 0.598242 -1.242935 0.003573 -0.018873 0.349143 0.488001 -0.009547 0.218424 0.514190 
whole_grain_wheat_flour -0.015195 -0.537139 -0.354918 -1.565507 -1.058489 0.064532 -0.096175 -0.428679 0.068098 0.288603 0.080874 0.193607 0.193882 -0.259343 0.266221 0.380087 -0.483564 0.163493 0.333174 0.051344 0.393170 -0.105424 0.915697 -0.223316 0.116651 0.790936 0.336355 -0.345385 0.472660 -0.156283 -0.473281 -0.049342 -0.016822 -0.610877 0.017708 -0.248810 0.110038 -0.733709 -0.535409 0.302575 0.042460 -0.154341 -0.084742 0.677554 0.409295 0.066738 0.315008 0.116080 0.029033 -0.307133 0.885899 0.769056 1.050599 0.078704 -0.540902 0.177906 0.563021 0.375382 0.549652 0.082987 
lemon_peel 0.562206 0.527950 -0.004666 -0.478037 0.142151 -0.370189 -0.182240 -0.995722 0.251411 0.248338 0.091250 0.494666 0.456310 0.017313 0.005247 0.295659 -0.110920 0.537367 -0.497471 -0.482195 -1.067765 0.300343 -0.296931 -0.300644 -0.282625 0.964210 0.263966 0.731129 0.136791 0.211697 0.184213 -0.221710 0.899300 0.531344 0.323697 -0.017177 -0.228473 0.632846 0.312456 -0.150059 0.210913 -0.307259 -0.191978 -0.524269 0.312277 0.312368 -0.329992 0.117066 -0.079709 0.587888 0.049376 0.571601 -0.145836 0.225007 -0.041928 0.509335 0.543357 0.386097 0.624947 -0.381968 
coffee 0.405362 0.133008 0.149429 -0.042612 0.103384 -0.439648 -0.106870 0.030720 0.480167 -0.628397 0.626176 0.169005 -0.262642 -1.462884 0.835487 0.264618 -0.370418 0.115900 0.218333 -0.429522 0.389026 0.140775 0.348844 -0.588989 0.032936 0.183385 -0.456605 0.444090 -0.162854 0.013435 0.425164 -0.099479 -0.675466 0.247441 0.322337 0.160046 -0.485633 -0.780709 0.331491 0.163168 -0.389752 -0.135465 0.701835 0.508446 1.164059 0.679482 -0.980167 -0.231216 -0.367834 0.120731 0.544164 0.373445 -0.751153 -0.467178 0.207650 0.498996 0.177870 0.047693 0.809004 0.281624 
sesame_seed 0.628265 0.045600 -0.541426 -0.266257 -1.166784 0.494576 -0.310330 -0.630267 -0.366238 0.059105 0.133750 -0.756507 -0.005061 -0.351632 -0.715020 0.124066 0.200014 0.699812 0.133199 0.219918 0.553097 -0.074001 0.172905 -0.642279 -0.004715 0.430486 1.248026 0.006328 -0.611645 -0.017649 -0.281350 0.047518 -0.092724 0.089117 0.528733 -0.264429 0.076038 0.489714 -0.348568 -0.070288 0.739306 -0.138665 0.157764 0.041335 0.239998 1.247235 1.046931 0.062026 0.438690 0.004424 0.706016 -0.142945 -0.318075 0.284723 -0.294933 -0.728448 0.003802 0.274154 1.097605 -0.914888 
avocado -0.295666 0.525163 -0.684998 -0.102520 -1.260051 -0.230931 0.239372 0.495056 1.355425 -0.201004 0.656422 -0.638694 -0.555978 0.330526 0.495323 -0.273101 1.512973 -0.312725 -0.237159 0.419472 -0.289721 0.630815 -0.972851 -0.032628 -0.318276 -1.198073 0.318324 0.012203 1.241621 0.168156 0.652352 0.234999 0.066623 -0.017913 -0.036118 -1.121098 -0.973330 0.198057 -0.584498 0.091147 1.324646 0.705490 -0.155111 0.078662 0.206947 1.078319 0.014302 -0.736113 0.044631 -0.466550 0.220103 -0.247453 0.143179 -0.646589 0.641663 -0.581025 0.579773 -0.577890 0.508263 -0.800956 
sherry 0.483077 -0.091684 0.082313 -0.352526 0.040136 -0.789443 -0.205624 -0.640469 -0.376516 0.238629 -0.115045 0.036274 -0.139526 0.256590 -0.524460 0.213735 0.085988 1.054582 0.226349 0.600340 0.278093 0.306336 -0.419892 0.065405 0.079058 0.466914 -0.402350 0.342392 0.157025 -0.102256 -0.142655 -0.018803 -0.352420 0.530948 0.234693 -0.381186 0.458636 0.581789 0.008520 -0.177173 0.392416 0.016739 -0.151218 0.084957 0.321360 0.608645 -0.268784 -0.647135 -0.104119 -0.230638 -0.335231 1.076849 -0.417908 -0.305122 0.607323 -0.433833 -0.387456 -0.086179 -0.057313 -0.445436 
sake 0.154045 -0.686459 -0.958843 -1.002823 0.330855 0.877739 0.074714 -0.511289 0.013429 -0.411336 -0.777379 -0.090102 -0.825761 0.196351 -1.752162 -0.062031 1.085587 0.077684 -0.319432 -0.087140 0.255613 -0.663152 1.394905 -1.085884 1.007453 -0.209211 1.594193 -1.329114 0.138327 0.489109 -1.178949 -0.658649 -1.507905 1.845317 0.504400 -1.046516 1.128584 1.499468 -0.554944 -0.350426 0.227719 0.078230 1.042011 1.059887 -0.063601 0.857243 0.787955 -0.988968 0.542465 -0.716688 -0.549887 -0.679949 -0.300731 -0.406942 0.496475 0.297693 -0.993904 -0.129072 -0.070315 -0.036937 
feta_cheese -0.438309 0.396013 -0.687034 -0.518316 -0.622574 -0.411412 -0.753126 -0.853234 0.740264 0.129302 0.418435 -0.346014 0.222371 0.921029 0.375106 0.523782 1.104320 0.756854 0.482395 0.652655 -0.698923 0.606958 -0.073669 -0.666533 0.315903 0.104960 0.694029 0.359540 0.578497 -0.763178 -0.025902 0.485707 0.503490 0.085721 -0.312057 -0.795161 0.003403 0.000119 -0.160384 0.297351 0.520064 -0.323540 -0.690286 -0.443974 0.184323 -0.828343 -0.233771 0.457678 0.439339 0.006962 -0.035054 0.166579 0.182660 0.899866 0.331449 0.530668 0.437749 0.528141 0.295136 -0.726537 
apricot 0.414956 -0.087790 0.166804 -0.198182 0.449881 -0.136561 -0.087327 -0.404427 -0.486347 -0.515845 -0.584853 -0.244240 0.373916 -0.161192 -0.759264 -0.123134 -0.096040 0.296690 0.369225 -0.434817 -0.207764 1.255017 -0.197928 -0.102031 -0.346032 1.072709 -0.225685 0.685701 -0.258322 0.749613 0.117013 -0.323505 -0.232098 -0.317819 0.192334 0.090220 -0.109804 -0.005853 0.276989 -0.115190 0.134050 0.018264 -0.462898 -0.010794 0.447499 0.699609 -0.328067 -0.008108 0.033653 0.747671 0.657060 0.701808 -0.487899 -0.470983 0.302166 0.299968 0.622692 -0.436186 0.498017 0.849982 
roasted_sesame_seed -0.307043 -0.655203 -0.209663 -1.150872 -0.770285 2.416229 -0.917058 0.569099 -0.574780 0.822225 0.410193 -0.380852 -1.011066 -0.046494 -0.745383 0.848608 0.570241 0.940149 -0.020849 0.174751 -0.684898 -0.850375 1.249208 -0.205783 0.521034 -0.905097 1.731884 -0.184583 0.310492 0.425938 -1.692356 0.263512 -0.657485 2.551901 0.741178 -0.201427 0.378318 0.284959 -0.845497 -0.039374 0.680452 0.688857 1.553680 -0.216964 -0.319467 1.201460 0.892278 -1.320158 1.282336 0.311911 -0.190882 -0.594808 0.556469 0.591892 -0.045191 0.570902 0.586565 -0.497138 0.239858 -0.679217 
rum 0.092000 -0.309680 -0.043718 -1.060398 0.740089 0.486050 0.563391 0.222658 1.066055 -0.536792 -0.491803 0.234804 0.425298 -0.524969 0.567639 -0.088465 0.064725 -0.039620 -0.470235 -0.687992 -0.186520 0.559122 -0.098482 0.013651 0.275419 0.666951 -0.214220 -0.442309 -0.057570 0.935769 0.894325 -0.032470 -0.791748 0.239930 0.477587 -0.469862 0.354180 0.141990 1.116158 -0.673144 0.174979 -0.434208 0.505748 0.104482 0.457795 1.214501 -0.978570 -0.551903 0.011241 0.962278 0.360960 0.484170 -0.097702 -0.171999 -0.043329 0.692669 0.322573 -0.258602 0.443606 0.391713 
orange_peel 0.484091 0.200577 0.258975 -0.177538 -0.296984 -0.994553 0.368421 -0.780331 -0.260196 -0.487937 -0.735178 -0.327062 0.656599 0.146577 -1.019377 -0.369516 0.067632 0.327715 -0.041971 -0.692065 -0.697621 1.495004 0.089273 -0.720301 0.758015 0.732969 0.549459 0.406086 0.067040 0.732921 -0.254637 0.369944 -0.177160 0.242038 0.233819 -0.477162 -0.706957 0.133794 0.675951 -0.306993 -0.044910 -0.483650 0.373570 -0.282966 -0.076754 0.584971 -0.313140 -0.333923 0.181758 0.568614 0.297888 0.348165 -0.029826 -0.269989 -0.185139 0.735875 0.198265 -0.131622 0.371281 0.760476 
squash 0.517553 0.106890 0.449879 0.611426 -0.379922 -0.312421 -0.317502 -0.363385 0.024742 -0.170975 -0.801224 0.430492 0.518619 0.749767 -0.994492 0.868999 0.706638 -0.163640 0.760764 0.102606 0.111412 0.188121 -0.065439 0.597539 -0.080200 0.560284 -0.286244 0.979279 0.363963 -0.076009 0.023381 -0.106615 0.130787 0.104582 -0.023441 0.955212 0.154039 -0.563686 0.336855 0.268096 -0.954357 -0.220642 -0.373439 -0.170031 -0.030320 0.126071 -0.257578 -0.083896 0.309699 -0.283518 0.432842 -0.263618 0.659247 0.214161 -0.609070 -0.328041 -0.431763 -0.047220 0.273041 -0.190060 
crab -0.169824 -0.570915 -1.845787 0.709978 0.001790 -0.153506 0.284944 0.180242 -0.605432 0.275076 1.084767 1.231203 -1.016414 0.150844 0.256626 -0.330222 -1.001605 -0.608259 -0.534074 0.987715 0.232181 -0.299769 -0.339802 0.463954 0.250785 -1.133322 1.419168 1.101984 0.596338 0.543080 0.339875 1.363405 0.484013 0.035037 -0.030485 -0.265537 -0.271560 0.730574 0.180567 -0.282730 0.003420 0.122251 0.265480 0.368472 -0.124890 0.077549 -0.097089 -0.167069 -0.267193 0.250476 0.004292 0.538973 -1.154394 -0.852719 0.983968 -0.395207 -0.724356 0.717976 0.450836 -0.292028 
marjoram 0.216544 0.221344 0.285154 -0.175920 0.690009 -0.152560 0.882748 -1.048348 -0.447468 -0.001219 -0.911580 1.120283 -0.619786 0.815483 -0.447043 0.710123 0.232969 1.185466 0.967052 0.678577 -0.911819 0.729727 0.754330 -0.535812 -0.522459 -0.524318 -0.613602 0.888304 0.601730 0.559444 0.181946 -0.116486 -0.462011 -0.376503 0.940589 0.701228 -0.631984 -0.454177 -0.420269 -0.215394 -0.173118 -0.481102 -1.188045 -0.697629 -1.325149 -0.395508 0.469976 1.131575 -1.064600 0.008553 -0.564043 0.815319 0.538529 0.217025 0.135451 -0.679995 -0.654857 0.148342 0.143411 1.174223 
swiss_cheese -0.293582 -0.666825 -0.170939 1.130520 0.323109 -0.167203 0.550167 -0.492675 -0.251202 0.927876 0.049832 0.514324 0.620100 -0.327824 0.274314 0.115757 -0.758896 0.390604 1.299390 -0.190656 -1.082748 0.127607 -0.052770 -0.480459 0.087244 -0.027412 -0.157890 0.240585 1.026573 -0.414076 -0.450673 -0.095639 0.145727 0.070464 -0.723964 -0.523449 -0.561890 -0.306481 -0.894400 0.680026 -0.376282 1.229151 0.143779 0.481234 -0.267843 0.401428 0.514698 0.223291 -0.153691 -0.551439 -0.242348 -0.505308 -0.613320 -0.656645 0.157804 0.322247 -0.590319 0.690848 -0.872964 0.427833 
sweet_potato 0.485364 0.632344 0.250882 1.064149 -0.080968 -0.186160 0.194357 -0.346628 0.047664 -1.179979 -0.364827 0.637298 0.486534 -0.522987 -0.803938 -0.016661 0.247504 -0.709081 -0.370651 0.156736 0.364866 0.989944 -0.020743 0.463668 -0.099605 0.336393 0.008933 1.364571 -0.041270 1.128460 -0.173436 -0.277476 -0.114944 0.435439 0.235797 1.609788 0.629663 -0.800734 0.902734 -0.677481 0.415077 -0.976259 0.566288 -0.068360 -0.265128 1.071952 0.504397 0.106568 0.677463 -0.029861 0.598940 0.015749 0.460166 -0.266583 -0.125817 -0.342858 -0.250917 0.545474 -0.367880 0.705980 
shiitake 0.025267 -0.672576 0.047767 0.237025 0.766367 0.582502 0.669637 -1.602202 -1.101276 1.348040 -0.703230 0.665054 -0.952538 -0.323533 -0.860196 0.713667 0.938415 -0.266528 -0.172097 -0.498121 0.643710 0.890858 0.651862 -0.756505 0.200481 -0.444421 0.888781 -0.390218 0.122156 -0.018218 0.003597 -0.882232 -0.578170 1.808438 1.412125 -0.349254 0.080439 0.254130 -0.122372 -0.222901 -0.332927 0.580797 1.282443 -0.082517 -0.360225 0.169963 0.144962 -1.346253 0.495850 -0.329395 -0.009942 -1.445653 -0.277593 -0.274078 -0.528341 -0.549669 -0.863982 -0.246486 0.324875 -0.517937 
radish 0.050101 0.809751 0.026516 -0.097886 0.115518 1.784049 -0.463535 -0.105778 -0.365564 0.803504 0.230167 -0.643904 -0.801802 -0.088292 -0.541392 0.043841 1.563888 0.532088 -0.052226 -0.555064 -0.546211 -0.281883 1.125114 -0.595986 0.413020 -1.362718 2.026061 0.137939 0.674681 -0.194382 0.055268 0.055088 -1.000104 1.271001 0.715644 -0.612352 -0.471847 0.520220 0.153082 -0.039071 0.706118 0.261210 0.437375 -0.416703 0.089133 0.918551 0.224710 0.063571 1.417148 -1.054189 0.734751 -1.031907 0.186103 -0.293638 0.253250 0.451338 -0.454008 -0.562451 0.549702 -0.405322 
peach 0.303776 -0.217291 -0.285409 -0.859793 0.863223 0.180724 -0.406373 0.003270 0.701195 -0.181442 0.285906 -0.432994 0.521212 -0.586732 -0.304157 -0.873635 0.359967 -0.231945 -0.038486 0.138715 -0.546615 -0.059842 0.023181 -0.083117 0.502601 -0.007451 0.251867 0.292999 -0.038962 0.718505 0.229238 0.015949 -0.028349 -0.096151 0.258887 -0.326797 0.170644 -0.230292 0.559875 0.065771 -0.108390 -0.221878 0.422191 -0.027712 0.341757 0.461613 -0.820543 0.000484 0.059416 0.982320 0.123601 0.176892 -0.708593 -0.605226 0.128848 0.530428 0.160900 -0.055607 0.044630 0.645197 
tarragon -0.063826 0.341051 -0.212828 0.776721 -0.068566 -0.091036 -0.288923 -0.643192 0.508048 1.264664 -0.190272 0.163869 0.281346 -0.018364 -0.607114 0.852215 -0.468361 0.706287 0.429067 0.235595 -0.429571 0.939601 -0.393298 -0.109837 -0.276383 -0.226167 0.279615 -0.025557 0.868339 -0.360030 0.517242 0.323730 0.209879 0.179932 -0.114953 -0.534307 0.272078 0.864440 0.235523 -0.332930 0.153396 -0.207461 -0.221824 -0.309311 -0.427145 0.560864 -0.133366 0.323078 0.256211 0.376668 -0.762789 0.475662 -0.901148 0.179876 0.773583 0.228069 -0.416403 0.414016 0.019010 -0.594822 
black_bean -0.108556 0.255314 -0.169101 0.118326 -0.469315 0.138842 0.214274 0.926116 0.341995 -0.761015 -0.188615 -0.541953 -0.044527 0.279799 -0.097078 0.241551 1.765697 -0.620563 0.031128 0.994208 0.145028 0.975344 0.150141 0.425543 0.113608 -0.714499 -0.125849 1.000427 -0.160068 0.000737 0.285124 0.646158 -0.053000 -0.307538 -0.827870 -0.004633 0.189304 -1.000641 -1.329341 0.885254 0.257255 0.302729 0.252781 0.256237 0.990008 0.182300 0.497427 -1.275156 1.180191 -0.697347 0.204049 -1.176324 0.523413 -0.795458 0.720687 0.097470 0.412013 -0.255977 0.721165 -0.678326 
lamb -0.208579 -0.117076 -0.009839 0.752845 0.072143 -0.439811 -1.086343 -0.878138 0.025776 -0.413401 -1.526210 0.150189 -0.083753 0.670289 -0.790608 1.097892 0.967629 0.148430 0.756002 0.595999 -0.808110 1.137444 -0.146452 0.862167 -0.418475 -0.567185 0.553304 0.443961 -0.294262 -0.078502 -0.386490 0.157122 0.740568 0.694640 0.529227 0.331267 0.134232 -0.655469 1.029335 0.259040 0.044034 -0.154278 -0.489562 -0.271851 0.706529 -0.087358 -0.174424 0.461580 0.832755 0.850361 -0.001378 1.709742 0.303907 0.414155 -0.417268 -0.671350 0.599755 -0.931446 0.658949 0.459798 
maple_syrup 0.737301 -0.437923 -0.005587 -0.356829 -0.077534 -0.259929 -0.004671 0.072738 -0.293045 -0.325696 -0.116130 -0.138852 0.140326 -0.319766 -0.071526 0.366264 -0.608293 -0.169166 0.085869 0.029389 -0.137192 0.510731 0.601341 0.217362 0.633085 0.242714 -0.122565 0.485281 -0.247133 0.497204 -0.764106 -0.566489 0.164542 0.254416 0.330139 0.352379 -0.047401 -0.151897 0.054812 0.310920 0.279076 -0.574607 -0.371767 0.043126 -0.052494 1.235679 -0.137105 -0.215622 -0.262060 -0.127101 0.449535 0.350735 -0.344280 -0.254307 0.404052 0.550399 0.215852 0.017696 -0.599351 0.558403 
pear -0.331851 0.136922 -0.260607 -0.232049 -0.469596 -0.438897 -0.302926 -0.596653 0.365946 0.176845 0.044853 -0.397247 0.061806 -0.143368 -1.032342 0.469118 0.373244 -0.453723 -0.021226 -0.543402 -0.273806 0.923769 0.594946 0.085639 0.591527 -0.000664 0.284013 1.129314 -0.028918 0.037110 -0.348936 -0.686344 -0.377328 0.178564 0.809750 -0.062780 0.150028 0.001743 0.894655 -0.827246 0.560148 0.073532 1.069403 -0.833690 0.338189 0.627136 -0.716211 -0.529539 -0.071977 -0.203163 0.669409 0.044735 -0.690280 -0.141015 -0.159948 0.299502 0.051332 -0.773454 0.205828 -0.490316 
fruit -0.530314 -0.470408 -0.468132 -0.636667 0.231660 0.341610 0.344942 -0.537978 0.694155 -0.387888 -0.980318 -0.149708 0.334798 -0.572272 -0.250582 -0.573493 0.407389 -0.679620 -0.029457 -0.819999 -0.111895 0.532097 0.116986 -0.643642 0.498330 0.492244 0.927855 -0.004481 -0.137437 0.187355 0.168914 0.031205 0.235825 -0.604515 0.530968 -0.049705 -0.107938 -0.010841 1.026091 -0.187233 -0.034379 -0.334715 -0.013855 0.297043 0.223447 0.279847 -0.440115 -0.253123 -0.508514 0.753500 0.180896 0.805455 -0.350754 -0.400199 0.134610 0.270704 0.748726 0.016814 0.503394 -0.189643 
blueberry -0.078564 -1.226977 -1.397077 -0.754231 -0.195150 0.783527 0.337530 -0.859170 1.264604 0.196884 0.290117 0.101226 0.530073 -0.225130 -0.734924 -0.780914 0.585394 0.082364 0.572959 -0.428069 -1.398966 -0.146813 0.194963 -0.150720 1.167670 1.011770 0.547084 -0.123866 -0.103452 -0.014792 -0.751499 -0.132559 0.796852 -0.092653 0.304725 -0.196486 -0.099714 0.216272 -0.192997 0.355432 -0.494215 -0.059921 0.435126 0.215453 0.787116 0.492958 -1.120270 -0.095596 -0.377791 1.433850 0.276343 0.286996 -1.319287 0.090712 -0.438164 1.581910 1.158442 0.188422 0.686741 0.586982 
clam -0.140260 -0.840007 -0.749552 -0.000551 -0.268050 0.565935 -0.434442 -0.179931 -0.152909 1.307827 -1.216667 2.045769 -1.106273 0.794876 -0.547472 -0.487074 -0.007667 -0.542773 -0.644552 0.753222 0.046045 0.176213 0.063277 -0.121137 0.127835 -1.493790 0.203802 0.694099 1.101357 1.672862 -0.152289 0.427096 0.604481 2.207186 0.008019 0.536333 0.768524 1.434084 0.461475 0.566740 -0.237108 0.772730 0.237878 0.388636 -0.240301 -0.357676 -0.628001 -0.192571 0.719718 0.280337 -1.011782 -0.278225 -0.247571 -0.357167 0.380504 -0.261625 -0.992551 -1.467641 -0.293237 -0.588364 
smoke -0.073968 -0.556689 0.505156 0.501533 -0.069241 -0.041790 0.084420 0.240230 -0.527525 0.456882 -0.630440 0.282457 0.219863 -0.187649 -0.526392 0.522661 0.319911 0.510153 0.081583 0.332620 -0.265075 0.372373 0.113676 -0.038077 -0.010426 -0.885963 -0.528421 0.091225 1.016008 0.146403 0.024823 -0.015946 0.095264 -0.855522 -0.140065 -0.495595 -0.092030 -0.481788 -0.063218 -0.321178 0.055563 0.009919 -0.143151 0.930155 0.348386 0.649595 0.231595 -0.307415 0.554141 -0.281419 -0.398988 -0.021072 -0.332014 -0.573975 1.131888 0.276178 -0.048576 0.078160 -0.653388 0.064505 
tuna -0.714274 -0.240411 -0.374967 -0.028538 -1.130909 0.670017 -0.069891 -0.242674 0.304151 -0.170552 0.144529 -0.416182 -0.560836 0.632492 0.065018 -0.270275 -0.043961 -0.489585 0.333585 0.199556 -0.861734 0.270573 -0.295321 -0.545015 0.450591 -1.120158 1.446983 -0.199260 0.291926 -0.426813 -0.382132 1.511375 0.200052 -0.438698 0.028780 0.068670 -0.500469 0.562431 -0.231579 0.290092 0.231442 0.363248 0.071034 -0.095254 0.336947 0.551544 0.724427 0.372490 -0.012776 0.013516 0.669621 0.406724 0.154882 0.042801 0.014903 -0.518725 -0.717832 0.619026 -0.108234 -1.091113 
kidney_bean -0.903468 -0.262352 0.807398 0.204289 0.154091 0.275991 -0.215026 0.255171 -0.123094 -1.311204 -1.006745 0.371094 -0.624672 0.924051 -0.322764 1.062246 1.193154 0.307954 0.316239 1.614770 0.620695 -0.260494 -0.345961 -0.697669 -0.320138 -0.403182 -0.674209 0.416284 0.736381 -0.271328 -0.298629 0.520204 -1.127001 -0.504897 -1.021942 -0.791902 -0.248211 -1.396414 -0.112281 0.923106 0.099544 -1.153749 -0.214066 0.131573 0.675246 -0.258870 0.923570 -0.377048 0.516901 -0.125024 0.148553 -0.504922 0.795533 -0.427442 -0.103765 0.121492 0.177441 -0.210859 0.297384 -0.251753 
peanut -0.081100 -0.010673 -0.092537 0.247156 -0.428504 0.860549 0.239623 -0.008082 -0.190466 -0.562702 0.431001 -0.430928 -0.316579 -0.699832 -0.107012 0.574227 0.706222 -0.061494 -0.088723 0.122810 0.731764 -0.621187 -0.089819 0.053748 -0.199314 -0.504893 0.750319 0.707773 -0.792593 0.238205 0.253885 -0.443303 -0.611514 -0.681237 0.707509 0.426555 1.042357 0.669050 -0.775660 0.244351 0.361003 -0.104190 -0.037140 0.952985 0.302332 0.877879 0.944254 -0.621091 -0.989553 0.950327 0.418797 0.225947 -0.624792 -0.474309 -0.000739 -0.272028 0.522720 0.049139 0.039068 -0.845949 
asparagus 0.628357 -0.186109 0.046359 0.467464 -0.148567 -0.537036 -0.292239 -0.642325 -0.459049 1.178975 0.156081 0.537807 -0.351744 0.344713 -0.365739 0.264065 -0.442918 -0.154063 0.661290 -0.310064 -0.637904 0.433888 -0.695466 0.043540 -0.058270 0.516010 0.611069 0.620706 0.207748 -0.194616 0.169337 0.524405 1.249249 0.300000 -0.098965 -0.571066 0.623321 0.446373 0.339840 0.243282 0.155227 0.335798 0.017369 0.348826 0.055167 0.116550 -0.112379 -0.680897 0.317355 -0.328320 0.402860 -0.055928 -0.176777 0.157620 0.028326 -0.096661 -0.113158 0.837289 0.345540 -0.884798 
salmon 0.740511 -0.230561 -0.631253 -0.189008 -0.706400 0.149562 -0.023162 -0.389828 0.738335 0.673253 0.686340 0.159430 0.163812 0.151731 -0.530627 -0.441225 0.073103 -0.045195 0.200692 0.693055 -0.010703 0.232985 -0.128538 0.280821 0.448204 -0.617115 1.650761 0.521666 -0.010859 -0.317478 0.305626 0.931341 0.597243 0.009140 0.125697 -0.512265 0.281438 -0.018576 0.692535 -0.470268 -0.200809 -0.053871 0.044066 0.176809 0.232920 0.091545 0.205942 0.064815 0.754919 0.695718 0.391404 0.943296 -0.281687 0.227897 -0.179622 -0.250800 -1.116243 0.268379 0.152337 -0.213236 
leek 0.148851 0.156932 -0.138351 0.317236 0.104229 0.558073 -0.464834 -0.659515 -0.549794 1.275473 -0.907788 1.339924 -0.390075 -0.096813 -1.522605 0.594064 -0.014050 0.833727 -0.036494 -0.315919 0.031518 1.087063 -0.644938 0.197276 -0.574762 -0.059373 -0.146747 0.709429 0.496855 -0.050509 -0.153077 0.040479 0.399682 0.736907 0.005280 0.879085 -0.190911 0.122546 0.757591 -0.376486 -0.597771 0.197214 0.005695 0.167377 -0.002954 0.578268 -0.044826 -0.057904 0.354292 -0.059183 -0.465204 0.313573 0.603715 -0.789886 0.370118 -0.729386 -0.043265 0.174058 -0.109165 -0.080789 
chickpea -0.356727 0.091003 -0.093362 0.629173 0.192792 -0.217007 -0.940618 -0.110066 -0.215734 -0.398630 -0.655596 -0.772919 0.642293 0.696148 -0.577422 1.493575 1.009794 -0.206907 -0.163237 0.699687 -0.775366 0.512106 -0.558239 0.371692 -0.514460 -0.311581 -0.159934 1.286124 0.511636 -0.093029 -0.873910 0.400647 0.894488 0.565155 -0.717361 0.661971 0.313194 -0.393650 0.079006 0.481337 0.805784 -0.434015 -0.488598 -1.036274 1.218530 -0.193423 -0.128418 -0.175566 0.969911 -0.293170 1.204461 -0.208666 0.998707 0.143204 -0.429142 -0.380918 0.960920 -0.640158 1.176319 -0.242169 
blue_cheese -0.431473 0.021658 -0.408577 0.275593 -0.292600 -0.764650 -0.597241 0.284661 0.720476 0.594213 0.618064 -0.549381 0.379323 -0.018043 -0.599012 0.277112 -0.215133 0.279552 1.170132 0.046002 -0.297347 1.251119 0.086805 -0.390466 0.804973 0.023872 -0.108899 -0.343979 1.014058 0.063236 0.121098 0.122263 -0.450927 0.170380 -0.111339 -1.027771 -0.607343 -0.156011 0.197404 -0.032181 0.315668 0.540448 -0.179642 -0.710680 -0.617965 0.118245 -0.165532 0.297325 0.267429 -0.699135 0.291088 0.193634 -0.604030 0.214713 0.288782 0.410364 0.109748 0.672731 -0.887411 -0.511345 
brandy 0.201118 -0.505118 0.544748 -1.002385 -0.278699 -0.923854 1.570933 0.092394 0.682163 0.202087 -1.342906 0.543187 0.421944 -0.505244 -1.474198 -0.584013 -1.147606 -0.249434 -0.190975 -0.248255 -0.551868 1.277003 -0.230456 -1.929198 -0.771129 -0.311117 0.004706 0.856691 -0.305355 0.877127 -0.282076 -0.810568 -0.034205 -0.102693 -0.231778 -0.417495 -0.907185 0.487997 0.429252 0.177021 -0.393837 0.043479 0.616781 -0.615381 1.435739 0.015283 -0.411966 -0.288336 0.384326 0.222968 -1.140035 0.615285 -0.992983 0.502236 0.681993 1.215359 0.689306 -0.070096 -0.564066 0.032924 
artichoke 0.037320 0.526395 -0.083380 -0.134375 -0.395080 -0.079667 0.082072 -0.686473 -0.523345 1.211072 -0.316456 0.613739 0.063250 0.532716 0.226108 0.290414 -0.033690 0.368222 0.475341 0.422809 -0.743533 0.933901 -0.767007 -0.330185 -0.425583 0.215733 0.115361 0.015230 0.810193 -0.122677 -0.304164 0.356173 1.078283 -0.048573 0.088970 -0.146199 0.002432 0.063312 0.222915 0.495139 -0.141505 0.546149 -0.280779 -0.638143 0.152645 -0.435139 -0.213719 -0.437231 0.746139 0.086080 0.264766 0.202543 -0.422745 0.567938 0.366001 0.134193 -0.375505 0.392662 -0.078914 -0.743199 
horseradish 0.020203 0.168131 -0.723677 0.338325 0.083859 -0.158279 -0.236362 0.498899 0.745271 0.477530 0.104796 0.426424 -0.062626 -0.675589 0.268621 0.860035 -0.381327 -0.393711 0.075184 0.621057 -0.071575 0.249008 0.027656 -0.318457 0.881124 -0.730856 0.583850 -0.524568 0.831610 0.245729 0.168211 0.445649 0.116865 -0.091119 -0.412567 -1.027703 -0.252404 0.978985 -0.081932 -0.488893 0.601673 0.293639 -0.028360 0.503615 0.073541 1.026711 0.477264 -0.083559 -0.337381 -0.296964 0.242934 0.480752 -0.341889 0.147743 0.201757 -0.400801 -0.677835 -0.076186 -1.615266 0.401879 
mango 0.339343 -0.175785 -0.486985 -0.121648 0.020194 0.444510 -0.403928 -0.136927 1.408093 -0.653925 0.568445 -0.434885 1.118880 -0.415362 -0.349095 -0.084396 1.104829 -0.103157 -0.117482 0.581460 -0.636367 0.384983 -0.719816 1.095780 0.001568 -0.427272 0.885524 0.327850 -0.024665 0.932211 0.766595 0.013962 -0.878630 -0.037705 0.507014 -0.047587 0.907151 0.985818 -0.549916 -0.785275 0.366938 0.194657 0.598808 0.341186 0.614913 0.371561 -1.017837 -0.264408 -0.100865 0.306402 0.102522 -0.250655 -0.093892 -0.138269 0.805157 -0.013637 0.108544 -0.360509 0.826325 -0.059533 
date -0.582688 -0.228217 0.732355 -0.156335 -0.168825 -0.372674 -0.086434 0.488179 -0.146644 -0.569578 -0.861223 0.007248 0.851156 -0.372028 -0.085840 0.592102 -0.181252 -0.303017 0.079735 -0.790602 0.274217 0.674899 0.291736 -1.052213 -0.403759 0.888143 0.038072 0.666285 0.440276 0.829596 -0.581007 -0.769828 -0.386538 -0.372539 0.508681 0.301302 0.324155 -0.123009 1.027480 0.213339 0.213433 0.196950 -0.086283 -0.898214 -0.009641 0.967678 -0.565657 -0.206001 -0.066521 0.612583 1.143636 1.102471 0.377049 -0.522037 -0.159220 0.616878 1.120063 -0.294935 0.271551 -0.069204 
cardamom 0.718122 0.173982 0.167630 0.036720 0.634898 -0.056372 -0.798615 -0.619965 0.318163 -0.994576 -0.575584 0.256712 0.607743 -0.704658 -1.221012 0.242101 -0.091042 -0.580176 -0.495171 0.104819 -0.475604 0.743221 0.009243 -0.266238 -0.221145 0.534715 0.476756 1.481537 -0.424226 0.867654 -0.301986 -0.410981 0.046725 1.115042 -0.319146 0.063336 0.301596 -0.095517 0.632401 -0.376649 0.758657 -0.172971 -0.292120 -0.151284 1.053896 0.298208 -0.486554 0.074007 -0.080682 0.324930 0.163481 0.313865 1.251187 -0.582874 0.303004 0.231263 0.806188 -0.992537 0.991760 1.154229 
white_bread -0.122563 -0.319024 0.194865 -0.453327 -0.314222 -0.418675 0.587897 -0.091258 -0.382884 0.692526 -0.162740 0.684227 0.357188 0.412722 -0.135103 0.688174 -0.387715 0.779416 0.190788 0.451569 -0.346727 0.410206 -0.146936 0.116563 -0.312786 -0.122200 -1.114592 0.199115 0.400867 0.440125 -0.462740 0.160059 -0.367466 -0.501809 0.437376 0.094291 -0.075745 0.134380 -0.435800 -0.302372 0.070583 0.240364 -0.100618 -0.334520 0.072140 0.461873 0.078489 -0.098309 -0.638747 -0.302336 -0.253258 0.710504 0.036142 0.099336 0.427888 0.353542 -0.107647 0.837086 -0.263248 0.041333 
oyster 0.641395 -1.126060 -0.388965 -1.183027 0.469795 1.109995 -0.240118 -0.044683 -1.175187 0.827877 0.503820 0.382700 -1.637841 -0.575703 -0.765913 0.637931 0.751209 0.673795 -0.185303 0.352978 0.629221 0.357150 0.059006 -0.305340 0.363033 0.152905 -0.089514 0.129531 -0.574180 0.342885 0.646186 0.341768 -0.299005 1.918219 0.482316 0.290891 0.615998 -0.011171 -0.709721 0.007148 0.439110 0.291991 0.327000 0.347571 -0.269178 0.272039 -0.141543 -0.561500 0.507821 -0.417576 -0.630753 0.046759 -1.039139 -0.691104 -0.351844 -0.640743 -0.862569 -0.493099 0.704820 -0.502313 
cottage_cheese -0.836529 0.132923 0.121296 -0.914088 -0.278928 0.344962 0.763319 0.653146 0.392086 -0.069657 0.322351 -0.029147 0.308143 0.494230 0.423559 -0.726763 -0.197484 0.180920 0.971071 -0.220737 -0.832134 -0.341147 -0.194175 0.167214 0.205252 0.161540 -0.398391 -0.350939 0.969212 -0.368034 -0.067141 0.347163 0.490761 -0.173973 0.081912 0.618532 -0.485211 -0.373794 -0.227856 0.047469 0.005186 0.833156 -0.192644 0.162210 0.058429 -0.491537 0.373089 0.120878 0.152041 0.029457 0.435904 -0.153272 0.201385 0.442833 -0.459971 0.637313 -0.347000 0.534113 -0.985624 -0.761491 
grape -0.499089 -0.594815 -0.504521 -0.876159 0.785027 -0.158987 -0.001012 -0.590228 1.274645 -0.177860 0.514082 -0.779239 -0.104360 0.277881 -1.175838 0.502491 0.201204 -0.340013 0.622916 0.155709 -0.560877 1.914546 -1.020848 0.187539 1.185596 0.446613 0.847476 0.506402 0.132938 0.753630 0.273520 0.504367 -0.249628 -0.801808 0.346789 -0.406906 0.680953 0.875401 -0.478442 0.670376 0.562607 -0.219817 -0.567825 -0.666319 -0.355371 -0.195222 -0.220311 0.569657 -0.666106 -0.047020 0.670834 0.696084 -0.519378 -0.546171 -0.116060 -0.467721 0.509270 -0.064126 0.402889 -0.026897 
brown_rice 0.069779 -1.034284 0.516226 -0.394795 0.170555 0.022794 0.457455 -0.533671 -0.663523 -0.044643 -0.267429 -0.483740 0.058528 0.881714 -0.715735 0.610253 0.129517 -0.060224 0.391819 0.354104 0.196503 0.514534 -0.656580 0.064837 -0.262962 0.037758 0.043963 0.887768 0.187628 0.045856 0.017791 0.367696 -0.484158 -0.330295 0.396609 0.487160 0.398952 0.852203 -0.834976 0.349343 -0.038261 0.331018 0.116965 -0.084348 -0.488936 0.614767 -0.114385 -0.130025 -0.696219 -0.334092 0.193255 -0.669214 0.542692 -0.783742 -0.677913 -0.475759 0.127820 0.275986 0.092888 0.306887 
cauliflower 0.089323 -0.348340 0.382837 0.437953 0.080475 0.268394 -0.287856 -0.437608 0.192333 0.604023 0.368137 -0.090664 -0.195790 0.338372 -0.785878 0.845110 -0.169969 0.282687 -0.168708 -0.890346 -1.107150 -0.244125 -0.727313 -0.113015 -0.710330 0.386776 1.033255 1.120117 -0.116584 -0.803328 -0.765204 0.956492 0.129276 -0.689926 -0.389463 0.286120 -0.272589 0.312703 0.060210 0.482376 0.129785 -0.255164 0.225430 0.026430 0.107184 0.389529 0.047317 0.227529 0.203319 -0.987377 0.653074 -0.351592 0.499415 -0.794812 -0.131216 -0.521885 -0.571997 0.334719 -0.408062 -0.519068 
cured_pork -0.967953 -0.042775 -0.092757 -0.076624 0.174632 0.429977 0.773588 -0.520803 -0.191702 1.323132 -0.769074 0.809285 -0.763964 0.491842 -0.364175 -0.483654 0.563926 1.276306 1.202891 0.584664 -0.287769 1.561259 -0.250258 -0.697115 -0.497211 -0.290013 -0.627358 0.030823 1.076167 0.309656 -0.841052 -0.119076 0.566399 0.043063 0.746485 -0.260314 -0.240428 -0.924414 -0.433425 1.106088 -1.073873 0.437509 -0.204390 -0.125752 0.003927 -1.032550 -0.029593 -0.725581 0.542542 -0.101854 -1.218135 0.792638 0.087681 0.257592 0.640202 0.386610 -0.353388 0.730373 -0.510124 -0.703525 
egg_noodle -0.372527 -0.199370 0.383130 0.355533 0.457386 0.170047 0.869111 0.001344 0.014685 0.622284 -0.924453 0.128820 -0.152485 -0.177128 0.006344 0.291942 0.341284 -0.106839 0.780531 0.089665 0.155005 -0.371567 -0.955490 -0.479399 -0.248020 -0.602110 -0.244960 -0.033556 0.084880 -0.240501 0.636225 0.100140 0.268362 -0.300977 -0.587534 0.333098 -0.140089 0.034882 -0.459144 0.113901 -0.498524 0.460456 0.767851 0.431121 -0.864978 0.195316 -0.234596 -0.733297 -0.397372 -0.958120 0.156412 -0.692508 0.259859 -0.005396 -0.458474 0.059292 -0.363316 0.680778 -1.176082 0.687484 
beer 0.487139 -0.123607 -0.234140 -0.110178 0.792200 -0.198331 0.239330 0.994954 0.228449 -0.384100 -0.875020 0.851385 -0.402400 -0.464829 -0.000097 0.786927 0.020313 0.253017 -0.518433 1.070097 0.112235 -0.122394 -0.173022 0.730023 0.011247 -0.871482 -0.354102 -0.033196 0.116349 0.415801 0.178883 -0.050862 0.027558 -0.456662 -0.721591 -0.334109 -0.177858 -0.562385 0.277567 -0.365238 -0.041043 0.231582 0.373399 1.245995 0.238126 0.298708 0.056347 -0.615068 0.102104 -0.018125 -0.357056 0.389265 0.308877 -0.503702 0.463971 0.158133 -0.141402 -0.543098 -0.596973 0.760955 
hazelnut -0.149419 0.440226 0.136541 -0.095837 -0.100723 -0.555845 0.559433 -0.694365 0.024633 0.350710 -0.132536 0.246813 -0.147383 -0.315245 -0.530509 0.075483 -0.551448 0.478001 0.483118 -0.819405 -0.047294 1.257146 0.583411 -0.797212 -0.079769 0.522016 -0.230380 0.663398 -0.146123 -0.023958 -0.036780 -0.421511 -0.353481 0.136297 0.697430 0.112179 -0.129387 -0.464092 1.182567 -0.345456 -0.192514 -0.510535 -0.175189 -0.235402 0.972488 0.593373 0.213460 -0.157386 -0.384527 0.160980 0.036641 0.541380 -0.297290 -0.191975 0.107538 0.638026 -0.018567 -0.033832 0.717041 -0.243593 
mandarin -0.415455 -0.800194 -0.194410 -0.194471 0.563052 0.556677 0.515621 -0.134791 1.438133 0.371256 0.090663 -0.839565 0.765721 0.270335 -0.574070 -0.752258 0.741163 -0.701639 0.772267 -0.366090 -0.511580 0.757896 -0.348837 -0.550390 0.929512 0.868915 1.204976 0.197374 0.309530 0.280350 0.507635 -0.028199 -0.052569 -1.143399 0.943214 -0.934318 0.428820 0.946432 -0.045606 0.668427 0.639643 -0.423709 0.225180 -0.692933 -0.765726 -0.032684 -0.061992 -0.700365 -1.000059 0.107224 1.155746 -0.901688 -0.838609 -0.252237 -0.519154 0.143381 0.534978 -0.590384 0.252096 -0.136274 
