249 25
</s> 0.016011 0.017678 -0.015321 -0.013112 0.005466 0.012084 0.003763 0.000845 -0.014414 0.008874 -0.017426 0.004998 -0.003005 -0.003829 -0.013263 -0.007529 0.010317 0.012101 0.011876 0.006390 0.006179 -0.015211 -0.016383 0.019879 0.015205 
egg -0.195698 -0.235632 0.134604 -0.147214 -0.169101 -0.015508 -0.329830 0.561397 -0.461688 0.261255 0.443626 0.339647 0.561063 0.336554 0.272086 0.071127 0.147396 -0.093150 0.051593 0.770943 -0.057469 -0.774046 -0.170111 -0.062339 -0.198234 
butter 0.269943 -0.172451 0.419309 -0.055676 -0.253483 -0.094657 0.190420 0.316887 -0.237361 0.193580 0.334679 1.006292 0.361230 0.403295 0.154881 0.329759 0.059200 -0.062258 -0.223095 0.468014 0.002186 -0.834710 -0.213234 0.339839 -0.238739 
wheat -0.023645 0.014985 0.073977 0.003461 -0.308843 0.148949 -0.252239 0.474652 -0.247160 0.139360 0.727093 0.317281 0.410634 0.153930 0.235902 0.206580 0.492343 -0.038169 -0.104513 0.341060 0.077536 -0.951850 0.125294 -0.018205 -0.088909 
onion -0.074730 0.209062 0.087999 -0.304150 0.076883 -0.355819 0.192066 -0.668381 -0.386213 0.493992 -0.494227 0.360464 -0.475276 -0.061314 -0.005517 -0.444867 0.509681 -0.378338 -0.281323 0.117251 0.597177 0.214262 0.188758 0.164006 -0.059881 
garlic 0.560526 0.265831 -0.134763 -0.188839 0.319092 0.165688 0.303246 -0.663904 -0.169341 0.762417 -0.348546 0.233089 -0.417520 -0.340121 -0.523409 -0.185309 0.378986 -1.038251 0.027472 -0.031441 0.560876 0.369609 0.378113 0.044225 0.243979 
milk 0.459576 -0.121355 0.507858 -0.148329 -0.255021 0.001777 -0.026042 0.440042 -0.244102 -0.210650 0.499134 0.582112 0.852809 0.320342 0.325975 0.214090 0.279242 0.372939 -0.243875 0.936097 0.228160 -1.073723 -0.406417 0.268854 -0.378791 
vegetable_oil -0.240229 0.162943 0.199153 0.075281 -0.244175 -0.130419 0.119954 0.083414 -0.581513 0.424311 -0.386597 0.681282 0.403074 0.285640 -0.348794 -0.077586 0.221775 -0.125887 0.214475 0.380802 -0.284675 0.292515 -0.229975 0.095506 0.256009 
cream 0.291792 0.173039 0.133975 -0.352966 -0.471437 0.207341 0.542373 0.472696 -0.632519 -0.269486 0.322450 0.562100 0.298347 0.331482 -0.080705 0.223867 0.351217 0.093935 -0.074903 0.783852 -0.351493 -0.602529 -0.249243 0.166658 -0.104037 
tomato 0.457011 0.435599 -0.467597 -0.356885 0.189125 0.225162 -0.342273 -0.963436 0.207506 0.560335 -0.720178 -0.297811 -0.657670 -0.688973 -0.202883 -0.344228 0.547551 -0.492759 -0.075547 0.496601 1.494968 0.164329 -0.010494 0.426234 0.037243 
olive_oil 0.226460 -0.125921 -0.424317 0.005682 0.360781 0.487124 -0.053817 -0.791585 0.496894 0.119353 -0.288767 1.153760 -0.085530 -0.350133 -0.605136 0.083412 0.894240 -0.698695 0.332320 -0.223489 0.189142 -0.014748 -1.146315 0.930448 0.515477 
black_pepper 0.370642 -0.146340 -0.065579 -0.276921 0.222704 0.015383 0.402718 -0.769859 0.086470 0.854116 0.160988 0.379550 -0.524852 -0.135408 -0.337091 -0.266347 0.578653 -0.633233 0.104384 -0.379265 0.035613 -0.063600 0.284871 0.105767 -0.241171 
pepper 0.042159 0.051180 -0.262202 -0.263401 0.254038 -0.062686 0.541136 -0.496323 -0.112941 0.385864 -0.758504 0.481161 -0.456914 -0.102554 0.096121 -0.178991 0.855480 -0.284590 -0.517399 -0.224799 0.285123 0.502210 0.579744 0.046118 -0.255071 
vanilla -0.311571 -0.398144 0.253821 -0.077397 -0.716310 -0.412374 -0.099273 0.932193 0.888696 -0.654606 1.595809 -0.082348 -0.151402 0.878276 0.814940 1.973882 0.569489 0.413081 0.276904 2.159040 0.154887 -0.374651 0.435292 -0.162448 -0.481429 
cayenne 0.570139 1.038231 -0.054753 -0.700151 0.234569 -0.593659 -0.110999 -0.303359 -0.154025 0.752063 -0.474893 -0.121617 -0.104993 -0.450751 -0.730648 0.061394 0.426383 -0.350946 -0.005736 0.443806 0.412944 1.049112 0.480666 -0.187713 0.268942 
vinegar -0.204638 -0.062661 -0.737531 0.696898 -0.374096 0.040332 0.604385 -0.281512 -1.075427 1.452658 -0.370789 0.325042 -0.803722 -0.218889 -0.788305 0.018652 0.056996 -0.355499 0.621030 0.332346 0.362025 0.564368 0.635620 -0.193883 -0.164945 
cane_molasses -0.114464 -0.582791 0.567361 0.860993 -0.438101 -1.056721 -1.219682 0.263641 -0.164317 1.297910 -0.509811 0.160254 0.602155 0.005639 0.016408 0.529442 0.233375 0.461129 0.191997 0.577636 0.044750 -0.429647 0.119025 -0.432575 -0.192108 
bell_pepper 0.252214 0.198015 -0.321751 -0.393004 0.522450 -0.229601 0.126100 -0.260011 -0.071631 0.575501 -0.730076 0.290093 -0.125112 -0.423166 -0.712436 -0.115612 0.484136 -0.646414 -0.014351 0.133084 0.382755 0.483100 0.182636 0.417569 -0.045730 
cinnamon -0.087462 0.121848 -0.098016 0.298094 0.506824 -0.826927 -0.701490 0.604176 0.543236 0.814850 1.214737 0.333831 -0.335712 1.215032 0.578645 1.591130 0.670439 -0.821865 -0.001621 0.155016 -0.522555 -0.162359 0.422574 0.514526 -0.468021 
parsley 0.095696 -0.374977 -0.417428 -0.752710 -0.007737 0.132185 0.481353 -0.859215 -0.212655 0.075448 -0.067911 0.518461 0.032366 -0.502653 -0.077321 -0.405766 0.484375 -0.640563 0.346271 -0.001041 -0.210073 -0.646954 -0.342843 0.498226 -0.230904 
chicken -0.089954 0.185146 -0.623478 -0.352998 0.502424 0.304694 0.145641 -0.329682 0.362412 0.698739 -0.314197 0.564146 0.004556 -0.296726 -0.272558 -0.201752 -0.042591 -0.096031 -1.098958 0.060287 -0.382477 0.662100 0.007570 -0.437582 0.273348 
lemon_juice -0.365386 -0.017087 -0.531308 -0.540752 0.111834 0.248482 -0.554750 0.206026 -0.331640 0.129027 -0.308720 0.843884 -0.363148 -0.450816 -0.152173 0.127422 0.583808 -0.139913 0.830253 0.043213 -0.613494 -0.212542 -0.406044 -0.156917 0.006555 
beef 0.533208 -0.408555 -0.370870 0.529459 -0.108878 0.021744 0.392956 -1.378507 -0.315402 1.252264 -0.090247 -0.347208 -0.081497 0.227632 -0.442510 -0.128169 0.051056 -0.144660 -0.321197 -0.008984 0.856934 0.636847 0.039955 -0.229578 0.124343 
cocoa -0.827449 -0.011604 0.442907 -0.556362 -1.212100 0.374065 0.328892 1.210765 1.093503 -0.194506 1.105907 -0.065152 -0.119967 0.393153 -0.116273 1.686041 0.005768 0.115481 -0.001674 1.226646 0.805974 -0.918375 1.541530 -1.114625 -1.692812 
corn 0.157587 1.042483 0.635523 0.756813 -0.816847 -0.107358 -0.276690 -0.193716 0.007752 0.646528 -0.778538 0.101331 0.098558 0.253692 -0.735651 -0.429813 0.460868 -0.040180 0.101465 0.390002 0.953936 -0.341107 0.251892 -0.318213 -0.464951 
bread -0.248316 -0.159304 0.391559 0.173215 0.022255 0.480680 -0.028086 -0.502424 -0.311643 0.385363 -0.359157 0.270764 -0.414157 -0.103300 -0.144799 -0.667689 0.801996 -0.273821 -0.153421 -0.021916 0.254209 -0.833946 -0.182946 0.188372 -0.696498 
scallion 0.165881 0.081414 -0.110711 -0.841423 0.555208 0.129558 0.342319 -0.131840 -0.349366 0.172660 -0.022981 0.337010 0.220699 0.161902 -0.918509 -0.187680 -0.028714 -0.557463 0.298360 0.660688 0.087795 0.953933 0.527764 -0.761675 0.692366 
mustard -0.870482 -0.270812 0.403494 -0.052465 -0.232445 -0.270851 0.205517 -0.172663 -1.117201 1.073363 -1.120438 0.259291 -0.646146 -0.045670 -0.295893 0.164001 0.020415 -0.500166 0.709555 0.568172 -0.397768 -0.180941 0.078683 -0.018972 -0.883919 
ginger 0.136013 0.180140 1.354454 -0.339807 0.102687 -1.169715 -0.665477 0.216512 -0.205047 0.673633 0.515192 1.027167 -0.086400 0.118402 -0.869725 1.257098 0.191354 -0.971025 -0.077430 0.091317 -0.836720 1.396949 0.808648 -0.688057 0.677520 
basil 0.484271 -1.131922 -0.724937 -0.261006 0.940523 1.319569 -0.308557 -0.745386 0.674587 0.410857 -0.530510 0.107154 0.163590 -0.688394 -0.523685 -0.321266 0.884327 -0.885562 -0.028942 -0.476801 0.844842 -0.118444 -0.506866 0.394682 -0.371469 
celery -0.078595 -0.418902 -0.817408 -0.453081 -0.145255 -0.721761 0.281108 -1.168805 0.162854 0.838812 -0.469893 0.861112 0.299223 -0.535391 0.302842 -0.652202 0.440897 0.819577 -0.831185 -0.043806 0.196488 -0.071275 -0.129196 0.386272 0.354769 
carrot -0.267435 -0.458573 -0.551144 -0.431009 -0.211810 -1.071876 0.828325 -1.168857 0.050864 0.320342 0.253184 1.081703 0.081316 0.209621 0.091969 -0.164178 0.178351 -0.326229 -0.481468 -0.606778 0.363363 0.533310 0.184021 0.230503 0.764128 
potato -0.245033 -0.294408 0.110934 -1.296384 -0.000805 -1.092430 0.427121 -1.006872 0.293996 0.384663 -0.113567 -0.035532 0.215647 0.376852 0.089911 -0.817790 1.006108 -0.020430 -1.070290 -0.287965 0.044759 -0.442045 -0.319108 -0.320198 0.129224 
chicken_broth 0.606402 0.421533 -0.542186 -0.342002 0.982227 -0.254894 0.995059 -1.153380 0.711302 0.604879 0.420206 1.282087 0.062865 -0.244147 -0.130746 0.132485 0.323281 -0.200175 -0.878566 -0.174795 -0.529113 -0.231455 0.115485 0.203202 0.402431 
yeast -0.204849 -0.074418 0.668089 0.404084 -0.327657 0.247817 -0.141995 0.322505 -0.401136 -0.149782 0.403149 -0.046038 0.498345 0.105286 0.068942 0.117582 0.647509 -0.480322 0.030562 0.287094 0.442126 -1.050926 -0.355335 -0.313236 -0.906795 
rice -0.370854 0.268552 -0.084180 -0.228268 0.265544 -0.981891 0.140819 -0.372671 0.243744 -0.083216 -0.017274 1.243547 0.787352 -0.411076 -0.954860 -0.347316 -0.008345 -0.076602 0.144952 -0.167193 0.137224 0.728513 1.041353 -0.445373 0.554203 
mushroom 0.611560 -0.974903 0.029966 -0.516827 0.899108 0.383843 0.946711 -0.998691 0.218223 0.280776 -0.043625 0.369050 0.582565 -0.422202 -0.216153 -0.498472 0.155601 0.020483 -1.223854 0.327464 0.099999 0.025228 0.326623 -0.161783 -0.269314 
cheese 0.320064 0.308480 0.219654 -0.076053 0.917093 1.134200 0.367009 -0.118408 -0.027757 -0.295943 -0.034398 -0.457688 0.437101 -0.118077 -0.499993 -0.289224 0.842701 -0.156345 -0.375178 0.769972 0.284106 -0.662346 -0.671966 0.162393 -0.296953 
soy_sauce -0.353008 -0.215453 0.980965 0.018159 0.607498 -0.764159 0.312487 -1.061759 -0.879414 0.320232 0.209749 1.031450 0.183213 -0.190941 -1.139858 0.397241 -0.979400 -0.321475 0.705399 0.755458 0.262630 1.887678 1.711547 -0.823961 0.912374 
cumin -0.373910 2.230265 -0.295026 -1.001533 -0.001142 -0.894455 -0.171640 -0.801945 0.168122 -0.060492 -1.564629 0.405012 0.142475 -0.450713 0.227147 1.573916 0.643800 -0.471644 -0.291626 0.275002 0.559296 1.604546 0.052972 0.174147 0.509847 
oregano 0.547055 -0.279911 -0.338082 -0.202866 0.988544 0.406464 -0.540501 -1.062766 0.373294 0.430927 -0.634615 -0.403791 -0.017954 -0.354721 -0.184567 -0.466373 0.604505 -0.871166 -0.175578 0.021755 1.306618 0.398312 -0.565840 0.676712 -0.515026 
parmesan_cheese 0.442086 -0.884909 -0.155198 -0.447273 1.523408 1.307951 0.395003 -0.816594 0.771083 -0.741811 -0.271459 0.141125 0.195545 -0.916140 0.130270 -0.749928 0.839026 -0.178876 -0.444793 0.504270 0.384284 -0.880274 -0.548280 -0.062445 -0.160163 
macaroni 0.020982 -1.110812 0.093989 -0.579971 1.389102 0.390960 -0.123325 -0.248207 0.603315 -0.646709 -0.527759 0.226612 0.074598 -0.774952 -0.534861 -1.080696 1.406218 -0.213687 -0.634030 -0.346338 0.444872 -0.128106 -0.384117 0.339496 -0.232109 
thyme 0.549775 -0.545447 -0.177657 -0.224912 0.375594 0.002709 0.486576 -2.039581 0.865868 0.594288 0.335326 1.055318 -0.695769 -0.509920 0.073816 -0.464682 0.592143 0.082425 -0.395506 -0.943629 0.639377 -0.969445 -0.416801 0.602898 -0.565251 
cheddar_cheese 0.038586 0.292868 0.475622 -0.327825 1.090662 0.310504 0.874209 0.149699 0.039302 0.377770 -0.931389 -0.781453 0.458143 0.611157 0.385307 -0.970443 0.707233 0.499353 -0.933436 1.182606 0.794883 -0.098505 -0.643324 -0.498457 -0.370666 
lard -0.165282 -0.035552 0.405225 0.316493 -0.684228 -0.195924 -0.260405 0.330450 0.070298 0.056395 0.870631 0.085860 0.781220 0.445453 0.223374 0.650332 0.563108 0.107625 0.093186 0.452413 0.396390 -1.037585 -0.150569 0.453247 -0.372996 
lemon 0.028966 0.084080 -0.760918 -0.919647 -0.118951 -0.028314 -0.596371 -0.135339 -0.629642 -0.223108 0.406657 0.675338 -0.302948 -0.334816 -0.126597 0.562087 0.471200 0.110407 0.761111 -0.106415 -0.366928 -0.248302 -0.331099 0.280053 -0.292277 
cream_cheese 0.168303 -0.828779 -0.131214 -0.182089 -0.326956 0.510897 -0.436996 0.964686 -0.492749 -0.061222 -0.113915 0.048192 0.914201 0.106009 0.035379 0.107359 0.660042 0.468475 0.214069 1.033697 -0.528115 -0.309417 -0.374846 0.594911 -0.549716 
walnut -1.207177 -0.068096 -0.839094 0.961676 -0.044697 0.136666 -0.777169 0.370470 0.627101 -0.330639 1.239921 0.418379 -0.406854 1.210896 0.570372 0.538656 0.710092 0.152843 0.146355 0.918081 0.032684 -0.719296 0.191106 0.079009 0.253052 
green_bell_pepper 0.257856 0.181156 -0.573065 -0.278836 0.661840 -0.481399 0.050797 -0.636306 0.015955 0.962363 -0.900360 -0.608047 -0.009538 -0.437188 -0.036394 -0.822351 1.027792 0.376093 -0.507405 0.213788 0.911067 0.489103 0.364297 0.361794 0.045253 
starch 0.170368 -0.253695 0.756450 0.068776 0.228600 -0.820151 -0.343968 0.086139 -0.834548 -0.141784 0.712435 1.201836 0.137957 -0.182986 -0.124331 0.372218 -0.611918 0.323151 -0.161907 0.300218 -0.227168 0.208687 0.751020 -0.082245 -0.140428 
nutmeg 0.740340 -0.206290 -0.095905 0.337204 -0.026834 -0.382228 -0.949467 0.081929 0.232572 0.477204 0.908098 1.064386 0.175342 1.337078 0.839448 1.063256 0.520894 -0.435266 -0.416891 -0.229917 0.097093 -0.590116 -0.334036 0.133594 0.208405 
honey -0.639661 0.105285 0.125747 0.870505 0.010299 -0.323649 -0.701273 0.510524 -0.282033 0.492017 0.614290 0.881678 -0.293474 -0.506476 -0.499897 0.457680 0.208470 -0.380711 0.300670 0.135157 -0.014292 0.420136 0.045687 -0.856993 0.183419 
apple -0.697981 -0.379561 -0.479522 0.738205 -0.208243 -0.780950 -1.039488 -0.091488 -0.412366 0.132979 0.667293 0.796975 -0.784689 0.644311 0.901421 0.564569 0.517353 -0.190071 -0.555543 0.304636 -0.329357 0.309690 0.045782 -0.261311 -0.215559 
almond -0.894719 0.286196 -0.651211 0.430959 0.471554 -0.183775 -0.394537 0.515767 0.036973 -0.552013 0.449325 1.116554 0.029656 0.301794 0.326059 0.834225 0.409450 0.340904 0.365979 0.480374 -0.674539 -0.165231 0.389163 -0.046124 -0.262692 
cilantro 0.491770 1.892257 -0.186228 -0.616905 -0.179593 -0.520046 -0.129950 -0.186167 0.675952 0.155995 -0.653013 0.100050 0.171147 -0.548033 -1.445399 0.690048 0.949337 -0.550109 0.036502 0.556497 0.038998 1.818910 0.196805 -0.118804 0.554640 
pecan -0.438858 -0.050760 0.164350 0.888844 -0.314461 0.060030 -0.723651 0.378457 0.666906 0.027991 1.048303 -0.029712 -0.498268 1.043976 0.555886 0.875190 0.466830 0.546846 -0.297371 1.285017 -0.045253 -0.654455 0.259834 0.178578 0.149621 
white_wine 0.082569 -0.458839 -0.404003 -0.507630 0.553295 -0.249599 -0.176272 -1.225609 -0.037945 -0.593117 -0.457473 0.828905 -0.095247 -0.753653 -0.397685 -0.252165 0.849095 -0.163415 0.654490 -0.194779 -0.794421 -0.801337 -0.033654 0.321398 0.124988 
bacon -0.056636 -0.254424 0.156915 0.062805 0.369074 -0.038644 0.875254 -0.814451 -0.367445 0.496138 -0.419538 0.326519 -0.464139 0.643505 -0.031823 -0.573121 0.516184 0.511972 -0.276349 0.544812 0.598463 -0.442026 -0.944852 -0.135594 0.047639 
pork 0.646417 -0.579490 -0.022539 0.956986 -0.310728 -0.535457 0.009723 -1.352447 -0.395635 1.596159 -0.013615 0.223682 -0.182156 -0.003573 -0.607980 0.513368 -0.404298 -0.234559 -0.359307 0.047509 -0.000678 0.508844 -0.053961 -0.530843 0.303246 
raisin -0.994990 0.041417 -1.288008 0.430503 0.296023 -0.539129 -0.918290 0.410384 0.855008 0.580147 0.747990 0.458498 0.215356 0.858999 0.845313 1.384500 0.494361 0.205276 -0.325227 0.299088 -0.095145 -0.297885 -0.169186 -0.265918 0.307122 
bean -0.008202 0.364994 -0.631564 0.354513 0.650234 -0.810863 0.611587 -0.727846 0.452974 0.786733 -0.355462 0.087696 0.058672 0.103684 -1.189702 -0.198087 -0.097700 -0.135312 -0.511296 -0.009794 0.913530 0.154937 0.121746 -0.203388 -0.126812 
rosemary 0.442525 -0.665887 -0.780381 0.209844 0.652287 0.521892 -0.058220 -1.949494 0.728594 0.559301 0.711052 0.640584 -0.388741 -1.058238 0.329191 -0.937133 0.600136 -0.632977 -0.942786 -0.397244 0.511787 -0.875635 -0.013649 1.226292 -0.636300 
fish 0.987517 -0.049599 -0.923291 -0.873493 -0.078739 -0.019614 0.084598 -0.672279 0.028321 0.047050 0.048524 0.003156 0.463193 0.156749 -1.807584 0.008371 0.385546 -0.500183 1.014951 0.557428 -0.850915 0.706233 0.222355 -0.757966 0.926032 
cucumber -1.195558 -0.553826 -0.736524 -0.605147 -0.865489 -0.018759 -0.314397 0.070693 -0.077153 0.531359 -0.845430 -0.050826 0.943369 0.097296 -1.165844 -0.213489 -0.691616 -0.899383 1.814879 0.991072 -0.908502 0.233402 -0.637489 -1.174642 -0.684869 
olive 0.035685 -0.583273 -0.899481 -0.046324 0.866443 0.780390 0.093870 -0.107588 0.427998 0.490605 -0.921081 -0.104406 0.331788 -0.627243 -0.554374 -0.207132 1.431678 -0.471059 0.708937 0.056932 0.503654 0.093892 -1.045514 0.384839 -0.231550 
coconut -0.509620 0.667185 0.183281 -0.424906 -0.424886 0.230249 -0.020181 1.193205 1.080187 0.883678 -0.109987 0.900618 0.561847 0.751052 0.191622 1.584153 0.290294 0.290851 -0.446453 0.670019 -1.183514 1.233027 1.410787 -0.191051 -0.044929 
orange -0.100446 0.017744 -0.433897 0.387214 0.060560 0.093496 -1.077132 -0.018973 -0.372109 -0.628170 1.126566 1.491195 -0.557091 0.376173 -0.671209 1.212831 0.483543 0.962906 0.251614 -0.466788 -0.065719 0.297448 -0.370007 -0.471369 -0.548870 
tamarind 0.348493 0.016745 0.229348 0.805699 -0.435953 -0.880114 -0.108075 -0.975736 -0.525101 1.974164 -1.769856 -0.654984 -1.225732 -0.096658 0.052280 -0.260820 0.374927 -0.245673 0.671716 0.415975 0.383934 -0.069589 1.111599 -0.151836 -0.426541 
vegetable -0.443227 -0.482906 0.146090 -0.562583 0.516521 -0.655315 0.753531 -0.459833 -0.062580 0.237308 0.582642 0.546524 0.528972 0.502035 -0.592818 0.120306 0.056041 -0.498495 0.023393 -0.302558 0.489130 0.417616 0.443401 -0.108354 0.558387 
orange_juice -0.525356 -0.235456 -0.232920 0.205140 0.455220 -0.249526 -1.306126 0.254913 -0.215526 0.355004 0.737115 0.961012 -0.849790 -0.602903 -0.542972 1.359119 0.495368 0.805423 -0.170416 -0.065925 -0.908044 0.590662 0.448508 -0.095632 -0.431505 
buttermilk -0.000283 0.057518 -0.343634 -0.228651 -0.438450 -0.195373 -0.051548 0.743724 -0.302088 -0.004444 0.534207 -0.028980 1.046067 -0.031353 0.452478 0.374106 0.334713 -0.087667 0.332586 0.660652 0.309669 -0.624246 -0.580773 -0.212686 -0.715504 
pineapple -0.163321 -0.769957 -0.531507 0.012510 -0.829797 -0.886874 -1.092807 0.692865 -0.204912 -0.449884 0.167730 0.978690 -0.643163 0.436740 -0.732361 0.150936 0.369153 1.628763 -0.424472 0.713514 -0.247162 0.992095 0.693421 -0.171444 -0.864776 
shrimp 1.843321 -0.558764 0.070342 -1.300370 0.342233 -0.940373 0.303482 -0.581653 0.427244 -0.210863 -0.565508 -0.183733 -0.264221 -0.032051 -1.476099 -0.221758 0.708145 -0.288723 1.100848 0.739471 -0.753270 0.768303 0.858684 -0.658806 0.066289 
coriander -0.332902 1.455259 -0.813908 -0.079175 -0.484935 -0.918011 0.104478 -0.722977 1.209926 -1.126203 -1.823634 1.562052 0.167079 0.780408 0.214707 1.596801 1.542016 -1.201040 -0.535909 -0.170560 -0.402714 2.546774 0.704970 0.292103 1.211031 
bay 1.161740 -0.484262 0.516876 -1.346467 0.481892 -2.000204 0.274905 -1.484933 0.804262 1.387304 -0.733819 0.912587 -1.501604 -0.234639 0.567416 0.488797 0.445632 -0.440212 -0.179064 -0.440354 -0.031621 -0.121126 -0.500104 0.572614 -0.596286 
lime_juice 0.149415 2.012604 -0.011501 -0.599691 -0.231724 0.124139 -0.155579 0.360371 1.043939 1.025888 -0.517711 0.583418 -0.094148 -1.461191 -1.574277 0.710085 0.815800 0.760682 0.218981 0.756970 -0.685450 2.205611 0.515958 -0.279619 -0.469729 
red_wine -0.774801 -0.310765 -0.717831 0.617741 0.117284 -0.524757 -0.585759 -1.659772 -0.005488 0.171813 -0.405750 0.418858 -0.677727 -1.006877 -0.860116 0.378651 0.743650 0.180511 0.218879 -0.230146 0.144979 -0.513770 -0.298143 1.143896 0.176737 
gelatin -0.389489 -0.832135 -0.417608 0.031539 -1.098359 0.050741 -0.106435 1.010897 0.451032 -0.663913 1.295611 0.713227 0.151373 0.543677 -0.038201 0.264319 0.615204 1.183688 0.367020 1.282561 -0.115259 0.689350 0.661748 0.517203 -1.352409 
pork_sausage 2.169113 -0.006601 -0.477904 0.674960 1.703415 -0.001241 1.344244 -1.595236 0.724089 0.316853 0.163668 -0.112021 -0.870648 0.350105 0.606120 -0.997858 1.336642 0.276739 -0.707055 0.174666 1.024627 0.313409 -0.490690 0.054933 -1.078584 
sesame_oil -0.123225 0.160434 1.377701 -0.452070 1.070152 -0.777487 0.187026 -0.919918 -0.070495 0.071188 1.537125 1.040730 0.448096 0.022025 -1.789299 0.106441 -0.231004 0.511708 1.063993 0.564915 0.990099 2.691620 1.587984 -0.799817 2.261382 
chive -1.204123 -0.082451 -0.540611 -1.632922 -1.429394 0.483485 1.085783 0.081699 -0.557390 0.395361 0.031995 0.101101 -0.403415 0.367047 -0.280626 -0.070784 0.025468 -0.069079 0.858869 1.101106 -0.596335 -1.594268 -0.428690 0.958491 0.282939 
seed -0.926838 0.392620 -0.627085 0.546117 -0.933752 -0.967763 0.597726 0.018559 -0.469281 0.195283 0.304267 0.409632 -0.350199 -0.864484 0.473201 0.530679 1.749477 0.175439 0.801362 -0.038239 0.245614 0.743173 -1.258295 -0.381627 0.450649 
mozzarella_cheese 0.554284 -1.496695 0.480251 -0.202373 2.216741 1.197180 -0.492793 -0.791874 0.446488 -0.072286 0.029204 -1.264387 0.152004 -0.923302 0.312999 -0.655075 1.318472 -0.168299 -0.471463 0.394341 1.217347 -0.505990 -0.906259 0.168757 -0.579677 
ham 0.172796 -0.293914 0.136166 -0.218918 0.660865 0.785685 0.982991 -0.490458 -0.647590 -0.174236 -0.316511 0.422307 -0.493030 1.001814 -0.366445 -0.484043 0.706157 0.507908 -0.581741 0.503905 0.156009 -0.252061 -0.769049 0.036767 -0.356575 
oat -0.744854 -0.416506 -0.455478 0.977142 -1.570370 -0.854104 -0.183643 0.528009 0.927507 0.238222 1.162645 0.836149 0.075000 0.064279 1.597978 0.984853 0.200749 -0.045943 0.670377 0.842143 1.292256 -0.732733 0.347039 -0.201289 -0.132441 
turmeric -0.235422 1.399553 -1.016972 -1.695814 -0.347887 -0.252089 0.627882 -0.316068 1.512205 0.634639 -1.302222 2.393717 0.240584 0.819498 1.147619 0.958436 0.644143 -0.857674 -0.321136 -0.341653 -1.263316 3.254762 1.137197 0.938467 0.788556 
nut -1.056180 -0.282268 -0.040061 0.512833 0.622263 -0.290347 -0.291816 0.050585 0.158797 -0.691973 0.705244 1.002683 -0.112079 -0.776124 -0.281060 -0.142248 0.623710 -0.309820 0.025228 -0.212345 0.258257 -0.533170 0.269313 -0.741765 0.619507 
shallot 0.267808 -0.361373 -0.071886 -0.895856 -0.185400 0.260688 0.176021 -1.625953 0.437226 -0.123875 -0.014724 0.778566 -1.091395 -0.380050 -1.279610 0.597923 0.575227 -0.377448 -0.059383 0.027116 -1.153984 -0.576468 0.161814 0.053321 -0.009433 
lettuce -1.941122 -0.292694 -0.443667 -0.033846 0.359928 0.250523 0.111065 -0.016838 -0.839255 -0.411519 -1.012994 0.292975 -0.370050 -0.777214 -1.464072 0.088724 0.349546 -0.353193 0.560506 0.942416 0.022026 1.027002 -0.127120 -0.314549 -0.485755 
cider -1.132649 0.263058 -0.408724 1.702689 -0.338934 -1.393342 -0.308129 -0.839819 -0.443252 1.051718 -1.009747 0.801882 -0.852964 -0.087907 -0.147066 0.218916 0.458130 0.634457 0.907563 0.156738 -0.121312 0.365679 -0.323304 0.018435 0.131489 
dill -1.035311 -0.511654 -0.228978 -1.313196 -0.707769 0.161267 0.691586 -0.527967 -0.446748 -0.019688 -0.808280 0.334477 -0.508948 -0.135378 0.334814 -0.589118 0.955132 0.033961 0.952075 0.390285 -0.268035 -0.222856 -0.492695 -0.091304 -0.232215 
pea -0.495961 -0.373171 -0.949668 -0.734689 0.684752 -0.329324 0.946942 -0.510433 0.454187 0.223924 -0.587686 0.524390 0.705228 -0.367995 -0.251260 -0.367262 0.473953 0.182277 -0.467108 0.273723 -0.179618 0.510149 0.573503 -0.276911 0.780750 
zucchini -0.054728 -0.358731 -0.222073 -0.811104 0.708642 -0.115517 -0.160634 0.141171 0.847638 0.118404 -0.345947 0.676950 0.353729 -0.298622 -0.116915 0.210172 0.665930 -0.818079 -0.681870 -0.880358 0.687604 -0.020088 -1.093841 -0.115330 0.055436 
cherry -0.783476 -0.623440 -0.774607 0.374129 -0.329404 0.733573 -0.945003 0.654037 0.760595 0.047720 0.913375 0.349301 -0.782598 0.778871 -0.409455 1.547009 0.230763 1.348866 0.253376 1.267814 -0.093127 -0.084582 0.523652 0.336239 -0.237854 
lime 0.738906 1.266190 0.013566 -0.729759 -0.890244 0.546726 -0.131573 0.549456 0.342421 0.531181 0.075750 0.767708 -0.073722 -0.577888 -1.798530 0.675880 0.738750 1.029498 0.323199 0.278460 -0.524280 1.867880 0.109144 -0.614147 -0.756427 
yogurt -1.049500 0.957026 -0.877215 -0.318794 -0.505386 0.049865 -0.864902 0.186943 -0.278638 -0.367588 0.155424 1.303908 -0.089078 0.012636 0.443457 0.037868 0.517746 -0.811805 0.474643 0.524452 -0.436770 0.918607 -0.667377 0.226261 0.110175 
strawberry 0.267631 -1.074868 -0.442141 0.010892 -1.175917 0.730277 -1.455616 0.450666 0.110526 -1.271928 2.205410 0.803493 -0.965298 -0.365452 0.471554 0.277856 0.349442 0.204128 0.396408 2.196795 -0.387145 1.297602 -0.100834 -0.482888 -1.184158 
soybean 0.087516 -0.694417 1.027265 0.223504 0.500008 -0.207940 0.348485 -0.710425 0.064544 0.273763 1.113506 0.824452 1.011303 -0.019082 -0.336287 0.805894 -0.433996 -0.233939 1.368995 0.530354 0.696687 2.245622 0.027425 -1.104776 2.007528 
celery_oil 0.003499 -0.732335 -0.437539 1.790605 0.643801 -1.849757 -0.510119 -1.016888 -1.489153 2.845920 -1.223196 -1.436269 -0.256623 -0.637292 -0.237988 0.053723 -0.295235 0.973977 0.719291 1.645926 0.053331 1.177491 0.424413 0.338804 -0.623511 
peanut_butter -0.492005 0.532916 0.212910 1.200563 -0.399206 -0.136423 1.353644 1.274607 1.632922 -0.488140 0.140338 0.690542 0.833663 0.149930 0.393882 0.192525 -0.578525 -0.211611 -0.356634 1.788515 0.284927 0.952988 1.303114 -1.808252 0.131390 
banana -0.399749 -0.500953 0.011615 -0.062564 -0.838220 -0.500315 -0.963263 1.185936 0.863907 -0.334939 1.173609 0.665287 -0.195528 0.162594 -0.028932 0.505470 0.351470 0.465842 -0.486926 0.967503 -0.437346 0.733208 0.108740 -0.209269 -0.811258 
meat 0.441608 -0.160346 -0.188338 0.620639 0.057375 -0.159838 0.140273 -1.481749 -0.632395 0.470553 0.156575 0.393318 -0.527325 0.101995 -0.365367 0.248292 0.249709 0.341669 -1.039846 -0.206527 0.824124 -0.033986 0.246384 -0.359544 0.123204 
tabasco_pepper 0.745761 0.121154 0.277241 -0.183515 -0.245765 -0.109686 -0.176881 -0.270928 -0.833412 1.520947 -1.237145 -0.363078 -0.974081 0.030794 -0.251994 -0.254526 0.693990 0.214791 0.456462 0.521108 0.358565 0.478580 0.348208 -0.722223 -0.346519 
milk_fat 0.704307 0.040123 0.218392 -0.320338 -0.049873 0.829264 0.198279 0.031154 -0.408805 -0.370768 0.829889 0.368427 0.288907 0.999395 -0.342114 1.184882 0.428873 -0.550740 -0.367173 0.079372 -0.786693 -1.308312 0.083073 0.083220 -0.407634 
cabbage -0.663223 -0.237608 -0.872565 0.321823 -0.345755 -1.420722 0.549806 -1.033196 -0.351471 0.365850 -0.275306 0.523529 0.189226 0.328794 -0.436271 -0.307803 0.219490 0.126086 -0.032625 0.065590 0.167678 1.124802 -0.147313 -1.188679 0.362156 
mint -0.137761 0.826731 -0.963809 -0.554984 -0.305031 -0.053849 -0.600139 0.056478 -0.112687 -0.367157 0.907071 0.657706 -0.369719 -0.931026 -1.443801 0.778409 0.568125 -0.900604 0.708926 0.069869 -0.384110 0.683651 -0.434875 0.116250 0.115061 
fennel 0.461150 -0.976924 -0.302669 -0.725410 0.029374 0.357266 -0.104543 -2.151729 0.796160 0.103301 -0.323548 0.534299 0.915545 -0.812441 -0.595764 1.029672 0.750601 -1.297162 -0.302534 -1.096128 1.054347 -0.960818 -0.644726 0.565217 -1.252309 
sage -0.196638 -0.489517 0.292153 -0.572143 1.537855 -0.360983 0.164622 -2.263022 0.738257 0.946005 0.624047 1.070949 -0.543510 0.095118 0.650530 -0.470493 -0.483343 0.486504 -1.459680 -0.633511 -0.270614 -1.348240 -0.136172 1.011135 -1.854566 
broccoli -0.745608 -0.668230 -0.514837 -0.474273 1.229448 0.370761 0.606375 0.395465 -0.019116 -0.585032 -0.590721 0.630437 0.819068 -0.461539 0.164962 -0.795509 0.445664 -0.147087 -1.304232 0.153523 0.160651 0.824042 0.310795 -1.524522 -0.276213 
turkey -0.011379 -0.275716 -0.693235 0.697820 0.705114 -0.054676 0.117076 -1.168936 0.253618 0.925506 0.043934 0.567300 -0.131617 0.011034 -0.131685 -0.599967 -0.147225 0.133478 -1.078097 0.145042 0.001206 0.309814 -0.743264 -0.240178 -0.837561 
fenugreek -1.443732 1.773158 0.298095 -1.196307 -0.058234 0.897905 -2.075277 -2.079837 0.362474 1.382142 -0.513348 0.104928 1.489132 -0.554725 1.307594 0.803547 1.294380 -1.399559 -1.786226 1.409606 -2.068993 1.912266 1.413409 0.956612 2.054639 
cranberry -0.659644 -0.784301 -0.499910 0.745646 0.421689 -0.100704 -1.401014 -0.293608 -0.135946 0.414962 1.178246 1.054965 -0.737775 0.391505 0.646209 0.678752 0.220121 1.122636 -0.296420 0.553085 -0.533576 0.490875 -1.025493 -0.104246 -0.707538 
wine 0.184500 -0.122071 0.041869 0.433453 -0.069386 -0.555793 -0.334415 -1.194613 0.020850 -0.036642 0.427854 1.136675 0.176983 -1.232594 -1.312508 0.121762 -0.169288 0.391738 0.253993 0.189786 -0.743080 0.073285 0.172945 0.011200 0.285609 
beef_broth 0.783009 -1.026921 -0.289401 0.344448 -0.399704 -1.247596 0.339676 -2.427361 -0.551557 0.616521 0.749145 -0.094310 0.308200 -0.245481 -0.511819 0.159337 0.454387 -0.396787 -0.791756 -0.326777 0.738126 0.141675 0.405964 0.430174 0.692494 
grape_juice -0.791036 -0.796760 -1.079193 0.793735 0.417919 0.559940 0.013995 -1.121854 0.060321 -0.158286 -0.241275 1.050008 -0.546410 -1.287283 -1.232925 0.540960 0.370153 0.024911 0.240774 -0.240083 0.187375 -0.306362 -0.584009 0.364772 -0.090500 
pumpkin 0.674161 -0.553930 0.120743 -0.636167 0.225744 -1.463993 -1.138703 0.363540 0.137902 -0.455683 1.421202 -0.138507 0.352575 1.381683 0.370763 0.849498 -0.110971 -0.458147 0.049086 -0.080083 0.598339 -0.412999 0.620676 -0.797137 1.109622 
raspberry 0.014368 -1.063448 -0.190000 0.305541 -0.375642 0.019123 -0.620971 0.596904 -0.245219 -1.876790 1.400250 1.206521 -0.543755 -0.270155 -0.139650 0.900248 0.330419 0.163978 1.029414 0.950606 0.004249 0.300667 -0.107396 -0.001016 -1.458874 
whole_grain_wheat_flour -1.271449 0.201085 0.139508 0.818945 0.007626 -0.506433 -0.216756 0.619336 0.122445 0.368879 1.507049 -0.259307 0.420289 -0.840449 0.446242 -0.126542 0.846978 -0.877801 0.233647 0.227925 0.805896 -0.795357 0.026974 -0.199791 -0.601987 
lemon_peel -0.356113 -0.010640 -0.644468 -0.911861 0.646617 0.328550 -0.434791 0.298528 -0.181173 -0.759980 0.871938 0.991151 -0.240103 -0.591712 0.237233 1.047943 0.414780 -0.450169 0.579301 0.357345 -0.721813 -1.223738 -0.014587 0.355830 0.016673 
coffee 0.263360 0.408396 0.651182 0.380327 -0.305752 -0.520801 0.030320 1.008335 0.245346 0.256792 1.019777 -0.339680 0.351482 0.215866 -0.464993 1.479835 0.454081 0.791050 0.020675 1.291846 -0.327202 -1.196074 -0.120834 0.040309 -0.015370 
sesame_seed -1.714026 0.360315 -0.258264 0.071967 0.351122 -0.178499 0.368357 0.512965 -0.053115 0.460584 0.952086 0.894726 0.363556 -0.714885 -0.893761 -0.044688 -0.346444 -0.588791 1.215297 0.315371 -0.284525 0.506509 0.480511 -1.649669 0.933812 
avocado -0.527396 2.093358 -0.476307 -0.448499 0.196334 0.605782 -0.816118 -0.125935 -0.046375 0.118161 -0.286367 -0.288364 -0.332753 -0.130540 -2.114523 -0.916297 0.607797 0.442635 0.834856 1.485990 0.373498 1.066713 -1.138291 0.112138 -0.409702 
sherry -0.005329 0.052901 0.103091 0.344487 0.484747 -0.493833 -0.161383 -0.818352 0.129552 0.134523 -0.317728 1.209180 -0.383193 -0.664010 -0.914002 0.040670 0.549450 0.370612 0.302132 0.128870 -0.759886 -0.852827 0.207708 0.094062 0.438817 
sake -0.388292 -0.523230 2.382400 -0.224264 0.176413 -0.496065 -0.056642 -1.577157 -0.027769 -0.159398 1.795595 0.617986 0.279852 0.081247 -1.140665 -0.393991 0.534238 0.912909 2.107375 -0.275755 0.594409 1.987038 1.834453 -1.956089 0.964486 
feta_cheese -0.714723 -0.416751 -1.609218 -0.492545 0.530463 0.784024 -0.441442 -0.004297 -0.145369 -0.284226 0.359601 -0.315062 -0.293518 -1.611812 -0.768586 -0.114875 0.383285 -1.107064 0.878710 0.583934 0.638995 0.061690 -1.554986 0.610621 -0.024702 
apricot -0.233596 0.128504 -0.581613 0.606261 0.583432 -0.435875 -0.572597 0.220200 0.620105 0.173809 0.655326 1.636936 -0.585217 0.349873 0.295874 1.595969 0.429690 0.819716 -0.170910 -0.525454 -0.571278 -0.054063 0.109038 -0.002371 -0.555732 
roasted_sesame_seed -1.861682 -0.178100 1.859354 -0.521277 0.466846 -0.222323 0.542471 -2.099214 0.624772 -0.606673 1.889618 -1.017225 1.760222 0.992506 -1.541660 -0.764896 0.820523 -1.566902 2.276152 -0.017852 -0.044867 2.072537 1.008757 -1.043070 1.053450 
rum 0.043988 0.293922 0.490118 -0.147620 -1.356279 0.050928 -0.797204 -0.007313 0.234928 -0.241321 1.628408 0.264510 -0.443137 0.422611 -0.661268 1.705964 0.643183 1.059997 -0.211440 0.803709 -0.329541 0.083672 1.053205 1.174061 -1.069963 
orange_peel -0.412109 -0.337085 -0.902616 -0.116951 0.513542 0.260354 -1.224088 -0.145165 -0.189988 -0.006321 1.533148 0.999123 -0.794929 0.588847 -0.154910 1.711141 0.157368 0.805857 -0.068903 -0.456717 -0.461332 -0.483321 -0.330858 -0.752195 -0.237533 
squash 0.479699 -0.362691 -0.866296 -0.249061 0.067850 -0.246715 0.420525 -0.257525 1.109546 0.878508 0.183830 0.634960 0.088149 0.085581 0.081094 0.446745 0.504753 -0.633876 -1.104982 -0.677990 0.415966 0.066554 -0.875330 -0.209167 0.894094 
crab 1.398144 0.221908 0.704798 -2.134671 0.696984 0.199394 -0.112984 0.178357 0.000588 1.503809 -0.783165 0.084099 -1.101095 0.548173 0.051567 -1.113648 0.105038 -0.270652 1.388700 1.147366 -1.588711 -0.040011 0.484378 -1.050277 -0.706405 
marjoram 0.226884 -0.628235 -0.487098 0.205835 0.919410 0.165658 0.715155 -2.133779 1.190647 1.329395 0.583236 1.425974 -0.944701 -0.803144 2.025494 -0.728922 -0.220454 0.072419 -0.365868 -0.625079 -0.024398 -0.713338 -1.046280 0.485032 -0.670240 
swiss_cheese -0.109290 -1.042466 0.764228 -0.097144 0.611293 0.634152 0.398826 -0.534912 -0.620511 -0.123894 -0.838299 0.393174 0.479597 0.194919 0.964996 -0.996920 0.954447 0.648660 -0.542215 0.815815 -0.198894 -0.470316 -1.292995 -1.811149 -0.647182 
sweet_potato 0.485437 0.321640 -0.361054 -0.631610 -0.842021 -0.235508 -0.205981 -0.536685 1.250583 1.471734 0.089002 0.720989 -0.366032 0.891826 0.304529 2.153937 -0.292601 -0.039016 -1.159791 -0.286174 0.051354 -0.129608 0.028730 -1.270302 0.876041 
shiitake 0.803057 -1.406103 0.807932 -0.425833 0.490805 0.116480 0.530905 -2.128645 0.359909 -0.666449 1.930557 1.183922 0.326344 0.431705 -1.444147 -0.839240 -0.645486 0.389996 0.342789 0.202926 0.540811 0.225620 0.991588 -1.275239 1.844920 
radish -1.288635 -0.367958 0.470413 -1.213545 1.196584 -0.015403 0.960146 -1.149051 0.182028 -0.636893 1.120972 -0.809556 -0.143735 1.080107 -1.820334 0.045806 0.268103 0.430582 1.984473 1.159944 0.249660 1.928681 -0.131468 -0.881647 1.726790 
peach 0.519485 -0.154533 -0.152971 0.377695 -0.349924 -0.530748 -1.133831 0.353890 -0.460928 -0.508265 0.799467 0.117118 -0.730453 0.244875 -0.051771 1.142065 0.757271 0.102687 0.052126 0.959580 -0.877922 0.949203 0.726726 0.034279 -0.423888 
tarragon -0.296374 -0.685511 -0.234567 -0.893535 -0.345665 0.471895 0.466340 -1.225320 -0.116183 -0.214577 -0.714058 1.163507 -0.457622 -0.531202 -0.700276 -0.117295 0.155310 -0.119399 0.787153 0.496116 -1.496516 -0.814036 -0.852841 -0.090918 -0.299919 
black_bean 0.389551 1.677706 -0.305814 0.096904 1.338985 -0.576276 0.022243 0.039657 0.721837 1.141088 -0.425953 -0.508998 0.313205 0.047341 -1.940711 0.240487 -0.371654 -0.715934 -0.868236 0.750909 1.658866 1.893741 -1.163359 -0.526660 -0.278432 
lamb -0.179380 -0.198921 -1.927667 -0.383399 -0.280468 -0.155353 -0.731522 -1.957772 1.121102 0.638387 0.191646 0.823592 -0.039076 -0.189914 -0.235499 1.497268 0.316852 -1.131058 -0.020255 -1.459701 -0.393461 0.441096 -1.145552 0.587954 0.308679 
maple_syrup -0.412368 -0.395271 0.367358 0.635264 -0.081387 -0.646869 -0.522186 0.042883 0.051759 0.895782 0.348186 0.913967 -0.263484 0.846607 0.545987 0.556876 0.366268 -0.010267 -0.082669 -0.014378 -0.156745 -0.490925 0.303033 -0.382908 -0.168614 
pear -0.604075 -0.532937 -0.286280 0.109827 -0.109708 0.285286 -0.679118 -0.301665 -0.158174 -0.087244 1.354727 0.937552 -0.743769 1.319999 -1.307883 1.246709 -0.244021 -0.254511 0.241139 0.440773 -0.468151 0.245130 -0.186675 -0.396254 0.817704 
fruit -0.251936 0.016578 -0.812438 0.200207 -0.617547 -0.176381 -1.036697 0.234793 0.316936 -0.719834 1.609717 1.110080 -0.949949 0.561850 -0.057060 0.660155 0.062694 0.332563 -0.164575 1.202176 -0.005376 -0.070213 0.870555 -0.124141 -0.632280 
blueberry -0.335134 -0.818966 -0.202693 -0.041127 -0.726625 0.467963 -1.473293 0.714551 -0.752715 -1.620541 2.405786 0.750276 -0.082231 0.042997 0.833273 0.358611 0.809025 -0.964849 0.320502 1.177678 -0.707617 1.183561 0.307623 -0.769979 -1.698944 
clam 2.546477 -0.258193 -0.398774 -2.417736 0.597600 -0.402826 -0.032179 -2.322322 0.786492 -0.034889 0.081433 0.594933 0.824394 0.883800 -0.994028 -1.417436 0.383678 -0.688558 1.911906 -0.427431 -0.768712 0.356235 1.358926 -0.303252 -1.076858 
smoke 0.162393 0.096072 0.281371 0.520864 0.145163 -0.175874 0.653244 -1.445785 -0.150171 0.736870 -0.724812 0.286037 -0.378362 0.354277 -0.762108 -0.213635 0.888715 0.391839 -0.305509 0.034530 0.181834 -0.375974 -0.573222 -0.745121 -0.841025 
tuna -1.223882 -0.134524 -1.233709 -1.261765 0.249667 0.601822 -0.105765 -0.013086 -0.141800 0.310051 -0.294895 -0.470306 -0.099716 0.074338 -0.958629 -1.335441 0.146737 -0.356823 0.283665 0.830222 0.105500 0.399111 0.380082 -1.299043 -0.226213 
kidney_bean -0.296790 0.961658 -1.221632 0.791992 1.021212 -0.926277 0.441982 -1.449045 0.937474 1.743633 -0.435473 -0.953978 -0.017431 0.081936 -0.164900 -0.281265 0.303849 0.311028 -0.480847 0.425833 2.312077 0.696508 -0.434744 0.511954 0.175560 
peanut -0.687862 1.111498 0.698056 0.550429 -0.986324 -0.467470 0.389343 0.550341 1.266158 0.650180 0.004604 1.227652 0.100047 -0.274000 -0.738299 -0.654427 -0.579429 0.015195 0.184221 1.353094 -0.098326 0.793982 1.111895 -1.007307 0.710053 
asparagus -0.318487 -0.657552 -0.431218 -1.217447 1.259940 0.574773 0.207222 0.098906 -0.458482 0.194977 0.097222 0.699549 -0.144476 0.091574 -0.889551 -0.441979 0.615298 -0.588108 -0.438613 0.122782 -1.194764 -0.951884 -0.257630 -0.425845 0.532472 
salmon 0.356358 -0.335386 -1.028080 -0.615646 -0.217840 0.183966 -0.250665 0.023809 -0.465237 0.491072 0.382659 -0.126299 -0.598214 -0.564525 -0.967596 -0.345732 0.535327 -0.800462 0.716170 0.583308 -1.608574 0.335103 -0.195268 -1.061544 0.295294 
leek 0.391792 -0.235381 -0.444974 -1.216744 0.252513 -0.861882 1.278653 -1.849237 0.789154 -0.677494 0.275853 1.361508 -0.364956 0.488579 -0.163532 0.166972 0.906989 -0.525075 -0.484761 -0.750054 -0.526845 -1.041574 -0.272077 -0.595798 0.306567 
chickpea -1.109016 0.650432 -2.065462 -0.863525 0.996268 -0.777077 -0.266943 -0.449748 0.684273 0.220948 -0.666765 0.562616 0.095364 0.630895 -0.537980 1.192906 0.150413 -1.937423 0.004487 -0.203889 1.333247 0.886140 -1.157619 0.808860 0.970661 
blue_cheese -1.076764 -1.490431 -0.350447 0.596721 -0.032338 0.567450 -0.366439 -0.604433 -0.366947 -0.071433 -0.445084 -0.158921 -0.405576 0.022118 -0.936866 -0.148922 0.353660 0.111403 0.170606 0.790159 -0.402013 -0.208319 -1.470424 -0.249306 -0.773639 
brandy 0.498780 -0.127632 -0.494696 0.337493 0.770913 -0.025350 -1.057147 -1.116058 -1.198671 -0.860452 0.336374 1.576293 0.608631 1.206860 -0.682643 1.768987 -0.818590 0.329143 0.763046 -0.152660 0.140350 -1.235535 0.359751 -0.686320 -2.795513 
artichoke -0.059121 -0.950104 -0.726738 -0.526849 1.427306 1.071058 -0.152541 -0.312643 0.094793 -0.519124 -0.355780 0.390005 -0.215708 -0.376321 -0.965243 -0.486162 0.821228 -0.785190 0.292413 -0.167237 -0.247374 -0.828592 -0.780737 0.077424 -0.320460 
horseradish -0.658124 -0.464021 0.376791 -0.582241 -1.252068 -0.863448 -0.238253 -0.714999 -1.004012 0.792659 -0.819042 -0.291793 -0.984185 0.300646 -0.411241 -1.091868 0.946460 0.492542 0.989036 0.788816 -0.170370 -0.168246 -0.336044 -0.705305 -0.854625 
mango 0.198852 1.652390 0.570787 -1.031676 -1.166366 0.340555 -0.759930 0.062699 0.222353 0.140424 0.195721 1.260315 -0.801893 -0.770273 -1.021442 1.007561 0.069097 -0.195836 0.034635 0.916038 -1.070831 2.476670 -0.097628 -0.027711 -0.040418 
date -1.535595 -0.360073 -0.568288 0.523293 -0.103330 -0.776706 -1.023644 0.159717 1.524185 0.216775 0.455171 0.959478 0.060558 1.283021 0.054596 1.739207 0.261718 0.466075 0.062590 0.122043 0.332320 -1.010416 0.300527 0.264308 -0.634642 
cardamom -0.159274 1.652709 -0.967986 -0.817404 0.634759 -1.495499 -0.660864 -0.402028 0.036593 0.153341 0.785324 1.153063 -0.228000 0.882397 0.951328 2.649781 0.049153 -0.355120 0.359601 -0.157365 -0.452561 0.361803 0.089307 0.178697 0.414134 
white_bread -0.552030 -0.068740 0.640778 0.318457 0.257608 0.591861 0.269551 -0.927710 0.159891 0.385424 -0.311979 0.929141 -0.353285 -0.148861 0.346922 -0.331552 0.335937 -0.223298 -0.249964 -0.060574 0.004865 -1.318130 -0.285056 0.295711 -1.008142 
oyster 0.924874 -0.552362 1.067798 -0.237318 1.008238 -1.397849 1.133441 -1.137317 -0.000470 0.288798 1.413009 0.968195 0.898203 -0.896888 -1.409205 -0.781935 -0.269244 -0.113766 0.570224 0.476670 -0.755102 0.712588 1.384025 0.302457 0.823156 
cottage_cheese -0.341763 -0.770353 -0.359874 0.291448 0.409653 1.583886 -0.048814 0.366510 -0.410865 -0.810976 -0.617537 -0.794665 0.895365 -0.031912 0.030713 -0.633535 1.124224 -0.060820 -0.748972 0.734605 0.693176 -0.066561 -0.083731 0.362118 -1.108382 
grape -1.326638 -0.700728 -0.828428 -0.165692 0.386479 -0.658928 -0.612595 0.522663 0.152394 0.150906 0.775382 2.002193 -1.747482 -0.898900 -0.193792 -0.050561 -0.406007 -0.008379 -0.227553 0.990536 -0.924439 1.706004 -0.401425 0.796613 -1.049242 
brown_rice -0.857760 0.336607 -0.245839 -0.439927 0.771303 -0.222676 0.002302 -0.310812 0.429516 0.596540 0.104131 1.733659 0.158685 -0.258490 0.307236 -1.074823 -0.040783 0.630403 -1.273778 -0.306872 0.364045 0.657821 0.313052 -0.116576 0.191924 
cauliflower -1.622971 -0.203883 -0.723244 -1.236962 1.376832 -0.122253 1.250310 0.128165 -0.668279 -0.268944 -0.353918 0.479931 -0.315315 0.832738 0.570555 -0.355459 0.784374 -0.103876 -0.602711 0.008405 -0.238912 0.187597 -0.267813 -0.748694 1.053350 
cured_pork 0.782804 -1.112573 -0.349828 0.809626 2.076356 1.252199 0.332091 -2.489571 1.141953 -1.051311 -0.040067 0.382200 0.268229 -0.518581 -0.238862 -0.797485 0.543360 -0.519511 -0.014708 0.236777 0.682899 -0.824027 -0.584004 0.071536 -1.722138 
egg_noodle 0.043593 -0.620281 0.098137 -0.447254 0.052911 -0.037914 0.104494 -0.514525 -0.420684 -0.085036 -0.519798 0.077063 0.836820 0.154928 0.223092 -1.240251 0.812766 1.171268 -1.461317 0.125385 0.643521 0.334344 -0.253855 -0.241990 -0.197779 
beer 1.087477 0.951194 1.095455 0.127728 -0.537083 -1.095572 0.004628 -1.137276 -0.590768 1.370909 -0.456974 -0.109986 -0.436565 0.608530 -0.207583 0.088593 1.324424 0.249264 -0.306794 -0.350890 0.100854 0.308609 -0.442463 0.390019 -0.768848 
hazelnut -0.345613 -0.403370 -0.243948 0.689026 0.510759 0.353314 0.148532 -0.268461 0.395454 -0.215398 1.356243 0.861726 -0.088466 0.306651 -0.355847 1.653100 -0.326336 0.332846 -0.028715 0.544660 -0.535226 -1.731192 -0.220084 -0.418991 -0.153431 
mandarin -1.092644 -0.806532 -0.984606 0.158051 0.112532 0.506500 -1.258106 0.710721 -0.158816 -0.283610 1.105328 1.368784 -1.364939 0.466648 -0.332262 -0.789660 -0.910948 0.987657 -0.534459 1.914920 -0.291220 2.085311 -0.094270 0.015784 -0.635614 
romano_cheese 0.796810 -0.546367 -0.420408 -0.580230 0.951917 1.529597 0.183076 -1.317681 0.867967 -0.869798 0.032344 0.096890 0.188328 -1.143002 0.005956 -0.175469 1.017958 -0.443990 0.164270 0.228855 0.460258 -1.135237 -0.600110 0.000004 -0.070680 
plum -0.484996 0.263423 -0.274233 1.038306 0.074202 -0.768227 -1.116396 -1.040334 -0.183809 -0.164454 0.063008 1.146251 -0.594621 0.155533 -0.247639 2.094570 0.433712 -0.316384 0.110786 -0.347262 -0.723808 -0.149296 0.136836 -0.413577 -0.215529 
pimento -0.483155 0.492488 -1.292914 -1.808924 1.200951 -0.475523 -0.079403 -0.458142 -0.958669 -0.687582 -1.396376 0.358713 0.209171 0.347632 -0.040996 -0.727299 -0.240430 0.424430 -0.295365 1.178477 0.775151 -0.259164 -0.485379 0.127732 -1.138524 
smoked_sausage 1.100197 -0.076885 -0.296982 -0.241496 0.121059 -0.728591 1.106086 -1.924304 0.509126 1.421319 -1.408246 0.431740 0.068791 0.885599 0.931846 0.065221 0.477711 0.997648 -0.028976 -0.124208 1.496107 0.153087 -0.707164 -0.870357 -0.650371 
scallop 1.564632 0.099000 0.034745 -1.316579 0.464557 0.231965 0.489834 -1.248015 0.708764 -0.022140 -0.460777 0.886326 0.025370 -1.129014 -0.311478 0.093684 1.502492 -0.251262 1.574071 0.601234 -2.017013 -0.431869 0.031603 -0.112123 0.851033 
goat_cheese -1.197681 -0.683965 -0.400320 0.085211 0.699303 0.898419 0.080089 -0.670277 0.260211 -0.466056 0.757734 -0.377871 -0.321616 -0.106152 -1.630201 0.364243 0.786260 -0.552830 -0.412459 0.333161 -0.558880 -0.828811 -1.962784 0.068228 -0.162499 
lentil -1.075879 0.360749 -1.755281 -0.560240 0.298914 -0.868417 0.545922 -1.167000 1.587896 0.397263 -0.057320 0.298356 0.615808 0.133802 0.333245 0.408791 0.960334 -0.950385 -1.231105 -0.625539 0.466458 0.922343 -0.553124 -0.083206 1.147961 
currant -0.346707 0.488154 -1.938856 0.681612 1.049884 -0.336433 -0.575365 -0.176327 -0.025841 0.139795 1.082528 0.659927 -0.931578 1.053472 0.596484 1.637764 0.477422 0.781094 0.344568 0.622891 -0.000126 -1.056759 -0.701431 0.439512 -0.014518 
saffron 0.623743 0.923884 -1.653160 -1.516668 1.267791 -0.922752 -0.646216 -1.536581 1.616157 -1.164190 0.289130 2.087805 0.937279 -0.639878 0.242909 0.898721 1.444425 -0.624693 0.969351 -1.948548 -0.310579 -0.924105 -0.197893 -0.278749 0.573489 
barley -1.796796 -0.191495 -0.556562 -0.789764 -0.253136 -0.866117 0.128973 -1.234087 -0.057375 0.272073 1.908996 1.414592 0.306074 -0.499395 -0.477031 -1.170889 -0.133009 -0.269683 -0.573367 -1.341584 1.381740 -0.062074 0.923630 -0.685022 0.441268 
caraway -1.261559 2.094958 -0.433387 -0.354215 -0.277502 -1.817943 0.300860 -3.211778 -1.227344 0.503313 1.359564 -0.635226 1.389057 0.720240 1.358562 -0.197975 0.905245 -0.933842 -0.246089 -0.350055 -0.841053 0.366829 -1.613974 -1.414052 -3.776484 
beet -1.686226 -0.876948 -1.753547 0.237814 -0.992883 0.312488 0.730520 -1.076710 -0.130193 1.444732 0.295018 0.363838 -0.874528 0.742174 -1.153774 0.846066 0.096807 -0.215772 0.707621 0.200131 -0.630037 0.244461 -1.702127 -0.537579 0.189165 
squid 1.751098 -1.415355 0.013352 -1.858790 1.610248 -0.768087 -0.335938 -1.315881 -0.099238 -0.935705 0.909054 0.233657 1.918873 0.775505 -1.198660 -0.243521 -0.193971 -0.176767 2.503987 0.183767 0.022950 1.723586 1.951142 0.060165 0.434615 
corn_flake -0.546833 0.080849 0.445986 0.008551 -0.696795 -0.092462 0.115800 0.228752 0.166333 0.227776 -0.648508 0.972422 0.645343 0.358677 0.813793 -0.431798 0.128053 0.168249 -0.765016 0.722163 0.353306 -0.527142 0.693106 0.147692 -0.456801 
anise 1.181817 1.239906 -1.176834 0.005558 0.853749 -0.540617 -0.224057 -0.699014 0.643873 0.616039 2.082132 0.543407 0.177934 0.262668 0.184722 0.267218 -0.489635 -0.837337 1.749959 0.310618 -0.974236 -1.397537 0.089401 -0.517968 -0.975606 
roasted_beef 0.111427 -0.514607 -0.473163 1.014283 -0.462969 0.620438 0.303606 -2.080276 -1.096560 0.603355 -0.344175 0.184399 0.306113 0.176482 0.142019 0.336425 0.361844 0.188857 -0.124781 -0.090360 0.427195 0.477667 0.221734 -0.243362 -0.234872 
pistachio -0.621565 0.817734 -0.869864 -0.339571 0.572096 0.726821 -0.615409 0.027723 0.797597 -0.580366 0.429722 1.293317 -0.321572 0.667283 0.075180 1.598371 -0.509487 0.533538 0.335338 0.836511 -0.701874 -0.751091 0.291660 -0.001907 -0.591910 
peanut_oil 0.750960 0.566007 0.388074 0.150012 -0.353801 -0.463304 0.613240 -0.411686 -0.108698 0.256919 -0.161991 1.372276 0.403388 -0.893756 -1.286033 0.382076 -0.205695 -0.422810 -0.125900 0.744438 -0.478706 1.860887 1.201130 -1.197170 1.614298 
cereal -0.740146 -0.151394 -0.156957 2.230640 -0.601191 -0.304540 1.018579 0.488293 1.504433 0.199505 0.866369 1.054224 0.955003 -0.779039 1.699844 0.470465 0.114873 -0.208264 0.261810 1.450553 1.392837 -0.030948 -0.372730 -1.388823 0.120446 
cashew -1.469467 0.410286 -0.700507 0.261050 0.925263 -0.462384 0.218631 0.242557 0.128607 -0.277636 -0.179847 1.668051 0.465206 0.130206 0.061383 0.231316 -0.031702 0.255705 -0.838720 0.578523 -1.063200 1.035292 0.808938 -0.851249 0.669049 
veal 0.207342 -1.688670 -0.226553 0.450699 0.578079 -0.783798 -0.188677 -2.906672 0.843613 -0.771340 0.569825 0.202862 -0.807970 0.259373 -1.101404 -0.738608 0.588865 -0.372935 -1.210103 -0.790024 -1.270646 -1.353161 0.039742 0.722041 -1.300115 
seaweed -1.609987 -1.084326 2.009429 -2.160731 0.607541 -0.097010 0.331025 -0.136215 0.880750 1.332991 1.913052 -0.256220 0.174771 -0.405345 -1.325549 -1.112577 0.136846 0.088062 3.692928 0.986298 1.688795 1.536107 0.442771 -1.445214 0.394360 
turnip -1.294525 -1.500803 -1.733640 -1.122375 0.419515 -2.095501 2.616231 -1.305482 0.900572 1.396758 1.502009 0.657636 0.014074 -0.304391 -0.611364 1.450160 1.319627 1.121562 -1.014507 -1.780457 -0.901042 -0.473849 -0.640779 0.299683 0.764507 
sauerkraut 0.862747 -0.201569 -0.167831 1.290682 0.109620 -2.225527 2.241578 -2.260167 -1.879742 0.089583 0.208129 -0.560999 0.728381 0.391547 1.942230 -0.211995 1.972617 1.938651 0.994007 0.552592 0.077826 0.423969 -1.178467 0.102875 -2.742092 
berry 0.367633 -1.515084 -0.508190 0.687186 -0.310771 -0.108565 0.078679 -0.084945 -0.808445 -1.767099 1.172222 1.714846 -1.016383 -0.006641 1.232821 1.331209 0.087674 -0.324485 0.236821 0.824159 0.216915 0.878025 0.252472 0.298392 -1.809613 
kelp -1.102517 -2.194341 2.361863 -1.924000 0.671583 -0.795422 0.419261 -1.171814 1.778259 -0.472088 1.906509 -0.499330 1.410189 0.771875 -2.104025 0.622182 0.838366 0.149671 3.567010 -0.517079 0.840249 2.117445 3.480116 1.433875 1.147470 
tomato_juice 0.434004 -0.251521 -0.215966 -0.196680 0.006855 -0.663883 0.043887 -1.160488 -0.444503 1.420291 -1.491057 -0.712976 -0.797302 0.095036 0.320043 0.357463 0.574261 -0.420823 0.314380 0.224685 1.281287 0.200735 0.138868 0.584006 -0.079169 
cod 1.277898 0.108681 -0.532508 -1.983503 0.224768 -0.614646 0.825230 -0.807990 0.251945 0.178849 -0.248935 0.120152 0.347530 0.234679 -0.503703 0.361060 0.470094 -0.668482 0.541121 -0.059089 -0.868604 0.867756 0.129994 -0.350598 -0.184201 
provolone_cheese 0.613189 -1.984610 0.768261 0.557124 1.980697 1.405718 0.583314 -0.978190 0.377261 -0.403227 -0.245482 -1.479827 -0.863973 -0.752129 -0.628794 -0.361786 1.728600 -0.745898 -0.669977 1.232766 0.685672 -0.524484 -0.887344 -0.118353 -0.722695 
mussel 3.071350 -0.260505 -0.529258 -2.145849 0.709285 -2.535145 0.376523 -3.033488 1.759227 -0.861463 0.104761 0.250101 -0.572881 -0.416057 -0.123245 -0.337798 1.669855 -0.491094 2.578867 0.486761 -1.497559 0.640864 0.410578 0.984655 1.446753 
blackberry 1.140846 -0.819711 -0.494526 0.656612 -0.868790 0.949260 -1.053497 0.178284 -0.441063 -1.501481 2.625718 0.645216 -0.534917 -0.686005 1.166340 1.079089 0.604403 0.166071 1.449112 1.559099 0.356936 0.092265 0.159488 -0.249525 -0.724295 
roasted_peanut -1.183694 2.140270 1.063076 0.045583 -1.294283 0.054440 0.666839 -0.536474 2.371961 0.705591 0.237279 1.374717 0.263480 -1.637785 -0.821717 0.506164 -0.936123 0.497563 0.279650 1.279173 0.194522 1.349698 1.409534 -1.249991 0.485895 
rhubarb 0.436918 -0.856872 0.148207 0.321339 -0.568107 -0.421050 -1.100058 0.793089 -0.327733 -1.107596 1.928392 0.079104 -0.325295 0.437983 0.225642 1.082705 0.531849 -0.098709 0.379973 1.132903 -0.109066 -0.251542 0.580879 0.090684 -0.829340 
chinese_cabbage -0.764801 -0.631085 2.495118 -1.406904 2.006257 -0.020835 -0.121203 -3.341702 1.027884 0.804723 2.406713 1.261201 1.108981 0.697625 -0.854337 -0.115967 -0.899424 2.537529 4.627765 -0.260004 0.776459 2.340251 2.280335 0.931435 1.905150 
corn_grit 1.119529 1.907199 0.602370 -0.375736 1.251722 -0.722615 0.560718 -0.732596 0.994752 0.507621 -0.514444 -0.101492 0.307222 0.294380 -0.793602 -0.643259 0.871624 0.812092 -0.337645 0.157644 0.709007 -0.371605 -0.001639 0.683490 -1.169485 
chicory -1.380928 -1.344179 -0.149858 0.031788 0.823171 1.224106 1.374760 -0.467412 0.774117 0.022667 0.904722 0.468433 -2.171807 0.657300 -2.722538 -0.259771 0.133072 -0.434774 1.380161 0.812106 -0.446456 -0.134173 -2.064115 -0.444608 0.120579 
bourbon_whiskey 1.812248 -1.083747 -0.357005 0.790837 -0.439084 -2.086697 -0.607146 1.840173 0.572028 2.337683 0.290396 -0.488718 1.057622 0.173399 -1.576035 1.826408 2.070293 2.277620 0.704847 -0.836305 -0.497183 -0.503910 1.095365 0.551734 -0.655090 
citrus -0.697336 0.478068 -0.214135 0.140637 -0.322724 -0.359467 -0.482227 -0.290863 0.267458 -1.302602 1.568872 1.032864 -0.825892 0.270052 -1.248287 2.074840 1.340573 1.460430 1.799765 -0.238329 -0.593258 -1.070043 0.945722 0.153374 -1.193919 
lima_bean -0.063267 0.482229 -0.661521 -0.463607 -0.025611 -2.194823 0.939048 -1.487233 0.487666 1.593152 -0.780591 -0.165655 -1.033327 -0.230662 -0.408797 0.073800 1.160328 0.600550 -1.019129 -0.323184 1.171482 -0.109709 -0.105882 0.392821 0.404614 
lovage 4.235672 0.449725 -1.948622 -1.821205 -1.988670 -0.019996 -2.254535 -1.513099 -0.974842 1.313980 -2.634496 -0.135348 0.116577 2.699315 0.435011 -0.108392 1.527711 2.322687 2.354343 -0.200702 -0.457279 -1.671962 1.690217 -0.807895 2.050803 
melon -0.699566 0.731482 -1.406005 -0.469280 -0.670094 0.021435 -1.895144 0.821629 0.790134 -0.064744 2.481524 0.976725 -1.678676 -1.675312 -0.896394 -0.981217 1.598138 1.034920 0.379776 1.058723 -0.222205 1.897197 0.281929 0.143329 0.004169 
parsnip -0.099537 -0.035990 -0.204643 -2.234809 -1.343851 -1.278778 0.754081 -2.590268 0.320697 0.591354 1.920249 1.181059 -1.096107 0.883365 1.024500 0.583554 -0.049293 -0.421520 -1.820892 -0.979956 -0.181656 0.178521 -2.261988 -1.429388 0.407347 
fig -0.570368 -0.042306 -0.521000 0.865436 0.947878 0.822911 -1.473749 -0.705841 1.077363 0.228170 0.659262 1.187143 -1.366854 0.101370 -0.099753 2.300132 0.322452 -0.097205 0.723900 -0.137433 -0.399698 -1.832706 -0.695873 -0.334585 -0.415560 
lemongrass 0.738774 2.962265 1.733232 -2.331664 -1.165475 -0.219766 0.887248 -3.147982 2.641920 -0.846306 0.607045 1.536150 0.426992 -1.935491 -1.192940 1.507824 -1.384537 0.137367 -0.283235 1.468823 -1.712735 3.083871 1.889323 -0.459929 0.685817 
whiskey -0.609574 0.041687 1.664473 1.558900 -0.008412 0.720143 -1.596570 -1.683498 -0.619169 0.079043 -1.075891 -1.335936 -0.700863 0.910064 -1.165605 3.684299 0.703239 0.532059 -0.680409 1.142748 -0.421926 -0.710489 1.220818 -0.675934 -0.886160 
watercress -0.892027 0.219679 -0.987474 0.342683 -0.232490 0.817459 0.352455 -1.236880 0.416426 0.263168 -0.275687 0.131029 -1.678564 -0.211139 -1.529599 0.743303 0.705867 0.400859 0.445311 1.100323 -0.851854 0.127245 -0.293598 -1.113963 1.093918 
tequila 1.487672 1.845758 -0.396214 -0.783301 0.588741 0.040351 -2.383907 0.244820 -0.727330 0.500786 0.318174 -0.029058 0.103825 0.148490 -2.202452 0.670181 -0.443525 1.555720 0.885877 0.839329 0.596651 1.864110 0.169097 -0.169544 -1.809888 
rye_flour -0.438284 0.535845 -0.371546 0.972322 -0.131657 0.737951 1.382650 -1.048016 -0.667410 0.734044 2.022265 -0.740379 -0.312562 -0.409050 3.208082 0.894219 1.367828 0.408755 2.063209 0.627234 0.983170 -0.220537 -2.259665 -2.608587 -0.353632 
peppermint -0.700734 -0.218267 -0.057008 -0.401853 -0.727525 -0.106569 0.429437 1.281131 0.905222 -0.247860 1.040007 -0.157996 0.477998 0.315226 -0.931795 0.374013 -0.417791 0.202537 0.979288 1.485446 -1.076636 -0.636651 -0.337542 -0.263214 -0.394091 
savory 0.662985 0.452521 -0.580841 -0.416344 0.696704 -0.425570 0.453303 -2.311177 0.895345 0.159360 1.030914 0.646968 -1.446580 -0.860258 0.774162 -0.508131 0.845349 -0.496163 -0.000143 -0.569396 -0.001266 -0.629224 -0.630541 0.402601 0.471982 
lobster 2.676147 0.425590 -0.707936 -1.483641 1.021899 -1.486882 0.190630 -1.188515 0.309593 -0.641084 -0.027387 -0.129867 -0.123669 -0.752010 -0.395313 0.062312 1.462831 0.153190 1.333724 0.670090 -1.911828 -0.781020 0.620667 0.545958 -0.621001 
roasted_pork 0.853023 -0.584212 -1.095892 1.535594 -0.573287 -0.845885 -0.503620 -2.000005 -0.206303 1.317234 0.407153 0.527624 -0.432397 0.472140 0.074158 0.304059 0.253731 0.351588 -0.482936 -0.789028 -0.206720 0.833755 -0.708924 -0.376235 0.229500 
mace 0.120480 0.327832 -0.339316 -0.036312 0.268586 -0.796800 -1.150918 -1.070750 0.086573 0.693054 1.246264 0.771419 -0.103378 1.700123 0.760366 1.488323 0.156663 -0.240606 0.028570 -0.258499 -0.412429 -0.679426 0.062226 0.092935 0.412423 
endive -1.860716 -0.471535 -0.400593 0.810695 0.929962 0.775181 0.470867 -2.398804 0.846773 -0.816379 -0.521370 0.217285 -0.989424 -0.173184 -1.456759 1.273555 1.026577 -0.158190 0.404933 0.372562 -0.604284 -1.594114 -0.733956 0.249242 0.397211 
brassica -0.439307 0.489817 0.460503 0.613773 0.597681 -0.855978 0.592519 -2.279210 0.847535 0.174361 0.624234 -0.543724 -0.320678 1.640543 -1.922926 0.276868 1.055437 -0.672239 0.565967 0.093565 -0.053090 0.042483 -0.897875 -1.639761 1.064856 
grapefruit -0.493276 0.246495 -1.290690 0.259218 0.027764 0.344383 -1.777419 -0.278764 -0.514521 -0.230284 0.717045 0.844084 -1.798364 -0.576716 -1.223575 0.650591 0.455240 0.840478 0.774829 0.637453 -0.668690 1.558169 0.047119 -0.279592 -0.861706 
enokidake 0.739278 -2.610039 2.425885 -1.249657 0.225188 -1.538301 -1.673170 -2.358311 -0.449466 0.679354 3.221546 -1.041997 1.305584 1.741462 -1.820263 -1.048082 0.828332 -0.003890 2.558923 -0.209103 1.144093 2.287083 0.690360 -0.999426 1.315883 
porcini 1.153440 -1.967882 0.130300 -0.289483 0.705049 0.419814 0.720715 -2.543891 0.812467 -0.442906 1.431308 0.887654 -0.808930 -0.266095 -0.031927 -0.069006 0.805895 -0.495793 -1.205205 -0.719949 -0.514142 -1.635638 -0.640396 0.374046 0.643793 
kiwi -0.778131 -0.657484 -0.046478 0.246202 -0.697580 -0.400724 -1.175825 0.951577 -0.006869 -0.681530 1.822422 1.033212 -0.840181 -0.273697 -0.348229 -0.395306 1.115233 0.743703 1.220919 0.899669 -0.633703 2.487178 0.446847 0.524890 -1.685075 
wasabi -1.098284 0.114441 -0.318490 -0.632609 0.042964 2.398895 0.618705 -1.214481 0.288555 0.132709 -0.587567 0.834495 0.384826 1.685526 -0.003526 -1.076937 1.052057 1.204358 4.697594 0.517504 0.501048 0.796749 2.437462 -2.577886 1.528798 
watermelon 1.144709 0.647554 0.061695 -0.899058 0.085848 -0.064947 -1.585342 0.766226 0.758799 -0.176567 1.041755 1.641269 -2.018893 -0.765442 -1.482306 0.448497 0.543871 -0.302133 1.320020 1.109627 -1.162364 1.771762 -1.525190 -0.396865 -1.859978 
lime_peel_oil 0.295470 1.761890 0.353789 -1.484587 -0.319347 -0.556752 -2.032761 0.685562 1.150064 -0.623761 0.036059 0.814702 -0.802953 -1.318494 -1.854039 0.085704 0.696585 0.322116 0.214947 0.990567 -0.502052 1.581062 -0.706789 -0.475401 -0.891229 
okra 1.031857 0.509298 -0.683732 -1.165844 0.188950 -1.391262 0.446156 -1.289200 1.331773 1.535105 -1.576762 0.266122 0.454535 0.328101 -0.642158 0.394812 -0.209981 0.216178 -0.348036 0.226090 -0.457907 0.622468 0.326320 0.457798 -0.379954 
macadamia_nut -0.624034 0.574909 0.110003 -0.004013 -0.771012 0.975700 -0.194008 0.793886 0.937236 0.252816 0.580226 0.501875 0.026052 0.406392 -0.018896 0.525693 -0.430222 0.519696 0.160383 1.244508 -0.620945 0.372915 0.669381 -0.205115 -0.373084 
smoked_salmon -0.701708 -0.063988 -0.982183 -1.505444 -0.811086 1.209891 1.495098 0.059971 -0.481077 -0.761521 -0.001597 0.024232 -0.271969 0.964096 -1.043077 -1.080354 1.125134 -0.506905 1.797212 1.112508 -1.164524 -0.607966 -1.008893 -0.861182 -0.122982 
kale -0.334928 -0.482302 -0.402220 -0.702986 0.676153 -0.651798 2.135691 -2.027890 0.826838 0.231438 0.352405 0.113723 -0.764667 0.901112 -0.854185 0.568344 0.912128 -0.160682 -1.067170 -0.429056 0.640412 -0.258711 -0.820748 0.839343 0.878980 
popcorn -0.257029 0.142596 -0.709139 0.330326 -0.939953 0.127703 0.493821 1.240503 1.366268 0.388818 -0.766722 0.859146 0.945759 -1.037155 0.392470 0.425556 -0.540787 -0.254895 -0.559500 1.076277 1.078216 0.343216 0.787888 -0.684702 -0.563970 
rye_bread -1.056358 -0.319970 0.333853 -0.771321 -1.445455 0.199273 0.415541 -1.871669 -1.881213 0.165633 -0.413752 -1.226193 -0.498621 0.256148 0.726736 -0.786920 2.645221 0.545394 -0.284261 0.746468 0.853976 -0.787991 -1.581552 -0.832423 -1.488544 
star_anise 0.043954 0.468340 0.005560 0.308187 0.156304 -1.325992 -0.795515 -0.985269 1.004253 0.134954 1.067997 1.422745 -0.793566 -0.720955 -1.108546 1.581287 0.214704 0.164699 0.719982 -0.513844 -1.464832 0.714652 0.799961 -0.667260 1.368804 
brussels_sprout -0.962921 -0.971420 -0.854892 0.072933 0.321086 -0.230355 0.462406 -0.745707 0.084162 0.129075 -0.307345 0.678972 0.078945 0.389330 -0.070278 0.225375 0.318519 -0.148322 -0.989563 0.539812 -0.666210 -0.882544 -1.300603 -0.709022 0.630306 
tea 0.206865 0.970879 0.010037 -0.027791 -0.785501 -0.228069 -0.801175 0.047255 0.222436 -0.373910 1.210041 0.565749 -0.170480 0.104903 -0.277595 1.408303 1.142407 0.693171 0.213448 -0.095385 -0.875529 0.283780 0.312391 -0.514464 -0.212868 
thai_pepper 1.777653 0.444979 0.045296 -1.395364 -0.522446 -0.309577 -0.895352 0.723090 2.003173 1.625909 -0.651302 1.423946 1.650531 -1.319083 -2.217368 0.502874 0.567231 0.213021 -1.193296 0.607349 -0.120227 3.393477 2.027205 -1.782267 1.739190 
champagne_wine -0.152095 -0.217560 -0.278570 0.429662 -0.586284 0.246957 -0.444416 -1.229193 -0.344206 -0.695980 0.810063 0.881470 -1.384629 -0.182940 -1.221315 0.051887 0.733589 0.775702 1.099312 0.580464 -1.176256 -0.148656 -1.035767 -0.664000 -0.131993 
anise_seed -0.755882 1.327752 -0.086170 0.258118 0.236741 -0.790608 -0.253770 0.416717 -0.003257 -0.315282 1.128674 0.422367 -0.330602 -0.460326 -0.627996 1.994517 1.085357 -0.562441 0.054467 -0.274840 -0.381287 0.173436 -1.055314 -1.183247 -0.630247 
yam -0.830907 -0.888677 0.153679 -1.025057 -0.745983 -2.089866 0.623571 -0.332318 0.564259 0.560438 1.486294 0.653199 0.248160 0.552848 -0.578593 1.575001 0.619688 -0.794091 -1.808755 -0.952850 -1.062010 0.688182 0.202106 0.230268 -0.070326 
bitter_orange 0.953444 0.653724 -0.423683 -1.567647 -0.833888 2.594720 0.046345 -1.036787 -1.129598 -0.159509 3.024576 0.903408 -0.645419 -1.015886 0.109535 2.381674 1.289680 3.295690 0.198682 0.759525 -1.115415 -0.414373 1.135292 2.672931 -0.260715 
wheat_bread -1.316338 -0.339853 0.722636 -0.232653 -0.180747 -0.250028 0.216039 0.418264 0.184133 0.876052 0.000912 0.318039 -0.627176 -0.471527 0.295238 -1.598736 0.870469 -0.183173 -0.227985 0.799539 0.737782 0.336407 -1.019937 -0.188796 -0.754941 
