249 15
</s> 0.026685 0.029463 -0.025535 -0.021854 0.009111 0.020141 0.006272 0.001409 -0.024023 0.014790 -0.029043 0.008330 -0.005009 -0.006381 -0.022105 
egg -0.066833 -0.315821 0.014258 0.012529 0.387476 0.371828 0.555323 0.481178 -0.010523 0.528754 0.424498 -0.165844 0.509127 -0.140149 0.870785 
butter -0.003541 -0.664933 0.097082 0.080412 0.408928 0.263558 0.628375 -0.016269 0.238853 0.600507 0.776980 -0.259939 0.079711 0.067715 0.696323 
wheat -0.050971 -0.522588 -0.053668 -0.006538 0.657981 0.308256 0.282409 0.429572 0.044041 0.434875 0.454642 -0.133554 0.075720 -0.120740 0.692989 
onion 0.131613 0.503622 0.264031 0.274374 -0.477297 -0.358411 0.319575 -0.469748 0.328495 0.078215 0.217133 0.935543 -0.330151 -0.491037 0.009895 
garlic 0.465380 0.532301 0.274565 0.628289 -0.629030 -0.280182 -0.425805 -0.634851 0.253986 0.256108 -0.028371 1.200611 -0.230075 -0.046026 0.055903 
milk -0.192467 -0.939057 -0.381931 -0.107283 0.481825 -0.021669 0.915646 0.606280 0.213974 0.571065 0.665130 -0.085699 0.105728 0.088817 0.595347 
vegetable_oil -0.052919 0.417119 0.450806 0.427824 -0.122296 0.221578 0.169613 -0.091934 -0.250920 0.188432 0.341903 0.375579 0.666844 -0.569711 0.267340 
cream -0.251276 -0.707280 -0.429893 0.086590 -0.273367 0.255076 0.744862 0.206638 -0.174407 0.546873 0.570382 -0.150711 0.476204 -0.320093 0.412183 
tomato 0.165009 0.082295 -0.099782 -0.019841 -0.857336 -0.231439 -0.519770 -0.270322 0.571267 -0.318967 -0.188598 1.755448 -1.300797 -0.454660 0.113057 
olive_oil 1.608949 -0.382534 0.123666 0.285014 -0.414778 0.162192 -0.524668 -0.763472 -0.289316 0.243057 -0.517986 0.497471 -1.039087 -0.534191 0.071472 
black_pepper 0.974405 0.207592 -0.048257 0.475130 -0.428996 -0.177355 0.109808 -0.683799 0.394535 0.138238 0.261579 0.517884 -0.135273 0.042708 -0.045929 
pepper 0.017379 0.317144 0.335588 -0.047556 -0.398682 -0.460432 0.456305 -0.950839 -0.042636 0.288033 0.047632 0.842692 -0.628871 -0.454335 -0.138534 
vanilla -1.166753 -1.214681 -1.062684 -0.211595 1.977003 0.699136 -0.479132 0.844898 -0.750539 1.451886 1.276634 0.294258 0.314087 0.188686 0.364431 
cayenne -0.252685 0.442297 0.023604 0.740693 -0.446676 -0.876374 -0.823114 -0.705709 0.150122 -0.068066 0.044495 1.734603 0.600389 -0.596089 0.099031 
vinegar 0.290875 1.315353 0.255957 -0.076964 -0.625174 1.068663 -0.191847 -0.418781 0.150577 -0.388606 0.532130 1.069914 0.239823 -0.350895 0.632071 
cane_molasses -0.142746 0.874519 0.274311 -0.388037 0.747997 -0.033062 -0.132567 0.582469 0.397630 -0.110825 1.247625 0.379168 0.291982 -0.153685 1.520867 
bell_pepper 0.376495 0.180458 0.176946 0.395308 -0.709130 -0.437986 -0.284560 -0.764836 0.311047 0.085097 -0.245627 1.131415 -0.235081 -0.660399 0.168371 
cinnamon 0.345343 -0.308340 -0.217284 -0.226807 1.714819 -0.323725 -1.136078 -0.164839 0.079449 0.842730 1.450509 -0.207977 0.126358 -0.254958 1.000409 
parsley 1.270838 -0.312800 -0.268557 0.635897 -0.522115 0.099494 0.878736 -0.094708 -0.206993 -0.053654 -0.042267 0.084724 -0.615728 -0.576045 0.100594 
chicken 0.028356 -0.092560 0.834435 -0.050359 -0.352609 -0.332861 -0.026131 -1.346147 0.234171 0.697678 -0.288902 0.493556 0.250438 -0.274745 -0.172617 
lemon_juice 0.648735 -0.216311 -0.068311 0.108215 -0.390936 0.735300 -0.149166 -0.577625 -0.971217 -0.054428 0.030884 0.109645 0.351017 -0.646340 0.633034 
beef 0.442813 1.292884 0.196219 -0.018497 -0.528612 -0.162250 -0.189251 -0.394464 0.847172 0.169111 0.490336 1.052317 -0.407957 0.551656 -0.293044 
cocoa -1.566196 -1.335129 -1.003631 0.120747 1.681957 0.625356 0.172166 1.445678 -0.535010 0.905906 1.202416 0.665237 0.277403 -0.232263 0.189780 
corn -0.763356 0.279612 -0.054260 0.130898 -0.650908 0.080716 -0.409391 0.379405 0.628803 -0.314049 0.676587 1.289768 -0.091797 -0.423060 0.477084 
bread 0.711531 -0.129068 0.085366 -0.408093 -0.723972 0.146742 0.792471 0.451072 0.340417 -0.084466 0.307881 0.567456 -0.518342 -0.284964 0.161196 
scallion 0.125872 0.651396 0.152812 1.316928 -0.212172 0.063387 -0.133267 -0.511192 -0.350202 0.527100 -0.465876 1.428540 1.004344 0.207505 -0.278891 
mustard 0.360338 0.876552 0.250600 -0.282929 -1.084710 0.645081 0.555435 0.137811 -0.217792 -0.385957 1.138251 0.489701 0.718812 -0.758838 0.582451 
ginger 0.302449 0.392963 0.718957 1.063358 0.949317 -0.638301 -1.032660 -1.262089 -0.092612 0.342723 1.040656 0.773837 2.192952 0.155033 0.180735 
basil 1.878265 -0.573134 0.127987 -0.159758 -0.507947 -0.343186 0.028245 0.190753 0.205512 -0.067986 -1.145422 1.097344 -1.226105 -0.045754 0.148490 
celery 0.574742 0.494554 0.442813 0.270676 0.102498 -0.227678 1.247163 -1.327007 0.514944 0.068929 0.173877 0.396969 -1.208489 -0.513064 0.216801 
carrot 0.654402 0.994262 0.557517 1.163560 0.749523 0.037308 0.573011 -1.529236 0.252189 0.397954 0.066176 0.149439 -0.707015 -0.266798 -0.499649 
potato 0.613483 0.490201 -0.222320 0.528247 -0.044869 -0.845206 1.146297 -0.717152 0.710467 0.883136 0.377536 0.069649 -0.401595 -0.577026 -0.646179 
chicken_broth 0.793423 -0.711736 0.688475 0.879197 -0.168177 -0.332567 0.231356 -1.774790 0.702736 0.702174 0.495633 0.281915 -0.701873 0.018990 -0.348786 
yeast 0.176447 -0.669980 -0.167292 -0.316565 0.315310 0.525486 0.379815 1.392716 0.425185 0.184658 0.635475 0.071617 0.044713 -0.317614 0.238866 
rice 0.183862 0.544191 0.749923 1.607165 0.830812 0.250711 0.235933 -1.064803 0.390749 -0.267296 -0.182343 1.020250 0.934979 -0.252490 -0.140329 
mushroom 0.750989 -0.396914 0.531427 0.120397 -0.338479 -0.619259 1.383217 -0.563310 0.723855 0.742776 -0.380830 0.873296 -0.173797 0.552323 -0.520212 
cheese 0.418186 -1.248351 -0.165311 -0.300194 -1.115332 -0.367858 0.042805 0.861535 0.587148 0.909668 -0.394090 0.814523 0.008802 -0.083564 -0.358454 
soy_sauce 0.265905 1.567498 1.112085 1.572128 0.729657 0.436152 -0.281342 -0.961779 -0.023194 -0.170070 0.327064 1.901366 1.807867 0.886480 -0.626405 
cumin -1.026875 -0.085731 0.859927 0.821541 -0.512283 -1.249176 -1.488788 -1.338126 -0.805668 0.085417 0.873111 1.512596 -0.661929 -1.808149 -1.049314 
oregano 0.931842 0.121275 -0.245896 -0.478760 -0.526822 -1.055190 -0.337869 0.139790 0.450977 -0.160351 -0.871160 1.671501 -1.279181 -0.201128 -0.220296 
parmesan_cheese 1.385248 -1.387998 0.165468 -0.159622 -0.880169 0.039436 0.876899 0.400500 0.418969 0.790765 -1.249901 0.691964 -0.871386 0.532282 -0.360713 
macaroni 1.478005 -0.613365 0.058612 -0.097460 -0.254260 -0.750521 0.801604 0.177297 0.124690 0.300743 -1.786225 1.094655 -0.761937 -0.162905 -0.022849 
thyme 1.880665 -0.583608 -0.016833 -0.015259 0.034874 -0.119616 0.778523 -1.090262 1.151245 -0.402716 0.497571 0.227163 -1.712590 0.335634 -0.526542 
cheddar_cheese -0.890931 -0.010851 -0.088560 -0.396135 -1.230305 -0.686495 0.791441 0.723831 1.024752 1.429931 -0.294973 1.132841 -0.230924 -0.459615 -0.356600 
lard -0.074423 -0.528805 -0.300561 -0.096970 1.094172 0.130535 -0.027593 1.027390 0.144558 0.246004 0.785015 -0.024444 0.002012 -0.238087 0.645187 
lemon 0.840609 -0.343316 -0.730702 0.184857 0.169813 0.333798 0.119873 -0.730355 -1.035619 -0.340670 0.230593 0.017442 0.097945 -0.432804 0.496588 
cream_cheese -0.031082 -0.618555 -0.437366 -0.524099 -0.030952 0.161234 0.870797 0.677873 -0.550828 0.345244 -0.191151 0.196153 0.670328 -0.086975 1.241714 
walnut 0.115973 -0.590501 0.296211 -0.572295 1.441149 1.308455 -0.486951 0.638800 -0.655135 0.692133 0.673077 -0.125812 -0.489445 0.142750 0.637216 
green_bell_pepper -0.025242 0.716075 -0.081881 -0.009774 -0.681225 -0.719648 0.234277 -0.485515 0.780820 -0.150196 -0.268101 1.528898 -0.986425 -0.538031 0.273078 
starch -0.030472 0.013222 0.592019 0.070272 0.838291 0.037987 0.582732 -0.746286 0.150299 -0.338261 0.556315 0.287210 1.222364 0.696290 0.289267 
nutmeg 0.323770 -0.286503 0.176424 -0.235698 1.682858 -0.375853 -0.526362 -0.206677 -0.107873 1.079493 1.184288 -0.382858 -0.803441 0.385951 1.002850 
honey 0.302991 0.393587 0.628208 -0.344581 0.717004 1.042636 -0.841882 -0.395023 0.031090 -0.022883 0.397686 0.489202 0.962325 -0.480713 0.516165 
apple 0.076192 0.604983 0.397049 -1.205978 1.378761 0.512602 -0.028942 -0.736840 -0.586922 0.533434 0.959254 -0.136794 -0.327892 -0.117309 0.429648 
almond 0.087710 -0.663486 0.528289 -0.268733 0.911605 1.162554 -0.035744 -0.423487 -0.881606 0.366637 0.603902 -0.146123 0.216027 -0.295427 0.393146 
cilantro -0.556746 -0.339767 -0.205111 1.032860 -0.528115 -1.036788 -1.690122 -1.179021 -0.567769 -0.176782 0.108258 1.959489 0.570862 -1.412678 -0.216051 
pecan -0.440955 -0.858333 0.211592 -0.775297 1.161086 0.649525 -0.534725 0.465502 -0.075229 0.769300 1.268512 0.098404 0.044377 0.488141 0.502959 
white_wine 1.561604 -0.531245 -0.034866 0.627603 -0.607533 0.232793 0.725984 -0.732625 -0.729567 -0.440761 -0.016339 0.307326 -0.457433 0.138729 0.081626 
bacon 0.305048 0.572156 -0.222006 -0.384837 -0.933858 0.444488 0.664389 -0.286691 0.634410 1.050317 0.343502 0.487233 -0.813936 0.205939 -0.422596 
pork 0.499303 1.368514 0.528207 -0.282260 -0.289839 -0.047146 -0.542177 -1.038059 0.771784 0.264969 1.197416 0.669511 0.351730 0.737936 0.044084 
raisin 0.087937 -0.173493 0.767628 -0.195887 1.753731 0.417913 -0.798881 -0.254343 -0.472545 0.876724 0.901382 -0.287562 -0.723748 -0.649716 0.924666 
bean 0.204764 0.786571 0.276831 0.403256 -0.231394 -0.492717 -0.407820 -0.546010 0.918631 0.353187 0.184511 1.003387 -0.464559 -0.486802 -0.042922 
rosemary 2.016661 -1.014400 0.571898 -0.648926 -0.083400 -0.223663 0.624434 -1.004380 1.331049 -0.179933 -0.060135 0.569503 -1.712210 0.571684 0.045288 
fish 0.990866 0.646324 -0.720525 1.745547 -0.519074 -0.238615 -0.465403 -0.622400 -0.981977 0.528629 -0.103150 1.144157 1.406011 0.194063 0.040954 
cucumber 0.444069 0.742267 -0.322484 0.991317 -0.562384 1.136663 0.207819 0.772804 -1.416884 -0.281095 0.127067 0.434729 1.585599 -1.412277 0.290502 
olive 1.241269 0.079042 -0.470796 -0.192147 -0.765724 -0.116838 -0.184485 0.436749 -0.124166 0.123064 -1.025629 1.232811 -0.847253 -1.150114 0.401247 
coconut -1.506474 -0.718416 0.961252 0.566383 1.308284 -0.402379 -0.285698 -0.750830 -1.257377 0.567204 0.969850 0.583826 0.928617 -0.606838 0.755646 
orange 0.805771 -0.352871 -0.357303 -1.203346 1.381738 0.608339 -0.436434 -0.669869 -1.383274 -0.430297 0.963203 0.375296 0.279942 0.034008 0.149044 
tamarind -0.376808 1.515630 0.287865 -0.292039 -1.571474 0.180078 -0.051838 -0.167336 0.841880 -0.991157 1.902460 1.402419 -0.553604 0.397071 0.881394 
vegetable 0.794970 0.779649 0.428921 1.367040 0.766327 0.114106 0.063717 -0.492100 0.390592 0.814418 -0.035352 0.506172 0.554759 0.141181 -0.707424 
orange_juice 0.785066 -0.475428 0.192593 -0.992669 1.143891 0.292425 -0.604252 -1.371887 -0.553744 -0.520478 0.830329 0.307839 1.084654 -0.055391 0.788132 
buttermilk -0.273814 -0.571176 -0.799558 -0.033859 0.538754 0.384375 0.328827 0.782422 0.103434 0.340605 0.359139 -0.117721 -0.059285 -0.755847 0.415752 
pineapple -0.558080 0.232239 -0.492476 -1.360665 1.302447 0.334102 0.638523 -1.076663 -1.085659 -0.473483 0.314293 0.923045 0.871953 0.008614 1.049453 
shrimp 0.455127 0.169958 -1.274953 1.843519 -0.581141 -0.642739 0.260691 -1.020677 -0.346248 -0.025933 -0.215452 1.660314 0.863702 1.121439 0.254718 
coriander -1.115105 0.308794 1.297020 1.021424 0.771116 -1.091560 -1.217452 -2.374085 -2.333420 0.751271 0.135708 1.209737 -0.995957 -1.657572 -1.096265 
bay 0.950363 -0.009757 -0.662717 0.684282 -0.576320 -0.719449 0.150973 -2.348992 1.380791 -0.101723 1.510786 0.234132 -0.910300 -0.109259 0.228024 
lime_juice -0.896716 -0.909710 -0.316279 0.656422 -0.525788 -0.026038 -1.412831 -1.844345 -0.272171 -0.995258 0.176521 2.349570 1.483922 -1.422673 0.048978 
red_wine 1.833403 0.104446 0.540786 -0.491358 -0.399118 0.627140 -0.539447 -0.724968 0.071795 -0.976448 0.665829 0.508112 -0.802170 -0.375814 0.023661 
gelatin -0.809679 -0.727245 -1.205581 -0.842184 2.080084 1.100060 0.817088 -0.164931 -0.905872 0.086904 0.110545 0.676520 0.726784 -0.099574 0.474980 
pork_sausage 0.284330 -0.295747 -1.358425 -0.788534 -0.700733 -0.509176 0.563276 -0.938703 1.684102 0.779936 -0.089040 1.589174 -2.277545 1.282100 -1.086001 
sesame_oil 0.220914 1.898744 0.336453 2.450685 1.579342 0.620558 -1.011896 -1.411927 0.305374 0.139167 -0.456415 2.544995 2.194370 1.632200 -1.242472 
chive 0.486366 -0.227890 -0.861875 1.114912 -0.974010 1.167601 0.894768 0.593071 -1.135624 0.536702 0.532480 -1.006959 0.335328 -1.246963 0.652671 
seed 0.200635 0.902110 -0.908357 -0.049808 0.502041 1.611404 -0.553250 -0.797564 0.396885 0.030015 0.575392 0.018481 -0.497346 -1.918232 -0.201911 
mozzarella_cheese 1.620617 -1.047297 -0.142469 -1.031769 -0.553163 -0.479305 0.245196 1.302678 1.412020 0.501097 -1.427253 1.440123 -0.794081 0.774781 -0.200666 
ham 0.156557 0.051754 -0.359795 -0.641027 -1.347504 0.374283 0.891354 -0.186386 0.220156 1.502846 0.140061 0.601599 -0.339548 0.335672 -0.778577 
oat -1.092233 -0.237180 0.163118 -0.068010 2.467067 1.795521 -0.260095 0.519550 0.238806 0.300380 1.010147 0.122259 -1.138525 -0.026819 0.564533 
turmeric -1.549457 0.070281 1.281061 1.864679 1.014834 -1.221200 -0.173035 -3.582523 -2.442071 0.535431 -0.146693 0.950210 -0.912403 -1.660663 -0.617612 
nut 0.950843 -0.359249 0.988428 0.208222 0.919666 1.277163 -0.276971 -0.181749 0.463002 0.198955 -0.201571 0.088813 0.354562 -0.186099 0.106784 
shallot 1.897696 -0.843001 -0.042937 0.440119 -0.531141 -0.084763 0.167530 -1.158902 -1.155396 0.201742 0.738670 0.147525 0.036232 0.301820 -0.606730 
lettuce 0.660153 0.600957 0.612162 -0.474370 -0.683243 1.088598 -0.135231 0.272907 -0.939417 -0.324943 -0.430434 1.553605 1.112152 -1.375587 -0.519937 
cider 0.178705 1.590310 0.629420 -0.520404 -0.345385 1.376139 -0.598036 -0.965516 0.046780 -0.822567 1.575736 0.541814 -0.336731 -0.651810 0.482436 
dill 0.520453 0.428403 -0.674239 0.394515 -0.926118 0.847123 1.357837 -0.088918 -0.810914 0.080108 0.125196 0.181176 -0.200784 -1.128883 -0.362036 
pea 0.239155 0.388962 0.822500 1.115498 -0.001115 -0.104383 0.900886 -1.004616 0.086014 0.764649 -0.584122 0.632711 0.014558 -0.594497 -0.074513 
zucchini 1.101653 -0.383042 0.283521 0.298287 0.246931 -0.653524 -0.213084 -0.400989 0.563945 0.793030 -0.601206 0.123224 -0.849509 -0.971458 0.096044 
cherry -0.154274 -0.888234 -0.249815 -1.035941 1.224436 1.084206 -0.538405 -0.010938 -1.459412 0.368575 0.797422 0.529567 0.148628 0.372075 1.063541 
lime -0.685251 -0.627036 -1.244545 0.082321 -0.234145 -0.195021 -0.658037 -1.472687 -0.803439 -0.814598 0.396027 1.687530 1.692456 -1.010307 0.129743 
yogurt -0.075336 -0.288521 0.356179 -0.127864 0.372898 0.954708 -0.284191 -1.084998 -1.440140 0.177976 -0.079720 0.187165 0.252701 -1.569121 -0.111113 
strawberry -0.375142 -1.472838 -1.649046 -1.660061 1.933066 1.772948 0.259861 -0.865308 -1.353828 0.565185 -0.364065 0.865869 1.182628 0.713051 -0.166477 
soybean 0.263516 1.515744 0.416131 1.957442 1.203988 1.049931 -0.892487 -0.697046 0.105035 0.843550 -0.139936 1.393532 1.419925 1.130495 -1.288108 
celery_oil -0.192877 2.473702 0.228199 -1.426782 -1.321661 -0.005492 -0.589971 -0.128965 1.558309 -0.957469 1.867320 1.842685 0.907162 0.295964 1.230721 
peanut_butter -2.796122 -0.437104 1.202419 0.708135 1.527495 1.125352 0.252897 0.411459 0.243717 0.971537 0.067640 1.135210 0.830155 -0.053470 -0.933045 
banana -0.810551 -0.796634 -0.531077 -0.884656 1.957765 0.579364 -0.137434 -0.593139 -0.807445 0.495914 0.274489 0.419591 0.930475 -0.214932 0.461212 
meat 0.500300 0.654551 0.558888 -0.668243 -0.206443 -0.316443 0.119901 -0.827462 0.665581 0.280698 0.887866 0.836674 -0.549989 0.697585 -0.529049 
tabasco_pepper -0.585214 1.146731 -0.600720 -0.169636 -1.526733 -0.041372 0.168048 -0.360875 0.174700 -0.098285 0.857477 1.438136 -0.004480 0.120381 0.699868 
milk_fat 0.600773 -1.405388 -0.421587 0.201552 0.106418 -0.529888 0.275086 0.563772 -0.837373 1.053904 1.185431 -0.502145 0.374780 0.545977 0.204647 
cabbage 0.165627 1.988694 0.251337 0.240465 0.423164 0.432568 0.348648 -0.970768 -0.029069 0.188205 0.508533 0.859700 -0.035435 -0.644239 -0.706535 
mint 1.049343 -0.615794 -0.594742 0.203834 0.326034 0.227970 -1.486635 -1.202812 -1.076579 -0.176290 -0.148490 0.387444 0.937061 -1.264380 -0.085200 
fennel 2.611735 -1.237700 0.104398 0.569921 0.190551 -0.696070 0.476590 0.254278 0.465806 -0.771608 0.266959 0.799298 -2.058677 -0.652412 -0.236561 
sage 1.841647 -1.308789 0.592941 -0.573443 0.374397 -0.682373 1.533875 -1.274142 1.934576 -0.356520 1.099846 -0.229601 -1.145741 0.436749 -0.598355 
broccoli -0.045870 -0.038363 1.114369 -0.115691 0.136641 0.025768 1.505085 -0.243372 0.015516 0.842927 -1.336442 0.856597 0.207182 -0.727914 -0.546624 
turkey 0.661439 0.105567 0.581837 -0.975052 -0.371409 0.104517 0.153764 -1.174744 1.288254 0.380312 0.301067 0.524741 -0.564386 0.051554 -0.530777 
fenugreek -0.553869 -0.951139 3.670067 1.295868 0.119283 -2.101138 -0.711168 -1.462287 -1.936319 0.366703 1.233869 1.517330 0.655866 -1.428010 -0.738652 
cranberry 0.724005 -0.011916 0.007254 -2.165743 1.284179 0.989959 0.030911 -0.952315 -0.402249 0.335181 1.071941 0.088413 0.185435 0.197630 0.175093 
wine 1.321637 -0.244976 0.464807 0.402453 0.084191 0.725447 0.083962 -1.239372 0.335429 -0.795064 0.511732 0.345708 1.109495 0.412700 -0.126731 
beef_broth 1.594843 1.485780 0.275956 0.368943 0.572336 -0.651815 0.265543 -0.894218 1.103846 0.162790 0.928258 0.788461 -0.482094 0.598079 -0.687906 
grape_juice 2.111216 -0.382945 0.618314 -0.824646 -0.471446 1.236311 -0.426831 -0.578602 -0.255388 -0.421802 -0.000317 0.445594 -0.569137 -0.195624 -0.159681 
pumpkin 0.222137 0.708003 -0.188179 1.012238 2.059501 -0.583249 -0.718574 0.378223 -0.370285 1.204828 0.511121 -0.405472 0.162921 1.205798 0.354131 
raspberry 0.452733 -1.135653 -1.560030 -1.306295 1.775257 1.523387 0.371561 -0.270921 -1.286008 -0.009448 0.024933 0.297316 0.721570 0.511365 -0.114183 
whole_grain_wheat_flour 0.238870 -0.513277 0.233900 -0.268739 1.203167 1.184608 -0.488347 0.961863 1.346976 0.276825 0.111975 0.144252 0.036434 -0.945763 0.077347 
lemon_peel 1.205630 -1.466890 -0.300402 0.314668 0.476959 0.677452 -0.120760 -0.257289 -1.189112 0.449905 0.102009 -0.480990 -0.127792 -0.349385 0.792929 
coffee -0.535512 -0.880520 -0.618473 -0.019316 0.518386 -0.059690 -0.605931 0.746377 0.142565 1.065387 1.716036 -0.449779 1.053355 0.136723 0.927452 
sesame_seed 0.356359 0.697069 1.035623 1.648779 0.551433 1.958708 -0.628805 0.004489 -0.057175 0.109879 -0.029399 0.541284 1.592097 -0.793140 -0.219375 
avocado -0.349024 -0.214533 -0.962872 -0.067764 -1.403771 0.605403 -1.275577 -0.102933 -0.730074 -0.382310 -0.440112 2.289297 0.995003 -1.489820 -0.590644 
sherry 1.143468 -0.439632 0.797592 0.531882 -0.445742 0.538473 0.015251 -0.944133 0.042515 -0.188442 0.687388 0.288365 0.271563 0.373278 0.312737 
sake 0.451335 1.773460 -0.277088 2.191356 1.555737 1.369459 0.057256 -0.464453 0.210672 -0.556968 0.175968 2.467441 2.139017 2.354663 -1.747109 
feta_cheese 1.764122 -0.714472 -0.394947 -0.502839 -0.672831 1.076006 -1.001503 0.093716 -0.130643 0.137149 -1.623687 0.474345 -0.203947 -1.308029 0.001368 
apricot 0.371241 -0.547528 0.161946 -0.614617 1.541000 0.369173 -0.477160 -1.108148 -0.854196 0.071106 1.316669 -0.215389 -0.476644 -0.113072 0.546026 
roasted_sesame_seed 1.505301 1.581784 0.259016 3.349538 1.453542 0.570016 -0.791562 1.594483 -0.440226 0.018389 -0.259008 2.063015 2.079467 0.454785 -3.014372 
rum -0.239742 -1.369168 -0.966663 -0.900309 1.736232 -0.282377 -0.593903 -0.409256 -0.953586 -0.387517 1.568590 0.646538 1.044558 0.226890 0.424521 
orange_peel 1.278714 -0.032194 -0.331247 -0.996394 1.434474 0.693669 -0.761935 -0.575701 -1.170656 0.441361 1.142637 -0.382372 0.173149 0.357912 0.438992 
squash 0.728445 0.157823 0.351589 0.283134 0.584900 -0.771348 -0.434139 -0.898144 0.403608 1.441563 -0.200912 -0.131433 -1.337810 -0.522093 -0.060051 
crab -0.434294 -0.614048 -1.317988 1.377057 -2.286561 0.066361 0.585825 -1.321068 0.219095 0.574830 0.682431 0.604029 1.690296 0.925119 1.051698 
marjoram 1.563694 -0.787545 0.467158 -0.215373 0.130338 0.693269 0.969702 -1.863997 1.625177 -0.344402 0.718851 -0.509442 -2.286432 0.569849 -0.696515 
swiss_cheese 0.090250 0.148224 0.110997 -0.977095 -0.852448 0.094770 2.485497 0.691573 0.160608 1.344023 0.051466 0.613071 -0.110186 -0.028409 -0.868230 
sweet_potato -0.332068 -0.080058 0.323509 0.761565 0.903944 -0.642038 -1.104602 -1.334218 0.109713 1.350823 1.919820 -0.369458 -0.698714 -0.238222 0.261212 
shiitake 1.791459 1.049678 0.197804 1.761249 1.188078 0.360347 0.854885 -0.689641 0.228746 0.875043 -0.532873 1.207910 1.267619 2.658283 -1.446559 
radish 1.031583 1.688214 -0.915636 2.154352 0.238078 1.367497 -1.144864 0.479576 -1.245900 0.872673 -0.438856 1.880273 1.592933 0.827863 -2.392440 
peach -0.322800 -0.217814 -0.735062 -1.003713 1.165416 -0.098461 -0.486147 -0.830107 -1.266553 0.250248 0.796900 0.495736 0.875311 0.517333 0.425177 
tarragon 1.611237 -0.636834 -0.261966 0.496961 -1.294121 0.894543 1.127650 -0.597001 -1.255550 0.003216 0.453077 -0.253924 0.193363 -0.255709 -0.269390 
black_bean -0.410483 0.371182 0.017017 -0.070035 -0.659799 -1.205207 -2.025059 -0.672513 1.511005 0.781692 -0.437071 2.401758 0.607503 -1.420553 -0.855796 
lamb 2.227754 0.002748 0.179104 0.267606 0.517583 -0.416819 -1.525320 -1.867741 -0.594854 0.180418 0.602446 -0.576234 -1.296014 -0.971597 -0.577922 
maple_syrup 0.095831 0.472494 0.358061 -0.386756 1.248084 0.181095 -0.006270 -0.028212 -0.032961 0.624640 1.412136 -0.076071 -0.037529 -0.102056 0.518289 
pear 1.123485 0.358693 0.438836 -0.020114 0.937388 0.965908 -1.166065 -0.275627 -1.335836 1.039232 0.676564 0.163352 1.147964 0.877128 -0.240989 
fruit -0.303748 -1.041332 -0.348792 -0.835347 1.685126 1.152921 -0.177962 -0.792079 -1.160505 0.203983 0.797944 0.484903 0.249280 0.502158 0.349503 
blueberry 0.011733 -1.150306 -0.914295 -1.552856 2.489626 1.096480 0.291032 -0.092543 -1.942638 0.866494 -0.176446 0.570804 1.802706 0.331232 -0.814863 
clam 1.900165 -0.002402 -1.713514 3.007146 -0.003059 -1.537994 1.514091 -1.067044 -0.635483 -1.019258 -0.107256 1.753039 -0.038051 1.479564 -0.280705 
smoke 0.551603 0.681208 -0.391322 -0.454527 -0.887396 -0.067771 0.520515 -0.209143 0.274563 0.232232 1.205930 1.126557 -0.742753 -0.066133 -0.782249 
tuna 0.125985 0.298745 0.059750 0.278313 -0.999149 1.143742 0.354676 -0.127434 -0.233639 0.552988 -0.696078 1.045383 0.957666 -0.817164 -0.261440 
kidney_bean -0.204612 1.320562 0.200132 0.114420 -0.391834 -0.245490 -1.410694 -0.543064 2.080119 0.546548 0.117606 1.997190 -1.919075 -0.729050 -0.498082 
peanut -1.700552 0.029306 0.806780 1.433601 0.756666 1.325485 -0.147824 -0.773879 0.424918 -0.038886 0.079315 1.078268 1.200780 -0.549957 0.150585 
asparagus 1.699275 -0.431757 0.480570 0.451326 -0.881248 0.057585 0.781875 -0.304372 -0.558723 1.528579 -0.519737 -0.188420 0.817230 -0.319558 0.323929 
salmon 1.016859 0.058695 -0.619877 0.442869 -1.074347 0.916639 -0.372067 -0.830675 -0.674077 0.380180 -0.029778 -0.016565 1.545080 -0.344262 0.158324 
leek 1.680183 -0.614835 -0.152778 1.351203 0.024491 -0.340517 1.092316 -1.397994 -0.274311 1.178447 0.996717 -0.458132 -1.160647 0.052092 -1.411382 
chickpea 1.038929 0.750133 0.482684 0.885086 0.272847 -0.505290 -2.202063 -0.809576 -0.749266 1.177061 -0.531705 0.720654 -1.576868 -2.220578 -0.193349 
blue_cheese 1.349769 0.359660 -0.205976 -1.550971 -0.759635 1.233728 0.155168 0.847138 -0.787720 0.151305 0.212115 0.493109 0.131540 -0.281147 -0.347036 
brandy 1.516239 -0.679710 -0.269243 -1.058492 1.104549 0.034612 1.095567 1.099720 -2.021203 -1.214097 2.651816 0.878714 0.016886 0.783364 0.125259 
artichoke 2.283704 -0.844284 -0.148458 -0.168040 -0.943158 -0.014472 0.259477 0.323298 -0.627814 0.438321 -1.029882 0.450724 -0.453032 -0.068110 0.187402 
horseradish 0.224799 1.562768 -1.325006 -0.246316 -1.072282 0.910380 1.119214 0.158603 -0.397181 -0.343355 1.152420 0.869830 0.490119 -0.765424 0.099964 
mango -0.962326 -1.055874 -0.151274 0.207919 -0.044779 0.102853 -1.197517 -2.000341 -1.662765 -0.398435 0.364993 1.306725 1.828315 -0.906246 -0.698575 
date 0.537899 -0.489045 0.546219 -0.242232 2.468289 0.498456 -0.595230 0.799551 -0.970617 0.042273 1.647308 0.136848 -1.020091 -0.611489 1.108597 
cardamom 0.139799 -0.190601 0.133261 0.874636 1.639584 -0.379832 -1.749499 -1.602274 -1.267401 0.476841 2.114527 -0.376171 -0.653759 -0.767008 -0.141091 
white_bread 0.961427 -0.825492 0.701319 -0.501309 -0.464731 0.457305 0.832364 0.242573 0.342596 -0.238381 0.724299 0.205779 -1.007506 -0.066858 -0.174636 
oyster 1.070125 0.176819 0.231662 2.147766 0.624300 0.056956 0.780016 -1.484278 1.472610 -0.011105 0.013360 0.988615 1.938010 1.534702 -0.574645 
cottage_cheese 0.020017 -0.890478 0.441556 -1.420921 -0.589963 -0.078019 0.991223 1.644579 -0.094302 0.400281 -1.014272 1.186326 -0.428850 -0.198667 -0.123371 
grape 0.243524 -0.553918 0.392150 -1.651816 0.887134 1.932455 -0.225915 -2.758814 -0.658645 0.156974 -0.415427 0.454573 0.927354 -0.636511 0.074373 
brown_rice 0.068711 0.041944 1.508500 0.096049 0.712880 0.077527 0.996803 -1.706435 0.728302 0.242237 -0.695641 0.677948 -0.213523 -0.566212 -0.106625 
cauliflower 0.265415 0.612243 0.936747 0.591274 -0.674675 0.702155 0.606073 -0.774612 -0.286891 2.024702 -0.560359 -0.468134 -0.094275 -0.941564 -0.647434 
cured_pork 2.343049 -1.687815 -0.019700 -0.557086 -0.506929 0.100647 0.998994 0.529239 0.845980 -0.192392 -0.676500 1.538030 -1.824068 1.117186 -1.220293 
egg_noodle -0.037818 0.794791 0.080301 -0.645868 0.132979 -0.824086 1.950872 -0.120218 0.465572 0.354310 -0.566538 0.937985 -0.414581 -0.381309 -0.283528 
beer -0.155202 0.974418 -1.189821 -0.258953 -0.772172 -1.449327 -0.002752 -0.789602 0.716140 -0.159678 2.006501 0.855003 -0.357181 -0.293127 -0.235742 
hazelnut 0.927069 -1.253685 0.108683 -0.312743 0.791991 1.166079 -0.222635 0.201692 -0.290853 1.064073 1.405616 -0.802432 0.195128 0.674374 0.178360 
mandarin -0.451932 -0.096559 0.400274 -2.034482 1.213959 1.773241 0.396265 -1.335063 -1.404763 -0.154996 -0.895149 1.274716 1.160086 0.152556 0.125210 
romano_cheese 1.677723 -1.573995 -0.257698 0.286083 -0.758208 0.070407 0.298717 0.331243 -0.003233 0.424719 -0.704357 0.726876 -1.441800 0.702475 -0.290319 
plum 1.012127 -0.146226 0.775357 -0.572188 0.789314 0.369484 -1.094884 -0.856292 -0.793438 -0.198652 2.005351 0.113523 -0.019895 0.078497 0.088744 
pimento -0.152619 -0.248944 -0.004107 -0.167225 -1.172338 -0.238690 1.476694 -0.331548 -0.500900 -0.085011 -0.410258 1.180289 -0.803161 -1.203657 0.092847 
smoked_sausage -0.308329 1.048938 -0.797211 0.458771 -0.847710 -0.195916 0.921204 -1.266610 1.436446 0.601184 1.310738 1.124117 -2.242591 0.030053 -0.279522 
scallop 1.180485 -1.268866 -0.942941 2.507791 -1.383256 0.233660 0.264979 -1.606618 -0.921445 0.083248 0.196369 0.528565 0.068294 0.632185 0.463747 
goat_cheese 2.492954 -0.999735 -0.097286 -0.839543 -0.832795 0.754742 -0.730140 0.836193 -0.291935 1.212622 0.058547 -0.139903 0.322647 -0.521632 -1.039625 
lentil 0.549463 0.209160 0.977110 1.002139 0.699264 -0.473302 -0.728340 -1.411946 0.267804 1.127466 -0.146117 0.258255 -1.640260 -1.781954 -1.312264 
currant 0.694190 -0.439794 -0.253580 -0.935054 0.880069 0.967408 -1.127141 -0.522029 -0.711480 0.879382 1.594041 -0.258720 -1.115299 0.218824 0.883549 
saffron 2.182014 -1.340659 -0.199251 2.281242 1.414581 -0.638527 -0.462084 -1.557337 -1.295982 -0.433527 -0.004221 -0.066036 -2.251526 -0.948788 0.127001 
barley 1.177521 1.175977 0.902831 0.572180 1.655283 0.996405 0.764999 -1.088381 1.136985 0.259343 -0.581530 0.526873 0.104165 -0.636779 -1.168903 
caraway 0.856937 -0.260434 -0.502386 -0.538517 0.242718 -0.719604 1.788025 0.588796 0.527523 -1.575382 3.867129 0.582007 -0.676919 -3.077766 -3.607427 
beet 1.638877 1.472638 -0.253588 -0.368920 -0.541558 1.983278 -0.662658 -0.552324 -0.946928 0.986927 1.146733 -0.213596 -0.063704 -1.267748 -0.653142 
squid 1.260052 0.575646 -1.007071 3.463259 1.532569 -0.844157 0.744478 -0.144362 -1.026666 -0.926165 -0.851575 2.380445 1.312360 2.316855 -0.549713 
corn_flake -1.093225 -0.274613 0.898621 0.062767 0.476061 0.109696 1.267898 0.178580 0.109181 0.259161 0.471187 0.478019 -0.420346 -0.390853 0.631542 
anise 1.101547 -1.145754 -0.928172 1.595139 0.953337 0.921819 -0.739277 0.022546 -0.049676 -0.735349 1.473873 -0.274867 -0.770033 0.670252 0.589950 
roasted_beef 0.604621 1.187311 0.338958 -0.824024 -0.627873 -0.034020 0.585063 -0.162612 0.026828 -0.079906 1.228624 1.071252 -0.613563 0.682160 -0.922308 
pistachio 0.036576 -1.598539 0.241738 -0.006724 0.763613 1.141382 -0.547297 -0.353269 -1.524814 0.475962 1.050969 -0.272315 -0.119216 0.096287 0.176648 
peanut_oil -0.622275 0.795133 1.140545 1.748414 0.274483 -0.015421 -0.140330 -1.801795 -0.304060 0.107745 -0.173790 1.506705 1.542737 0.039270 -0.094884 
cereal -1.484887 -0.654711 0.736695 0.275832 1.985695 2.597422 -0.367678 0.970831 1.283129 0.848546 0.467034 0.678517 -1.017283 -0.357637 -0.907357 
cashew -0.360101 -0.118105 1.999215 0.361923 0.813492 0.838116 0.250440 -1.435665 -0.493269 0.837533 0.074161 0.323690 0.931902 -0.709536 -0.235345 
veal 3.130254 -0.728775 0.039026 -1.007451 0.290578 -0.866715 1.283996 -0.490062 0.064424 -0.309656 0.847778 -0.205516 -0.954408 0.991959 -1.381793 
seaweed 1.075263 1.185020 -1.484407 2.961933 0.886431 2.442827 -0.183058 0.883545 0.817910 -0.242963 -1.071267 2.378626 2.383769 0.150812 -0.753312 
turnip 2.805908 0.953727 -0.513344 1.321813 1.599350 0.151920 0.781770 -2.263621 1.216468 1.458830 1.143887 -1.537209 -0.651751 -1.389752 -0.624841 
sauerkraut 0.101467 1.311307 -3.133352 -0.949437 -0.196402 0.855235 2.904779 -0.242552 2.004206 -1.120045 2.876551 0.596246 -1.152428 -0.594473 -1.469275 
berry 0.035796 -0.884721 -0.700583 -1.677085 2.078880 1.443723 1.220266 -0.969746 -1.234742 -0.021429 0.393821 0.304520 -0.186314 0.948579 -0.836230 
kelp 1.597841 1.067313 -0.766815 4.270484 3.088851 0.415681 -0.460049 0.833714 -0.568512 -0.902982 -0.635967 2.285914 2.188286 1.994294 -1.454569 
tomato_juice 0.275691 1.087555 -0.004005 -0.039921 -1.135967 -0.447880 -0.219042 -0.325424 0.835668 -0.310356 1.024739 1.252422 -1.045928 -0.070506 0.531466 
cod 0.731144 -0.117793 -1.157828 1.800855 -0.469417 -0.881117 0.377869 -1.251201 -0.458169 0.380950 0.327387 0.288187 0.560821 -0.371038 -0.363954 
provolone_cheese 2.025565 -0.946648 -0.417377 -1.676804 -1.269665 0.200573 0.142173 1.329268 1.216487 1.151365 -0.906182 1.601331 -0.494374 1.013848 -0.464110 
mussel 1.812295 -0.433518 -2.429753 4.209718 -0.204360 -0.093848 -0.027558 -3.101006 -0.178832 -0.837816 0.168122 0.613073 -1.311572 1.668022 -0.162263 
blackberry -0.118699 -1.709692 -1.788330 -1.380025 1.700706 1.989601 -0.178823 -0.476045 -1.058549 0.653298 0.322519 0.175129 0.213022 1.992462 -0.122935 
roasted_peanut -1.825101 -0.993710 1.112641 2.347737 0.869052 1.539850 -0.996445 -1.116127 0.817300 -1.072429 0.427581 1.674884 1.150291 -1.040834 -0.796958 
rhubarb -0.101814 -0.948657 -1.331979 -0.999186 2.032577 0.244315 -0.096067 0.615360 -1.317499 0.750263 0.544959 0.112322 0.601065 0.946729 0.466301 
chinese_cabbage 1.808723 1.907991 0.118766 4.341202 2.163930 1.208896 -0.399472 -0.703129 -0.888261 -2.044051 0.113757 2.750789 1.487616 3.311269 -1.955255 
corn_grit -0.133600 -0.859925 -1.140928 0.888819 -1.028225 -1.474363 -0.035020 -0.098790 1.225995 0.002409 0.558568 1.582363 -0.884698 -0.258501 -0.191908 
chicory 2.762426 0.340230 -0.877815 -0.150471 -1.016593 2.699766 -0.831397 0.109137 -1.184499 1.230664 -0.414043 0.395171 0.335339 -0.059226 -1.152745 
bourbon_whiskey 0.192781 1.185735 -2.635711 -0.133071 1.756134 -2.240510 -0.383588 -0.233338 0.328015 0.232311 1.819638 0.325494 0.855568 -0.155251 3.451856 
citrus 1.148330 -1.273727 -1.384904 0.141630 1.576722 1.191680 -0.650888 -0.019311 -2.068347 -1.120273 2.149645 0.391197 0.241627 0.064756 0.262860 
lima_bean 0.565910 1.361999 -0.410010 0.412864 -0.336639 -0.899815 -0.153795 -1.343763 1.496481 0.274500 1.014746 0.990601 -1.886526 -1.275749 -0.045958 
lovage -1.039436 2.354012 -1.882106 2.375415 -1.907365 -1.878753 0.498665 -0.677401 -4.327099 0.005864 2.039800 1.237273 -2.847824 3.553421 3.351891 
melon -0.055674 -0.977341 -1.197387 -0.945268 1.588212 1.905724 -1.045002 -2.721721 -0.662826 -0.646157 -1.394820 1.810878 1.191569 -1.021929 0.442760 
parsnip 1.106647 0.527003 -0.852249 0.224241 0.856220 -0.711113 0.709934 -2.596021 0.261142 2.275389 1.785091 -1.440513 -0.978889 -0.883126 -3.001078 
fig 2.011140 -1.537783 0.218088 -0.702340 0.658898 1.331059 -1.744203 0.021282 -1.046902 0.159997 1.645048 -0.319881 -1.296890 0.622072 0.910956 
lemongrass -1.177489 -3.013219 1.300317 3.745826 0.688929 -0.669829 -0.795472 -3.117948 -0.491817 -2.392205 0.947278 2.337157 2.123124 -0.011338 -2.903442 
whiskey 0.412305 -0.973689 1.382185 -1.530801 -0.605443 -0.523688 -2.111111 1.780461 -0.815806 -0.233344 4.024006 1.472449 0.756010 1.261517 -0.497996 
watercress 1.119702 0.077780 0.403306 0.063302 -1.255844 1.905009 -1.275925 -0.772904 -0.980526 0.390628 0.649725 0.882019 0.444686 -0.088668 -0.418547 
tequila -0.868959 -0.381151 -1.814646 -0.819593 0.005855 -0.794215 -1.584836 -1.097157 -1.229843 -1.644325 0.630153 2.946581 1.603634 0.536234 0.869535 
rye_flour 0.198448 0.276824 -2.154036 -0.657500 0.083829 3.407998 -0.092178 0.831635 1.983126 0.994618 1.828100 -0.611668 -1.097741 -0.752364 -1.668722 
peppermint -0.340380 -0.925485 -1.205749 0.666897 0.668235 0.995042 -0.008679 0.876556 -0.699543 0.714013 0.326923 -0.663109 1.821522 -0.690475 0.334668 
savory 1.689134 -0.712472 -0.337707 0.481180 -0.241870 0.401253 -0.408418 -1.900902 1.054736 0.149762 0.426415 -0.200874 -1.943895 0.492995 -0.982955 
lobster 1.243689 -1.441646 -2.192002 1.713062 -0.925221 -0.807870 0.546558 -1.490484 -0.507141 -0.515258 0.939115 0.391958 -0.318834 1.337193 0.402525 
roasted_pork 0.769840 1.759651 -0.109925 -1.054858 0.212800 -0.106960 -0.355715 -1.860724 0.480279 0.236121 1.398393 0.150634 -0.918616 0.736575 -0.314793 
mace 0.992573 0.180766 0.169881 0.361866 1.716781 -0.235449 -0.851045 -0.657978 -0.306646 0.515855 2.009638 -0.535301 -0.466674 0.451141 0.673439 
endive 2.804097 -0.855413 1.060743 0.081211 -1.238758 1.424466 -1.020336 0.445348 -0.869644 0.534705 1.417839 0.281629 -0.717624 -0.055905 -1.310724 
brassica 1.485197 1.462069 -0.552583 1.252774 -0.189274 0.075291 -1.272269 0.343033 -0.251678 1.452223 1.184516 1.167632 -0.216070 -0.021212 -1.935558 
grapefruit 0.760001 -0.093551 -0.411838 -1.614907 0.411109 1.483000 -1.048966 -1.594101 -1.767794 -1.293081 0.263180 1.644454 0.879303 -0.125402 0.496089 
enokidake 2.656955 2.970298 -1.977270 2.766234 2.458593 -0.429993 -0.129215 0.615046 0.644624 0.647519 -0.181377 2.546422 2.571773 2.814739 -1.192688 
porcini 3.101327 -0.971236 0.059314 -0.009212 0.317788 -0.243096 1.137051 -1.195743 0.718771 1.410659 0.067107 -0.800613 -1.071663 1.657501 -1.161129 
kiwi -0.160547 -0.217956 -1.469228 -1.467916 2.227672 1.757853 0.023968 -1.497312 -0.707736 -0.698162 -0.761784 1.280661 1.917990 -0.531782 0.124221 
wasabi -0.170600 1.782006 -0.248061 3.727292 -0.650256 3.109963 0.753339 0.732988 -2.490387 -0.419779 0.077830 2.645113 0.509826 1.404941 -0.098802 
watermelon 0.554213 -1.849037 -2.183014 -0.889841 0.100461 1.328052 -1.612360 -2.371333 -0.960838 -0.176078 -0.020478 1.398759 1.816611 -0.597916 0.025859 
lime_peel_oil -0.188235 -1.454215 -1.292374 -0.328865 -0.304900 -0.218912 -1.573913 -1.800159 -0.918955 -0.550241 -0.347148 1.847566 1.978625 -1.263812 0.052549 
okra 0.008892 0.050866 -0.356575 1.350527 -0.628987 -1.474474 -0.091711 -1.674654 0.656283 -0.373109 0.978594 1.160104 -0.851835 -0.587928 0.410774 
macadamia_nut -1.322558 -1.170948 0.029274 0.157543 0.883141 1.006760 -0.223521 0.005503 -0.765599 -0.019722 0.478321 0.298334 0.813367 -0.311181 0.125862 
smoked_salmon 0.825949 -0.192538 -1.839693 1.015307 -1.748731 1.736869 1.134688 0.857513 -2.211504 1.324395 -0.170019 0.007075 0.729434 -1.019632 -0.901014 
kale 1.702482 0.527934 0.012656 1.107078 -0.104847 -0.330359 0.074325 -0.624880 0.316889 1.769530 0.692158 0.216437 -1.815341 -0.249992 -1.961505 
popcorn -2.009823 -0.967971 0.724997 0.511810 1.009296 0.437982 0.293708 0.226966 0.394918 0.103974 -0.201030 1.161034 -0.361604 -1.096668 0.365641 
rye_bread 0.655722 0.870706 -1.490970 -1.600751 -1.615810 0.572561 2.224126 1.309006 0.092320 0.531855 1.874477 0.877019 -0.716648 -1.742348 -1.589225 
star_anise 1.250743 0.022556 0.664365 1.367280 1.201969 0.605540 -1.864841 -2.140338 -0.571351 -0.679712 1.244951 0.075895 0.842646 0.725835 0.025540 
brussels_sprout 1.107651 0.324132 0.681649 -0.172309 -0.182921 0.512591 0.629309 -0.203913 -0.292317 1.879288 0.449253 -0.657028 -0.474658 -0.517922 -0.584431 
tea -0.093963 -0.752145 -0.800625 -0.163777 1.098628 0.185557 -0.733656 -0.913148 -0.853174 -0.005714 1.539969 -0.023296 0.666569 -0.193248 0.095303 
thai_pepper -1.033588 0.570717 0.796627 1.784844 1.415887 -2.407715 -0.947669 -2.457783 -0.737532 0.384806 -0.978877 3.239684 2.811327 -0.776388 1.226447 
champagne_wine 1.468356 -0.232681 -0.747284 -0.708813 -0.498318 2.083566 -0.194386 -0.873947 -1.163012 -0.272545 0.910256 0.229581 0.776130 0.441445 -0.604655 
anise_seed 0.842177 -0.666000 -0.563018 -0.463911 1.191695 0.443309 -1.652307 -0.140308 -0.119310 -0.021069 1.287767 0.077455 0.437325 -1.696947 -0.733906 
yam 0.831565 0.539893 -0.219932 0.200164 2.223436 -1.517218 -0.062951 -1.319872 -0.017455 1.629305 1.553316 -0.650529 0.712564 -1.074642 -0.968409 
bitter_orange 1.026629 -3.720038 -1.374164 -0.833224 0.397494 0.241586 1.123356 -2.757271 -1.641109 -0.707943 1.641392 -0.177316 0.462951 1.078120 0.991035 
wheat_bread -0.078109 0.306027 -0.300586 -0.774085 -0.383685 0.941639 0.781102 0.046534 0.827566 0.567604 -0.318904 0.829555 0.130550 -1.464856 -0.011087 
