249 50
</s> 0.008005 0.008839 -0.007661 -0.006556 0.002733 0.006042 0.001882 0.000423 -0.007207 0.004437 -0.008713 0.002499 -0.001503 -0.001914 -0.006631 -0.003764 0.005159 0.006051 0.005938 0.003195 0.003090 -0.007605 -0.008192 0.009939 0.007603 0.006180 -0.001208 0.008031 -0.000990 0.001469 -0.000298 -0.005966 0.002625 -0.002675 -0.007651 0.009508 0.008759 -0.002190 -0.000452 0.001018 -0.007275 -0.008014 0.009109 0.000126 -0.005165 -0.006084 -0.006153 0.003394 0.000403 0.002662 
egg -0.082520 0.267386 -0.319931 0.421649 0.357422 0.390063 -0.203121 -0.028119 -0.250435 -0.387186 0.397411 0.268832 -0.242534 0.009008 0.119653 0.104934 0.430904 -0.492387 0.562718 0.619296 -0.659280 0.094303 0.221106 -0.689561 0.180093 -0.071445 -0.168712 0.185608 0.350857 -0.451163 -0.559699 -0.088862 -0.252684 0.074325 0.078465 -0.530158 0.210644 -0.332836 0.043415 -0.462734 -0.435754 0.515725 -0.405712 -0.562712 0.191131 -0.236070 0.558536 -0.125636 0.203827 0.117407 
butter 0.069633 -0.473612 0.020542 0.419323 0.563266 0.156133 -0.032346 -0.032021 0.274553 0.190327 0.499966 -0.119056 -0.513396 0.135046 -0.276292 0.458200 0.219140 0.064602 0.613330 0.087840 0.200453 0.408092 -0.117882 -0.768276 0.662744 -0.272324 -0.101936 0.204722 -0.069575 -0.574811 -0.335305 0.049205 0.078572 -0.529425 0.131815 -0.472588 -0.365195 0.096908 0.011737 0.177797 0.043533 0.643482 -0.464182 0.241568 0.087452 0.420492 0.013512 -0.517595 -0.257858 -0.002987 
wheat -0.643818 -0.142453 0.069773 0.042049 0.120405 -0.158363 0.361256 -0.553747 0.061056 -0.354486 0.368448 0.093792 -0.237169 0.053467 0.237438 0.403630 0.299151 0.040275 0.350256 0.296229 -0.411220 0.519317 0.440794 -0.546182 0.683943 -0.148671 -0.188589 0.035623 0.548239 0.519363 0.199459 -0.067617 0.673103 -0.235566 0.295612 -0.135813 -0.019943 -0.225501 -0.274454 -0.286032 -0.415969 -0.029040 -0.413346 0.113082 0.142265 0.379632 0.319471 -0.263944 -0.074826 0.263384 
onion -0.589138 -0.497282 -0.203319 0.305637 0.105564 0.432675 -0.032341 0.414062 -0.194002 0.108548 0.827630 -0.079049 0.558482 -0.053302 -0.457031 -0.730371 -0.063866 -0.462651 0.015639 0.286396 0.168037 -0.407001 0.409580 0.753986 0.237512 0.062502 0.310741 0.077838 -0.271092 0.123418 0.101788 0.157472 0.703465 -0.383273 -0.335454 0.226602 -0.038257 0.285299 0.237980 -0.288916 -0.075644 -0.042754 0.083232 -0.054115 -0.056408 -0.011182 -0.030408 0.197632 -0.165936 0.091422 
garlic 0.058213 -0.231676 -0.467280 0.133343 0.146314 0.266197 0.205128 0.693809 0.996761 0.014870 0.626493 0.096668 0.426479 0.415407 -0.407702 -0.302532 0.335654 -0.387082 -0.121714 -0.168825 0.610614 -0.420140 0.479824 0.376825 0.432038 0.028873 0.212013 0.137658 -0.508489 0.623396 -0.214720 -0.004973 0.134698 0.216780 -0.451954 0.885327 0.067799 0.424748 0.101772 0.043587 0.085949 -0.120558 0.022244 -0.252354 -0.794206 -0.065418 -0.004347 0.064320 0.128079 0.407502 
milk -0.082677 0.219507 0.164113 0.527598 0.185808 0.722669 0.353527 -0.066165 -0.319093 -0.112922 0.436629 -0.083331 0.157248 -0.512473 -0.168643 0.432185 0.298806 0.261325 0.952389 0.549847 -0.509862 0.539365 -0.109732 -0.705695 0.855739 -0.095797 0.017440 0.425358 0.219169 -0.540434 0.284325 -0.316138 -0.202972 -0.290206 0.373955 -0.138834 -0.051253 0.216095 -0.043711 -0.402188 0.041033 0.233722 -0.273510 0.498330 0.133713 0.443473 0.381485 -0.003989 0.111756 -0.043144 
vegetable_oil -0.073572 0.068447 0.039804 0.333907 -0.170879 -0.359493 0.188824 -0.026005 0.441362 0.120823 0.265348 0.077699 0.448870 -0.121911 -0.063418 -0.549572 0.247368 0.460410 0.744160 -0.088135 0.045669 0.160504 0.332538 0.009693 -0.003131 -0.409353 0.299464 0.109776 -0.846908 -0.268074 -0.358755 0.246761 -0.343404 -0.274754 0.308133 -0.170609 -0.493408 0.351689 -0.066916 0.119693 0.380996 -0.048178 0.487749 0.082723 0.269215 0.214911 -0.193251 -0.004806 -0.498767 0.202143 
cream -0.669457 -0.257030 0.048132 0.402222 -0.108625 -0.002666 0.025180 0.147196 -0.244159 0.284487 0.839081 0.009883 0.135597 -0.431095 -0.215804 0.127448 -0.024888 0.422389 0.844374 0.239478 -0.057641 0.229526 0.003212 -0.550800 0.433738 0.069358 -0.373492 -0.191497 0.458986 -0.623496 0.019975 -0.064858 -0.277249 0.009895 -0.013287 -0.498278 -0.333792 -0.408081 -0.080125 -0.546852 0.127775 -0.074952 -0.234485 -0.040572 0.053993 0.305780 -0.129851 -0.241509 0.086273 0.195410 
tomato -0.011573 -0.312595 -1.232692 -0.339606 0.504053 0.694090 0.351202 0.573429 0.202443 0.773417 0.080778 -0.029083 0.001440 -0.331824 0.322619 -0.752476 0.290789 -0.306507 0.096419 -0.283394 0.021271 -1.226428 0.395267 0.433154 0.894781 -0.150683 -0.448807 -0.570264 -0.037909 0.382566 0.308887 -0.429232 0.241620 -0.259896 -0.589938 0.794550 0.231369 -0.360782 0.038888 -0.005625 0.384741 0.391196 -0.014156 -0.136489 -0.742996 -0.624957 0.095236 0.490048 0.366724 -0.642484 
olive_oil 0.417678 -0.137614 -0.512406 0.328219 0.625715 -0.340875 -0.010184 0.555389 -0.642870 0.591585 0.752107 -0.105548 -0.806829 0.094345 -0.162704 -0.200710 0.044315 0.296223 0.078935 0.000941 0.819576 -0.184963 1.233944 0.255990 -0.121180 -0.764701 0.163710 -0.353170 -0.607096 -0.081500 -0.189472 -0.211120 0.128630 -0.705371 -0.380821 0.514189 -0.696474 -0.154262 -0.079411 0.180510 0.252619 0.298119 0.077426 0.513651 -0.670339 0.448612 -0.366468 0.316478 -0.929281 -0.262129 
black_pepper 0.037104 -0.160659 -0.197547 -0.207292 0.297521 -0.319655 -0.196251 1.233054 0.200126 0.897912 0.463957 0.127716 -0.272019 0.048765 -0.550597 -0.167609 0.346156 -0.548477 -0.107588 -0.318567 0.443671 -0.370780 0.447085 -0.069146 0.321036 -0.224040 -0.198215 0.205749 0.227466 0.390142 -0.425359 0.247798 -0.304341 0.091654 -0.090122 -0.198977 -0.285054 -0.251868 0.106423 -0.048890 0.010786 -0.098010 0.370788 -0.473487 -0.245886 -0.118688 -0.085855 -0.380336 -0.170247 -0.142698 
pepper -0.003647 -0.208039 -0.009268 -0.373385 -0.035731 -0.082651 0.157656 1.254500 0.206553 0.637019 0.332563 0.220558 0.064011 0.180074 -0.631974 -0.333066 -0.399845 -0.488661 -0.182281 0.014071 0.382082 -0.181769 0.366321 0.416615 0.521645 0.240539 0.206751 -0.224102 -0.135845 0.152293 -0.320175 0.155234 0.081965 0.465804 -0.486564 0.082513 -0.102232 0.334534 -0.067122 0.094495 -0.099139 -0.067654 0.232531 -0.349456 0.537554 -0.487591 -0.136400 -0.027314 -0.422242 -0.386237 
vanilla 0.578985 -0.860605 0.686774 0.206195 0.139058 -0.418678 0.385777 -0.311739 -0.165840 0.643943 -0.392760 0.662017 0.540353 -0.839851 0.892021 1.605604 0.250674 -0.442892 1.045274 0.930133 -0.162061 1.327522 -0.068114 -0.450856 0.499824 -0.154092 -0.046593 0.790434 0.355056 -0.725409 -0.589860 -0.667293 0.899326 0.409518 0.002123 -0.107561 0.641038 0.130738 0.845749 -0.793989 0.039626 -0.077029 -1.085966 -0.545564 -0.056249 0.089828 0.054461 1.010544 0.606406 0.469128 
cayenne -0.737920 0.288287 0.106733 0.259373 -0.548393 0.127613 0.224000 0.064058 0.349220 0.474392 0.319697 0.571663 0.459135 -0.107726 -0.677669 -0.874009 -0.227817 -0.600880 -0.332920 0.175132 0.918367 -0.654635 -0.021885 0.462391 0.254506 -0.477881 0.190589 -0.436239 0.308850 0.332132 -0.703329 -0.307528 0.027243 -0.031893 -0.140323 0.546781 0.215021 -0.719296 0.116284 -0.274280 0.052184 -0.014044 -0.259799 -0.545572 -0.298742 -0.358230 -0.266886 0.399903 -0.398635 0.300287 
vinegar -0.469719 -0.171127 -0.215837 0.128397 0.186392 -0.756593 0.472537 -0.517705 0.684485 0.423756 -0.453342 -0.153516 0.595377 0.899594 0.367046 -0.705621 0.689362 0.194467 0.000936 -0.378355 0.020497 -0.890927 0.733810 0.633514 0.684654 0.030328 -0.658939 -0.534182 -0.822270 -0.338563 -0.668036 0.087525 0.045535 0.425478 -0.552261 0.146718 0.045525 -0.097490 1.320710 -0.052175 -0.007607 -0.160350 -0.019686 -0.478229 -0.063809 -0.059070 -0.796964 -0.206019 -0.065403 0.209495 
cane_molasses -0.155581 0.154758 0.200052 0.613277 0.129158 -0.492951 -0.123785 -1.006440 0.298171 0.862660 -0.321729 0.580312 0.580759 -0.056163 0.551147 -0.864226 0.203989 -0.602005 0.495722 0.500074 -0.915855 0.380804 -0.101954 -0.203859 0.452438 -0.565386 0.474375 0.795980 -0.171908 -0.016049 0.174343 -0.165066 0.261192 -0.516360 0.277725 -0.058215 -0.228353 0.051900 0.114910 0.334355 -0.131338 -0.329843 -0.168976 -0.220304 0.793843 0.006531 0.666295 -0.306838 -0.407739 -1.326341 
bell_pepper -0.203599 0.220251 -0.184572 -0.122730 0.046133 0.015760 0.062589 0.296177 0.445347 0.489019 0.595815 0.326548 -0.067109 0.329532 -0.364571 -0.498103 -0.045958 -0.107897 0.234892 -0.274714 0.392181 -0.630238 0.460643 0.428269 0.321627 -0.023992 0.147799 0.092462 -0.063144 0.297450 -0.326836 -0.282654 -0.015394 0.016609 -0.335602 0.638833 0.131395 -0.187478 -0.175995 -0.114841 -0.081269 0.154922 0.354415 0.003867 -0.417042 -0.349732 -0.051935 -0.084618 -0.243434 -0.224377 
cinnamon 0.116527 -0.680130 0.887329 0.542560 0.515177 -0.398953 0.251810 -0.888506 0.178914 0.660237 0.045971 -0.373464 0.154820 -0.670469 0.615283 0.473369 0.642533 -0.535486 -0.126692 -0.403098 0.193998 0.782616 0.104011 -0.700605 0.119955 -0.978434 0.355341 0.233209 0.735124 -0.305677 -0.225044 -0.723309 0.283114 -0.181647 -1.042112 -0.190110 0.226951 0.329281 -0.129779 -0.493517 -1.250668 0.313181 -0.401051 -0.325607 -0.366735 0.079423 0.092041 0.149610 0.049144 -0.684721 
parsley 0.097308 -0.017100 -0.033498 0.045341 0.625632 -0.184960 0.132351 0.604507 -0.345685 -0.021163 0.218949 0.034607 -0.346287 0.212375 0.035068 -0.029536 -0.278245 0.028952 0.451259 -0.069082 0.544191 -0.643354 0.809999 -0.207136 0.043181 0.544976 -0.376774 0.227128 0.090014 0.492903 0.254486 0.288157 -0.111665 -0.168571 0.004150 0.196303 -0.867633 0.015172 0.033611 -0.802331 0.244190 0.374326 -0.116025 -0.256159 -0.472871 0.404425 0.057399 -0.570249 -0.380746 0.005640 
chicken -0.300791 0.567438 -0.715222 -0.234375 -0.040000 0.042096 0.938929 0.283371 -0.271245 0.398344 0.172426 0.388049 -0.199028 0.386664 -0.697851 0.380810 -0.590641 0.196906 0.050007 -0.533374 0.012632 -0.206302 -0.090789 -0.104323 0.207007 -0.295567 0.660264 -0.398704 -0.529752 0.545791 -0.734461 0.248905 0.299173 0.179730 -0.621502 0.080072 0.272711 0.668796 0.117361 0.341931 -0.097900 -0.155345 0.882044 -0.040108 0.062551 0.476699 0.363560 0.478156 -0.039719 -0.049883 
lemon_juice 0.045313 0.092109 -0.532169 0.636405 -0.413690 -0.992237 -0.313790 0.148895 0.329179 -0.458964 0.208771 -0.132521 -0.243314 0.026338 0.076590 0.069199 0.193744 -0.222065 0.758482 -0.017067 -0.065323 -0.402242 0.803054 -0.136739 -0.294128 -0.165097 -0.335839 -0.175014 0.180751 -0.382806 0.106844 -0.245026 -0.336043 0.012857 -0.886595 0.033114 0.244883 0.103262 0.290838 -0.443064 -0.003451 0.160266 -0.092070 0.021282 -0.010114 -0.120312 -0.037644 0.005313 -0.127679 -0.418890 
beef -0.216068 -0.569046 -0.885698 -0.222515 0.533047 0.296515 0.499648 0.290137 0.245251 1.126039 0.197679 0.813896 0.809281 -0.447475 0.298256 -0.430333 0.459522 -0.080726 -0.397658 -0.169819 0.376256 -0.524674 -0.057285 -0.272094 0.523428 0.470801 0.455720 -0.393901 -0.549351 0.781821 -0.386109 0.239500 -0.338647 -0.276485 0.213763 0.180202 -0.249948 0.027840 0.357799 0.629405 -0.276383 -0.741472 0.342446 -0.449566 -0.290480 -0.007678 -0.076814 -0.784290 0.028065 -0.033620 
cocoa 0.298295 -0.543577 1.487719 -0.556161 0.228953 0.543751 -0.177171 0.009075 0.620866 0.531430 -0.025896 0.515378 0.132190 -0.708172 1.076998 1.608748 -0.385991 -0.878059 0.874988 0.972685 -0.686750 0.503626 -0.556980 -0.333902 0.556879 -0.576824 0.062088 1.200074 0.064153 -0.707557 -0.018668 -0.228189 0.485970 1.057173 -0.001545 0.194235 0.654109 -0.938662 1.265958 -0.487199 -0.042189 0.230495 -0.134343 -0.218631 0.418872 0.669162 0.804206 -0.210749 -0.464435 0.488887 
corn -0.622613 -0.166834 0.076555 0.015267 -0.747473 0.602870 -0.128720 -0.004955 0.899035 0.331166 0.347855 0.039130 0.631936 -0.119301 0.543963 -0.238966 0.576874 -0.536366 -0.034659 0.047888 -0.365930 -0.776335 -0.220845 0.021328 0.676890 -0.572381 0.779672 -0.253966 -0.618035 0.228427 -0.111625 -0.149203 0.334268 -0.464846 0.469962 0.884394 -0.239606 0.098610 0.153581 -0.263990 0.413103 -0.123949 0.416495 0.403125 -0.274241 -0.012178 0.251567 -0.077671 -0.331987 0.187686 
bread -0.017939 0.157661 -0.213703 -0.570112 -0.012866 -0.118152 0.012690 0.304867 -0.046400 -0.277984 0.693744 -0.013976 -0.502867 0.561450 0.191426 -0.023734 0.577912 -0.223527 0.443440 -0.583100 0.110677 0.041633 0.246108 0.320329 1.008700 0.174022 -0.113074 -0.164885 -0.037919 0.291100 0.368128 0.260778 0.350052 -0.431411 -0.144416 0.355400 -0.509251 0.018751 0.557005 -0.274134 0.117355 0.418653 0.421300 -0.021514 0.313052 0.099926 0.434023 -0.172558 -0.084285 -0.398475 
scallion 0.063375 0.260538 -0.536966 0.187667 -0.123457 -0.296855 0.663851 -0.200907 0.478035 0.198970 1.098091 -0.030442 0.837616 -0.538441 -0.623878 -0.338141 -0.004114 -0.363103 0.322713 -0.006529 0.292429 -0.538150 0.110987 0.366153 -0.610890 -0.104722 0.038279 -0.073408 0.033628 0.567131 -0.526254 0.307950 0.056815 0.497139 0.015370 0.423297 0.103622 0.045795 0.194066 0.302998 -0.191100 0.342443 0.062348 -0.020061 0.299260 0.081090 -0.097264 0.621955 -0.014395 0.647641 
mustard -0.222990 -0.151660 0.110249 0.019781 -0.093406 -0.867490 -0.133238 -0.020114 0.733676 0.226894 0.554275 0.066616 0.654760 -0.239200 0.268815 -0.626738 0.588908 0.040833 0.364835 -0.124440 0.002502 -0.636460 0.250112 0.068460 0.057107 0.696059 0.256697 -0.023943 -0.377941 -0.483037 0.682007 0.099597 0.009855 -0.054209 -0.477479 -0.424963 -0.280902 0.509237 0.895996 -0.987464 0.322936 0.305861 0.416155 -0.664882 -0.016681 0.072878 0.426835 -1.157501 -0.647249 -0.098885 
ginger -0.835721 0.050133 1.006134 0.090268 0.347028 -0.584626 -0.295337 -1.024840 0.374068 0.085635 0.589593 0.138715 0.580453 -0.204288 -1.011015 0.409567 0.755727 -0.588165 0.229030 -0.120498 0.173409 0.341965 -0.097671 0.060832 -0.319019 -0.955693 0.260237 0.122680 -0.380524 0.444342 -0.708527 0.431359 0.276010 0.346250 -0.215382 -0.361763 0.584718 -0.312463 -0.994418 0.381552 0.150584 0.717466 0.385713 -1.403621 -0.746537 0.197749 -0.509674 0.485858 -1.166623 -0.377033 
basil 0.108976 0.704307 -0.324122 -0.051274 0.878190 -0.393405 0.399934 0.717998 -0.329862 0.215157 0.169006 0.609062 -0.200804 0.495396 0.225114 0.135733 0.172140 -0.647254 -0.489690 -0.037473 1.225632 -0.586012 0.759644 0.596388 0.490748 0.191565 -0.426454 -0.132371 -0.747822 0.776904 0.736893 -0.425288 -0.112348 -0.710940 -0.575022 0.326375 -0.196745 -0.701077 0.300552 0.077606 -0.048647 0.161278 0.459776 1.073652 -0.129411 0.467820 0.477712 0.564223 0.462976 -0.272480 
celery -0.462165 0.097267 -0.048147 0.095143 0.944755 -0.040430 -0.214196 0.444554 0.045533 0.238216 -0.361321 -0.187909 -0.241755 -0.255941 -1.077503 -0.067747 -1.036231 -0.162106 0.518708 -0.788691 0.605201 -0.798083 0.298620 -0.338926 0.745752 0.451194 -0.128463 0.017725 -0.075787 0.493392 -0.201950 0.100618 0.394159 -0.981875 0.519626 0.688616 0.128658 0.371326 0.661434 0.509310 -0.247641 -0.025385 0.070356 0.110257 0.318090 0.187665 0.313928 -0.162380 -0.723149 -0.623379 
carrot -0.106900 -0.356589 0.312397 0.487653 0.678451 0.182170 -0.035814 0.362307 -0.233244 0.250261 0.051078 -0.111026 0.426231 -0.057267 -0.660454 0.206173 0.078316 0.213683 0.302388 -0.126001 0.264046 -0.636089 0.704101 -0.378528 -0.295825 0.499382 -0.589815 0.747180 -0.088954 0.612998 -0.198365 -0.080287 0.145471 -0.414127 -0.678689 0.222353 -0.034104 0.474157 0.026084 0.735299 -0.461904 -0.702746 0.773365 0.066758 0.018353 -0.301332 -0.846993 -0.519652 -0.789120 0.479637 
potato -0.725676 -0.527467 -0.163622 0.581359 0.153185 0.800544 -0.280888 0.339956 -0.323247 -0.022564 -0.273231 -0.701487 -0.404480 -0.595105 -0.576462 0.050619 0.161409 -0.219112 0.237255 0.186776 0.725808 -0.640566 0.265249 -0.228050 0.170952 1.194269 0.161654 1.333256 0.322479 0.557701 -0.254097 0.329588 -0.017280 -0.395109 -0.448590 0.655920 -0.482578 -0.050435 0.319557 -0.308218 -0.502741 0.234936 0.760946 -0.268474 0.429552 -0.505462 -0.108124 -0.011233 0.057201 -0.433333 
chicken_broth -0.179729 -0.067884 0.033702 0.202623 0.504758 0.167915 0.466394 0.504326 -0.876261 1.030172 -0.157149 -0.409253 -0.352068 0.054833 -1.646912 0.160210 -0.195754 0.305385 0.290237 -0.656743 0.647924 -0.595309 -0.042102 -0.340956 0.141669 -0.204440 -0.032039 -0.391076 0.009762 0.153977 0.100059 -0.460852 0.175630 0.038600 -0.818187 0.401118 -0.619583 0.157695 -0.207656 0.109332 -0.622464 -0.393517 -0.026065 -0.465215 0.168365 0.487281 0.271397 0.256729 -0.511920 -0.234495 
yeast 0.624870 0.059644 0.183139 -0.003967 -0.271840 0.494725 -0.323855 -0.042556 -0.192656 -0.019086 0.570801 0.342823 -0.148780 0.183534 0.467019 0.549236 0.527835 -0.275847 0.958879 0.007610 -0.035889 0.807091 -0.480305 -0.479563 0.484908 -0.099598 -0.245993 0.052622 -0.291509 0.246234 -0.105191 0.473108 -0.081390 0.015073 0.112619 -0.499214 -0.860795 -0.188551 0.631377 -0.673974 -0.158258 0.409924 0.141689 0.155337 -0.014494 -0.514761 0.348352 -0.165034 0.389725 -0.261485 
rice 0.008152 -0.088112 0.960991 0.303861 -0.320403 -0.173694 -0.047741 -0.233848 -0.090639 0.065301 0.261607 0.212234 0.131206 0.466480 -0.954741 -0.233527 0.261632 -0.426713 0.995572 0.155424 0.360506 -0.624011 0.073989 -0.023517 -0.788278 -0.031493 -0.346335 -0.008119 -0.087641 1.035403 -0.186151 0.253251 0.228250 0.119464 -0.294210 0.724911 0.307280 -0.282964 0.085844 0.813596 -0.100620 -0.309390 0.671970 0.175518 0.266526 -0.434124 -0.295036 -0.307484 -0.516811 0.241960 
mushroom -0.181069 0.438245 -0.125893 -0.563989 0.895302 0.543857 0.686709 0.180271 0.246347 0.526270 0.210985 -0.063031 -0.374142 0.167716 -1.080234 0.448914 -0.129706 0.071701 0.217401 0.122451 0.471262 -0.671741 0.174133 -0.278328 0.083453 0.999548 -0.347829 0.366754 -0.359215 0.967304 0.302900 -0.174365 -0.403283 0.049691 0.154058 -0.100882 -0.378361 0.193175 0.200404 0.109961 0.015165 0.054067 0.440835 -0.165830 0.078265 0.211050 0.423247 -0.042741 0.315122 -0.075159 
cheese 0.053411 -0.118400 -0.739120 -0.170133 -0.166659 0.779264 0.284127 0.142719 0.357578 -0.218836 0.305178 0.321633 -0.401938 0.110210 -0.598362 0.361757 0.324590 0.569296 -0.116608 0.134967 -0.004745 -0.071662 0.534088 0.102277 0.564104 0.008179 0.050528 0.294913 -0.217061 -0.237721 -0.114538 -0.610721 -0.684356 0.209929 -0.199139 0.614134 -0.610876 -0.606213 -0.160173 -1.021459 0.579362 -0.055724 -0.218758 0.498001 0.445481 -0.042146 0.654669 0.414913 0.325938 -0.174154 
soy_sauce 0.984513 0.310174 0.730500 -0.189904 0.466064 -0.360122 0.324304 -1.270609 0.886599 -0.202637 0.375222 0.780488 1.459536 -0.020367 -1.778734 -0.473665 1.042584 -0.466843 0.266285 0.168254 -0.153246 -0.277348 0.119775 0.243007 -1.037176 -0.054709 -0.357469 -0.169128 0.194320 0.357695 -0.281196 0.598503 -0.350600 0.616662 -0.630295 0.953683 0.388558 0.389902 1.041194 1.268732 0.575669 0.450749 0.356480 -0.773858 0.352099 -0.191819 -0.754984 0.215329 -0.757468 0.554067 
cumin -0.517210 0.780415 0.176216 0.391680 -0.367815 0.547612 0.612951 0.830538 0.746646 0.184012 -0.541512 0.470575 -0.105974 -1.388600 -0.545513 -0.805006 -0.151027 -0.456344 0.204809 -0.552053 0.098354 -0.035842 -0.325174 0.834596 0.156354 0.078489 0.595451 -0.576081 -0.367637 0.681902 0.120314 -1.931139 0.554315 -0.260628 -1.319761 0.524693 -0.006235 -0.188672 -0.360036 -0.141024 -0.698362 0.066035 0.041224 0.026072 0.384022 -0.908811 -1.523402 1.071740 -1.749953 0.110233 
oregano 0.802337 0.064215 -0.290972 -0.229196 0.416064 0.648462 0.311295 0.377781 0.235860 0.441218 0.389778 0.282879 -0.129539 0.072070 -0.088001 -0.506787 -0.264452 -0.049347 -1.003212 -0.386796 0.386735 -0.807852 1.055389 0.449453 1.098392 -0.219559 0.500721 -0.019354 -0.554535 0.505373 0.600519 0.411707 -0.186065 -0.422722 -0.225020 0.734721 -0.031154 0.002034 -0.125464 -0.658442 0.111823 0.605181 -0.081010 0.501203 -0.206445 0.119540 -0.160261 0.726936 0.244919 -0.916537 
parmesan_cheese 0.164491 0.322433 -0.635216 -0.155646 0.536637 0.092180 0.725739 0.771462 -0.374059 -0.096057 0.118066 0.197273 -0.864628 -0.036890 -0.380951 0.789595 -0.064141 -0.490169 -0.342332 0.546497 0.574967 -0.750114 0.562821 0.206890 -0.061164 0.498258 -0.548671 0.190080 -0.669433 0.136378 0.491619 -0.282343 -0.695342 0.185104 -0.292428 0.252848 -0.797862 0.043825 -0.254948 -0.533924 0.322610 -0.431847 -0.052020 1.367331 0.685671 0.550273 0.654941 0.474701 0.404084 -0.369378 
macaroni -0.062668 -0.103594 -0.047690 -0.602156 0.526172 0.220335 -0.073853 0.356087 -0.310613 -0.574985 0.361819 -0.367147 -0.786618 0.905979 -0.026871 -0.384153 -0.154123 -0.726811 0.341813 0.753133 1.497165 -0.462656 0.566188 0.411273 -0.369396 0.729644 -0.252043 0.062342 -0.248797 0.638970 0.111166 0.057345 -0.653277 -0.324120 -0.475532 0.723046 -0.516548 -0.100160 0.043744 -0.152531 -0.023162 0.629399 0.801362 0.876591 0.287583 -0.278556 0.215230 0.956022 0.662931 -0.461788 
thyme 0.142028 -0.065898 -0.842288 -0.140385 0.772558 0.298360 -0.424966 0.760932 -0.973447 0.967822 0.083802 -0.780500 -0.075790 0.346639 -1.015999 0.978988 -0.031092 -0.663496 0.634206 0.050277 0.831190 -0.796216 0.612851 -0.092351 0.335561 -0.444897 -0.429972 -0.005080 0.285431 0.606122 0.811534 -0.065536 0.108702 -0.877947 -0.055847 0.117491 -0.298328 0.608966 0.714777 -0.561015 -0.039393 -0.691014 0.634793 0.138130 -0.917992 -0.224054 -0.404927 -0.152278 0.223557 -0.244388 
cheddar_cheese -0.868490 0.395390 -0.332183 -0.489863 -0.258155 1.248520 0.614095 0.501508 0.720708 0.215980 -0.162302 0.091380 0.143759 -0.508875 -0.474239 0.083384 -0.238328 0.809799 -0.567745 0.339217 0.466204 -0.149987 0.343082 0.471814 0.584564 -0.161558 -0.174717 0.734740 -0.901163 -0.380725 -0.455128 0.076902 -0.339482 -0.051343 0.027390 0.553388 -0.100700 0.273811 -0.033796 -0.877345 0.586608 0.028125 0.079219 0.136614 1.224593 -0.313985 0.951891 0.254424 0.175654 -0.394157 
lard 0.441424 -0.153431 0.777940 0.341538 0.273759 0.280484 0.139317 -0.337264 -0.184765 -0.104249 0.110944 0.104420 -0.075885 0.105759 0.773610 0.060303 0.538891 0.041079 0.871101 -0.064555 -0.073426 0.940569 -0.201377 -0.516914 0.642786 0.056238 -0.250813 0.523673 0.058654 -0.232521 -0.098687 0.083632 0.093537 -0.200643 0.159338 0.205348 -0.300234 -0.233097 0.102748 -0.499630 -0.236159 -0.009524 -0.018639 0.104896 0.084742 0.238692 0.184157 0.217446 0.069992 -0.135354 
lemon -0.095020 -0.162569 -0.043041 0.638999 -0.011166 -0.892564 -0.397370 0.497617 0.073699 -0.147528 0.144837 -0.073004 0.112929 0.245464 0.166452 0.322229 -0.220474 -0.082718 1.080933 0.026444 0.213802 -0.019181 0.127176 0.036385 -0.147528 -0.355098 -0.062183 -0.182775 0.273451 0.207073 0.084830 0.177880 -0.774022 -0.448229 -0.372523 0.037171 -0.025877 0.079283 0.426306 -0.617798 -0.372242 0.303744 -0.379390 0.475790 -0.426765 0.531386 -0.628632 0.100226 -0.541092 -0.332685 
cream_cheese -0.328835 0.413398 0.120029 0.297494 -0.082463 -0.293635 -0.152293 -0.164606 -0.107361 -0.149450 0.319935 0.741206 -0.081325 0.106084 0.437013 -0.040317 -0.081711 -0.059337 0.837336 0.267329 0.061296 0.643812 0.229190 -0.262564 0.692111 0.528934 0.147056 -0.119662 -0.202343 -0.861864 -0.164301 -0.482812 -1.197267 0.085917 0.870420 -0.145716 0.172752 -0.304289 -0.236634 -0.520094 -0.254770 0.468026 -0.158019 0.357875 0.829081 0.393577 0.295775 0.118098 0.155202 -0.254584 
walnut 0.813962 -0.763811 0.865391 -0.461536 -0.293905 -0.467426 0.443308 -0.098526 -0.544004 -0.308469 0.215685 0.105317 -0.081743 -0.566258 0.940867 0.645797 0.359745 -0.203087 0.455478 0.273160 -0.666327 0.653226 0.820159 -1.303594 0.292847 -0.087735 -0.732621 -0.221044 0.016460 -0.414274 -0.180529 -0.007275 -0.043622 -0.734269 -0.709973 -0.222181 0.269714 0.194435 -0.209721 -0.262801 -0.789294 -0.826660 0.001591 -0.454966 -0.269549 -0.086961 0.361750 0.457856 0.224756 0.517659 
green_bell_pepper -0.266187 0.036477 -0.204394 -0.287172 0.115869 0.601713 0.292755 0.226555 0.715131 0.358301 -0.455084 -0.380266 0.574569 -0.129334 -0.417314 -0.946275 -0.982421 -0.363882 0.065893 0.085794 0.857801 -0.435179 0.809545 0.729582 0.585174 -0.035090 -0.190615 -0.401882 -0.407822 0.601967 0.075325 0.028530 -0.553982 -0.380433 0.081974 0.758714 0.098492 0.574162 0.136081 -0.309815 -0.076088 -0.180744 0.088083 -0.173870 -0.026792 -0.488127 0.525889 0.238152 -0.048262 -0.294601 
starch -0.621302 -0.775279 0.521956 0.078446 0.366994 -0.503581 0.569170 -0.619376 0.193128 -0.220383 0.375991 0.137922 0.313244 0.456103 -0.821321 0.135352 0.213273 -0.079210 0.632091 0.489978 -0.192343 -0.070736 -0.653293 -0.471422 -0.002317 -0.398212 -0.047196 -0.001578 0.645345 0.011663 -0.053571 0.235505 0.147528 -0.015209 0.229112 -0.520075 0.402996 0.313232 -0.051431 0.712509 0.299400 0.134232 -0.290554 -0.275296 -0.434555 -0.147483 -0.404292 0.064423 -0.354591 -0.352187 
nutmeg 0.715817 -0.276156 -0.086799 0.530734 -0.110797 0.056421 -0.555748 -0.046778 -0.032815 0.581015 0.449358 -0.135856 0.309904 -0.048451 0.686879 0.800025 0.820649 0.019021 0.134210 0.402169 0.332994 0.571132 -0.116851 -1.238410 0.495696 -0.281557 -0.628881 0.273460 0.357561 0.138206 -0.339472 -0.444177 0.694461 -0.497322 -0.113497 -0.220493 -0.027826 1.013018 -0.667045 -0.148919 -1.019494 -0.126998 -0.197952 -0.215432 0.317560 0.489240 -0.396610 0.585765 -0.192539 -0.522117 
honey -0.095413 0.394179 0.195244 0.209366 0.250083 -0.634030 -0.075988 -0.478992 0.217898 -0.125405 0.154932 0.294552 -0.282817 0.143831 -0.018624 -0.347616 0.761470 -0.173783 0.534914 0.438007 -0.764839 0.516603 0.780437 0.095639 -0.281956 -0.795891 0.168536 -0.016850 -0.455947 0.356580 -0.781776 0.422730 0.615859 0.465597 -0.444078 -0.426955 0.235528 -0.479736 0.564409 0.381304 0.190588 -0.635098 -0.040952 -0.212149 -0.453183 0.017575 0.037579 0.069198 -0.373129 -0.660320 
apple 0.244034 0.184447 1.016570 -0.357257 0.004514 -0.387165 0.177472 -0.295380 -0.186970 -0.169912 0.074453 -0.190033 0.610433 -0.537680 0.021059 0.617679 0.327215 -0.592227 -0.155537 -0.306883 -0.415612 0.177222 0.674932 -0.569043 0.648518 0.045291 -0.005984 -0.348326 -0.217275 -0.233808 -0.511905 0.371691 0.344173 -0.292376 -0.264840 -1.075016 0.012153 0.828443 -0.035867 0.409159 -1.083359 0.096120 -0.320362 -0.725008 0.005252 0.078526 -0.219686 0.533704 -0.529201 -0.712659 
almond 0.199989 -0.175368 0.741392 0.261852 -0.219285 -0.751971 0.406326 0.047566 -0.093548 -0.023455 0.075383 0.384187 0.037986 -0.149850 0.007268 0.885853 0.105770 0.236535 0.829562 0.304139 -0.468014 0.341483 0.403594 -0.623385 -0.383375 -0.141915 0.048694 -0.516995 0.039982 -0.644100 -0.452659 -0.041092 0.081376 -0.390276 -0.756259 -0.548698 0.683332 0.115896 -0.029537 -0.425434 -0.225507 -0.852233 -0.444608 0.125812 0.030018 -0.274354 0.207905 0.122778 -0.428786 0.005264 
cilantro 0.089090 0.104873 -0.001338 -0.124376 -1.416926 0.181615 0.104122 0.230324 1.073234 0.461825 0.540215 0.605297 0.360651 -0.448062 -0.561639 -0.893477 -0.851930 -0.125462 0.527100 -0.440802 0.622856 -0.182914 0.609231 -0.141402 -0.110259 -0.456139 0.367800 -0.502980 0.439858 0.693149 -0.206417 -0.727934 0.500821 0.667349 -0.355654 1.533932 -0.145257 -0.533845 -0.449637 0.070743 0.401683 0.138908 0.549412 -0.390042 -0.508481 0.187111 -0.919805 1.030764 -0.670787 -0.248238 
pecan 0.218845 -0.485071 0.949345 -0.261073 -0.317913 0.069611 0.145440 -0.616229 -0.168909 0.015854 0.268646 -0.287194 -0.226444 -0.719904 0.579896 0.719820 0.257867 -0.332496 0.234012 0.472242 -0.453187 0.844392 0.408024 -0.960861 0.677185 -0.235945 -0.505896 0.000861 0.228114 -0.527514 -0.173617 -0.277328 -0.360987 -0.418138 -0.306299 -0.157694 0.295061 0.142275 -0.049302 -0.518620 -0.116983 -0.798539 -0.170087 -0.729188 0.037034 0.214541 0.118334 0.494905 0.370609 -0.013521 
white_wine -0.012854 0.172031 -0.410266 0.299882 0.656907 -0.585749 0.157808 0.645926 -0.336042 -0.195527 0.224820 -0.131196 -0.219128 0.337479 -0.712346 0.099770 0.203091 -0.926107 1.114897 0.048231 0.503707 -0.157153 0.662924 -0.029057 -0.882494 0.708936 -0.033176 -0.372964 0.308284 -0.130106 0.714023 -0.095678 -0.391802 -0.591967 -0.342726 0.384296 -0.434946 -0.165814 -0.223919 -0.018865 -0.176806 -0.124827 -0.046853 0.111606 -0.698817 -0.200491 0.204178 0.181248 -0.452961 -0.095453 
bacon -0.754418 -0.068551 -0.630860 -0.841997 0.231790 0.218729 0.301764 0.152190 -0.079769 0.204393 0.386079 -0.441677 0.339847 -0.522957 -0.150822 0.158671 0.395291 -0.074663 -0.089645 -0.285623 0.119738 -0.615957 0.265655 -0.542202 0.469095 0.056174 0.332495 0.146510 -0.058119 0.108358 -0.106119 -0.202950 -0.506105 -0.817008 -0.179682 0.379321 -0.742254 0.480912 0.557308 0.269195 0.021586 -0.254543 -0.000420 0.457299 0.429180 -0.165784 0.159621 -0.428006 -0.062371 0.364857 
pork -0.964858 0.387155 -0.741035 0.018501 0.747566 -0.159763 0.016043 -0.532054 -0.211300 0.997260 0.214686 0.824488 0.767441 0.542316 -0.299051 -0.037918 0.791011 -0.321459 -0.675313 -0.408917 0.003704 -0.131730 -0.476891 -0.473072 0.088859 -0.170902 0.493464 0.033121 -0.279485 0.353240 -0.522424 0.057529 0.247993 -0.419998 0.214786 0.467367 -0.092808 0.197764 0.895625 0.898973 -0.263621 -0.786948 0.449959 -0.514147 -0.752416 0.224801 -0.278395 0.008329 -0.324762 -0.237015 
raisin 0.428659 -0.286495 0.270277 0.328202 0.415685 -0.612134 0.201832 0.111744 -0.048300 0.251249 -0.495946 0.199761 -0.182026 -0.439616 0.328594 0.207669 -0.469269 0.092462 0.361081 0.108509 -0.461778 0.705070 0.219703 -0.817429 -0.015467 -0.490534 -0.456496 0.305869 -0.563301 -0.112945 -0.932710 -0.173580 0.968169 -0.501599 -0.542560 -0.352936 0.812187 -0.080150 -0.223336 -0.437865 -1.390872 -0.670506 -0.455561 -0.432275 0.637166 0.379829 0.233313 0.331452 -0.287202 -1.045343 
bean 0.207902 -0.459215 -0.611514 -0.547659 -0.023721 0.130533 0.455100 0.103468 -0.094693 0.888712 0.274003 -0.282949 0.337651 0.344458 -0.365932 -0.868733 -0.805122 -0.093688 -0.139254 0.515776 0.415122 -0.739649 0.232724 -0.232948 0.052768 -0.587675 0.640206 0.396208 -0.600358 0.626112 -0.208584 0.036101 0.199094 -0.057110 -0.130185 0.673695 -0.142192 -0.311292 0.068839 -0.069990 -0.498173 -0.562424 0.150845 -0.526653 0.559651 -0.461511 -0.448305 -0.088411 -0.158728 -0.136352 
rosemary 0.354896 0.117192 -0.125674 0.172129 1.032659 0.436354 -0.311397 0.988839 -0.753945 0.219051 0.275966 -0.277874 -0.907830 1.057272 -1.003257 0.524600 0.195909 -0.517619 -0.090670 -0.623378 0.799348 -0.463073 1.308167 0.087682 0.833955 0.291411 -0.448606 -0.050632 -0.132902 1.172967 0.385343 -0.771191 -0.511271 -0.896158 0.075014 0.079298 -0.488937 -0.021350 0.617334 -0.224216 -0.455623 -1.342147 -0.673375 -0.219383 -0.142409 0.083929 0.219678 -0.262284 0.493302 -0.689192 
fish -0.322662 0.341922 -0.593117 0.552880 -0.140928 -0.920922 0.859842 0.140989 0.663664 0.322880 -0.591111 0.278390 0.622037 0.219748 -0.608633 -0.146994 0.142371 -0.366944 0.298477 -0.470142 0.202694 0.102824 0.934729 -0.345050 -0.983904 0.194820 -0.030139 0.049386 -0.323387 0.443981 -0.159151 0.577356 -0.480875 0.108505 -0.425424 1.314921 0.108255 -1.152405 -0.170117 0.240373 -0.030547 0.794713 -0.241983 -0.531881 -0.284137 0.732915 -0.463645 0.129273 0.139760 0.373448 
cucumber 0.020755 1.148413 -0.150385 0.863676 -0.444424 -0.706978 0.325224 0.222078 0.204151 -0.654753 0.352491 1.313701 0.599126 -0.137515 0.525364 -0.078754 -0.402544 -0.386371 0.545541 0.026620 -0.457152 -1.290999 0.857445 -0.476083 -0.972536 -0.678133 0.751548 1.076215 -0.554083 -0.961414 0.236975 0.653562 -0.362562 0.110017 0.608916 -0.149465 -0.128043 -0.795732 0.528292 -0.231989 -0.313719 0.336384 0.419206 -0.673442 0.033404 -0.161829 0.255328 0.041857 -0.248500 0.944453 
olive 0.061040 0.725251 -0.287881 -0.631507 0.124327 -0.289350 -0.023219 0.394340 -0.088404 0.605030 0.408172 0.603898 -0.269226 0.160276 0.311932 -0.552354 -0.755455 0.235640 0.003894 -0.339380 0.581691 -0.410848 1.574718 -0.022566 0.008010 -0.471128 -0.024702 0.079475 -0.455913 0.289162 0.718542 0.286687 -0.880066 -0.420930 -0.413113 0.787352 -0.257380 0.241476 -0.155098 -0.832222 0.430533 0.507957 0.393807 0.676193 -0.672268 0.079039 0.458593 0.544574 -0.057975 -0.021047 
coconut 0.153875 -0.583328 1.513371 0.647867 -0.141322 0.127961 -0.065358 -0.915132 0.671702 0.859895 0.348242 -0.069479 -0.398181 -0.368347 0.280688 0.372541 -0.764668 -0.419026 0.664273 -0.054184 -0.040369 0.385172 0.071534 0.123126 -0.270444 -0.222539 0.245191 -0.221183 0.158985 -0.759679 -0.455176 -0.591100 0.941528 0.198464 -0.906493 -0.569560 0.909320 0.204186 -0.033850 0.044821 0.075820 0.635543 0.052682 -1.569262 0.878781 1.098169 0.442078 0.701715 -0.472739 0.339392 
orange 0.375550 -0.167507 0.409279 -0.313614 -0.224845 -0.156753 -0.058313 0.286689 0.181125 0.117188 0.529160 -0.702236 0.030824 0.201860 0.132997 0.432325 0.314141 0.409191 0.685029 0.437357 -0.241851 0.433077 0.338617 -0.577406 -0.632555 -0.334027 -0.546694 -0.479579 0.268002 0.028006 -0.141319 0.080158 -0.186758 -0.153446 -0.102416 -0.852088 0.589495 -0.362794 0.735462 0.189210 -0.747509 0.082271 -0.486262 -0.130570 -0.660642 0.842864 -0.720039 0.937027 -1.035663 -0.917494 
tamarind -1.066661 0.442251 -0.577668 -0.275100 -0.177427 -0.183261 0.017452 -0.080261 1.469874 1.094692 -0.053507 0.016653 -0.056450 0.121640 0.225811 -0.442418 0.250812 -1.504653 -0.497602 -0.446456 0.308967 -0.386378 -0.068638 -0.064147 0.893379 -0.315318 -0.160175 -0.153009 -0.780228 -0.705841 0.781336 0.405395 -0.062147 -0.644326 0.441462 0.487103 -0.222347 1.158418 0.400907 0.059777 0.553006 -0.315244 0.389206 -0.889393 -0.795811 -1.236984 -0.467442 -0.643786 -0.883875 -0.049009 
vegetable 0.342490 -0.506823 0.543904 0.737215 0.382222 -0.317780 0.066451 0.076596 -0.290072 0.339992 0.106553 0.057389 0.549434 -0.517938 -0.937075 0.177192 0.480145 -0.081539 -0.151462 0.030865 0.223958 -0.544547 0.178725 -0.606549 -0.407352 -0.268305 0.131440 0.460832 -0.520298 0.927689 -0.619769 -0.066313 -0.427081 0.283412 0.045350 0.214829 0.324530 0.137067 -0.079648 -0.189721 -0.143310 -0.228177 0.448542 0.256605 0.581423 -0.201695 -0.248630 -0.458851 -0.515593 0.377226 
orange_juice 0.627317 -0.504896 0.105371 0.321922 -0.415361 -0.754213 0.049686 -0.919738 -0.022576 0.166130 -0.585656 -0.054023 0.252719 0.655611 -0.117369 0.699736 0.545393 0.055796 0.599767 0.933945 -0.324733 -0.067762 0.707390 0.638165 -0.010368 -0.180351 0.375272 -0.304502 0.240453 -0.067958 -0.494006 -0.374715 -0.304514 0.456998 -0.895697 -0.381593 0.888667 0.408750 0.298111 -0.029184 -0.403340 -0.210096 -0.199541 -0.727661 -0.470077 0.673899 0.379681 0.322932 -1.047490 -0.955231 
buttermilk 0.097657 0.461582 0.200035 0.220918 -0.351615 0.312683 0.244391 -0.506357 -0.368671 -0.140782 0.241452 0.870921 -0.491938 -0.449986 0.572455 0.190758 0.061377 0.299222 0.723572 -0.040688 -0.191454 0.307135 -0.126472 -0.729540 0.516376 0.097686 -0.314695 0.286562 0.271501 -0.358967 0.131265 0.112747 0.137469 0.168327 0.005232 -0.009732 0.040929 0.051932 0.383805 -0.563797 -0.767833 0.456088 -0.213245 0.514726 0.310379 -0.248539 -0.192582 -0.048989 0.239108 -0.148470 
pineapple -0.330222 -0.086558 0.681564 0.140382 -0.842124 -0.330474 0.672875 -0.557991 0.266850 0.164887 0.108387 -0.701551 -0.265947 -0.281874 -0.155430 -0.217177 -0.407580 -0.827311 0.825382 1.130917 -0.395437 0.519750 0.571411 -0.083530 0.305048 0.429048 0.091861 0.015009 -0.186902 -0.671955 -0.252423 0.058224 -0.175192 0.015398 0.215842 -0.928013 1.300442 0.259058 1.071984 1.220522 -0.059785 0.157010 -0.030409 0.107386 -0.346453 0.486806 -0.467163 0.718908 -0.458053 -0.925515 
shrimp -0.393188 0.676318 -0.346990 0.238824 -0.429880 -0.722343 0.759551 -0.052641 0.605853 1.082793 -0.240622 -0.063739 0.863203 -0.140679 -1.542618 0.224681 0.379551 -1.079646 0.717487 0.061789 0.889380 -0.052605 0.420919 0.266181 -0.867858 0.478256 -0.519067 0.018297 -0.083881 -0.325198 -0.110628 0.503622 -0.536596 0.089044 0.040771 1.669051 0.620813 -0.557138 -0.411944 -0.053974 0.407289 0.943143 0.441713 0.034901 -0.822088 0.379970 -0.150590 -0.374547 0.611206 -0.392457 
coriander 0.635548 0.395552 0.662607 0.418917 0.004168 0.107960 -0.570858 0.965440 0.744283 0.560622 -0.326082 -0.065955 0.291202 -0.493511 -0.784162 0.481936 -0.650719 0.642988 0.000140 0.615610 0.049934 0.774776 0.935201 0.092853 -1.276307 0.305200 1.310918 -1.613855 -0.862828 0.392622 -0.403446 -1.967384 1.257339 -0.225740 -1.215999 1.276337 0.471307 0.638738 -0.881763 -0.001443 -0.563929 1.272964 1.366627 -1.492118 -0.036372 -0.350627 -1.222715 0.162919 -1.031373 -0.183790 
bay -1.138088 -0.334789 0.122804 -0.142667 1.106670 -0.466164 -0.470210 1.176190 0.060974 0.842617 -0.261207 -0.290262 -0.332946 -0.942012 -0.564090 -0.126452 0.767919 -0.769383 0.234571 0.266946 1.988235 -0.810838 -0.358295 0.591998 0.522504 0.397826 -0.000254 1.067569 -0.208890 0.461110 0.208963 0.095619 0.077520 -0.965527 -1.041421 0.003286 0.018200 0.608080 -0.432020 -0.325924 -0.300510 -0.439047 0.046237 -0.452392 -0.777697 0.358163 -1.187624 -1.278211 -0.689079 -1.018888 
lime_juice 0.052878 0.216372 0.289238 -0.408708 -1.748792 0.482048 0.180304 -0.855514 1.158244 1.019085 0.223788 0.814017 -0.039372 -0.673697 -0.156634 -0.503934 -0.743887 -0.434303 1.489880 -0.743490 0.380179 -1.151731 0.584502 1.057337 -0.730653 -0.438101 0.568513 -0.539645 0.603296 0.420451 -0.603430 -1.025118 0.183567 0.510091 -0.794973 0.542814 0.917673 -0.563798 0.461861 0.022507 0.795553 -0.060979 0.420626 -0.150016 -0.610501 0.759283 -0.238090 0.357663 -0.777807 -0.674977 
red_wine 0.553834 -0.888231 -1.152930 -0.065008 0.681833 -0.080444 -0.300042 0.245725 -0.640258 -0.192753 0.174314 0.324984 -0.248480 0.460414 -0.032695 -0.595054 0.318020 -0.668155 0.316538 0.029647 0.211327 -0.470408 0.772168 -0.250650 0.086869 0.305842 0.568198 -0.182861 -0.265524 -0.516289 0.758498 -0.725619 -0.122086 -0.841551 -0.425774 0.287151 0.043984 -0.108341 0.207191 0.188236 -0.485345 -0.607272 0.540255 -0.298937 -1.014983 -0.301772 0.162318 -0.142062 -1.485584 -0.517450 
gelatin -0.239833 -0.737775 0.721429 -0.106636 -0.259965 -0.584231 0.535042 0.072363 -0.855281 0.352332 -0.380273 0.126699 0.304540 0.562230 0.536637 1.235862 0.107786 -0.191423 1.047729 0.692364 -0.172914 0.451178 0.673392 -0.242993 0.559403 -0.469211 0.933609 -0.349975 0.291426 -1.294832 -0.666476 -0.648348 -0.195218 0.148083 0.952636 0.057432 1.435035 -0.427930 0.863041 0.230056 -0.014733 0.436393 -0.617837 -0.033725 0.852552 0.276518 -0.148169 0.190781 0.624341 -0.197770 
pork_sausage -0.598062 0.075854 0.178214 -1.618521 -0.002249 1.393018 0.635827 1.178454 -0.410875 1.549399 -0.312214 0.072013 -0.034078 0.085516 -1.481216 0.188488 0.889506 -0.116119 -1.020727 -0.059590 0.936132 -0.313302 0.626615 0.292945 0.241647 0.348170 -0.406540 -0.231144 -0.518103 0.192637 -0.125844 -0.444072 -0.581267 -1.406875 -0.306321 1.005648 -0.300586 0.412734 0.798253 -0.112370 -0.358458 -0.415953 -0.902680 0.786606 -0.550824 -0.031725 0.391542 -0.440461 1.022508 -0.586004 
sesame_oil 0.266466 -0.727089 0.084969 -0.120118 0.603288 0.043780 1.058620 -1.439840 0.365104 0.474509 0.185139 0.184503 -0.441549 -0.802544 -1.812991 -0.276931 1.571504 0.079644 0.358739 0.096818 -0.332589 0.254163 -0.142552 0.262651 -1.624331 -0.723900 -0.769041 -0.263517 -0.847600 1.619427 -0.611600 0.345622 -0.557510 0.774944 0.748115 1.566744 1.486818 -0.059954 0.803318 1.589881 0.750827 0.614385 0.069059 -0.769961 0.495629 -0.405930 -1.139342 0.701923 -1.365946 0.341303 
chive 0.102840 0.463764 -0.660655 0.121072 0.729261 -0.935536 0.356479 0.618071 -0.795954 -0.744296 0.325191 -0.821422 -0.460612 -0.694689 0.917766 0.356459 -0.210641 0.635829 1.449030 -0.175352 -0.415896 -0.059015 0.423730 0.367144 0.816102 -0.152762 -0.538496 0.782806 0.583826 -1.008812 -0.152929 0.175589 -0.001849 0.342309 -0.025581 0.838496 -0.746480 -0.396749 0.644328 -0.468286 0.328823 0.475540 0.104308 -0.966555 0.483763 0.080753 0.461397 -0.319997 -0.698281 1.264534 
seed -0.647298 -0.035163 -0.143157 -0.750554 0.202858 -0.063665 -1.067424 0.078921 -0.414320 -0.363800 -0.371117 0.373312 0.284631 -0.648964 0.598189 -0.481592 0.246893 0.087470 1.166848 -0.419011 -0.418136 0.201969 1.815883 -0.120035 0.079193 0.192985 0.452180 -0.644735 -0.082283 0.238199 -0.965736 0.827389 0.533335 0.397783 -0.059471 0.701277 0.112714 0.158207 -0.046885 -0.499060 -0.281940 -0.432398 -0.312048 0.257904 -0.232307 -0.161484 -0.915173 -0.282783 -0.776801 -0.550299 
mozzarella_cheese 0.002928 0.473575 -0.583709 -0.991566 1.092177 0.843837 0.232830 -0.069363 -0.322386 -0.471845 0.534483 0.308871 -0.373583 -0.163968 -0.044121 0.494753 0.510678 -0.514620 -0.828194 0.685256 1.553153 -0.100201 0.626300 1.192857 0.463685 0.281369 -0.728130 -0.165407 -0.895251 0.361656 0.419466 0.066796 -1.360712 -0.094340 0.512868 0.014868 -0.585066 -0.282010 -0.203261 -0.992151 -0.513892 -0.287757 0.126571 0.911646 0.438391 0.147700 0.733797 1.024647 0.739472 -1.039982 
ham -0.885259 0.438433 -0.682761 -0.890798 -0.123978 0.530982 0.954520 0.301740 -0.784039 0.343320 1.118141 -0.458093 -0.112705 0.204457 -0.166816 0.806740 0.731914 0.440388 -0.095032 -0.206448 0.351871 0.160619 0.222221 -0.157806 -0.056444 0.615750 0.044180 -0.200797 -0.295467 -0.523041 -0.491373 -0.085398 -0.424426 -0.422549 -0.245410 0.493191 -0.286456 0.126337 0.673980 0.025328 0.042820 -0.152133 0.139041 0.322349 0.610313 -0.139675 0.272831 -0.059837 -0.299687 0.262155 
oat 0.169380 0.107389 0.921148 -0.110878 0.661626 -0.101926 -0.201643 -0.014826 -0.150512 0.037065 -0.947492 0.956596 -0.490259 -0.169184 1.098702 0.828266 0.464966 -0.912617 0.852691 0.628375 -0.203992 0.895397 0.155905 -1.274956 0.737829 -0.973975 -1.123708 -0.123046 -0.609431 -0.337399 0.449659 -0.531721 1.259719 -0.123339 0.120642 -0.499137 0.695849 0.704659 0.993071 -0.090760 -0.401935 -0.581455 -0.185190 0.211290 -0.167801 -0.454341 -0.744922 0.084178 0.163446 0.788573 
turmeric -0.507100 0.379781 0.792110 0.426413 0.540831 0.160066 0.504533 1.938284 0.841382 0.953990 -0.186916 0.440096 0.339839 -0.858512 0.017215 -0.138251 -0.678452 0.123764 0.569679 -1.182660 1.286509 -0.322261 1.110350 0.128348 -1.063128 -0.132115 1.473163 -1.302550 0.967989 0.189561 -0.815764 -1.659385 1.466803 -0.211452 -1.286005 0.051807 1.415429 1.087849 -1.359942 1.867267 -0.092351 0.619638 0.444777 -1.088232 1.098758 0.259728 -0.256739 0.291596 -0.679824 0.620574 
nut 0.455694 -0.751508 0.059464 -0.093800 0.187978 -0.805268 -0.379170 -0.022312 -0.049191 -0.354063 -0.074443 -0.073846 -0.026566 0.031224 -0.382667 0.344384 0.718855 -0.059864 0.917693 0.225276 -0.056655 -0.360545 0.110264 -0.675613 -0.026174 -0.116056 0.072405 -0.883107 -0.634073 0.622184 -0.277304 0.515000 0.100091 0.339409 -0.267111 -0.000833 0.188684 -0.511867 -0.423553 0.103710 -0.510168 -0.915136 -0.060937 0.340374 0.218646 -0.464302 0.478624 -0.039908 -0.170082 -0.486028 
shallot -0.056789 -0.362305 -0.569961 0.030004 0.552436 -0.991271 0.077558 1.192099 0.159759 0.367281 0.324053 -0.422865 -0.017351 0.433461 -1.034365 0.595016 0.246043 -0.855818 0.341738 -0.429108 -0.032864 -0.257573 0.655039 0.048720 -0.231168 0.534781 0.219939 0.519318 0.155690 0.015279 0.260664 -0.344752 0.217629 -0.149621 -0.072221 0.264937 -0.778856 -0.492628 -0.008155 -0.121849 0.070345 0.096671 -0.008035 -0.646623 -0.672033 1.498017 -0.145692 0.613289 -0.770231 0.260347 
lettuce 0.301747 0.359755 0.100174 -0.429880 -0.285779 -1.235259 0.461236 -0.353431 0.489817 -0.545891 0.717200 0.514956 -0.105257 -0.526265 -0.359912 -0.768125 -0.084622 -0.044624 0.233934 0.148855 0.060695 -0.950075 1.141024 0.265397 -0.339955 0.802394 1.046673 -0.484404 -0.791710 -0.292935 -0.047072 -0.057767 0.159620 0.276681 0.120091 -0.484252 -0.150485 -0.783718 1.363702 -0.274179 0.049635 0.314713 0.095295 0.023559 -0.143754 -0.610039 0.098452 0.794538 -0.658260 0.491106 
cider -0.095249 0.106938 -0.277501 -0.779663 -0.294575 -0.396241 -0.188597 -0.322848 0.135626 0.017542 -0.211525 0.317876 0.494078 0.214425 0.227295 -0.901528 0.866835 -0.506152 0.447064 -0.569144 -0.667192 -0.580902 0.574684 -0.511855 -0.218221 -0.107772 0.339319 -0.346384 -0.065745 -1.179137 -0.365327 -0.033997 0.517000 -0.855050 -0.047919 0.625251 0.320490 0.850792 0.296960 0.145064 -0.357238 -0.665108 0.563379 -0.596654 -0.126460 -0.744129 -0.126663 -0.341053 -1.479399 -0.940000 
dill -0.746720 -0.157570 -0.619779 -0.292866 0.061736 -0.507278 -0.104853 1.112861 0.268028 -0.359747 0.001304 0.159698 -0.004189 -0.528595 0.108558 0.370019 -0.471537 -0.183516 0.667002 -0.219150 -0.641438 -0.565489 1.299898 0.492247 -0.234130 -0.036192 -0.019788 0.863566 -0.096964 -0.160300 0.212588 0.388822 -0.292144 -0.476131 -0.029340 0.011181 -0.581163 0.573356 0.754202 -0.440787 0.454374 1.035868 0.435747 0.403683 0.377690 -0.326450 -0.076213 -0.259651 -0.769752 0.577726 
pea -0.345977 -0.089782 -0.066081 -0.238286 0.449097 -0.426870 0.867142 0.459855 0.070836 0.401513 -0.013351 0.158623 -0.056079 -0.215346 -1.011488 -0.221760 -1.296130 0.174608 0.408298 -0.182067 0.148028 -0.533060 0.682391 -0.384189 -0.511579 0.011717 -0.228685 0.265355 -0.044568 0.598504 0.065039 0.191371 0.464422 0.317421 -0.079217 0.765774 0.020946 0.428250 -0.227162 0.436005 0.171260 -0.065579 0.647032 0.071077 0.641587 -0.043432 0.701455 0.127497 -0.444910 0.037019 
zucchini -0.020615 0.081501 -0.274014 0.478087 0.560703 0.400349 -0.305764 0.262917 -0.567640 -0.199146 0.400117 -0.135173 -0.142105 -0.013206 0.327627 0.256865 -0.184030 -0.178034 -0.195402 0.622856 1.307657 -0.685908 -0.070493 -0.429115 -0.205186 -0.104158 0.104814 -0.217699 -0.667241 0.660497 -0.161755 -0.032754 0.282271 -0.023877 -0.951245 0.182595 0.103325 0.020439 -0.315965 -0.322046 -0.487853 0.022761 0.706706 0.963424 -0.205673 0.201353 -0.169149 0.002238 -0.131250 -0.608675 
cherry 0.627634 -1.334021 0.012378 -0.768514 0.161255 -0.970487 -0.205315 -0.560695 0.658791 0.427135 0.046356 0.447787 -0.016704 0.152142 1.524017 1.057929 -0.500176 -0.047679 0.915921 0.682227 -0.789974 0.797016 0.272718 -0.271743 0.008315 -0.077658 0.165345 0.078204 -0.071404 -0.418343 -0.615687 -0.376232 -0.759248 -0.662700 -0.427537 -0.009385 1.247311 -0.017686 0.426402 0.057289 -0.603512 -0.296811 -0.317496 -0.748760 0.140754 0.822076 0.268756 0.536428 0.036001 0.041423 
lime -0.567197 -0.160512 -0.044789 -0.071460 -1.893056 0.538603 0.035983 -0.351454 0.686599 0.540930 0.491955 0.328708 0.049232 0.251610 -0.151643 0.065259 -0.211149 0.082539 0.984219 -0.182741 0.043597 -0.530499 1.238574 0.325699 -0.066389 -0.080188 0.279611 -0.341258 0.544902 0.049108 -0.023497 -0.334876 -0.032976 0.335256 -0.454210 -0.036253 1.363378 -1.106578 0.052059 0.020757 1.084050 0.426247 -0.338934 -0.799646 -0.415223 1.138447 -0.801559 0.301928 -0.788774 -0.261063 
yogurt -0.405425 -0.140504 0.364469 0.753126 -0.569637 -0.529119 -0.190345 0.403708 -0.058524 -0.973198 0.094937 0.458392 -0.524154 -0.699194 0.215132 0.159252 0.301087 0.521594 0.444466 -0.082815 -0.625853 -0.368126 1.139741 0.107963 -0.268282 -0.225520 0.034867 -0.593587 -0.405486 -0.118497 -0.576466 -1.232126 0.123114 -0.240978 -0.558907 -0.428396 -0.103941 0.142687 0.322196 0.010028 -0.847680 0.905537 -0.284858 -0.450407 -0.053943 0.034878 -0.326977 -0.026907 -0.427705 -0.161797 
strawberry -0.217139 -1.235313 0.792142 -0.631931 -0.483855 -0.550006 -0.084605 -0.085176 -0.563309 -0.709029 0.539164 1.119887 -0.145093 -0.318896 1.343686 1.886400 -0.113671 -0.061197 0.926366 0.998973 -0.153972 -0.108538 0.901020 -0.423688 -0.188598 0.135068 0.245208 0.036773 -0.095809 -0.558392 -0.123592 -0.123746 -0.595188 0.607428 0.388187 -0.039198 0.490293 0.513351 0.738900 0.662962 0.223113 0.658392 -1.763940 -0.637741 -1.011778 0.775452 -0.813952 0.845910 0.426260 -1.144969 
soybean 0.193747 -0.353688 0.266614 0.116008 1.267206 0.355450 -0.419029 -1.065847 0.294673 0.057557 0.476858 1.220109 0.829414 -0.890721 -0.959690 -0.061580 1.478387 0.690732 -0.083527 -0.002003 -0.532195 0.067270 0.636786 -0.608595 -1.797069 -0.863639 -0.254455 -0.452394 -0.278562 0.966568 -0.423163 0.644889 -0.714748 0.327274 0.338440 1.296038 1.000840 0.495438 -0.189908 0.760152 0.507119 0.044456 0.327800 -0.578264 -0.135199 0.498621 -1.039458 0.239470 -0.429460 0.577642 
celery_oil -0.906833 0.592796 -0.522466 -0.460245 -0.017391 -0.366513 0.826776 -1.658378 0.538758 1.073016 0.078480 1.285087 -0.013062 0.514487 0.475700 -2.469737 -0.515722 -1.262913 -0.662774 0.203336 0.494975 0.760416 0.347688 0.412411 -0.025370 -0.132165 0.395360 0.250685 -0.876185 -0.444417 0.630422 0.514090 -0.871489 -0.261719 0.195112 0.500059 -0.350983 1.499447 1.542458 0.382249 -0.220128 -1.030351 -0.516495 -1.726400 0.116909 -1.428096 -0.434815 -0.694662 -0.951449 -0.908641 
peanut_butter -0.634648 -0.409710 1.965484 -0.822264 -0.387744 0.952552 0.152085 -0.699201 0.488369 0.682958 -0.407862 0.759701 -0.234104 -0.351165 -0.250637 0.183532 -0.222034 -0.125005 0.063191 0.330252 -0.420518 -0.130043 -0.074757 -1.132193 -1.182833 -0.169206 -0.080582 -0.188154 -1.508779 -0.613910 0.226799 -0.460935 1.715490 1.178475 -0.253256 0.160749 0.217437 -0.001614 0.005091 0.701718 0.535309 -0.050851 -0.572701 -0.586181 0.789617 0.146471 0.140126 0.334146 0.670225 1.176832 
banana -0.444448 -0.070196 0.828439 0.009416 -0.588941 -0.172563 -0.291022 -0.473644 0.082558 -0.059320 -0.154901 0.293433 -0.338981 -0.119747 0.737284 1.203463 0.162680 -0.404867 0.905843 0.716954 0.027452 0.674047 0.384896 -0.323692 -0.087820 -0.218098 0.480807 0.299435 -0.285644 -0.333800 -0.706697 -0.689345 0.129861 0.265061 0.378909 -0.466318 0.974185 -0.003900 0.615498 0.704371 -0.388453 0.113440 -0.091656 -0.229301 -0.364393 0.335345 -0.198576 0.621109 0.311749 -0.466462 
meat -0.141082 -0.032906 -0.662837 -0.172197 0.629853 0.289467 -0.204374 0.491622 0.470448 0.897854 0.181364 -0.142966 0.374175 -0.064411 -1.143310 0.225242 0.658052 0.030646 -0.521362 0.031073 -0.233588 -0.110205 -0.139045 -0.024465 0.686661 0.538727 0.586535 0.012843 -0.378806 0.517647 -0.315588 0.122012 0.212881 -0.399885 0.410792 0.040564 -0.087828 -0.160481 1.195199 0.517238 -0.490062 -0.768287 -0.108329 -0.457622 -0.178980 -0.304149 -0.176760 0.407075 -0.453374 -0.472270 
tabasco_pepper -1.115591 0.146919 -0.305649 -0.141059 -0.802893 0.024821 -0.100362 0.099545 0.559875 0.865008 0.454519 0.291614 0.764426 -0.237150 0.346078 -0.586504 0.312555 -0.763256 -0.287543 -0.120734 0.265829 -0.446811 0.102371 0.659899 0.697867 0.203990 0.213474 -0.473873 -0.392022 0.185337 0.174884 0.633003 -0.213787 -0.188906 -0.152581 0.458207 0.036215 0.252700 0.202651 -0.051776 0.189018 0.200578 -0.394185 -0.594132 -0.011786 -0.264879 0.197949 -0.476174 -0.640176 -0.061758 
milk_fat -0.473388 -0.498544 -0.041745 0.441885 0.026797 -0.027400 0.087345 0.120099 0.275927 0.359945 1.314061 -0.185890 -0.263669 0.218897 -0.000016 1.207404 0.464863 0.344964 0.339106 -0.174848 -0.226803 0.790607 -0.530074 -0.851176 0.067609 0.412941 -0.024641 0.412513 0.575539 -0.256498 0.225145 -0.153049 -0.190992 -0.048744 -0.271850 -0.126609 -0.681080 -0.721295 -0.552190 -0.753329 -0.363596 0.353792 -0.365006 -0.119083 -0.050019 0.729783 -0.196854 0.261194 -0.029830 -0.071712 
cabbage -0.510244 0.081010 0.136717 -0.136040 -0.050489 0.126586 0.192698 0.359938 0.083023 0.093021 -0.075221 0.062677 0.633864 -0.079145 -0.668112 -0.749848 -0.350029 0.006224 -0.021725 -0.252294 -0.176237 -0.262942 0.549943 -0.764733 -0.674749 0.449818 -0.243629 0.438322 -0.887591 0.237711 -0.063537 0.611103 0.778000 0.090473 0.417149 0.703332 -0.191660 0.697948 1.102494 0.853681 -0.806065 0.032045 0.550348 -0.448134 0.049556 -0.098563 -0.497353 0.372678 -0.962157 -0.332949 
mint 0.498574 -0.243274 -0.051476 0.744550 -0.592894 -1.040273 -0.202315 0.292290 0.149198 0.019710 -0.347486 0.166934 -0.336233 -0.250656 -0.043373 0.106024 -0.301978 0.658858 0.658009 -0.230210 0.355485 -0.213675 1.168847 -0.504789 -0.301529 -1.032226 0.697302 -0.177757 -0.027944 0.261626 0.107297 -0.401755 -0.311344 0.703466 -1.075016 0.378282 0.176930 -1.270743 0.379728 0.052625 0.278453 0.359989 -0.653458 -0.148970 -1.026082 0.315262 -0.550231 0.326461 -1.086268 -0.195109 
fennel 1.060845 0.053150 -0.592796 0.189781 1.616525 0.054844 0.452755 0.142715 0.576213 0.331589 0.556914 -0.572770 0.023855 0.453020 0.304886 1.026974 0.454946 -0.232536 0.526967 -0.186783 1.748142 -0.715922 0.931369 0.120843 0.974037 0.452531 -0.148964 -0.360617 -0.223359 0.512328 1.003249 0.282364 0.943957 -0.202357 0.089117 0.175815 -1.282556 -1.617338 -0.810921 0.227975 -0.868997 -0.249907 0.337337 0.713540 -0.161608 0.449922 -0.987352 -0.159539 -0.701090 -1.432152 
sage 0.357592 1.004573 -0.248812 -0.323001 1.163011 0.444964 0.984367 0.461323 -0.827657 0.807380 -0.305051 -1.426496 -0.852057 0.029282 -1.605799 0.961286 0.464564 -0.442686 0.563190 -0.314989 0.649763 -0.511474 0.446789 -0.144191 0.893985 -0.478414 0.491349 0.735908 0.682242 1.056891 0.533125 0.081474 -0.219788 -1.179316 -0.343102 -1.648522 -0.386805 0.584239 0.790403 -0.514834 0.127003 -1.503301 0.385393 -0.114669 0.199983 0.134219 -0.056385 -0.097167 0.477617 -1.030776 
broccoli 0.024263 -0.256495 -0.183925 -0.522241 0.314388 -0.188315 0.889514 -0.196102 -0.014183 0.207755 0.466709 0.367612 -0.003041 0.025269 -0.337385 0.370221 -1.254795 0.054463 0.300333 0.436495 0.285427 -1.009535 0.265171 -0.486521 -0.739434 0.766294 0.439861 -0.637543 0.131596 0.718707 -0.307484 0.600697 0.482645 1.007176 -0.318942 -0.306217 -0.238535 0.584670 0.043352 0.434350 0.037772 0.389672 0.349465 1.121316 1.229905 -0.795713 0.560077 0.473232 0.514130 -0.501895 
turkey -0.118094 0.496616 -0.433607 -0.639897 -0.106607 0.551193 0.451165 -0.069855 -0.762110 0.205346 0.397981 0.651247 -0.452491 0.586613 -0.929427 0.259965 0.041832 0.178536 -0.286678 -0.417386 0.045339 -0.565477 0.410518 -0.117004 0.691193 -0.152724 0.661623 0.046816 -0.641926 0.143281 -0.235081 0.442574 0.304924 -0.868485 -0.437036 -0.004388 -0.022889 0.438095 0.861685 0.242366 -0.541036 -0.783630 0.566526 -0.019651 0.009919 0.321655 -0.113632 -0.232025 0.191612 -0.596305 
fenugreek -0.743285 -1.076534 0.756207 2.480157 0.805188 0.068016 0.833113 -0.819052 1.529762 -0.943981 -0.137259 1.691130 -1.139767 -0.755955 0.082127 0.949086 -1.616627 -0.609157 0.180554 -1.713574 0.977120 -0.467965 0.070747 0.414256 0.155449 0.527118 0.460640 -1.589492 0.187934 1.140842 -1.895571 -0.936033 -0.189094 -1.719238 -1.033530 0.214338 -0.340002 0.758458 -0.861480 0.141802 0.836177 -0.069891 1.237349 -1.932500 0.268491 -0.128236 -0.443068 1.679696 -0.585038 -0.498212 
cranberry 0.377868 -0.205633 -0.171710 -0.300847 0.222410 -0.653403 -0.339359 -0.313672 -0.654187 -0.267438 -0.301448 0.283366 0.312518 0.011996 0.094202 0.296734 0.470798 0.178311 0.171656 0.641806 0.031051 0.138035 0.530220 -0.724396 0.769024 -0.389422 0.687181 -0.415536 0.280290 -0.373158 -0.410305 -0.029869 -0.209378 -0.861478 -0.529924 -1.157741 0.649878 0.380977 1.125820 0.173495 -0.428260 -0.323834 -0.740140 -0.792490 0.309679 0.678092 -0.060204 0.854599 -0.157020 -1.161098 
wine 0.084350 -0.344026 -0.256454 0.336406 0.290757 -0.056962 0.008509 -0.456149 -0.625966 -0.177542 0.613645 0.320567 0.233962 0.769103 -0.674133 -0.040050 0.483766 -0.489776 1.178620 0.007995 0.109711 -0.678116 0.047456 -0.142623 -0.591291 0.282845 0.725728 -0.214449 0.092575 0.233433 0.139786 0.014945 -0.119894 -0.031494 0.289503 0.368833 -0.188714 -0.560473 0.022107 0.954371 -0.119316 -0.845413 0.030011 -0.532012 -0.921541 0.446275 0.003641 0.218690 -1.067900 -0.237673 
beef_broth 0.178948 -0.950946 0.031750 0.688486 1.551508 0.315713 0.217258 -0.033154 -1.238211 1.161233 -0.397690 -0.062307 0.968252 -0.004610 -0.459889 -0.517283 0.628564 -0.121725 -0.273798 -0.218688 0.131046 0.149491 0.388424 0.162105 0.752169 0.975023 0.102115 0.031760 -0.400224 1.470201 0.524017 0.079496 -0.542039 -0.068800 0.032268 0.941277 -0.816968 0.066279 0.434532 0.773988 -0.680662 -0.161367 0.363014 -1.041969 -0.439398 -0.189775 -0.307061 -0.289583 -0.524923 -0.192376 
grape_juice 0.686074 -0.072528 -0.844923 -0.221136 0.497492 -0.749524 -0.047840 -0.049992 0.151279 -0.197431 -0.166652 0.185562 -0.434448 0.751148 -0.202236 -0.168866 0.666824 -0.405185 0.404450 -0.267730 -0.179461 -0.944349 0.746022 -0.345070 -0.076536 0.743497 0.313123 -0.381092 -0.821331 -0.079255 0.515302 -1.107185 -0.557708 -0.086361 -0.601109 -0.196179 -0.063833 0.032781 1.123696 -0.239572 -0.291379 -0.605581 0.439092 0.895396 -0.476493 0.575078 -0.264211 0.415081 -0.993192 -0.294193 
pumpkin 0.618203 -0.165367 0.817712 0.197454 0.037307 -0.695672 0.011645 -0.456164 0.298530 0.181161 -0.475193 -0.090999 0.502133 -1.091793 -0.616904 0.247962 0.793981 -0.703633 -0.599760 0.669450 -0.277840 0.809803 -0.478817 -0.773201 0.543028 -0.393629 -0.870727 0.773998 0.459791 1.127603 -0.697001 0.548635 0.531708 0.094135 0.272511 -0.130851 0.010630 -0.160993 -0.768248 0.026177 -1.077737 1.004077 -0.193396 0.070507 0.116375 0.620054 -0.640221 0.361050 -0.041049 0.495744 
raspberry 0.051125 -0.301909 1.046426 -0.826993 0.069435 -0.983317 -0.238192 0.286884 -0.191689 -0.692189 0.168117 0.228696 0.132113 0.102131 0.255085 1.077229 0.746865 0.098949 0.999646 0.841355 -0.756255 0.288889 0.310337 -0.534682 -0.312376 0.183663 0.608480 -0.043105 0.013432 -0.516442 0.457456 -0.822810 -0.340006 0.243605 0.623464 0.102595 0.631453 0.177927 1.118551 -0.519114 -0.468251 0.730907 -1.246980 0.366096 -0.624628 0.574444 -0.649112 0.467042 0.139902 -0.923761 
whole_grain_wheat_flour 0.768714 -0.398661 0.403382 0.135927 0.032563 0.436502 0.139012 -0.338210 -0.090093 -0.691904 -0.358820 0.612225 -0.155352 -0.295998 0.601548 0.261614 0.633325 -0.326678 0.613294 -0.045688 0.093930 0.409664 0.592705 -0.395650 0.365452 -0.942915 -0.158054 -0.288010 -0.649468 0.541929 -0.213098 0.043479 0.617680 1.083069 0.063708 -0.440884 -0.222798 0.157674 0.530351 -1.187893 -0.713204 -0.400701 0.105845 0.324425 0.207970 -0.575490 0.807167 -0.413586 0.259322 -0.535196 
lemon_peel 0.324825 -0.096544 0.743825 0.407685 0.707691 -1.249462 -0.369217 0.385012 -0.176639 -0.419972 0.337080 0.004772 -0.318950 0.258722 -0.092865 0.956198 -0.194467 -0.137927 0.920352 -0.369032 -0.206770 -0.014633 -0.013265 0.034196 0.007762 -0.403704 -0.100985 0.124403 0.593321 -0.393547 -0.201616 -0.362291 -0.374354 0.158128 -0.614367 0.223733 -0.263197 0.004251 -0.007729 -0.882905 -0.179600 0.291540 -0.763252 0.669590 -0.205390 0.412464 0.023511 0.823155 -0.670080 0.015294 
coffee -0.624359 -0.665264 0.551841 -0.093058 0.146298 0.068729 -0.085230 -0.694565 0.201302 1.018223 -0.221162 0.627994 -0.629547 -0.037421 0.797401 0.190007 0.595414 -0.088107 0.514804 0.204151 0.039564 1.178233 -0.736068 -0.711621 0.454873 -0.122512 0.674343 1.122407 0.231941 -0.288391 -0.447822 -0.339857 0.061120 -0.063823 0.004722 0.069879 -0.134693 -0.192361 0.003270 -0.696886 0.038046 -0.066176 -1.060016 -0.474433 -0.265762 0.702183 0.587681 0.393096 -0.454188 0.800576 
sesame_seed -0.000514 -0.220419 -0.075095 0.285637 -0.108200 -0.869422 0.106872 -0.919316 0.460493 -0.212221 -0.040694 0.400202 -0.235111 -0.215301 -0.428498 -0.119149 0.323286 -0.058754 0.804752 -0.105200 -0.781694 -0.556705 0.572197 -0.448959 -1.629445 -1.229863 -0.224902 -0.213671 -0.692559 0.535726 -0.616661 0.678984 0.620991 1.404243 -0.000505 -0.263609 0.052651 -0.289037 0.395184 0.253524 -0.217712 -0.467424 0.381262 0.044311 0.345047 -0.099112 0.040740 0.215530 -0.727585 0.704741 
avocado -0.129120 0.330895 -0.659246 -1.005922 -1.801951 -0.003319 1.297128 0.255332 0.769136 -0.693813 0.738833 0.431294 -0.341031 -0.829623 0.550956 -1.315044 -0.006863 0.081232 0.492351 0.240716 0.064109 -0.742689 0.728286 0.653106 0.022909 -0.960449 0.861028 -0.503673 -0.792315 0.538412 -0.944218 -0.535247 -0.706124 -0.301428 0.505998 0.309709 -0.423454 -1.192306 0.452269 -0.417637 -0.025079 0.394317 -0.483890 -0.016998 -0.436512 0.435059 -0.583317 0.479425 -0.779662 0.343535 
sherry 0.234433 0.047186 -0.509384 -0.066146 -0.172996 -0.861546 0.138093 0.215365 -0.041200 0.279621 0.278248 -0.138288 -0.530838 0.455100 -0.917291 -0.056066 0.819454 -0.644085 0.791159 0.119465 0.019766 -0.377640 0.032269 -0.369767 -0.239821 0.156450 0.351878 0.077529 0.054127 0.063818 0.281475 -0.320102 0.143120 0.004055 -0.219670 0.376824 -0.434260 0.566358 -0.278060 0.024352 0.089608 -0.864359 0.288580 -0.114717 -0.173107 0.203432 0.403530 0.261503 -1.203003 -0.138128 
sake -0.075347 -1.338462 -0.082741 0.233779 -0.511260 -0.424354 0.506087 -0.194715 0.999273 -0.475217 0.219680 0.810723 0.495466 -0.705526 -1.646364 0.281258 2.236216 -0.814567 0.211624 0.584324 0.047829 0.066544 0.082360 -0.618468 -1.743523 -0.579997 -1.154290 -0.891786 0.454113 1.104239 0.930174 0.719573 -0.406637 0.618248 1.704174 1.386374 1.685052 0.256345 1.169960 1.189092 0.894154 -0.669897 0.583810 -1.095234 0.590440 -0.210533 -0.878521 0.188227 -0.389792 0.314047 
feta_cheese 0.192452 0.434873 -0.713963 0.315410 0.417323 -1.234117 -0.187960 0.615377 -0.330505 -1.413064 0.369861 0.643626 -0.483011 -0.334597 0.458009 -0.342292 -0.399293 0.477098 -0.169340 -0.449989 0.798365 -0.730557 1.131745 -0.098528 0.060014 -0.582389 -0.318316 -0.159813 -0.937440 0.052045 0.519831 -1.222797 -0.821778 0.690275 -0.207879 0.722978 -0.059499 -0.723509 0.622277 -0.569688 -0.328907 -0.293027 -0.919536 0.629537 -0.260475 0.179367 0.234227 0.339389 -0.260354 -0.763982 
apricot 0.375874 -0.206696 0.501104 -0.101312 0.448443 -0.542922 -0.020199 0.223797 0.202791 0.769546 -0.253545 0.015519 -0.489698 0.128938 0.163597 0.636417 -0.074952 0.054359 0.623397 0.299904 -0.575746 0.437285 0.105511 -0.539278 -0.302185 -0.693245 0.710397 0.331459 0.726369 -0.361644 -0.406040 -0.327690 0.454724 -0.795116 -1.025353 -0.434627 0.682824 0.628776 0.370915 0.596105 -0.554111 -0.738336 -0.457296 0.230088 -0.371989 0.302579 0.071609 0.516627 -0.675778 -0.948467 
roasted_sesame_seed 0.771420 -1.546100 1.028233 1.062518 0.131132 -0.517194 2.071435 -0.238497 -1.012146 -0.588616 0.630631 0.707732 1.061164 -1.345431 -1.072098 0.294378 1.620249 -0.688778 -0.926458 -0.995357 0.028299 -0.686271 0.749344 -0.014910 -2.191334 -1.355320 -0.536232 -0.287844 0.034002 0.688988 0.189687 0.917883 0.284340 0.825521 1.868435 1.437482 0.209167 -1.060911 0.303612 -0.332821 0.530254 0.406831 1.486146 -0.714800 0.814565 -0.690318 -0.548536 1.014912 -0.416886 0.453362 
rum 0.070320 -1.019933 0.707891 -0.099187 -0.058326 -0.145640 0.297035 -0.009927 -0.110347 0.284977 0.303575 -0.174721 0.575690 0.250060 0.427010 1.073698 -0.015667 -0.495834 1.267823 0.532695 -0.661309 1.620091 0.246500 0.323205 0.627782 -0.416336 0.368105 0.267484 1.309023 -0.214189 -0.247369 -1.055953 -0.224177 0.048738 0.449931 -0.025411 0.705863 -0.635216 0.751487 -0.069217 -0.127642 -0.447975 -0.218573 -1.037743 -0.665965 0.893298 -0.447960 0.587584 -0.370071 -0.212577 
orange_peel 0.400275 -0.842543 -0.209356 -0.041864 0.063793 -1.043304 -0.268561 0.452857 0.028458 -0.011423 0.242029 -0.636505 0.181881 0.218134 0.094029 0.665906 0.203465 0.206793 0.293482 0.239697 -0.354618 0.355565 -0.251359 -0.662441 -0.141805 -1.005806 -0.298872 -0.181460 0.717367 -0.176963 0.103372 0.390988 -0.124333 -0.169472 -0.635302 -0.370633 0.597311 -0.174622 0.608478 -0.098656 -1.373242 -0.589174 -0.770749 -0.315224 -0.037296 0.756967 -0.298552 1.645978 -0.605095 -0.776631 
squash -0.050247 0.715331 -0.299215 -0.171923 0.692539 0.447544 -0.482544 0.664178 -0.500613 0.508846 -0.251436 -0.135341 -0.034453 0.210545 -0.407437 -0.053676 -0.376914 0.002006 -0.466994 -0.543532 0.744573 0.248480 0.519690 -1.110110 0.418936 -0.431922 -0.550942 0.267976 -0.480499 0.722721 -0.365606 -0.516701 0.468298 -0.005518 -0.980457 0.447355 0.131018 0.403863 -0.152251 0.284882 -0.988779 0.007626 0.878066 0.200187 0.235643 0.815325 -0.354016 0.651544 -0.143672 0.180796 
crab -1.411494 0.523011 -1.140773 0.592140 -1.320716 -0.763944 0.873754 -0.186688 0.293831 0.754640 0.505703 0.344774 -0.885464 -1.094806 0.199503 0.836769 0.844842 -1.044249 0.397507 0.404021 0.977730 -1.068365 -0.350810 1.210717 -0.092888 -0.055744 0.285665 0.440509 0.201051 -0.226905 -0.113198 1.383866 -0.770688 0.020623 -0.860666 0.086606 0.101514 0.701967 -0.578593 -0.139002 0.222716 0.905513 -0.442039 -0.952584 0.010856 0.325581 0.199916 -1.104295 0.755917 0.422436 
marjoram 0.332903 0.034995 -0.027893 -0.924460 0.876744 0.213974 -0.997913 0.732937 -0.745495 0.522556 -0.437022 0.004448 -0.662810 0.008613 -1.693702 1.306596 0.305248 0.364022 -0.091934 -1.375866 0.548999 -1.618161 1.115932 0.751387 1.089829 -0.390740 -0.330966 0.458162 -0.069703 0.465939 0.403238 0.418421 0.646345 -1.955504 0.313434 -0.426795 -0.429805 1.164475 0.275462 -0.251347 -0.857817 -0.657031 -0.576921 -0.020032 0.154005 0.785767 0.026869 -0.248366 0.092086 -0.145470 
swiss_cheese -1.014469 0.992567 -0.628472 -0.743820 0.521845 0.370366 -0.187766 0.920545 0.565719 -0.198768 -0.362328 0.298135 0.080408 -0.353426 -0.496452 0.679980 0.345421 0.352685 0.163066 0.737310 0.196424 -0.184876 0.209450 -0.296031 0.028397 0.320415 0.083217 -0.043450 -0.284810 -0.212323 0.103692 0.783899 -0.374159 -0.268775 0.082006 -0.184058 -1.248549 0.426006 0.508726 -0.399870 0.666573 0.733940 -0.378608 -0.191289 1.834431 -0.273555 1.075732 0.390202 0.588445 -1.016533 
sweet_potato -0.254055 0.417853 -0.144150 0.102834 0.402501 0.700976 -1.129304 -0.715826 0.676549 0.562439 0.076664 -0.493379 0.715370 -0.766374 -0.348450 0.952081 -0.352053 -0.222434 0.053942 -0.093844 0.217411 -0.025313 -0.315524 -0.439222 0.394024 -0.353926 -0.777739 0.382769 0.345404 -0.598021 -0.741941 0.328921 1.043159 -0.231765 -1.554284 0.535306 0.048950 -0.252277 -0.198214 0.304908 -1.419417 -0.424326 0.596531 -0.958569 0.136644 1.224450 -0.840011 0.970786 -0.736674 0.093714 
shiitake 0.741574 -1.000611 -0.371550 -0.348331 1.374575 -0.436842 0.470381 0.136928 -0.284634 0.166999 0.069478 0.235217 0.694640 -0.296071 -2.040625 0.433488 1.447037 0.066950 0.124469 1.189388 0.301198 -0.147321 0.208034 -0.268607 -0.673869 0.435663 -0.354342 0.285239 0.267698 1.656512 0.163225 1.652756 -0.497181 0.473422 0.628007 0.991963 0.200142 -0.623995 0.129677 1.551478 0.280595 -0.039216 -0.002572 -0.972439 0.434703 1.156190 -0.286811 0.654466 0.601640 1.128368 
radish 0.248443 -1.199463 -0.342819 -0.612226 0.107228 -0.766094 1.126124 -0.429166 0.100388 -0.116144 -0.037879 0.646393 0.543692 -1.957482 -1.473616 -0.638717 1.055149 0.023230 -0.614415 -0.638311 -0.073951 -0.149696 1.277765 -0.210174 -2.054172 0.066272 -0.123792 0.003362 -0.225348 0.451545 -0.752043 0.536353 -0.612228 -0.063686 0.646359 0.688855 1.160117 -1.807385 0.844935 -0.445295 0.433425 0.714118 -0.123536 -0.219644 0.354676 0.210627 -0.664065 0.798231 -0.070991 1.281823 
peach -0.483405 -0.295277 1.111027 0.037814 -0.541706 -0.708422 0.111328 -0.242522 0.061987 0.437453 0.404806 0.411914 0.192106 -0.333985 0.218380 0.304165 0.156624 -0.580076 -0.083648 0.134520 -0.460656 0.806947 0.201208 -0.231268 -0.049663 0.407041 0.233756 0.069621 0.458700 -0.352884 -0.034702 -0.381651 -0.298056 0.247006 -0.227025 -0.189524 0.615942 0.161336 0.085306 0.188123 -0.275338 0.394898 -0.786450 -0.846086 -0.717857 0.400450 -0.298538 0.744424 -0.346148 -1.003102 
tarragon -0.494385 0.265638 -1.040727 0.083008 0.339765 -1.603436 -0.251961 0.896000 -0.205549 -0.007853 0.387978 -0.096099 -0.336396 0.251655 -0.302049 0.692405 0.007766 -0.170161 1.132713 -0.104104 0.168642 -0.914835 0.584061 -0.497933 -0.622432 0.379896 0.605575 0.199422 0.038132 -0.272380 0.600666 -0.042547 -0.303249 -0.457425 0.063693 -0.073305 -0.831001 -0.176592 0.227258 -0.342611 0.775012 0.138784 -0.110413 -0.301171 -0.029360 0.289160 -0.190876 -0.101236 -0.252851 0.029817 
black_bean -0.317679 0.621572 -0.151988 -0.925089 -0.676950 1.153938 1.009232 -0.260782 0.749140 0.396334 0.687123 0.792678 0.340701 -0.455664 -0.496914 -1.597502 -0.208554 0.718192 -0.329096 0.342875 1.079957 -0.824782 -0.270768 -0.298860 0.000498 -1.224916 1.180712 0.054304 -0.663540 0.984130 -0.560993 -0.742696 -0.067050 0.407280 -1.218684 1.012074 0.505737 -1.219051 0.137688 0.176144 -0.260715 -0.554225 0.319061 -0.095584 -0.232011 -0.496007 -0.631831 0.550586 0.034798 -0.628841 
lamb 0.462551 0.162914 -1.059092 0.877288 1.028806 -0.480212 0.035659 1.111118 -0.852019 0.611304 -0.642510 0.855547 -0.620114 -0.023975 0.075058 0.738688 -0.533234 -0.205230 -0.255086 -0.800090 -0.157285 -0.288528 0.808172 -0.257503 -0.255073 -0.811418 0.678903 0.581919 -0.522845 0.642953 0.315905 -0.338644 0.111888 -0.642279 -1.722362 0.094403 0.087769 0.103023 0.145740 0.865678 -1.420695 -0.255148 0.917202 -0.073238 -1.051353 0.471016 -1.494218 0.330050 -0.841329 -0.556354 
maple_syrup -0.144469 0.531010 0.848130 0.176725 0.133359 -0.459692 -0.145259 -0.428287 0.376614 0.180460 -0.123468 -0.624963 0.110749 0.108469 0.068368 0.302380 0.891624 -0.461592 -0.208727 0.139856 -0.244580 0.242382 0.431347 -0.631331 0.442603 -0.684396 0.081547 0.288417 0.182444 -0.387822 -0.450261 0.159949 0.812137 -0.020018 -0.092265 -0.191117 -0.125157 0.171871 0.344662 0.074962 -0.609965 -0.410243 -0.177570 -0.714609 0.604894 -0.072494 0.117625 0.510953 -0.253947 -0.808849 
pear 0.829372 -0.257584 0.026348 -0.525048 0.037715 -1.396362 0.597170 -0.281732 -0.073523 -0.383342 0.488254 -0.200235 0.612301 -0.398452 0.444800 0.690251 1.073035 -0.163078 -0.282189 0.091682 -0.100795 0.102559 -0.246319 -1.584920 -0.155068 -0.150447 -0.149572 -0.043358 -0.325326 0.164558 -0.878711 0.009870 -0.336691 -0.144444 -0.457373 -0.131061 0.409381 -0.644547 0.012166 0.398712 0.058545 -0.123001 -0.093691 -0.852036 -0.183728 1.103903 -0.517338 0.678874 -1.142681 0.203474 
fruit 0.019775 -0.696617 0.868303 -0.049680 -0.325907 -0.842945 0.635142 0.037435 -0.333394 0.092076 -0.014052 -0.185757 -0.455909 -0.317911 0.524968 0.948559 -0.053346 -0.401587 1.071780 1.193481 -0.727439 0.742386 0.108794 -0.129954 0.075154 -0.165924 -0.192351 -0.220489 -0.333220 0.233728 -0.061619 -0.564941 -0.234360 -0.191997 -0.489120 -0.346249 0.423885 0.015776 0.918750 0.435744 -0.745897 -0.265182 -0.867383 -0.366098 -0.522379 0.303840 -0.365708 0.157624 0.076415 -0.251612 
blueberry -0.310384 0.115020 1.913542 0.585364 -0.604277 -0.867456 0.746803 0.424259 -0.729071 -0.690208 0.572519 0.970588 -0.024312 -0.143538 1.277543 1.959189 0.601945 -0.105674 0.180085 0.343060 -0.068992 0.896952 0.302402 -0.591865 -0.467875 -0.696684 0.433127 0.095464 0.378119 -0.192707 0.348851 -0.521993 -0.722172 1.189548 0.189407 -0.515016 0.238128 0.386888 1.351242 0.615248 0.197884 0.868087 -1.282332 -0.186241 0.028535 0.207016 -0.193208 1.372998 -0.166480 -1.273125 
clam -0.214424 0.602430 0.149739 1.011634 -0.061347 -0.389144 1.704609 1.807797 0.270228 1.010997 0.043807 -0.006679 0.078750 0.562989 -1.143135 0.606159 0.829562 -1.389917 0.143981 0.428389 1.744890 -1.029816 0.425189 0.457822 -1.392157 -0.137531 -0.907821 0.425650 0.863286 0.482253 0.762509 0.903022 -0.706088 -0.904300 0.691880 1.556831 0.307132 -0.597632 -0.364477 0.293068 -0.362580 1.605406 0.149773 -0.761092 -0.275996 0.872550 -0.502393 -1.021723 0.492000 -0.376796 
smoke -0.276032 0.486754 -0.224849 -0.568255 -0.312804 1.030995 0.375765 0.481455 0.294667 0.736435 0.390723 -0.829158 0.212401 -0.025665 -0.235558 -0.248534 0.455993 -0.487225 0.065156 0.059658 0.317531 -0.406960 0.560454 -0.193336 -0.126435 0.300387 0.175400 0.081671 -0.326410 -0.306730 0.051528 0.709656 0.387913 -0.853308 -0.382069 0.463891 -0.865933 -0.290645 1.012298 -0.526327 0.698192 -0.602151 -0.054716 -0.744124 0.022652 0.263576 -0.010558 -0.052734 -0.417821 -1.019259 
tuna -0.519115 0.239674 -0.547398 0.445506 -0.921785 -0.658834 0.812466 0.148348 0.567534 -0.175026 0.308484 0.492940 -0.711527 -0.684035 -0.106909 0.631225 -0.231859 0.586153 0.060576 -0.369043 -0.226772 -0.897652 0.638335 0.658305 -0.060944 0.061153 0.339105 -0.502442 -1.641116 0.353306 -0.078002 0.724399 -0.626811 0.404522 0.236978 -0.095696 0.486256 -0.787424 0.898850 -0.340588 -1.084299 0.140036 0.404865 -0.307713 0.823154 -0.127892 0.320961 -0.387913 0.221429 0.606470 
kidney_bean 0.176173 -0.893529 -0.818005 -0.349281 -0.007611 1.454890 0.387788 0.069049 0.197478 1.036470 -0.060012 0.245512 0.016101 -0.092803 0.230064 -1.208537 -0.739561 0.564376 -0.971896 0.254135 0.641912 -0.931284 0.734623 -0.372012 0.387687 -0.760945 -0.207848 0.233485 -1.232244 0.620311 -0.006880 -0.804305 -0.018291 -0.886685 -0.155616 1.898895 0.391827 0.697041 0.448374 -0.670851 -0.258322 -1.527757 0.172629 -0.337139 0.095585 -0.986206 -0.823814 -0.531498 -0.442803 -0.358075 
peanut -0.435521 -0.753120 1.481227 0.042743 -0.663049 0.255337 -0.028796 -0.828285 0.144029 0.236114 -0.375976 0.096935 -0.066986 -0.125836 -0.144685 -0.350111 0.107724 -0.713809 1.228115 -0.476916 -0.658342 -1.095598 -0.406463 0.039976 -0.235641 -0.786112 0.331015 -0.222552 -1.295194 -0.418231 -0.671335 0.073606 0.566027 0.556552 -0.573828 0.848322 0.134530 -0.000125 0.018649 1.168556 0.737186 0.055457 0.322106 -0.663445 0.357866 0.258739 -0.017046 0.277856 0.095224 0.565370 
asparagus -0.488711 0.230732 -1.064965 0.181065 0.298517 -0.858378 0.532636 0.194387 -0.109401 -0.669695 0.543334 -0.361358 -0.496748 0.582449 -0.292040 0.070683 0.273826 -0.074396 0.435935 0.230834 0.683510 0.030142 0.435233 -0.495021 -0.609318 0.165499 0.106871 0.176002 0.328036 0.442515 -0.177538 0.300984 -0.676507 0.327890 -1.309383 -0.024596 -0.545812 0.231741 -0.213431 -0.067307 0.038032 0.220431 0.345516 0.091913 0.733032 0.368772 1.030182 0.495868 0.036142 0.025204 
salmon -1.027759 0.595924 -1.128081 0.649455 -0.548620 -1.067449 0.499928 -0.375158 -0.216217 0.021667 0.169023 0.275678 -0.773969 0.020986 0.281404 0.431127 0.216478 -0.262399 0.416685 -0.632539 0.034900 -0.098139 0.723287 0.199208 -0.831273 -0.102511 0.215099 -0.422257 -0.443249 0.234066 -0.161517 0.406167 -0.480749 1.104566 -0.406578 0.383140 -0.140720 0.172299 0.426643 -0.399931 -0.776076 0.645058 0.086512 -0.684409 -0.866612 0.807201 -0.040207 0.056534 0.331040 -0.070828 
leek -0.184772 -0.927340 -0.530136 0.157719 0.577471 -0.177179 0.357064 1.621789 -0.212067 0.664825 -0.105981 -0.975238 -0.150006 0.015143 -1.085837 1.179819 0.694022 -0.073359 0.460761 -0.116752 0.489495 -0.594206 0.574085 -0.837899 -0.654520 0.594282 0.108037 0.712269 0.458639 0.720766 0.031156 0.122214 0.607441 -0.155909 -0.904717 0.190922 -0.927449 -0.028472 -0.606934 -0.019257 -0.503207 0.021624 0.204946 -0.004010 0.115007 0.406116 -0.690329 -0.094108 -0.347018 0.171179 
chickpea 1.165149 0.375030 -0.178888 0.187717 1.044866 -0.613595 0.265184 1.044947 0.046842 -0.086964 0.271988 0.719804 0.070437 -0.679053 0.170858 -1.110067 -0.835767 0.560910 -0.653648 -0.336548 0.465811 -0.174674 0.765036 -0.382603 -0.152548 -0.891599 0.496967 0.264246 -0.291067 0.678441 -1.213202 -0.763603 0.687909 -0.425717 -2.361256 1.266738 0.146340 -0.560724 -0.110730 0.006503 -1.162284 0.377273 0.634155 0.606757 0.111090 -0.674186 -1.016785 0.221031 -0.793749 -0.120567 
blue_cheese 0.144399 -0.089874 -1.602134 -1.174682 0.136921 -1.348363 -0.040557 0.038363 0.447504 -0.662187 0.496788 0.402964 0.381545 0.181256 0.448674 -0.275036 0.284095 -0.331409 -0.193182 0.060651 -0.018660 -0.487324 0.715252 -0.806062 0.300582 0.482774 0.447906 0.097832 -0.481812 -0.574750 0.212754 -0.318025 -0.288064 -0.194946 0.552208 -0.688964 -0.418063 -0.205876 0.833028 -0.637178 -0.056203 0.145991 0.112317 -0.036325 0.570114 0.421541 -0.240334 0.431735 0.094215 -0.676038 
brandy 0.547295 -0.004410 1.088946 0.134367 0.235987 -0.508066 0.611355 0.489721 0.639060 0.493632 0.719355 -0.248385 0.182919 2.096181 0.716298 1.088567 1.538166 1.044176 0.791925 1.413265 -0.350565 -0.338701 -0.857683 -0.533395 -0.116554 0.409289 0.625466 0.052680 0.528882 -0.136607 1.053397 0.679260 -0.094882 -1.505492 0.328889 -0.165145 -0.017025 -0.422357 0.872818 -1.521821 -0.929664 0.279355 -0.777796 -0.598031 -0.336805 0.531110 -0.562230 0.501158 -0.952696 -0.966937 
artichoke 0.222534 0.257222 -0.900343 -0.326210 0.601827 -0.965116 0.545239 0.620571 -0.334033 -0.110453 0.547906 -0.153598 -0.766734 0.839843 -0.270909 -0.099226 0.153961 0.196870 -0.142989 0.361162 0.591665 -0.162947 0.882021 0.202288 -0.520528 -0.037582 -0.027715 -0.002091 -0.111437 0.106317 0.952519 -0.164761 -0.339770 -0.130400 -0.674740 0.502931 -0.608474 -0.615363 0.193558 -0.317606 -0.238424 0.847029 -0.099102 0.583229 -0.151922 0.103749 1.028779 0.587221 0.416527 -0.269460 
horseradish -1.126873 -0.141428 -0.874580 -0.387790 -0.750811 -0.820932 -0.267667 0.301251 0.506714 -0.188974 -0.362571 -0.267965 0.684294 -0.433168 0.572252 -0.456153 0.925311 -0.427656 0.903751 -0.088149 0.028069 -0.033342 0.656545 0.735948 0.432047 0.298133 0.355899 0.401169 -0.048977 -0.495460 0.431992 0.558857 -0.050884 -0.497671 0.415975 0.559154 -0.593161 0.006993 1.172043 0.300108 0.009822 1.057355 0.225068 -0.838419 0.564170 -0.329519 0.158650 -0.639340 -0.321574 -0.482649 
mango -0.527226 0.423650 0.249639 -0.021580 -0.995629 -0.111778 0.173506 0.212663 0.497317 -0.532431 0.601933 0.841289 0.203590 -0.852708 -0.188684 0.101177 -0.026805 -0.191434 1.013387 -0.633153 0.337490 0.071591 0.069945 0.745511 -0.539579 -0.346779 0.459942 -0.854104 0.040619 0.212900 -0.953231 -1.425941 0.356204 0.564253 -0.562587 -0.038133 0.767858 -0.327487 0.232610 0.927563 0.905901 0.652458 -0.089624 -1.164502 -0.760563 1.376806 -0.645113 0.531216 -1.184802 -0.499346 
date 1.437715 -0.399815 1.041772 -0.417627 0.812158 -0.543377 0.203217 -0.117773 0.554555 0.294039 -0.445869 -0.191672 -0.150845 -0.177540 0.821990 0.631739 -0.031463 -0.791152 0.998475 0.461188 -0.414424 0.686511 0.017376 -1.111833 0.083297 -0.481605 -0.350066 0.488609 -0.256138 -0.559303 -0.683403 -0.013373 0.550623 -1.298116 -0.742283 -0.472925 0.799405 0.105638 0.308535 -0.621822 -0.801857 -0.295985 0.890568 -0.072968 -0.012033 0.480644 0.252630 0.417225 -0.362361 -0.464212 
cardamom 0.439759 -0.177271 0.457338 0.661128 0.594793 -0.654224 0.434673 0.556226 0.666102 0.084711 -0.718818 0.475574 0.596686 -0.883066 -0.135596 0.256808 0.341217 0.308241 0.396410 -0.052655 -0.395694 0.652095 -0.364092 -0.747706 -0.409764 -0.972694 0.249469 0.223786 1.376862 0.162141 -0.459396 -0.844952 0.901396 -0.594887 -1.500866 0.438222 0.561546 0.897223 -0.845058 -0.263266 -1.125781 -0.260545 -0.565117 -0.686278 -0.694833 0.271144 -0.805739 0.471119 -1.578351 -0.768217 
white_bread 0.352201 0.486197 0.189862 -0.810905 0.265095 0.098509 -0.147515 0.351587 -0.417330 0.075398 0.721781 -0.534404 -0.561583 0.389888 -0.298234 0.618191 0.525582 -0.227871 0.575946 -0.364587 0.135575 -0.352655 -0.118462 0.184725 0.792858 -0.108412 0.005632 -0.309779 -0.015302 0.202016 0.579691 -0.127742 0.656259 -0.846656 0.151947 -0.170346 -1.049254 -0.129665 0.295390 -0.640722 -0.089121 -0.140372 0.354647 -0.077376 0.574079 0.269921 0.502052 -0.217910 -0.265134 -0.613908 
oyster 0.050514 -0.444142 0.396691 0.063219 0.808550 -0.174618 1.308973 -0.841354 -0.210400 0.599555 0.332072 0.418972 -0.238652 0.101604 -1.955123 -0.380384 1.638494 -0.488408 0.849259 -0.420934 0.778865 -0.629743 0.304111 0.080648 -0.999224 0.277191 -0.027171 0.848667 0.638523 0.707539 -0.421202 0.063471 -0.380546 1.192838 1.016977 0.488284 -0.173916 0.203137 -0.342712 1.358141 0.254683 -0.023401 0.184558 -0.542921 -0.243302 0.052189 0.038913 -0.485691 -0.524685 0.404379 
cottage_cheese 0.155098 0.053762 0.333973 -0.082507 -0.347156 0.432636 0.447870 0.072870 -0.125021 -0.024774 0.864522 0.435988 0.074065 0.375524 0.291772 0.454127 -0.551922 0.139911 -0.491920 -0.089358 -0.117259 -0.051055 0.510756 0.172493 1.116633 0.783687 -0.640882 -0.573439 -0.654331 -0.348871 0.437904 -0.467355 -0.625890 0.033042 0.614793 -0.226176 -0.355134 -0.362130 0.598625 -0.906632 0.093479 0.456476 0.631666 1.199080 0.706485 -0.060939 0.737407 0.545873 0.541979 -0.481232 
grape -0.242096 -0.639985 0.183070 -0.791511 0.086649 -1.727586 0.632915 -0.327621 -0.470033 -0.912909 0.548924 0.055528 -0.730224 -0.253505 -0.124347 -0.128656 0.219748 0.313871 0.937829 0.263992 0.073146 -1.175400 0.856649 0.422910 0.243860 -0.490023 1.165766 -0.049015 0.012067 -0.491478 -0.773669 -1.523153 -0.015571 0.512515 -0.494516 -0.805679 1.029197 1.201295 0.785570 1.022911 -0.793883 0.017612 -0.104586 -0.341733 -0.228562 0.605853 -0.718906 -0.093521 -0.001902 -1.177537 
brown_rice -0.089809 0.028751 0.494277 -0.346928 0.220112 0.358097 0.100802 0.429209 -0.264798 -0.178007 -0.194234 -0.425007 -0.182277 0.318098 -0.912852 -0.065102 -0.040155 0.316076 0.579069 0.047406 0.352513 -1.284014 -0.293088 -0.038045 0.340478 -0.321302 0.123148 -0.848895 -0.002582 1.011528 -0.744115 0.150509 0.260618 -0.526202 -0.524260 -0.280804 0.984013 0.622172 0.259241 0.559867 -0.439451 -0.176313 0.745978 -0.132582 1.038858 0.293603 0.647574 0.221202 -0.225956 -0.277363 
cauliflower -1.182571 -0.386314 -0.479397 -0.495781 0.624144 -0.430754 0.569762 0.969120 -0.130679 -0.611465 0.130224 -0.841357 -0.146959 -0.762019 -0.261089 0.283585 -0.132881 0.760583 0.036429 -0.328404 0.343778 -0.247693 0.092384 -0.592714 -0.798627 0.376372 0.004839 -0.512973 -0.684205 -0.175260 -1.204349 0.397945 -0.028150 0.089818 -0.817176 0.206903 0.385504 0.382553 -0.161209 -0.486935 -0.606132 0.280383 0.934633 0.316463 1.253748 -0.562268 0.373975 0.320720 -0.413968 0.382383 
cured_pork 0.778449 -0.479696 -0.601280 -0.979746 1.159213 0.897965 0.697905 1.017094 -0.564217 0.503945 0.584452 0.845551 -1.174760 0.780354 -0.767368 0.708411 0.587732 -0.058140 -0.555323 0.594870 0.916536 -1.100832 0.722205 -0.188071 -0.603013 0.185379 0.323197 -0.389955 -0.836531 -0.157162 2.335490 -0.081789 -0.386029 -0.752225 0.031667 0.435098 -1.348680 -0.469553 0.353164 -0.218841 -0.593783 -0.188486 -0.472817 0.317176 -0.012429 0.460694 0.307029 0.310531 0.826583 -1.273732 
egg_noodle -0.771536 -0.029861 0.101319 -1.017961 0.080039 1.311357 0.024268 -0.215127 -0.322629 -0.431275 -0.239746 -0.227704 0.251549 0.502585 -0.098752 -0.137622 -0.153559 0.007140 0.247032 1.244594 0.940852 -0.491963 0.381142 -0.047730 0.473832 1.266945 -0.413555 -0.286886 -0.078871 0.778848 0.095021 0.621835 -0.079047 -0.893247 0.265557 -0.053744 -0.326580 0.310642 0.205597 0.397475 -0.053181 0.865617 0.658257 -0.265642 0.577050 -0.204583 0.397068 0.292779 -0.121000 0.170831 
beer -1.048746 -0.273573 -0.638808 0.228118 -0.440234 1.276653 0.189407 0.154828 0.123651 0.762697 -0.140747 -0.439744 0.222403 -0.022767 0.155389 -0.358043 0.879284 -0.616274 -0.221407 0.094637 0.592673 0.474603 0.352426 0.356573 0.849791 -0.087860 0.630215 0.255702 0.396524 -0.054497 -0.077240 0.366915 0.241277 -0.590716 -0.222422 0.615277 -0.474535 0.245176 0.098503 -0.020794 0.337254 0.109591 0.152941 -1.120504 -0.500131 -0.424222 -0.643928 -0.448891 -0.819659 -0.869248 
hazelnut 0.551236 -0.682445 -0.149078 -0.074278 0.443634 -0.745946 -0.031799 -0.308441 -0.244048 0.270731 0.069883 -0.050866 -0.639301 0.243988 -0.111591 1.136223 0.788648 0.304902 0.604058 0.088655 -0.692765 0.367063 -0.259674 -1.513817 -0.057393 -0.029781 0.499912 0.461365 0.188263 -0.314084 0.050671 -0.256906 0.169264 -0.350938 -0.531852 -0.026333 -0.115359 -0.117955 0.515178 -0.697728 -0.709334 -1.086732 -0.762776 -0.360608 0.308587 0.694577 0.073282 0.437794 0.270683 0.095349 
mandarin 0.328935 -0.526763 0.252406 -1.307046 -0.444230 -0.965180 0.611939 -0.295175 -0.405198 -1.245269 0.706805 0.468203 0.564888 0.178912 0.282312 -0.030005 -0.626774 0.354830 0.663064 0.844586 -0.397097 -0.587142 0.483618 -0.348347 -0.470232 -0.263760 -0.498349 -0.530769 -0.209131 -0.370322 -0.865371 -0.664608 -0.535056 -0.046613 -0.005058 -0.774031 1.530759 1.151528 1.259403 1.233305 0.102624 0.569348 -0.405650 -0.969270 -0.070721 0.859152 0.155213 0.717624 0.651708 -0.786447 
romano_cheese 0.182715 -0.193643 -0.743709 -0.085425 0.848221 0.186415 0.273017 1.186553 -0.505040 0.402194 0.480350 0.298098 -0.838713 -0.092189 -0.307256 0.714136 0.046614 -0.702792 -0.031788 0.221478 0.828647 -0.501725 0.049341 0.336443 -0.293193 -0.022393 -0.722553 -0.183584 -0.465541 0.250463 0.895647 -0.491469 -0.755117 -0.137575 -0.093811 0.356455 -0.995768 -0.509164 -0.267789 -0.531496 -0.253748 -0.274200 -0.447796 1.217736 0.372965 0.632230 0.161703 0.458128 0.156678 -0.280874 
plum 0.059548 -0.108785 0.295313 -0.060577 0.377912 -0.837389 0.127564 -0.153389 0.388395 0.049845 -0.416351 -0.105893 -0.013182 0.155983 -0.471651 0.615512 1.096319 -0.374860 0.436643 -0.029780 -1.274931 0.171930 0.197205 -0.317736 0.227414 0.023437 0.513166 -0.500550 -0.090844 -0.039500 -0.087532 -0.049422 0.568027 -0.518315 -0.817346 -0.333580 -0.062751 -0.401112 -0.191201 -0.274660 -0.890400 -0.517553 -0.052039 -0.577887 -0.834555 0.078127 -0.809541 0.622496 -1.279702 -0.866943 
pimento -0.157362 0.366328 -0.276221 -0.486854 -0.221775 -0.285863 1.067802 0.641350 0.416093 -0.136732 0.199975 -0.110271 0.351402 -0.537892 -0.372160 -0.790203 -0.973606 0.799153 1.195051 0.771774 0.561145 -1.026662 0.214385 0.345528 0.241088 0.471925 0.191287 -0.478586 0.337782 0.019134 0.576312 0.335848 -0.009621 -1.373969 -0.909229 0.192193 -0.311867 -0.388711 0.541294 -0.433805 -0.789001 0.984702 -0.612906 0.438696 0.501838 -0.763421 0.564373 0.289383 0.413038 0.221532 
smoked_sausage -1.589286 0.230761 -0.650358 -0.384294 0.576078 1.309518 -0.210942 0.207667 -0.066090 1.177692 0.390429 0.178043 0.899593 -0.496346 -0.259836 0.393228 0.008947 -0.038414 -0.375912 0.377107 0.504039 -0.873965 0.421352 0.094397 0.602295 0.457481 -0.312813 0.259487 -0.240558 -0.365442 0.584466 0.754413 0.682139 -1.264826 -0.333815 1.025884 -0.085304 0.291423 0.066881 0.620521 -0.854023 -0.982378 -0.220774 0.215274 0.943677 -0.333829 -1.539698 -0.714291 -0.532247 -0.636986 
scallop -0.713008 0.385565 -1.028496 0.592780 0.674898 -0.737360 0.156951 0.766817 -0.048158 0.654460 -0.017530 0.314762 -0.738221 -0.019592 -0.575907 0.341110 0.543441 -1.246500 1.480298 -0.842192 0.585963 -0.672962 0.267503 0.726834 -1.052632 0.491921 0.089731 -0.725720 0.205838 -0.470400 -0.050624 0.425016 -0.202048 0.064682 -0.053230 1.566051 -0.499913 -0.397580 -1.560902 -0.447773 0.078097 0.743444 -0.393655 -0.311872 -0.088664 1.915420 -0.038567 0.124130 -0.182043 -0.111733 
goat_cheese 0.532926 -0.312016 -1.243095 -0.565106 -0.147335 -0.467358 -0.075408 0.012069 -0.576424 -0.815420 0.637171 0.018738 -0.746957 -0.277175 -0.358418 0.236497 0.638597 -0.120397 -0.441734 -0.410194 0.685402 0.084591 0.908015 -0.795021 -0.345313 0.159411 0.400916 0.145349 -0.596014 -0.395640 -0.114189 -0.446068 -0.347518 -0.019199 -0.277302 -0.386571 -0.854237 -1.095762 0.821128 -1.310266 -0.372784 -0.450418 0.279650 0.686968 -0.151469 1.049488 0.159539 1.158062 -0.374348 -0.138937 
lentil 0.291564 0.077263 -0.126599 0.285090 0.959273 0.482364 0.397247 0.750271 -1.056537 0.583432 -0.545241 -0.220199 -0.498030 -1.164303 -0.269336 0.150790 -1.497836 0.085451 0.007362 -0.680489 0.406901 -0.105559 0.951412 -0.365259 -0.089804 -0.168711 0.315249 -0.072057 -1.126760 1.560240 -0.996540 0.063926 0.988845 -0.031130 -1.172821 0.833746 0.198969 -0.085032 -0.245280 0.006296 -1.058301 -0.484292 1.234643 0.013563 0.110555 -0.058258 -0.762136 -0.227012 -0.593211 -0.490461 
currant 0.283538 -0.345085 0.066206 -0.282775 0.380717 -0.751575 0.623112 0.418665 -0.198568 1.032121 0.212914 -0.188787 -0.426148 -0.202323 0.368564 -0.243506 -0.340612 -0.156521 0.228548 0.106553 -1.161979 1.025597 0.461819 -1.033430 -0.015936 -0.521202 -0.334291 0.221569 0.278927 -0.152178 -0.632846 -0.279135 -0.419184 -1.368432 -1.004160 -0.380286 0.302658 0.432672 0.440111 -0.650433 -1.212247 -1.422581 -1.248654 0.186187 -0.531068 0.195172 -0.106701 0.576636 -0.565685 -0.351920 
saffron 0.575298 -0.246079 0.574988 1.369494 0.956757 -0.328514 -0.260776 1.896328 -0.015278 0.464201 -0.934805 0.059144 -1.248618 0.715749 -0.616847 0.980320 -0.197266 0.115298 0.984013 0.768787 1.123859 -0.712606 0.451924 0.014770 -1.350372 -0.377073 -0.259270 -0.570696 0.856000 0.929710 -0.094210 0.427227 0.542491 -1.100510 -0.920517 1.644998 -0.042968 -0.351804 -1.415903 -0.311960 -1.856837 0.053802 -0.330442 0.852352 -0.653033 0.595055 -0.487515 0.387898 -1.529570 -0.525662 
barley -0.473855 -0.911396 -0.091771 1.018342 0.800445 -0.135412 0.673091 0.577455 -0.607683 -0.874512 -1.158707 -0.731077 -0.152324 0.255744 -0.454378 0.599815 0.992745 0.281696 0.305061 0.672355 0.497603 -0.885995 0.073660 -0.456283 -0.050903 -0.841959 0.202564 -0.367197 -0.505344 2.248337 0.338706 0.222037 0.709608 0.501545 -0.400709 0.055649 0.537126 -0.136045 1.600518 0.735055 -0.456902 -0.747299 0.440389 0.171725 0.738468 -0.703413 -0.301641 -0.536452 -0.595065 0.509887 
caraway -0.727168 -0.431693 0.669392 0.355890 -0.372439 2.116994 1.685953 1.996474 0.422137 -0.339621 -1.764684 1.620648 1.490677 -0.045583 -0.265881 -0.005319 0.629183 -0.085119 0.349693 -1.097391 0.828687 -0.022013 0.439852 -0.389847 -1.345067 -0.712755 0.132105 0.683046 1.039099 0.085502 -0.098289 0.936807 1.166981 -1.135569 -0.154235 -1.783519 -2.485599 0.052653 2.132845 -1.596758 -0.931913 0.470251 0.319016 -0.501123 0.118499 -0.413245 -0.393256 0.170123 -0.937037 -1.849627 
beet 0.057475 -0.243994 -0.835082 -0.454234 0.184526 -1.457934 -0.263986 0.019888 -0.466100 0.152296 0.335598 0.227886 0.982384 -0.374734 1.325113 -0.228850 0.058093 0.171893 0.383966 -1.377137 0.028502 -1.001192 1.027850 -1.400680 -0.618813 0.260076 0.473654 0.514243 -0.458090 -0.448561 -0.535047 0.365226 -0.222255 -0.355230 -0.545275 0.014891 -0.488853 -0.197555 1.279264 -0.090899 -0.863629 -0.462450 0.544163 -0.628680 0.016856 0.607159 -0.456507 0.054416 -0.714929 0.114118 
squid 0.621706 0.043783 1.260452 1.440705 1.175182 -0.557847 2.088023 -0.223075 0.503499 0.800177 0.344251 0.564615 0.243618 -0.142353 -0.686384 -0.265442 1.099892 -0.652823 0.544137 0.190089 1.218904 -0.359694 -0.145202 -0.167215 -2.332294 0.904262 -0.400078 -0.025891 0.252116 1.209901 0.617417 0.891917 -1.276013 0.044500 1.550452 1.546232 1.550484 -0.514046 -0.305552 0.478176 0.042278 1.095313 -0.611376 0.130927 0.041715 0.395666 -0.924752 -0.136759 0.403841 0.113454 
corn_flake -0.232773 0.384095 0.777599 0.258602 -0.109577 0.372919 0.130707 0.057742 0.284702 -0.236295 0.209349 -0.299791 -0.097936 0.160248 -0.061717 0.498724 -0.337115 -0.228853 1.082508 0.253901 -0.529188 0.095357 0.200830 -0.306522 0.853887 -0.005012 -0.172817 0.050367 -0.193199 0.140974 0.283996 -0.425999 0.558628 -0.583058 -0.105767 -0.079295 -0.121586 0.553279 0.282879 0.166135 0.552858 0.024210 0.241334 -0.020335 1.174118 -0.495573 0.013317 -0.295304 0.463151 0.278601 
anise 1.258755 -0.175522 -0.135258 -0.004188 -0.260048 -0.630935 0.434020 0.315371 0.833495 0.701708 -0.687873 1.157792 -0.250056 0.507355 0.016544 0.213267 0.826114 -0.499642 1.031277 -0.048716 0.589284 -0.301716 -0.962936 -1.047239 -0.718092 -1.377145 -1.223804 0.581176 1.121551 -0.003063 0.102027 0.112887 0.154658 -0.664697 -0.209900 0.231540 -0.936026 0.311017 0.214803 -0.529777 -1.718964 0.612662 -0.861137 -0.296226 -0.976273 1.154052 0.126758 0.023100 0.380251 0.069262 
roasted_beef -0.429698 -0.234488 -0.478247 0.038645 0.956491 0.446507 0.414612 0.940975 0.295244 1.076898 0.294735 1.035578 0.135639 0.197620 0.847811 -0.018143 0.161246 -0.082679 -0.444031 -0.051302 -0.456233 0.018290 0.012423 -0.308184 0.102769 0.816135 0.383563 -0.250008 -0.544299 0.361586 0.544058 0.592814 -0.873277 -0.517916 -0.007391 -0.139067 -0.470708 0.476150 0.749664 0.571397 0.176441 -0.696977 0.265916 -0.655480 0.156685 -0.497408 -0.796809 -0.305451 -0.807886 -0.345697 
pistachio 0.507046 -0.402266 0.621812 -0.255893 -0.214414 -0.674037 0.319502 0.315493 0.078083 0.119151 0.476093 -0.337010 -0.859436 0.126613 0.537479 1.059115 -0.069452 0.063114 0.803920 -0.105315 -0.681593 -0.179834 -0.330594 -0.583766 -0.380036 -0.238031 0.184392 0.077802 -0.038104 -0.403228 -0.567909 -0.710423 0.122827 -0.562363 -0.741837 0.002012 0.265497 -0.447208 0.078150 -0.509523 -0.590249 -0.280157 -0.696027 -0.327337 0.200754 0.919826 -0.016842 0.508249 -0.628371 0.020876 
peanut_oil 0.039511 0.521363 0.672226 0.175425 -0.238594 -0.059100 -0.306978 -0.632935 0.787075 0.627927 -0.057051 0.545717 1.252220 0.458998 -1.480012 -0.486528 0.134258 -0.164939 0.734897 -0.143945 0.282854 -0.632536 0.226824 -0.374666 -0.967088 0.189967 0.145274 -0.658442 -0.488370 0.387895 -0.575142 0.214135 0.492427 1.087334 -0.077019 1.108362 -0.159466 0.405475 -0.440272 1.427550 1.048184 -0.059541 0.008539 -0.633850 0.448668 0.896843 -0.377887 1.114187 -1.250636 0.590523 
cereal 0.771211 0.022877 1.087156 -0.958424 0.979676 0.527577 -0.416069 -0.508534 -0.707936 0.740245 -0.851309 1.708121 -0.864738 -0.581655 1.151557 0.295857 -0.010342 -0.801757 1.212780 0.493919 -0.745305 0.592935 -0.118704 -1.278976 -0.339274 -1.054655 -0.298221 -0.640151 -1.202465 0.530069 0.019258 0.070180 1.315766 0.200570 -0.524715 0.151039 -0.560322 1.302359 0.964247 0.566214 0.228067 -0.295917 -0.496055 0.764579 0.980722 -0.434291 -0.323040 -0.428830 1.011550 0.259759 
cashew 0.189087 -0.147794 0.627111 -0.207192 -0.403503 -0.278877 0.615399 -0.390947 0.289586 -0.068712 0.504768 0.263196 -0.577312 -0.200980 -1.126364 0.169690 -0.384108 0.514069 0.973132 0.383508 -0.591999 -0.454947 0.062616 -0.769974 -0.527175 0.173328 0.518605 -0.781891 -0.659172 -0.182301 -0.899911 0.314198 0.391659 0.195046 -0.595555 -0.791893 0.696907 0.664348 -0.525428 0.556386 -0.682819 -0.229159 0.980086 -0.475467 0.435870 -0.107043 0.003473 0.503318 -0.759656 0.247674 
veal 0.726738 -1.305518 -0.375723 -0.064382 0.436165 -0.311535 1.279358 1.268967 -1.249421 0.282054 -0.688438 -1.341079 -0.454433 0.920985 -0.984192 0.858382 0.702146 -0.642131 -0.317369 0.383916 0.600780 -0.115844 0.660921 -0.535376 -0.056987 0.916106 0.735214 1.185618 -0.461075 0.226609 1.377947 -0.070466 -0.668706 -1.086051 -0.273440 -0.399518 -1.641665 -0.166307 0.404796 0.565458 -0.377686 -0.633807 0.817871 -0.496643 -1.039805 0.396672 0.176355 -0.256320 0.033984 -1.296970 
seaweed -0.154137 -1.063086 0.259237 -0.031238 0.239212 -0.765696 -0.181588 -0.589102 0.663365 -0.633972 0.718923 0.903346 -0.355429 -1.414337 -0.139690 -0.565991 1.697203 0.065704 0.755845 -0.171714 0.453090 -1.050133 0.640508 0.213502 -1.840469 -1.940333 -0.932690 0.622142 -0.280295 1.376217 1.812202 1.234413 -0.201541 1.277908 1.545953 2.197685 1.954623 -0.462120 1.980986 -0.823865 0.794139 0.705187 0.338893 -0.425918 1.228207 0.444492 0.357084 -0.164883 -0.033469 0.762520 
turnip -0.923801 -2.010481 -0.309517 0.169086 1.817998 0.289516 -1.005171 0.203741 -0.846351 0.925967 -1.155063 -1.123143 -0.732828 0.189521 -1.236992 0.950479 -0.227016 0.360699 0.281944 -1.128317 1.362738 -0.976857 0.771692 -1.211837 -0.631370 1.050654 0.285804 1.785221 0.593733 -0.845622 -0.495629 0.481359 -0.466538 0.471064 -0.691197 0.758625 0.359006 0.288302 0.698261 -0.357565 -2.312474 -0.998884 1.385176 0.089433 0.559076 0.831507 -0.825163 0.140034 -2.142777 -0.402917 
sauerkraut -0.667642 0.041765 -0.040492 -1.317312 -0.075413 1.786095 0.978873 0.445731 -0.695935 0.706224 -1.614028 0.447751 1.389450 0.317025 -0.787639 -0.009888 0.562380 -0.145632 0.725981 -0.207400 0.125120 0.892992 1.507625 -0.563946 0.458656 0.588992 0.410195 -0.530977 1.075256 -1.570454 0.605769 1.163538 -0.366390 -1.215896 1.223470 1.018141 -1.409496 2.230061 1.578610 -1.527746 -0.433310 0.296759 -0.234210 -0.176328 0.713749 -0.524173 -1.796650 -1.583362 -0.195302 -1.564629 
berry 0.442560 0.372664 1.626062 -1.030754 1.068555 -0.739788 0.288859 0.770044 -0.315305 -0.018714 0.427111 0.121003 0.883317 -0.244616 0.314512 1.372333 1.002562 -0.292948 0.361390 0.194865 -0.717343 -0.040260 0.496353 -0.198690 0.165698 0.532089 0.325601 -0.108641 0.056992 -0.634854 0.693413 -1.070921 -0.014460 0.629395 0.447258 -1.049884 0.352498 1.109885 0.795006 0.089113 -0.293848 0.754857 -1.649813 0.375296 0.051007 0.687839 -1.037427 0.140276 -0.146091 -1.129488 
kelp 1.545636 -1.795672 1.220120 1.111280 2.167791 -0.851888 1.521677 -0.432623 0.072474 0.770197 0.647898 -0.008163 -0.166446 -1.509909 -0.083724 1.078077 2.067378 -1.691331 0.833376 -0.672831 -0.120121 0.323688 0.745415 1.177581 -2.149477 -0.828161 0.413093 0.751936 0.291823 2.102190 -0.003578 0.625507 -1.420199 0.569108 2.583385 1.515256 2.784077 -1.037247 -0.212967 -0.201655 0.727687 0.216913 2.082111 0.315503 0.367087 -0.676705 -1.504033 -0.693212 -0.246296 1.038952 
tomato_juice -0.545276 -0.141065 -0.663467 0.425576 0.666662 -0.070304 -0.097605 -0.165517 0.566494 1.272348 -0.024155 0.472707 0.805211 -0.774956 0.274751 -0.631407 0.138216 -0.091386 -0.500921 0.071616 0.491976 -0.455164 0.719816 1.019176 0.739793 0.326895 -0.422841 0.081489 -0.494010 0.026417 0.481018 0.026025 -0.265151 -0.717041 -0.569519 0.265347 0.130958 0.311442 0.063250 -0.582984 0.290010 -0.363234 0.214588 -0.141475 -0.473902 -1.313734 -0.546076 -0.805870 -0.278803 -0.451806 
cod -0.905693 0.283187 -0.294930 0.675706 0.363237 -0.352276 0.511350 0.727481 0.190544 1.138983 0.066391 0.354992 -0.234829 -0.431235 -0.480974 0.441821 -0.497058 -0.130400 0.754351 -0.413698 0.940838 -0.125662 0.174230 0.635116 -1.132827 0.170995 0.837709 0.410776 0.255223 0.731994 -0.175642 0.715398 -0.073468 0.342689 -0.366531 0.804205 0.094548 -0.177617 -0.056926 -0.264593 -0.644731 0.947846 0.247313 -0.300507 -0.092139 0.233603 -0.955583 -0.684881 0.240749 0.038502 
provolone_cheese 0.417173 0.176429 -0.952358 -1.689000 1.189978 0.073111 0.557797 -0.250613 -0.075282 0.355041 1.045151 -0.092530 -0.154676 -0.607715 -0.483573 0.422190 0.716700 -0.403456 -0.585008 0.150751 0.717070 0.491213 1.475314 1.006297 0.621911 0.676308 0.379691 0.186240 -0.992493 -0.065263 0.713663 -0.306870 -1.361249 0.186361 -0.154125 0.472601 -1.405292 -0.866020 0.303774 -0.507580 0.629059 -0.616969 -0.220863 0.700875 0.082489 -0.104855 1.329324 0.573360 1.264334 -1.024565 
mussel -0.391439 -0.184553 -0.418073 0.200520 0.623476 -1.015729 1.135891 0.962197 -1.175048 0.641180 -1.006809 -0.438312 0.281968 -1.484745 -2.195802 0.045900 0.899352 -2.607004 1.344930 -0.223485 1.547549 -0.520026 0.981657 1.369357 -1.254246 0.716581 -1.456331 0.088873 0.642968 -0.140102 -0.331765 0.039742 -0.486410 -0.674251 0.468902 2.516704 -0.037189 0.260591 -2.391190 0.379949 -0.757293 0.725096 -0.017445 -0.270802 -1.946857 0.903296 -1.456371 -0.745020 0.376237 -0.271998 
blackberry -0.162015 -0.863159 0.941356 -0.041440 0.062315 -0.663625 -0.894273 0.235448 -0.759779 0.248314 0.195966 1.251458 0.091119 -0.713536 0.891716 2.176831 0.680779 -0.431611 0.141145 0.188195 -0.984551 0.526256 0.336006 -0.504545 0.286214 -0.142400 -0.375206 -0.081289 0.503125 -0.464994 0.499124 -0.610618 -1.221298 0.484941 0.767572 0.354724 0.366388 0.205977 0.640144 0.460933 -0.088633 0.210949 -2.496610 0.564825 -0.491479 0.696480 -0.577589 0.647270 0.014322 -0.812596 
roasted_peanut -0.211972 -0.873182 0.542512 -0.399886 -0.347293 1.014190 -0.179344 -0.837007 1.272672 -0.134531 -1.001598 0.672058 -0.623175 -0.523217 -1.127624 0.312444 -0.416380 -0.924364 1.939091 -0.382284 -0.427728 -1.072696 -0.350553 0.711714 -0.376350 -1.758219 0.468001 -0.887809 -1.288204 -0.845489 -0.371520 -0.250383 1.444472 1.289816 0.022194 0.717919 -0.304117 -0.959326 0.164214 1.533602 0.497973 -0.586699 0.731974 -1.100971 0.554006 1.176709 -1.008862 0.736784 -0.631069 0.904397 
rhubarb 0.415996 -0.265769 1.385964 0.111609 -0.073204 -0.810697 0.246562 -0.129700 -0.249664 0.010613 0.181189 0.266682 0.386862 -0.206554 0.747355 1.340747 0.347306 -0.420354 0.238358 0.367402 -0.474413 1.577093 0.093350 -0.528668 0.296830 -0.048130 -0.497387 0.622692 0.352907 -0.247430 -0.036622 -0.457036 -0.645600 0.487918 0.366262 0.205301 0.565193 0.445311 0.618975 -0.232408 0.002935 0.630185 -1.196238 0.301710 -0.397341 0.445354 0.375476 0.613492 0.073170 -0.735220 
chinese_cabbage 2.090443 -2.101334 0.912473 0.125650 1.258906 -0.428510 2.175620 -0.420360 0.462824 0.577171 0.295139 0.455489 -0.836814 -1.652806 -0.734755 -0.682290 3.093587 -1.910227 -0.144767 -0.608818 1.024297 -2.318964 -0.046323 0.531184 -2.883514 -0.811783 -1.890145 0.182129 1.974888 1.160352 0.463388 1.127367 -1.202324 -0.769006 1.642532 0.749344 2.754448 0.519052 0.821749 1.389632 1.370689 -0.219253 0.188614 -0.769861 1.492216 0.631156 -1.357251 0.437328 -1.051294 1.150764 
