249 20
</s> 0.020013 0.022097 -0.019151 -0.016390 0.006833 0.015105 0.004704 0.001057 -0.018018 0.011092 -0.021782 0.006248 -0.003757 -0.004786 -0.016579 -0.009411 0.012897 0.015127 0.014845 0.007987 
egg -0.517048 0.195623 0.131120 0.483079 -0.060066 0.241685 0.052766 0.041044 0.804090 0.552743 -0.314721 0.638227 -0.019058 -0.053382 0.298675 0.766849 0.128718 0.179944 -0.174592 0.297230 
butter -0.616368 0.234527 0.633867 0.257458 -0.060894 0.017635 -0.256595 0.235013 0.667445 0.605145 -0.182405 0.136538 0.013725 0.078818 0.064554 0.666546 -0.192183 0.319670 -0.643774 0.435819 
wheat -0.355751 -0.100741 0.240070 0.488702 0.010208 0.107316 0.006486 -0.065963 0.746621 0.512966 -0.037987 0.436822 0.145081 0.020526 0.265673 0.704063 0.174888 0.230389 -0.298025 0.376327 
onion -0.197424 0.098911 -0.353573 -0.722082 -0.255615 0.133962 0.142923 0.019352 0.066146 -0.354521 0.058722 0.448243 0.277173 0.400766 0.466130 -0.935019 -0.391849 0.013575 -0.591391 0.220375 
garlic -0.137230 0.357601 -0.121448 -0.552410 0.163132 0.316710 -0.158548 0.011491 0.242601 -0.468606 0.272454 0.257163 0.481546 -0.024765 0.782160 -1.409675 -0.392659 0.167559 -0.309866 -0.125550 
milk -0.312489 -0.059488 0.673823 0.433394 0.070435 0.113642 0.049187 0.154302 0.940427 0.831229 -0.447120 0.233128 -0.034030 -0.233217 -0.206006 0.873629 -0.145820 0.194590 -0.492807 0.927756 
vegetable_oil -0.270358 0.323312 0.101472 -0.266013 -0.230767 0.582098 -0.053934 0.730680 -0.102246 -0.011794 -0.040689 0.671303 -0.344345 -0.248081 0.686750 0.080824 -0.288845 -0.239584 -0.119479 -0.036863 
cream -0.404059 -0.074686 0.667629 0.106366 -0.386609 0.308528 0.061474 0.164928 0.474159 0.678431 -0.823685 0.127579 -0.137833 -0.300285 0.203196 0.378900 0.148490 -0.195491 -0.447998 0.594428 
tomato 0.236838 -0.386984 -0.446321 -0.947916 0.667582 -0.343519 0.259954 -0.151095 0.237384 -0.559474 -0.089931 0.383170 1.138499 0.092810 0.651243 -1.604059 -0.011077 0.434841 -0.766741 0.203160 
olive_oil 0.292309 0.511144 1.408294 -1.067858 0.591550 -0.385845 -0.339698 0.045473 -0.099563 -0.589370 0.200172 0.047439 0.672799 -0.027591 1.014962 -0.387027 0.270948 0.045796 -0.290397 0.144618 
black_pepper -0.314148 0.864099 0.170368 -0.602056 -0.104596 0.256960 0.036128 -0.042944 0.259809 -0.119408 0.411630 -0.021378 0.505925 0.203589 0.433215 -0.750567 -0.011147 0.301647 -0.211856 0.224680 
pepper -0.173483 0.225558 0.063454 -0.732886 -0.304285 -0.169118 0.133071 -0.064585 -0.054277 -0.725980 -0.221411 0.154414 -0.131354 0.416179 0.250415 -0.916357 -0.634291 -0.116502 -0.653920 0.203824 
vanilla -0.308091 -1.284970 1.738769 0.898123 -0.013412 0.456376 0.568503 -0.084969 1.705887 1.242120 -0.319171 0.907074 -0.765046 0.021541 -0.913069 0.474014 0.477969 0.852261 -0.421654 -1.192371 
cayenne -0.181820 -0.297347 -0.100983 -0.452265 -0.286895 0.837601 0.379814 0.095003 0.038712 -0.646327 0.273076 0.516203 0.381902 -0.678575 0.652029 -1.541248 -0.996737 0.263421 0.087003 0.035448 
vinegar -0.599994 0.727897 -0.688552 -0.816629 0.480123 0.733537 0.618682 0.203125 -0.702470 0.160843 -0.225485 0.671810 0.079788 0.136643 0.587438 -0.928808 0.151196 0.522251 -0.453910 -0.986631 
cane_molasses -0.404566 0.253702 -0.263926 0.503586 0.574089 0.700785 0.588133 1.228339 -0.105507 0.003465 0.522860 0.932787 -0.020000 -0.154490 -0.231423 0.807252 -0.564826 0.995758 -0.942922 -0.147904 
bell_pepper 0.066740 0.366645 0.137088 -0.679741 0.070831 0.168897 0.040338 -0.127576 -0.213588 -0.759716 -0.196528 0.272466 0.322153 -0.196403 0.696798 -1.093360 -0.559014 0.384720 -0.208387 0.115253 
cinnamon -0.819492 -0.366718 1.380475 1.155109 -0.109864 0.292452 0.007098 -0.099021 0.609273 -0.274083 0.805112 0.931827 0.391155 0.526520 -0.425702 0.336138 -0.210910 1.062201 -0.375947 -1.021581 
parsley 0.273945 1.110068 0.563026 -0.919447 -0.376744 -0.070077 -0.252855 -0.054964 0.417033 -0.328642 -0.487837 -0.129836 0.527836 0.151485 0.427810 -0.035685 0.524312 0.170726 -0.462737 0.389184 
chicken -0.802271 0.314909 0.160436 -0.286250 0.106276 -0.366719 0.022669 -0.737408 -0.400597 -0.289019 0.355071 0.044770 -0.253360 -0.400825 0.797353 -0.423102 -0.948400 -0.668259 -0.139018 0.376778 
lemon_juice -0.476105 0.478565 0.522114 -0.488727 0.103668 0.234941 0.457870 -0.211410 -0.151981 -0.500090 -0.718621 0.208900 0.493528 -0.169343 0.910971 0.467726 0.338176 -0.187085 0.008069 -0.640503 
beef -0.553306 0.473688 -0.556596 -0.647535 0.659761 0.334259 -0.092139 0.472182 -0.204182 0.126196 1.008448 0.443554 0.382304 0.278813 -0.073719 -1.201116 -0.110516 -0.226560 -0.417911 0.354631 
cocoa 0.385933 -1.588467 0.630100 0.700487 -0.170309 1.258309 0.687212 -0.646882 1.379411 1.565214 -0.669772 0.137175 -0.943958 -0.070811 -0.472400 0.712762 -0.376246 1.172048 -0.786539 -1.083065 
corn 0.228634 -0.737017 -0.824163 -0.431591 0.272687 0.792948 0.442638 0.491316 -0.132563 0.375171 0.037050 0.445342 0.664927 -0.356935 0.505330 -0.372260 -0.736615 0.464575 -0.959376 0.365504 
bread 0.450228 0.575731 -0.358533 -0.330499 0.200909 0.039883 0.498808 -0.033890 0.282245 0.169269 -0.435949 0.111006 0.614310 0.738745 0.526518 0.054764 -0.005377 0.171746 -0.853286 0.605374 
scallion -0.409014 0.170266 -0.292472 -0.620309 0.001084 1.363542 0.036413 -0.297716 0.687081 -0.297554 0.336617 0.084124 -0.389320 -0.280330 0.863864 -1.029408 -0.510052 -0.490522 0.703679 -0.279922 
mustard -0.063024 1.052350 -0.479086 -0.301716 -0.286281 1.051587 0.517710 0.729962 -0.413681 0.175450 -1.083486 0.613897 0.342171 0.482027 0.444690 -0.250874 -0.116973 0.036265 -0.960102 -0.863818 
ginger -0.795977 0.351192 0.393513 0.457250 -1.140466 1.527669 0.680626 0.121738 0.513680 -0.602588 1.361737 0.438537 -0.438654 0.139370 0.746074 -0.714426 -1.407762 0.529583 0.788005 -1.074945 
basil 0.971937 0.834193 0.477717 -0.852480 1.465158 -0.693185 0.120258 -0.467493 0.444604 -0.911398 0.116780 -0.232026 0.970144 0.216555 0.910403 -0.491931 0.106442 0.277498 -0.138880 0.824284 
celery -0.766708 0.733304 0.180127 -1.501468 -0.206872 -0.729802 -0.119582 -0.325817 -0.412865 -0.547310 0.416566 -0.007199 -0.658304 0.198148 0.035498 -0.246224 -0.000322 0.263899 -1.048683 0.721869 
carrot -0.799174 0.652994 0.333902 -1.476362 -0.646879 -0.224794 -0.924439 -0.198571 -0.037108 -0.339396 1.217499 0.147327 -0.748578 0.580765 0.217677 -0.473316 -0.044526 0.040344 -0.321378 -0.062504 
potato -0.153991 0.508552 0.066212 -0.666062 -1.190100 0.465107 -0.070420 -1.025680 0.034062 -0.838763 0.622179 0.018890 -0.542902 0.700034 -0.088188 -0.351065 0.179372 0.144558 -0.819518 1.260015 
chicken_broth -0.748481 0.939735 1.056392 -0.830788 -0.244985 -0.441535 -0.620100 -1.039042 -0.002213 -0.124542 0.933414 -0.379764 0.169065 -0.387406 0.234932 -0.708294 -0.792522 -0.199636 -1.036036 0.198854 
yeast 0.568844 -0.156101 -0.103664 0.441412 0.269885 0.428437 0.280935 -0.010977 0.735098 0.536159 -0.170969 0.783963 0.548848 0.331895 0.027313 1.120095 0.040209 0.268276 -0.335513 0.700079 
rice -0.429735 0.429618 -0.237554 -1.486256 -0.352589 0.856786 -0.224650 -0.268705 0.198755 -0.260819 1.014663 0.136309 -0.680837 -0.340176 0.743881 0.141114 -1.220329 0.226958 0.554589 -0.324011 
mushroom 0.137819 1.198099 0.123431 -0.731452 0.384090 -0.041366 -0.102588 -0.781915 0.512020 -0.085993 0.250170 -0.543702 -0.749049 0.121928 -0.301810 -0.719960 -0.721170 -0.475278 -0.474000 1.028451 
cheese 0.958377 0.159048 0.533255 0.341303 0.692082 0.055815 0.285149 -0.576404 0.564295 0.314334 -0.611635 0.127360 0.376461 -0.459416 0.276789 -0.784295 0.028768 -0.681874 -0.434310 1.091133 
soy_sauce -0.671733 1.065709 -0.543396 -1.098630 -0.126345 1.473252 0.387928 0.535299 0.715732 0.329104 1.313866 0.491384 -1.037018 -0.192446 0.290148 -1.582145 -1.310757 -0.407998 1.114384 -1.621167 
cumin 0.296411 -1.676562 0.884632 -1.064792 -1.082523 0.016954 0.093961 0.377649 -0.469854 -1.764373 0.484814 1.012312 0.511364 -0.591494 0.577910 -1.181073 -1.359906 -1.037526 -1.084412 -0.483721 
oregano 0.806735 0.152077 -0.049167 -0.755026 1.221104 -0.328684 0.075097 -0.236353 0.151287 -1.004865 0.064139 0.264069 1.136050 0.372162 0.098278 -1.317744 -0.340292 0.204369 -0.119982 0.701694 
parmesan_cheese 1.118539 1.032813 0.487029 -0.635559 1.297549 -0.671782 0.038201 -1.473814 0.976065 -0.219045 -0.484514 -0.481056 0.134424 -0.007316 0.035397 -0.327462 0.379776 -0.554585 -0.318689 1.010924 
macaroni 1.390875 0.861128 0.227097 -0.707892 0.828792 -0.352641 0.334511 -1.043641 0.551994 -1.172530 -0.424345 -0.498666 -0.456292 0.703068 0.538880 -0.561107 -0.183924 0.291005 0.167275 1.023991 
thyme -0.048039 1.173084 0.656009 -1.572353 0.079704 -1.032770 -0.169423 -0.528937 0.140115 0.386074 0.992342 -0.688800 1.049107 0.750080 -0.054394 -0.186990 0.257474 0.578622 -1.076350 0.805430 
cheddar_cheese 0.468863 -0.258826 -0.625472 0.146555 0.470302 0.394982 0.020737 -0.871121 0.171206 -0.121240 -0.836363 0.677372 -0.710809 -0.296390 -0.470882 -1.217332 -0.156086 -0.731278 -0.921957 1.562400 
lard 0.306880 -0.443096 0.610031 0.363484 0.186239 0.236302 0.078737 0.369573 0.734134 0.658699 0.261926 0.707066 0.042837 -0.073580 -0.288019 1.007584 0.159883 0.808044 -0.499872 0.280490 
lemon -0.658364 0.296502 1.024267 -0.610838 -0.216542 0.086528 0.542648 0.281034 0.257316 -0.475960 -0.330632 -0.041823 0.786607 0.069202 0.476000 0.625161 0.294385 -0.063921 0.262759 -0.277773 
cream_cheese -0.078952 0.216468 0.567769 0.391102 0.456305 0.133066 0.715224 0.493624 0.636779 0.039316 -1.337347 0.342671 -0.420088 -0.387886 0.001924 0.633318 0.218151 0.143549 0.103550 0.623137 
walnut -0.240318 -1.032585 0.815899 0.290005 0.756598 -0.258678 0.359316 -0.065658 0.830501 0.682961 0.340845 0.643636 -0.301783 0.904004 0.180187 1.235563 0.728794 0.093376 -0.497280 -1.048417 
green_bell_pepper 0.143772 -0.045365 -0.612222 -0.869113 0.358569 -0.217892 0.587706 -0.208890 -0.238959 -1.116867 0.090018 0.478542 -0.118258 -0.172018 -0.079635 -1.516492 -0.201191 0.374811 -0.852323 0.874855 
starch -0.784079 0.651018 -0.029364 -0.094307 -0.264304 0.399218 0.388908 0.425133 0.409875 0.542699 0.311930 -0.140843 -0.473267 0.182674 -0.295375 0.189021 -1.316204 0.216058 0.476842 -0.509328 
nutmeg -1.208749 -0.499539 1.255369 0.837245 0.222833 -0.173899 -0.877608 0.402699 0.974968 -0.123462 0.685167 0.485804 0.482252 1.093282 -0.280724 0.526585 -0.123164 0.668145 -0.521873 -0.034322 
honey -0.313831 0.220890 0.089899 -0.080017 0.319604 0.410839 0.754339 0.108440 -0.523817 0.160549 0.649809 1.090160 -0.041648 -0.048969 0.719032 0.671457 -0.578569 0.379283 0.425364 -0.714571 
apple -1.099006 -0.200595 0.368665 0.301546 -0.112645 -0.405330 0.784166 0.033173 0.061694 -0.313537 0.370286 0.911082 -0.181496 1.713713 -0.180148 0.644528 -0.205102 0.167511 -0.156253 -0.697940 
almond -0.559944 -0.211652 0.939698 -0.133868 0.262915 -0.163678 0.561024 -0.403118 0.166919 0.071191 -0.106598 0.453611 -0.246059 0.029652 0.044425 1.494334 -0.105835 -0.448556 -0.279507 -1.207051 
cilantro 0.166413 -1.257031 1.085402 -0.722173 -0.477885 0.803916 0.200134 0.382029 -0.361944 -0.848904 0.057069 0.516727 0.550416 -1.170977 1.076672 -1.691751 -1.478566 -0.105758 0.054433 -0.234749 
pecan -0.350941 -1.143388 0.750180 0.780711 0.392872 -0.144738 0.806986 0.200692 0.867589 0.943134 0.396349 0.485576 -0.402355 0.572539 -0.385631 0.527452 0.292146 0.304098 -0.579894 -0.498766 
white_wine 0.153783 1.373934 0.794543 -1.220616 -0.133630 0.016936 0.375596 -0.161003 0.427405 -0.783737 -0.250439 -0.725999 0.538805 0.053958 0.287113 0.210219 0.367383 -0.217960 -0.334489 -0.196951 
bacon -0.433693 0.223542 -0.114914 -0.804742 0.506474 0.304624 -0.197624 -0.178114 -0.289391 0.664695 -0.077539 0.055002 -0.118776 0.703791 -0.090733 -0.626024 0.495702 -0.526531 -1.129354 0.928478 
pork -1.220530 1.104370 -0.177695 -0.053705 0.488201 0.639513 0.050490 0.579850 -0.567506 0.339077 1.214040 0.501422 0.397409 0.177360 -0.266264 -1.039983 -0.478798 0.004044 -0.348571 -0.154149 
raisin -0.848960 -0.749122 1.080871 0.529772 0.440211 -0.258902 -0.110579 -0.452171 0.056935 -0.391169 0.914174 0.982670 -0.282000 0.423277 0.257329 0.994210 0.072601 0.373822 -0.818678 -1.094727 
bean -0.106865 -0.020814 -0.029237 -0.596577 0.610678 0.721309 -0.643496 -0.217985 -0.838646 -0.071490 0.805493 0.214344 0.026323 0.104925 0.333141 -1.185532 -0.920570 0.425110 -0.793168 0.283409 
rosemary 0.294240 1.694813 0.585711 -1.216306 0.616207 -2.062151 0.390248 -0.758621 0.458818 -0.167383 0.708151 -0.274350 0.894870 0.568732 -0.130198 -0.465993 0.167409 0.721181 -0.878304 0.854020 
fish -0.537974 0.618264 0.776062 -0.582279 -0.238781 1.938339 0.209008 0.150093 0.536619 -0.871709 0.342335 -0.201037 -0.004485 -0.759409 1.002653 -0.964305 0.242721 -0.341903 0.896917 -0.324744 
cucumber 0.215006 0.840310 0.090361 -0.629066 -0.146112 2.092592 -0.322580 0.730125 -0.348345 0.055021 -1.293637 0.898299 0.039030 -0.461590 1.049463 0.555434 0.179584 -0.204892 0.587245 -0.882171 
olive 0.994591 0.382004 0.876582 -1.000100 1.301686 0.095669 0.123187 0.000897 -0.282934 -1.154033 -0.636454 0.522070 0.318907 -0.377740 0.559524 -0.432514 0.601460 0.057398 -0.165666 0.723200 
coconut -0.633560 -1.087931 0.958126 0.576621 -0.693631 0.134732 0.616582 -0.099307 0.508147 -0.397747 -0.161487 0.394894 -1.509506 -0.933825 0.248483 0.254467 -1.367636 0.074633 -0.611956 -1.594441 
orange -0.927908 -0.707716 1.682079 -0.301185 0.578280 0.430070 0.945687 0.412202 -0.326269 0.255334 0.534240 -0.342874 0.231317 1.173473 0.205944 0.910164 -0.466848 -0.236409 0.611786 -0.380740 
tamarind -0.568834 0.744621 -1.704093 -0.602491 0.280534 0.543353 0.745855 1.198783 -0.448878 -0.314449 -0.299316 0.579823 0.910727 -0.052644 -0.678417 -1.323139 0.047451 0.925104 -1.699704 -0.796189 
vegetable -0.179503 0.565931 0.169712 -0.813749 -0.244597 0.846269 -0.550721 -0.198284 0.647814 -0.092408 1.387343 0.393913 -0.885089 0.128000 0.362669 -0.459998 -0.152968 -0.132978 0.403278 -0.096520 
orange_juice -0.972043 0.305277 1.205289 0.295683 0.158314 -0.252853 1.829591 -0.055850 -0.435885 -0.046336 0.594232 0.019990 0.109962 0.356471 0.402108 0.367323 -0.848524 0.332600 0.444941 -1.181843 
buttermilk -0.160041 -0.357150 0.605567 0.347210 0.205803 0.485823 -0.220565 -0.314869 0.408851 0.180133 -0.652283 1.037442 0.298788 -0.305599 -0.309173 1.006208 0.248280 0.275136 -0.126985 0.508136 
pineapple -1.378410 -0.706868 0.539078 -0.419013 0.274706 0.179774 1.914345 0.613626 -0.298533 -0.058828 -0.404491 -0.327313 -1.241065 0.622525 -0.132569 0.527204 -0.878116 0.673047 0.553408 -0.260189 
shrimp -0.353798 0.666215 0.071196 -0.816892 -0.333633 2.146175 0.603871 -0.352403 1.117937 -1.076216 -0.013527 -1.176352 0.297712 -0.734972 -0.065306 -1.301510 -0.314733 0.601152 0.667179 -0.134275 
coriander -0.044484 -1.551551 1.959536 -1.252726 -1.128686 -0.269017 -0.781743 0.559925 -0.244014 -2.668655 0.197247 0.736726 -0.779211 0.040225 0.167978 -0.937930 -1.887038 -1.109166 -0.579004 -1.681086 
bay -0.920282 0.882146 0.437490 -1.210845 -1.014173 0.271282 -0.209103 -0.543581 -0.251984 -0.905091 0.504269 -0.702851 1.234023 0.765591 -0.609348 -1.212204 -0.319826 1.568806 -1.349478 0.026297 
lime_juice -0.315321 -1.128272 0.830097 -1.201874 -0.386132 0.764906 1.623911 -0.332767 -0.865698 -0.051950 -0.268029 0.259284 0.595451 -1.976053 1.217099 -0.955521 -2.056682 0.010957 0.204353 -0.536744 
red_wine 0.345740 0.986754 0.937527 -1.246923 0.506073 -0.671655 0.610728 0.819188 -0.898414 -0.026036 0.706307 0.070283 0.761386 0.397638 0.558777 -0.421149 0.371334 0.277113 -0.856126 -0.580705 
gelatin -0.429983 -0.741965 1.155991 -0.506628 0.173101 0.126249 1.454625 0.094159 0.599049 0.872721 -0.947602 0.185838 -1.386027 0.200321 -0.639222 1.020997 -0.344571 1.107168 0.678355 -0.421338 
pork_sausage -0.101762 -0.117559 0.429255 -1.367146 1.326777 -0.357976 0.226080 -1.269637 0.082503 -0.307609 0.470222 -0.482950 0.956282 0.662959 -1.939553 -1.452179 -0.110365 -0.129336 -0.820898 2.027297 
sesame_oil -0.918411 0.039284 -0.029405 -2.050978 0.325592 1.930212 0.304442 0.381559 0.936161 0.254160 2.937382 0.431077 -1.576934 -0.858312 0.313613 -1.671168 -0.728952 -0.570986 2.319033 -1.058862 
chive -0.072227 0.395849 0.791466 -0.236748 -1.193514 0.510899 -0.407713 0.546734 0.544743 1.006055 -1.512984 0.117489 -0.323623 -0.032064 1.366943 -0.100868 2.004301 -0.044589 -1.052263 -0.352610 
seed -0.245834 -0.525980 0.614888 -1.503641 -0.687234 0.114769 0.729921 -0.251605 -1.240921 -0.192553 0.210816 1.967609 0.159000 0.295920 0.053109 0.430356 1.244350 0.362226 -0.070577 -0.175513 
mozzarella_cheese 1.751907 1.027812 -0.190873 0.116725 1.704414 -0.671235 0.853429 -1.389107 1.234990 -0.358946 0.018258 0.251493 0.664228 0.664164 -0.322231 -1.021293 0.280060 0.047820 0.192150 1.475498 
ham -0.228658 0.278813 0.207721 -0.474104 0.673223 0.412310 0.241177 -0.563784 0.012241 0.409546 -0.527457 -0.348524 -0.235235 0.613622 -0.026126 -0.538930 0.351961 -1.196148 -0.820968 1.166354 
oat -0.604235 -1.198255 0.215870 -0.554078 0.308533 -0.593690 -0.454837 0.091944 0.865152 0.926295 0.233362 1.661727 -0.279437 0.412432 -0.827826 1.418958 0.234966 1.442058 -0.778331 -1.227627 
turmeric -1.595387 -1.124263 1.694589 -1.799009 -2.089847 -0.977649 -1.435736 0.388626 0.355960 -2.222932 -0.213753 0.259394 -1.043703 -0.477325 0.872698 -1.174257 -2.085017 -0.712217 -0.430305 -1.498543 
nut 0.311989 0.490824 0.031286 -0.514314 0.310451 0.027026 0.336657 -0.895115 0.335168 0.226531 0.819738 0.221098 -0.287559 0.562440 0.983924 0.958840 -0.134765 0.399273 0.198629 -0.653120 
shallot -0.023099 1.290592 1.658365 -0.530691 -0.592627 0.322154 0.542692 0.272540 0.385043 0.026085 0.200492 -1.456341 0.484731 0.576719 0.915593 -0.534605 -0.033771 -0.309521 -0.668764 -0.409018 
lettuce 1.118417 0.213547 0.056097 -1.048420 0.494768 0.895082 1.225913 0.179608 -0.864780 -0.162336 -0.765670 0.835438 -0.568046 0.221943 1.312225 -0.204521 -0.163275 -0.985931 0.457729 -0.624461 
cider -0.694289 0.316286 -0.222728 -1.085518 0.061360 0.438613 0.461814 0.923110 -1.740329 0.193753 0.178371 1.009162 0.295390 0.689291 -0.079575 -0.168174 -0.018100 0.104438 -1.153800 -1.468336 
dill 0.092450 0.403838 0.339325 -1.486635 -0.782982 0.412760 0.136916 0.324882 0.061038 -0.225676 -1.252301 0.313438 -0.280197 0.249374 0.457392 0.051876 1.208392 -0.523242 -0.492873 0.280141 
pea -0.151742 0.693740 0.195722 -1.022758 0.117847 0.265117 -0.565671 -0.596603 -0.064230 -0.659697 0.163184 0.080216 -1.347555 -0.344264 0.521911 -0.536155 -0.460876 -0.381417 -0.424875 0.107777 
zucchini 0.420568 0.106004 0.782312 -0.304795 0.467793 -0.320097 -0.946976 -1.039011 0.025713 -1.129730 0.334541 0.124214 0.353516 0.540696 0.740366 -0.033549 -0.518768 0.511331 -0.138117 0.678443 
cherry -0.856729 -1.034294 1.307126 0.426188 1.380942 -0.161166 1.565668 0.300130 0.617663 0.742209 -0.039202 -0.191662 -0.822684 0.042936 0.185384 0.540033 0.403874 0.179180 -0.320371 -1.530353 
lime -0.712505 -1.282431 1.099165 -0.906191 -0.497970 0.973186 1.618271 0.321276 -0.580631 0.223734 -0.555134 -0.487212 0.122832 -1.133331 0.950876 -0.746511 -1.157736 0.066754 0.585557 0.116991 
yogurt -0.733692 -0.513857 1.104140 -0.729034 -0.511410 -0.484891 0.159545 -0.176122 -0.179676 -0.593110 -0.895798 1.432530 0.239029 0.019701 0.831616 0.706986 -0.075864 -0.759833 0.654119 -0.699209 
strawberry -1.138276 -0.901122 1.675919 -0.380989 0.420337 -0.375285 1.454285 -0.505225 1.469731 1.234555 -1.705495 0.450349 0.134195 1.077804 -0.769929 0.294336 -0.221814 0.450600 2.019405 -1.267186 
soybean -0.747646 0.273919 0.172535 -1.324667 0.175994 1.580122 -0.558556 0.181450 0.955411 0.264094 2.034582 1.065625 -1.082603 -0.543761 -0.185205 -1.076335 -0.041078 -1.024853 1.815463 -1.160723 
celery_oil -1.045574 1.295977 -1.198130 -0.577602 1.315446 0.900489 1.615780 1.999990 -1.788268 -0.190322 0.133922 1.939975 0.195437 -0.912781 -1.843039 -1.536098 -0.276373 0.644071 -0.751119 -0.282612 
peanut_butter 0.146909 -1.598338 -0.197521 -0.450701 0.296047 0.523215 -0.836014 -1.027305 0.448695 1.145667 -0.163074 0.842834 -2.384011 -1.038818 -0.990073 0.340805 -1.584020 -0.107240 -0.043462 -1.126285 
banana -0.685083 -0.847435 1.082976 0.250412 -0.056979 -0.130628 1.190532 -0.322109 0.344418 0.480765 -0.416283 0.624497 -0.861643 0.299307 -0.120033 0.774304 -0.777055 0.856588 0.768646 -0.501019 
meat -0.710205 0.438597 0.074710 -0.353549 0.512404 -0.109834 0.320216 0.325424 -0.168416 0.254161 1.087623 0.015821 0.115060 0.872633 -0.364375 -1.039637 -0.387338 -0.437891 -0.752298 0.392710 
tabasco_pepper -0.881827 0.004380 -1.166644 -0.336213 0.128928 0.977742 0.990159 0.399786 -0.152016 -0.467568 -0.541748 0.327570 0.634990 -0.115061 0.005009 -1.190812 0.000364 0.365357 -0.735186 0.235807 
milk_fat -0.413478 -0.046497 1.559790 0.991891 -0.074082 0.723433 -0.187451 0.086415 1.114515 0.292581 -0.124904 -0.713290 0.491372 0.093003 -0.119762 0.757190 0.149926 -0.616221 -0.654142 0.435928 
cabbage -0.731990 0.480357 0.000239 -1.315948 -0.171605 1.062417 -0.340976 0.053257 -1.044724 -0.244808 0.586353 1.075228 -0.804841 0.752547 -0.274612 -0.512761 -0.374048 -0.447666 0.008359 -0.238926 
mint -0.078356 0.060770 2.029315 -0.572099 -0.258342 0.163311 0.516909 0.057241 -0.405688 -0.344894 -0.015563 0.468613 0.746101 -0.471774 1.314999 -0.197649 -0.061307 0.255374 0.943944 -0.784258 
fennel 1.337202 1.049506 0.819470 -1.004750 0.315469 -0.131249 -0.396921 -0.634328 0.733849 -0.724172 0.642875 -0.491921 1.851692 1.316547 0.547590 -0.019851 -0.514448 0.924040 -1.146505 0.480139 
sage -0.419036 1.487090 0.217006 -1.005086 -0.160908 -1.404034 0.608396 -1.222778 -0.088579 0.722453 1.584183 -1.053514 1.007874 0.870312 -0.351776 0.665957 -0.900017 0.183686 -1.522139 1.375065 
broccoli 0.237328 0.297696 -0.427540 -0.571962 0.674133 0.159386 -0.289298 -1.630218 0.148115 -0.756329 -0.576257 0.128903 -1.469421 0.452613 0.434139 0.287294 -1.114553 -0.952399 0.155528 0.454103 
turkey -0.813702 0.680084 -0.060691 -0.610127 0.893231 -0.405044 0.298952 -1.022904 -0.946961 0.272847 0.546711 0.371701 0.500188 0.442910 -0.096747 -0.132666 -0.741435 -0.336928 -0.536415 0.827239 
fenugreek -0.444566 0.399308 0.571694 0.100750 -1.986624 -2.054502 1.227015 0.443024 2.127677 -2.264030 1.082206 2.328044 -0.142001 -1.466005 1.237689 -1.095936 -1.760338 -2.439568 -0.778050 -1.611475 
cranberry -1.437901 0.314518 1.072185 0.308022 0.857667 -0.504977 1.172039 -0.151938 -0.264462 0.823208 0.176841 0.774393 0.357174 1.468848 -0.347196 0.641566 -0.468806 -0.239355 0.233488 -0.559448 
wine -0.383354 1.473328 0.718383 -1.028500 -0.026075 0.377853 0.592135 0.235772 -0.395288 0.791411 0.798088 -0.364297 0.158887 -0.387354 0.463535 0.038016 -0.849954 0.004824 0.443099 -0.507789 
beef_broth -0.284434 1.504923 0.111795 -1.020582 -0.168529 0.038880 0.035879 0.617560 0.210744 -0.290365 1.976285 0.553468 -0.102208 0.737554 -0.609343 -1.312047 0.126057 0.517934 -0.399561 0.343237 
grape_juice 0.524612 1.306481 1.142382 -1.200761 1.399225 -0.613118 0.798426 -0.104211 -0.906712 0.141350 0.166330 -0.211220 0.424422 0.426004 0.721988 -0.022484 0.243608 -0.392683 -0.415444 -0.742307 
pumpkin -0.773901 -0.647947 0.110627 1.130089 -0.579843 1.005166 -0.343978 -0.227903 1.625054 -0.656638 1.788864 0.208286 -0.347110 0.813398 0.044043 0.127422 0.328664 0.802400 0.732290 -0.282598 
raspberry -0.145337 -0.168878 1.977165 -0.442883 0.698828 0.252416 0.906952 0.190559 0.526184 0.872890 -1.255770 0.073454 -0.011795 0.941863 -0.985926 1.168522 -0.097357 0.515700 1.365062 -0.893079 
whole_grain_wheat_flour 0.743763 0.014810 -0.197079 0.126777 0.058674 -0.294767 0.117254 -0.870072 0.557612 1.028417 0.398176 2.109091 0.585544 0.270155 0.316468 0.855536 -0.031853 1.028450 0.133727 -0.272957 
lemon_peel 0.082664 0.555470 1.799820 0.165862 -0.078981 -0.287153 0.331094 -0.559110 0.906263 -0.303737 -0.444830 -0.066347 0.411327 0.030885 0.576511 1.075423 0.516133 0.061523 -0.015372 -0.870870 
coffee -0.218569 -0.519181 1.247893 1.396309 0.176352 0.890119 0.694036 0.186471 0.425510 1.189480 0.322696 0.362588 -0.374056 -1.181708 -0.592971 0.534428 0.208008 0.625179 -0.793789 -0.191241 
sesame_seed -0.212935 0.486417 -0.254097 -0.782228 -0.056189 1.339185 -0.128585 -0.652577 -0.156443 0.671824 0.938152 1.188625 -0.716587 -0.628917 1.608670 0.720247 -0.240927 -0.443248 0.905591 -1.426082 
avocado 0.400885 -1.508956 0.429829 -1.038317 0.278265 1.256942 1.448198 0.144203 -0.898162 0.292577 -0.792714 0.617603 0.977141 -0.810274 1.868406 -1.151387 -0.241817 -0.774954 0.668020 0.504765 
sherry -0.327458 1.274891 0.662939 -0.687267 0.112689 0.208949 0.242397 0.093662 -0.099507 0.177826 0.486522 -0.699339 0.328052 -0.231326 0.674690 0.135028 -0.599472 0.005002 -0.806917 -0.630457 
sake -0.737907 0.272021 -0.938269 -2.474321 0.069408 2.208215 0.397742 1.011562 1.895043 1.346207 2.344891 0.159207 -0.912968 -0.050071 -0.222631 -0.967789 -0.373587 -0.720596 2.348898 -0.942016 
feta_cheese 1.049877 0.751386 1.229313 -0.712869 1.248941 -0.603756 0.214015 -0.685139 -0.467512 -0.283645 -0.946887 1.065614 1.029068 -0.133772 1.132714 -0.564445 1.201586 -0.032243 0.954444 -0.368785 
apricot -1.067928 -0.269049 1.737162 0.043335 0.288923 -0.322649 0.348308 -0.082327 -0.377989 -0.063368 0.555985 -0.142364 -0.078064 0.487099 -0.284891 0.961410 -0.638833 0.347683 -0.630815 -1.229871 
roasted_sesame_seed 1.828180 0.493317 -0.276497 -1.811468 -1.073356 3.009709 -0.654306 0.264891 2.020750 0.543829 2.502279 1.119842 -0.343208 0.137573 0.880382 -0.761481 -0.271517 -1.196994 2.455775 -1.127966 
rum -0.661110 -1.045327 1.806802 0.480238 -0.665072 0.050926 1.962812 1.092558 0.882566 1.370468 0.205016 -0.420115 0.028956 0.205137 -0.144189 0.048379 -0.526248 0.752135 -0.118369 -0.671782 
orange_peel -1.465348 -0.186508 1.637514 0.618540 0.842449 0.296840 0.477872 -0.311722 -0.012240 0.262317 0.832801 -0.352817 0.411785 1.268724 0.239098 0.808613 0.306921 -0.336726 0.185628 -0.974641 
squash -0.744264 0.086202 1.234175 0.070829 0.298295 -0.585262 -1.348978 -0.754129 -0.266133 -0.706007 1.034609 0.360287 -0.010143 0.399272 0.617355 -0.480114 0.015253 0.179953 -0.660399 0.713175 
crab -1.939417 0.846376 -1.025245 0.107574 -0.955816 1.834770 1.030115 -1.288561 1.233303 -0.540176 -1.425450 -0.765162 1.361807 -1.103464 0.387746 -0.734051 0.016864 0.052465 0.033952 0.038070 
marjoram -0.852448 1.326790 0.254702 -1.700957 0.100046 -1.955876 -0.077996 -1.738608 -0.340353 0.683543 1.124644 -0.537198 1.212457 0.761972 -0.840928 0.154193 0.247102 0.063284 -1.186054 0.490422 
swiss_cheese 0.244742 0.956609 -0.362075 -0.068727 0.372395 0.500763 0.174747 -0.667045 0.587190 -0.128809 -1.294466 0.614882 -0.616194 1.198697 -0.775833 0.236937 -0.228305 -1.372943 -0.713824 1.483039 
sweet_potato -1.604649 -1.016031 0.924443 0.851412 -0.816296 0.458419 -0.234843 -1.206899 -0.034635 -0.362290 1.452472 -0.063152 -0.024067 0.517202 0.208290 -0.545206 -0.175155 0.173816 -1.537162 -0.784696 
shiitake -0.708481 1.651626 -0.157132 -1.144215 0.394941 1.343907 -0.356717 -0.287607 2.069365 1.240105 2.175060 -1.143202 -1.119567 0.804874 0.314319 -1.343722 -0.061593 -0.388350 1.774634 -0.160757 
radish 0.667445 -0.579185 0.353405 -1.735195 -0.052873 2.928500 0.727457 -0.281621 0.689278 0.446840 1.861103 0.013578 -1.018659 -0.222425 0.807715 -1.256817 1.409280 -1.571011 1.906031 -0.733361 
peach -1.024312 -0.381625 1.108124 0.513751 -0.213643 0.324135 1.459753 0.613811 0.389254 -0.349602 -0.471536 0.330994 -0.065292 0.316965 -0.700333 -0.076174 -0.467683 0.292836 0.697829 -1.021699 
tarragon 0.023200 1.713261 1.150709 -1.111513 -0.330511 0.535696 0.066016 0.260533 -0.038082 0.344665 -1.031866 -0.902980 0.292008 0.210633 0.769367 0.251515 0.604783 -0.666410 -0.642034 -0.357381 
black_bean 0.311601 -1.230625 0.462326 -0.300976 1.077851 1.305272 -0.517551 -0.673925 -1.485446 -0.225909 0.656636 1.292732 0.447852 -0.593348 0.805394 -2.361612 -2.143948 -0.064547 0.230753 0.820171 
lamb -0.676849 0.733897 2.235916 -1.091310 -0.108588 -0.918632 -0.753364 -0.017525 -0.716994 -1.254091 1.368313 0.300006 1.495009 0.477440 0.679707 0.095144 0.205300 0.013400 -0.046852 -0.595585 
maple_syrup -0.687902 0.105680 0.231163 0.547609 0.017901 0.460587 0.129369 0.053631 0.041832 0.211480 0.605423 0.692752 -0.203743 1.035204 -0.232111 0.653343 -0.427044 0.720876 -0.786805 -0.660430 
pear -0.705169 -0.114473 1.124058 0.528469 0.409333 1.230001 0.396713 0.161035 0.474372 0.707196 1.104235 -0.168557 -0.217022 1.287964 1.114218 -0.055130 0.301698 -0.594363 0.733889 -1.523948 
fruit -1.185976 -0.951764 1.217333 -0.401484 0.460023 -0.126393 1.234586 -0.165148 0.808656 0.632744 -0.121981 0.031110 -0.100230 0.455785 -0.439922 1.010496 -0.204883 0.392278 0.360433 -1.035381 
blueberry -0.598077 -0.228602 1.963206 0.277320 0.265448 -0.104639 1.062961 -0.225056 1.334387 0.159618 -1.496694 1.503449 -0.193152 1.033767 -1.139947 1.182258 -0.508806 -0.058341 2.442954 -0.763636 
clam -0.703613 1.488279 0.255644 -2.257738 -0.768229 2.135279 -0.526750 -0.314427 2.211880 -1.568685 0.245414 -1.936315 1.373307 -0.199423 -0.432966 -0.863991 -0.658920 0.625487 0.952341 0.493301 
smoke 0.092652 0.426377 0.010306 -0.815517 0.172409 1.075902 0.467070 -0.062082 -0.730186 0.254247 0.088468 -0.099458 0.535802 0.843019 -0.493655 -0.738894 -0.334509 -0.342541 -1.429836 0.634222 
tuna -0.356850 0.167661 -0.703232 -0.967859 0.302710 0.857374 0.606143 -1.045146 0.127643 -0.212809 -0.767864 0.729019 -0.072010 -0.260511 1.459725 -0.020118 0.323504 -1.022634 0.555608 0.137956 
kidney_bean 0.095073 -0.576183 -0.073393 -1.332762 1.586810 -0.228849 -1.054252 -0.034756 -1.189078 -0.133544 1.284600 1.600544 0.626650 -0.305025 -0.424684 -2.286780 -0.280875 0.212473 -1.446020 0.246671 
peanut -0.542287 -0.618508 -0.861150 -1.067665 -0.500817 0.550426 0.118722 -0.403763 -0.016765 1.073760 0.164182 0.471460 -1.244505 -1.092311 1.072961 0.204658 -1.402404 0.706174 -0.069444 -1.278051 
asparagus -0.219535 1.741323 0.672366 0.279781 0.256354 0.419074 -0.093644 -0.893234 0.462789 -0.575959 -0.430626 -0.338018 -0.531880 0.383094 1.456335 0.147613 0.267662 -0.655604 -0.125039 0.311084 
salmon -1.002761 1.197407 0.419958 0.115683 -0.301856 0.909144 1.010018 -0.620065 -0.236879 -0.450097 -0.538331 0.485318 0.768224 -0.584898 1.131336 -0.062749 0.715895 -0.307128 0.930572 -0.334547 
leek -0.242824 0.962409 1.520872 -1.212393 -1.349807 0.537539 -0.954951 -1.155706 0.436727 -0.390761 0.794505 -1.173446 0.265794 1.297078 0.114549 0.103491 0.004172 -0.367440 -1.059790 0.450984 
chickpea 0.396240 -0.656412 1.668486 -0.837751 0.667868 0.073075 -1.735156 -0.462127 -1.056569 -2.065156 0.874447 1.447092 0.513388 0.205341 1.351469 -0.859955 0.034372 -0.136364 -0.501109 -0.901371 
blue_cheese 0.543590 0.800301 0.583491 0.041628 1.090652 0.466866 0.739925 0.563163 -0.674520 0.733832 -0.929502 0.338023 0.233466 1.308343 0.612942 -0.113091 0.677628 -0.669874 -0.091025 -0.086612 
brandy -0.257784 0.574034 1.305924 -0.136053 1.438898 1.779213 0.387469 1.032073 0.413239 0.083083 -0.394709 -1.256844 1.262477 1.735337 -1.327335 1.971779 -1.578103 -0.611058 -0.767853 -0.882058 
artichoke 0.943190 1.280148 0.893420 -0.317866 1.266268 0.148211 0.006090 -0.727420 0.435461 -0.906936 -0.779172 -0.734626 0.620156 0.442280 0.996774 0.083413 0.474236 -0.190579 0.021501 0.405731 
horseradish -0.410425 0.537045 -0.921638 -0.766383 -0.800401 1.636068 1.274477 0.821989 -0.342517 0.457286 -1.061948 0.695154 0.391669 0.922898 0.435678 -0.271471 0.743559 0.247645 -0.540990 0.339191 
mango -0.695506 -1.214693 1.567112 -0.579938 -1.257542 0.253274 1.261354 0.463500 -0.238046 0.083742 -0.491363 0.124255 0.379318 -0.686919 1.281033 -1.036696 -1.643343 -0.551668 1.075771 -0.912699 
date 0.088158 -0.977412 1.148729 0.202180 0.716476 0.079197 0.391164 0.217437 0.410181 -0.043374 1.109921 0.183661 -0.351473 1.075034 0.434720 1.787293 -0.423847 1.183246 -1.486908 -1.530561 
cardamom -1.381997 -0.695993 2.280550 0.190816 -0.939171 0.340379 -0.781867 0.021585 0.037683 -0.927872 1.213345 0.599232 0.870171 0.246222 -0.273291 0.219226 -0.508612 -0.202946 -0.752969 -1.916186 
white_bread 0.497627 0.557127 0.019772 -0.549170 0.184456 -0.241448 0.082103 -0.415472 0.069968 0.646816 -0.142608 -0.404833 0.722243 0.983864 0.337798 0.719065 -0.469447 -0.152879 -1.389338 0.503649 
oyster -0.336018 2.145631 0.222696 -1.224252 -0.644294 1.317586 0.022266 -0.426631 0.783077 0.757410 1.568951 -0.578977 -0.921024 -0.899999 -0.176851 -1.112728 -1.060540 0.651343 1.144957 -0.125664 
cottage_cheese 1.496750 -0.201446 -0.128339 0.041154 1.235909 -0.680853 0.788982 -0.090635 0.794946 -0.199198 -1.162523 0.547420 -0.423812 0.427365 0.024134 0.197589 -0.076738 -0.677232 -0.194243 1.358480 
grape -1.298881 0.474282 1.346659 -0.853390 0.051719 -0.678669 0.848949 -0.740832 -1.122329 0.668462 -1.287560 0.521179 -0.340146 1.142074 0.850563 -0.178327 -1.163119 0.421269 1.079548 -1.598858 
brown_rice -1.005502 0.171215 -0.363591 -1.004220 -0.120446 -0.864130 -0.154920 -0.994234 -0.325333 0.010299 0.588629 0.085021 -0.849588 0.571523 1.087311 -0.009408 -1.459658 -0.232282 -0.301736 0.499022 
cauliflower -0.352152 0.348942 0.045007 -0.399100 -0.434162 0.263475 -0.553326 -1.546075 -0.123878 -0.838316 -0.174970 0.597029 -1.565211 0.958857 1.000115 -0.163539 0.783779 -1.509989 -0.348494 0.083878 
cured_pork 1.673014 1.583038 0.726271 -1.504589 2.158884 -0.480971 -0.104855 -1.312657 1.036982 0.177014 -0.167359 -0.751013 1.492394 0.992886 -1.138100 -0.301216 -0.541676 -0.610157 -0.246482 0.747291 
egg_noodle 0.039708 0.165457 -0.681147 -0.607210 -0.160804 -0.095498 0.676279 -0.218522 0.192280 -0.455812 -0.097364 -0.060169 -1.141157 1.028994 -0.256434 -0.310439 -0.463307 -0.230285 -0.312050 1.989840 
beer -0.514733 -0.118841 -0.018413 -0.457314 -0.965757 0.711575 0.861356 0.970387 -0.395443 -0.335776 0.590166 0.464669 0.981090 0.255223 -0.753512 -1.110805 -0.351161 0.534303 -1.210978 1.194573 
hazelnut -0.443777 0.396581 1.683260 0.618969 0.786400 0.411110 -0.065641 -0.592989 0.337626 1.392722 0.801928 -0.516713 0.065057 0.256138 -0.207627 1.299269 0.300028 -0.424572 -0.933931 -0.855775 
mandarin -1.682946 -0.673871 0.438383 -0.339596 1.296236 -0.530768 1.180662 -0.101684 -0.180924 1.116606 -1.340906 0.292171 -1.054176 1.481874 0.844442 -0.374551 -0.852335 -0.556889 1.674118 -1.170964 
romano_cheese 1.031705 0.862281 0.935668 -0.878277 1.021930 -0.720732 -0.101296 -0.856707 1.318198 -0.168000 -0.354352 -0.578944 1.085473 0.087455 0.024132 -0.476863 0.610762 -0.362019 -0.309535 0.595805 
plum -0.356205 0.095932 1.310972 -0.098945 -0.136346 0.271234 1.222999 0.253872 -0.432352 -0.632590 1.182686 0.181477 0.581805 0.753422 -0.169223 0.847088 -0.389207 -0.190548 -0.768554 -1.473367 
pimento -0.234140 -0.085592 -0.715206 -0.978447 0.326128 0.427934 0.253624 -1.054621 0.029472 -1.178733 -1.535010 -0.173327 0.517966 0.494203 0.517560 0.101041 -0.561643 -0.886621 -0.697427 0.543069 
smoked_sausage -1.394218 -0.094002 -0.537638 -1.853147 0.483019 0.740191 -0.992062 -0.922345 -0.436970 -0.423616 0.165910 0.276917 0.748033 0.790968 -1.816390 -1.173160 -0.209554 0.168847 -1.801451 0.739370 
scallop -0.576107 1.508069 1.138220 -1.181239 -0.878689 0.948015 0.440100 -0.898766 1.249294 -1.140131 -0.347550 -1.190105 0.852962 -1.423788 0.451272 -0.287112 0.587365 -0.248099 -0.170692 -0.385569 
goat_cheese 1.338683 0.890685 1.926288 0.404488 0.870104 0.231329 0.835562 -0.814932 -0.423886 0.631674 0.403193 0.283041 0.375215 0.450599 1.033242 -0.144418 1.377694 -1.103543 -0.023028 0.422635 
lentil -0.006583 -0.524435 1.142075 -1.572972 -0.721852 -0.710839 -1.087499 -1.230537 -0.482911 -1.871688 1.535934 1.135657 -0.304908 0.308317 0.631420 -0.038009 -0.015691 -0.272077 -0.664260 0.237636 
currant -1.430514 -0.792376 1.832007 0.060408 1.480849 -0.230415 0.514662 -0.282366 -0.387373 -0.219039 0.812169 0.288435 0.723771 0.133313 -0.450386 1.229232 0.950973 -0.320126 -1.310606 -0.715779 
saffron -0.133553 0.383804 2.371853 -1.730693 -0.518876 -0.267943 -1.155440 -1.154889 0.749380 -2.537408 1.020114 -0.817137 1.466208 0.058270 0.354605 0.980292 -0.168775 0.615281 -0.258081 -0.699631 
barley -0.601972 1.000946 -0.483627 -1.979040 -0.288029 -0.352503 -0.566308 -0.856150 0.088145 0.523634 1.864061 0.845664 -0.543552 1.299687 1.229156 0.367895 -0.526719 0.496630 0.719319 0.215345 
caraway 0.384863 0.751451 0.524667 -1.116660 -2.803542 1.215603 0.536824 -0.461748 -0.569864 0.189844 0.429458 2.824152 2.975853 1.743175 -1.794608 1.056334 -1.516981 -1.824012 -0.854431 1.250983 
beet -0.667717 0.839613 1.066834 -0.624894 0.190176 1.277265 -0.004499 -0.191209 -1.726179 0.701197 0.228398 0.940325 0.198404 1.220327 1.260268 0.041142 1.422875 -0.655377 -0.676417 -1.109096 
squid 0.083985 1.231920 0.376025 -2.212986 0.320047 2.512736 -0.320421 0.507521 2.701443 -1.580715 1.285360 -0.878505 -0.645914 -1.237530 -1.119114 -0.306438 -0.564218 0.043139 2.637078 -0.345676 
corn_flake -0.257547 -0.426886 -0.422504 -0.459934 -0.123207 -0.336692 -0.288326 0.458581 0.708875 0.410088 -0.504654 0.360190 -0.994151 0.178482 0.107147 0.886034 -0.885139 0.136165 -1.284918 0.545575 
anise -1.111564 0.640650 1.107186 0.155800 0.191366 0.999327 -0.846210 -0.799990 1.006596 0.560758 0.544437 -0.012028 2.632485 -0.376334 -0.408709 0.900956 -0.058207 0.381829 -0.056695 -1.113115 
roasted_beef -0.474088 0.982261 -0.243435 -1.171265 0.861059 -0.112537 0.199704 1.229276 0.006856 -0.002430 0.311903 0.751198 0.332069 0.449137 -1.201308 -0.534204 0.073700 -0.828795 -0.682051 0.244213 
pistachio -0.585510 -0.848955 1.449348 0.070908 0.542417 0.246311 0.335302 -0.707981 0.390165 0.352455 -0.175267 -0.745806 0.311031 0.062357 0.461019 1.322517 -0.257665 -0.650560 -0.713656 -1.629120 
peanut_oil -0.813755 0.640422 0.199188 -0.885945 -0.546952 0.892635 -0.136889 0.394070 0.080307 0.003219 0.639151 0.143207 -1.306104 -1.080234 0.801348 -1.441675 -1.857594 -0.287833 0.667044 -1.101774 
cereal 0.314995 -1.361936 -0.083129 -1.465495 1.474613 -0.376239 -0.956296 -1.022910 0.417266 1.031217 0.759065 2.373787 -0.810192 -0.476629 -1.394089 1.930716 -0.255654 0.513267 -0.453331 -0.616001 
cashew -0.977408 0.105538 0.278432 -0.520524 -0.137605 0.040319 0.029358 -1.004586 -0.355636 -0.097374 0.280066 0.583697 -1.464590 0.110315 0.864881 0.709378 -1.488941 -1.306655 0.009683 -1.095065 
veal 0.973233 2.384198 1.458859 -0.797974 -0.022665 -0.487344 0.451943 0.042387 0.108400 0.005552 1.071102 -1.718666 0.664765 2.114931 -0.790415 0.342937 -0.443337 0.307245 -0.530382 0.764311 
seaweed 0.232080 0.295438 -0.632235 -2.452703 0.826109 3.184344 -0.072730 -0.376377 1.550714 1.250653 1.002123 1.230209 -0.380769 -1.465016 1.253626 -0.499502 0.869905 0.309562 2.466620 -0.474802 
turnip -0.745633 1.989722 2.612211 -1.123614 -1.491881 0.335046 -0.363614 -1.915310 -1.557093 -0.480134 2.043009 -0.315177 -2.071183 0.940033 -0.581251 -0.530781 1.615430 0.815319 -1.465227 -0.258268 
sauerkraut -0.136628 1.210980 0.005167 -2.393955 -1.213622 1.526887 1.003556 -0.029028 -0.976748 0.725871 -0.898545 1.417211 1.160415 1.230844 -4.730197 0.152008 0.315571 -0.259766 -1.207927 1.139053 
berry -0.477181 -0.288522 1.853670 -0.861853 0.441556 -0.476724 0.581937 0.294024 0.668182 0.513473 -1.289267 0.059342 -0.437738 2.191047 -2.136229 0.645321 -0.387714 0.293472 0.955299 -0.965813 
kelp 1.955484 0.075757 0.299746 -2.560955 -0.654171 2.875242 0.621238 0.781495 3.213675 -0.048249 3.465463 -0.713825 -1.638276 -0.928935 0.280620 -0.183485 0.462030 1.082909 2.652968 -1.584961 
tomato_juice -0.098521 0.224673 -0.788640 -0.919033 0.398915 0.156050 0.215963 0.653184 -0.093181 -1.038004 0.237662 0.635308 0.906746 0.241445 -0.493149 -1.362762 0.476918 0.595259 -1.366851 0.130999 
cod -0.709113 0.653628 0.985258 -0.981859 -1.143481 1.320070 -0.497068 -0.482880 0.477839 -1.230419 -0.200466 -0.364186 0.537966 -0.647384 -0.192354 -0.553085 -0.239030 -0.244636 0.369571 0.240669 
provolone_cheese 2.337657 1.006210 0.535901 0.108026 2.003654 0.066586 1.412646 -0.956839 0.885291 0.207061 -0.349110 -0.133592 0.420464 0.993624 -0.301484 -1.537120 0.720036 -0.201532 -0.361305 1.495065 
mussel -0.677119 1.194958 1.141973 -3.120141 -2.355510 0.964868 0.197016 -0.899852 1.963877 -2.098665 1.229851 -1.992811 1.426203 -0.437464 -1.057698 -1.647820 1.219631 1.330402 0.690854 -0.595421 
blackberry -1.127301 -0.510212 1.830342 -0.179482 0.759126 -0.579021 1.191208 -0.168047 1.834295 1.269664 -0.892534 0.617230 0.908499 0.295708 -1.733935 0.853467 0.880657 0.244484 1.702470 -0.917844 
roasted_peanut 0.070617 -0.989370 -0.177323 -1.553890 -1.455737 0.278862 0.175468 -1.182983 -0.083546 1.884450 0.886229 0.338172 -0.604449 -1.875067 1.111755 -0.624337 -2.163660 0.442736 -0.220015 -2.133187 
rhubarb -0.211932 -0.566998 1.608004 0.927212 0.530401 0.266734 1.179325 0.455003 1.363627 0.465511 -0.390855 0.392142 -0.370043 0.703983 -1.126065 0.876414 0.296679 0.964058 1.084938 -0.620135 
chinese_cabbage -0.244337 0.464232 -0.787337 -4.071813 0.205379 2.387553 0.347368 1.012626 3.062571 0.841923 4.233146 -1.844728 -0.617500 -0.929753 -0.124402 -0.962430 0.170065 -0.879187 2.200469 -2.330480 
corn_grit 0.923969 -0.631403 0.328890 -0.538775 -0.232895 1.239964 0.127459 -0.737306 -0.140545 -0.178053 0.250664 -0.737858 1.035345 -0.476475 -0.331449 -1.400143 -1.318330 0.563036 -1.351357 1.241479 
chicory 0.829854 0.642067 1.269030 -1.096730 1.273539 2.059054 0.449340 -0.978656 -0.921095 1.590513 0.112319 -0.969284 0.250146 1.316814 2.174194 -0.294791 1.750008 -0.419592 0.358795 -0.641859 
bourbon_whiskey -1.670021 0.614564 1.813136 1.440637 0.828725 1.215953 1.183688 2.289170 -0.517942 -0.496899 0.962012 -0.147850 -1.132850 -1.700916 -1.037871 0.207157 -0.118296 3.186689 -0.992088 0.840498 
citrus -0.199745 -0.773985 1.945716 -1.110558 -0.124472 0.686309 2.385930 0.496783 0.572324 0.797760 0.921874 -1.089164 0.504675 0.331044 0.261956 2.087042 0.493892 0.674811 -0.108641 -1.373685 
lima_bean -0.291090 -0.088108 -0.165463 -1.355805 -0.643531 0.272582 0.104768 -0.689974 -1.372075 -0.659873 1.074328 0.074408 -0.055948 0.790248 0.056763 -1.924219 0.144644 1.528587 -2.206987 0.507455 
lovage -4.101099 -1.073774 -1.316577 -0.870838 0.075699 1.823723 0.420080 3.074657 2.395215 -3.736471 0.113328 -2.166215 1.677434 -1.232293 -0.300399 0.332482 2.308046 0.222115 -2.040699 1.017383 
melon -1.470891 -1.193800 1.585481 -1.715061 0.082364 -1.078468 2.027832 -0.582523 -0.023318 0.843624 -0.632815 0.942573 0.280734 0.027751 1.746796 -0.603219 -0.558004 1.182790 2.456743 -0.886650 
parsnip -2.035297 0.220235 2.186438 -0.670172 -2.498139 0.105632 -1.657236 -1.263995 -0.558451 0.746779 1.632418 0.613536 0.556511 2.550073 -0.080909 -0.825595 0.337065 -1.190328 -0.229679 1.223218 
fig -0.189680 0.080614 1.795074 0.619810 1.619162 -0.070404 0.493418 -0.528763 0.380373 0.350236 0.866607 -0.442028 1.925594 1.217881 0.495288 1.258943 0.505897 0.115349 -1.091016 -1.921603 
lemongrass 0.084221 -0.715528 1.320617 -2.112979 -3.717812 0.190150 0.612919 -0.499955 1.827261 1.396804 1.466207 -1.313451 0.756449 -2.111564 0.803777 -2.385449 -3.853055 -1.518504 0.904845 -2.184497 
whiskey 1.061878 -1.156947 0.434673 1.705908 0.724389 1.509798 3.251836 1.449886 0.554004 0.128295 1.303875 0.146190 1.111461 0.399456 -1.113540 -0.291229 -0.477348 -1.576498 -2.167743 -1.656188 
watercress -0.186569 0.043937 1.008073 -0.690022 0.463298 0.941734 1.200056 -0.209777 -0.824042 0.689057 0.291172 -0.349683 0.148161 0.323020 1.544822 -0.867857 0.837101 -1.318039 -0.531834 -1.231813 
tequila -1.601918 -1.441486 1.022471 -0.353155 1.430656 1.550071 2.126099 1.111764 -0.507877 -0.308543 -0.226227 -0.447273 1.612028 -1.624312 -0.093519 -0.641943 -2.210081 -0.311023 1.501976 0.244341 
rye_flour -0.355947 -0.487674 0.239341 -0.878097 -0.161433 0.568604 0.176566 -1.848230 0.044535 1.551593 0.102301 3.434948 1.843613 0.744217 -2.402194 0.560865 2.541991 -1.305887 0.126596 0.061021 
peppermint 0.221273 -0.194206 1.196358 0.441238 -0.344029 1.304496 -0.064561 0.019140 0.326824 1.254225 -1.021199 0.016902 -0.591259 -0.894236 0.222054 1.025428 0.480786 0.344567 0.308409 -0.584153 
savory -0.233403 0.754582 1.139912 -1.586753 -0.786291 -1.268136 0.092513 -1.287441 0.158211 -0.233737 1.437116 -0.357685 1.474619 0.604491 -0.322525 -0.770730 0.880731 0.222017 -0.513662 0.413036 
lobster -0.706754 1.130510 1.488329 -1.098258 -0.998306 1.310569 0.835006 -0.493593 0.956386 -1.528118 -0.191769 -1.570936 1.699210 -1.068145 -1.230957 0.140253 0.554045 0.487140 -0.226590 0.494068 
roasted_pork -2.033947 0.930685 0.296686 -0.564650 0.341112 -0.249631 0.349716 0.680343 -1.325673 -0.247736 1.789199 0.721978 0.692519 0.743925 -1.003489 -0.378297 -0.118668 -0.165898 -0.392994 0.162936 
mace -1.542721 -0.286869 0.935618 0.737098 -0.375841 0.507748 -0.110174 0.073528 0.777905 -0.273777 1.874181 0.154616 0.830217 1.023784 0.062093 0.737570 0.118164 0.243502 -0.766110 -0.864296 
endive 1.652256 1.143692 1.767763 -0.815428 0.727417 0.195130 0.967859 -0.248227 -0.260019 0.251721 1.106072 -0.491072 0.576730 1.008480 0.918981 0.040317 1.327014 -1.688666 -1.643500 -1.205926 
brassica 0.621053 -0.141918 0.499684 -0.687446 -0.010186 3.072182 -0.238114 -0.750035 -0.411628 -0.077875 2.519763 0.245824 0.676841 1.083472 0.561256 -0.388957 0.141971 -0.900025 -0.407075 -0.050489 
grapefruit -1.120761 -0.486693 1.301800 -0.937416 0.861390 0.068671 2.284844 0.779933 -0.621573 0.182692 -0.559223 -0.062121 0.743542 0.850535 0.898007 -0.299303 -0.445666 -0.281674 1.228207 -1.453778 
enokidake -0.364470 1.030028 -0.688295 -1.609878 -0.047677 3.638767 0.804218 1.226799 3.099250 -0.122326 3.778413 0.644238 -0.316809 1.058862 -0.227089 -1.265281 0.904926 0.887737 3.552696 0.637412 
porcini 0.107699 2.186893 1.961480 -0.545220 0.188008 -1.151392 -0.804616 -0.332317 1.321869 0.844610 1.491385 -1.414877 0.479734 1.678597 -0.161811 -0.579340 0.726425 -0.259785 -0.425402 1.076194 
kiwi -0.740950 -0.555555 1.272850 -1.328349 -0.244587 0.044036 2.328665 0.210099 -0.060834 0.697314 -1.061342 0.931543 -0.675627 0.785735 -0.193699 0.611421 -0.702273 1.157949 2.539901 -0.869591 
wasabi -1.098856 -0.774353 -1.906063 -3.709645 0.930786 3.170887 1.164371 -0.572435 1.867126 -0.728208 0.334097 -0.515189 -1.375650 -1.418252 0.408277 1.121032 2.127691 -2.080202 0.452883 -1.686147 
watermelon -1.204360 -0.903189 2.285133 -0.591218 -0.099898 1.458693 2.139680 -1.370280 -0.555914 -0.057557 -1.380691 -0.289638 1.955513 0.266946 0.686261 -0.295780 -0.989711 0.896636 2.048466 -0.709929 
lime_peel_oil -0.342010 -1.352358 1.350855 -0.391611 -0.648384 0.755182 2.280864 -0.429896 -0.444938 -0.406128 -0.670221 0.033125 0.973484 -0.738162 1.623842 -0.625905 -1.421745 0.465756 1.659647 0.119176 
okra -0.779107 -0.148972 0.567237 -1.160394 -0.248391 1.067997 -0.543333 -0.110666 -0.637150 -1.469489 0.662535 -0.694983 0.653028 -1.003683 -0.258121 -0.932049 -1.210460 0.516856 -1.451538 0.388287 
macadamia_nut -0.258562 -1.101160 0.499693 0.134176 -0.181053 0.085167 0.547682 -0.349999 0.451332 1.236362 -0.524020 0.048191 -0.601571 -0.580081 0.182065 0.572296 -0.713053 -0.348497 0.083823 -1.235182 
smoked_salmon 0.427463 0.643518 0.749200 -0.793240 -0.675468 1.976561 0.217549 -0.459159 0.649138 0.295897 -2.068141 0.161494 0.153416 0.159605 1.441902 0.465968 1.909712 -1.267605 0.233408 0.269263 
kale 0.927985 0.232259 1.324928 -1.012060 -0.488227 0.474767 -0.537370 -1.180481 -0.473464 0.143830 1.890424 -0.583474 -0.547701 1.363350 0.170149 -1.724120 0.889178 -0.397322 -1.712051 0.403158 
popcorn 0.009192 -1.338845 -0.235459 -0.681772 0.817791 -0.090055 -0.915167 -0.514024 0.104080 0.393957 -0.802074 0.522939 -1.281250 -1.080596 0.178572 0.631088 -1.451339 0.846892 -0.909295 -0.324883 
rye_bread 0.481065 0.192128 -0.157405 -0.849705 -0.877373 0.890734 1.459731 0.602685 0.070730 0.632212 -1.095265 1.761811 0.979511 1.853421 -0.239337 0.184185 1.542242 -1.162303 -1.317662 2.709689 
star_anise -0.985737 0.279396 1.461604 -0.453046 -0.673151 0.712676 0.638219 0.115856 -0.313530 -0.069858 2.336302 -0.935886 0.220548 -0.028381 0.781686 -0.086065 -0.615379 0.620216 0.532269 -1.956912 
brussels_sprout -0.242324 0.902267 1.087878 -0.131838 0.515502 0.339787 -0.558327 -0.824762 -0.652816 -0.206437 0.321610 0.237834 -0.660770 0.772888 0.362311 0.643951 0.518801 -1.226405 -1.145402 0.315441 
tea -1.010587 -0.888164 1.633071 0.105105 -0.844153 0.397621 1.262627 0.215881 0.073984 0.358041 0.755511 0.023611 0.468532 -0.258356 0.164671 0.789112 -0.100546 0.179763 0.176612 -0.296905 
thai_pepper -1.703047 -0.199554 0.770656 -0.375488 0.122219 0.727844 1.058915 0.453472 0.601538 -1.436865 1.284756 0.322673 -2.148913 -2.896996 2.113611 -1.763183 -3.408803 0.527934 1.092760 -0.251412 
champagne_wine -0.665185 0.443975 1.502121 -1.322852 0.197316 0.794011 1.182348 0.480495 -0.552521 1.048940 -0.121056 -0.423414 1.089386 0.578237 0.364504 0.602299 0.829418 -0.815601 0.672506 -0.258236 
anise_seed 0.550193 -0.912676 1.762721 0.161917 -0.547963 1.108562 0.982919 -0.835694 -1.080026 0.017362 1.048227 1.049722 0.935568 0.353111 0.597275 1.210650 -0.674353 0.135017 -0.033007 -0.493394 
yam -0.668426 0.747706 2.297166 0.815412 -1.923392 0.449472 -0.182549 -0.238620 -0.443664 -0.047557 1.644769 0.691609 -1.292200 0.987002 0.075713 -0.279972 -0.915584 0.643707 -0.234362 0.173783 
bitter_orange -2.420071 0.173509 3.480453 -0.573020 -0.638488 -2.194328 2.719874 1.082454 1.613573 2.461759 -0.498772 -1.588632 0.603654 -1.218673 -0.120387 -0.186167 0.949486 -1.137905 -0.297158 -0.075893 
wheat_bread 0.144437 -0.132813 -0.483324 -0.887758 0.098538 0.085751 0.207176 -0.760841 -0.410261 0.845827 -1.033260 1.280483 -0.215165 0.883241 0.773132 -0.090391 0.025938 0.522238 -0.210181 0.891775 
