249 10
</s> 0.040027 0.044194 -0.038303 -0.032780 0.013666 0.030211 0.009409 0.002113 -0.036035 0.022185 
egg -0.451553 0.216753 -0.348880 0.183343 -0.571188 0.775624 -0.321560 -0.249136 0.778198 -0.307977 
butter -0.687208 0.090809 -0.312255 0.187213 -0.773083 0.539236 -0.104442 0.122206 0.810554 -0.406418 
wheat -0.452040 0.243355 -0.372785 0.140192 -0.672867 0.669792 0.058356 0.013648 0.743024 -0.483420 
onion -0.966627 -0.272110 -0.162802 0.394157 0.789521 -0.541848 -0.347874 0.102477 -0.407011 0.177776 
garlic -0.738576 -0.155101 -0.205380 0.340946 1.165600 -0.497222 -0.186069 0.819598 -0.504009 0.239349 
milk -0.591855 0.705357 -0.492791 0.443054 -0.790457 0.774796 -0.101691 -0.167493 0.971871 -0.672435 
vegetable_oil -0.626468 -0.347691 -0.094409 -0.113522 0.372436 0.575134 -0.375019 -0.334958 -0.250782 0.192151 
cream -0.615808 0.397253 -0.315151 0.662679 -0.558721 0.805065 -0.302857 -0.382285 0.465475 0.107316 
tomato -0.635814 0.353428 -0.474398 0.890419 1.542518 -1.253759 0.244573 0.378215 -0.087663 0.224087 
olive_oil -0.687739 -0.439414 0.159684 1.033614 0.369281 -0.738012 0.391196 1.224029 0.195385 0.975903 
black_pepper -0.618067 -0.617161 -0.229370 0.568861 0.409625 -0.382980 -0.470769 0.956765 -0.040145 0.263020 
pepper -1.282855 -0.302980 -0.142036 0.121226 0.515985 -0.723255 -0.106942 0.166174 -0.263157 0.383140 
vanilla -0.225179 0.393003 -0.764215 0.047697 -0.628922 2.033705 1.432652 -0.027570 1.391251 -1.335094 
cayenne -0.724310 0.081386 -0.875148 0.196548 1.666346 0.047387 0.437547 0.373132 -1.358426 0.194877 
vinegar -0.300915 -1.139012 -0.371998 0.016063 1.630937 0.053152 -0.712306 -0.567288 0.191326 0.032961 
cane_molasses -0.284858 -0.416279 -1.332413 -0.707714 0.356874 0.380988 -0.311882 -0.520936 0.623904 -1.300684 
bell_pepper -0.900925 -0.061779 -0.370565 0.405794 1.048775 -0.578607 0.047356 0.409759 -0.569840 0.699396 
cinnamon -0.648344 -0.965557 -1.272222 -0.570648 -0.804843 0.653275 1.079495 0.656488 0.744763 -1.069433 
parsley -0.742898 -0.298499 0.209866 1.206140 -0.280474 -0.249927 -0.606091 0.697959 0.051000 0.778077 
chicken -1.192846 -0.261552 0.243517 -0.431146 0.495238 -0.558519 0.284731 0.311137 -0.304039 0.720855 
lemon_juice -0.413560 -0.749197 -0.282473 0.408638 -0.016029 0.455359 0.053822 -0.048024 0.302618 1.305895 
beef -0.319172 -0.609363 -0.304454 0.178160 1.331547 -0.961359 -0.739413 0.450394 -0.239453 -0.709126 
cocoa -0.315661 1.110189 -0.556289 0.348229 -0.326116 2.186966 1.297102 -0.532991 1.139263 -1.482368 
corn -0.301827 0.376962 -0.868140 0.359393 1.395176 -0.194276 0.068879 -0.699249 -0.260271 -0.847011 
bread -0.608006 0.040521 -0.148465 0.898350 0.343732 -0.657373 -0.645525 -0.061040 0.745348 0.230809 
scallion -0.612281 0.007565 0.208206 -0.039784 1.363949 1.084932 -0.429063 0.824325 -0.881221 0.519678 
mustard -0.399626 -0.953550 -0.783294 0.389154 0.752607 0.271483 -1.199586 -1.155462 0.191993 0.405041 
ginger -0.685711 -1.362992 -0.864681 -1.311782 0.760828 1.607713 0.280156 1.102361 -1.050683 -0.178136 
basil -0.450207 0.549153 0.260510 1.038626 0.881511 -1.362561 -0.004457 1.597572 0.859430 1.013803 
celery -1.625688 -0.874382 0.241487 0.056981 0.129189 -0.963547 -0.640584 0.403620 -0.053968 0.088874 
carrot -1.509898 -1.466999 0.802202 -0.338277 -0.038960 -0.318015 -0.352625 0.940559 -0.642146 -0.265167 
potato -1.646247 -0.308214 0.199737 0.697546 -0.402539 -0.564020 -0.754908 0.510734 -0.585076 -0.405043 
chicken_broth -1.551159 -0.805585 0.374628 0.435886 -0.297768 -0.708141 0.348765 1.482457 -0.364105 0.095947 
yeast -0.093260 0.462422 -0.071003 0.871681 -0.429488 0.358340 -0.006547 -0.375128 0.989054 -0.870106 
rice -0.877024 -0.576354 0.639284 -0.737990 1.133528 0.737310 0.058943 0.925127 -0.863040 -0.019489 
mushroom -1.192311 0.422766 0.637969 0.362473 0.411542 -0.678789 -0.738114 1.166977 0.307096 0.024148 
cheese -0.358493 1.397679 0.115512 1.332464 0.385086 -0.380731 0.049079 0.402412 0.603249 0.271099 
soy_sauce -0.407913 -1.358853 0.576808 -1.378900 2.423268 1.532943 -0.616289 1.166626 -1.092257 -0.369229 
cumin -1.705660 -0.606479 -0.889418 0.001611 1.085434 -0.574734 2.111796 -0.093554 -2.296291 0.497114 
oregano -0.294561 0.483977 -0.024690 1.099013 1.277660 -1.517955 0.227438 0.859142 0.287307 0.366016 
parmesan_cheese -0.562704 1.309888 1.039883 1.488342 0.166381 -0.822876 -0.266521 1.442561 1.171209 0.730344 
macaroni -0.792880 1.027866 0.818506 0.797135 0.654970 -0.986521 -0.210865 1.272202 0.749197 1.110690 
thyme -0.823126 -1.085982 0.476852 1.157148 -0.152091 -1.665444 -0.216430 1.803340 0.617828 -0.188082 
cheddar_cheese -1.316382 1.739772 0.136125 0.815198 0.699224 -0.684309 -0.532107 -0.765370 -0.045484 -0.403982 
lard -0.171253 0.224263 -0.423327 0.144022 -0.661553 0.726948 0.443807 -0.026410 0.993088 -1.174010 
lemon -0.104485 -0.991501 -0.501473 0.715827 -0.387435 0.606128 0.354525 0.276441 0.227515 1.107715 
cream_cheese -0.295256 0.938029 -0.688438 0.164091 -0.366599 1.034462 -0.508713 -0.516548 1.258703 0.531123 
walnut -0.158747 -0.510907 -0.089425 -0.262923 -0.499098 0.756534 1.058465 0.116178 1.812166 -0.855080 
green_bell_pepper -0.946920 0.214005 -0.608424 0.423606 1.453391 -1.281081 -0.259289 0.091305 -0.351324 0.095314 
starch -0.187140 -0.628421 -0.044242 -0.943452 0.217346 0.864849 -0.222216 0.209514 0.355152 -0.250790 
nutmeg -0.764961 -0.713164 -1.044621 -0.530510 -1.318898 0.133230 0.748252 0.942140 0.862816 -1.188006 
honey -0.036906 -1.178254 -0.030353 -0.722949 0.776824 0.757578 0.619586 -0.211844 0.510021 -0.121606 
apple -0.622853 -1.639381 -0.347537 -0.766152 -0.359105 0.037860 0.570288 -0.501372 1.192260 -0.399899 
almond -0.431735 -0.805230 0.099854 -0.208176 -0.603531 0.973588 0.995989 -0.141891 1.020224 0.106155 
cilantro -0.820850 -0.103729 -1.008012 0.446561 1.741159 0.471041 1.766156 0.354328 -2.104723 0.876020 
pecan 0.022510 -0.055430 -0.710884 -0.250709 -0.330005 0.764013 1.094766 -0.059178 1.684093 -1.219381 
white_wine -0.454687 -0.801203 -0.044709 0.821507 -0.230248 -0.151268 -0.491541 1.289119 0.063524 1.126320 
bacon -0.964103 -0.297300 0.320726 1.016718 0.465610 -0.798220 -0.847527 -0.194375 0.367458 -0.494087 
pork -0.158142 -1.421520 -0.668690 -0.340097 1.158394 -0.617592 -0.706540 0.433466 -0.172923 -0.734331 
raisin -1.027132 -1.033330 -0.224827 -0.724424 -0.859885 0.185842 1.490709 0.218420 1.002070 -0.816303 
bean -0.918984 -0.312164 -0.188567 0.221485 1.185729 -0.940115 0.003321 0.473208 -0.548813 -0.564963 
rosemary -0.829717 -0.611892 0.568880 0.878507 0.042352 -2.258226 0.130288 1.778191 1.327083 0.132034 
fish -0.372344 -0.392187 -0.495830 0.494275 0.978711 1.408532 -0.557447 1.393620 -1.236740 1.028651 
cucumber -0.195483 -0.403539 0.174195 0.622929 0.618490 1.964376 -0.945299 -0.983605 -0.497846 1.104929 
olive -0.595745 0.414860 0.011606 1.320846 1.079023 -0.764674 -0.013784 0.355075 0.378743 1.133770 
coconut -1.220324 -0.069269 -0.983871 -1.414829 -0.218338 1.661838 1.579081 -0.289635 -0.271944 -0.215941 
orange 0.476569 -1.766723 -0.486161 0.158770 0.095091 0.858667 1.326909 0.328864 1.401402 0.235157 
tamarind -0.220262 -0.913447 -1.906526 0.113907 1.722247 -1.064781 -1.307964 -0.859872 -0.126414 -0.929854 
vegetable -0.966871 -0.617039 0.720535 -0.357448 0.473787 0.591014 -0.431100 1.426127 -0.619880 -0.420086 
orange_juice 0.139330 -1.686610 -0.732338 -0.700299 0.308471 0.829357 1.161528 0.281714 1.132364 0.646894 
buttermilk -0.467314 0.327836 -0.259292 0.706209 -0.679960 0.904263 0.295647 -0.553954 0.553357 -0.532192 
pineapple -0.157245 -0.918891 -1.037023 -1.040089 0.668109 1.220888 0.561495 -0.657075 1.374184 0.700815 
shrimp -0.293319 0.029997 -1.214959 0.614463 1.021848 1.211901 -0.882872 1.826288 -1.173701 0.735847 
coriander -2.554175 -1.291879 -0.369537 -1.188255 0.293217 0.026868 2.447692 0.336078 -2.239734 1.145521 
bay -1.320725 -1.761110 -1.186395 1.021218 -0.262074 -1.157010 -0.224500 1.180673 -0.802833 -0.273322 
lime_juice -0.495188 -0.432607 -1.084073 0.420642 2.301848 1.021283 2.161774 -0.369472 -1.453801 1.221381 
red_wine 0.009348 -1.719807 -0.212063 0.472604 0.743136 -1.213732 0.042747 0.762920 0.766522 0.658476 
gelatin -0.159672 -0.133480 -0.064705 -0.361532 0.163095 2.154071 0.974660 -0.617631 1.809845 0.042345 
pork_sausage -0.671868 0.248439 0.081052 2.139063 0.830623 -1.930921 0.164584 0.943099 0.353573 -1.109223 
sesame_oil -0.111395 -1.059721 1.185749 -1.465324 3.067371 2.373615 -0.125147 2.490946 -1.754674 -0.869692 
chive -0.530311 -0.243564 -0.222933 1.417117 -1.159789 1.477688 -1.117664 -0.859243 0.158045 0.975214 
seed -0.683004 -1.783907 0.446353 1.227340 0.243369 0.386637 0.712165 -1.336727 -0.408552 -0.609004 
mozzarella_cheese 0.057988 1.766177 0.652131 1.559773 1.081535 -1.485950 -0.246395 1.394139 1.615658 0.020986 
ham -0.828359 0.267737 0.323788 1.275455 0.212890 -0.433237 -0.904813 -0.104428 0.631512 0.225136 
oat -0.558855 -0.589859 0.350087 -0.767508 -0.353420 1.021251 1.388124 -0.598380 1.295442 -2.222623 
turmeric -3.159581 -1.253658 -0.114206 -1.562511 -0.188100 0.580012 2.206536 0.334507 -2.792070 1.675074 
nut -0.326922 -0.516199 1.118806 -0.304606 0.207991 0.280224 0.502184 0.713734 0.900946 -0.153267 
shallot -0.422973 -1.280717 -0.426213 1.132115 -0.140659 0.158159 -0.131427 1.713771 0.178872 1.255305 
lettuce -0.219672 -0.549322 0.643098 0.450464 1.983356 0.548128 -0.154249 -0.802493 0.296162 1.532062 
cider -0.146830 -2.408202 -0.612192 -0.227399 1.289015 -0.405552 -0.349325 -1.210846 0.162041 -0.300495 
dill -0.878025 -0.545411 0.245283 1.290364 -0.034021 0.558915 -1.064794 -0.629301 -0.062098 1.064566 
pea -1.716420 -0.074523 0.704147 -0.353458 0.417463 0.012054 -0.465386 0.700455 -0.565941 0.625441 
zucchini -1.216053 0.187211 0.397195 0.341537 -0.205864 -1.002934 0.670397 1.024474 0.040082 0.414429 
cherry 0.340139 -0.479006 -0.965478 -0.547289 0.185853 1.252852 1.406625 0.119900 2.205959 -0.100887 
lime 0.088890 -0.456414 -1.345354 0.564958 1.462539 1.440636 1.541706 -0.459323 -0.696417 1.285847 
yogurt -1.040584 -1.077587 0.082079 -0.053911 -0.135583 0.821051 1.129395 -0.824701 -0.138593 1.358119 
strawberry 0.398215 -0.689283 0.481838 0.319729 -0.050976 2.703278 1.449909 -0.339867 2.406275 1.250235 
soybean -0.137516 -1.113731 1.359692 -0.886711 1.820185 2.024111 -0.251681 1.543454 -1.246186 -0.857143 
celery_oil 0.272443 -1.368654 -1.905127 -0.356667 3.017524 -1.059153 -1.443861 -1.565159 0.125183 -1.228375 
peanut_butter -1.057059 1.190960 1.353699 -1.285183 0.701750 2.044385 1.374603 -0.997487 -0.320020 -1.510287 
banana -0.422375 -0.412925 -0.338671 -0.732313 -0.306573 1.877825 1.366612 -0.485777 1.248410 0.168015 
meat -0.690187 -0.948413 -0.184138 0.079254 0.779684 -1.070825 -0.353431 0.591305 0.347294 -0.858595 
tabasco_pepper -0.399661 -0.232038 -1.571352 0.409888 1.476228 -0.266220 -1.044179 -0.739691 -0.351021 -0.207992 
milk_fat -0.204005 0.294311 -0.960814 0.965794 -1.450933 0.912919 0.025700 0.773749 0.774960 -0.181791 
cabbage -0.993860 -1.715231 0.463424 -0.142245 1.132894 0.108588 -0.656808 -0.322869 -0.781136 -0.426028 
mint -0.096256 -1.206508 -0.197304 0.524485 0.364748 0.954528 1.499647 0.523293 -0.382240 1.733343 
fennel -0.923475 -0.281104 -0.204073 1.833903 -0.119816 -1.631914 0.369019 2.319426 0.381233 0.011151 
sage -1.010351 -1.436901 0.983894 0.995297 -0.828431 -2.137656 0.239974 1.377324 1.166674 -0.720666 
broccoli -1.672092 0.789007 1.556647 -0.445497 0.622675 -0.097948 -0.291269 -0.130384 0.257184 0.753643 
turkey -0.797681 -0.912751 0.513306 0.390431 0.625768 -1.439093 0.068329 -0.080318 0.604771 -0.249054 
fenugreek -3.157557 -0.612371 -0.967793 -1.863468 0.419021 0.098071 2.014684 0.880089 -2.109681 1.513723 
cranberry -0.116819 -1.994763 -0.020997 -0.245353 -0.028618 0.220974 0.747222 -0.540935 2.095368 -0.106770 
wine 0.223401 -1.408152 0.153848 0.072752 0.658559 0.419619 -0.062225 0.991990 0.073582 0.571921 
beef_broth -0.757220 -1.622649 -0.140925 -0.063659 0.787962 -1.092588 -1.054210 1.722851 -0.161408 -1.139815 
grape_juice 0.091730 -1.338165 0.574272 0.747650 0.845297 -0.796557 0.243913 0.756496 1.442754 1.241803 
pumpkin -0.235125 -0.298932 -0.597210 -1.116376 -0.846485 1.160011 -0.057008 1.761618 -0.107307 -1.475337 
raspberry 0.715603 -0.726411 0.315679 0.592842 -0.316568 2.223570 1.167579 0.027410 2.293249 0.748886 
whole_grain_wheat_flour -0.362810 -0.041378 0.911556 0.300164 0.055268 0.348187 0.860059 -0.481552 0.903115 -1.267178 
lemon_peel -0.281385 -0.376380 0.036411 0.501315 -1.268681 0.879813 0.797687 0.917988 1.088522 1.110427 
coffee 0.061063 0.529490 -1.434119 0.264855 -0.642236 1.486150 0.727445 -0.156431 0.561678 -1.205113 
sesame_seed -0.264242 -0.840825 1.305741 -0.720192 1.253608 1.936009 0.059088 0.053646 -0.546805 -0.076553 
avocado 0.148226 0.184565 -0.411118 1.585372 2.376404 0.816976 0.958683 -0.931152 -0.917114 1.377225 
sherry -0.207909 -1.149713 -0.190373 0.271578 0.376970 -0.089617 -0.254130 1.040283 0.328178 0.485896 
sake 0.738620 -1.401029 1.406196 -0.664752 2.877393 2.861043 -0.978610 2.082689 -0.935668 -1.241119 
feta_cheese 0.100067 0.033754 0.781272 1.236750 0.892473 -0.448026 0.548762 0.298171 0.805919 1.950211 
apricot -0.370759 -1.584222 -0.626775 -0.427238 -0.786203 0.298914 1.644228 0.371962 1.140766 -0.315240 
roasted_sesame_seed 0.027849 -0.246701 1.897730 0.298907 2.220929 2.773826 -0.905133 2.460323 -2.294972 -0.893293 
rum 0.583742 -0.570666 -1.542240 0.044649 0.004326 1.746834 1.792875 0.189574 1.278107 -0.281459 
orange_peel 0.399738 -1.887514 -0.556330 -0.023279 -0.527182 0.638069 0.911364 0.788221 1.650785 -0.099980 
squash -1.483709 -0.417865 0.245389 0.065592 -0.641347 -1.105654 0.490923 1.069971 -0.175190 -0.170194 
crab -0.656913 0.315593 -1.832390 1.059764 0.143124 1.504744 -1.510418 0.079753 -0.973847 1.018580 
marjoram -0.946925 -1.742314 1.373985 1.031850 -0.904470 -2.304302 0.134461 1.190852 0.871249 -0.552776 
swiss_cheese -1.468500 0.590450 0.827194 1.229872 -0.122563 -0.209235 -1.630444 -0.930407 1.025318 -0.231682 
sweet_potato -1.286391 -1.365160 -1.103412 -0.319534 -0.868236 -0.067797 1.315814 0.744959 -0.702230 -1.230780 
shiitake -0.017471 -0.820866 1.756739 -0.401545 1.006460 1.695951 -1.597664 3.395328 -0.099400 -0.654657 
radish 0.551970 -0.790423 1.466207 0.900911 2.338312 2.583661 -0.629087 1.539619 -1.469680 -0.163565 
peach 0.120591 -0.904451 -1.200191 -0.481491 -0.019571 1.404247 0.906462 0.022544 0.790436 0.460229 
tarragon -0.492959 -1.088487 0.255885 1.448767 -0.546175 0.441556 -1.036843 0.393905 0.406821 1.677355 
black_bean -0.861701 0.616553 -0.302169 0.712065 2.779031 -0.894252 1.629264 -0.065998 -1.613729 -0.151438 
lamb -0.655167 -2.379301 0.046097 0.560888 -0.702835 -1.175497 1.363104 1.602557 -0.605386 0.805757 
maple_syrup -0.641086 -1.189807 -0.464635 -0.433286 -0.294712 0.404038 0.164209 -0.182276 0.847904 -1.225006 
pear 0.360741 -1.514548 0.045927 -0.475479 0.253460 1.463327 0.355263 1.157157 0.832754 0.100328 
fruit 0.184138 -0.939584 -0.296583 -0.333036 -0.117404 1.722574 1.469281 0.088159 1.621903 0.000937 
blueberry 0.015010 -0.509951 0.524382 -0.203639 -0.566247 2.896696 1.030562 -0.167728 2.208781 0.926343 
clam -0.597286 -0.447984 -0.805400 1.662496 0.237021 1.102066 -1.303378 3.511914 -1.586792 0.593186 
smoke -0.690923 -0.898430 -0.395106 1.528847 1.031122 -0.681602 -0.555916 -0.118025 0.230053 -0.584097 
tuna -0.695185 0.261776 0.657645 0.546328 1.299417 0.726640 -0.692504 -0.571381 -0.120204 1.052320 
kidney_bean -1.074480 -0.319585 0.042785 0.490843 2.432538 -2.142030 0.653715 0.263904 -0.699258 -1.594965 
peanut -0.700526 -0.036513 0.751002 -1.127345 1.467068 1.777637 0.909101 -0.868736 -0.813432 -0.709874 
asparagus -1.265362 0.022499 0.347126 0.377326 -0.463385 0.215674 -1.001799 0.939056 0.630350 1.625231 
salmon -0.066080 -0.933217 -0.306061 0.679623 0.358559 1.198617 -0.531602 0.148052 -0.296329 1.496536 
leek -1.640281 -1.212006 0.792211 1.378324 -1.348898 -0.196412 -0.333177 2.053428 -0.340246 0.084430 
chickpea -1.684150 -0.934044 0.182322 -0.017488 0.647839 -0.901459 1.539283 0.798554 -1.259894 0.990503 
blue_cheese 0.422433 -0.726855 0.289885 0.968931 0.595825 -0.223685 -0.758516 -0.452502 1.775078 0.665815 
brandy 0.985771 -1.320366 -1.491530 1.409089 -0.167588 0.962667 0.029581 0.600837 2.277560 -0.653688 
artichoke -0.374568 0.500082 0.182789 1.188951 0.159473 -0.526509 -0.552097 1.445206 1.100426 1.813030 
horseradish -0.344029 -1.062543 -0.959060 1.218202 1.076905 0.772312 -1.799005 -1.452157 0.113665 0.067382 
mango -0.349265 -1.101740 -0.839692 0.066970 0.907597 1.719409 2.080632 -0.373816 -1.210387 1.842371 
date -0.512142 -1.005293 -0.706914 -0.618049 -0.701503 0.445877 1.703972 0.634591 1.881559 -1.552538 
cardamom -1.042925 -2.250255 -1.178531 -0.516419 -1.122663 0.545871 2.049675 1.074336 -0.913730 -0.704192 
white_bread -0.558486 -0.349057 0.289430 1.081614 -0.300555 -0.875805 -0.160608 0.138326 1.011521 -0.224016 
oyster -0.437044 -0.807328 0.990481 -0.287854 1.117390 1.337547 -1.058467 2.376796 -1.028259 -0.486400 
cottage_cheese -0.514457 1.828827 0.271615 0.735620 0.593909 -0.653265 -0.154359 -0.480141 1.582241 0.472545 
grape -0.659958 -2.215420 0.797932 -0.664753 0.524907 0.832961 1.426271 -0.783727 1.240228 1.934806 
brown_rice -1.738155 -0.624701 1.261606 -0.895593 0.440954 -0.609349 0.293651 0.150422 -0.049550 0.293375 
cauliflower -1.923895 -0.310579 1.576386 -0.013863 -0.355872 0.067046 -0.776780 -0.271459 -0.377673 0.762284 
cured_pork -0.093520 0.436516 1.450174 2.494042 0.874761 -1.575025 -0.227097 2.155164 1.684185 0.084371 
egg_noodle -1.266888 0.469716 0.575674 0.198868 0.596815 -0.740541 -0.948714 -0.442502 0.327097 -0.181467 
beer -0.573348 -0.884343 -1.786789 1.057836 0.682453 -0.823326 -0.222917 -0.227130 -0.874225 -1.031732 
hazelnut 0.275611 -0.707853 0.048851 0.535841 -1.149615 0.804272 0.581002 0.874286 1.824901 -0.871286 
mandarin 0.039213 -1.121364 0.938311 -1.187654 1.275367 1.399402 1.109527 -1.136290 2.002866 1.580434 
romano_cheese -0.304578 0.850966 0.616999 1.906035 0.036975 -0.906444 0.115304 1.915772 0.999523 0.716397 
plum -0.001021 -2.394706 -0.809105 -0.144350 -0.134016 0.129073 1.151281 0.646172 0.637540 -0.377052 
pimento -1.431842 0.530817 0.079483 1.206347 0.478382 -0.490580 -0.342318 -0.721369 -0.143997 0.971738 
smoked_sausage -1.640015 -0.841333 -0.434445 1.418354 0.711034 -1.382582 -0.592489 -0.042157 -0.616440 -1.616840 
scallop -0.650045 -0.480711 -0.743250 1.681260 -0.409537 1.120366 -0.543441 2.252873 -1.011615 1.664458 
goat_cheese 0.333149 -0.342070 0.514297 2.019549 -0.234217 -0.257213 0.033711 0.843196 1.284879 0.763330 
lentil -2.230609 -0.996616 0.946024 0.090617 -0.148237 -1.033125 1.453498 0.946530 -1.406382 -0.067510 
currant -0.105470 -1.575431 -0.961961 0.389221 -0.544511 -0.088181 1.525112 0.542832 1.649551 -0.701823 
saffron -1.413477 -1.134527 -0.165894 1.128470 -1.475927 -0.222908 1.522264 2.934765 -1.172925 0.747275 
barley -1.273109 -1.525036 2.184210 -0.706748 0.841795 0.052639 -0.343706 0.666473 0.097077 -0.732898 
caraway -1.437920 -2.320378 0.150645 3.880944 -0.737865 -0.192513 0.568917 -1.627525 -1.684795 -1.923354 
beet -0.302358 -2.654640 0.480034 1.376311 0.265854 0.361140 -0.529866 -0.447576 0.511736 0.440508 
squid 0.275714 0.307890 0.221176 0.043326 1.474266 2.742025 -0.917492 4.009497 -1.467647 0.219459 
corn_flake -1.444331 0.538664 -0.098782 -0.689957 -0.252761 0.166886 -0.070303 -0.791643 0.546654 -0.548135 
anise 0.460342 -1.220025 -0.444922 1.333114 -0.869619 1.215760 0.826423 1.424252 -0.038256 -1.202204 
roasted_beef -0.347135 -1.009934 -0.224005 0.468382 1.043295 -0.729697 -1.053202 0.138128 0.369942 -0.720458 
pistachio 0.017989 -0.764536 -0.226968 0.243788 -0.937099 0.985717 1.671733 0.350353 1.128102 0.045738 
peanut_oil -1.015615 -0.762419 0.295139 -1.372741 1.751687 1.457152 0.102392 0.710573 -1.627047 0.534116 
cereal -0.913461 0.160121 1.960105 -0.098740 0.330781 0.856243 1.815032 -0.691058 0.830900 -2.983589 
cashew -1.657548 -0.965409 0.977742 -1.557070 0.306360 0.813023 0.772815 -0.155615 -0.144817 0.514790 
veal 0.096728 -1.422108 0.673315 1.316270 -0.503176 -1.419524 -0.720947 2.198804 1.407124 0.108080 
seaweed 0.213865 0.173017 1.661184 0.763510 3.191601 3.729491 -1.222725 1.179704 -1.127719 -0.604744 
turnip -2.217239 -3.286129 1.151951 0.757438 -1.715640 -0.473290 -0.583703 1.428706 -0.033531 -0.495695 
sauerkraut -0.482254 -2.012903 0.492494 3.369706 0.137520 -0.229459 -1.621593 -1.800490 0.230659 -2.574684 
berry 0.011389 -1.262646 0.788999 0.191399 -0.902158 1.311206 0.827049 -0.183981 2.325987 0.306375 
kelp 0.998023 -0.323991 1.517097 -0.907256 2.368131 3.933678 -0.478470 4.336139 -1.216445 -0.987914 
tomato_juice -0.594441 -0.496103 -1.160532 0.346555 1.332915 -1.413912 -0.822366 0.184960 -0.227100 -0.614397 
cod -0.924591 -0.318985 -0.501042 1.070209 -0.072375 0.768687 -0.318431 1.091369 -1.597681 0.887406 
provolone_cheese -0.048778 1.479469 0.367769 1.950979 1.349517 -1.171492 -0.653375 1.362524 2.085708 0.268457 
mussel -0.395592 -1.959847 -0.331072 2.041245 -0.516672 0.991562 -0.512217 4.020035 -2.326026 0.675363 
blackberry 1.099331 -0.646453 0.404586 0.529960 -0.702243 2.480636 0.904909 0.331017 2.654106 0.398873 
roasted_peanut -0.503926 -0.433163 1.363153 -0.516433 1.955937 2.003015 2.599081 -0.466353 -1.899081 -0.949848 
rhubarb 0.478928 0.107541 -0.602077 -0.463507 -0.738247 1.891227 0.723087 0.516741 2.144386 -0.209044 
chinese_cabbage 1.618221 -2.499919 2.279907 -0.675676 3.148623 3.323433 -0.690654 4.278297 -1.683850 -1.004793 
corn_grit -0.585281 0.844234 -0.850452 2.064121 0.899554 -0.919922 0.505322 0.690479 -1.062451 -0.765446 
chicory 1.010244 -1.577251 1.851627 2.553941 1.100533 0.986534 -0.669734 0.740328 1.363449 0.955068 
bourbon_whiskey -0.666903 -0.460141 -4.140030 -1.055529 -0.164566 0.996037 -0.255655 0.421310 0.530077 -1.350063 
citrus 1.388722 -1.720509 -0.972927 1.318559 -0.184379 1.965946 1.990925 0.883341 1.603215 -0.352117 
lima_bean -1.667618 -1.313432 -0.564154 0.852092 1.122519 -1.846585 -0.154511 0.089574 -0.823026 -0.904899 
lovage -0.202313 -0.896423 -5.621287 0.148369 -0.855782 0.797002 -3.252123 1.836055 -1.559843 -0.055912 
melon 0.055620 -1.597276 0.393790 0.035282 1.813661 2.065306 2.645159 -0.580879 0.875910 2.075041 
parsnip -2.267781 -2.909624 0.760711 1.215223 -2.296778 -0.544616 -0.091636 0.990881 -1.077272 -0.786941 
fig 0.688147 -1.704425 -0.782451 0.910177 -0.659645 -0.284088 1.736488 1.486889 2.239897 -0.500011 
lemongrass -0.686003 -0.940931 1.030159 0.432857 1.311846 2.390452 3.553746 2.411542 -4.245147 0.958967 
whiskey 0.789318 -0.091480 -3.648405 -0.054054 1.377578 -0.206805 1.041364 0.900210 1.930421 -1.290812 
watercress 0.121817 -1.554783 -0.063851 1.035282 1.337439 0.439983 0.144407 0.152042 0.402097 1.080078 
tequila 1.333114 -0.418724 -2.824163 0.532469 2.494678 1.339795 1.668510 0.149862 -0.285812 0.943853 
rye_flour 0.068112 -1.549120 1.512701 3.445226 -0.383703 0.631133 0.364954 -1.843364 0.454549 -2.931203 
peppermint 0.199811 0.465083 -0.008468 0.500318 -0.891230 2.596927 0.271956 -0.599631 0.358616 0.150055 
savory -0.511224 -1.571321 0.716191 1.666421 -0.432023 -1.535814 0.472461 1.743160 0.009000 -0.124786 
lobster 0.046757 -0.834041 -1.670928 2.273538 -0.885373 0.932201 -0.383719 2.146319 -0.649470 0.881747 
roasted_pork -0.192327 -2.681784 -0.650141 -0.176099 0.561919 -1.241947 -0.378265 0.161433 0.142269 -0.846779 
mace -0.425652 -1.825966 -1.137625 -0.287534 -1.033690 0.422352 0.836089 1.273055 0.165129 -1.358323 
endive 0.153669 -1.506799 0.294165 1.784292 0.713939 -0.594168 -0.003436 1.451960 1.401161 0.808828 
brassica -0.259543 -1.307786 -0.007520 1.614971 1.245318 0.486019 -0.404323 1.775259 -1.311002 -1.594682 
grapefruit 0.725200 -2.300912 -0.763973 0.086981 1.599199 1.075425 1.411614 -0.478429 1.135525 1.729053 
enokidake 0.854443 -0.901201 0.449954 -0.248345 2.396754 3.554975 -2.866677 4.173675 -0.688884 -1.824393 
porcini -0.640649 -1.041682 1.376421 1.271198 -1.243304 -1.235672 -0.900146 3.284523 1.401839 -0.167828 
kiwi 0.263766 -1.654963 0.492691 -0.347152 0.981927 2.753173 1.189532 -0.962961 1.517300 1.532323 
wasabi -0.010499 -0.500190 1.068539 0.752377 2.714365 3.294254 -1.948763 0.641334 -0.982006 0.114250 
watermelon 0.272449 -1.528193 -0.895936 1.691696 0.735280 2.291543 2.188110 -0.061534 0.325854 2.364615 
lime_peel_oil 0.186639 -0.294577 -1.272749 0.719758 1.446554 1.708072 2.209183 -0.161241 -0.698139 2.325845 
okra -1.266225 -0.727272 -1.430474 0.862659 0.621833 -0.890419 0.181064 1.042288 -1.756677 -0.621330 
macadamia_nut 0.084437 0.181241 0.144722 -0.339013 -0.070557 1.753987 1.442250 -0.674611 0.343969 -0.092215 
smoked_salmon -0.244642 0.125744 0.261657 2.726988 -0.237323 2.164323 -1.566613 -0.506099 -0.167803 1.630646 
kale -1.401796 -1.152417 1.128778 1.696326 -0.223574 -0.973134 -0.246436 1.598253 -0.622271 -0.658752 
popcorn -1.351726 1.430660 0.402150 -0.876109 0.701837 0.569214 1.513920 -1.032935 0.181353 -0.715405 
rye_bread -1.332294 -0.445021 -0.628694 3.362507 -0.017079 -0.264074 -1.796382 -1.828799 0.578218 -0.715263 
star_anise 0.441003 -2.572137 -0.293521 -0.790119 0.513901 1.212988 1.387023 1.741589 -0.774859 0.164274 
brussels_sprout -1.283006 -0.918137 0.742841 0.513958 -0.756927 -0.355546 -0.798571 0.443094 0.767386 -0.001697 
tea 0.049202 -1.248315 -0.976352 0.237882 -0.468089 1.330926 1.524202 0.037141 0.179734 -0.168523 
thai_pepper -2.233122 0.525146 -1.602920 -2.594332 2.946168 2.111346 1.543595 1.437111 -2.396595 1.499362 
champagne_wine 1.013401 -2.056156 -0.091113 1.551481 0.360318 1.164594 -0.073412 0.179532 1.066244 0.970643 
anise_seed -0.111146 -1.585091 -0.411379 1.193105 -0.251610 0.787279 2.232411 -0.093299 -0.278201 -0.751929 
yam -1.774021 -1.973126 -0.384528 -0.835392 -1.312303 0.566015 0.418981 1.120856 -0.467426 -0.993363 
bitter_orange 1.032847 -1.980902 -0.928379 1.765471 -1.534192 1.351885 2.196115 1.300506 2.220564 1.896724 
wheat_bread -1.074397 0.081603 0.778284 0.641171 0.991053 0.002906 -0.324969 -1.333435 0.709075 0.046906 
