249 80
</s> 0.005003 0.005524 -0.004788 -0.004098 0.001708 0.003776 0.001176 0.000264 -0.004504 0.002773 -0.005445 0.001562 -0.000939 -0.001196 -0.004145 -0.002353 0.003224 0.003782 0.003711 0.001997 0.001931 -0.004753 -0.005120 0.006212 0.004752 0.003863 -0.000755 0.005020 -0.000619 0.000918 -0.000187 -0.003729 0.001640 -0.001672 -0.004782 0.005943 0.005474 -0.001369 -0.000283 0.000636 -0.004547 -0.005009 0.005693 0.000079 -0.003228 -0.003803 -0.003846 0.002121 0.000252 0.001664 -0.005267 -0.004760 -0.000163 0.001430 0.003187 -0.003963 0.005099 0.001159 0.001400 -0.000760 0.003733 -0.002860 -0.002622 0.002698 -0.000941 0.001288 0.002256 -0.005111 -0.002479 0.003642 0.005290 0.004915 -0.003809 -0.002635 -0.001136 0.002502 -0.004736 0.003747 0.003485 -0.001999 
egg -0.579999 0.212175 -0.116102 -0.149727 -0.038120 0.257921 -0.108094 -0.238300 0.375692 -0.619195 0.489477 0.239098 -0.202094 -0.078910 0.285067 0.127006 0.263578 0.392267 0.054877 -0.139995 0.277021 -0.125538 0.205704 0.032531 -0.072896 0.540267 -0.288604 -0.149809 -0.558747 -0.608014 -0.442188 0.286256 0.215704 0.127187 0.239018 0.127229 -0.016393 -0.045912 0.104768 0.168871 -0.335631 -0.014292 0.072594 -0.300583 0.203606 -0.172664 -0.113115 0.305326 0.413274 -0.216418 0.252671 0.015766 -0.150821 -0.416001 0.302162 -0.085178 0.123319 0.478899 -0.476963 -0.682077 0.242245 0.081696 0.168346 0.034490 -0.290625 0.186451 0.523765 -0.276381 -0.176896 -0.162262 -0.022514 -0.240253 0.293426 -0.347512 0.578874 0.409922 -0.042579 -0.434998 -0.085225 -0.402935 
butter -0.244513 -0.078295 0.193283 -0.760455 -0.204646 0.233724 0.374268 -0.053128 0.135878 0.039213 0.169613 -0.306025 0.556284 0.106094 0.108342 -0.128354 0.006107 0.349617 -0.256791 -0.270444 -0.058348 -0.002750 0.372270 -0.259961 -0.025575 0.553070 -0.029654 0.437667 -0.041523 -0.180458 -0.388856 0.547472 0.340671 0.061319 -0.332226 0.672784 0.045603 0.226264 -0.265029 0.191806 -0.102832 0.086758 0.412385 0.121262 0.181341 -0.020996 0.034065 -0.094595 0.387172 0.044848 0.398928 -0.250647 -0.628117 -0.060621 0.255139 0.197422 0.510261 0.205727 0.155122 -0.392947 0.175625 -0.046860 0.241248 0.347114 0.048067 0.108924 0.298663 0.027142 -0.193790 -0.083893 -0.060443 0.053083 0.275279 -0.567102 -0.506817 -0.054908 0.138159 -0.281936 -0.288155 0.086077 
wheat -0.236482 0.003083 -0.032928 0.021292 -0.573905 0.512547 0.326399 -0.113403 0.380125 -0.039757 -0.088837 -0.131489 0.041955 0.436737 0.189427 0.058825 0.309711 -0.106679 0.488654 -0.386495 0.018425 0.045646 0.401349 0.154041 0.054986 0.235447 -0.230613 -0.031386 -0.302716 -0.403617 0.212781 0.255665 0.011331 0.240260 0.193060 -0.511908 -0.227660 -0.349121 -0.074247 0.236701 -0.133974 0.095856 0.222150 0.257746 -0.024058 0.279300 -0.111711 -0.149611 0.208155 0.089541 -0.369300 0.203895 0.048647 0.124963 -0.310931 0.322088 0.299062 0.400650 0.169645 -0.118976 -0.218664 0.150626 0.492415 0.430155 -0.020950 0.414585 -0.559555 -0.203913 -0.648368 0.420971 -0.032358 0.077681 0.449419 -0.139621 0.103922 0.372391 0.291734 -0.386586 -0.166493 -0.391178 
onion -0.305892 -0.031850 0.438870 0.218683 -0.233248 0.172555 0.110585 -0.125713 -0.203845 0.246966 0.484164 0.371319 -0.228395 -0.429794 -0.507135 0.021705 -0.066054 -0.250666 0.054833 -0.044117 -0.056725 0.049305 0.045584 0.151512 0.121657 -0.355263 -0.127235 -0.238923 0.437604 -0.092296 -0.114234 0.334761 -0.419999 0.115450 -0.013629 -0.321229 0.031451 0.428117 0.525195 0.173408 0.365510 0.164113 0.669555 0.149023 -0.282774 0.048979 -0.264442 0.203066 0.574227 0.033684 -0.197766 0.108224 -0.128867 -0.268774 -0.272027 0.463397 -0.308105 0.171050 0.044830 0.289616 0.090583 -0.107238 -0.358716 -0.129843 0.192004 0.056147 0.123619 -0.138317 0.449262 -0.032504 0.356341 -0.927771 -0.111542 -0.010910 -0.079678 -0.219885 0.193611 -0.135136 -0.649288 0.107828 
garlic -0.057781 -0.400521 0.418250 0.552484 -0.320555 -0.022800 -0.671803 0.009771 -0.055748 0.194507 0.226128 -0.426469 -0.457466 -0.241490 -0.823689 -0.308573 -0.371611 -0.260780 -0.295764 0.344692 -0.561222 0.189507 0.116158 0.098034 0.167136 -0.456966 0.013900 -0.302732 0.526838 -0.213093 -0.343552 -0.136818 -0.305949 -0.005839 0.259761 0.223820 -0.129447 0.128168 -0.027625 0.154423 0.202938 0.119427 0.028997 -0.380443 0.186370 0.174047 0.110464 0.168549 0.471197 -0.217580 -0.268753 0.050325 -0.198139 0.210315 0.017596 0.306532 0.195117 0.021021 -0.201597 -0.546034 0.444509 -0.073172 -0.564684 -0.216009 0.110467 -0.201908 0.286013 -0.197733 -0.192842 -0.026132 -0.068301 -0.167686 0.182409 0.519145 -0.333068 -0.204602 -0.709804 -0.178240 -0.357104 -0.468347 
milk -0.197938 0.312359 0.216000 -0.469691 -0.335175 0.574222 0.467789 0.340404 -0.027980 0.175028 0.092436 -0.616557 -0.111542 0.386582 -0.097145 0.148493 -0.112572 0.431693 0.079656 -0.482914 -0.157592 0.323308 0.235588 -0.222141 -0.067691 0.889383 -0.593829 0.157199 -0.580684 -0.027140 0.104725 0.237687 0.258047 -0.209259 -0.004196 -0.083769 0.367919 -0.328444 -0.241238 -0.478796 -0.575286 0.185189 0.007350 -0.100105 -0.110351 -0.427471 0.112959 -0.317428 0.074328 0.246513 0.351751 0.074807 -0.345859 -0.193892 0.277199 -0.050338 0.118683 0.369194 -0.180316 -0.183411 0.210277 0.205678 0.682110 0.168780 0.046019 0.398172 0.709539 -0.489110 -0.095246 -0.318605 -0.052346 0.016867 0.472071 -0.240303 0.572584 0.126581 0.142340 -0.305995 -0.303190 0.392074 
vegetable_oil 0.132196 0.333991 0.277296 0.233759 -0.076513 -0.058871 0.069549 -0.141175 0.056054 0.501393 0.113027 -0.314622 0.290300 0.056632 -0.012147 -0.174147 0.026860 0.072491 -0.138742 -0.162644 -0.380629 -0.120423 -0.155995 -0.162664 -0.094325 0.174465 -0.423982 0.312215 -0.142954 -0.130770 -0.339138 0.117482 -0.407056 0.162539 -0.288219 0.169251 0.181055 0.147220 0.137352 -0.084241 0.209268 0.387884 0.311266 -0.145342 0.595761 -0.140968 0.042307 -0.103823 0.408588 0.355616 -0.059180 0.345290 -0.190602 -0.078414 -0.174205 0.042694 0.380792 0.371832 0.219476 0.161520 0.516865 0.776436 -0.530420 0.316703 0.183501 -0.333208 0.223624 0.523394 0.075509 -0.002782 -0.073074 -0.395604 -0.407394 0.403398 0.069977 -0.214125 0.141576 -0.129395 0.243240 0.351189 
cream -0.384242 0.201692 0.205676 -0.109538 0.050128 0.474305 0.160976 -0.267943 0.252656 -0.019265 0.045345 -0.169275 0.371176 0.189610 0.506317 0.223249 0.076938 0.159088 -0.020285 -0.388876 -0.150244 0.287980 0.107970 0.102168 0.237230 0.262970 0.053755 0.274632 -0.376080 -0.119932 -0.306966 0.591550 0.099627 0.162590 -0.147978 -0.147963 0.285006 -0.298702 -0.248793 0.118305 -0.271383 0.132848 0.406782 0.020912 -0.208989 -0.064825 -0.048838 -0.133897 0.178772 0.179801 0.292786 -0.475272 -0.211511 -0.171948 -0.225511 0.021742 0.520619 -0.227612 -0.086942 0.287935 0.180372 0.303252 -0.004559 0.120620 -0.202332 0.412071 0.265727 -0.350861 -0.520929 -0.204647 0.351567 -0.349219 0.056649 -0.116926 0.349396 -0.113189 0.107897 -0.078776 -0.096172 0.079140 
tomato -0.291158 0.001097 0.240973 0.272350 -0.377830 -0.526354 -0.265520 0.001122 0.105150 -0.421736 0.245964 0.505964 -1.008450 -0.266592 -0.601104 0.403012 -0.678671 0.039280 -0.148515 0.003492 -0.282207 0.305127 0.160364 -0.234709 0.054480 -0.290864 0.368909 0.169345 0.639926 -0.385433 -0.422239 0.703482 0.270511 0.525705 0.134327 -0.329836 0.098256 0.250366 0.299831 -0.168808 0.182599 0.252682 0.138558 0.279848 -0.461921 0.677358 0.197604 0.080034 0.855975 0.042969 -0.691570 0.250673 0.588817 -0.259328 0.008908 0.265361 0.110189 -0.682092 0.156753 0.007463 -0.585824 -0.093233 0.270973 -0.310044 -0.338728 -0.142266 0.093157 -0.172804 0.154560 0.380549 -0.284487 0.086611 0.876858 0.981076 -0.018040 -0.466337 -0.359952 0.222782 -0.620364 0.168402 
olive_oil 0.017605 -0.044713 0.561452 -0.314573 -0.368861 -0.309270 -0.032988 -0.116937 0.057897 0.162305 0.576735 0.106709 0.384046 -0.377751 -0.078029 -0.188943 0.109157 -0.136716 -0.153333 0.464631 -0.102466 -0.379304 0.576691 -0.362788 0.534791 0.581697 0.336474 0.538396 0.927628 0.349144 -0.006772 0.544204 0.013367 0.138910 0.147118 -0.017726 0.036396 0.417090 0.594265 0.039917 -0.723354 0.008295 0.195122 -0.510225 0.250825 -0.206258 0.341305 0.084914 0.334762 0.163763 -0.748942 -0.422598 0.110249 0.047186 -0.299424 0.057300 0.140378 -0.160439 0.507842 -0.342278 0.604068 0.041380 -0.458056 0.282111 -0.062338 -0.510787 -0.442759 0.339706 0.101445 -0.232950 -0.196441 -0.437258 0.638782 0.332884 -0.668868 -0.487599 -0.239575 0.256842 -0.359013 0.750514 
black_pepper 0.061213 -0.044896 0.214250 -0.642078 -0.396721 0.281431 -0.298676 -0.280055 0.224725 0.195386 0.207532 0.359069 -0.184443 -0.372838 -0.252762 -0.015446 -0.122386 -0.174318 -0.298483 -0.065000 0.060786 -0.172462 -0.327104 -0.277296 0.009639 -0.504341 0.103893 -0.111125 0.335955 0.151565 -0.255189 0.517004 0.286981 -0.310022 -0.298956 0.385910 0.187841 -0.302386 -0.161696 -0.055775 0.195548 -0.394023 0.124393 -0.172779 0.353819 0.463808 0.396667 0.182208 0.469307 -0.173867 -0.509537 -0.027891 0.046801 0.084029 -0.273201 -0.097540 0.273835 0.026411 0.005486 -0.304543 -0.091671 -0.342648 -0.531298 0.217990 -0.231002 -0.316389 0.362670 0.149791 -0.178891 0.124234 0.487652 -0.406889 -0.009858 0.344138 -0.100911 0.015356 -0.608743 -0.104496 -0.492084 -0.095225 
pepper 0.517355 -0.171765 0.452464 -0.142228 -0.209330 -0.089365 -0.200985 -0.176559 -0.086819 -0.277860 0.245992 0.271595 -0.064899 -0.213299 -0.083921 -0.095287 -0.125821 -0.394477 -0.415236 0.215573 0.074287 -0.365000 -0.285667 0.089690 0.425094 -0.550362 0.144194 -0.051865 0.468279 0.344646 -0.249836 0.403960 0.288014 0.080479 0.134268 -0.169307 0.293596 -0.009103 -0.186737 -0.181386 0.335717 -0.403963 0.506061 0.263582 0.094117 0.577903 0.273490 0.405580 0.468033 -0.362489 -0.319558 0.031012 -0.250729 -0.137039 -0.131744 0.017016 0.138928 0.400749 0.206933 -0.202010 0.179958 -0.241592 -0.516102 0.026324 0.051992 -0.243038 0.658160 0.084057 0.188809 -0.398095 0.448753 -0.163128 -0.538672 0.133942 -0.024293 -0.148470 -0.397883 0.196930 -0.439666 -0.237721 
vanilla -0.704674 -0.834667 0.290813 0.392190 -0.573356 0.245219 0.294601 0.216669 0.475990 -0.856096 0.620252 -0.086484 -0.143451 0.169566 0.201936 0.273527 1.183400 0.607786 0.586536 -0.296235 0.300169 -0.004790 -0.089563 0.051766 0.221650 0.037347 -0.331952 0.210148 -0.521066 0.345498 0.184041 0.720720 -0.174644 -0.141018 -0.336893 -0.143676 -0.647492 -0.035020 -0.924155 -0.362866 0.544882 0.399863 0.040716 -0.640585 0.369336 -0.356844 -0.248777 -0.576722 -0.170394 0.198065 1.067883 -0.209389 0.018055 0.181615 -0.173982 -0.223784 -0.207993 0.057483 -0.318176 -1.373778 -1.008390 0.278369 1.033524 -0.394025 0.893150 0.879984 0.421281 0.455519 -0.944790 -0.271820 0.564484 0.184445 0.272585 -0.125656 0.557535 -0.037218 0.176990 -0.433184 0.469335 0.983416 
cayenne 0.130924 -0.496456 0.523375 0.668334 -0.337521 0.004884 -0.596250 -0.436971 -0.128902 -0.036867 -0.138824 -0.257839 -0.703418 0.003963 0.123000 0.292917 0.095550 -0.545735 -0.214892 0.226402 0.124253 -0.037687 -0.105028 0.002714 0.293942 -0.211810 -0.010286 -0.608945 -0.171535 0.711979 -0.298511 0.295281 -0.521702 0.079423 0.161263 -0.156978 -0.481306 0.232735 0.171804 -0.058783 0.566982 0.204362 0.661728 -0.258085 0.083161 -0.012077 0.435470 -0.378652 0.334918 0.122716 0.197101 0.189656 0.130660 -0.239515 -0.128927 0.170850 -0.222021 -0.199560 0.088584 0.087374 0.217033 -0.136530 -0.346494 -0.703156 -0.084117 -0.557326 0.508863 -0.277158 0.202595 0.190084 0.285090 -0.508254 -0.040516 0.863537 -0.229039 -0.526397 -0.416283 -0.193151 0.146897 -0.288387 
vinegar 0.209484 -0.251413 0.313939 0.667634 -0.034192 -0.081009 -0.833493 -0.390545 0.325367 0.088834 -0.096794 0.206488 -0.341110 0.290619 -0.790909 -0.082681 0.062513 -0.371432 -0.271377 0.907428 -0.612610 0.950478 -0.414279 -0.548961 0.228830 -0.595634 -0.324096 0.369212 0.738152 -0.112679 -0.626018 0.253149 0.507125 0.235179 0.086761 -0.108208 -0.566361 -0.128660 0.135860 0.009021 0.301465 0.408819 1.056151 0.443181 0.454296 -0.440269 -0.306871 0.168526 -0.068184 -0.226005 0.581790 -0.572159 0.546160 -0.099846 0.218522 -0.709654 0.663621 -0.255797 0.374332 -0.199144 -0.189253 0.250965 -0.572552 -0.117187 -0.031456 0.056687 -0.185175 -0.006699 -0.152670 0.421361 -0.182301 -0.356770 -0.455520 0.497194 -0.394235 0.209418 -0.218860 -0.082606 0.130620 -0.404601 
cane_molasses -0.586884 0.246426 0.318163 -0.586414 -0.273585 -0.642584 -0.426232 0.066807 -0.059680 -0.098642 -0.171944 -0.012706 -0.318179 0.067073 0.036064 0.058342 0.401252 0.015400 -0.128022 0.485715 -0.048065 -0.097526 0.320150 -0.288764 -0.343269 0.180482 -0.778680 0.076326 -0.201494 0.386604 -0.163434 -0.344151 -0.164176 0.236516 0.112548 -0.748262 -0.122141 0.371572 -0.884609 0.092508 0.059605 0.265969 0.360707 -0.516695 0.075822 -0.234067 0.454176 -0.018106 0.184439 -0.233155 0.467154 1.022630 0.246351 -0.399078 0.252931 -0.657619 0.113510 0.904550 0.471978 0.113730 0.004916 -0.153100 0.347858 0.333192 -0.076127 -0.371829 0.056328 0.553051 -0.238110 0.124010 -0.343835 -0.328309 -0.210277 -0.071289 0.056141 0.638396 0.791226 -1.151899 0.308440 0.648080 
bell_pepper 0.045922 0.231702 0.327440 0.458500 -0.415503 -0.187259 -0.385997 0.196365 0.048509 0.357069 -0.134140 0.272203 -0.238716 -0.034236 -0.073188 0.194984 0.045509 -0.232935 -0.270619 -0.117741 -0.079055 -0.070981 -0.166595 -0.133529 0.180020 -0.238776 0.090754 -0.024941 0.666714 0.074278 -0.017840 0.387515 0.104930 0.363281 0.130746 0.100336 0.039172 0.204108 0.223308 0.071112 0.072782 -0.343744 0.345189 -0.131459 0.396608 0.132916 0.344682 -0.084455 0.501076 0.100718 -0.273355 0.379339 0.091094 -0.377360 0.095059 0.027214 0.043385 -0.200949 0.291007 -0.025735 0.004889 0.005997 -0.233429 -0.170766 -0.233484 -0.209447 0.181043 -0.218055 0.129018 -0.424553 0.276590 0.090336 0.300604 0.644207 -0.156937 -0.316864 -0.531220 -0.077183 -0.342054 -0.352866 
cinnamon -0.164454 -0.538130 -0.627963 0.161547 -0.940747 0.461797 -0.138071 -0.025195 0.714681 -0.570612 0.410988 -0.133247 0.420885 0.221785 -0.479151 0.092434 0.261752 0.187457 0.081964 0.176868 0.133221 -0.656784 0.067212 -0.247848 0.310902 0.215159 -0.307613 -0.119387 0.740729 -0.436372 -0.159809 0.175754 -0.483788 -0.567648 -0.508025 -0.018026 -0.249672 0.026034 -1.080814 -0.016616 -0.430979 -0.159439 -0.016809 -0.487698 0.435458 0.101616 0.555016 -0.412006 -0.226718 0.710658 0.312826 0.082705 0.478215 0.334196 0.681948 0.515485 0.045125 0.502110 0.526390 -0.276265 -0.350344 -0.273053 0.254479 -0.175484 0.054891 0.032572 0.207577 -0.001658 -0.532939 0.459725 0.299318 -0.377342 0.155837 -0.871587 0.465226 0.510168 0.408079 -0.778738 -0.435663 0.724423 
parsley -0.516526 -0.328190 0.489842 -0.416108 -0.108327 0.097350 -0.364190 -0.091344 -0.234047 0.525697 -0.391242 0.273073 0.213341 0.355663 0.240532 -0.180018 -0.265177 0.081156 0.174370 0.184741 -0.008427 0.179531 0.233007 -0.298567 0.262691 -0.344502 0.161632 -0.142523 0.279091 -0.251215 0.191486 0.279490 0.560222 0.192266 0.243436 0.081372 0.339327 -0.237164 0.581589 0.053486 -0.207941 -0.198782 -0.174018 0.057726 -0.069677 -0.118871 0.041692 0.415655 0.348333 -0.147861 -0.570878 -0.622863 0.236345 0.210662 0.075868 0.199840 -0.034879 0.014119 0.267605 -0.401811 0.523847 0.470475 -0.415024 0.473868 -0.074692 -0.033038 0.097828 -0.294004 -0.067785 -0.096884 0.499112 -0.642951 0.965692 -0.153074 0.079699 0.059723 -0.462817 0.045983 -0.234259 0.250776 
chicken 0.460813 0.354077 0.343206 0.383395 -0.826923 -0.947582 -0.000646 -0.292622 -0.249495 -0.065906 -0.319709 -0.305287 0.100556 -0.421128 0.093345 -0.061746 -0.220052 -0.227147 -0.454778 0.238448 -0.485372 -0.762044 0.016269 -0.032375 0.471923 -0.348459 -0.212843 -0.017463 0.260844 0.277600 -0.154335 0.301985 -0.399734 0.033029 0.311412 0.473356 0.696199 -0.288420 0.160356 -0.104139 0.399382 -0.127679 0.546507 -0.299968 0.375357 -0.035433 -0.238145 -0.221962 0.088993 0.097088 -0.636240 0.026511 0.054905 0.144648 -0.138424 0.409857 -0.292403 -0.210534 -0.302025 -0.096507 0.280157 -0.587191 0.121926 0.378599 -0.333567 0.396683 0.578723 -0.118172 0.507183 -0.168801 -0.286424 0.011121 -0.140195 0.098504 -0.548235 0.568665 0.018659 0.210975 -0.138532 -0.135020 
lemon_juice 0.079038 0.255231 -0.654146 0.286629 0.187056 0.198391 -0.230956 -0.353652 -0.318135 -0.103220 0.084447 -0.361497 -0.226063 0.409649 -0.349157 -0.011426 0.318248 -0.243630 0.120162 0.174189 -0.028127 -0.216914 0.027512 -0.598605 0.340921 -0.333815 -0.109098 0.149425 0.383240 0.359781 -0.425833 0.520611 0.083849 0.237729 0.482630 0.535863 -0.158227 -0.040168 0.636286 0.263507 -0.398367 0.009396 0.211357 -0.325892 0.018375 0.017745 -0.472610 0.102231 0.447144 0.035712 -0.091393 -0.400005 0.206523 -0.113056 0.183909 -0.253238 0.122553 0.695470 -0.028873 -0.039064 -0.108367 0.304337 -0.151980 0.031294 -0.217016 -0.037006 -0.028282 -0.239808 -0.565309 0.198912 0.434767 0.195555 0.426438 -0.164434 0.543175 -0.253114 -0.187717 0.004421 0.072248 -0.156962 
beef -0.162110 -0.533482 0.235815 0.093444 -0.470753 0.026221 0.452652 -0.367190 -0.153092 0.557787 -0.304727 0.468689 -0.524423 -0.395567 -0.564929 0.317997 0.162676 0.021709 -0.180892 0.139222 -0.474042 0.243827 0.198490 -0.063916 0.163823 -0.684517 -0.102751 0.031163 0.069781 -0.210768 -0.607551 0.041774 0.058317 0.231382 -0.198774 -0.159894 0.551406 -0.643858 -0.351053 -0.323283 0.372483 0.051095 0.615163 -0.374600 -0.259916 -0.328630 0.172410 0.653241 0.407027 -0.137245 -0.227516 0.133474 0.050762 -0.038033 -0.249770 0.446409 -0.114478 -0.464829 -0.678177 0.468086 -0.099674 -0.292514 -0.347974 0.009860 -0.449051 -0.645545 0.142920 0.646753 0.193290 0.246600 -0.543434 -0.158836 -0.290553 0.600892 -0.773776 0.603974 -0.324278 -0.592234 -0.424884 -0.041083 
cocoa -0.487368 -0.819188 0.121922 0.022804 0.554494 0.071819 -0.007224 0.541945 -0.053174 -1.251774 -0.884477 -0.404716 -0.056402 -0.270965 -0.387525 0.195868 0.792053 1.420048 0.758695 -0.369838 0.023040 0.505079 -0.104796 0.109780 -0.369654 0.155844 -0.301815 0.246802 -0.352532 -0.008598 0.366757 0.935038 0.040773 -0.690137 0.763635 -0.418152 -0.295785 0.439929 -1.018085 -0.628666 0.604992 0.170991 0.105450 -0.324864 0.770165 0.441769 0.427595 -0.106682 0.024735 -0.199797 0.710779 0.155320 -0.462250 0.395543 -0.329717 0.098877 0.234680 0.224824 0.252867 -0.962339 -0.974842 0.481949 0.672670 -0.310645 0.067320 1.311786 0.569301 -0.274709 -0.419390 -0.229582 0.336678 0.107533 -0.041216 -0.833283 0.076945 0.749827 0.240630 -0.117302 0.816223 0.427953 
corn 0.384926 -0.123785 0.205148 0.424177 0.272906 -0.177921 -0.172218 0.239974 -0.571504 0.200686 -0.520987 -0.126490 -0.725991 -0.320822 -0.762178 0.302188 -0.617397 -0.174726 -0.439203 -0.877170 -0.910248 -0.141850 0.183807 0.112085 -0.223369 0.161563 -0.030790 -0.333556 -0.117903 -0.167362 -0.118963 0.039580 0.042095 0.090066 -0.187735 -0.867410 -0.098051 0.222150 -0.047389 -0.373355 -0.025272 0.175225 0.637620 -0.330657 0.237017 0.034068 0.006437 -0.222717 0.631949 -0.435025 0.101448 0.357474 -0.259206 -0.448039 0.316996 -0.096484 0.144220 0.046975 0.086330 0.855341 -0.202756 0.106546 0.269714 0.092541 0.129412 0.304602 -0.088182 -0.071487 -0.225032 0.658018 0.134825 -0.626842 0.233681 0.126046 -0.376758 0.244379 -0.384479 -0.436092 0.021061 0.293127 
bread 0.033918 0.008002 0.105496 -0.345737 -0.450856 -0.183725 0.168259 0.470048 -0.355486 0.005402 0.019865 0.037711 0.071144 0.291915 0.070138 -0.103577 -0.226820 -0.272399 -0.229237 -0.115829 0.075882 0.338799 0.149302 0.370042 -0.244934 -0.132485 -0.218860 0.215671 0.116433 -0.189184 -0.249365 0.364061 0.513683 -0.455699 0.260651 -0.302688 -0.071390 -0.320611 0.313504 0.003049 -0.506318 0.189764 0.099252 0.195851 -0.177517 -0.239179 -0.145050 0.078217 0.678864 -0.215632 -0.760603 -0.221950 0.329621 -0.003369 0.069270 -0.254281 0.310189 0.887407 0.488104 -0.263999 -0.245481 -0.161720 -0.488226 -0.220719 -0.159959 0.079668 0.046831 -0.164511 -0.120578 0.258773 0.149045 -0.327583 0.272696 0.669220 -0.290875 0.211932 0.003423 0.223629 0.046411 -0.341081 
scallion 0.249421 -0.066784 0.411533 0.518810 0.126667 0.009716 -0.039336 -0.483062 0.164111 0.332325 -0.160584 -0.134837 -0.181487 -0.108823 -0.555098 0.556892 -0.059005 -0.185323 0.016944 0.171010 0.138731 0.654320 -0.380405 0.134238 0.349640 -0.185350 -0.254167 -0.542177 0.091519 0.112171 -0.151278 -0.142253 -1.094975 0.213329 0.364019 0.396032 -0.214819 0.013287 0.311164 -0.125557 0.154208 0.259744 0.245467 -0.758733 0.303283 0.046449 -0.265486 -0.013163 0.639286 0.267301 0.077546 0.210586 0.078512 -0.103429 -0.788851 0.266625 -0.191639 0.222773 0.074118 -0.033453 0.550323 -0.620649 -0.216817 0.207064 -0.042929 0.067767 0.868264 -0.348732 0.064768 0.481111 0.199549 -0.508093 -0.382785 0.340872 0.017934 0.040475 -0.019435 0.642090 -0.070587 -0.322131 
mustard -0.862423 0.362224 -0.640159 -0.035060 0.428490 0.196271 -0.414535 0.300248 0.000337 0.825245 -0.949397 -0.092615 -0.036729 0.028434 -0.651803 0.241573 -0.226184 0.558603 -0.520019 0.187733 -0.361565 0.242254 -0.443413 -0.050291 -0.111002 -0.549510 -0.849222 0.318639 0.502814 -0.053578 -0.644305 0.057332 0.472167 0.168431 -0.640898 -0.325760 0.169392 -0.030627 -0.100102 0.310195 0.454386 0.191434 0.371457 -0.087334 -0.278479 -0.242499 -0.176973 0.071507 0.411780 0.209351 0.089398 -0.010951 -0.055293 -0.423698 -0.012362 -0.406979 0.440773 0.639035 0.610277 -0.389407 0.044576 0.336129 -0.890019 -0.331702 -0.476145 -0.251845 0.370234 -0.198300 0.093646 -0.092540 0.643540 -0.050680 -0.033182 -0.129176 0.179744 0.384708 -0.069221 -0.287369 -0.185692 0.102966 
ginger 0.112973 -0.610244 -0.215560 0.457628 -0.175180 -0.022177 -0.532328 -0.436517 0.200475 0.750432 -0.421434 0.054451 0.088481 -0.341185 0.210965 -0.567403 0.751155 0.031050 0.140107 0.116093 0.336697 -0.200933 -0.620537 -0.219015 0.616062 0.658531 0.358503 -0.656479 -0.019629 0.064249 -0.824826 0.580790 -1.254036 -0.159085 -0.087479 0.005660 -0.859785 -0.265314 -0.473912 0.418410 0.408215 -0.613717 0.295505 -0.162584 1.027789 0.190962 0.397654 -0.787084 0.733843 0.788717 0.163601 0.130734 0.579236 -0.432303 -0.584007 -0.230173 0.206326 0.103206 0.385588 -0.005000 0.781746 0.243185 -0.234802 -0.350447 0.231729 -0.026155 0.332572 -0.211818 0.761498 1.056876 -0.048853 -0.503106 -0.322475 -0.659898 -0.427341 0.098111 0.185731 -0.979288 0.511853 -0.232495 
basil 0.161366 0.014170 -0.211841 -0.392816 -0.654192 -0.454423 0.548437 0.393789 -0.370283 0.014184 0.477641 -0.149865 -0.099339 0.003985 -0.856558 0.275311 0.052020 -0.345081 0.322021 0.216767 0.000584 0.475530 0.053604 -0.318406 0.795415 -0.210135 0.420140 0.347073 0.369588 0.355598 0.357146 0.113933 0.020438 0.145492 0.061329 -0.466060 0.506025 -0.308136 0.576330 0.042900 -0.411114 -0.179444 -0.570696 -0.746294 -0.315702 0.401637 0.432048 0.222876 0.348252 -0.974732 -0.643305 0.119616 0.315931 -0.339936 0.127044 -0.103129 -0.039707 -0.282905 0.336035 -0.236483 0.282887 -0.181121 -0.564832 -0.062303 -0.600184 0.346048 -0.063584 0.246300 0.476314 -0.008322 0.064586 -0.578301 0.916276 0.507202 -1.025596 0.008804 -0.264859 0.576516 -0.269597 -0.256658 
celery 0.241259 -0.154039 0.021443 -0.342233 -0.313137 -0.275145 -0.002265 -0.310486 0.005791 0.891348 -0.107952 0.149149 -0.282310 -0.225185 0.778820 -0.143551 -0.379902 -0.476231 -0.144019 0.003523 -0.178360 0.114759 0.319804 -0.290750 0.320429 -0.723766 -0.680366 0.049013 0.490872 -0.478058 0.011468 0.065218 0.388930 -0.433937 0.777470 0.221692 0.761911 -0.057722 -0.092108 0.157225 -0.271909 0.179498 0.596230 -0.098088 -0.614986 0.349040 0.563159 0.030516 0.548726 -0.583170 0.154351 -0.173378 0.137875 0.260861 0.307203 -0.334441 -0.369355 -0.182784 0.987377 -0.217537 0.303587 0.168667 0.013254 0.563623 0.346487 0.480608 0.094212 0.065226 0.540172 0.061251 -0.598659 -0.019252 0.193317 -0.176516 -0.207502 -0.587052 -0.284077 0.018041 -0.640298 -0.274364 
carrot 0.146164 -0.674890 0.853702 -0.148589 -0.203086 0.745043 0.306293 0.333382 0.918064 0.778453 0.003793 0.212231 0.072963 -0.347618 -0.313654 -0.658061 -0.167491 -0.178053 -0.079745 -0.040855 -0.162322 -0.041496 -0.219196 -0.162208 -0.022310 -0.448821 0.318994 0.328791 0.209357 -0.403697 -0.320582 0.268470 -0.792891 -0.177565 0.120501 0.567312 0.696296 0.234463 0.448210 0.416502 0.572742 0.050963 0.209487 -0.971427 -0.243590 0.205168 0.028024 0.641782 0.290661 0.175283 -0.220316 0.134051 0.421588 -0.265346 -0.194393 -0.134159 -0.105633 0.161417 0.472029 0.345754 -0.105819 0.499308 -0.359136 0.416483 -0.163004 -0.551395 0.053732 -0.615400 0.422890 -0.292280 -0.236279 0.502441 -0.530234 -0.347366 -0.372361 -0.269186 0.104236 -0.235167 -0.294895 0.071407 
potato -0.355265 -0.189913 0.276380 -0.445607 -0.244140 0.687396 0.358849 0.459484 0.091978 0.042459 0.091689 -0.021300 -0.823629 -0.337333 0.728565 -0.718401 -0.726885 -0.075052 0.440672 -0.405286 -0.005868 -0.082354 -0.172110 -0.211473 -0.442156 -0.556696 0.416675 -0.541192 0.640083 -0.139714 -0.244696 0.218242 0.072293 -0.465052 0.604417 0.173322 0.962637 0.191114 0.034219 0.405950 -0.142145 0.247033 0.300165 -0.372724 -0.623147 -0.093064 0.540216 0.259798 0.727522 -0.052746 0.208125 -0.512216 0.486394 -0.191840 0.396871 0.584970 -0.177473 0.343762 -0.155156 -0.097165 -0.067913 -0.469767 -0.507475 0.172410 0.288566 -0.045876 -0.036710 -0.395552 0.661165 0.202747 0.264943 -0.061455 -0.221556 0.434924 0.142134 -0.160516 -0.165827 -0.265592 0.257749 -0.004131 
chicken_broth 0.631611 -0.287077 1.013730 -0.444845 -0.619006 -0.141728 0.018321 -0.131885 0.145407 -0.192574 -0.220721 -0.063840 0.114482 -0.601790 0.309373 -0.499720 -0.254946 -0.312495 -0.051924 0.726749 0.063739 -0.449123 0.403388 -0.759119 0.306963 -0.375182 -0.327312 0.176590 0.209754 0.045234 -0.319163 0.360908 -0.702864 -0.226250 0.254671 0.669600 0.364514 -0.318003 -0.594732 0.482910 0.084165 -0.287179 0.580390 -0.124028 -0.107255 -0.166349 0.686573 -0.016303 -0.098498 0.060583 -0.563703 -0.841213 0.208246 -0.093762 -0.035998 0.625850 -0.467599 -0.212486 0.633976 0.024757 0.358527 0.099949 0.068665 0.163834 -0.536726 0.152971 0.156715 -0.682223 0.221900 -0.157127 0.047291 -0.248326 0.062082 0.297909 -0.188024 -0.452184 -0.461358 0.543462 -0.541622 0.212150 
yeast -0.100919 -0.362759 0.046109 -0.509345 -0.239361 -0.495552 0.466378 0.582374 -0.059251 -0.776194 0.347756 -0.611750 0.314710 -0.165114 0.274281 -0.242653 0.396647 0.529151 -0.043945 -0.167036 0.090111 0.633790 0.179642 -0.040607 -0.234519 0.280135 -0.189386 -0.060390 -0.520222 -0.165688 -0.243006 0.142816 0.560800 -0.209015 -0.158815 -0.057333 -0.115783 -0.195414 0.268335 0.138981 -0.016174 0.267024 -0.227815 -0.159274 -0.057378 -0.329435 -0.292722 -0.229270 0.205464 0.097552 -0.051498 -0.112709 -0.205192 -0.362034 0.044068 -0.343568 0.578083 0.478886 -0.403640 -0.178491 -0.270491 -0.129761 -0.076960 -0.129198 0.143536 -0.250901 0.393203 -0.246687 -0.191659 -0.084261 0.389607 -0.655604 0.356962 -0.147373 -0.341808 0.383980 -0.105620 -0.129293 0.476297 0.135456 
rice 0.692666 -0.230244 0.790660 -0.228316 0.174453 -0.359856 0.040690 0.279577 0.221735 0.568814 -0.231517 0.222922 0.148530 -0.171011 0.393399 -0.033840 0.386102 0.002939 0.273304 -0.095383 -0.233516 -0.015952 -0.569007 -0.395419 0.367005 -0.458716 0.096443 -0.134912 0.149236 -0.438928 -0.230286 0.025603 -0.896806 -0.005449 0.379004 0.484569 -0.490528 0.504963 0.459424 0.303137 0.350002 -0.284064 0.570318 -0.668703 0.132692 -0.041264 0.116948 -0.414331 0.811387 -0.076357 0.056872 0.563226 0.341767 -0.386228 -0.503160 0.072774 -0.073986 0.298534 0.022626 0.806925 0.084338 0.289101 -0.267256 0.146546 -0.132252 -0.160208 0.118067 -0.905911 0.000485 0.384201 0.019165 0.371425 -0.326512 -0.248572 -0.429651 -0.190074 -0.393606 -0.021997 0.637112 -0.357233 
mushroom 0.215749 0.013733 0.760325 -0.434368 -0.315514 0.301441 0.156543 0.179988 0.098447 0.752703 -0.180235 -0.223371 0.020999 -0.209821 0.266997 -0.083009 -0.556086 0.031803 0.229165 0.221491 0.096617 0.327669 -0.316024 -0.055695 0.117750 -0.347054 -0.276027 0.079905 -0.014562 -0.195615 0.241793 -0.046417 -0.273477 0.200673 0.171193 0.307997 0.797013 -0.628638 -0.320557 0.594545 0.139218 -0.225804 -0.296528 -0.013661 -0.579642 0.404228 0.268431 0.032020 0.383330 -0.152683 -0.296021 -0.527517 -0.081197 -0.329441 -0.164176 0.141940 -0.112288 -0.185154 0.083244 -0.540123 0.225803 -0.267655 -0.120177 -0.009844 -0.110763 0.112078 0.514126 -0.331514 0.569090 -0.611636 -0.393708 -0.107826 0.231658 0.516738 -0.700514 0.520163 -0.575700 0.391597 0.348624 -0.354242 
cheese 0.077723 0.761679 0.139442 0.213971 -0.047464 0.039546 -0.197955 0.083134 -0.523405 -0.248610 0.444574 -0.398346 -0.312984 0.227228 0.240181 0.223318 -0.244270 -0.551932 0.483246 0.041600 -0.162275 0.102124 0.275088 -0.305998 -0.448107 0.260670 0.704952 -0.249119 0.085632 -0.535090 -0.077684 0.354723 0.021989 -0.096604 -0.016951 -0.266589 0.176100 -0.080076 -0.054840 -0.365256 -0.743098 0.179693 0.084669 0.106547 0.165046 -0.022981 0.160910 0.324006 0.298325 -0.159711 -0.350404 -0.299482 -0.317892 -0.728504 -0.022231 0.251170 0.207816 -0.024816 -0.113671 -0.321039 0.056303 -0.065741 0.277045 -0.371753 -0.351966 0.691059 -0.081163 0.041152 -0.544288 -0.793342 -0.192478 -0.458107 0.505618 0.595307 -0.031655 -0.021318 -0.508883 0.350680 -0.099333 0.038085 
soy_sauce 0.230131 0.007087 0.780552 -0.015897 0.435906 -0.032789 -1.048011 0.170049 0.055447 1.098768 0.058158 1.176571 -0.062677 0.496216 -1.097108 0.117843 0.244669 -0.204506 0.069692 0.044398 0.307389 0.871252 -0.493264 0.079841 0.148836 -0.739267 -0.425732 -0.524457 0.367740 0.265897 -0.459315 0.352892 -1.305528 0.088133 -0.375991 0.822603 -0.727626 -0.084870 -0.175463 0.102553 0.977349 -0.237531 0.404273 -0.246526 0.928232 -0.391514 -0.022541 -0.643671 1.243516 0.783796 0.242411 0.910901 0.582537 -0.199394 -0.454992 0.145023 -0.065423 0.395473 -0.171676 -0.002058 0.846804 0.077059 0.340892 0.046906 0.544527 0.412973 0.535317 -0.584792 0.650387 0.382010 -0.408694 0.575901 -0.986923 -0.049949 -0.386483 0.523812 -0.962932 0.927358 0.984643 0.175337 
cumin 0.677930 0.152158 -0.670908 0.932907 -0.655621 -0.108532 -0.099301 0.277825 0.069918 -0.268693 -0.779265 -0.548758 -0.600261 -0.306039 -0.218969 0.095865 0.023948 -0.057680 -0.667347 0.280534 0.055074 -0.300901 0.522463 -0.303796 0.727308 -0.716851 0.718753 -0.339628 -0.196220 0.607151 -0.004669 -0.252074 -0.396305 -0.025468 0.312840 -0.741458 0.011710 0.658470 0.194691 -0.110422 0.294076 -0.749992 1.292832 -0.591079 0.270032 0.388820 0.996341 0.167668 1.023534 0.081037 0.473703 -0.150011 0.608411 -0.523243 0.106637 0.899251 0.686758 0.760767 0.585237 0.576613 0.123793 -0.056716 0.584271 -0.691759 0.395595 -0.775392 0.700759 -0.651265 1.433386 -0.082135 -0.273537 0.283433 -0.225271 -0.033154 0.307541 -1.175399 -0.061073 0.634916 -0.384875 0.879400 
oregano 0.066296 -0.091625 0.442387 -0.174932 -0.794245 -0.339591 -0.763123 -0.077203 -0.211058 0.264915 0.569812 0.070745 -0.238121 -0.177658 -0.522505 0.520254 -0.764555 -0.601610 0.549890 -0.018511 -0.188903 0.231756 0.234531 0.018751 -0.348320 -0.253054 0.249156 0.177869 0.614811 -0.306863 -0.168008 0.169848 0.002886 0.292813 -0.095625 -0.113392 0.501545 0.322393 0.117424 -0.971180 -0.283436 -0.072082 -0.352261 0.065071 0.052723 0.494530 0.138828 0.321605 0.558092 0.011423 -0.680830 0.153565 0.140965 0.095727 0.958077 0.197193 -0.379566 -0.154808 0.248141 -0.169485 0.043805 -0.424017 -0.289677 -0.731986 -0.358255 -0.250725 -0.143475 0.244618 0.451114 -0.276832 0.041358 -0.636790 0.735668 0.523609 -0.538739 0.203334 -0.466668 0.391939 -0.396081 0.320915 
parmesan_cheese 0.530902 0.313490 0.518809 -0.497708 -0.289347 0.163933 -0.003118 0.437705 -0.354414 0.423120 0.650166 -0.436259 -0.626591 0.347128 -0.348354 0.132696 -0.284735 -0.311952 0.582433 0.616127 0.261472 -0.336804 -0.103476 -0.592147 -0.267982 -0.017617 0.797338 0.072160 0.061139 -0.131113 0.295629 0.018272 -0.018589 0.254714 0.141661 -0.114121 0.869884 -0.183813 0.400487 0.136825 -0.916623 -0.330618 -0.431071 -0.126912 -0.496514 0.287980 -0.213619 0.274799 -0.265924 -0.334924 -0.087014 -0.525937 -0.281246 -0.124279 -0.372051 0.214370 -0.149245 0.034381 0.205454 -0.654677 -0.103199 -0.079791 -0.063339 0.033674 -0.337679 1.000498 0.707581 0.355781 0.233662 -0.336764 -0.072218 -0.388975 1.085825 0.680360 -0.735787 -0.192221 -0.022830 0.789042 -0.095747 0.127791 
macaroni -0.178280 -0.120337 0.685047 -0.737294 -0.529701 -0.017081 0.112874 0.710167 -0.911662 0.040519 0.423717 0.105578 -0.188874 0.628453 0.008159 -0.268485 -0.213494 -0.272323 0.680946 0.071847 0.352778 -0.292847 -0.529053 0.221292 0.288701 -0.203836 0.570738 -0.211829 0.794588 -0.199865 0.145521 0.136752 -0.037334 0.092183 0.672218 0.011084 0.372263 0.449330 1.139896 0.296401 -0.680370 -0.080856 -0.504147 -0.266995 -0.486074 0.095445 0.165939 -0.415059 0.308594 -0.319760 -0.473177 -0.351404 -0.113072 -0.172446 0.477603 0.290141 0.112370 0.213186 0.040621 -0.240392 -0.501975 -0.103710 -0.742697 -0.014005 -0.233008 0.211968 -0.136035 -0.240140 0.697928 0.135402 0.226164 -0.172396 0.453457 0.847728 -0.681016 -0.259583 -0.724177 0.629458 0.549291 -0.417321 
thyme 0.162715 -0.387817 0.297696 -0.738175 -0.180100 0.568142 0.041597 0.513830 0.221105 0.391765 0.300509 -0.182449 -0.452431 -0.624399 0.009046 -0.527973 -0.025458 -0.272508 0.047871 0.153832 -0.415063 -0.063128 0.381078 -0.713068 0.239419 -0.135654 -0.406785 -0.062062 0.803123 0.553295 -0.162239 0.683997 0.170537 -0.322675 -0.335586 0.304233 0.242847 -0.464975 0.183471 -0.091149 -0.741464 -0.519496 -0.164403 -0.072850 -1.163187 -0.148610 -0.295215 -0.092287 0.644059 -0.695277 -1.004546 -0.269568 0.714830 0.322664 0.132179 0.081931 -0.405444 -0.553203 0.235660 0.026610 -0.479040 0.094140 -0.343685 0.604075 0.433043 0.442363 0.073451 -0.631022 0.108485 -0.336459 -0.212628 -0.801073 0.447961 0.005454 -0.351267 -0.362825 -0.590036 0.150382 -0.701146 0.051854 
cheddar_cheese 0.151002 0.200479 0.360541 0.331629 0.492350 -0.036694 0.135202 0.050038 -0.361069 -0.153765 0.399748 -0.426903 -0.122551 0.168810 0.621708 0.225063 -1.349452 -0.533397 0.010071 -0.181736 -0.784076 -0.358880 -0.087070 -0.280541 -0.591524 -0.281912 0.023700 -0.586326 0.015130 -0.540711 0.154766 0.333562 0.166440 0.216492 -0.031695 -0.696670 0.843266 -0.303298 -0.184412 -0.453160 0.003888 0.845186 0.221924 0.373352 0.184694 0.292816 0.223691 0.136686 -0.071113 -0.227931 0.262586 0.284857 -0.301079 -0.936204 0.023319 0.702935 -0.177358 -0.048154 -0.042917 -0.315092 0.197311 -0.251743 0.184934 -0.604254 -0.251598 0.881733 0.565965 0.631889 0.483464 -0.772357 -0.421068 -0.839900 -0.137725 0.535853 -0.213878 0.037148 -0.255490 0.327360 0.194612 0.343404 
lard 0.232298 -0.442089 0.141972 -0.264953 -0.734323 -0.078127 0.446043 0.358006 0.192742 -0.228643 0.171989 -0.239995 0.138704 0.122611 -0.279112 -0.324067 0.353461 0.429781 0.142590 -0.533276 0.137471 0.316844 0.682235 0.173224 -0.538788 0.294517 -0.343901 0.224872 -0.264068 -0.363928 0.156873 0.157219 0.194987 -0.409286 0.206900 -0.132477 0.025229 0.009001 -0.193783 0.099103 -0.245531 0.482461 -0.206078 -0.343808 -0.097355 -0.276422 -0.081668 -0.683099 0.019475 -0.002420 0.395123 -0.023813 -0.282130 -0.152286 0.235907 -0.170574 0.541908 0.349127 0.052604 -0.220057 -0.115408 0.180711 0.013759 -0.376375 0.322952 -0.042186 0.039955 -0.115319 -0.559482 0.074167 0.331162 -0.276005 0.247555 0.129192 0.311622 0.312680 0.164382 -0.373520 0.443373 0.722911 
lemon 0.186389 0.122527 -0.387273 0.024264 -0.159557 -0.232740 -0.186773 -0.096761 0.136676 0.711881 0.147280 -0.212179 -0.085163 0.282894 0.008613 0.223765 0.463946 0.351614 0.316055 -0.042100 0.031935 0.300618 0.110129 -0.720087 0.465655 -0.030806 -0.127485 0.009297 0.104637 0.411383 -0.259305 0.574091 0.197867 -0.016862 -0.050168 0.278670 -0.006998 0.303773 0.604545 -0.073662 0.073209 0.121206 -0.249702 -0.675720 -0.242684 -0.596307 0.112268 -0.120683 0.267786 0.170314 -0.412413 -0.339216 -0.227844 0.830577 0.326532 0.092194 0.494193 0.633506 0.344691 -0.079087 -0.352176 0.166451 -0.085966 0.163913 -0.246305 -0.351246 0.307054 -0.153622 0.188117 -0.001723 0.380465 -0.243395 0.190007 -0.539872 0.288347 -0.282836 0.195857 -0.028361 -0.415154 -0.052639 
cream_cheese -0.045214 0.424969 -0.279100 -0.103939 -0.272465 -0.076612 -0.072513 0.043443 -0.427921 -0.194145 0.294034 -0.029575 0.429685 1.087022 0.246551 0.859861 0.268932 0.316479 0.046117 -0.419676 0.038431 0.252481 -0.286967 0.069176 -0.113381 0.451297 -0.036915 0.003236 -0.431110 -0.001333 0.023106 0.287866 0.371718 0.373711 0.141744 -0.141393 0.456300 -0.371666 0.048106 -0.188660 -0.461855 0.150364 0.134381 -0.309980 0.054195 0.009212 0.247687 -0.045844 -0.006169 0.099281 0.299416 -0.107705 -0.974034 -0.036828 0.288313 -0.201971 0.067535 0.264691 0.155882 -0.188321 0.111509 0.300801 -0.403726 0.507676 -0.387107 0.459183 0.128778 0.409692 -0.043462 -0.277025 -0.067180 -0.116663 0.188060 0.028465 0.548552 0.071969 -0.277079 -0.465399 0.654692 0.071970 
walnut -0.051499 0.015636 0.265911 0.136290 -0.045205 0.366236 0.398080 -0.070903 0.876621 -0.853075 0.406063 0.036971 0.346050 -0.036348 -0.074540 -0.377058 0.466112 0.391012 0.378767 -0.025940 0.493918 -0.011324 0.412882 0.330424 0.188973 -0.288923 -0.186030 0.450702 0.389854 -0.451221 -0.212130 -0.043354 -0.080754 -0.083487 -0.443602 -0.592989 0.048547 -0.253142 -0.591666 -0.152093 -0.679415 -0.095369 0.126265 -1.186692 -0.272217 -0.258284 -0.937201 -0.690615 -0.543249 0.125584 0.017403 -0.143923 0.132007 -0.151025 -0.264054 -0.137201 0.211957 0.200846 -0.240289 -0.384111 -0.454174 0.768571 0.237788 -0.253005 0.296697 0.231638 0.129678 0.473595 -0.852859 0.286846 -0.095875 0.514162 0.418932 -0.682237 0.731224 0.184815 -0.103626 -0.283938 0.163656 0.124515 
green_bell_pepper 0.019232 -0.075043 0.692011 0.124113 -0.137561 -0.199288 -0.239752 -0.315814 -0.386455 -0.222350 -0.436986 -0.410011 -0.794826 0.377607 -0.378630 0.142862 -0.655038 -0.297331 -0.309329 0.308565 -0.106646 0.230262 -0.256794 -0.074054 0.003256 -0.723646 -0.503190 -0.538064 0.674012 -0.078980 -0.000026 0.078685 -0.062703 0.064583 0.166183 -0.526731 0.473077 0.008640 0.300636 -0.267792 -0.226193 0.366076 0.351817 0.378408 -0.172274 0.772006 0.464971 -0.059655 0.276843 0.025210 -0.308439 0.584777 -0.215594 0.107477 0.043420 0.255003 -0.110639 -0.300135 0.578747 0.135854 -0.303360 0.217057 -0.515771 0.019346 0.182435 -0.270401 0.130252 0.069276 0.675040 -0.087144 -0.759309 -0.469346 0.005000 0.093937 0.021874 -0.383896 -0.890949 0.160105 -0.171435 -0.219387 
starch -0.001608 -0.087259 0.427681 -0.210687 0.099696 -0.035165 -0.396449 -0.470601 0.523021 0.849068 0.081568 0.084293 0.153474 -0.056772 0.308978 -0.083075 0.286835 0.405311 0.214503 0.086398 0.375365 0.332072 -0.326956 -0.201768 0.673856 0.230283 -0.092749 -0.338108 0.019744 0.069771 -0.315024 -0.070139 -0.406702 0.143628 -0.246203 -0.009380 -0.546371 0.186038 -0.477448 0.396803 0.360822 -0.291455 -0.068882 0.119435 -0.160455 -0.137561 -0.054232 -0.570668 0.638566 0.212877 0.085430 -0.327966 -0.550918 -0.025510 0.351038 -0.432213 0.214631 0.160382 0.121877 0.331479 0.016342 0.167977 0.389760 -0.111858 0.381546 0.416482 0.086010 -0.379663 -0.088262 0.342810 0.030560 0.105726 -0.725490 0.229202 -0.110872 0.386134 0.620149 -0.468310 -0.178683 -0.059505 
nutmeg -0.270220 -0.614323 0.155245 -0.142467 -0.424140 0.371514 0.062000 0.980767 0.860981 -0.371064 0.695860 -0.313100 0.818677 0.170696 -0.180029 -0.594882 -0.143539 0.032929 0.014858 -0.152113 0.115098 -0.279324 0.598356 0.083924 0.094719 0.786603 -0.270164 -0.411017 -0.042609 0.027512 -0.464667 0.576261 0.062855 -0.031294 0.135296 0.240033 -0.058169 -0.588551 -0.752356 0.485470 -0.315933 -0.108369 0.238435 -0.857411 -0.769319 0.030381 0.023400 -0.326703 -0.239319 0.212302 0.390037 -0.040662 0.079243 0.459291 0.059233 0.189689 0.349237 0.454773 0.193207 0.044187 -0.033120 -0.205734 0.696817 0.169430 0.062914 -0.246553 -0.394560 0.494539 -0.244883 0.200460 0.124572 0.302958 0.065685 -0.415083 0.392143 0.025117 -0.612131 -0.564625 -0.103864 0.518247 
honey 0.134342 0.366171 0.408249 0.222940 0.013033 -0.267109 -0.252240 -0.393800 0.072497 -0.301253 0.065595 -0.037011 0.039036 -0.320560 -0.174764 -0.635981 0.875498 0.099767 0.053722 -0.018780 0.028182 0.145252 -0.307598 -0.544797 0.164579 0.013170 -0.440466 0.328884 0.135308 0.298833 -0.366719 -0.039899 -0.903249 0.090544 0.489296 -0.414207 -0.501200 0.232148 0.481444 0.405252 -0.020660 -0.262616 0.207239 0.195399 0.577884 0.073801 -0.234982 -0.199575 0.290723 0.408104 -0.150011 0.575224 0.227260 -0.020148 -0.246580 -0.819519 0.472862 0.461096 -0.002790 -0.261670 -0.096835 -0.196067 0.111224 -0.204719 0.106089 -0.416838 -0.220582 0.424810 -0.414006 0.214668 -0.168055 0.100277 0.057869 -0.133948 0.019728 0.941887 0.223756 -0.143245 0.258032 0.113289 
apple 0.431000 -0.120811 -0.169569 0.238821 -0.203237 0.179175 0.321755 -0.379512 0.709181 -0.441148 0.419018 -0.130534 0.725627 -0.188602 -0.167036 -0.581007 -0.156581 0.048816 -0.334410 0.160266 0.169662 -0.114531 -0.199001 0.690672 0.383284 0.049393 -0.497886 0.311563 0.174569 -0.257436 -1.050571 -0.017843 -0.113483 -0.126992 0.029092 -0.184954 -0.156576 -0.352348 -0.840721 0.121564 -0.139270 -0.387542 0.262448 -0.449299 -0.284102 0.005381 -0.060176 -0.103071 -0.306438 0.552011 -0.011950 0.036634 0.430906 0.602759 0.092548 -0.605363 -0.159881 0.698791 0.425661 -0.404511 0.002538 0.365358 0.637910 -0.076394 0.189852 -0.209192 0.285731 0.369762 0.749545 0.250499 -0.061292 -0.266945 0.299166 -0.750271 0.208462 0.127814 0.223436 -0.307701 0.017363 0.000682 
almond 0.327909 0.288300 -0.132701 0.430661 0.016983 -0.056238 0.398528 -0.245825 0.579595 -0.470368 0.099909 -0.442740 0.409691 -0.320697 0.377785 -0.342143 0.683636 0.180779 0.581845 0.212917 0.249569 -0.264000 -0.273355 -0.513020 0.617805 -0.115635 -0.109523 0.619330 0.150228 0.108524 -0.185392 0.604273 -0.438286 0.231516 -0.629810 -0.148106 0.165998 0.015888 -0.232733 0.016816 0.078290 -0.028064 0.229150 -0.382688 -0.192447 -0.286744 -0.553754 -0.109467 -0.145592 0.277452 0.306666 -0.089803 -0.333563 0.096952 0.059242 -0.567491 0.340775 0.226403 0.250940 -0.166076 -0.356665 0.804130 0.286334 -0.275505 -0.028342 0.067164 0.310660 0.212698 -0.653114 0.077569 0.184192 0.634174 0.173745 -0.348501 0.247489 0.362428 0.038056 -0.147019 -0.038411 0.288687 
cilantro 0.169824 0.004893 0.297190 0.563794 -0.192005 -0.378923 -0.856608 -0.358099 -0.051503 0.147154 -0.510323 -0.240150 -0.206868 0.126678 -0.453970 0.752117 0.164184 -0.297291 -0.122765 -0.491333 -0.494742 -0.245551 0.430972 -0.218929 0.261285 -0.422422 0.336157 -0.061510 0.156031 0.701161 -0.141998 0.253671 -0.706743 0.166624 0.480977 -0.344821 -0.144806 0.966990 -0.402834 -0.394597 0.714797 -0.232015 0.777893 -0.730029 0.431520 0.479545 0.457413 -1.005570 0.650417 0.261389 -0.866944 -0.396099 -0.007670 -0.266487 -0.048534 0.443887 0.195796 -0.007185 0.125143 0.517289 0.657059 -0.693591 -0.155054 -0.633009 -0.060173 -0.983922 0.436781 -0.599063 0.124287 0.024799 0.263831 0.207121 -0.184675 0.094932 0.486310 -0.856005 -0.950813 0.713162 0.101101 0.519042 
pecan -0.360458 -0.040083 -0.046064 -0.183224 -0.044647 0.298244 0.514814 -0.116040 0.686729 -0.660445 0.459376 -0.134415 0.212256 0.336478 0.207472 -0.358886 0.177163 0.416151 -0.107284 -0.109972 0.171592 0.131144 0.241311 0.550307 0.050551 0.073378 -0.311228 0.555983 0.038314 0.229526 -0.356365 0.082151 -0.424262 -0.496584 -0.271043 -0.827900 0.079873 -0.063162 -0.905396 -0.138367 -0.571329 0.061676 0.320147 -0.882388 -0.241882 0.151627 -0.462593 -0.631289 -0.360709 0.206333 0.344341 0.005599 -0.202489 -0.447167 0.049488 0.008955 0.104185 -0.165935 -0.009245 -0.425122 -0.587954 0.460877 0.471903 -0.465081 0.374262 0.222605 -0.045930 0.193472 -0.710217 -0.092356 -0.119742 0.162277 0.305624 -0.574167 0.696091 0.486879 -0.058720 -0.487141 0.221854 0.327703 
white_wine -0.055367 0.448605 -0.186157 -0.530069 -0.164797 -0.058501 0.110418 0.009936 -0.483122 0.391631 0.263618 0.626444 -0.612258 0.035860 0.027796 -0.094231 0.536577 -0.051739 -0.118962 0.095944 0.232934 -0.231975 0.147034 -0.471651 0.211488 -0.368936 0.274312 -0.021253 0.433414 0.173373 0.071070 0.084027 -0.126158 0.217900 -0.077131 0.354537 0.283566 0.219747 0.309274 0.480345 -0.639729 -0.604980 -0.495476 -0.527393 -0.668691 -0.083674 -0.202689 0.062017 0.642778 0.068168 -0.605568 -0.273284 -0.179229 0.241374 -0.341425 -0.063095 0.060547 0.529778 0.597693 -0.184229 0.408470 0.388475 -0.284121 0.415266 0.337071 0.285451 0.144862 -0.634256 -0.086390 0.308127 -0.032033 -0.306963 0.270462 -0.062333 -0.086936 -0.735882 -0.590034 -0.115645 -0.222209 -0.371920 
bacon 0.045809 -0.408859 0.677573 -0.454318 0.219633 0.690379 0.129405 -0.504992 0.031512 0.490336 -0.067696 0.127204 -0.511182 -0.027933 0.181588 -0.180937 -0.401241 -0.108974 -0.623713 -0.056307 -0.484569 -0.057729 0.239597 0.163888 -0.341187 -0.164403 -0.100960 0.209335 0.229358 -0.097562 -0.128590 -0.240449 0.218865 0.064571 -0.591105 -0.254501 0.552291 -0.295957 0.040718 -0.035585 -0.546403 0.198838 0.661075 -0.557059 -0.315170 -0.502235 0.189715 0.059142 0.162015 0.197772 -0.276674 -0.024106 -0.148054 -0.408248 0.140854 0.178932 -0.075597 0.216352 0.214550 0.007111 -0.396822 -0.287199 0.165022 0.216154 -0.227631 0.513327 0.227056 0.305248 0.259770 -0.152021 -0.293111 -0.132320 0.025373 0.291966 -0.448997 0.104560 -0.034191 0.416699 -0.598736 -0.208183 
pork 0.182637 -0.278729 -0.123367 0.207480 -0.711313 -0.183162 0.229810 -0.414952 0.013356 0.809400 -0.232249 0.813198 -0.739347 -0.524243 -0.511607 -0.266485 -0.021900 -0.036870 -0.481992 0.252442 -0.515947 0.060286 0.233233 0.030614 0.246950 -0.247959 -0.259711 0.220170 -0.005435 0.370433 -0.598139 0.219779 -0.274473 -0.198401 -0.037293 0.259569 -0.296629 -0.503334 -0.562209 0.378140 0.662338 -0.218222 0.349787 -0.320764 -0.172901 -0.516900 0.122393 0.078824 0.192222 0.392477 -0.054049 0.598233 0.398549 -0.257413 -0.119695 -0.109414 -0.258502 -0.314726 0.068710 0.569607 -0.123414 -0.662959 0.249193 0.334195 -0.406505 0.202114 -0.118197 0.320446 0.204128 0.044020 -0.313795 -0.281240 0.096829 0.556651 -1.076653 0.437487 -0.080847 -0.700874 0.048306 0.079669 
raisin -0.001246 0.091867 -0.369381 -0.022950 -0.519557 -0.087378 0.388938 0.006338 1.075777 -1.119566 -0.336550 -0.080714 -0.019911 -0.007720 0.322321 -0.191552 0.188110 -0.267574 0.784765 0.018535 0.487841 -0.834536 0.511884 -0.354511 0.526457 -0.359655 -0.703376 0.365792 0.151362 0.002009 -0.585568 0.755706 -0.198059 -0.054416 0.430362 0.081557 -0.154568 -0.087320 -0.286445 -0.124145 -0.049295 -0.247279 0.567944 -0.053701 0.168534 0.048554 -0.134868 0.034045 -0.587301 0.150556 0.596087 0.268279 0.123059 0.569701 0.006780 0.140766 0.229160 0.452617 0.470980 0.021558 -0.180008 0.206970 0.130687 -0.047110 0.026953 0.143232 0.453143 1.233486 -0.061057 0.235237 -0.472766 0.258492 0.352523 -0.518513 0.409168 0.149839 -0.127886 -0.506238 -0.015177 0.813692 
bean -0.032782 0.017055 0.714187 0.197339 0.351145 -0.093370 -0.269103 -0.105407 0.701463 -0.172949 -1.025603 0.103617 -0.050104 -0.303479 0.034909 -0.164677 -0.255060 -0.365919 0.058314 0.236417 -0.149317 -0.113446 0.100400 -0.356800 0.133676 -0.471952 -0.396594 -0.288800 0.739009 0.283400 -0.232858 -0.239198 -0.124053 0.196660 0.667705 0.271383 -0.146147 0.194351 -0.054608 -0.235069 0.103552 -0.217469 0.798234 -0.003019 0.085127 0.147994 0.424980 0.065700 -0.033686 -0.141982 -0.262204 0.510589 0.169846 -0.427797 0.154931 0.447667 0.127671 -0.008722 -0.091296 0.576361 0.107353 -0.096283 -0.219817 0.047382 0.169531 0.074484 0.649494 0.166602 -0.041542 -0.227542 -0.315244 -0.476917 0.182371 0.558595 -0.492221 -0.145388 -0.767673 -0.452674 -0.181718 0.091171 
rosemary 0.038882 -0.423360 0.900605 -0.893341 -0.567612 -0.220736 -0.063793 0.690007 0.260970 -0.064495 0.754008 0.063078 -0.176110 -0.073185 -0.477269 -0.150340 0.209188 -0.315138 -0.199207 0.476231 -0.080554 0.145180 -0.260466 -0.443075 0.186011 -1.047509 -0.003734 0.074507 0.427359 0.179149 0.325118 0.383286 -0.140429 -0.319741 0.494262 0.489560 0.525374 -0.587825 0.623411 0.543670 -0.542344 -0.679065 -0.106227 0.150589 -0.748940 0.019632 0.459301 0.296080 0.279319 -0.829620 -0.353533 -0.290323 0.004923 -0.340731 0.676998 0.127463 -0.425942 -0.241585 0.369858 -0.068970 -0.293413 0.598394 0.120131 0.381963 0.026861 -0.144722 -0.533475 0.047787 0.165945 -0.983853 -0.541734 -0.786309 1.500599 0.129501 -0.507027 -0.008246 -0.593525 -0.065253 -0.847764 -0.202262 
fish 0.043803 0.110328 0.312081 0.304837 -0.186922 -0.513323 -0.182090 -0.588262 0.088791 0.796938 -0.063279 0.740182 -0.338613 0.394858 -0.303095 0.771981 0.151039 -0.706059 0.035730 -0.043181 -0.479003 0.293380 -0.488507 -0.528168 0.231178 -0.861975 0.352072 0.600661 -0.000016 0.098250 0.532915 0.228752 -1.147180 0.394805 0.115324 0.631298 0.283045 0.157488 0.036057 -0.095086 0.549486 0.114613 -0.248683 -1.039507 0.686217 0.057052 0.167100 -0.047373 0.061865 0.358119 0.052763 -0.291189 0.731823 -0.334109 -0.246060 0.130255 0.966433 0.075908 -0.077026 -0.905696 1.045488 -0.626194 -0.245686 -0.110443 -0.453595 0.030535 -0.084585 -0.386453 -0.150981 0.815728 -0.158637 -0.188931 -0.140720 0.016338 0.111704 -0.673578 -0.650451 -0.438322 0.401631 -0.487058 
cucumber -0.252877 0.442637 -0.590164 0.220942 0.642349 0.664910 -0.742923 -0.497759 -0.395673 0.260810 -0.235455 -0.096972 -0.076716 -0.528102 0.159729 0.550802 0.847751 0.314460 0.948099 0.063283 -0.748386 0.203077 0.228742 -0.299765 -0.418450 -0.771480 -0.464378 0.156559 -0.479094 0.578902 -0.066511 -0.506438 0.701986 0.716388 0.144573 0.366277 -0.118072 0.207796 0.184451 0.245149 0.487189 0.023164 0.254982 -1.382243 1.215383 -0.231448 -0.455787 0.192274 -0.257604 0.038975 0.068676 0.544798 0.126048 -0.103138 -0.205452 -0.312102 -0.367129 0.693217 -0.154916 -0.008712 0.646245 0.631010 -0.297181 0.337893 0.221962 0.156615 0.702452 0.027253 0.066464 0.458319 0.649516 -0.523374 0.395724 1.034135 0.206172 -0.364289 -0.060532 -0.116081 1.090559 -0.154695 
olive 0.229460 -0.256824 0.110324 -0.004008 -0.355101 -0.300109 0.021106 -0.621450 -0.891786 0.201923 -0.269655 -0.101645 0.156063 0.192772 -0.030320 0.149645 -0.330865 -0.269868 0.180950 0.285573 -0.073033 0.140483 0.508171 -0.049395 0.290276 -0.372640 -0.049029 -0.091449 0.957315 0.062543 0.417440 0.255845 0.470683 0.332298 -0.243927 -0.367554 0.568794 -0.027205 0.651071 -0.678673 -0.381687 0.475904 -0.303357 -0.892827 0.131495 0.667726 -0.042378 -0.178311 -0.058477 0.120445 -0.980632 0.077304 0.147012 -0.636770 0.040065 -0.456127 0.050449 -0.098096 0.187809 -0.372608 0.077829 0.227264 -0.686678 0.122487 -0.530558 -0.292932 0.031744 -0.110744 0.157860 -0.298059 0.163163 -0.505120 1.308131 0.246771 -0.585596 -0.499912 -0.539972 0.464920 0.054783 0.160876 
coconut -0.662455 -0.044587 -0.107071 0.901926 -0.299816 -0.416429 -0.316587 -0.074375 0.244225 -0.201512 -0.125856 -0.847889 0.684329 -0.119363 -0.115562 -0.252881 0.434997 0.280640 0.260022 0.327610 0.806355 -0.360809 -0.497542 0.315885 0.457888 -0.220575 -0.736269 0.227617 0.155964 0.259045 0.584573 0.726900 -0.368597 -0.363861 0.413931 0.095612 -0.456395 0.422631 -0.868607 0.045016 0.667448 -0.145529 0.850874 0.186059 0.758090 0.701842 0.477492 -0.745659 0.069502 0.228349 0.477494 -0.362472 -0.099626 -0.089154 -0.466282 0.557637 -0.164147 -0.184200 0.996957 -0.017620 0.198308 0.679425 0.569761 0.051622 -0.203829 0.355045 0.366777 -0.188573 0.306832 0.731519 0.706153 0.604501 -0.250621 -0.713749 0.702916 0.261529 -0.050772 -0.181166 0.721837 0.574620 
orange -0.084502 -0.453911 -0.371923 0.528506 0.037289 0.138492 0.296072 0.019065 0.927827 0.334385 -0.205722 0.125931 0.563720 -0.265041 -0.027291 0.223642 0.469388 0.070028 0.539055 0.492530 -0.115479 -0.082306 -0.114830 -0.508607 0.707192 0.303143 -0.520540 0.522553 0.054355 0.173984 -0.556874 0.356252 -0.071071 -0.061409 0.361439 0.041359 -0.009653 0.032050 0.310375 0.221580 -0.416697 -0.899342 -0.116114 -0.398945 -0.188319 -0.095312 0.138256 -1.190936 0.387973 0.425578 -0.001899 -0.204771 -0.499907 0.556853 -0.293275 -0.464917 0.862715 0.266996 0.026014 -0.194302 -0.512340 0.366707 0.888393 0.019923 0.262112 -0.598543 -0.476474 0.549653 0.034065 -0.098749 0.230141 -0.254766 0.210163 -0.355476 0.188123 -0.104419 0.029183 0.034189 0.700980 0.046326 
tamarind 0.768472 0.147950 -0.179412 0.348293 0.462890 -0.036893 -0.532684 -0.296164 0.179763 0.175498 0.100101 0.077198 -1.046985 0.059417 -0.572082 0.245769 -0.874080 0.763530 -1.654965 -0.496182 -0.572103 0.003717 0.154381 0.010652 -0.049903 -0.689667 -0.673674 0.436549 0.155626 0.381179 -0.127542 0.088360 0.583036 0.076700 -0.863125 -0.746295 -0.517480 -0.297674 -0.463701 0.491614 0.527815 -0.408589 -0.113056 0.289660 -0.470736 0.698055 0.213732 0.355574 0.743885 0.297723 -0.080884 0.527840 0.389911 -0.653610 -0.016202 -0.118511 -0.140084 -0.197016 0.756748 0.124544 -1.001934 -0.128389 -0.595954 0.246287 0.111993 -0.499134 0.309783 0.170537 0.317134 0.451858 0.078948 -0.460470 -0.069152 0.224871 -0.877380 -0.368809 -0.836751 -0.947308 0.324276 0.097539 
vegetable 0.448337 -0.489291 0.306694 -0.620867 0.128897 0.830503 0.075671 -0.105285 0.473118 0.427821 0.148113 -0.099569 0.115780 -0.299134 -0.006016 -0.075398 0.214687 -0.283495 0.338759 0.238665 0.178730 -0.165936 -0.163545 -0.301933 0.046589 -0.334325 0.364725 -0.610055 0.216550 -0.238958 -0.233015 0.038517 -0.852099 0.071191 -0.191444 0.524643 0.125259 -0.071682 -0.023515 0.060917 0.167076 0.253032 0.677034 -0.704971 0.839889 -0.072783 0.183219 0.412659 0.567193 0.115068 0.457922 0.112033 0.155989 0.249439 -0.382704 -0.005728 -0.046515 -0.012090 -0.236968 0.158632 0.211137 0.228344 -0.332137 0.303342 -0.275552 0.005940 0.109074 -0.168912 0.171784 0.020207 -0.133043 -0.294760 -0.343198 -0.088797 -0.462214 0.397879 -0.390124 -0.256791 -0.275993 0.343543 
orange_juice 0.177567 0.858615 -0.114359 0.298663 -0.303565 -0.126404 -0.000244 0.203305 -0.228415 0.076600 0.180147 0.419567 0.451125 -0.037069 -0.436276 -0.077653 0.709302 -0.526393 0.074352 1.106684 -0.305118 -0.238697 -0.807867 -0.694917 0.459233 0.047165 -0.372995 0.024590 0.918032 0.374049 -0.702586 0.762649 -0.518009 0.030295 0.048797 -0.119995 -0.185606 0.604909 -0.564744 0.331366 -0.045915 -0.112094 0.228218 -0.709281 -0.131284 -0.038045 -0.001891 -0.433537 -0.239283 -0.035929 -0.147535 -0.000588 -0.101505 0.293950 -0.204999 -0.374622 0.075627 -0.055616 0.013004 -0.760415 -0.090428 0.406102 0.924793 -0.428402 0.513513 -0.127744 -0.216149 -0.023377 -0.213021 0.151869 -0.130805 -0.180412 -0.308962 -0.812211 0.386426 0.644676 0.517093 -0.585735 0.368740 0.014574 
buttermilk -0.186096 0.046072 -0.004273 -0.179074 -0.848108 0.329328 -0.030596 0.522113 0.274738 -0.597202 0.004911 -0.196994 0.654181 0.251168 0.497400 0.320731 0.282236 0.533474 0.284910 -0.371450 -0.289867 0.665137 0.577371 -0.362608 -0.117771 0.232006 -0.044723 -0.147812 -0.283893 0.088718 -0.134540 0.283186 0.651071 -0.025586 0.221002 -0.225669 0.251017 -0.236377 0.116670 -0.174863 -0.065972 0.052686 -0.158087 -0.291286 0.003793 -0.268091 -0.252788 -0.065700 -0.239327 0.495275 0.745709 0.148591 -0.031148 -0.458763 0.310247 -0.188746 -0.103461 0.402948 -0.175487 -0.011319 -0.245521 -0.583322 0.434564 0.114152 -0.000209 0.198727 0.230360 -0.324008 -0.243750 0.008421 0.293037 0.284028 0.464507 -0.103831 0.323671 -0.143196 0.056796 0.150812 0.373155 0.499107 
pineapple 0.112691 0.568495 0.176028 0.547402 -0.059076 0.460894 0.362923 -0.119492 0.323540 0.285807 0.435180 -0.079443 0.280337 0.283320 0.063438 0.738577 0.020769 -0.016394 0.017622 0.237537 -0.011491 -0.134134 -0.815200 -0.213506 0.571075 -0.266007 -0.606959 0.978171 0.237483 0.551447 -0.450616 -0.019013 0.194795 -0.250612 0.784855 0.118235 -0.010536 0.890777 -0.523308 -0.214196 -0.113722 -0.359023 0.238691 -0.012994 0.111082 0.325570 -0.190041 -1.059103 0.620438 0.407710 0.352182 -0.182946 -0.642344 0.240715 -0.402381 -0.927429 -0.198637 -0.080863 0.008792 -0.313025 -0.591993 0.029530 0.708963 0.098230 0.350437 0.061787 0.180472 0.070956 0.664454 0.203596 -0.222575 0.175058 -0.001196 -0.796575 0.261511 -0.113378 0.535984 -0.880312 0.653872 -0.101103 
shrimp 0.154217 -0.351418 0.109026 -0.226589 0.073847 -0.503144 -0.315437 -0.181548 -0.586068 0.397808 -0.028385 0.355216 -0.746441 0.523158 -0.223946 0.763904 -0.435039 -0.321794 -0.053144 0.286640 -0.485634 0.383222 -0.936836 -0.851475 0.234548 -0.326756 0.406814 0.348084 0.132346 0.452738 -0.109753 0.903078 -0.967323 0.689234 -0.016632 0.863124 -0.280972 0.199874 -0.441607 -0.383698 0.194817 -0.087778 -0.353073 -0.603968 0.406969 -0.232197 -0.443470 -0.546469 0.802751 0.474384 0.093455 0.138528 0.515151 0.183281 -0.524034 -0.094742 -0.082310 -0.432368 0.421264 0.076652 0.520379 -0.958307 -0.896690 0.356321 -0.493244 0.854745 0.607224 -0.843588 -0.056275 0.724600 0.016154 -0.802636 -0.147018 -0.299122 0.055820 -1.030753 -0.625981 -0.282118 0.639035 -0.698721 
coriander 0.548948 -0.659151 -0.707996 2.114559 -0.168472 -0.571531 -0.138966 0.768305 -0.253396 0.031271 -0.248687 -0.548255 0.123748 -1.193492 0.004956 -0.032777 0.592889 -0.629803 0.337026 0.247157 -0.220435 -1.509337 -0.209322 -0.018545 1.182594 0.037533 0.323166 0.108736 0.356598 -0.071153 0.348481 0.220850 -0.872566 0.370582 0.243972 0.241199 -0.165569 0.185634 -0.436803 0.067430 0.500426 -0.332267 1.123080 -0.899046 0.308871 0.683201 -0.250504 -0.186502 0.657232 0.541947 -0.557590 -0.795988 0.866381 0.117226 0.107564 0.602478 0.290006 0.933311 0.685644 0.165449 0.650529 -0.568651 -1.529625 -0.136603 0.785634 -0.528253 0.489343 -0.938329 0.844413 -0.976750 -1.032158 0.961679 -0.624374 -0.498829 0.757869 -0.672800 -0.879172 -0.170786 -0.066385 1.361079 
bay -0.433172 -0.953565 0.102393 -0.546880 -0.133881 0.745464 -0.270550 0.587870 -0.585001 0.417080 -0.374385 0.260735 -0.384313 0.300737 0.077357 -0.655326 -0.760453 0.256023 -0.549007 -0.272507 0.351961 -0.441204 -0.302713 -1.092730 0.031705 -0.287725 0.062919 0.455992 1.073848 0.491501 -0.854948 1.009606 -0.337466 -0.268482 -0.008133 0.433600 0.745957 -0.242177 -0.078809 0.320538 0.027825 -0.767612 0.082808 -0.073032 -0.809261 0.446870 0.585297 0.764107 0.693852 -0.451105 0.017934 0.345625 0.849786 0.626654 0.183286 0.081275 0.306631 -0.081028 1.075555 0.063140 -0.276920 0.148968 -0.865423 -0.514672 0.309381 -0.364814 0.603058 0.187822 0.786355 0.458954 0.267501 -0.764021 -0.421786 0.116853 -0.402494 -0.538715 -0.215676 -0.913910 -1.086710 0.476909 
lime_juice -0.286067 0.160037 -0.588907 1.142199 -0.469223 -0.626614 -0.833800 -0.222036 -0.385212 0.273740 -1.220174 -0.498665 -0.286114 0.271211 0.246015 0.730580 0.379622 -0.444460 -0.380320 0.604095 -0.767560 -0.025383 -0.779583 -0.904481 -0.149091 -0.599596 -0.151531 0.039162 0.549926 0.187224 -0.408359 0.965500 -0.703121 -0.591594 0.340463 -0.478062 -0.187826 1.018797 -0.129497 -0.318578 0.252122 -0.623621 0.913776 -0.563327 0.870876 0.263701 0.302404 -1.153599 1.360157 -0.159027 -0.739413 0.299487 0.053343 -0.395215 -0.464304 0.023525 -0.366767 -0.854117 0.542767 0.755624 0.136519 -0.165145 0.108353 -0.402970 -0.290174 -0.228601 0.710815 -0.638518 -0.548824 0.175884 0.503163 0.323048 0.099799 -0.297342 0.466853 -0.284009 -0.043143 0.670400 0.898453 0.003099 
red_wine -0.093301 0.785535 -0.167290 -0.127901 -0.477208 0.095240 0.372131 0.371276 0.238325 0.298935 -0.303277 1.289700 -0.342850 -0.174969 -0.726563 0.013478 0.751400 0.077234 -0.271322 0.024139 0.048086 -0.260143 0.431984 -0.513800 0.134794 -0.124515 -0.192352 0.217596 0.660089 -0.147651 -0.669839 0.415063 0.227831 -0.172215 -0.215987 -0.110133 0.052440 0.445527 0.312559 0.521913 -0.575970 -0.577314 0.228399 -0.664703 -0.627491 -0.206490 0.243653 0.573632 0.607856 -0.194596 -0.923198 0.044626 0.147759 -0.360727 -0.613093 -0.264465 -0.385192 0.087977 0.288651 0.243751 -0.253990 0.588631 -0.329857 -0.190721 0.391199 -0.258588 -0.625489 -0.044439 0.036770 -0.173947 -0.504947 0.174289 0.578187 0.226415 -0.489558 -0.768876 -0.336371 -0.653861 -0.186584 0.332608 
gelatin 0.345750 -0.673316 0.243089 0.083970 -0.066449 0.012926 0.462346 -0.383229 0.113375 -0.528828 0.519277 0.126457 0.594793 0.073459 0.390050 0.624165 1.255992 0.442086 0.045811 -0.442785 -0.358203 0.088337 -0.975519 0.168965 0.360795 0.406727 -0.745739 0.499400 -0.392822 0.566401 0.134611 0.285999 -0.141442 0.098614 0.218485 -0.144297 -0.452007 0.817370 -0.479457 -0.534021 -0.122238 0.481804 0.205126 -0.354379 0.255114 -0.401704 0.057250 -0.382400 0.284958 -0.267962 0.002090 -0.290808 -0.969356 0.391190 0.862647 -0.384744 -0.362561 0.394357 0.001239 -0.810114 -0.619547 0.316610 0.127176 0.118790 0.239865 1.482977 -0.285269 -0.132493 -0.024590 -0.194045 -0.085126 0.543960 0.312504 -0.184324 0.857676 0.604502 0.142987 -0.769954 0.306356 0.407722 
pork_sausage -0.231134 -1.475380 0.731969 -0.390939 -0.929126 0.660271 0.532764 0.114237 -0.608606 -0.482923 0.304730 0.521938 -0.914927 -0.185621 0.658235 -0.013728 -0.956280 -0.842569 -0.480164 1.251279 -0.544850 -0.009616 -0.556093 -0.681735 -0.166611 -0.421021 0.179059 0.504567 0.091595 0.061135 0.133728 0.426166 -0.058783 -0.191952 -0.869576 -0.442160 0.887794 -0.183630 -0.769603 -0.246087 -0.630815 -0.349205 0.328218 -0.005344 -0.430700 0.330441 -0.618607 -0.051176 0.358235 -0.242949 -0.302463 0.096380 0.009010 0.136812 0.511141 0.153709 -0.188397 -0.159392 0.249580 0.418609 -0.359729 -0.602067 -0.029905 -0.152065 -0.271729 0.325119 -0.243041 0.225169 0.240092 -0.881258 -0.808993 -0.546983 0.570556 0.453225 -1.062014 -0.707434 -1.028139 0.726311 -0.885618 -0.694533 
sesame_oil 1.201947 -0.646033 0.751983 0.255971 0.655126 -0.297925 -0.400971 -0.691684 1.253524 1.497193 -0.197561 0.551210 -0.301349 0.039373 0.145795 0.828260 0.205306 -0.489654 -0.372398 0.742528 0.771960 0.905912 -0.595299 -0.545284 0.369609 -0.027898 -0.164668 -1.062918 0.327074 -0.127629 -0.606571 -0.013610 -1.995151 -0.830384 0.373940 0.742792 -1.242621 0.316867 0.198291 0.012886 -0.062532 0.015978 0.363148 -0.273938 1.589551 0.490752 -0.312963 -0.648209 1.309736 0.681386 0.488508 0.732019 -0.057676 -0.023670 -1.727927 -0.088428 0.387038 -0.352783 -0.290672 -0.385624 0.611980 -0.888483 0.235320 0.061782 0.103536 0.518048 -0.297053 -0.827400 0.627315 1.213072 -1.867549 0.634675 -0.748212 0.051434 -0.657981 0.608581 -0.691123 0.209971 0.485516 0.631581 
chive -0.291056 0.727953 0.021281 -0.034409 0.074359 -0.195124 0.455233 -0.366131 0.290483 0.302910 -0.281689 0.415201 0.216241 0.343580 0.303926 -0.116449 0.289849 0.339657 -0.251826 -0.367649 -0.529661 -0.008820 0.768819 0.113396 -0.449691 -0.302765 0.272372 0.443681 0.231811 -0.000760 0.279208 0.422787 1.111803 -0.013971 0.693561 0.232659 0.262615 -0.703849 0.302591 0.198292 -0.392683 0.881127 0.017396 -0.437247 0.934733 -0.309791 -0.073624 0.540306 0.381540 -0.096583 0.263389 -0.364251 0.103128 -0.333936 -0.803528 -0.011214 0.040671 0.220637 0.643907 -1.723473 -0.245926 0.442224 -0.041392 0.240998 0.384761 0.997309 -0.123584 -0.677180 -0.961862 0.342843 0.665272 -0.271488 -0.342817 0.365413 0.870925 -0.380869 0.434274 0.326834 -0.312845 0.046029 
seed 0.427839 -0.190949 -0.356123 -0.034182 -0.448423 -0.189377 0.059941 -0.924517 -0.130869 0.322085 -0.299731 0.669615 0.206811 -0.227144 0.581579 -0.835681 0.735285 -0.262175 -0.605304 -0.438759 -1.010983 0.003845 -0.002775 -0.042852 0.030367 -0.244828 -0.056305 -0.148437 0.507144 -0.337746 -0.987217 0.581629 -0.288645 0.390811 0.319619 -1.399151 0.147105 0.525989 0.274926 -0.552125 -0.100999 0.060826 0.835108 -0.233210 0.253657 0.161284 -0.654753 0.196669 -0.170202 0.430358 -0.090528 0.459118 0.419423 0.641877 -0.074557 -0.137212 0.393022 0.351646 -0.402999 -0.376274 -0.147408 0.106746 -0.145436 0.432676 0.483723 -0.484912 -0.123419 0.036484 -0.158201 -0.213821 -0.252187 0.129901 0.234330 -0.262775 0.539578 -0.270893 -0.326878 -0.059763 -0.373511 0.497744 
mozzarella_cheese -0.103504 -0.023850 0.137725 -0.742041 -0.421695 -0.388286 -0.031208 0.614607 -0.757767 0.019865 0.687527 -0.393834 -0.291299 1.039474 -0.070455 0.257883 -0.283493 -0.190821 0.934568 0.399553 0.498706 0.626614 -0.537014 0.306231 -0.056734 0.113264 0.315082 -0.322286 0.112794 -0.623097 -0.368174 0.244108 -0.109403 -0.028097 -0.234814 -0.297554 0.767685 -0.918171 0.299655 -0.273269 -1.474262 -0.643453 -0.508897 0.030384 -0.563787 0.538974 -0.221928 0.124909 -0.193809 -0.275585 -0.230591 0.454306 -0.071218 -0.183442 -0.488319 0.484836 -0.408796 -0.253746 -0.015653 -0.710136 -0.373664 -0.568174 -0.452542 -0.408788 -0.482119 0.267983 -0.068337 0.666186 1.014107 -0.708422 -0.014354 -1.047132 0.917310 0.993603 -0.799964 -0.018067 -0.573709 0.521558 -0.071963 -0.282969 
ham 0.141603 -0.228034 0.559451 0.201661 -0.006932 0.281257 0.217225 0.099093 0.163352 0.191840 0.212893 0.213694 -0.002852 -0.437374 0.346055 -0.042025 -0.152841 0.038373 -0.749016 0.032126 -0.389580 -0.254247 -0.366191 0.369532 -0.254468 0.303281 0.163667 0.474400 0.029875 0.221315 0.202867 0.312456 0.444421 -0.119296 -0.392808 0.134957 0.915489 -0.168069 0.277252 0.218789 -0.993364 0.037068 0.679707 0.060024 0.080188 -0.823758 -0.174750 -0.075056 -0.123290 0.509730 -0.225586 -0.496064 -0.276734 -0.401105 -0.257430 0.433047 0.137839 0.361549 -0.043754 0.024475 -0.283009 -0.479405 0.013562 -0.001228 -0.619135 1.366910 -0.004975 0.008082 0.715601 -0.725330 0.131640 -0.081256 0.376895 0.588706 -0.623259 0.040806 -0.377135 0.329393 -0.301735 -0.447622 
oat 0.177851 -1.106355 0.046723 -0.346996 -0.583309 0.304417 0.190824 0.399977 0.925439 -0.823015 0.522978 -0.280479 0.139932 0.430403 -0.146453 -0.108146 1.084090 0.991473 -0.425615 -0.587173 0.227686 -0.172848 0.535621 -0.360895 0.231927 0.151035 -0.871746 0.523777 -0.864455 -0.477797 0.165045 0.179133 0.338732 -0.223537 -0.107088 -0.991123 -0.645933 -0.024662 -0.165408 0.102514 0.366060 -0.216034 -0.010661 -0.670977 -0.127219 0.178897 -0.811621 -0.209347 -0.415473 -0.709976 0.758658 0.115747 0.809704 0.243700 0.247500 -0.652552 0.221202 0.425952 0.059065 -0.458856 -0.905568 0.558863 0.254572 -0.023343 0.568151 0.408681 0.225037 0.016520 -0.015539 0.186622 -0.871301 0.234461 -0.133092 -0.732912 -0.328274 0.011273 -0.229557 -0.090859 0.166795 0.720366 
turmeric 0.200983 -1.188613 0.237124 2.124080 -1.028844 0.256980 -0.281618 -0.382951 0.089743 0.094988 -0.098030 -0.195324 0.568869 -0.525828 0.095879 0.062772 0.847761 -0.305707 -1.099066 0.240411 -0.151320 -2.137653 -0.844918 0.061395 0.900560 -0.329361 0.139664 0.035739 0.422562 -0.102991 0.881990 0.871223 -0.780066 0.379523 0.236539 0.316992 0.272610 0.552059 -0.817656 0.042206 0.969144 -0.513985 1.215596 -0.731311 -0.094051 0.036695 1.058229 -0.256898 0.736476 -0.466785 0.011230 0.307517 0.769239 0.357373 0.042773 0.677811 -0.196064 0.178220 1.610866 -0.123351 1.770323 0.137129 -0.896802 -0.008721 -0.186597 -0.293463 0.650215 0.014850 0.748978 0.784763 -0.272538 1.911983 -0.160898 0.088864 1.047823 -0.435355 0.402395 0.901248 -0.996051 0.533258 
nut 0.715254 -0.098639 0.095755 -0.610377 0.364764 -0.421646 0.311863 0.344829 -0.000914 -0.119543 -0.133499 -0.381738 -0.117309 -0.203402 0.152183 -0.090977 0.508942 -0.314676 0.653212 -0.189417 0.172215 0.022696 -0.176087 -0.269128 0.672007 -0.295805 -0.257615 -0.120464 0.254350 -0.592105 -0.901691 0.313445 -1.046505 0.295065 -0.042755 -0.046563 -0.296037 -0.128895 0.381958 0.092165 -0.378868 -0.628809 0.428662 0.022112 -0.267072 -0.236789 -0.106090 0.022967 -0.230911 0.137187 -0.132155 -0.198605 0.206451 0.048787 -0.154960 -0.290311 0.417730 0.320614 -0.433046 -0.110584 -0.259847 0.647057 -0.118196 0.171280 -0.231392 0.135284 0.033536 0.218253 -0.500630 0.275493 -0.120872 0.761366 0.454092 0.142075 -0.156315 0.122867 -0.141453 -0.377466 -0.208786 -0.131205 
shallot -0.131734 0.128134 0.070206 -0.138660 0.382255 -0.255515 -0.053545 0.057760 0.024411 0.481308 -0.135519 0.633591 -0.414043 -0.037993 -0.757465 0.022769 -0.022672 0.006804 0.128736 0.067163 -0.114462 -0.039531 -0.085799 0.018861 0.299388 -0.502459 0.129778 0.336015 0.272471 0.809906 0.081793 0.656613 -0.304145 -0.458800 0.299121 0.755849 0.037540 0.291685 -0.379442 -0.119624 0.225370 -0.753429 -0.129718 -0.680301 -0.209739 -0.396804 0.279590 0.232427 0.568491 -0.036473 -0.788905 -1.309345 0.171060 -0.082100 -0.755596 0.156459 0.427819 0.358680 0.682265 -0.788651 0.644479 0.169298 -0.006392 0.562036 0.142691 0.274354 0.227216 -0.101530 0.097075 -0.269306 0.511932 -0.830985 0.495990 -0.168861 -0.385790 -0.452287 -0.094361 0.104055 -0.465283 -0.173662 
lettuce -0.098156 0.712832 -0.618713 0.292872 0.308598 0.329934 -0.129821 -0.543146 -0.415825 -0.368505 -0.400489 0.005115 0.388790 -0.265541 -0.025653 0.993291 0.521344 -0.340856 0.148988 0.113831 0.048425 0.633131 -0.114775 0.461922 0.281429 -0.989151 -0.174432 0.016440 0.695333 0.217044 -0.474302 -0.684633 -0.249786 0.593121 -0.272825 -0.629441 -0.230136 0.548504 0.664367 -0.091443 0.056144 -0.162897 0.916101 -0.301868 0.526781 -0.383101 -0.133205 0.084868 0.842611 0.448048 -0.190624 -0.617511 0.126407 -0.405192 -0.376189 -1.001554 -0.397988 0.254171 0.194344 -0.606521 0.451960 0.589711 -0.244041 -0.013192 0.268638 -0.119675 0.132216 -0.276929 0.391994 -0.017856 0.292803 -0.174389 0.361578 0.643497 -0.584987 0.121003 -0.461564 0.686081 0.538840 0.087006 
cider 0.406632 0.109065 -0.660761 0.477135 -0.061899 -0.193535 -0.235764 -0.185957 0.425149 0.540334 -0.316513 1.478576 0.046842 -0.384434 -0.575846 -0.620449 -0.035757 -0.025925 -1.511837 0.058367 -0.613339 -0.553724 0.249665 -0.367307 -0.567365 -0.359286 -0.566871 0.037605 0.510378 -0.482886 -1.044655 -0.003920 -0.011861 0.257382 0.153348 -0.636266 -0.313557 0.566289 -0.246961 0.493136 -0.017075 -0.137116 0.658661 -0.613301 0.014879 -0.409342 -0.528096 -0.025949 0.354127 0.102126 -0.230673 0.527075 0.080206 -0.420006 0.100388 -0.803358 -0.207915 0.905441 0.438188 0.298480 -0.676620 0.249461 0.294537 0.032662 0.122394 -0.135240 -0.211190 -0.001091 -0.034671 0.098572 -0.234703 -0.075789 -0.216053 0.199710 0.251396 -0.542315 -0.404250 -0.479933 0.324094 0.480140 
dill -0.229576 0.018883 -0.005923 0.208942 0.473773 0.788296 -0.030784 -0.397584 -0.219667 0.510307 0.110663 0.267535 -0.321328 0.206532 0.409565 0.167186 -0.123141 0.150412 -0.113295 -0.514921 -0.287850 -0.076555 -0.115703 -0.148546 -0.249251 -0.376327 0.194141 -0.177939 0.557110 0.281047 0.353757 0.017291 0.502987 0.184765 -0.292611 -0.180700 0.833625 -0.041396 1.007173 0.090080 0.132177 0.671493 -0.077106 -0.539254 0.307408 0.179547 -0.111511 0.826516 0.879547 -0.095550 -0.456552 -0.120790 0.225078 0.055736 -0.073260 -0.409350 0.102371 0.733763 0.554467 -0.920063 -0.046109 0.398957 -0.218606 0.870869 0.703710 0.067558 0.526998 -0.038461 0.199490 -0.049163 0.277367 -0.155220 0.185018 0.183655 -0.168179 -0.684048 0.570167 0.632704 0.314717 0.350177 
pea 0.347803 0.029809 0.514331 -0.321834 0.002566 -0.339216 -0.021880 -0.571030 0.261954 0.325246 -0.440514 0.207297 -0.178801 -0.001898 0.472970 -0.097815 -0.359344 -0.219083 0.234225 0.126291 -0.058194 -0.496249 -0.010812 -0.214675 0.259707 -0.873863 -0.241750 -0.265588 0.560517 -0.310249 0.292103 0.115273 -0.682923 0.359225 0.523405 0.339959 0.955822 -0.029270 -0.046910 0.195806 0.526811 0.450295 0.368846 -0.494075 0.029547 0.692288 0.086705 0.048473 0.160471 -0.012352 -0.268039 -0.110928 -0.036071 0.063469 -0.411890 0.034734 -0.064432 -0.066168 0.421747 -0.090991 0.435358 -0.000799 -0.478143 0.552848 -0.171817 0.258582 0.770374 -0.117388 -0.013292 -0.155007 -0.237647 0.314883 -0.235901 0.330060 -0.039771 -0.331630 -0.067619 0.331634 -0.113314 0.005917 
zucchini -0.456773 -0.097625 0.149532 -0.371823 -0.753077 0.337108 -0.201032 0.369276 -0.396890 -0.043068 0.187957 -0.699799 0.180923 -0.214454 0.084797 -0.455881 0.331944 -0.368247 0.847576 0.392973 -0.358725 -0.570321 0.138467 -0.168900 0.583357 0.254076 0.747113 -0.412952 0.895979 -0.544562 -0.322880 0.254999 0.079354 0.090650 0.199658 -0.003218 0.531334 0.140749 0.616784 0.228264 -0.680935 -0.180898 0.217697 -0.782428 -0.417235 0.199408 0.056095 -0.146618 -0.099027 -0.172901 0.039335 0.028171 0.440461 0.516628 -0.324978 0.061504 0.053427 -0.578697 0.026649 0.371194 -0.012881 -0.452824 -0.622768 -0.107536 -0.196087 0.013011 0.147685 0.059740 0.390244 0.155561 0.339882 0.094733 -0.212682 0.058733 -0.487447 -0.030524 -0.223154 -0.038934 -0.516563 0.474101 
cherry -0.601014 -0.184587 -0.432537 0.525942 -0.075015 -0.363835 -0.274111 0.008189 0.267621 -0.537048 0.070665 0.591384 0.539130 0.203577 -0.389814 0.340369 0.868367 0.419305 0.289284 0.099873 0.278401 0.115997 -0.031122 0.419685 0.512948 -0.183576 -0.675682 0.683301 0.316188 0.117046 -0.009644 0.540591 -0.116698 -0.378528 -0.159089 0.025826 0.002349 0.165454 -0.218850 -0.516661 0.006270 0.287130 0.334318 -1.206930 0.062359 -0.189571 -0.050562 -0.434448 -0.176499 -0.068005 -0.496669 -0.302807 -0.661835 0.320557 0.070562 0.395198 0.196774 0.096319 -0.214084 -0.913231 -1.080923 0.713982 0.675642 0.064462 0.148068 0.580571 0.174427 1.090411 -0.439569 -0.028692 -0.073082 0.713944 -0.053219 -0.796556 0.341596 0.460654 0.178490 -1.193388 0.551154 0.367299 
lime -0.283249 -0.394092 0.151729 1.369609 0.221400 0.276703 -0.616305 -0.449521 -0.179777 0.220624 -1.039969 -0.340156 0.328547 0.212108 -0.078863 0.719744 0.375164 -0.688686 -0.236619 0.213193 -0.585648 0.219094 -0.731443 -0.352270 0.298980 0.006613 0.147302 0.401476 -0.020038 0.962627 -0.423274 1.176352 -0.233835 0.106278 0.591702 -0.190211 -0.214703 0.904523 0.085522 -0.265597 0.289595 -0.372275 0.749228 0.096773 0.450223 0.606062 0.535480 -0.591571 0.594022 -0.287441 -0.582262 -0.199593 -0.524749 -0.257112 -0.368578 0.052179 0.328749 -0.675918 -0.130309 0.143523 0.438947 0.401056 0.401387 -0.129424 0.115216 -0.175179 -0.182589 -0.552599 -0.128661 0.405772 0.415455 0.114557 0.192703 -0.220799 0.366036 -0.392446 -0.245930 -0.122413 1.222864 -0.241822 
yogurt -0.093049 0.330526 -0.458707 1.134714 -0.180463 0.438444 0.087036 -0.140205 0.078374 -0.312962 0.141186 -0.345324 0.497334 0.043959 0.513163 0.320648 0.375661 0.050305 0.056497 -0.318151 -0.096851 0.076767 -0.252973 -0.351640 0.654236 -0.394763 0.350442 0.277994 0.529220 -0.039923 -0.470589 0.291150 -0.108653 0.035573 0.086706 -0.120171 -0.472056 -0.207767 0.655121 0.456667 -0.264195 -0.101390 0.764318 -0.519932 0.891416 0.303403 -0.400365 0.598127 0.403581 0.060454 -0.131859 -0.319156 0.236981 0.066674 0.355667 -0.044302 0.343387 0.850460 0.513432 -0.048616 0.290623 0.385949 0.061590 -0.053474 0.148954 -0.560257 -0.260978 -0.095699 0.410160 -0.279191 -0.008489 0.479794 0.291188 -0.506118 0.757144 -0.144863 0.213340 0.315186 -0.110633 0.554732 
strawberry -0.316802 -1.250491 0.218660 0.471696 -0.071197 0.526526 0.049971 -0.333619 -0.136672 0.124462 0.785706 0.593854 0.421505 0.746211 0.459321 0.689161 0.717587 0.987462 0.470573 -0.082892 -0.222728 0.629838 -0.546010 -0.062710 0.868489 0.085083 0.387140 0.689090 0.259733 0.409724 -0.959088 0.658603 0.334997 -0.376126 0.372138 -0.519250 -0.789616 0.241707 -0.163584 -0.134320 -0.025353 -0.294972 -0.799233 -1.028617 0.268211 0.079076 -0.778609 -0.293132 -0.360979 0.045463 -0.834564 -0.591018 -1.159936 0.630266 0.581801 -0.155262 -0.335184 0.289010 -0.490873 -0.632147 -0.117741 0.381229 1.290335 -0.465429 0.669001 1.019268 0.196153 0.502872 0.153225 0.140134 0.047741 0.444048 0.695614 -0.556781 0.665618 0.107325 0.894033 -0.490800 0.570344 0.689436 
soybean 0.120632 -1.069714 0.137491 0.190039 0.278538 0.421897 -0.755651 -0.934236 0.561958 1.645427 -0.017112 0.230243 -0.276876 -0.062031 -0.404447 -0.394038 0.413011 0.229123 0.184256 0.111470 0.087312 0.765887 -0.227385 -0.253372 0.462289 0.090557 -0.000133 -0.465774 0.051174 0.141742 -0.227186 0.374728 -1.987897 0.092420 -0.314685 0.203623 -0.321883 -0.646988 0.117345 -0.166852 0.618162 -0.053046 0.099704 -0.916419 1.013648 0.059956 -0.781528 -0.381497 0.350540 0.841261 0.082779 0.880405 0.090437 -0.401502 -0.448273 0.151790 0.363353 0.001734 -0.537891 0.218230 0.910726 -0.020008 0.020045 0.349758 0.079066 0.028874 -0.264196 -0.182679 0.487130 0.437818 -1.227842 0.982130 -0.327037 0.328579 -0.289378 0.175121 -0.624432 0.409674 0.426293 0.705972 
celery_oil 0.350111 0.401910 0.161816 0.607636 -0.475462 -0.223133 -0.863413 -0.755292 -0.138074 0.291631 0.215213 1.160414 -0.263671 0.753873 0.057332 0.235314 0.404311 0.382629 -1.659355 1.349445 0.145651 0.669802 0.779508 -0.572821 -0.578915 -1.341641 -1.998462 -0.026926 0.290625 1.365912 -0.287909 -1.320113 0.266970 0.124090 -0.155780 -1.380382 0.108296 -0.107683 -0.467299 0.252943 0.274074 -0.017932 0.530337 -0.031207 -0.577124 0.300055 -0.171142 0.105961 0.125275 0.768823 0.227243 1.110839 -0.068346 -1.346250 0.094836 0.223071 -0.570941 0.304590 0.240059 0.320112 -0.224433 -0.347832 -0.920651 -0.463078 0.051738 -0.459767 0.539967 0.889755 0.722957 -0.205429 -0.540802 -0.971789 -0.997840 0.523190 -0.520463 0.305887 -0.140627 -1.163488 0.977180 0.420307 
peanut_butter -0.368466 -1.133874 0.435634 0.441668 0.414129 0.514869 0.055604 0.156282 -0.041273 -0.373552 0.054871 -0.759065 -0.036663 -0.367240 0.319014 0.194949 -0.001752 0.674470 -0.092850 -0.041593 0.592368 -0.178415 -0.133992 -0.344025 0.126368 -0.324129 -0.246075 0.640948 -0.148287 -0.683376 0.591662 -0.670422 -0.875797 -0.178032 0.043752 -1.090466 -0.842149 0.635225 -0.926288 0.003336 1.253701 -0.508455 0.608429 -0.099922 0.840696 0.461645 -0.579104 -0.719245 -1.010845 -0.423890 0.558368 -0.326098 -0.086118 -0.620386 -0.376895 0.138678 -0.006436 -0.130769 -0.171076 0.015507 0.752252 0.255410 0.291743 0.210428 -0.256207 1.049795 1.193257 -0.261520 0.000712 0.099266 -0.497750 1.091082 -0.634019 -0.313320 -0.629633 0.324008 -0.066592 0.613280 0.947157 0.398124 
banana -0.217455 -0.155819 -0.010758 0.552922 -0.335193 0.202488 0.398819 0.308983 0.061798 -0.424327 0.432272 -0.376736 0.142380 0.458803 0.438271 0.571787 0.710430 0.469365 0.274949 -0.604363 -0.112344 -0.296610 -0.927281 -0.213044 0.516646 0.211693 -0.261455 0.398613 -0.117337 0.166808 -0.238495 0.217676 -0.112112 -0.325534 0.293244 0.043319 -0.479060 0.361775 -0.166814 0.022148 0.068959 -0.405431 0.073272 -0.699660 0.422050 0.010870 -0.108620 -0.595079 -0.124636 -0.067454 0.226220 -0.163117 -0.082968 0.417468 0.029835 -0.477675 -0.050915 -0.162011 0.083951 -0.262213 -0.507368 -0.083174 0.523099 0.247139 0.357210 0.546525 0.264154 0.346957 0.344895 -0.006422 -0.177542 0.396691 0.069245 -0.682664 0.256425 0.586575 0.386105 -0.588157 0.865282 0.293803 
meat -0.001404 -0.383792 -0.027389 0.004967 -0.127609 0.203350 0.069936 -0.049643 0.005869 0.007510 0.044563 0.367769 -0.716115 -1.010295 -0.392545 0.467586 -0.208905 -0.599979 -0.291722 0.079182 -0.056328 0.116187 0.087943 0.118088 -0.085100 -0.346370 -0.308725 0.219806 0.045161 -0.253243 -0.762626 0.072657 -0.450186 -0.485415 0.142297 0.553846 0.161038 -0.340929 -0.483455 -0.027581 -0.010327 -0.456416 0.726711 0.190651 -0.328112 -0.099697 0.484329 0.377862 0.913355 0.087525 -0.140234 0.151206 -0.068243 0.216528 -0.025913 -0.140844 0.001259 0.321599 0.080153 -0.075572 -0.190835 -0.230359 0.333596 0.309890 0.023106 -0.084575 -0.101688 0.418135 0.238290 -0.809992 -0.750808 -0.353268 -0.290078 0.057440 -0.716067 0.397306 -0.482574 -0.273696 -0.387697 -0.126457 
tabasco_pepper 0.175174 -0.548862 0.503619 0.195740 -0.023471 -0.101043 -0.571035 -0.372802 -0.501177 0.257765 -0.117798 0.273175 -0.547794 -0.202107 -0.172395 0.353322 -0.602504 -0.168091 -0.991170 -0.079519 -0.531423 0.592404 0.004200 0.216361 -0.125189 -0.113820 -0.417470 -0.063229 -0.084420 0.651794 -0.523789 0.274072 0.265615 0.381854 -0.406863 -0.830329 0.085066 -0.051817 0.007857 -0.151759 0.356283 0.167342 0.583860 0.082499 -0.359867 0.313983 0.213132 0.227185 0.212804 0.264014 -0.080269 0.313206 0.150819 -0.158865 -0.190630 0.224056 0.119802 0.186723 0.402865 -0.049243 -0.063249 -0.428791 -0.360637 -0.417449 -0.068120 -0.111856 0.249265 0.222354 0.216636 0.522413 0.505159 -0.369317 -0.473933 0.155228 -0.318904 -0.044341 -0.010401 -0.347953 0.288343 -0.357774 
milk_fat -0.410547 -0.371436 -0.434253 -0.026527 -0.270132 0.310927 0.279572 0.230304 0.272352 -0.886655 0.017930 0.067444 0.697922 -0.100884 0.341989 0.018814 0.247290 0.227275 0.268618 0.055748 -0.129476 0.183382 0.613655 0.041077 0.152069 0.410344 0.826731 0.098071 -0.192250 0.147112 0.136128 0.720925 -0.115047 -0.213565 -0.238681 0.178819 0.410456 -0.646037 -0.234660 0.024041 -0.144474 -0.126569 -0.256264 -0.168160 -0.250194 -0.157229 0.107967 -0.073645 0.309076 0.425861 -0.197367 -0.801126 -0.701528 -0.465047 0.066087 0.626027 0.749723 0.402043 0.136680 0.017602 0.557443 0.169235 0.256150 0.553517 -0.156149 0.337640 0.012823 -0.194062 -0.863041 -0.116101 0.418526 -0.777604 -0.254667 -0.367162 -0.113688 0.278763 0.069548 -0.639678 0.312017 -0.067792 
cabbage 0.240634 -0.094504 0.382323 0.321282 0.042556 0.199092 0.064333 -0.777742 0.577742 0.777382 -0.407050 0.292674 0.001433 -0.787412 0.175347 0.015421 -0.217095 -0.244266 0.000278 0.029966 -0.710665 0.158847 0.166418 0.176485 0.214768 -1.140339 -0.364394 -0.141011 0.461499 -0.334388 -0.374455 -0.396213 -0.000488 -0.376979 0.480488 -0.081569 -0.027436 0.323113 -0.314162 0.524625 0.800145 -0.016329 0.108532 -0.522000 0.062651 0.349302 -0.452902 -0.174868 0.078166 0.241013 0.035062 0.197729 0.039946 0.169008 -0.515818 -0.760299 -0.165726 0.618418 0.192305 0.171266 0.430763 -0.460515 -0.153574 0.666505 0.315555 0.158646 -0.028182 -0.144605 0.770092 -0.015200 -0.501933 -0.017391 -0.258449 0.027230 -0.463351 -0.498112 -0.756045 -0.032400 0.374533 0.546724 
mint 0.681634 -0.053448 0.040780 0.363735 -0.064191 0.158316 -0.270966 -0.381489 0.038185 0.156352 -0.572201 0.090658 -0.038645 -0.011163 -0.064186 0.730137 0.791265 -0.523073 0.332326 -0.530514 -0.126854 0.025363 0.078967 -0.844781 0.510886 -0.405886 0.105362 0.682695 0.597400 0.682075 -0.191188 0.722448 -0.636923 -0.058458 -0.037700 0.263715 -0.227439 0.634108 0.547462 0.224605 -0.033641 -0.188133 -0.161949 -0.656782 0.739583 0.314808 0.532041 0.115296 0.061728 0.299517 -0.641032 -0.665886 0.607291 0.094719 0.214097 -0.799860 1.097962 -0.082205 0.066815 -0.184195 0.428539 0.450223 -0.007820 -0.947080 -0.024115 -0.335687 -0.631470 -0.486688 -0.289158 -0.168910 0.282284 0.464531 0.480160 -0.317022 0.417414 -0.271154 -0.008958 0.078906 0.104617 0.551059 
fennel 0.874129 -0.355311 -0.031885 -1.126201 -0.661834 -0.242716 -0.123043 0.274933 0.546488 0.239676 -0.175162 0.214544 0.895522 0.066476 -1.077889 0.426750 0.844066 -0.126707 0.739568 -0.571384 -0.600577 0.193014 0.474029 0.219032 0.442467 0.164872 0.708824 1.042138 0.648954 -0.707150 -0.037931 1.077283 -0.010033 0.223744 0.773868 -0.067498 0.380961 0.130499 0.033114 -0.382125 -0.924022 -0.777547 -0.479002 0.612715 -1.052406 -0.117772 0.937142 0.815760 0.162559 -0.194704 -0.899970 -0.365728 0.848024 0.071754 -0.296069 0.550196 0.039166 0.134044 0.999178 -0.324444 0.236899 -0.483019 -0.341668 0.062892 -0.158816 -0.600606 0.541253 -0.491368 0.214638 0.390688 -0.019962 -1.263818 0.498070 0.376555 -1.031698 0.133283 -0.680796 -0.323185 -0.633672 0.289224 
sage 0.259885 0.245917 0.300411 -0.752931 -0.158567 0.367889 0.495683 0.092452 0.952568 -0.537293 0.311807 -0.538409 0.338346 -0.190469 0.609692 -1.109662 -0.196899 -0.171172 -0.170992 0.617172 -0.074958 -0.401099 -0.458556 -0.576439 -0.394620 -0.542089 -0.538573 0.470038 0.166374 0.671922 -0.047131 -0.045396 -0.570908 -0.714740 -0.193930 1.068791 1.280402 -0.311656 -0.450946 0.039153 -0.571505 -0.696384 -0.457639 0.195942 -1.455970 -0.138488 0.337728 0.370421 1.134814 -0.695860 -1.009559 0.364988 0.745803 -0.335058 0.497329 -0.232667 -0.486494 -0.211484 0.718099 -0.232498 -0.566494 0.334647 0.537583 0.067636 0.057006 0.349706 0.438823 -0.649889 0.396230 -0.120220 -0.374198 -1.372445 0.625078 0.298690 -0.631480 1.282785 0.170369 0.140493 -1.253571 -0.074697 
broccoli 0.121861 0.003380 0.576419 -0.210280 -0.021459 -0.328175 0.034508 -0.123180 0.101328 -0.389553 0.044229 -0.288552 0.373967 -0.037276 0.451514 0.336738 0.046012 -0.295941 0.645411 0.278269 0.310422 -0.025480 -0.407404 0.446376 0.243915 -0.525185 0.097168 -0.512656 0.943233 -0.630695 0.195356 -0.543197 -0.535186 0.738260 0.394971 -0.342349 1.309182 0.314146 0.386165 0.373331 0.246536 -0.044841 0.084163 0.144962 -0.697287 0.708574 -0.216586 -0.092667 0.294345 0.115575 -0.379503 -0.092105 -0.578597 -0.020527 0.221386 -0.591045 -0.138437 0.322537 -0.073179 0.059868 0.622251 -0.419337 0.105059 0.755888 -0.032972 0.432227 0.896399 -0.196591 0.133656 0.372499 0.219113 0.843877 -0.022322 0.444527 -0.335571 0.668231 -0.001065 1.031710 0.495766 -0.102398 
turkey 0.150760 0.358388 0.381516 0.134149 -0.909314 -0.245127 0.389178 -0.121457 -0.097662 -0.060200 -0.143535 0.037304 0.616309 -0.660798 0.378770 -0.585741 -0.270961 -0.426949 -0.524933 0.158100 -0.437319 0.273930 -0.152168 -0.178059 0.074877 -0.627663 -0.288828 0.546678 0.296414 0.402662 -0.546841 0.158528 -0.083349 -0.463707 0.115378 0.383767 0.690832 -0.569106 -0.096124 -0.078730 -0.222939 -0.638561 0.452069 -0.146691 -0.318553 -0.109764 -0.540184 0.184276 -0.225483 -0.110847 -0.636475 0.512565 0.333585 -0.533890 0.275358 -0.034579 -0.517141 0.070368 -0.343110 0.512641 -0.088630 -0.211634 0.380037 -0.042988 -0.082719 0.353555 0.232338 -0.030558 0.329453 -0.212668 -0.285733 -0.382528 0.368991 0.600004 -1.017907 0.372704 -0.301087 -0.296820 -0.002732 -0.090120 
fenugreek 0.353810 0.512665 -0.354822 0.954350 -1.378153 -1.121003 -0.609080 -0.498411 0.213895 1.077362 0.447428 -0.707704 -1.046899 0.783681 0.640973 0.019646 0.525649 -0.392676 -0.318711 -0.340711 1.053924 -1.411329 0.299211 1.433875 1.241142 -1.030858 1.471261 -0.009493 0.004761 -0.045759 -0.423046 1.810556 -0.655455 -1.236573 -0.881351 0.245055 0.399739 -0.408742 0.334290 1.062849 0.909752 0.112502 0.990586 -0.434015 0.380053 -0.103059 0.315359 0.383547 0.855262 -0.031455 -0.098721 -0.504744 0.081820 -0.497648 0.721678 1.505737 -1.093837 -0.194769 1.845774 0.245839 0.876666 0.628743 -0.248921 -0.827606 0.315347 -0.626252 0.667237 -0.352363 1.251257 1.315244 -0.486668 0.978485 0.273381 -0.611213 0.797956 0.945135 -0.918830 -0.188935 0.916005 1.039308 
cranberry -0.261984 0.164713 -0.347296 -0.079877 -0.512291 0.085518 0.385852 -0.907328 0.221767 -0.338317 0.490072 0.206141 0.373323 0.398219 -0.108466 -0.323855 0.406221 -0.309411 0.019932 0.172491 0.110830 -0.352342 -0.074021 0.005753 0.534101 0.089186 -0.758121 0.601175 0.036607 0.328881 -1.088058 0.520113 -0.080840 -0.258537 -0.168472 0.403214 0.094185 -0.078295 -0.048073 0.284291 -0.212230 -0.327675 0.198076 -0.445710 -0.523800 -0.327977 -0.016536 -0.177537 0.105181 0.016553 -0.477187 0.334585 -0.348829 0.213347 0.803969 -0.863830 -0.177896 0.796880 -0.350769 -0.368494 -0.890332 0.179391 1.066800 -0.601059 0.290482 0.392832 -0.275558 0.557775 0.198629 0.011293 -0.423392 0.148696 0.051068 -0.176940 0.251795 0.809503 -0.123706 -0.149152 0.050853 0.698641 
wine 0.282853 0.201390 0.451810 -0.084649 -0.064895 -0.316406 -0.174685 -0.305006 -0.074352 0.878815 -0.497414 1.128900 -0.383911 -0.289849 0.058387 0.101229 0.888546 0.164665 0.246541 -0.359508 0.014039 0.307080 -0.130278 -0.214625 0.275034 0.148015 -0.604647 0.410590 0.086519 0.003868 -0.647750 0.227364 -0.774647 -0.263376 0.343332 0.627575 -0.182526 0.138586 0.223016 0.757809 -0.471012 -0.900214 0.282957 -0.385471 -0.059282 -0.356429 0.076720 0.127767 0.345733 0.101797 -0.807276 -0.042389 -0.190522 -0.231441 -0.650055 -0.243886 -0.371416 -0.101254 0.031305 0.554465 0.389578 0.309699 0.025252 0.147215 0.277798 -0.081760 0.005921 -0.549315 -0.297563 -0.059026 0.049257 0.000743 0.271097 0.361638 -0.252852 -0.095510 -0.261867 -0.650074 0.267240 -0.073377 
beef_broth 0.241064 -0.735700 1.150723 -0.377048 -0.760131 -0.135751 0.939699 -0.129153 0.085608 0.922353 -0.239954 0.798506 -0.817527 -0.592029 -0.637050 -0.187453 -0.047904 -0.088063 0.028658 0.351550 0.182823 0.966271 0.215479 -0.224250 0.136717 -0.828965 -0.020638 -0.223585 0.642397 -0.302539 -0.464244 -0.240019 -0.339951 -0.283702 0.125777 0.269943 0.193675 -0.769007 -0.514014 0.417445 0.040918 -0.018370 0.372201 -0.028871 -0.495549 -0.165138 1.205569 0.580298 0.420476 0.271415 -0.135261 -0.052799 0.704278 0.363754 -0.373426 0.109579 -0.201054 -0.152017 -0.285833 0.194637 0.238272 0.166880 -0.463780 0.221529 0.562478 -0.347499 -0.562280 -0.327179 0.177437 -0.356337 -0.847934 -0.308924 -0.079301 0.322367 -0.246269 0.109357 -0.394112 -0.982403 0.071437 0.735012 
grape_juice 0.264256 0.642448 -0.525593 0.115240 -0.484710 0.191401 -0.190051 0.492886 0.065016 0.448694 -0.146903 0.363184 -0.299925 0.322395 -1.166572 0.048657 0.304208 -0.394288 -0.004674 0.617920 -0.136764 0.017477 0.197897 -0.953007 0.476783 -0.333699 0.047619 0.324246 0.586372 0.014621 -0.507701 0.026388 0.115754 0.045052 0.232897 0.125757 0.276316 0.332051 0.831379 0.053410 -0.571611 -0.900839 0.232563 -0.721147 -0.157981 -0.641726 -0.038969 0.291471 0.153639 -0.390675 -0.308491 -1.066804 -0.060743 -0.107877 0.092741 -0.887671 0.388348 -0.072657 0.155157 -0.026089 -0.262530 0.660525 0.096608 0.325160 -0.009101 0.415874 -0.252945 0.127644 0.022616 -0.488450 -0.442406 0.017514 0.474728 0.317919 -0.918470 0.144700 -0.379592 0.402119 0.058597 0.299224 
pumpkin -0.212165 -0.620660 0.074754 -0.585229 -0.355797 0.427271 0.338816 -0.203554 0.959316 -0.387256 0.202479 -0.193182 -0.163429 0.299702 -0.037207 -0.258949 -0.505538 -0.212644 0.673456 -0.449649 0.691972 0.641665 0.007849 0.265165 0.487161 0.254061 0.112393 -0.731665 -0.506843 -0.299473 -0.115599 0.107793 -0.899342 0.102886 -0.279466 0.728301 -0.875481 -0.295446 -0.817550 -0.307929 0.452159 0.042714 -0.206185 -0.795878 0.225624 0.294424 0.202439 -0.422201 0.161314 0.250501 0.753646 0.166712 1.022232 0.479230 -0.273360 -0.223949 0.633500 0.302630 0.010406 -0.609530 0.305548 -0.534452 0.735562 0.081659 0.657267 -0.468225 -0.165631 -0.020712 0.407133 0.694860 -0.142600 -0.216130 -0.412063 -0.651900 -0.020747 -0.011279 0.328367 -0.390686 -0.261388 0.038417 
raspberry 0.028046 -0.370390 -0.510444 0.111519 0.060052 0.579249 0.309424 0.292594 -0.484497 -0.194365 0.181767 0.472417 0.431227 0.381252 0.227324 0.775060 0.647159 0.908064 0.564290 0.179102 -0.224690 0.549309 -0.318044 -0.370103 0.771187 0.350775 0.237481 0.735410 0.016142 0.410845 -0.241988 0.218782 -0.088017 0.118024 0.146893 -0.263152 -0.718002 0.078433 -0.287424 -0.209409 -0.238747 -0.616915 -0.491663 -0.752676 0.205894 -0.166048 -0.708941 -0.382487 0.304913 0.363463 -0.127385 -0.159179 -0.760270 0.940342 0.438803 -0.724801 0.452894 0.935534 -0.110996 -0.377070 -0.645881 0.549257 0.794172 0.145796 0.320036 0.736370 -0.284135 -0.175127 -0.490207 -0.649510 -0.036864 0.060589 0.370918 -0.161057 0.392489 0.495271 -0.048997 -0.053699 0.119745 0.454037 
whole_grain_wheat_flour 0.338836 -0.077099 -0.273360 -0.520845 -0.442316 -0.093006 0.291298 0.989687 0.463142 -0.685269 0.319528 -0.374854 -0.227953 0.509343 0.047667 0.161161 0.921717 0.314647 0.291519 -0.498983 -0.052117 -0.032302 0.228244 -0.417069 -0.399213 -0.342802 -0.727293 -0.662380 0.240740 -0.811279 -0.700845 0.163598 0.332403 -0.181818 -0.160151 -0.735057 -0.321427 -0.108262 -0.098867 0.421618 -0.091185 -0.351899 0.301274 0.161614 0.543132 -0.076484 -0.779061 0.008118 -0.422135 -0.414332 0.179432 0.323022 0.448629 0.277645 -0.352900 -0.065482 0.376378 0.356252 -0.401589 -0.271961 -0.182079 -0.275730 -0.093985 -0.362712 0.203666 -0.049559 0.404355 -0.035881 -0.215945 -0.233399 -0.051729 0.028446 0.914296 -0.099030 0.118477 0.842412 0.060470 0.395971 -0.377615 0.468442 
lemon_peel 0.700408 0.582084 -0.397400 -0.393868 -0.234942 -0.055792 -0.303297 -0.035500 0.209001 0.330939 0.127250 0.089933 0.082489 0.153674 0.150550 -0.190065 0.396048 0.149241 0.453780 -0.002089 0.209972 0.039713 0.401901 -0.216015 0.515328 0.139529 0.473727 -0.223464 0.226983 0.265268 0.218821 0.629962 -0.251693 -0.406858 0.074937 0.061163 -0.305578 0.148036 0.161150 0.178107 -0.133059 0.019176 -0.566504 -0.792977 -0.008135 -0.019741 0.075264 -0.256173 -0.052810 0.232497 -0.116824 -0.504030 -0.371050 0.693172 0.307295 -0.205288 0.824274 0.418771 0.886777 -0.739745 -0.084659 0.651325 0.617334 0.185256 0.013135 0.387891 0.312870 -0.111539 -0.645226 -0.117689 0.850597 -0.121385 0.522833 -0.354637 0.298164 -0.218845 0.323078 0.507467 -0.407169 0.210204 
coffee -0.457412 -0.340205 -0.261184 0.376063 -0.751618 0.351764 0.264275 -0.183895 -0.420053 -0.617791 -0.786691 0.105630 -0.365834 -0.022941 0.410873 -0.025729 0.131689 0.523041 -0.168725 -0.369841 0.627290 0.386533 0.435079 -0.344472 -0.429480 0.187991 -0.271897 -0.227031 -0.764222 -0.446397 0.280438 0.425011 -0.208631 -0.876491 -0.506541 -0.244665 -0.324520 0.065121 -0.817773 0.298932 0.280429 0.207274 0.212461 -0.948304 0.353035 0.247132 0.607704 -0.253890 -0.418412 -0.105253 0.413334 -0.269172 -0.432272 -0.299058 -0.146214 -0.011318 0.540539 -0.103940 -0.040157 -0.698123 -0.541082 0.360885 0.494709 -0.060246 -0.082951 0.399726 -0.310270 0.413661 -0.851801 -0.052599 0.363218 -0.087532 0.180854 0.028664 -0.083786 0.498226 0.236661 -0.977174 0.469593 0.577668 
sesame_seed 0.444821 0.184513 -0.037591 -0.194543 0.457327 -0.028208 -0.659095 -0.346034 1.041754 0.181605 -0.408254 -0.104754 -0.304461 -0.239187 0.051597 0.216228 0.904047 0.180052 0.405196 -0.308614 -0.183312 0.078816 -0.211199 -0.674505 0.135367 -0.372703 -0.778539 -0.336314 0.037338 -0.265151 -0.223364 -0.295037 -1.317978 0.085102 0.201683 -0.188613 -0.271766 0.333064 1.038777 0.552003 0.652760 -0.189250 0.418075 -0.376383 1.269771 0.031842 -0.639627 0.175033 -0.204274 0.226720 -0.055351 0.095172 0.309907 -0.215334 -0.730346 -0.407506 0.452487 0.338276 -0.176195 -0.231814 0.505405 -0.076057 -0.013442 0.611473 -0.026059 -0.194589 0.288277 -0.040383 -0.208969 0.655876 -0.131610 0.449854 -0.155393 -0.070736 -0.377110 0.723034 0.197813 0.578692 0.592333 -0.078032 
avocado 0.449390 0.679837 -0.068638 1.362949 0.320053 0.209144 -0.260448 -0.701667 -0.105405 -0.264880 -0.745897 -0.063284 0.191034 0.317087 0.512427 0.976694 -0.009790 -0.375408 -0.383173 -0.428224 -1.005869 0.482514 -0.080279 -0.057134 -0.093561 -0.261723 0.449974 0.112991 0.017178 0.306558 -0.234465 -0.673273 0.120448 -0.079570 -0.286854 -0.880942 -0.147096 0.704434 0.852775 -0.713805 -0.237035 0.241563 0.825801 -1.134475 1.007830 -0.126748 0.295570 -0.481415 0.551912 -0.230357 -0.901980 0.035198 -0.646122 -0.502848 -0.740489 -0.059569 0.734349 -0.408965 0.182619 -0.485232 0.238685 -0.194310 0.662532 -1.023932 0.391882 -0.697070 0.132683 0.284378 0.377815 0.707804 -0.007193 -0.804210 0.570324 0.785995 0.022976 -0.350800 -0.532825 0.454753 -0.165009 -0.221500 
sherry 0.673235 0.639832 -0.124338 -0.316678 0.077391 -0.359677 -0.097296 0.280975 0.086287 0.341653 -0.526737 0.558370 -0.407032 0.012752 -0.277482 -0.278284 0.023860 -0.142677 -0.502634 0.206813 0.076886 -0.655594 0.140117 -0.709843 0.117954 -0.032229 -0.596535 -0.123741 -0.130209 0.021436 -0.275659 0.022710 -0.470410 -0.025389 0.235352 0.351555 0.087420 0.221372 -0.179616 0.701639 -0.350448 -0.862501 0.202091 -0.755408 -0.201208 0.292401 -0.273849 -0.078721 0.486115 -0.293148 -0.805532 -0.344041 -0.003588 -0.596034 -0.590579 -0.259729 0.407291 0.775912 0.252549 -0.227845 0.090913 0.084949 0.053011 0.168211 -0.161089 0.145820 -0.081775 -0.341418 -0.276518 -0.073246 0.102383 0.019529 0.225113 0.340774 -0.074113 0.054862 -0.295886 -0.292319 -0.257198 0.036961 
sake 0.886474 -1.036216 0.194688 -0.427984 2.012702 0.449748 -0.231352 -0.426935 0.940636 2.042999 0.946092 -0.083733 -0.674366 0.053142 -0.217205 0.838385 0.943344 0.293548 0.331633 0.881930 -0.208420 0.649095 -0.970352 -0.811347 0.405906 -0.865965 -0.412980 -0.570206 -0.326993 0.773221 -0.382341 0.059316 -1.107136 -0.641474 -0.101693 0.147732 -0.828069 -0.029304 -0.603903 -0.119976 0.647893 -0.345108 0.095867 -0.652176 0.503211 -0.121640 -1.189728 -0.921733 0.980283 -0.152542 0.557861 0.504288 -0.868495 -0.499893 -1.499440 0.727285 0.323663 0.458903 -1.121244 -0.013792 0.450500 -0.587958 0.004386 0.761081 0.302395 -0.232562 -0.788558 -0.515185 0.268675 1.230845 -1.095825 0.483982 -0.751848 0.705721 -0.130313 0.179392 -0.828498 0.157105 0.518061 0.300428 
feta_cheese 0.457982 0.613423 -0.427691 -0.120021 0.086697 0.099156 -0.612835 -0.272448 0.020708 -0.079221 0.068763 -0.303597 -0.171887 0.677998 -0.052193 0.866184 0.714412 -0.043627 0.289544 0.260525 -0.504192 0.131382 0.336795 -0.310606 0.627588 -0.759534 0.421040 0.204485 0.327915 0.143134 -0.349807 -0.224841 -0.405398 -0.084909 0.660948 -0.466038 -0.073406 -0.079028 1.234531 0.689279 -0.466312 0.381640 -0.463641 -0.755543 0.206326 0.364296 0.150492 0.562009 -0.508511 0.175195 -0.214531 -0.294003 -0.029862 0.090226 -0.025727 -0.483032 0.248966 -0.139179 0.226331 -0.483767 0.053571 0.382813 -0.413816 -0.728721 -0.709901 0.159889 -0.512639 0.458759 0.160958 -0.570643 -0.274237 -0.233127 1.759665 0.504667 -0.050507 -0.635759 -0.207970 0.459449 -0.712860 0.399551 
apricot -0.162504 0.094390 0.014495 0.454687 -0.704492 0.274716 -0.194698 0.036342 0.453976 -0.222268 -0.051432 0.161022 0.465515 -0.736305 -0.074952 -0.689629 0.537374 0.040542 0.105001 0.380492 0.558444 -0.758624 0.012124 -0.660062 0.492312 0.315822 -0.542121 0.513878 0.274919 0.374801 -0.008388 0.418617 -0.285032 -0.664897 0.224896 0.375626 0.075207 0.553924 -0.546602 -0.077105 0.002436 -0.645383 0.130955 -0.241249 -0.140254 -0.111173 0.252857 -0.548889 0.210841 0.309806 -0.057588 0.179783 -0.269719 0.397718 0.467897 -0.514378 0.268056 0.701134 0.723985 -0.315002 -0.742494 0.273614 0.643619 -0.065062 0.213346 0.189068 -0.033938 0.718213 -0.378180 0.030911 0.073887 0.682999 0.262902 -0.536157 0.029017 0.433861 0.239257 -0.092509 -0.206497 0.451570 
roasted_sesame_seed 1.028478 -1.655260 -0.088025 -1.130806 1.255351 -0.044802 -0.060832 -0.213743 1.543370 1.623852 0.194729 0.307448 -0.471003 -0.282860 -0.089441 0.579636 1.016158 -0.206522 1.499525 0.542927 -0.307626 0.058526 -0.898701 0.332670 -0.105747 -0.904201 0.960843 -1.270172 -0.141094 -0.290576 -0.465357 -0.847125 -1.359810 -0.403278 -0.648148 -0.060570 -0.195875 0.026758 -0.138608 -0.121892 0.493067 0.250323 -0.217136 -0.783226 2.005189 -0.517605 -0.530003 -0.321715 0.452706 0.362546 0.150622 0.529668 0.411037 -0.440323 -1.261622 0.398974 -0.292334 0.549471 -0.168522 0.062305 1.495645 -0.424495 -0.420733 -0.053092 0.170569 0.116943 -0.463972 -0.863111 0.277486 1.661681 0.068706 -0.388294 0.545225 1.159505 0.370625 0.416951 -0.589210 0.723631 0.929009 1.080065 
rum -0.261476 -0.542674 0.043461 0.197042 -0.340234 -0.263829 0.322778 -0.055382 0.699972 -0.239108 -0.163656 0.737452 -0.163389 0.442458 -0.273331 0.344003 1.392366 0.309392 0.231311 -0.319700 -0.269296 -0.122238 -0.470587 0.577973 0.211887 0.117673 -0.279692 0.479115 -0.539154 0.761811 -0.092074 0.807414 -0.510395 -0.670451 0.236671 0.012749 -0.175808 0.347147 -1.006265 -0.492111 0.078025 -0.040711 0.231617 -0.350640 0.093271 -0.219327 0.397211 -0.852160 0.621501 0.089666 -0.438176 -0.192042 -0.636380 0.101085 0.177749 0.397508 0.231462 0.092428 0.172208 -0.425147 -0.705042 0.474241 0.748332 -0.395669 0.760773 0.140454 -0.181271 -0.212275 -0.762163 -0.459595 0.044939 -0.168412 -0.100287 -0.508090 1.080600 0.314613 0.549931 -1.036935 0.188606 -0.034206 
orange_peel 0.106722 -0.661157 -0.370858 0.178507 -0.201344 -0.111982 0.092311 -0.535291 0.891751 -0.196138 -0.188493 0.292580 0.319391 -0.294409 -0.392933 0.059872 0.621463 -0.274384 0.835359 0.349994 0.388620 -0.466080 0.638365 -0.352161 0.738738 -0.151650 -0.579775 0.254835 0.043253 0.596971 -0.551877 0.494489 -0.327408 -0.318510 0.321458 0.490371 0.169306 -0.235558 0.031018 0.062898 -0.395025 -0.739619 -0.217012 -0.458515 -0.169188 -0.141818 -0.079077 -0.741355 -0.381442 0.537027 0.009399 -0.482210 -0.715126 0.339948 0.164975 -0.116153 0.413317 1.068392 -0.102409 -0.402350 -0.825283 0.242973 0.875619 -0.070520 -0.002193 0.035127 -0.390851 0.825463 -0.384720 0.365598 0.363289 -0.197671 -0.183885 -0.099652 0.269704 0.059124 0.469837 -0.123336 -0.112168 0.041276 
