223 35
egg 0.110817 0.453243 0.422683 0.112260 0.145601 0.490595 0.017137 -0.397598 -0.243681 -0.098856 0.146514 0.532180 0.358048 -0.151825 -0.053571 0.609831 -0.521796 0.251283 0.047922 0.235420 -0.100915 0.443546 -0.225594 -0.204045 -0.149760 -0.045564 -0.080410 -0.055756 -0.172670 -0.245564 -0.416321 0.748178 -0.320260 -0.476830 -0.290660
butter -0.586809 0.291240 0.192901 -0.100396 0.171315 0.013268 -0.202943 0.013141 -0.510419 -0.143942 -0.195887 0.205561 -0.107478 0.391214 0.297308 0.395458 -0.525979 -0.106931 0.194525 -0.072723 0.089305 0.691422 -0.134013 -0.085431 0.301429 -0.003563 0.333989 -0.224058 -0.233525 0.329691 0.009638 -0.056041 0.041606 -0.403217 0.185162
wheat -0.093814 0.040386 0.190210 0.042895 -0.062560 0.403633 -0.567689 -0.020163 -0.186978 -0.145008 -0.064769 -0.631984 -0.048118 -0.081275 -0.086416 0.512609 -0.485738 -0.027913 -0.013948 -0.029568 -0.330822 0.468757 -0.595570 -0.416364 0.107156 -0.143376 -0.111502 0.126327 -0.370594 -0.148859 0.138911 -0.260403 0.100746 -0.118628 -0.418026
onion 0.302756 -0.046330 -0.147532 -0.142284 0.043445 -0.039824 -0.339829 -0.055258 -0.055520 -0.170516 0.044979 0.079228 0.140204 -0.590908 -0.264780 -0.654993 -0.193401 0.301718 0.017686 -0.425923 -0.172313 0.139685 0.203687 -0.271300 0.199795 -0.371398 0.094827 -0.164374 0.318544 -0.445889 0.067666 -0.193002 -0.029160 -0.689399 0.068797
garlic -0.001626 -0.009905 0.121347 -0.198466 -0.166274 0.126562 -0.675956 -0.151824 0.082717 0.108540 -0.451836 0.266615 -0.211482 -0.337215 0.145777 -0.213768 0.084997 0.242283 -0.237691 -0.010904 -0.066026 -0.402231 0.098640 -0.111532 0.538431 -0.202956 0.103577 -0.259498 0.149889 -0.494113 -0.103617 0.033549 -0.223781 -0.165706 0.017996
milk -0.739854 0.023291 -0.076205 -0.441189 -0.242486 0.374835 -0.036883 -0.052822 -0.255497 -0.389389 -0.030714 0.659411 0.181414 0.016589 0.089663 0.573906 -0.164210 0.242235 0.253754 -0.010986 -0.249936 0.790909 -0.033747 -0.718475 0.120819 0.128352 0.425936 0.139790 -0.197878 0.343743 0.354842 -0.520718 -0.079609 -0.206360 -0.155816
vegetable_oil 0.254350 0.274377 -0.285122 -0.047512 -0.180121 -0.239673 -0.185662 0.255673 -0.241934 0.102186 0.046274 0.275140 -0.027849 0.438040 0.176548 0.017164 -0.573452 -0.152542 0.205252 -0.180089 0.028606 -0.081827 0.092891 -0.218630 0.258904 -0.118236 0.155270 -0.075308 -0.175704 -0.127924 -0.361193 -0.224778 0.112267 -0.504685 0.100357
cream -0.122865 0.179505 -0.149472 0.143593 -0.014679 -0.049391 0.234209 0.065903 -0.432654 0.003153 0.052856 0.346413 0.244863 0.303626 0.167189 0.329919 -0.053378 0.169708 -0.088264 0.046526 -0.091214 0.706004 -0.193602 -0.277636 0.034660 -0.341023 0.102467 -0.260135 -0.179957 0.240581 -0.071963 -0.343692 0.185984 -0.448345 -0.450650
tomato -0.093100 -0.024423 -0.179202 -0.387087 -0.087282 0.281402 -0.110098 -0.265171 -0.069404 -0.469900 -0.469789 0.298505 -0.575906 -0.140072 0.120690 -0.500382 0.153569 0.598184 -0.475889 -0.145884 0.048914 -0.277505 0.026575 0.406705 0.669637 -0.139931 0.629570 -0.057529 0.316547 -0.278488 -0.177540 -0.366234 0.041665 -0.180466 0.011425
olive_oil -0.032669 -0.055045 -0.119350 0.147327 0.066289 -0.153096 -0.270643 0.407235 -0.232646 0.328708 -0.000094 0.257427 -0.049263 0.044811 0.339952 -0.458216 -0.181452 0.472974 -0.011694 -0.244203 0.422839 0.026686 0.648266 0.121811 0.884643 -0.133285 0.558265 -0.089190 -0.054118 -0.196718 -0.305037 0.225178 0.118421 -0.154513 -0.436549
black_pepper -0.193969 -0.227784 0.016548 -0.258198 -0.156025 -0.286546 -0.460007 0.028210 -0.040739 -0.150668 -0.137979 0.039212 -0.248770 0.235958 -0.294364 -0.259117 0.201244 0.395852 -0.430837 -0.408598 0.139814 -0.197711 0.214974 0.080763 0.181728 -0.099633 -0.077018 -0.316921 0.011652 -0.376295 -0.447584 0.229696 -0.292207 -0.163303 -0.144575
pepper -0.412260 -0.192715 -0.048620 -0.561391 0.077227 -0.390887 -0.418287 -0.070361 0.189298 0.040240 -0.274622 0.249230 -0.121883 0.273197 -0.431481 -0.330997 0.237794 0.378359 -0.325376 -0.305274 0.085510 -0.099155 0.204954 0.001370 0.108549 0.123311 -0.104313 -0.332331 0.150707 -0.507474 -0.479030 0.102289 -0.175352 -0.369421 -0.278551
vanilla -1.007960 0.637276 0.020731 0.196162 -0.338168 1.219905 0.189320 -0.097141 -0.008028 0.006784 -0.392809 0.217975 1.012745 0.211923 -0.655153 0.757198 -0.828776 -0.923086 -0.451440 0.212115 -1.665791 0.152666 0.501968 -0.040031 1.041261 0.046840 -0.994198 0.480049 -0.051582 1.046389 -0.023363 -0.127001 0.600250 -0.168041 -0.805999
cayenne -0.056733 0.171816 -0.040248 -0.124145 0.069063 0.246664 -0.022664 0.077055 0.077894 0.107395 -0.137499 -0.025143 0.276020 -0.043022 -0.009813 -0.223717 0.146514 0.392121 -0.541371 -0.142378 0.128308 -0.445826 -0.172756 0.264631 0.012352 -0.286617 0.444243 -0.435299 0.014258 -0.482124 -0.421281 -0.193702 -0.103925 -0.327483 0.075644
vinegar 0.225349 0.435514 0.303995 0.249491 -0.495851 -0.322973 0.167348 0.066887 0.001875 0.111590 -0.568966 -0.494057 -0.482757 0.036437 -0.410781 0.276471 0.215697 0.220622 -0.281881 0.028693 -0.085914 -0.222106 0.262571 -0.297988 0.396572 -0.167258 0.232074 -0.154830 -0.248305 -0.693263 0.010172 -0.238982 0.108886 -0.414853 0.187025
cane_molasses -0.061767 0.648916 0.346226 -0.382148 -0.171440 0.597047 0.218214 0.328611 0.154862 -0.103799 0.150049 0.073087 0.152323 0.038636 0.292840 0.164208 -0.668815 -0.182823 0.452618 -0.411184 -0.110634 0.030599 0.310379 -0.150024 -0.160093 0.492526 -0.197257 -0.021226 -0.300548 -0.483976 -0.269127 -0.653499 -0.301342 -0.089286 0.028682
bell_pepper -0.019523 -0.031433 0.069479 -0.230611 -0.031236 0.008937 -0.337776 0.049579 -0.057084 0.247915 -0.423653 0.138909 -0.107799 -0.281074 0.017227 -0.318599 0.084064 0.271994 -0.413682 -0.054153 0.030137 -0.284040 0.080158 -0.181310 0.282550 -0.119301 0.331817 -0.257294 0.423336 -0.346817 -0.400019 -0.129847 -0.213862 -0.155422 -0.059190
cinnamon -0.538049 0.256384 0.358833 0.127872 -0.113427 0.384107 -0.253900 0.256401 0.865319 -0.140650 -0.571924 0.082311 0.655824 0.134554 -0.179139 0.020114 -0.526151 -0.986981 0.055438 -0.157176 -0.519693 -0.006685 0.231609 0.101357 -0.231673 -0.307051 0.280873 0.065032 -0.770072 0.187462 0.690148 0.033743 -0.639091 -0.323227 -0.359838
parsley 0.066182 -0.262477 -0.014668 -0.246106 0.073094 -0.378340 0.019811 -0.447968 -0.126260 -0.374412 -0.061246 -0.217753 0.138151 0.043855 0.325207 0.094121 -0.104223 0.158112 -0.186532 -0.150267 0.428951 0.193461 0.520825 0.020436 0.094377 -0.325008 0.473839 -0.013389 0.129153 -0.274145 0.104471 0.187541 -0.143628 -0.342555 -0.404118
chicken -0.619464 0.277453 -0.407443 -0.329995 0.228317 -0.090487 -0.012589 -0.189209 0.038733 0.655052 -0.311990 0.129182 -0.210207 -0.578433 0.240810 -0.299276 -0.081470 0.090868 -0.604369 0.002734 0.296304 -0.081576 0.040176 -0.516388 0.163650 -0.072926 -0.276370 -0.167698 0.104079 -0.235557 -0.142284 0.236676 0.290413 -0.092634 -0.093030
lemon_juice 0.108625 -0.126188 0.353547 0.027231 -0.365888 -0.159449 0.048469 0.095141 0.235729 0.150959 -0.229837 0.233151 -0.229740 -0.030705 -0.068538 -0.184719 -0.369913 0.060420 0.065165 0.408814 0.296509 0.216298 -0.053717 -0.047409 0.264057 -0.564281 -0.170054 0.171022 -0.276343 -0.319173 -0.201559 -0.205078 -0.128230 -0.055853 -0.280868
beef 0.040572 0.877364 -0.120020 0.023398 0.183869 0.194237 0.077245 -0.246928 -0.040191 -0.006924 -0.274585 -0.166935 -0.192413 -0.222667 0.244141 -0.403769 0.292575 0.188306 -0.483581 -0.507294 -0.050996 -0.242998 0.340843 -0.098512 0.436049 -0.217885 -0.030283 -0.031117 0.053503 -0.425412 -0.182203 0.189283 0.319444 -0.099111 0.280189
cocoa -0.892424 -0.090999 0.512999 -0.262911 -0.421642 0.529404 0.362269 0.412879 -0.042092 -0.215974 -0.755844 -0.264665 2.099225 0.001545 -0.985543 0.821193 -0.126165 -0.922175 0.350322 -0.378934 -0.948020 0.471038 0.273629 0.194137 0.113148 0.150884 -0.617608 0.227755 0.299634 0.594009 -0.494650 -0.188947 1.063264 -0.412706 -0.838210
corn -0.214505 -0.118088 -0.221476 0.089975 -0.109475 0.276710 -0.070789 -0.219525 -0.241886 -0.431184 -0.226525 0.190219 0.065724 -0.347792 0.346259 -0.161476 -0.294977 -0.109912 -0.118603 -0.351359 0.116735 -0.109974 0.078622 0.027159 -0.390234 0.620158 0.018568 -0.409283 -0.147112 -0.586548 0.006087 -0.361588 0.229554 -0.549568 0.034099
bread -0.022113 0.224872 -0.012041 -0.298620 -0.194507 -0.177550 -0.228443 -0.039615 -0.335541 -0.201127 0.107230 -0.009735 -0.017089 0.181883 -0.180373 -0.325879 -0.094482 0.254533 -0.106262 0.142533 0.283915 -0.025308 0.073380 -0.097640 0.162317 -0.135445 0.267391 -0.066320 -0.046886 -0.644366 0.147061 -0.353538 -0.069093 0.013851 -0.400968
scallion 0.199231 -0.065792 -0.202991 -0.331694 -0.060252 -0.109520 -0.176140 0.156184 -0.027668 0.410345 0.260751 0.043351 0.245063 -0.476922 -0.286541 -0.174389 0.240101 -0.081217 -0.390507 -0.008362 0.076130 -0.366708 -0.010263 -0.492599 0.548712 -0.402141 0.255215 -0.155783 0.126556 -0.358288 -0.322375 -0.080076 -0.158701 -0.422836 0.284102
mustard 0.235530 -0.167790 0.028615 -0.147528 -0.173885 0.053603 0.618350 -0.078111 0.223016 -0.407674 -0.453454 0.173447 -0.194973 0.295196 -0.107142 -0.111926 -0.178340 -0.066792 0.207011 -0.125405 0.083247 0.073973 0.238890 -0.429810 0.328412 -0.186916 0.173394 -0.209904 -0.279030 -0.934253 0.247044 0.087537 -0.031147 -0.254637 0.040489
ginger -0.044772 0.102865 0.570332 0.719148 -0.052469 -0.604932 0.240599 0.509026 0.667068 -0.257776 0.240198 -0.102739 -0.229331 -0.384584 -0.125652 0.006809 -0.683051 -0.253838 -0.744813 -0.184980 -0.096498 -0.137096 -0.181016 -0.018590 -0.081930 0.192639 0.189836 -0.184511 -0.336696 0.356563 -0.757101 -0.395388 -0.201149 -0.377718 0.113422
basil -0.229549 -0.197466 0.080058 -0.258898 -0.008419 -0.181449 -0.519109 0.214962 -0.359599 0.082475 -0.428465 -0.024944 0.194112 -0.494270 0.259921 -0.256553 0.385201 0.172122 -0.022143 -0.211820 0.352100 0.068971 0.325929 0.153261 0.436909 -0.257660 0.577618 0.385270 0.500813 -0.419588 -0.185944 -0.011979 0.027424 -0.035704 -0.562982
celery -0.221343 0.149726 -0.291441 -0.050508 0.173244 -0.626766 -0.416513 0.283472 0.207462 -0.134921 -0.246071 -0.034633 0.088158 0.203591 0.313426 -0.010776 -0.049334 0.121365 -0.547985 0.131255 -0.120858 0.300172 0.244157 -0.284141 0.389605 -0.013672 0.052418 -0.142277 0.518310 -0.603757 0.281754 -0.019384 -0.160899 -0.210561 -0.064091
carrot -0.034825 0.471201 0.090222 0.049661 -0.151109 -0.497027 -0.259831 0.222568 0.019993 -0.237369 -0.146098 -0.068598 0.135215 0.015394 0.081829 -0.168174 -0.191531 0.118116 -0.151882 -0.098523 0.029906 -0.124449 -0.214620 -0.181567 -0.021853 -0.452885 0.219482 -0.388329 0.768501 -0.157359 -0.471471 0.363865 0.079770 -0.135291 0.221752
potato 0.054139 0.136267 0.129368 -0.562912 0.355620 -0.122205 -0.125684 -0.003429 0.109008 -0.703160 0.399300 0.042875 -0.186303 0.060796 0.182082 -0.171729 -0.192598 -0.067241 -0.036557 -0.157743 -0.103843 -0.701523 -0.181170 -0.208939 0.401622 -0.306041 0.253557 -0.580764 0.699790 -0.619738 0.242727 0.230680 0.192118 -0.002833 -0.431503
chicken_broth -0.519606 0.267546 -0.076175 -0.184012 0.028634 -0.473808 -0.108165 0.456693 0.255530 0.236922 -0.197614 0.338796 -0.051966 -0.244618 0.267420 0.142560 0.196710 0.221221 0.009167 -0.415264 0.255751 -0.160122 -0.054677 -0.277785 0.331416 -0.302540 -0.024341 -0.785559 0.414315 -0.133371 0.080738 0.139461 -0.223238 0.105174 -0.326415
yeast -0.200278 0.583922 0.293937 -0.113941 -0.660951 0.321151 -0.255956 -0.184668 -0.553616 0.246887 0.144455 0.514238 0.300865 0.389840 -0.370939 0.104256 -0.346625 -0.204100 -0.140380 -0.006438 0.251288 0.208429 -0.384309 -0.008731 -0.126042 -0.005786 0.001649 -0.180930 -0.083290 -0.358380 0.269736 -0.123597 0.088330 0.247408 -0.293199
rice 0.090430 0.042175 -0.394430 0.319755 0.120016 -0.375134 -0.321167 -0.009543 0.179615 -0.129464 0.186979 -0.251875 0.171159 -0.264690 0.204612 0.236185 -0.296157 0.101586 -0.119766 -0.049836 -0.086770 -0.386010 -0.471227 -0.356098 0.120554 -0.295228 0.264851 -0.148355 0.079679 -0.538181 -0.722809 -0.139837 0.014766 0.502612 -0.272515
mushroom 0.055908 0.376941 0.129780 -0.349637 0.156368 -0.287836 -0.455081 -0.302521 0.235349 -0.095751 -0.162246 0.121929 0.115010 -0.355196 0.338074 0.018929 0.629056 -0.197576 -0.207117 -0.173390 0.290235 -0.211194 -0.074852 -0.330446 0.659507 0.089715 0.274238 -0.260402 0.278048 -0.407406 0.038623 0.251212 -0.300482 -0.039277 -0.451814
cheese 0.040805 -0.071070 -0.057768 0.170722 -0.297884 0.138649 0.095248 0.120902 -0.408189 -0.037862 0.074414 0.492326 -0.208577 -0.171387 0.253834 0.270505 0.362519 0.562737 0.038953 -0.333634 0.320796 0.103566 -0.229416 0.190009 0.316224 0.214211 0.041996 -0.058966 0.300770 -0.144424 0.327415 -0.203610 -0.035570 -0.690127 -0.595936
soy_sauce -0.419657 -0.154081 0.125109 0.435799 -0.798566 -0.410165 0.140527 0.158682 0.815096 -0.169755 -0.154303 -0.114681 0.129752 -0.503785 -0.126558 -0.114300 0.749546 -0.180072 -0.293357 -0.284960 -0.338154 0.042797 0.065738 -0.884165 0.289504 0.196362 0.790903 -0.260038 -0.055395 -0.400762 -1.135664 -0.159917 0.001201 0.193752 0.497646
cumin -0.777767 -0.154458 -0.102599 -0.322009 -0.120585 0.090650 -0.054162 0.281395 0.761601 0.012992 -0.028285 0.253283 0.040766 -0.126503 0.092164 -0.222834 -0.033024 0.721113 0.201288 0.171287 -0.278604 -0.736024 0.128454 0.051408 -0.009372 -0.343636 0.575879 -0.169634 0.143159 -0.272026 -0.088252 -0.414512 0.180983 -0.534409 0.029250
oregano 0.056021 -0.259789 -0.263648 0.089472 0.127178 -0.001567 -0.240700 -0.064328 -0.506149 -0.078585 -0.531603 0.170253 -0.535355 -0.496291 0.236589 -0.255463 0.040941 0.050338 -0.287470 -0.564760 0.047782 0.075124 0.233889 0.667513 0.570109 -0.125443 0.700796 -0.115222 0.507141 -0.519289 0.206194 0.076489 0.028626 -0.167401 -0.301739
parmesan_cheese -0.178661 0.016750 0.318846 -0.281133 -0.100295 -0.312474 -0.277618 0.014921 -0.132402 -0.193843 0.093915 0.288217 0.036589 -0.402447 0.471075 -0.298851 0.560866 -0.086472 -0.433948 -0.054821 0.636547 0.030921 0.174666 -0.015144 0.608918 0.202840 0.386890 0.519530 0.552626 -0.208723 0.385192 0.172727 -0.002269 -0.541940 -0.995222
macaroni -0.389043 -0.134114 0.023164 0.090657 0.282135 -0.405446 -0.526085 0.177928 -0.817290 -0.103795 0.118707 -0.192166 -0.087942 -0.512996 0.169989 -0.166848 0.137841 -0.053966 0.097300 0.326451 0.064258 -0.627485 -0.248525 -0.051915 0.397888 -0.110283 0.464764 0.271075 0.633170 -0.978220 -0.140008 0.097157 -0.052450 0.241670 -1.038060
thyme -0.439628 -0.002952 0.138015 -0.188621 -0.212814 -0.426407 -0.392039 0.324322 0.115934 -0.418919 -0.094884 0.140511 -0.021119 -0.246977 0.598187 0.001953 0.255676 0.196329 -0.113100 -0.201740 0.216169 0.345641 0.565845 0.180100 0.316703 -0.146401 0.266496 -0.202524 0.303606 -0.411298 0.389892 0.301106 -0.166761 0.079125 -0.270809
cheddar_cheese -0.087606 -0.037977 -0.086962 -0.181802 0.190213 -0.182629 0.052388 0.183937 -0.188532 -0.004557 0.285770 0.925478 -0.250655 -0.079123 0.182030 0.007780 0.201015 -0.014292 -0.815493 -0.204743 0.005185 0.194135 -0.200962 0.016835 0.491093 0.916654 -0.159951 0.145363 0.918402 -0.626879 0.619042 -0.390998 0.530294 -1.353448 -0.683756
lard -0.567116 0.028426 -0.205748 0.056762 -0.447901 0.445847 -0.261583 0.235752 -0.575719 -0.258795 0.165113 0.398740 0.415943 0.764348 -0.360512 0.188693 -0.664266 -0.273515 0.280331 -0.249241 -0.290420 0.264836 -0.079170 -0.238932 0.132983 0.307712 -0.028506 -0.407780 -0.273873 -0.088880 0.081145 -0.052355 0.486989 0.269581 -0.449397
lemon -0.030567 -0.247210 0.282874 0.097091 -0.343667 -0.352213 0.170391 0.179941 -0.096974 0.090363 -0.301162 0.059333 0.071149 -0.239150 -0.009204 -0.476345 -0.612272 -0.077209 -0.125398 0.317945 0.223611 0.379084 0.051713 0.032549 0.118042 -0.495134 0.074872 -0.064016 -0.136497 0.159793 0.030612 -0.469529 -0.333525 0.012965 -0.126414
cream_cheese -0.616029 -0.098457 -0.228890 0.502121 0.095346 0.344599 0.708642 -0.008295 -0.913625 0.367378 0.049247 0.761562 -0.064122 0.129945 -0.020024 0.523884 -0.363641 -0.281679 0.170643 -0.181151 0.087209 0.682324 -0.127955 -0.448514 -0.101212 0.204553 -0.058499 0.239560 -0.302281 -0.448540 0.282087 -0.358521 -0.428710 -0.177977 -0.616013
walnut -0.388086 0.535364 -0.487344 -0.169451 -0.684439 0.280234 0.322199 0.002177 0.192407 -0.539358 -0.149074 0.220362 -0.544797 -0.047950 -0.922777 0.104068 -0.358180 -0.624607 0.294050 0.206498 -0.658121 0.709423 -0.145753 0.265275 -0.098245 -0.445909 -0.131836 0.296308 -0.214262 0.432952 -0.260455 0.289945 0.067608 -0.009567 -0.747810
green_bell_pepper -0.150037 0.027316 -0.051846 -0.356850 0.210618 -0.209322 -0.039493 0.203856 -0.163217 0.089688 -0.735576 0.224521 0.027077 -0.245256 0.134219 -0.272954 0.183895 0.106088 -0.246998 -0.290375 0.000297 -0.090980 -0.165380 0.079722 0.205776 -0.010556 0.360432 0.001992 0.731905 -0.797939 -0.091070 0.050534 0.011436 -0.340361 0.151457
starch -0.056421 0.329497 0.065376 0.046579 -0.032857 -0.347458 -0.285719 -0.201605 0.132909 -0.224436 0.359731 -0.340862 0.135852 -0.183011 0.235257 0.347842 -0.210406 0.091233 -0.145937 0.155825 -0.347109 0.251931 -0.033429 -0.293683 0.335204 0.296225 -0.108381 -0.218975 -0.438265 0.149889 -0.292058 -0.264076 -0.247686 0.015916 0.355624
nutmeg -0.569093 0.286043 0.357697 -0.152036 -0.222731 0.158124 -0.214972 0.417071 -0.301716 -0.026728 -0.029820 0.082413 0.081087 -0.052960 -0.479809 0.055775 -0.544316 -0.034092 0.416247 -0.183165 -0.590591 0.484377 -0.301711 -0.352860 0.249419 -0.259654 0.308534 0.058297 -0.301203 0.457996 0.663999 0.601391 -0.089924 -0.235406 0.020916
honey 0.160612 0.428464 0.231647 -0.243562 -0.634903 0.412984 -0.145481 0.315217 0.391233 0.358023 0.085018 -0.326165 -0.062123 -0.220890 0.081041 0.039137 -0.759517 0.060780 0.113848 0.193738 0.002007 -0.047973 0.019643 -0.147455 0.072343 0.319300 -0.013310 -0.091944 -0.403224 -0.097225 -0.592184 -0.212057 -0.165466 0.017208 -0.055032
apple -0.209688 0.480827 -0.208013 -0.374068 0.023958 0.051421 0.554229 0.549591 0.369924 -0.153933 0.034249 -0.198228 -0.052805 -0.120795 -0.627823 -0.061462 -0.856411 0.032721 -0.123085 0.294980 -0.244718 0.523258 0.059940 -0.027987 0.067204 0.319817 0.349448 -0.269898 -0.251394 0.193289 0.079389 0.438708 0.112515 -0.095231 -0.201604
almond -0.128082 0.166676 -0.228285 -0.360719 -0.648086 -0.004731 0.289689 -0.148649 0.318840 0.107561 -0.155978 -0.116477 -0.094975 0.158283 -0.228581 0.014676 -0.428992 0.007886 0.294787 0.003718 -0.133641 0.498161 -0.248957 -0.160443 0.148576 0.063242 -0.257826 0.009014 -0.239046 0.574403 -0.425257 -0.021583 -0.020171 -0.119285 -0.619662
cilantro -0.463524 -0.675001 -0.343644 0.056873 -0.182711 0.329634 -0.017938 0.103640 0.456234 0.425770 -0.291635 -0.132373 -0.116972 -0.121158 0.299315 0.158903 0.038856 0.572478 -0.146585 -0.097165 -0.068429 -0.579949 -0.215145 0.246911 0.230392 -0.279229 0.483600 -0.247242 0.001975 -0.426654 -0.284657 -0.188718 -0.202462 -0.418030 0.128938
pecan -0.382554 0.369683 -0.416337 -0.556554 -0.533695 0.581374 0.480668 0.267774 0.062881 -0.564780 -0.028990 0.412586 -0.386554 -0.084678 -0.819234 0.030747 -0.321602 -0.594412 0.196615 0.153129 -0.791312 1.013219 -0.583493 0.419482 0.051803 -0.274881 -0.120778 0.173168 -0.332018 0.147855 -0.127571 0.056835 -0.148829 0.005521 -0.660236
white_wine -0.394930 -0.260188 0.007600 0.038753 0.131614 -0.331405 -0.011923 0.015069 0.107066 -0.091999 -0.032845 0.154425 0.192264 0.163503 0.235560 -0.501959 0.063794 0.627769 -0.347424 0.182896 0.378788 0.229171 0.093202 -0.117035 0.550931 -0.444502 -0.135197 0.159728 0.295365 -0.346049 -0.195214 0.061985 -0.729351 0.235159 -0.255796
bacon -0.105704 0.394308 -0.345562 -0.051235 -0.087247 -0.004482 -0.124062 0.134485 -0.092623 -0.553080 -0.259764 0.095116 -0.306458 0.262678 0.437194 -0.615501 0.472937 -0.149402 -0.225781 -0.042596 -0.090676 0.092582 -0.139611 -0.295294 0.417620 0.194129 0.098205 -0.201808 0.165155 -0.460060 0.225375 0.328342 0.076245 -0.633215 -0.126016
pork -0.608255 0.645950 0.181686 0.295649 -0.112902 0.144345 0.075798 0.211491 -0.114106 0.176610 -0.271395 -0.448393 -0.170572 -0.444223 0.181391 -0.490561 0.220972 0.402940 -0.512202 -0.269170 -0.159875 -0.159771 0.136134 -0.359122 0.136740 0.136704 -0.376874 -0.350041 0.043802 -0.489933 -0.273929 0.134498 0.175238 0.127772 0.652899
raisin -0.530117 0.134945 0.047776 -0.133291 -0.412690 0.027721 -0.105183 0.388101 0.575383 0.036007 -0.360037 -0.225652 -0.076098 -0.015529 -0.375584 0.134756 -0.763475 -0.206974 0.200939 -0.401729 -0.350747 0.462077 0.037099 -0.016417 -0.393035 0.474496 -0.234306 0.250377 0.038776 0.395602 -0.289304 0.241733 -0.062949 -0.480150 -0.437484
bean -0.099440 0.024330 -0.130194 -0.159809 0.228016 0.168985 0.041848 0.138596 0.123266 -0.383095 -0.352174 -0.250157 -0.118042 -0.485792 0.222332 0.451338 0.048145 0.541691 -0.261723 -0.610550 0.330710 -0.214088 -0.078072 -0.090296 0.160593 -0.166809 0.202883 -0.128215 0.304114 -0.558567 -0.182793 -0.028127 0.268166 -0.334362 0.147719
rosemary -0.232908 0.416253 0.159534 -0.137801 -0.229911 -0.407715 -0.598801 0.076468 0.098005 -0.170306 0.056293 -0.056854 0.098781 -0.472064 0.370661 -0.021075 0.406942 0.253753 -0.087345 -0.082179 0.094704 0.766865 0.489159 0.718433 0.289709 -0.259480 0.493621 -0.150188 0.409981 -0.529795 0.263318 0.374738 -0.155771 0.065411 -0.408677
fish -0.184839 -0.543341 0.185539 0.095157 -0.379483 -0.000654 0.145764 -0.297740 -0.070125 0.523670 0.197945 -0.156785 -0.532513 -0.264388 0.236958 -0.009901 0.310448 -0.068283 -0.135514 -0.372453 -0.101007 -0.470261 0.293665 -0.414066 0.498336 -0.713901 0.132064 -0.330957 0.305176 -0.204819 -0.809530 -0.035967 -0.294794 0.099116 -0.025668
cucumber 0.111182 -0.262490 0.016569 -0.010150 -0.201764 0.036899 0.446393 -0.061397 0.277943 -0.284763 0.014880 0.139088 -0.355768 0.038596 0.215580 0.718344 -0.302135 -0.639115 0.073488 0.486789 0.334671 -0.504904 0.682345 -0.081645 0.022658 -0.673751 -0.620797 0.528158 0.063008 -0.532609 -0.758958 -0.229340 0.094365 -0.522665 -0.059737
olive 0.229123 -0.101126 -0.283660 -0.064773 -0.108391 0.207031 -0.099407 0.243505 -0.262970 0.193660 -0.463599 -0.081145 -0.165539 0.070356 0.228801 -0.270366 0.091879 0.232338 -0.357244 -0.063997 0.428330 0.018278 0.276108 0.115135 0.467981 -0.215916 0.668177 0.312342 0.419069 -0.458177 -0.136721 0.008308 -0.151420 -0.414738 -0.577860
coconut -0.447494 -0.158465 -0.015192 0.496342 0.197561 -0.378568 0.218986 0.070132 1.037462 0.398120 -0.108901 0.161543 0.993109 0.076584 0.442629 0.054434 -0.666485 -0.656279 -0.194711 0.158441 -0.676484 -0.100197 -0.465018 0.188673 0.152681 0.080412 0.013232 0.182002 -0.733359 0.434278 -0.165902 -0.368801 0.395391 -0.531389 -0.385790
orange -0.044803 -0.089189 -0.105539 0.095390 -0.782026 -0.220684 0.237060 0.677941 0.065383 0.186390 -0.309247 -0.174160 -0.080818 -0.143041 0.053843 0.075551 -0.820825 -0.022944 -0.189746 0.242270 -0.411807 0.192600 -0.042352 0.314783 0.112089 0.059316 -0.253433 0.029784 -0.501769 0.369574 -0.079797 -0.003538 -0.547844 0.041414 -0.232923
tamarind -0.122210 -0.168167 0.464541 -0.435035 0.357135 -0.070130 0.148269 -0.086841 0.078447 -0.228726 -0.568031 -0.012464 -0.125838 -0.027996 0.025995 -0.532693 0.231042 -0.155864 -0.434871 -0.129341 -0.343453 0.204602 0.347706 0.036003 0.254705 0.470078 0.379376 -0.128025 -0.131348 -1.124801 -0.345781 0.085583 0.315009 -0.285561 0.320324
vegetable 0.140535 0.332246 0.111135 0.176066 -0.077793 -0.109027 -0.351947 0.098956 0.338664 -0.187196 0.131427 0.072440 0.043230 -0.201024 0.162657 0.108325 -0.106045 0.022169 -0.208807 -0.348377 0.342612 -0.378533 -0.296751 -0.153330 0.329677 -0.551351 0.027040 0.066860 0.278307 -0.040774 -0.230387 0.206599 -0.133970 -0.442005 0.341348
orange_juice -0.072101 -0.080628 0.035364 0.075699 -0.571324 -0.000239 0.319247 0.805978 0.309434 0.310611 -0.241788 -0.007966 -0.101063 -0.302427 -0.213993 0.010547 -0.819802 -0.217352 -0.169308 0.237220 -0.097314 0.286187 -0.145911 0.204151 0.159402 0.083165 -0.058106 -0.135201 -0.491592 -0.001791 -0.221665 -0.149203 -0.539810 0.366090 -0.185600
buttermilk -0.400568 0.177839 -0.348360 -0.262820 -0.452546 0.704559 0.408626 0.183671 -0.113494 -0.113147 0.194383 0.515336 0.051242 0.185868 -0.247214 0.425091 -0.121702 0.112396 -0.033838 0.172907 0.036252 0.530920 -0.181269 -0.341093 -0.218265 -0.011301 0.196452 0.165485 -0.196923 -0.007930 0.266295 -0.023237 0.592685 -0.177248 -0.460800
pineapple -0.287511 0.183221 -0.451218 -0.538059 0.320174 -0.219558 0.622966 0.550034 -0.083967 0.196847 -0.339326 -0.051892 0.341183 -0.224597 -0.531235 0.280342 -0.602159 0.068989 -0.009909 -0.005526 -0.410421 0.101406 -0.038806 0.262943 0.307021 0.364226 -0.301975 0.671679 -0.692504 -0.018516 -0.376622 -0.366152 -0.812217 -0.459194 0.089387
shrimp -0.131565 -0.346669 0.110739 -0.280825 0.009729 -0.281547 0.417511 -0.426772 -0.151815 0.143401 0.115253 0.250098 -0.369616 -0.559769 0.069666 -0.224484 0.561073 -0.024009 -0.854669 -0.460968 -0.200735 -0.516456 0.220601 -0.370812 0.361935 -0.770516 0.184574 -0.234889 0.019414 -0.059890 -0.590073 -0.306046 -0.343790 0.071993 -0.057549
coriander -0.787132 -0.183015 0.094852 0.243327 0.109392 -0.105475 0.104943 -0.166693 0.852760 0.411430 0.014596 -0.116417 -0.296126 0.096571 0.096329 -0.379413 -0.484051 0.292184 0.170240 -0.117433 -0.213285 -0.495950 -0.280356 -0.067321 0.229784 -0.245907 0.368817 -0.601906 0.352280 -0.168530 -0.195749 -0.180749 -0.150515 -0.444062 -0.138614
bay -0.445966 -0.103173 0.520945 -0.524388 0.034887 -0.609679 0.093343 0.474153 -0.035999 -0.516652 -0.176200 -0.013575 -0.143208 -0.044324 0.499258 -0.170352 -0.219145 0.497086 -0.303727 -0.617343 -0.320661 -0.128686 0.353076 0.159990 -0.052710 -0.335846 0.356615 -0.209285 0.487613 -0.370988 0.043046 0.153343 -0.196041 0.073419 0.056255
lime_juice -0.250600 -0.748341 -0.232688 0.179804 -0.537628 -0.268694 0.416963 0.101995 0.369782 0.587201 -0.269548 0.122426 0.117952 -0.295650 0.127481 0.106232 -0.055678 0.430797 -0.204038 0.046993 -0.138849 -0.195586 -0.333035 0.573668 0.120220 -0.437810 -0.042537 -0.305491 -0.418796 -0.584137 -0.250697 -0.463939 -0.030058 -0.242298 0.090214
red_wine -0.165890 0.146604 -0.125065 0.621296 -0.187405 -0.036405 0.348946 0.181821 0.255211 -0.476730 -0.197348 0.034093 0.140291 0.075118 -0.071653 -0.573459 -0.222819 1.081399 -0.377547 -0.102552 0.490352 0.281043 0.274362 0.016245 0.376422 -0.292500 -0.072622 0.402401 0.165205 -0.617418 -0.138731 0.019766 -0.266067 0.387037 -0.046014
gelatin -0.434993 0.225360 -0.378253 -0.046485 -0.091640 0.190714 0.325603 0.031431 -0.605114 0.103674 -0.010126 -0.217830 0.761838 -0.267759 -0.374559 0.862558 -0.629794 -0.617841 0.272514 0.260778 -1.071707 0.585047 0.711527 0.229163 0.382928 0.307614 -0.387783 -0.384320 0.002694 0.299101 -0.342741 -0.422768 -0.900677 -0.101885 -0.401503
pork_sausage -0.596215 0.782006 -0.248102 -0.141282 -0.261468 -0.233966 -0.337623 0.530403 -0.700741 -0.213527 -0.354355 -0.044009 -0.240511 -0.025960 1.018799 -0.673713 0.680899 0.252452 -0.063368 -0.548905 -0.538825 -0.037873 -0.126066 0.673047 0.005355 0.186082 -0.057647 0.388545 0.553753 -0.308406 0.297780 -0.020232 -0.195965 -0.723834 -0.127098
sesame_oil -0.497276 -0.244122 -0.443030 0.705423 -0.515165 -0.327275 0.577996 -0.129514 0.561323 -0.193974 0.526176 0.405104 0.384551 -0.559695 0.101113 0.114995 0.272094 -0.417194 -0.387202 -0.113177 -0.220079 -0.560387 -0.211669 -0.563643 1.221812 0.261735 1.080635 0.355111 -0.029400 -0.266836 -0.967356 0.321735 0.047146 0.174972 0.975783
chive 0.129470 -0.294830 0.359513 -0.497209 -0.453330 0.156349 0.345430 -0.055347 -0.338291 -0.490222 -0.110773 -0.278430 0.008421 0.528002 0.429047 0.415741 -0.076614 -0.051203 -0.013949 0.625294 0.001664 0.246965 -0.087683 -0.360109 0.212388 -0.721262 -0.194551 -0.008631 0.510219 0.149272 -0.247142 -0.019360 0.279587 -0.452665 -0.035666
seed 0.282289 0.170125 -0.459746 -0.075307 -0.723771 0.239099 0.059365 0.203263 0.260359 0.201992 0.042214 -0.126486 -0.315372 0.363006 -0.002602 0.118176 -0.650463 0.185727 -0.136432 -0.102920 -0.180359 0.060722 0.484257 -0.263081 -0.340841 0.121010 0.293965 -0.239878 0.055270 -0.188669 -0.257352 0.094851 0.059354 -0.301784 -0.392751
mozzarella_cheese -0.196400 0.546411 0.348388 0.060650 -0.290527 0.094623 -0.263028 0.164585 -0.660196 0.065008 0.041939 0.540480 -0.194208 -0.711923 -0.167291 -0.236291 0.842160 -0.248259 -0.073819 -0.158023 0.425687 -0.025714 0.094012 0.419038 0.475602 0.358092 0.587303 0.503620 1.008560 -0.538797 0.338451 -0.041280 -0.219526 -0.303018 -0.881159
ham -0.248904 0.585898 -0.407185 0.032924 -0.149149 -0.002032 -0.227830 -0.019977 -0.189823 0.021009 -0.269900 0.078148 -0.097514 0.164820 0.571542 -0.741320 0.819069 0.031100 -0.326656 0.275072 -0.378637 0.330878 -0.005888 -0.402752 0.266087 -0.035415 -0.145102 -0.151471 0.042858 -0.320842 -0.068714 0.407905 0.050791 -0.403159 -0.467209
oat -1.391413 0.842650 0.028518 0.073104 -0.660678 0.859170 0.026576 -0.908107 0.210637 -0.276999 0.019123 -0.074224 0.735843 -0.042384 -1.472248 0.514473 -1.010635 -0.665191 -0.237940 -0.297360 -0.113891 0.787205 -0.106724 0.537973 -0.263948 0.365649 -0.321223 0.423731 0.429893 -0.386918 0.423761 -0.430520 0.276592 0.214415 -0.058814
turmeric -0.894323 -0.130799 0.071188 0.199419 0.168509 -0.387939 0.064217 -0.165306 0.828851 0.530565 -0.003095 -0.062383 -0.093386 0.304480 0.074486 -0.475626 -0.420120 0.093561 0.083112 0.020413 -0.431407 -0.599768 -0.361657 -0.072659 0.111339 -0.329450 0.467570 -0.411790 0.516497 -0.037120 -0.302193 -0.225291 -0.095957 -0.686850 -0.125752
nut 0.045056 0.402215 -0.207383 0.068516 -0.379483 -0.187066 -0.479533 -0.289117 0.141868 -0.013088 0.019427 -0.235661 -0.354205 -0.172790 -0.175334 0.195622 -0.203351 0.062529 0.084129 -0.008220 0.086839 0.205678 -0.200487 -0.176748 0.048949 -0.106349 0.149195 0.093227 -0.300497 0.159243 -0.562451 0.359192 -0.194867 0.092621 -0.188373
shallot -0.193393 -0.578506 0.194667 -0.263074 -0.340046 -0.456805 -0.014673 0.066254 -0.077226 -0.043893 0.277723 -0.400297 0.246267 -0.620951 -0.065810 -0.763199 0.047178 0.381860 0.233020 -0.130640 0.211188 0.307873 0.327942 -0.458290 0.480595 -0.479499 -0.263048 -0.556498 0.089792 -0.121248 -0.122143 0.114940 -0.472937 -0.469689 -0.054613
lettuce -0.154845 -0.013167 -0.487836 0.144618 -0.339629 0.125802 0.049865 0.042908 0.040849 0.497452 -0.032252 -0.508771 0.087532 0.120169 -0.394375 0.077723 0.259021 0.088916 -0.088058 0.731430 0.505583 -0.333264 0.445986 -0.286869 0.351025 -0.066979 0.181985 -0.066107 0.060820 -0.899342 -0.235487 0.001512 -0.301447 -0.783621 -0.044739
cider -0.162863 0.235567 -0.189787 0.199927 -0.243156 0.230271 0.586796 0.602282 0.569359 -0.335986 -0.168843 0.308553 -0.290426 0.245038 -0.192287 -0.254137 -0.542198 0.541958 -0.368986 0.057527 -0.073761 0.411195 0.068189 -0.305489 0.110922 0.104692 -0.368268 0.204680 0.128324 -1.007906 -0.150176 -0.075059 -0.049890 -0.023220 0.260488
dill 0.346407 -0.704407 0.109375 -0.679800 -0.370500 -0.037269 0.091938 -0.353815 0.241501 -0.163802 -0.164878 -0.000631 -0.151914 0.379301 0.353358 -0.146542 -0.258430 -0.224390 -0.506702 0.460750 0.054492 0.072823 0.635660 -0.246659 0.514544 0.110022 0.411946 -0.141816 0.697146 -0.420898 0.210449 0.264568 -0.055416 -0.658745 -0.249076
pea -0.072533 -0.056935 -0.408285 -0.603778 0.214846 -0.552566 -0.026130 0.174812 0.252347 0.169611 -0.203373 -0.081121 -0.011987 0.019568 0.046354 0.282411 -0.062177 0.099850 -0.376058 -0.469742 0.391179 -0.246630 -0.312375 -0.392236 0.593015 -0.318003 0.158664 -0.073608 0.706565 -0.169472 -0.168152 -0.035633 -0.237338 -0.264246 -0.043445
zucchini -0.546018 0.196794 -0.222186 -0.036246 0.339190 -0.291022 -0.466851 0.160535 -0.109628 0.001615 -0.235203 0.114564 -0.248778 -0.268876 0.046698 0.293646 -0.456664 0.235849 0.021327 -0.163641 0.425368 -0.346889 0.096399 0.120623 -0.140698 -0.457084 0.559892 0.633189 0.476948 -0.117723 0.111956 0.123571 0.235777 -0.185699 -0.246640
cherry -0.539094 0.309350 -0.094227 0.066512 -0.385668 0.277331 0.662284 0.132916 -0.321049 -0.222803 -0.612058 -0.361317 0.256072 -0.248953 -0.276282 0.130544 -0.649854 -0.694822 0.238805 0.230832 -0.547142 0.347676 -0.153279 0.110536 0.261688 0.456861 -0.305981 0.217294 -0.421727 0.450450 -0.290148 0.073364 -0.523935 0.006458 -0.523891
lime -0.128576 -0.698231 -0.291692 0.222086 -0.284164 -0.361925 0.474378 0.247344 0.137753 0.673561 -0.303035 0.136156 0.334944 -0.330436 0.306679 0.475025 -0.047194 0.591092 -0.184167 0.200684 -0.508990 -0.084412 -0.242986 0.640867 0.226185 -0.456460 -0.245403 -0.149865 -0.665290 -0.342212 -0.355701 -0.366434 -0.186978 -0.303739 -0.065356
yogurt -0.176487 -0.060227 -0.133670 0.187567 -0.282343 -0.318264 0.152208 -0.119387 0.516807 0.674147 0.092093 0.179894 -0.033043 0.291894 -0.401969 -0.020613 -0.734983 0.151543 0.276493 0.533445 -0.061473 0.146350 0.291248 0.327343 -0.030798 -0.653766 0.375478 0.027963 -0.152386 -0.056600 -0.254565 0.019582 0.367341 -0.320776 -0.539418
strawberry -0.854688 -0.039431 -0.226882 -0.128704 -0.698518 0.270912 0.895982 -0.097182 -0.396532 -0.100291 -0.283071 -0.084346 0.271852 -0.455377 -0.370814 0.248798 -0.695931 -1.068701 0.514054 1.327847 -0.348649 0.109729 0.180946 0.951266 0.774452 0.108019 -0.558075 0.049955 -0.490745 0.189445 -0.366801 0.129755 0.131423 0.059936 -0.562690
soybean -0.380924 0.170794 -0.412688 0.568530 -0.497278 -0.240307 -0.203680 -0.361485 0.485772 -0.164233 0.475566 0.033569 -0.010361 -0.363439 0.287999 0.288657 0.017266 -0.417505 0.114231 -0.279329 0.060764 -0.181862 -0.272915 0.018914 0.346130 -0.296738 0.762847 0.445360 -0.309010 -0.258515 -1.064368 0.138405 0.191280 -0.036782 0.816119
celery_oil 0.114737 0.413977 0.271387 -0.321424 0.293036 0.235843 0.504795 0.516189 0.339951 0.453346 -0.092239 -0.239041 0.122573 0.115374 -0.086770 -0.458223 0.597441 -0.023773 -0.001027 -0.639383 -0.694143 0.555533 0.548673 0.053097 0.712765 0.524292 0.281686 0.097998 -0.353707 -1.677240 -0.584100 -0.098817 0.602316 -0.121388 0.241430
peanut_butter 0.116061 0.228013 -0.781928 -0.391985 -0.097372 -0.363351 0.449793 -0.832352 0.956581 0.116089 0.376073 0.013018 0.862269 -0.227890 -0.054526 0.509058 -0.446352 -0.669944 -0.190730 -0.579661 -0.722322 -0.097551 -1.002775 0.747689 0.261618 0.555948 -0.239380 0.657459 -0.595148 0.002715 -0.224267 0.073894 0.638688 -0.749079 0.202475
banana -0.646000 -0.047983 0.032944 0.351847 -0.496712 0.119506 0.084373 -0.109683 -0.061024 0.383148 -0.229553 0.121397 0.499361 -0.691809 -0.339385 0.260657 -0.896462 -0.538732 0.141078 0.429207 -0.682345 0.053437 -0.100885 0.506372 -0.014405 0.440959 -0.295019 0.320051 -0.206936 0.278821 0.009877 -0.371886 -0.076734 -0.426212 -0.277684
meat -0.058994 0.624298 0.171256 -0.042029 0.034238 0.042202 0.053352 0.173736 -0.035954 -0.058192 -0.375556 -0.007169 0.081623 -0.225883 0.045377 -0.357304 0.240216 0.382159 -0.162290 -0.416129 0.125298 -0.103797 0.041766 -0.081003 0.385654 0.019038 -0.112862 -0.629712 0.161474 -0.303890 -0.085039 0.420186 -0.078196 -0.175371 0.248984
tabasco_pepper 0.111430 -0.109958 0.097693 -0.359008 0.122741 0.146926 0.070167 0.077392 -0.182684 0.033532 -0.180951 0.204206 -0.148792 -0.110772 0.148567 -0.310261 0.158841 -0.076375 -0.588659 -0.059268 -0.264504 -0.034371 0.199744 -0.036412 0.170892 0.053950 0.270698 -0.246161 -0.174365 -1.005693 -0.261007 -0.241896 0.081820 -0.300919 0.066914
milk_fat -0.598227 0.112352 0.053031 -0.255238 0.225660 0.105329 0.462954 0.109803 -0.605255 0.068851 0.176253 0.057300 0.069042 0.123925 -0.143704 0.304090 -0.082275 0.020361 0.085840 -0.363218 0.212561 0.488477 -0.335474 -0.143947 0.365077 -0.661638 -0.198020 -0.345423 -0.559342 0.457966 0.479903 0.337139 0.048787 -0.181470 -0.278000
cabbage 0.051442 0.302344 -0.613570 0.159060 -0.132096 -0.291799 0.070917 0.202099 0.355943 -0.042788 -0.119731 -0.079385 0.247222 -0.050494 -0.015567 0.113208 -0.182543 -0.044515 -0.662028 0.147284 -0.049344 -0.485243 0.555834 -0.617915 0.257031 -0.011886 0.145740 -0.417157 0.654873 -0.499676 0.024770 0.102288 -0.309175 -0.266682 0.403123
mint -0.198396 -0.432856 -0.092806 0.443825 -0.586664 -0.456660 0.095277 -0.423089 0.211492 0.445799 -0.342884 -0.014344 0.110557 -0.096121 0.151122 0.000989 -0.518161 0.556423 0.238642 0.313825 0.190469 -0.170103 0.452720 0.421644 0.405183 -0.584126 -0.074993 -0.263867 -0.004186 0.191873 -0.346354 -0.167042 0.008277 -0.048280 -0.190472
fennel -0.212915 0.151007 -0.186039 0.059574 -0.141455 -0.163776 -0.370401 0.320730 -0.176174 0.142217 -0.078404 -0.147887 -0.118510 -0.036220 0.169411 -0.219035 0.107195 0.735979 -0.378764 -0.443884 -0.005052 0.058626 0.454399 0.302954 0.473083 -0.491171 0.807085 0.118398 -0.030186 -0.295652 0.543773 0.310573 -0.391107 0.089295 -0.716507
sage -0.742541 0.704687 0.144334 -0.618038 -0.086274 -0.109692 -0.441090 0.665190 0.365005 -0.136229 0.073868 -0.202830 -0.161401 -0.373004 0.504706 0.037038 0.246551 -0.189209 -0.072443 -0.429145 0.481221 0.986495 0.029067 0.387637 0.535507 0.122387 -0.055100 -0.528255 0.537854 -0.474789 0.591757 0.147542 -0.129874 0.186201 -0.102661
broccoli -0.196064 0.312246 -0.459314 -0.733536 0.344035 -0.093670 -0.221346 0.089281 -0.084784 0.614339 -0.139767 -0.139866 0.069501 -0.176676 0.043202 0.089890 0.112091 -0.445261 -0.272420 0.030395 0.534575 -0.128038 -0.349506 -0.573180 0.439799 0.037911 0.435311 0.376392 0.817388 -0.285096 -0.184422 0.419986 -0.354641 -0.376607 -0.128750
turkey -0.515980 0.872781 -0.592791 -0.417358 -0.159442 0.048262 -0.087069 0.154950 0.074059 0.513827 -0.145188 -0.063461 -0.415096 -0.422034 0.501079 -0.278655 0.071291 0.308022 -0.493424 -0.182593 0.208125 0.108557 0.393599 -0.080325 0.245620 0.237711 -0.431074 -0.132509 0.179263 -0.508421 0.102539 0.105716 0.483376 -0.007055 -0.313559
fenugreek -0.994309 0.000667 0.162697 0.271162 0.395525 -0.257755 0.254233 -0.488294 1.035515 0.398823 0.104343 -0.217566 -0.210486 0.182166 0.018941 -0.576018 -0.293967 -0.004614 0.297515 0.017895 -0.252551 -0.394455 -0.571575 -0.096984 0.479841 -0.335175 0.273257 -0.612480 0.426806 -0.211482 -0.235373 -0.280274 -0.122480 -0.750264 -0.032541
cranberry -0.679056 0.357148 -0.400736 -0.358704 -0.558496 0.153969 0.286474 0.689280 -0.193392 -0.063320 -0.076237 -0.132496 -0.113911 -0.415900 -0.029251 0.126103 -0.833213 0.075204 0.203616 0.754654 -0.449233 0.691194 0.080258 -0.016279 0.114724 0.558858 -0.024238 -0.173067 -0.233947 0.038292 -0.080553 0.601286 -0.029966 0.124864 -0.021068
wine 0.025218 0.104862 -0.572456 0.307033 -0.333323 -0.199033 0.333571 -0.266704 -0.076360 0.016068 -0.013198 -0.162658 0.386585 -0.345438 0.501402 0.275892 -0.164149 0.840655 -0.248650 0.003716 0.156144 0.138652 -0.007532 -0.127128 0.353582 -0.173464 -0.103308 -0.253239 -0.006573 -0.140156 -0.337277 -0.107458 -0.819162 0.562162 0.158871
beef_broth 0.128124 0.912377 0.242745 0.424937 -0.087842 -0.383689 0.165031 -0.167290 0.199952 -0.646430 -0.148688 -0.093861 -0.115982 -0.258343 0.177895 -0.105390 0.307191 0.312538 -0.264722 -0.850253 -0.273668 -0.574450 0.299930 -0.325889 0.373971 -0.304335 0.119485 -0.382618 0.322598 -0.307683 -0.172004 0.380618 -0.100616 0.188865 0.023082
grape_juice -0.142479 0.107042 -0.010393 0.636905 -0.785890 -0.100245 0.058607 0.180676 0.162125 0.128532 -0.270952 -0.448333 -0.107051 -0.237750 0.141273 -0.052066 0.003190 0.888376 0.187838 0.055843 0.736536 0.391467 -0.005511 0.090387 0.650001 -0.324794 -0.146449 0.285863 -0.136318 -0.600718 0.122259 0.225269 -0.103759 0.028315 -0.032334
pumpkin -0.823478 0.167041 0.185363 -0.368550 -0.196851 -0.390233 -0.506321 0.227072 -0.128860 -0.402265 0.669703 -0.209306 0.408633 -0.124106 -0.204117 0.142483 -0.612067 -0.413425 -0.806933 -0.142328 -0.394559 -0.690940 -0.799418 0.046923 -0.407086 -0.160819 0.008479 0.882478 -0.789688 0.323705 0.169144 1.006303 0.358016 -0.302326 0.604231
raspberry -0.347631 -0.087637 -0.377164 -0.091041 -0.622334 0.300703 0.723476 0.106144 -0.352460 -0.333050 -0.355233 -0.208931 0.126765 -0.607095 -0.318474 0.227468 -0.624244 -0.533314 0.492716 0.864133 -0.185950 0.396828 0.116862 0.635157 0.854680 0.487471 -0.592571 -0.020250 -0.302122 0.285866 -0.215147 0.115914 -0.016790 0.032813 -0.574920
whole_grain_wheat_flour -0.329157 0.423901 -0.045475 0.106913 -0.999298 0.544706 -0.725826 -0.150091 0.176587 0.369705 -0.024090 0.464389 -0.344635 0.104495 -0.764848 0.494624 -0.598073 -0.203175 0.100402 -0.229557 0.040667 0.268912 -0.140708 0.162256 -0.252069 -0.103721 0.008747 0.467084 -0.083107 -0.352015 0.334826 0.447676 0.543070 -0.403099 -0.287232
lemon_peel -0.402484 -0.406317 0.370601 -0.058684 -0.367754 -0.368815 0.006144 -0.097956 -0.066139 0.085511 -0.344355 0.029590 0.011515 0.168429 -0.246374 -0.047156 -0.661119 -0.088574 -0.207610 0.324468 0.586811 0.589068 -0.148964 -0.097395 0.441458 -0.225607 0.087498 0.010091 -0.127635 0.573934 0.117320 0.158142 -0.228157 -0.100309 -0.477634
coffee -0.468529 0.026971 0.176297 -0.289136 -0.290727 0.863372 0.465283 -0.164712 -0.304117 -1.042647 -0.428079 -0.117126 1.119917 0.298833 -0.121331 0.105480 -0.774806 -0.165996 -0.113621 -0.490807 -0.419771 -0.563081 -0.197229 0.414434 0.253452 0.518014 -0.582168 0.039734 -0.526438 0.114820 0.247184 -0.407004 0.416346 -0.056594 -0.327540
sesame_seed 0.319636 -0.007290 -0.229494 0.143595 -0.753743 -0.015815 -0.218521 -0.385122 0.514523 0.286846 0.134862 -0.238396 -0.142122 -0.281929 0.295641 0.322655 -0.438822 -0.435680 -0.043733 -0.135211 0.097953 -0.052145 -0.391964 -0.257755 0.076108 0.079413 0.318294 0.257499 -0.085187 -0.088516 -0.890262 0.485302 -0.040438 -0.355825 0.298653
avocado -0.188434 -0.720183 -0.453872 -0.030280 -0.427015 0.512186 0.607331 0.496279 -0.216362 0.590668 -0.157419 -0.264826 0.237927 -0.065762 -0.051618 0.019378 0.328197 0.177502 -0.397766 0.623644 0.391175 -0.494066 -0.041650 0.204797 0.310423 -0.035768 0.410684 -0.178681 -0.115522 -1.007534 -0.049667 -0.024211 0.103767 -0.952365 -0.081943
sherry -0.226637 -0.092969 -0.090014 -0.036392 -0.354624 -0.454189 0.107264 0.212568 0.169687 -0.110593 0.120260 -0.059003 0.218557 0.113492 0.409012 -0.355613 -0.206385 0.428259 -0.044191 -0.102880 0.418610 0.154696 -0.408988 -0.376130 0.213208 -0.125380 -0.356589 0.118088 -0.024507 -0.383654 -0.228379 0.087837 -0.599349 0.090197 0.049644
sake -0.413381 0.013818 0.039483 0.786124 -0.819718 -0.425573 0.120884 -0.004817 0.421205 0.059293 0.586863 0.089581 0.002019 -0.204593 -0.092188 -0.046875 0.608833 -0.651801 -0.600644 -0.136914 -0.582443 -0.182726 -0.359072 -0.199885 1.110248 0.032915 0.380803 0.314085 -0.072562 -1.010302 -0.894515 0.218101 -0.313592 0.548134 0.916179
feta_cheese 0.148251 -0.056976 0.022689 0.446144 -0.746657 0.140557 0.021360 0.262480 -0.013465 0.304142 -0.118096 -0.187071 0.098532 -0.098382 0.260414 -0.208556 0.142173 0.138307 0.020185 0.404031 0.991323 0.028049 0.647053 0.366028 0.411624 -0.354977 0.538375 0.601955 0.586091 -0.297388 -0.233603 0.095653 0.098301 -0.635089 -0.787094
apricot -0.384059 0.163232 0.227485 -0.370109 -0.443845 0.002211 0.273268 0.360460 0.600980 0.022688 -0.321064 -0.564925 0.255082 0.126207 0.086585 -0.164945 -0.857440 -0.073664 0.064729 0.109680 -0.326580 0.417452 -0.128110 0.122416 0.229859 0.455715 -0.096020 -0.420186 -0.263017 0.404211 -0.056018 0.009541 -0.317052 0.016773 -0.200560
roasted_sesame_seed -0.692440 -0.577601 0.172529 0.688557 -0.625251 0.402776 0.286486 0.040019 0.693907 0.438028 1.083218 -0.560798 -0.502284 -0.111187 -0.252458 0.280096 -0.128103 -0.706635 -0.440014 -0.844582 0.318011 -0.791268 -0.048183 0.172658 1.376927 -0.038062 0.514038 0.814873 1.176256 -0.630490 -0.913757 0.229853 -0.117485 -0.358205 0.956497
rum -0.950263 -0.069536 0.191224 0.095723 -0.239742 0.537481 0.750070 0.397451 -0.349925 -0.346303 -0.259682 -0.238317 0.647047 0.093790 -0.225183 0.312973 -0.674799 -0.924552 0.048817 0.077970 -0.978679 0.175379 0.180185 0.627351 0.106231 0.002472 -0.364645 -0.469019 -0.615409 0.248776 -0.241753 -0.490107 -0.647608 0.014162 -0.505713
orange_peel -0.228198 -0.006530 0.086661 -0.210451 -0.837381 0.138390 0.250791 0.513951 0.105203 -0.000929 -0.470524 -0.197290 0.057371 -0.244882 -0.066393 -0.337533 -0.828559 -0.199757 0.009963 -0.106896 0.021898 0.411041 -0.169959 0.109489 0.146609 0.094829 -0.365220 0.194623 -0.455674 0.516984 -0.102142 0.369199 -0.477601 0.057760 -0.335339
squash -0.747616 0.040568 -0.193153 -0.220827 0.015398 0.070287 -0.497348 0.493140 0.291845 0.009371 -0.252159 0.218358 -0.299239 -0.313131 0.181847 -0.206044 -0.135177 0.445986 0.201783 -0.382091 0.153713 -0.186326 -0.220369 -0.023013 -0.061922 -0.419751 0.215016 0.306115 0.031406 -0.148101 0.137253 0.740132 0.401543 -0.185856 -0.300172
crab -0.323314 -0.118876 0.345068 -0.598806 0.033888 -0.230661 0.623438 -0.788683 -0.738996 0.362473 0.418769 0.130524 -0.581321 -0.044079 0.566889 -0.690872 0.336490 -0.506753 -1.073839 0.015652 -0.551755 -0.250264 0.137265 -0.498512 -0.080952 -0.736711 0.179901 0.281066 -0.365120 -0.240776 -0.433915 -0.104841 0.045329 -0.379013 -0.365526
marjoram -0.353608 0.220482 0.037327 -0.673064 -0.163328 -0.456684 -0.354317 0.207650 0.403584 -0.049124 0.031961 -0.082461 0.011209 -0.204258 0.547614 -0.001706 -0.200290 -0.002512 -0.248604 -0.375699 0.322389 0.960008 0.483870 0.533867 0.633058 -0.088514 0.147238 -0.450913 0.617777 -0.627465 0.563070 0.151553 0.185864 0.133963 -0.184079
swiss_cheese -0.103592 0.384295 0.389455 -0.707722 -0.444160 -0.415491 0.323101 -0.248540 -0.260774 0.028106 0.293131 0.244317 -0.536340 0.219417 0.105740 -0.028700 0.218842 -0.026465 -0.306903 0.090934 0.045953 0.215631 -0.264114 -0.358442 0.399970 0.946237 -0.044587 0.181009 0.880282 -0.615764 0.488075 0.083519 -0.092121 -1.085005 -0.663048
sweet_potato -0.944540 -0.238014 0.217290 0.093920 0.062198 -0.365586 -0.179156 0.704555 0.176533 -0.130861 -0.019405 -0.145855 0.063165 -0.378373 -0.178292 -0.017843 -0.497814 -0.110315 -0.717922 -0.066619 -0.085028 -0.181144 -0.287405 -0.108985 -0.659224 -0.100692 -0.064715 -0.294447 -0.464308 0.092530 0.139307 0.430898 0.437675 0.086944 0.013910
shiitake -0.270369 -0.224664 -0.155763 -0.093555 -0.664139 -0.411789 -0.095885 0.002192 -0.084579 -0.389346 0.712350 -0.364985 0.274615 -0.518121 0.346268 0.079652 0.656983 -0.421026 -0.641482 -0.742433 0.301240 -0.374267 -0.417667 -0.413989 0.939421 -0.252429 0.195385 -0.214236 0.191743 -0.160540 -0.437912 0.552130 -0.042792 0.260115 0.436915
radish -0.375867 -0.513213 -0.445964 0.384603 -0.763892 0.170382 -0.101080 0.272397 0.022974 0.267502 0.840195 -0.342727 0.028951 0.015751 -0.167724 0.112432 0.201697 -0.626689 -0.611439 0.072586 0.281160 -0.746372 0.356176 -0.194455 0.729436 -0.443733 0.375206 0.044182 0.410114 -0.902693 -0.583674 0.397362 -0.310584 -0.703550 0.682815
peach -0.474649 -0.016376 0.303308 -0.272728 -0.085911 -0.014632 0.932346 0.421722 0.256556 0.216387 -0.138672 -0.036397 0.003955 -0.486419 -0.629765 -0.161673 -0.574136 -0.332825 0.246481 0.324145 -0.118619 -0.102223 -0.141287 0.386140 0.543263 0.429410 -0.340885 -0.179231 -1.043614 0.084331 -0.128858 -0.042993 -0.027174 -0.223151 -0.429726
tarragon -0.107326 -0.498448 -0.052006 -0.071088 -0.259105 -0.450908 0.213306 -0.099039 0.146698 -0.494769 -0.065441 -0.232993 -0.258924 0.068487 0.516218 -0.338253 0.083759 -0.213937 -0.167572 0.477769 0.406053 0.391696 0.374289 -0.333524 0.428590 -0.353860 -0.073420 -0.180491 0.302891 -0.282770 -0.135793 0.322263 -0.420157 -0.288004 -0.502281
black_bean -0.291835 -0.123307 -0.801077 -0.317966 -0.133000 0.611800 0.027884 0.496908 0.353736 0.127215 -0.405215 0.018601 -0.042721 -0.959016 0.276573 -0.090418 0.497248 0.217842 -0.235791 -0.475945 0.082459 -0.802716 -0.355321 0.436174 0.144627 0.054082 0.461406 -0.278094 0.211237 -0.701027 -0.217844 -0.076514 0.526949 -0.349234 -0.076469
lamb -0.810457 0.113373 0.192186 0.150185 -0.594865 0.096487 0.257478 -0.038736 0.477811 0.402100 -0.256589 -0.561117 -0.365894 -0.286280 0.278750 -0.499427 -0.740451 0.923291 -0.220867 -0.722897 0.553761 -0.430924 0.909729 0.079913 0.327059 -0.396851 -0.265328 -0.028843 0.301600 0.044157 0.149614 0.350230 0.717875 0.246776 -0.130492
maple_syrup -0.010331 0.568284 0.278951 -0.576693 -0.364535 0.387511 -0.022005 0.861532 0.400311 -0.245303 0.147314 -0.030819 0.161569 -0.288100 -0.341191 0.225127 -0.801937 -0.267807 0.060886 0.110566 -0.248617 -0.001206 -0.099269 -0.093147 -0.106909 0.430429 -0.068659 -0.210263 -0.357631 -0.365299 0.071568 -0.028309 0.013755 -0.173895 0.054001
pear -0.295699 0.063756 -0.246358 0.359727 -0.770572 -0.003298 0.026811 0.160431 -0.188174 -0.141186 0.510029 -0.962197 -0.052863 -0.193363 -0.350732 -0.127125 -0.566687 -0.092103 0.142817 0.391067 -0.041589 -0.002595 -0.191282 -0.355367 0.305922 0.000187 -0.152242 -0.071157 -0.886050 0.252593 -0.527221 0.911908 -0.044203 0.012551 0.192318
blueberry -1.008381 -0.286632 -0.002295 -0.437826 -0.744137 0.219697 0.872875 -0.139369 0.022529 0.031655 -0.027403 -0.029594 0.423775 -0.892837 -0.922700 0.228102 -0.689911 -0.948470 0.196251 1.025734 -0.264892 0.490559 -0.030312 1.158943 0.961201 0.454717 -0.227964 0.074023 -0.628593 0.526400 -0.106885 0.172651 0.750128 -0.083732 -0.849952
fruit -0.483095 0.182895 -0.202034 -0.236481 -0.359114 0.024041 0.182350 0.138176 -0.073282 0.210722 -0.300833 -0.283156 0.384738 -0.273889 -0.343271 0.220419 -0.805320 -0.329471 0.074901 0.302981 -0.463336 0.341035 0.002482 0.212251 0.412548 0.217372 -0.188227 0.211423 -0.477823 0.577438 -0.272118 -0.000721 -0.077126 0.075813 -0.467955
clam -0.249645 -0.568369 1.029723 -0.446132 -0.171949 0.035446 0.370823 -0.078552 -0.201182 0.287525 0.688690 0.220148 -0.388225 -0.410498 0.614994 -0.139345 0.987466 -0.355521 -1.314894 -1.195371 -0.191339 -0.590645 0.133348 -0.110978 0.406223 -0.835750 0.124671 -0.273069 0.375257 -0.317811 -0.515312 0.652406 -0.570692 0.006823 -0.420057
smoke 0.051964 0.203179 -0.144096 -0.242531 -0.077240 -0.173898 0.164887 0.384087 -0.150631 -0.090493 -0.117953 0.102117 0.051448 0.003915 0.175056 -0.364454 0.160787 0.644745 -0.673354 -0.048423 -0.123895 0.045687 0.264615 -0.170827 0.366978 0.296840 0.263559 -0.193008 0.016427 -0.437029 0.147425 0.119697 -0.308752 -0.452674 -0.170967
tuna -0.297726 0.245741 -0.565990 -0.115352 -0.177933 -0.061445 0.100425 -0.515248 -0.153395 0.627716 -0.310177 -0.308683 -0.133793 -0.036825 0.324006 -0.470710 0.424947 -0.815068 -0.556221 0.528026 0.349389 -0.371604 0.459353 -0.430244 0.108631 -0.781867 -0.113265 0.547583 0.343637 -0.431853 -0.466545 0.117619 0.017584 -0.680123 0.039386
peanut 0.073448 -0.045197 -0.902925 -0.105742 0.216190 -0.592238 0.317490 -0.412047 0.614281 -0.149731 -0.004208 0.115896 0.273821 -0.236378 0.100406 0.410510 -0.596696 -0.839817 -0.262824 -0.194880 -0.513299 -0.253702 -0.726593 0.215358 0.116937 0.217949 0.056337 -0.136612 -0.434825 -0.258290 -0.863855 -0.312412 0.419914 -0.172340 0.036786
kidney_bean -0.284059 0.341215 -0.613495 0.171986 -0.003877 0.329139 0.229965 0.096417 0.071698 -0.690912 -0.464637 0.377123 -0.396657 -0.386462 0.181041 0.096485 0.094961 0.788068 -0.054092 -0.861591 -0.243328 -0.285206 0.200575 0.650615 0.111735 -0.115169 0.480455 -0.031273 0.994366 -0.839727 -0.107860 -0.011930 0.740977 -0.542955 0.219624
asparagus -0.207803 -0.047547 0.194013 -0.588837 -0.188722 -0.179092 0.083270 -0.160784 -0.148308 0.523399 0.241946 -0.337235 -0.026076 -0.253344 0.406944 -0.048653 0.192508 -0.134429 -0.048997 0.133987 0.855976 -0.065323 -0.083997 -0.796606 0.611607 -0.237373 0.100767 -0.047320 0.272843 -0.029083 -0.179465 0.492644 -0.115288 -0.440091 -0.492684
salmon -0.463655 -0.324292 0.089087 -0.316686 -0.381263 -0.116598 0.419575 -0.392889 -0.364076 0.851096 0.094556 -0.258613 -0.762727 -0.492429 0.491965 -0.416387 -0.103739 -0.502146 -0.722477 0.203102 0.181290 0.078473 0.354222 -0.242756 0.124201 -0.963486 -0.350635 0.111436 -0.497887 -0.313976 -0.403475 0.476112 0.582729 0.003619 0.043867
leek -0.365898 -0.109792 -0.079439 -0.320758 -0.110358 -0.771041 -0.144211 0.239030 0.057583 -0.599172 0.492339 -0.246040 -0.157227 -0.035344 0.522126 0.023282 -0.002005 0.010090 -0.022211 -0.627318 0.171816 -0.203634 0.028382 -0.384548 0.376508 -0.694104 -0.122664 -0.228537 0.350864 0.042913 0.408831 0.802145 -0.040893 -0.414452 -0.436328
chickpea -0.451589 -0.053244 -0.463989 0.132628 0.035933 0.592308 -0.144870 0.250699 0.591741 0.253707 -0.298978 0.106099 -0.384764 -0.135117 -0.178797 -0.202185 -0.544659 0.617410 0.037704 -0.471042 0.481253 -0.730282 0.412530 0.027903 0.419090 -0.632035 0.566550 0.130630 0.738598 -0.053664 -0.462512 0.342869 0.509167 -0.033805 -0.374350
blue_cheese -0.073879 0.126185 -0.057642 0.163055 -0.606537 -0.017040 0.395467 0.438797 -0.394974 -0.382875 0.008433 -0.306116 -0.055241 -0.188538 0.150574 -0.296840 0.340243 0.146317 0.022030 0.627258 0.736993 0.321123 0.357772 -0.181543 0.442045 0.415092 -0.298018 0.463294 0.058299 -0.701482 0.509304 0.550945 -0.280125 -1.098320 -0.274996
brandy -0.639832 0.074941 0.142403 0.101545 -0.143245 -0.015280 0.430539 0.185118 -0.555270 -0.492429 -0.333768 -0.744767 0.374368 0.296943 0.282192 -0.172641 -0.509702 -0.036513 0.101025 -0.285198 -0.272730 0.549854 0.155058 0.081739 0.326904 -0.308289 -0.187769 -0.333146 -0.611555 0.489926 0.229511 -0.158275 -0.623064 -0.017089 -0.178966
artichoke -0.199909 -0.444109 0.017025 -0.522454 -0.219659 -0.137623 -0.108504 -0.084339 -0.364599 0.085651 -0.054709 -0.172517 -0.331352 0.087321 0.418994 -0.312656 0.344705 0.018760 -0.105459 0.147302 0.390267 -0.020573 0.426430 -0.077735 0.666317 -0.235523 0.635660 0.403474 0.400739 -0.322745 -0.053137 0.229539 -0.102851 -0.125107 -0.970367
horseradish 0.164792 -0.230922 0.285275 -0.353834 -0.159893 -0.212800 0.516397 0.206603 -0.237808 -0.214537 -0.042107 0.012073 -0.162949 0.274017 0.066124 -0.247898 -0.071547 0.040995 -0.341048 0.559240 -0.701406 0.045468 0.375452 -0.559087 0.382699 0.113644 -0.111439 0.040574 -0.053610 -1.107710 0.160589 -0.132841 -0.054748 -0.461451 0.248907
mango -0.514610 -0.270623 -0.312477 -0.048725 -0.508312 -0.242208 0.651715 0.062183 0.254923 0.529866 -0.187725 -0.079894 0.202847 -0.150868 -0.034928 -0.027546 -0.270102 0.168383 0.065831 0.438316 -0.090591 -0.499128 -0.265484 0.495705 0.142706 -0.295365 0.262769 -0.381099 -0.643092 0.006921 -0.260405 -0.398882 -0.218419 -0.435447 0.211445
date -1.048211 0.329017 -0.063656 0.028178 -0.806107 0.339839 0.315442 0.279812 0.381922 -0.197195 -0.475392 -0.715369 0.427615 -0.134586 -0.760516 0.093862 -0.691237 -0.545783 0.392041 -0.203909 -0.345329 0.242612 -0.015537 -0.039680 -0.270617 0.482314 0.016891 0.411304 -0.147080 0.673433 -0.202165 0.357394 0.133412 -0.231850 -0.739462
cardamom -0.721128 -0.017666 0.588300 0.072184 -0.348179 0.025102 -0.070845 0.297918 1.019092 0.369714 0.014516 -0.567753 0.315373 0.224584 0.122051 -0.293445 -0.845367 -0.032885 0.224019 -0.370394 -0.308956 -0.199718 -0.089183 0.202249 -0.086041 -0.201356 0.070386 -0.330062 -0.215881 0.566052 0.266093 0.006766 0.126637 -0.143771 -0.191410
white_bread -0.564095 0.486571 0.018659 -0.253511 -0.065195 -0.529115 -0.034954 0.019247 -0.435944 -0.151465 0.395845 -0.212845 -0.116461 0.052196 -0.269689 -0.241150 -0.062483 0.103787 0.001018 0.239423 0.195325 0.349248 -0.025882 -0.275011 -0.045412 -0.118217 0.146120 -0.501320 0.095499 -0.667945 0.302239 -0.322117 -0.043042 0.147179 -0.626614
oyster -0.185686 0.134039 0.147357 -0.116177 -0.592914 -0.431060 0.161363 0.093406 0.013375 -0.170828 0.661593 -0.054743 -0.060043 -0.437585 0.459322 0.014463 0.763838 -0.179344 -1.030663 -0.707092 -0.083932 -0.355223 -0.744528 -0.447088 0.465666 -0.143486 0.039711 -0.369386 0.061273 -0.364345 -0.495665 0.377000 -0.270417 0.141282 0.131002
cottage_cheese -0.342934 0.010140 -0.204577 -0.085257 -0.483216 -0.226290 0.258747 -0.215065 -0.959245 0.262138 -0.629862 0.781129 0.149370 -0.101366 -0.067944 0.258676 0.103524 0.093584 -0.034189 0.072562 0.242015 0.348084 -0.105694 -0.137181 -0.124458 0.335817 0.589826 0.698561 0.284326 -0.572846 0.418298 -0.524032 0.222695 -0.215601 -0.730356
grape -0.926741 0.186667 -0.756377 -0.215291 -0.138985 -0.371703 0.638260 0.302345 0.036906 0.342132 0.126156 -0.516514 -0.037474 -0.357506 -0.371456 0.171667 -0.582597 0.214279 0.211545 1.098566 0.103985 0.551917 0.056676 -0.001177 0.046783 0.047432 0.187905 -0.019210 -0.077054 -0.246385 -0.245100 -0.122210 -0.427363 -0.271070 -0.236806
brown_rice -0.716283 0.441106 -0.513340 -0.017559 0.020036 -0.460699 -0.540094 0.426104 0.245859 0.278244 0.094685 -0.271166 -0.106979 -0.365783 0.194196 0.350174 -0.144285 0.002772 0.046665 -0.063774 0.349242 -0.009809 -0.486625 -0.351037 -0.117707 0.182250 -0.117153 -0.190218 0.427906 -0.808834 -0.324758 0.136839 0.195720 -0.036137 -0.352789
cauliflower -0.387311 0.112075 -0.572369 -0.226962 0.147167 -0.006543 0.020696 -0.210464 0.203513 0.105622 0.004647 -0.036316 -0.265543 0.114948 0.096063 -0.355161 -0.238668 -0.139477 -0.157170 0.032533 0.277155 -0.329007 -0.281545 -0.816464 0.006779 -0.198037 0.132136 0.043391 0.826913 -0.223247 -0.399551 0.759204 0.123988 -0.585900 -0.580012
cured_pork -0.531974 0.639668 -0.267382 -0.171079 -0.409292 -0.088413 -0.026119 0.410742 -0.309738 -0.447073 0.259518 -0.081491 -0.117113 -0.384542 0.600227 -0.453997 0.903596 0.468324 -0.079614 -0.294241 0.442697 0.101112 0.553853 0.406943 0.775334 0.101698 0.488310 0.646122 0.400697 -0.291157 0.544349 0.435607 -0.134945 -0.262233 -1.068780
egg_noodle -0.140046 0.394705 0.099297 -0.389793 0.487667 -0.687997 -0.280448 -0.357085 -0.535969 -0.177876 0.374166 -0.376045 0.115604 -0.054819 0.151863 0.161421 -0.034305 0.396251 0.267537 0.093462 -0.635504 -0.330407 -0.354488 -0.238412 0.449755 0.297063 0.269541 -0.140892 0.816381 -0.921484 -0.114571 -0.013014 0.154375 0.138764 -0.478312
beer -0.087045 0.233366 0.320415 -0.408367 0.044242 0.219401 0.114375 0.295923 -0.109031 -0.327031 0.144125 0.064319 0.024217 0.077789 0.378129 -0.502699 -0.258985 0.445392 -0.407318 -0.531501 -0.479279 -0.308485 0.223202 0.231643 -0.080547 0.010696 0.352936 -0.379496 -0.180635 -0.581270 0.147622 -0.270648 0.063939 -0.102503 0.321262
hazelnut -0.454212 0.242898 -0.215883 -0.148990 -0.679770 0.329504 0.409430 0.057444 -0.040627 -0.646094 0.167555 -0.359253 -0.197432 -0.055982 0.042117 0.132106 -0.378020 -0.186911 0.057681 -0.043588 0.132598 0.719298 -0.207655 -0.092600 0.451288 -0.134301 -0.392937 -0.311129 -0.437840 0.722006 0.246257 0.455894 0.293401 0.173861 -0.274233
mandarin -0.363017 0.274946 -0.930901 -0.405090 -0.656052 -0.341440 1.027172 0.241565 -0.408543 0.500257 -0.451464 -0.189893 0.014709 -0.490157 -0.257476 0.584453 -0.420586 -0.633013 0.291797 0.942250 -0.001901 0.438282 -0.301315 0.208795 0.138734 0.345772 -0.162986 0.630539 0.058810 -0.173361 -0.776074 0.080187 -1.002538 -0.216187 0.085026
romano_cheese -0.244872 0.039479 0.411563 -0.053536 -0.237029 -0.027428 -0.332004 0.239099 -0.078714 -0.357778 0.248030 -0.062277 0.200722 -0.339032 0.511655 -0.445381 0.706774 0.205348 -0.083341 -0.174299 0.754955 -0.052025 0.363520 0.096199 0.904405 0.013836 0.428534 0.721444 0.441493 -0.099251 0.484187 0.164624 -0.140471 -0.423385 -0.890654
plum -0.302545 0.415617 0.086122 0.104760 -0.497357 -0.134395 0.068249 0.477601 0.353078 -0.075149 -0.002667 -0.620837 -0.050182 -0.134939 -0.191011 -0.112873 -0.536505 0.290106 0.087162 -0.066989 -0.223926 0.073817 0.030301 0.101836 0.108650 0.248866 -0.120603 -0.539122 -0.390434 0.393105 -0.153004 0.309656 -0.336756 0.093187 -0.097472
pimento -0.004812 0.050943 -0.665500 -0.464411 0.077801 -0.218814 0.463631 0.100902 -0.195261 0.067632 -0.470642 -0.263062 0.036833 -0.230703 0.684847 -0.133067 0.017862 -0.108634 -0.593910 0.270526 0.223874 0.305538 -0.051223 -0.372026 -0.091539 -0.018658 0.669556 0.250531 0.770278 -0.573550 -0.118127 -0.723960 -0.005945 -0.493372 -0.770906
smoked_sausage -0.408433 0.482318 -0.388393 -0.034540 0.016949 -0.650727 0.580585 0.568856 -0.227745 -0.139910 -0.863166 0.509771 0.203632 0.072737 0.619193 -0.241084 0.288252 0.670593 -0.519381 -0.659547 -1.072955 0.295254 -0.018678 -0.070794 -0.014868 -0.072663 0.098246 0.031392 0.976064 -0.833193 0.379786 0.084266 -0.246971 -0.010527 0.076142
scallop -0.513125 -0.580642 0.396854 -0.090966 -0.071066 -0.338189 0.677491 -0.021352 -0.459496 0.255924 0.366725 0.222233 -0.181554 -0.426441 0.628815 -0.445807 0.380061 0.251959 -0.581125 -0.525271 0.101542 -0.165655 -0.016368 -0.580184 0.367246 -0.689489 -0.141803 -0.066962 -0.065427 0.066120 -0.405238 0.235769 -0.580204 -0.010576 -0.591357
goat_cheese -0.096127 0.113970 -0.225619 0.288737 -0.813810 0.180991 0.300386 0.521937 -0.238881 0.007711 0.235115 -0.042326 -0.043929 -0.254662 0.251652 -0.306287 0.047856 0.544421 -0.044931 0.077898 1.022994 0.281623 0.273175 0.235541 0.442205 -0.293743 -0.314392 0.584979 -0.140738 -0.067907 0.422100 0.715135 0.177102 -0.784680 -0.539546
lentil -0.762856 0.110093 -0.311205 -0.439054 -0.068835 -0.064344 -0.185127 -0.148083 0.544859 0.091920 -0.026026 -0.263234 -0.380036 -0.383348 -0.038058 0.209726 -0.499905 0.634708 -0.040288 -0.721478 0.147506 -0.681671 0.608975 -0.113775 -0.110821 -0.453343 0.542773 -0.269374 1.049315 -0.174419 -0.112878 0.392907 0.504434 -0.040586 -0.324901
currant -0.535045 0.541650 0.153027 -0.356341 -0.462286 -0.156452 0.218992 0.201251 0.427444 0.032812 -0.495478 -0.348272 0.089783 0.145464 -0.292708 -0.201449 -0.887985 0.236129 0.201446 -0.229359 -0.050329 0.564048 0.019526 0.237121 0.080873 0.134246 -0.187569 -0.022896 -0.248051 0.446232 0.075348 0.151553 -0.179290 -0.073390 -0.614620
saffron -0.613257 -0.569628 0.243179 0.108348 -0.410199 -0.513156 -0.225321 0.691218 0.465203 0.453393 -0.329310 -0.333289 0.190942 0.388414 0.637855 -0.311953 -0.314438 0.359739 -0.560011 -0.558602 -0.138511 -0.298211 -0.028729 -0.400343 -0.055476 -0.527891 0.863351 0.209575 0.350777 0.531046 -0.001825 0.450568 -0.351338 0.380893 -1.025697
barley 0.022346 0.395930 -0.159565 0.090207 -0.759082 -0.633814 -0.731331 -0.132167 0.646871 -0.143952 0.157154 -0.263464 0.359129 -0.259110 0.415255 0.546343 -0.497248 -0.054927 -0.069645 -0.467361 0.118334 0.086388 0.115406 -0.247461 0.033328 -0.046673 0.136486 -0.053085 0.524177 -0.365318 -0.469923 0.660023 0.436039 0.232013 0.289851
caraway 0.123599 0.023436 -0.082302 -0.905504 -0.776179 0.241775 0.136479 0.008086 0.667150 0.268820 -0.277808 0.158401 -0.270964 0.363568 0.204195 -0.181601 -1.225918 0.159273 -0.411565 -0.613347 -0.577076 0.040256 0.308494 0.115324 0.056838 0.213105 0.131905 -0.256176 0.994753 -0.618345 0.905820 0.521844 0.026090 -0.443820 -0.114689
beet -0.371326 -0.292867 -0.672607 0.237301 -0.591053 0.067181 0.776714 0.406637 0.039686 -0.492865 -0.379624 -0.622341 -0.310418 0.125257 0.006818 0.036248 -0.627962 -0.241171 -0.093691 0.309968 0.473788 -0.092941 0.829719 -0.511782 0.143518 -0.439402 -0.079216 -0.364098 0.416848 -0.594013 0.095365 0.767758 -0.122583 -0.086588 0.425125
squid -0.470983 -0.156881 0.047510 0.095894 -0.264321 0.000089 0.419416 0.090241 -0.178604 0.416254 0.745239 0.053619 0.123114 -0.284224 0.463260 -0.149178 0.882552 -0.623561 -0.869048 -0.658888 -0.158596 -0.913207 0.091491 -0.093681 0.924218 -0.926476 0.325892 0.539287 0.383035 -0.353429 -0.842145 0.502745 -0.648868 0.154710 0.331710
corn_flake -0.592451 0.464889 0.033413 -0.401329 0.359106 -0.241943 -0.330270 -0.449336 0.033332 0.063520 -0.068188 0.191901 0.027667 0.432371 0.137596 0.445840 -0.307999 -0.097107 0.259304 -0.006187 -0.304598 0.588687 -0.481529 -0.280690 -0.006470 0.256333 0.117379 0.229638 0.252440 -0.310211 -0.114039 -0.276622 0.062138 -0.109684 -0.092878
anise -0.195724 0.048666 0.628945 -0.184506 -1.216596 -0.001502 -0.001719 0.243936 -0.371073 -0.023222 0.133320 -0.102412 0.613096 0.180231 0.429547 -0.350322 -0.960372 -0.505783 -0.412521 -0.297678 0.121726 -0.002243 0.202909 -0.093662 -0.408804 -0.423573 0.272444 0.178748 -0.300434 0.249811 0.480857 0.182035 -0.616008 0.039381 0.165927
roasted_beef -0.069157 0.768272 -0.038411 0.051654 -0.189669 -0.096547 0.709844 -0.230404 -0.375083 -0.388453 -0.312945 -0.364821 -0.233924 0.041091 0.115889 -0.346528 0.008292 0.430237 -0.195610 -0.848342 -0.109091 -0.361101 0.587276 -0.362917 0.276619 0.036847 -0.181447 -0.024399 0.208488 -0.729029 0.087727 0.287533 0.388354 0.004633 0.182971
pistachio -0.592114 0.037356 -0.494896 -0.183951 -0.313586 -0.089679 0.793522 -0.065972 0.262015 -0.287740 -0.236312 -0.514863 0.264160 0.152501 -0.068559 -0.073149 -0.402303 -0.167956 -0.023042 0.372366 0.011921 0.323280 -0.437216 -0.001495 0.174386 -0.034243 -0.154645 -0.293107 -0.331024 0.902528 -0.019303 0.255292 -0.231368 -0.065459 -0.716553
peanut_oil -0.302025 -0.078403 -0.626022 0.045352 -0.338599 -0.509254 0.216372 0.164474 0.309737 0.284526 0.044452 0.098910 0.269910 -0.125986 0.138862 -0.203671 0.004888 -0.278730 -0.092719 -0.568607 0.074578 -0.360847 -0.511421 -0.482958 0.397983 0.028349 0.310513 -0.564357 -0.153737 -0.354065 -0.756034 0.023662 -0.128101 -0.000529 0.453164
cereal -0.709919 1.283397 -0.341558 -0.429049 -0.710900 0.463696 -0.210568 -0.935356 0.287130 0.477701 0.010693 -0.085012 0.583823 -0.317331 -0.443313 0.600164 -0.786520 -0.483460 -0.077621 -0.392823 0.001672 0.815505 -0.309464 0.636231 -0.183503 0.461635 0.020354 0.579697 0.303201 -0.413730 0.057063 -0.403476 0.666682 0.381969 0.058568
cashew -0.372060 0.577436 -0.976664 -0.147583 -0.304042 -0.385817 0.086434 -0.299948 0.822026 0.474755 0.052109 0.017119 -0.138725 -0.178163 -0.074858 0.179949 -0.469211 -0.196370 -0.233719 -0.123073 0.243570 0.113967 -0.494786 -0.440095 0.045000 0.203326 -0.129909 -0.340608 -0.101004 -0.007175 -0.443856 0.114398 -0.047664 -0.169642 -0.004929
veal -0.538546 0.333767 0.475469 -0.252432 -0.149487 -0.888943 0.347437 0.288485 -0.112909 -0.724387 0.333894 -0.595300 -0.345384 -0.156516 0.431449 -0.267066 0.473883 0.394919 -0.074714 -0.619590 -0.002083 0.071195 0.772835 0.020244 0.858791 0.076680 -0.338979 -0.019798 0.267632 0.001452 0.679779 0.489978 -0.555267 0.237468 -0.441601
seaweed 0.012011 -0.771500 -0.827051 -0.144722 -1.122855 0.183270 0.350653 0.256419 0.145923 -0.216164 1.322428 0.014255 0.277498 -0.027980 -0.110727 0.324802 0.373296 -1.219778 -1.344634 -0.256832 -0.005465 -0.347174 -0.306780 0.167748 0.740195 -0.740316 0.146700 0.555729 0.590057 -0.551471 -0.925126 0.322132 -0.600193 -0.170306 0.843248
sauerkraut -0.337876 0.569696 -0.091067 -0.711651 -0.401550 -0.203910 0.600180 -0.134830 0.152562 0.004521 -0.252851 0.052103 -0.210666 0.439195 0.141943 0.106425 -0.175935 0.329372 -0.218736 -0.401710 -1.008134 0.611263 0.385502 -0.086737 0.285469 0.993018 0.270695 -0.075806 1.169639 -1.100440 1.162547 -0.079673 -0.324357 -0.337360 0.206444
turnip -0.409642 0.031876 0.034380 -0.133802 -0.123852 -0.437064 0.326325 0.579310 0.563258 -0.779830 0.221078 -0.139027 0.050200 0.191512 0.261535 -0.253676 -0.457120 0.313341 -0.109912 -0.576335 -0.178405 -0.112588 -0.016838 -0.175659 0.118744 -0.486639 0.003014 -0.673606 1.035464 -0.226504 0.405672 1.173105 0.072573 -0.096955 -0.119921
berry -0.460586 0.548388 0.145285 -0.342380 -0.666256 -0.121421 0.547872 0.226744 -0.115001 -0.132312 -0.165293 -0.592059 0.357616 -0.318334 -0.593833 0.464867 -0.645665 -0.168380 0.196470 0.662697 -0.250931 0.796901 -0.100610 0.601343 0.842899 0.533130 -0.137350 -0.137081 -0.186086 0.209961 0.349123 0.125417 -0.185157 -0.279762 -0.263462
kelp -0.647131 -0.777201 -0.078766 0.188051 -0.623066 0.536970 0.276212 0.104283 0.344821 0.064378 1.862870 -0.266697 0.018535 -0.116520 0.009623 0.012808 0.603473 -1.530797 -1.283838 -0.813169 -0.552266 -0.780853 -0.381272 0.043005 1.150094 -0.213625 0.261697 0.735371 0.847790 -0.774909 -0.731863 0.422002 -0.358603 -0.594282 0.723330
tomato_juice 0.040865 0.058697 0.128097 0.008367 -0.028994 -0.097661 0.116756 0.059255 -0.275127 -0.434854 -0.528831 0.261013 -0.268786 -0.126938 0.341808 -0.163412 -0.195278 0.053507 -0.239311 -0.707255 -0.329118 -0.287059 0.830331 0.247175 0.064527 -0.383958 0.757315 0.194510 0.510096 -0.845082 -0.114420 -0.139692 0.270251 -0.345116 0.300138
cod -0.280615 -0.537478 0.521630 -0.185696 -0.110000 -0.049627 0.302903 -0.054281 -0.058878 0.451236 0.104395 0.052240 -0.388679 -0.232250 0.679113 -0.114531 0.071483 -0.501903 -0.766662 -0.721992 -0.089718 -0.612276 0.162982 -0.395313 0.019088 -0.974396 -0.097681 -0.340615 0.579869 -0.025737 -0.275894 0.347770 0.075112 -0.267334 -0.049269
provolone_cheese 0.006581 0.518838 0.235953 -0.162173 -0.610065 0.007040 0.365005 -0.060398 -0.752574 -0.257947 0.020718 0.014841 -0.278627 -0.153332 0.277553 -0.482023 0.929332 0.237936 0.127809 -0.165904 0.219783 0.366233 0.114148 0.433103 0.898290 0.272805 0.304735 0.577114 0.254911 -0.902478 0.398956 -0.009980 -0.792599 -0.390846 -0.785003
blackberry -0.845818 0.118622 0.360917 -0.367434 -0.756993 0.391749 0.840271 0.002286 -0.298117 -0.347934 -0.375295 -0.157131 0.396363 -0.718120 -0.611940 0.247951 -1.025600 -0.846444 0.457796 0.553329 -0.327978 0.484752 0.159857 0.958086 0.990037 0.478266 -0.411984 -0.134389 -0.333564 0.254285 0.196797 -0.443361 0.332664 0.158947 -0.625661
mussel -0.623388 -0.621724 0.516102 0.063339 -0.057705 -0.301850 0.336779 0.355152 -0.232129 0.082039 0.715876 0.025095 -0.501023 -0.484331 0.701507 -0.263412 0.654045 -0.157893 -0.984597 -1.087187 -0.314416 -0.805593 0.098769 -0.107449 0.176512 -1.123619 0.167945 -0.146788 0.336723 -0.035100 -0.507333 0.579505 -0.505786 -0.025280 -0.631972
rhubarb -0.710262 -0.092246 0.617813 -0.613075 -0.680668 0.058136 0.961172 -0.027608 0.238697 -0.026762 -0.231600 -0.236467 0.694926 -0.450631 -0.920497 -0.162145 -0.840927 -0.830923 0.156301 0.194628 -0.597738 0.756907 -0.063785 0.544995 0.821278 0.728867 -0.355835 0.019562 -0.305616 0.645023 0.352672 0.030288 0.185479 -0.002690 -0.492123
roasted_peanut -0.227151 -0.124222 -0.954712 0.242357 -0.013803 -0.377387 0.257344 -0.513916 0.729544 0.265880 0.036261 0.229298 0.530562 -0.116433 0.175885 0.377167 -0.485284 -0.176893 -0.208061 -0.298035 -0.254945 -0.306268 -0.740002 0.257606 0.144014 0.341624 0.151107 0.255107 -0.490180 -0.250609 -0.763106 -0.167038 0.309596 -0.212659 0.198233
chinese_cabbage -0.831520 -0.724278 -0.005464 0.225927 -0.725835 0.450551 0.505993 0.089186 0.322392 0.226846 1.600450 -0.170722 0.451887 -0.101090 -0.234308 -0.143667 0.816841 -0.647589 -1.085975 -1.096135 -0.330662 -0.929480 -0.617748 0.106668 1.185460 -0.212047 0.774163 0.729686 0.625604 -0.896536 -0.571782 0.636504 -0.597517 -0.353908 0.779703
corn_grit -0.352301 -0.507324 -0.478983 -0.480694 0.029827 -0.025565 0.225295 0.841656 -0.390904 -0.469697 0.084927 0.120178 0.278478 -0.403312 0.678700 -0.048399 0.432724 0.089767 -0.468935 -0.389605 0.155893 -0.254130 -0.783073 0.296523 0.145828 0.017362 0.284359 -0.588138 0.298973 -0.831182 0.576527 -0.419914 0.138610 -0.583783 -0.727242
bourbon_whiskey -0.592622 0.263407 0.790152 -0.090966 0.022880 0.555899 0.720177 0.627705 0.113079 -0.356037 0.001962 -0.136713 0.277454 0.079038 0.180267 -0.019052 -0.482525 -0.263790 0.174797 -0.467636 -0.567797 0.103136 -0.168249 0.363843 0.202627 1.039139 -0.238685 -0.108537 -1.100018 -0.650700 0.152537 -0.463085 -0.645305 -0.089913 -0.025512
chicory -0.310135 0.171698 -0.234046 0.171505 -0.961971 0.080858 0.377158 0.546326 -0.460618 0.004762 0.535396 -0.787492 0.068321 -0.034812 0.154768 -0.460542 0.149465 -0.369793 -0.469033 0.569897 1.132514 -0.294749 0.344108 -0.387439 0.306201 -0.111007 -0.112703 0.192708 -0.060754 -0.534652 -0.362491 1.167452 -0.639400 -0.613170 0.001336
citrus -0.264417 0.116762 0.098652 0.581192 -0.724314 0.633753 0.747852 0.620670 -0.038979 -0.244487 0.360145 -0.750664 0.294752 -0.129569 -0.122329 0.019069 -0.658147 -0.630610 -0.638254 0.229133 -0.467352 -0.001740 0.226446 -0.058742 0.301622 -0.039780 -0.311378 0.248293 -0.912179 0.821913 -0.682077 0.377638 -0.558807 0.207995 -0.249578
lima_bean -0.374354 0.194133 0.127069 -0.257273 0.299905 -0.070890 0.273261 0.631069 0.304562 -0.813908 -0.392546 0.169297 -0.236846 -0.030945 0.136850 0.047352 -0.142647 0.456393 -0.105035 -0.587325 -0.045027 -0.244230 0.214404 0.097751 0.278616 -0.090076 0.024551 -0.469738 0.678237 -1.032584 -0.109843 -0.026926 0.484272 -0.386482 -0.145677
lovage -0.499958 -0.386712 1.363836 -0.946509 -0.249235 -0.139939 0.855860 -0.097037 -0.823618 0.128217 0.329080 0.175861 0.154180 0.364410 0.846079 -0.634969 -0.169549 0.159946 -0.822590 -0.295344 -1.435752 -0.202271 0.433142 -0.299731 -0.378466 -0.629892 0.649073 0.361922 0.118950 -0.715672 -0.079818 0.026967 0.101706 0.035671 0.160593
melon -0.837807 -0.271875 -0.411400 -0.191047 -0.814564 -0.325745 1.046435 0.320015 -0.211259 0.780199 -0.052355 -0.215934 0.082392 -0.490711 -0.353827 0.300539 -0.441192 -0.007255 0.038318 0.727273 0.023640 0.134483 -0.182170 0.390420 0.367663 -0.286056 -0.004587 -0.032927 -0.758483 -0.063609 -0.423902 -0.174885 -0.591823 -0.104849 -0.157382
parsnip -0.621825 0.001177 -0.296147 -0.051051 -0.235248 -0.632746 -0.092160 0.532921 0.585821 -0.689272 0.491823 -0.242028 -0.360390 0.174067 0.349150 -0.056607 -0.492623 0.094904 -0.097889 -0.505881 -0.169996 -0.014431 0.293653 -0.186545 0.072355 -0.391678 0.045553 -0.532358 0.736544 -0.273433 0.408944 0.894602 0.337539 -0.017850 -0.275703
fig -0.485493 0.304069 0.147899 -0.174037 -0.906614 0.094607 0.437749 0.217875 -0.203933 -0.356644 0.015900 -0.847600 0.214841 -0.102621 -0.173067 -0.390504 -0.993412 0.263825 0.261767 -0.012866 0.235375 0.370918 0.045489 0.086801 0.417436 0.271206 -0.187524 0.195595 -0.499008 0.344230 0.355222 0.858160 -0.099281 0.244209 -0.751714
lemongrass -0.769288 -0.597982 -0.235094 0.394572 -0.505886 -0.416094 0.477433 -0.323888 0.436516 0.203997 0.701513 0.051125 0.144713 -0.494595 0.740457 0.336578 -0.177086 0.097912 -0.325308 -0.463569 -0.211783 -0.700355 -1.016271 0.432958 0.473508 -0.775686 0.476755 -0.369600 0.037731 0.002688 -0.828221 -0.198424 -0.176040 -0.252191 0.255139
whiskey -0.665907 0.293811 0.499390 0.099000 -0.027909 0.424068 0.663492 0.384476 -0.248672 -0.429984 -0.033784 -0.164125 -0.019497 0.136884 0.321727 -0.143737 -0.366737 0.031114 0.129475 -0.387536 -0.676022 0.229625 -0.002491 0.226087 -0.026509 0.662968 -0.220730 -0.108630 -1.010971 -0.524015 -0.068427 -0.490375 -0.668612 0.049071 0.055064
tequila -0.653994 -0.712752 -0.071525 0.382469 -0.258297 0.464321 0.826572 0.663734 -0.598227 0.208026 -0.092347 0.240032 0.192167 -0.731471 0.568217 0.234736 -0.059753 0.123438 -0.409589 -0.156280 -0.125502 0.259827 -0.040353 0.657868 0.007461 -0.201093 0.000805 -0.349215 -0.984412 -0.314778 -0.387579 -0.491600 -0.323332 0.066544 0.167105
watercress -0.431150 -0.089838 -0.574557 -0.209443 -0.702957 0.002919 0.663958 0.388247 -0.376610 0.285874 0.526741 -0.616313 0.064945 -0.073401 0.198240 0.167019 0.140282 0.231053 -0.106206 0.458356 0.399376 -0.004723 0.325862 -0.336709 0.130046 -0.144032 -0.183823 -0.289800 -0.219287 -0.587305 -0.124262 0.470412 -0.767111 -0.566726 0.339813
rye_flour -0.002050 0.234292 0.181588 -0.675951 -1.041448 0.597027 0.397616 -0.636515 0.052336 0.342075 -0.386369 0.219368 -0.350888 0.543627 0.048754 0.094910 -0.931008 -0.011615 -0.625525 -0.418363 -0.424936 0.872990 0.049580 0.179281 -0.276552 0.387633 0.474630 0.178962 0.349135 -0.544126 0.486894 0.669557 0.254274 -0.404131 -0.267053
peppermint -0.140498 -0.429004 -0.090931 -0.317806 -0.185407 0.207099 0.970764 -0.643124 0.281917 -0.265671 -0.378757 0.001904 0.484087 0.499025 -0.111042 0.619572 -0.536407 -1.022194 -0.127023 0.375073 -0.713808 0.088138 0.189825 0.571674 0.453392 -0.385463 -0.770398 0.474075 0.114520 0.326342 -0.176615 -0.372716 0.696544 -0.324743 -0.527065
savory -0.117220 0.284509 0.150104 -0.269154 -0.757023 -0.335812 -0.201620 0.242778 0.195572 -0.055552 0.507538 0.063596 -0.455066 -0.233568 0.570855 -0.090242 -0.315375 0.114399 -0.682998 -0.577818 0.236635 0.181957 0.396249 0.301132 0.177048 -0.168289 0.065267 -0.399359 0.364139 -0.400513 0.404688 0.750568 -0.004202 -0.102851 -0.348879
roasted_pork -0.882141 0.745862 -0.084367 0.006684 -0.386804 -0.159186 0.708716 0.579680 0.194476 0.339747 -0.381355 -0.307627 -0.243677 -0.399688 0.548234 -0.557095 -0.406269 0.489854 -0.477653 -0.661130 -0.185928 0.044134 0.474972 -0.129742 -0.178181 0.129230 -0.473867 -0.440986 0.078932 -0.594434 0.039676 0.394285 0.533226 0.359704 0.591854
lobster -0.516218 -0.473405 0.306188 -0.358966 -0.097484 -0.350254 0.753444 -0.043466 -0.591545 0.147202 0.215245 0.116997 -0.240029 -0.165149 0.778207 -0.390568 0.383477 -0.101285 -0.897114 -0.315344 -0.191144 -0.225155 0.315606 -0.239909 -0.006441 -0.892303 0.050681 -0.167568 -0.259053 -0.099062 -0.081625 0.330185 -0.447130 -0.082047 -0.622185
