249 10
</s> 0.040027 0.044194 -0.038303 -0.032780 0.013666 0.030211 0.009409 0.002113 -0.036035 0.022185 
egg -0.566614 -0.109319 -0.001995 0.616154 -0.255020 1.005327 0.123022 0.328102 -0.136524 -0.573963 
butter -1.010936 -0.111583 -0.500228 0.650443 -0.459932 0.380674 0.270240 0.616694 -0.242178 -0.047428 
wheat -0.766111 -0.046455 -0.631313 0.571580 -0.413574 0.617769 0.429198 0.341623 -0.161926 -0.476235 
onion -0.498178 0.200076 -0.227317 -0.220913 1.241647 -0.535774 -0.455181 -0.707501 0.134195 0.059355 
garlic 0.101578 0.419762 -0.363829 -0.340118 1.699248 -0.405096 -0.016477 -0.734760 0.272538 0.467143 
milk -1.192680 0.210840 -0.339222 0.707158 -0.687268 0.624804 0.546415 0.517507 -0.428648 -0.209269 
vegetable_oil 0.139256 -0.349205 -0.188382 -0.432531 0.804117 0.899825 -0.294699 -0.590866 -0.182375 -0.242230 
cream -0.916523 -0.008218 0.358632 0.519665 -0.269171 0.629616 0.213515 0.047050 -0.267855 0.447047 
tomato -0.460749 0.950442 -0.151375 0.558697 1.731763 -0.916993 -0.343707 -1.376675 0.396896 -0.105115 
olive_oil 0.194486 -0.127739 0.276174 1.325004 1.734789 -0.908589 0.222735 -0.039449 0.697788 0.746025 
black_pepper -0.265688 0.044104 -0.293962 -0.497328 1.389336 -0.672383 -0.155758 0.107634 0.264260 0.633630 
pepper -0.250487 -0.768787 -0.431906 -0.173363 1.193583 -0.480680 -0.545023 -0.983916 -0.274628 0.517289 
vanilla -1.381389 -0.601265 -1.012992 0.465014 -1.697499 1.488807 1.445059 0.444001 0.185001 -0.261635 
cayenne 0.296953 0.649523 -0.621790 -0.919267 1.670431 0.082129 0.384767 -1.616044 0.456188 0.669551 
vinegar 0.335513 0.038114 -0.014452 -0.526864 1.508902 0.702451 -1.302778 -0.676021 1.068714 -0.794424 
cane_molasses -0.525432 0.171482 -1.487256 -0.308068 -0.292287 1.020753 -0.381844 -0.425607 0.728378 -1.205549 
bell_pepper -0.190145 0.515623 -0.214801 -0.068885 1.540059 -0.498492 -0.228622 -0.961995 0.365647 0.722114 
cinnamon -0.936046 -0.293326 -1.980447 0.111857 -0.836010 0.017220 1.216590 0.153006 1.267685 0.037592 
parsley -0.128047 -0.397856 0.313143 1.012024 1.303058 -0.474406 -0.437931 0.786049 -0.165636 0.681019 
chicken -0.203763 -0.887972 -0.289680 -0.492248 1.047029 -0.459918 0.156870 -0.993330 -0.661674 0.697888 
lemon_juice 0.341234 -0.941323 0.280002 0.770473 0.593457 0.503330 0.141771 0.054254 0.675883 0.727253 
beef -0.458447 0.714568 -0.598447 -0.761379 1.537149 -0.569166 -0.854616 -0.160911 0.588969 -0.475459 
cocoa -1.480407 -0.073595 -0.666378 0.384242 -1.559379 2.059619 0.787988 -0.065183 -0.500815 -0.387270 
corn -0.547417 1.140468 -0.490162 -0.231440 0.800868 0.329791 -0.285636 -1.719589 0.521996 -0.733438 
bread -1.110384 0.201608 0.580133 0.400069 0.524751 -0.550603 -0.604164 0.042797 0.250180 -0.307104 
scallion 0.626260 0.174727 0.262046 -1.706266 2.102518 0.673911 0.605471 -0.295500 -0.395173 0.652308 
mustard -0.254702 0.217059 0.000820 -0.107088 0.780812 0.942335 -1.607736 -0.280504 0.768834 -0.470600 
ginger 0.322794 0.144631 -1.078203 -2.464447 0.854865 0.398477 1.818165 -0.178280 1.097885 1.078658 
basil -0.973288 0.779749 0.835158 1.254061 1.630626 -1.738841 0.266873 -0.163321 -0.075844 0.424719 
celery -0.981386 -0.982118 -0.161377 -0.664864 1.135975 -1.332141 -0.913821 -0.096469 -0.253301 0.221183 
carrot 0.105275 -1.193325 -1.136714 -0.921925 1.635078 -0.986384 0.185804 0.588284 -0.583114 0.128534 
potato -0.692081 -0.510870 -0.652062 -0.226362 1.186161 -0.803592 -0.779093 0.597246 -0.809248 0.132216 
chicken_broth -0.692610 -1.132551 -0.667928 -0.417492 1.119001 -1.579174 -0.101795 0.096615 -0.199436 1.254669 
yeast -1.392141 0.191760 0.266071 0.496344 -0.477924 0.324273 0.028945 0.577092 -0.041474 -1.062263 
rice 0.342563 -0.171865 -0.362919 -1.877796 1.451977 0.199074 1.250862 -0.353187 -0.255473 0.451164 
mushroom -1.410855 0.080014 0.732958 -0.462512 1.160655 -1.318107 -0.195641 0.289818 -1.088342 0.646874 
cheese -1.134826 0.835364 0.801569 0.985720 0.667083 -0.547881 -0.057589 -0.388748 -0.292371 -0.105423 
soy_sauce 0.898750 0.234260 -0.234318 -3.384505 2.058875 1.293816 0.720446 0.151790 0.361640 0.297630 
cumin 0.865346 -0.639542 -1.843568 -0.095628 1.921035 -0.426085 0.695599 -2.884129 0.056523 1.217009 
oregano -0.879048 1.156150 0.241622 0.841046 1.567675 -1.530854 -0.108290 -0.711619 0.474682 0.337688 
parmesan_cheese -1.433683 0.430382 1.314187 1.515363 1.156452 -1.485217 0.118659 0.574856 -0.949927 0.413968 
macaroni -1.034669 0.383933 1.293741 1.131883 1.560926 -1.665342 0.559355 0.189670 -0.760385 0.635865 
thyme -1.473338 -0.672585 -0.258990 0.317963 1.034132 -2.494068 -0.652477 1.062445 0.616727 0.586366 
cheddar_cheese -1.359476 0.648146 0.057385 0.379493 0.898181 -0.251770 -0.855606 -1.244805 -1.715009 -0.808473 
lard -0.979252 0.367356 -0.742350 0.640473 -0.600509 0.672573 0.554948 0.372314 -0.001242 -0.798557 
lemon -0.029877 -0.799322 0.444062 0.642336 0.195747 0.649657 -0.095814 0.205607 0.953609 1.155921 
cream_cheese -0.879001 0.339202 0.782272 0.960991 -0.429320 1.343559 -0.026882 -0.096983 -0.135155 -0.166332 
walnut -0.287953 -1.309432 -0.851736 0.928589 -0.765881 1.073402 0.800717 0.461174 0.901457 -0.918708 
green_bell_pepper -0.858244 0.564348 -0.299370 -0.231657 1.648167 -0.852511 -1.078647 -1.442383 -0.534558 0.195941 
starch -0.533035 -0.118914 0.128772 -1.684971 0.013192 0.688259 0.610518 0.603788 0.309299 0.241188 
nutmeg -0.695131 -0.737984 -2.153349 0.548621 -0.677876 0.013381 0.607461 0.975335 0.580197 -0.130175 
honey 0.418320 -0.866279 -0.541971 -0.772639 0.412348 0.588364 0.795493 -0.055598 1.479207 -0.716991 
apple -0.563518 -1.773501 -0.876794 -0.398379 -0.569683 0.250962 0.121046 -0.011116 1.079400 -0.531161 
almond -0.377802 -1.262427 -0.480383 0.566607 -0.611746 0.774119 0.973681 0.323543 0.714117 -0.015435 
cilantro 0.690335 0.335805 -0.324506 -0.648060 1.658368 0.176140 1.277125 -2.731309 1.005104 1.451460 
pecan -1.194683 -0.565671 -0.978300 0.278251 -1.329304 0.992904 0.640380 0.183014 0.712891 -0.746585 
white_wine -0.346556 -0.203924 0.292618 0.473326 1.294589 -0.783948 -0.456204 0.758879 0.539625 1.930720 
bacon -0.756129 -0.412709 -0.162776 0.038153 1.237498 -0.582733 -1.296420 0.327084 -0.639106 -0.480207 
pork -0.411891 0.118829 -0.877937 -1.621438 1.056603 -0.419647 -0.812075 -0.162626 1.070289 -0.065087 
raisin -0.059887 -1.608760 -1.448882 0.592601 -0.390939 0.245178 1.193816 -0.228364 0.765172 -0.714783 
bean -0.161796 0.386540 -0.779231 -0.600036 1.772918 -0.793932 -0.203517 -1.112064 0.088480 -0.328660 
rosemary -1.641732 -0.364117 0.158658 0.645967 0.922090 -2.728027 -0.350434 0.332453 0.845416 0.397132 
fish 1.040605 0.457634 -0.230193 -0.956597 2.060212 0.981111 0.563802 0.366930 0.304079 2.035416 
cucumber 1.490609 -0.306204 0.758241 0.147624 1.577549 2.549750 -0.396741 0.055686 -0.245858 -0.221344 
olive -0.073048 0.030521 0.723810 1.691884 1.607506 -0.468000 -0.591979 -0.840094 0.082777 0.227061 
coconut 0.168256 -0.914216 -1.404201 -0.213462 -0.596763 1.767938 1.767857 -1.638234 -0.133046 0.892037 
orange -0.090515 -1.417206 -0.102053 -0.057393 -0.507805 0.889114 0.289627 0.402465 2.278194 0.701698 
tamarind -0.656810 1.162895 -1.101892 -0.782627 0.961409 0.735145 -2.310334 -1.309551 0.897673 -0.527994 
vegetable 0.597233 0.164271 -0.564993 -1.175499 1.908553 0.093258 1.278467 1.136617 -0.552460 0.028013 
orange_juice 0.007480 -1.254862 -0.394268 -0.139949 -0.391950 0.722172 0.517104 -0.325598 2.343465 0.540421 
buttermilk -1.072129 -0.034608 0.232221 0.626495 -0.466523 0.469951 0.418944 0.261791 -0.016700 -0.932227 
pineapple -0.322078 -1.094996 -0.031191 -0.826614 -0.703815 1.530428 0.278398 -1.331892 1.447601 0.497745 
shrimp -0.212147 1.590539 0.078624 -1.345284 1.641845 0.577711 -0.015775 0.126708 -0.083173 2.673964 
coriander 1.348314 -2.256140 -2.268288 0.039147 1.570191 -0.170399 0.983621 -2.819703 0.076490 1.876278 
bay -1.312532 0.388593 -1.562771 -0.756860 1.086514 -1.971745 -1.021403 0.325124 1.265448 1.930348 
lime_juice 0.669826 0.442795 0.934152 -0.925459 1.438304 1.180785 0.920720 -3.104959 1.928969 1.749416 
red_wine 0.015326 -0.209760 0.033147 0.376225 1.518008 -0.845444 -0.773639 0.398265 1.798455 0.072569 
gelatin -1.061875 -0.948867 0.775492 -0.449536 -1.295323 1.686126 1.343866 -0.364225 0.556315 0.018529 
pork_sausage -2.228694 0.520872 -0.112921 -0.093701 0.890556 -2.376072 -1.061343 0.037179 0.229676 0.978890 
sesame_oil 1.250311 0.717325 -0.142380 -4.253267 2.768080 1.456175 1.873574 0.543879 0.289604 0.469727 
chive 0.313974 -0.518485 0.090768 1.523339 0.670519 1.587079 -0.936825 0.880535 -0.561588 0.186584 
seed 0.278182 -1.672740 -0.258302 -0.257935 0.698006 0.298739 -0.552400 -0.504358 1.065995 -1.081054 
mozzarella_cheese -1.980891 1.667364 1.806761 1.862171 1.269595 -1.932627 0.072498 0.298541 -0.266181 -0.545436 
ham -0.905586 -0.026856 0.606721 0.431999 0.888334 -0.390332 -1.194045 0.178635 -0.001353 -0.081573 
oat -1.043722 -1.177319 -1.298149 -0.124664 -1.180955 0.982351 1.669758 0.266860 -0.009297 -2.193914 
turmeric 1.244166 -2.857531 -2.105816 -0.750891 1.571247 0.006153 1.538683 -2.991121 -1.163298 2.957271 
nut 0.057351 -0.582636 0.211196 -0.089591 0.611249 -0.214500 1.476876 0.517475 0.636732 -0.656724 
shallot 0.044291 -0.947073 0.287919 -0.008188 1.181639 -0.598989 -0.312261 1.475794 1.264876 2.170446 
lettuce 0.714135 -0.359275 1.747471 -0.015664 1.730484 0.746450 -0.128602 -1.059414 0.926619 -0.555673 
cider 0.017488 -0.843863 -0.558164 -0.639658 0.707511 0.449526 -1.555917 -0.541355 1.777633 -0.989549 
dill 0.145589 -1.049546 0.730144 0.836926 1.249938 0.784382 -1.436162 0.297599 -0.440949 0.095436 
pea 0.077627 -1.075915 -0.289435 -0.585329 1.847889 -0.528138 -0.033912 -0.417561 -1.516852 0.826396 
zucchini -0.267879 -0.465092 -0.646041 1.192386 1.275117 -1.527523 1.124387 -0.229937 -0.632442 -0.234918 
cherry -0.661719 -1.043970 -0.486855 0.989211 -1.269523 1.484961 0.733125 0.105608 1.342332 0.308210 
lime 0.401807 0.184239 0.611723 -0.411924 0.554995 1.561183 0.688853 -2.259525 1.496813 2.322081 
yogurt 0.677703 -1.930435 0.242104 0.468708 0.467814 0.474046 1.051174 -1.006914 0.943235 0.293530 
strawberry -0.909073 -2.216973 2.231850 -0.246981 -1.448411 1.972770 1.698828 -0.078107 1.328982 1.042295 
soybean 1.059155 0.231957 -0.584589 -3.136709 2.392270 0.872859 1.847107 0.870239 -0.358081 -0.249277 
celery_oil -0.574287 1.345641 -0.986270 -1.106098 1.152894 0.890316 -2.432228 -1.743168 1.135036 -1.670736 
peanut_butter -0.007964 -0.251328 -0.319300 -1.186627 -0.020231 1.975319 1.792526 -0.893861 -1.381927 -1.206437 
banana -0.761863 -1.437732 0.083163 -0.307207 -1.240573 1.551873 1.458478 -0.665453 0.470826 0.030658 
meat -0.744527 -0.128609 -0.829004 -0.455490 0.917770 -0.979257 -1.083767 0.043662 0.896638 0.272367 
tabasco_pepper -0.747145 1.209006 -0.099039 -0.591766 1.066893 0.537345 -1.785819 -1.268157 0.445816 -0.006328 
milk_fat -1.043862 0.011685 -0.217690 1.174718 -0.619684 0.657800 0.202473 1.819532 -0.044676 0.713259 
cabbage 0.390260 -1.390548 -0.419579 -1.634721 1.709539 0.173319 -1.142034 -0.126276 0.175594 -0.716273 
mint 0.915418 -0.763223 0.545693 0.731340 1.001097 0.183001 1.645759 -0.731136 1.708201 1.388243 
fennel -1.503399 0.694499 -0.081100 0.973067 1.043347 -2.563063 0.281095 0.954495 1.314581 0.681138 
sage -2.377260 -1.000515 0.014797 -0.490846 0.413155 -3.226618 -0.425291 0.459019 0.728190 0.223463 
broccoli -0.720230 -0.800011 0.978035 -0.585084 1.197714 -0.537072 0.824534 -0.581695 -2.174658 -0.179674 
turkey -1.164822 -0.731798 0.423592 -0.298724 1.051539 -1.694957 -0.673022 -0.831261 0.455196 -0.209680 
fenugreek 0.979860 -1.761493 -2.613179 -0.435979 1.435469 -0.395393 1.673622 -3.070969 -0.349392 2.611287 
cranberry -0.785856 -2.160918 0.381561 -0.391177 -0.836761 0.382478 -0.081728 0.248884 2.064244 -0.432112 
wine -0.283045 -0.111817 0.468189 -1.333866 0.839189 -0.210827 0.508692 0.462972 1.173331 0.564703 
beef_broth -0.687453 0.155477 -1.452361 -1.507443 1.505639 -1.200863 -1.064548 0.947432 0.621407 0.123052 
grape_juice 0.245795 -0.482606 0.632878 0.794645 1.439425 -0.650388 0.043972 0.635522 1.654683 -0.174012 
pumpkin 0.090213 0.069887 -2.009106 -0.938682 0.076558 0.981826 1.346920 1.693069 -0.410670 -0.181723 
raspberry -0.984181 -1.352550 1.908648 0.327464 -1.314122 1.603300 1.285688 0.911745 1.367076 0.521384 
whole_grain_wheat_flour -0.798777 -0.651805 -0.251594 -0.099536 -0.208968 -0.003455 1.039350 0.481170 0.350201 -2.340979 
lemon_peel 0.209272 -1.436877 0.092615 1.676876 0.138270 0.399542 0.803808 1.329458 0.380467 0.998267 
coffee -0.696470 0.645485 -1.481344 0.747585 -0.930298 2.047959 0.302146 0.187934 0.177079 -0.353473 
sesame_seed 1.196472 -0.797198 0.448107 -1.873316 1.514027 1.452967 1.226613 0.230647 0.022270 -0.761591 
avocado 0.751746 0.956677 1.294660 0.244884 1.865394 1.198346 -0.114084 -2.153206 1.615247 0.471708 
sherry -0.140063 -0.349160 -0.086651 -0.371135 0.879820 -0.238370 -0.099402 0.700220 0.867536 1.138559 
sake 0.897190 0.938914 -0.021399 -4.331539 2.258417 2.067292 1.058437 1.633861 0.557965 0.442755 
feta_cheese 0.593856 -0.298492 1.652677 2.109685 1.809829 -0.389881 0.495722 -0.429966 0.834185 -0.280625 
apricot -0.429885 -1.513547 -1.320425 0.481461 -0.782521 0.286313 0.591929 -0.013809 1.503175 0.427021 
roasted_sesame_seed 1.414523 1.556855 0.491291 -2.837427 3.543475 0.660969 2.713058 1.473783 0.277003 -0.772227 
rum -1.245038 0.098389 -0.715417 -0.219939 -1.559931 1.409417 1.164904 -0.268875 1.710449 1.078556 
orange_peel -0.364887 -1.741641 -0.859046 0.429850 -0.899538 0.823519 0.482660 1.337420 1.898862 0.727564 
squash -0.155029 -0.778757 -1.610825 1.150718 1.355281 -1.640937 0.626836 0.148684 -0.522964 0.021596 
crab -0.937313 1.689276 0.601720 -0.622352 0.630974 1.419446 -1.301556 -0.018197 -0.459887 2.372734 
marjoram -1.776907 -1.588104 -0.245242 0.186985 0.878874 -2.917641 -1.127626 0.567589 0.409893 -0.026198 
swiss_cheese -1.844676 -0.499863 1.496683 0.057709 0.605389 -0.004589 -1.950387 0.274061 -1.615562 -0.657488 
sweet_potato -0.036217 -1.160823 -2.999530 -0.418360 0.196068 -0.420765 0.843449 -0.055398 0.721529 0.483952 
shiitake 0.104561 0.463201 0.968628 -3.379622 2.425561 0.059292 1.480573 2.968326 -0.393761 1.085593 
radish 2.135741 0.362738 0.684549 -1.551846 3.260770 1.556213 1.207610 1.566181 0.620421 -0.065373 
peach -0.261870 -0.973551 -0.098120 -0.087230 -0.853559 1.387711 0.740863 -0.057213 1.793158 1.001714 
tarragon 0.187976 -1.047511 0.933598 0.708503 1.369458 0.266892 -1.079090 1.299238 0.372131 1.263368 
black_bean 0.356785 0.946291 -0.571844 -0.276524 2.406768 -0.682378 0.900696 -3.124641 0.606269 -0.581504 
lamb 0.968291 -2.159199 -1.291862 1.030819 1.638024 -1.536997 0.702696 -0.146298 1.468038 1.350688 
maple_syrup -0.535058 -0.653979 -1.360988 -0.686796 -0.250747 0.314467 0.349741 0.274385 0.858754 -1.144721 
pear 0.910811 -0.955252 -0.251338 -0.522328 0.557851 0.850629 1.371170 1.574660 2.070056 -0.182761 
fruit -0.679276 -1.798373 -0.168591 -0.255859 -1.161185 1.263957 1.003767 -0.057376 1.164307 0.201673 
blueberry -0.901278 -2.003472 1.915018 -0.513237 -1.460729 2.260454 1.937765 1.182470 0.558837 0.169813 
clam -0.433089 1.580593 0.038163 -1.195315 1.829125 0.396512 -0.141648 1.778505 -0.731355 3.778788 
smoke -0.885036 0.046220 -0.216986 -0.234374 1.203824 -0.847252 -1.537953 -0.317030 1.099689 0.257778 
tuna 0.441078 0.203501 1.755925 0.050572 1.743090 1.208417 -0.194236 -0.596251 -0.479466 0.017734 
kidney_bean -0.209829 0.848434 -1.620701 0.064606 2.495975 -1.564212 -0.462881 -1.732012 0.075318 -1.175940 
peanut 0.437145 -0.187238 -0.606322 -2.038131 0.539349 1.766238 1.934552 -1.898614 -0.580933 -0.732424 
asparagus -0.115494 -0.823229 1.013276 0.673339 1.259907 -0.005094 0.031230 0.868464 -1.107979 0.946525 
salmon 0.526104 -0.963055 0.983275 -0.427110 1.074947 0.965450 -0.472055 0.562243 0.487225 0.790074 
leek -0.184127 -2.112809 -0.855636 0.004716 1.333744 -1.280420 -0.341729 2.084895 -0.524570 1.784205 
chickpea 1.616057 -1.152246 -2.196384 1.503232 2.653984 -1.126053 1.453046 -1.455623 -0.207804 0.131845 
blue_cheese -0.475207 -0.565703 1.540294 1.142851 0.733933 -0.093820 -0.744307 0.287795 0.928974 -0.519800 
brandy -1.306747 0.081524 -0.551014 0.708100 -1.249182 1.327754 -1.128814 1.892059 2.864908 0.845785 
artichoke -0.474619 0.235190 1.702646 1.708483 1.565005 -0.903174 0.088259 0.655281 -0.199134 0.937177 
horseradish -0.334561 0.128600 0.436390 -0.559456 0.888412 1.482288 -2.651732 0.069546 0.674070 -0.453536 
mango 0.754466 -0.736104 0.619408 -0.964479 0.757867 1.252491 1.208413 -2.184891 1.501484 1.992499 
date -0.463299 -1.430915 -2.249198 1.089837 -0.945681 0.347137 1.145663 0.366361 1.686889 -0.547945 
cardamom 0.657117 -2.013988 -2.808811 0.130345 0.042741 -0.004709 1.421399 -0.246822 1.382364 1.387372 
white_bread -1.356976 -0.713420 0.539647 0.448578 0.228111 -1.118422 -0.548044 0.562237 0.342769 -0.231228 
oyster -0.433284 0.485277 0.167166 -3.112632 1.460724 -0.003090 1.052031 1.487113 -0.487320 1.467921 
cottage_cheese -1.687495 0.579317 1.438030 1.698912 0.162366 -0.248350 -0.300580 -0.906118 -0.955522 -0.681729 
grape -0.145237 -2.445272 1.650693 -0.668626 -0.246961 0.440450 1.011132 -0.943620 2.161323 -0.012753 
brown_rice -0.483578 -1.495359 0.104162 -1.109952 1.086512 -1.238666 0.741217 -1.147511 -0.458323 0.090414 
cauliflower 0.381626 -1.924005 0.032473 0.264721 1.845970 -0.503372 0.210441 -0.206419 -2.045002 -0.305191 
cured_pork -2.151968 0.208401 1.928588 1.441785 1.170820 -2.555352 -0.230208 0.832223 0.250266 0.456434 
egg_noodle -1.486142 -0.006713 0.585637 -0.808906 0.821934 -0.612068 -1.011571 -0.944324 -1.099154 0.235992 
beer -1.275967 1.163988 -1.457105 -1.141985 0.475851 -0.318163 -1.492998 -0.500253 1.144349 0.365854 
hazelnut -0.331720 -1.031560 -0.608126 1.308112 -0.646412 0.871259 0.544233 1.636057 0.927578 -0.339778 
mandarin -0.334392 -1.453795 2.082419 -0.939081 -0.461842 1.555704 0.994965 -1.050349 1.434364 -0.011165 
romano_cheese -1.171303 0.617611 1.094710 1.955453 1.176784 -1.534932 0.299967 1.006844 -0.092811 0.645847 
plum -0.240582 -1.005366 -1.391466 -0.165665 -0.128818 -0.274064 0.300639 0.516973 2.401160 0.369474 
pimento -0.731247 -0.396999 1.343139 0.486516 1.112903 -0.063330 -1.257899 -1.409421 -0.663365 0.867885 
smoked_sausage -1.537988 -0.396571 -1.385138 -1.006316 1.346294 -1.448036 -2.324664 -0.808288 -0.224260 0.391309 
scallop -0.109732 0.594056 0.252003 0.532590 1.499582 0.238071 -0.147814 1.232141 -0.155073 4.255600 
goat_cheese 0.083246 -0.332020 1.255626 2.113386 1.279358 -0.538731 0.057508 1.398998 1.457664 -0.531748 
lentil 0.512027 -1.748158 -1.971380 0.068114 2.239924 -2.009873 0.800842 -0.902373 -0.615682 0.471570 
currant -0.117841 -1.647346 -1.708197 1.407847 -0.391437 0.070047 -0.051687 0.679630 1.707413 0.078894 
saffron 0.463690 -1.293594 -2.071876 1.242535 1.354799 -1.377636 1.207430 0.710151 -0.008958 3.201556 
barley 0.037403 -1.333641 0.246638 -1.950236 1.761729 -0.908477 1.099987 0.859828 -0.358107 -1.227878 
caraway -1.137261 -2.774375 -0.028407 -1.621034 0.303872 -0.721425 -2.316597 -0.250938 1.554941 -1.175181 
beet 1.190731 -1.626150 0.139461 0.653103 1.790043 0.369980 -1.053940 0.861849 2.024189 -0.953486 
squid 0.706208 1.775196 -0.159531 -2.488471 2.427336 1.520015 1.474684 2.072453 -0.614737 3.020278 
corn_flake -1.301429 -0.494350 -0.625358 -0.384040 -0.406734 0.541415 0.121318 -0.607404 -1.303772 -0.516150 
anise -0.174770 -0.933392 -1.053815 0.128038 -0.234533 0.244658 0.603921 1.862831 1.021492 0.739082 
roasted_beef -0.798369 -0.132055 -0.275604 -0.804896 1.228217 -0.637463 -1.574573 0.602012 0.533484 -0.336571 
pistachio 0.082556 -1.189360 -0.425619 1.417125 -0.563097 1.073022 1.353672 0.519098 1.121740 0.748804 
peanut_oil 0.666981 -0.508586 -0.354921 -3.042845 1.677574 1.033421 0.579729 -0.954522 -0.466043 1.241049 
cereal -1.031421 -1.628072 -0.423579 -1.051048 -0.339096 0.494740 1.826416 -0.294040 -1.441187 -2.922764 
cashew 0.379112 -2.300643 -0.058696 -1.106894 0.505093 0.430660 1.412229 -1.107409 -0.359907 0.210297 
veal -1.703900 -0.334657 0.221411 0.375620 0.646300 -2.345454 -0.643215 2.098012 1.213203 1.141547 
seaweed 1.638932 1.545837 1.388461 -2.345783 3.226283 2.491984 1.773737 1.818440 -0.231733 -0.555531 
turnip 0.291269 -3.303947 -3.122660 0.120133 1.868881 -2.000467 -0.781129 2.457922 -0.119716 0.160962 
sauerkraut -3.088336 -0.994048 0.594715 -2.902784 -0.263116 -0.195206 -4.476036 0.611956 0.723845 -0.115376 
berry -1.949987 -1.770181 2.093844 -0.336317 -1.569140 0.332474 1.132246 0.697949 1.436921 -0.008894 
kelp 1.059580 2.825035 0.538433 -3.399559 3.154715 2.290958 3.158414 2.937300 -0.311123 0.818705 
tomato_juice -0.411279 1.410673 -1.018500 -0.163810 1.820509 -0.352606 -1.454143 -0.810424 0.491452 -0.725251 
cod -0.061425 -0.081001 -0.695271 -0.426047 1.448426 -0.005532 -0.441256 0.544860 -0.700574 2.053579 
provolone_cheese -2.271012 1.745689 2.432728 1.665360 1.041584 -1.685253 -0.531528 0.386373 0.730288 -0.563461 
mussel 0.380202 1.108627 -1.483780 -0.351634 2.515174 -0.898713 0.765993 2.249557 0.463248 5.276361 
blackberry -0.901468 -1.697578 1.569017 0.969629 -1.546499 2.473363 0.877730 1.358386 0.673082 0.343792 
roasted_peanut 0.812175 -0.209426 -0.562069 -2.090453 1.081170 1.293007 2.439955 -2.268600 0.165630 -0.156510 
rhubarb -1.212560 -0.811235 0.221859 0.209766 -1.566899 1.847484 1.086948 1.338154 0.330671 -0.114013 
chinese_cabbage 1.803446 1.515738 -0.533382 -4.359291 3.960174 1.504498 1.913514 2.532946 0.484982 1.456748 
corn_grit -1.131320 1.158040 -0.399384 -0.138833 1.216698 -0.847780 -0.633318 -1.038566 -0.214257 0.955465 
chicory 0.862875 -0.986146 2.143575 0.834520 2.243947 -0.260209 -0.133909 2.069966 2.446349 -0.331153 
bourbon_whiskey -1.022922 0.295746 -3.431676 -0.206323 -1.200379 2.219719 -1.810485 -0.152113 1.018258 0.907097 
citrus -0.512758 -1.045754 -0.453914 0.340915 -1.094238 1.272420 0.307381 1.086807 2.815911 1.562036 
lima_bean -0.569488 -0.475816 -1.911843 -0.180376 2.123832 -1.883720 -1.576441 -1.432570 0.212451 -0.618947 
lovage 0.413600 1.695015 -4.431866 0.696215 1.201793 3.256030 -4.603117 0.985607 -1.348145 3.683421 
melon 0.646499 -2.091115 1.841615 -0.379814 0.196093 1.664790 1.558890 -1.763228 2.529280 1.166622 
parsnip -0.186609 -3.218528 -2.259457 -0.874077 1.311628 -1.905354 -0.946937 2.309061 -0.188985 0.020131 
fig -0.013632 -1.332143 -0.790506 2.831431 -0.300743 -0.186834 0.402065 1.275635 3.050488 0.118455 
lemongrass 0.716038 0.333159 -0.068369 -3.015985 1.615481 0.417638 3.179488 -2.152618 0.541607 4.485900 
whiskey -1.520603 2.275585 -2.023232 0.716149 -0.983615 0.848952 -0.513678 -0.174310 3.875508 0.125617 
watercress 1.245329 -1.388569 0.823152 0.336288 1.786777 0.697094 -0.627832 0.456168 2.212719 0.218773 
tequila 0.478878 1.615901 0.164673 -0.097930 0.420699 2.765187 -0.161984 -1.981498 2.886129 2.082676 
rye_flour -1.254943 -2.289994 0.080586 -0.275583 -0.287985 0.723943 -2.229671 1.482636 0.323287 -3.027985 
peppermint 0.030342 0.125213 0.459844 1.127495 -0.464583 2.799104 1.113055 0.616133 -0.793134 -0.144205 
savory -0.664879 -1.218174 -0.671861 0.263224 1.443688 -2.482654 -0.228225 0.565436 0.864602 0.964197 
lobster -0.647510 0.648795 0.197103 0.285283 0.822204 0.117630 -0.599643 0.986960 0.705310 4.058471 
roasted_pork -0.473611 -1.227413 -1.358778 -1.285660 0.817617 -0.923741 -1.738435 -0.414391 1.759533 0.025883 
mace -0.350855 -1.196777 -2.601791 0.058287 -0.477351 -0.145061 0.626290 1.195172 1.562350 0.298513 
endive 0.928942 -0.933116 0.323770 1.690815 2.303979 -1.082384 -0.194944 1.575636 2.336858 0.153714 
brassica 0.611502 -1.141171 -0.407695 -1.605310 2.569868 -1.048228 0.002690 1.612354 1.228627 -0.598264 
grapefruit 0.668015 -1.522186 1.340518 -0.133826 0.413707 1.509079 0.215087 -1.249746 2.883602 1.050975 
enokidake 0.393949 3.265582 0.208127 -4.250383 3.411579 1.743995 2.046302 4.277791 -0.035089 -0.471870 
porcini -1.637341 -0.784894 0.187214 0.570800 1.101458 -2.560737 -0.438917 3.329057 0.038523 1.344020 
kiwi -0.320877 -1.498148 2.136734 -1.465968 -0.831919 1.897843 2.276114 -0.765641 2.441005 0.633256 
wasabi 2.514620 -0.432810 0.598855 -1.554744 3.339631 3.941132 -0.949701 2.048273 -1.129838 0.381223 
watermelon -0.213487 -0.705916 2.360955 -0.429649 -0.014110 1.066247 1.844530 -1.423812 3.697007 1.922243 
lime_peel_oil 0.438172 0.372706 1.405355 -0.495971 0.643002 1.143899 1.673514 -2.273783 2.573453 2.036334 
okra -0.658078 0.450078 -1.912653 -0.637511 1.558100 -1.276008 -0.801167 -1.738205 0.492962 1.821982 
macadamia_nut -0.389905 -0.293171 -0.276799 -0.302698 -0.820536 2.091541 1.410817 -0.840742 -0.269359 -0.149790 
smoked_salmon 0.309554 -0.896136 2.313031 1.077093 1.350182 1.895921 -1.681550 1.496392 -0.367498 -0.124782 
kale -0.541732 -0.618782 -1.060689 0.008345 2.229271 -2.547995 -0.025680 1.682009 -0.042289 0.353781 
popcorn -0.668380 -0.155854 -0.384478 -0.141298 -0.014672 0.998089 1.263857 -2.130862 -1.212409 -1.275307 
rye_bread -2.110431 -0.706976 1.627879 -0.501124 0.396718 0.224513 -3.634758 -0.009425 0.423145 -1.510992 
star_anise 1.353950 -1.021972 -1.442821 -1.043370 0.918213 0.858140 1.347250 0.812120 1.757493 1.726376 
brussels_sprout -0.241855 -1.602564 0.017257 0.911369 0.909705 -0.612557 -0.475252 0.914903 -0.097250 -0.497527 
tea -0.166975 -1.026463 -0.514866 0.068166 -0.728911 1.143288 0.566148 -0.052367 1.718421 1.085502 
thai_pepper 0.919017 0.051313 -0.920098 -2.724887 1.753805 1.756581 1.940180 -3.287244 -0.728692 2.907967 
champagne_wine 0.197022 -0.838461 1.506955 0.128826 0.342104 1.319137 -0.461113 0.944365 2.400127 0.765660 
anise_seed -0.173442 -1.220786 -0.453300 0.461548 -0.098796 -0.123522 0.719169 -0.604911 2.214689 -0.770687 
yam 0.077346 -1.896841 -2.990412 -1.205312 0.235336 -0.441810 1.228169 0.711107 0.427271 0.419048 
bitter_orange -1.277821 -2.121007 -0.110373 2.420506 -2.022080 1.885316 -0.366269 0.915560 2.184942 4.601044 
wheat_bread -1.119737 -0.320967 1.226774 -0.238386 0.500882 0.012050 -0.699688 -0.835764 -0.019699 -1.221037 
