249 10
</s> 0.040027 0.044194 -0.038303 -0.032780 0.013666 0.030211 0.009409 0.002113 -0.036035 0.022185 
egg -0.310707 0.077238 0.107319 0.561420 -0.151935 0.616082 0.654694 0.159241 0.916546 -0.221262 
butter -0.396908 0.025801 -0.479621 0.983242 -0.204292 0.401011 0.615277 0.308052 0.390920 -0.280615 
wheat -0.382991 -0.045919 -0.506084 0.429407 -0.330536 0.497207 0.906953 0.197099 0.753552 -0.113953 
onion -1.234268 -0.160177 -0.122150 0.057456 0.361202 -0.380775 -0.606860 -0.797176 -0.739997 0.232950 
garlic -1.138718 -0.471361 -0.069580 -0.603226 0.741210 -0.451964 -0.395461 -0.315263 -0.887665 -0.221525 
milk -0.361799 0.123340 -0.302586 1.039892 -0.071654 0.387915 1.071066 0.168096 1.008676 0.091568 
vegetable_oil -0.425886 0.465960 0.331167 -0.051478 -0.016000 0.801773 0.055914 -0.460384 -0.166168 0.350296 
cream -0.096663 0.235562 0.297632 1.075842 0.255586 0.533448 0.935310 -0.251193 0.342252 -0.372234 
tomato -1.536838 -0.840915 0.528794 -0.608714 0.763753 -0.992393 -0.783779 -0.987943 -0.376367 0.265082 
olive_oil -1.278296 -0.905597 0.976386 -0.090268 0.329108 -0.703571 -0.138513 0.338922 -1.445564 -0.719222 
black_pepper -1.040244 -0.219199 -0.347401 -0.216059 0.432218 -0.092118 -0.694826 -0.378420 -0.845789 -0.599114 
pepper -1.006931 -0.023693 -0.018949 0.315300 0.310832 -0.081614 -0.584111 -0.555082 -1.266581 0.594583 
vanilla 0.246988 -0.786933 -0.543320 0.975984 -0.560477 1.634728 2.078593 0.384150 1.416743 0.317567 
cayenne -0.965408 -0.338556 -0.180846 -1.693425 0.866417 0.011610 -0.075424 -1.357906 -0.950424 0.680917 
vinegar -0.619492 -0.111134 0.553835 -0.562216 0.204599 0.848661 -1.557776 -1.223232 0.057463 -0.207216 
cane_molasses -0.466181 -0.523938 -0.946376 -0.283660 -0.812127 1.014204 -0.372400 -0.724186 1.261559 0.470081 
bell_pepper -1.054437 -0.413868 0.200604 -0.403983 0.734732 -0.508171 -0.163015 -0.643431 -1.098148 0.185269 
cinnamon -0.423119 -1.186636 -1.404471 -0.283813 -1.626197 1.009394 1.275951 0.150890 0.184501 0.143600 
parsley -1.095371 0.234014 0.547098 0.720585 0.409821 -0.398459 0.022589 0.034775 -0.741915 -1.127603 
chicken -0.384123 -0.328310 -0.344046 0.271372 0.938539 0.029509 -0.364826 -0.244773 -1.403865 0.723190 
lemon_juice -0.127673 -0.423202 1.096980 0.290370 -0.079483 0.696623 0.441755 -0.103185 -0.823526 -0.709721 
beef -1.268384 -0.192898 -0.789427 -0.560309 0.496471 -0.196453 -1.564595 -0.687839 0.207937 0.045937 
cocoa 0.206056 0.051155 -0.649820 0.986733 -0.079216 1.747734 1.874941 -0.262478 1.782582 0.626362 
corn -0.912125 -0.556794 -0.082786 -0.709589 0.307291 -0.095967 -0.527611 -1.550304 0.640662 0.892993 
bread -1.075254 -0.331855 0.513508 0.632937 0.267716 -0.514275 -0.547385 -0.312827 0.226312 -0.468132 
scallion -0.475196 0.533131 0.108185 -1.260850 1.393321 0.815285 -0.198072 -0.167460 -1.083299 0.151540 
mustard -0.779703 0.401906 0.818660 0.235635 -0.402675 0.882397 -1.089377 -1.479215 0.309630 -0.307380 
ginger 0.144512 0.129075 -1.294178 -1.554504 -0.101180 2.213813 0.363605 -0.383302 -1.543054 -0.167277 
basil -1.458271 -1.123843 0.661904 0.286743 1.286384 -1.686565 -0.001475 0.176174 -0.603206 -0.553450 
celery -1.187744 0.120530 -0.651871 0.996085 0.414062 -0.211714 -1.404529 -0.175304 -1.163671 0.173022 
carrot -1.206257 0.518202 -0.969857 0.058517 0.143923 0.398094 -1.024066 0.697884 -1.604695 0.563171 
potato -1.630622 0.890465 -0.787936 0.824840 -0.150296 -0.305077 -0.481018 0.134288 -0.974445 -0.002335 
chicken_broth -1.143977 -0.289668 -1.151350 0.626340 0.457754 -0.344413 -0.416836 0.437948 -2.022827 -0.213293 
yeast -0.804899 -0.227578 0.199248 0.783398 -0.389867 -0.182269 0.820822 0.341184 1.156815 -0.043182 
rice -0.409057 0.342224 -0.468786 -1.020337 1.082710 1.088789 -0.424179 0.429568 -1.463792 0.578905 
mushroom -0.932722 -0.053248 -0.640622 0.735474 1.804243 -0.781409 -0.701353 0.561536 -0.658882 -0.152113 
cheese -1.061952 -0.352795 0.752226 0.333036 1.124221 -1.090677 0.440938 -0.288561 0.565657 -0.094052 
soy_sauce 0.078130 0.301972 -1.158893 -2.403126 1.872435 2.233740 -1.346559 0.162683 -0.764802 0.298210 
cumin -1.330791 -0.514762 0.112807 -1.249879 -0.637388 0.146368 0.583770 -1.764986 -2.883105 1.885224 
oregano -1.719996 -1.306591 0.479885 -0.424413 0.923728 -1.805529 -0.224965 -0.193542 -0.370395 -0.165969 
parmesan_cheese -1.306461 -0.290028 0.674150 1.017462 1.738946 -1.603980 0.300349 0.980417 -0.138214 -0.547762 
macaroni -1.507775 -0.245787 0.861500 0.434526 1.820683 -1.581092 0.006666 0.327790 -0.555175 -0.313282 
thyme -1.551184 -1.086872 -0.908703 1.039138 -0.015558 -1.129027 -0.986816 0.821191 -1.276684 -0.983886 
cheddar_cheese -1.306823 0.547109 0.275747 0.785997 1.450798 -1.087371 -0.253195 -0.813404 0.746378 1.106071 
lard -0.577925 -0.094349 -0.208085 0.297643 -0.646746 0.557175 1.131033 0.158411 1.215120 0.098281 
lemon -0.118250 -0.818391 0.742707 0.136830 -0.351884 0.589346 0.766455 -0.206342 -0.672432 -1.228293 
cream_cheese -0.046476 -0.156482 0.612249 1.077416 0.435242 0.462976 0.821802 -0.604180 1.243317 -0.155117 
walnut -0.084244 -1.000903 0.187288 0.441161 -1.190736 1.435015 0.794704 1.021763 1.056683 0.271254 
green_bell_pepper -1.453389 -0.070132 -0.242579 -0.217448 1.116454 -0.791307 -0.955936 -1.130118 -0.333264 0.829195 
starch 0.336353 0.171083 -1.177409 0.176809 0.654730 1.407691 -0.343650 0.313447 -0.111888 -0.220808 
nutmeg -0.651456 -1.107841 -1.588088 0.296976 -1.273119 0.318671 1.184659 0.668252 0.183363 -0.181075 
honey 0.034228 -0.957164 0.432636 -0.686744 -0.658143 1.725454 -0.521153 0.350798 -0.162285 0.334283 
apple -0.136727 -1.258746 -0.485824 0.751877 -1.397537 1.256686 -0.502266 0.542344 -0.061081 0.339332 
almond 0.145648 -0.397733 0.256922 0.766626 -0.782879 1.520258 0.954459 0.486017 -0.117974 -0.004345 
cilantro -0.478885 -0.658768 0.223419 -1.863971 0.751214 0.574087 0.768477 -1.863983 -2.305263 0.899368 
pecan 0.062244 -1.134918 -0.762905 0.526094 -0.747261 1.214890 0.837162 0.174776 1.221017 0.090780 
white_wine -1.042082 -0.318987 0.329454 0.587448 0.417194 -0.406086 -0.058012 0.118794 -1.634591 -1.760140 
bacon -1.270669 0.462858 -0.134200 0.821936 0.306639 -0.312283 -1.235846 -0.081860 0.265631 0.021039 
pork -0.667202 -0.901034 -1.300045 -0.611511 0.153245 0.495513 -1.998809 -0.572520 -0.269767 0.050398 
raisin -0.520770 -1.184252 -0.642514 0.156952 -1.676976 1.030376 0.802991 0.727921 -0.036896 1.043125 
bean -1.533175 -0.133879 -0.506083 -0.841783 0.690798 -0.439322 -1.064353 -0.291373 -0.665319 0.822851 
rosemary -1.574648 -1.893171 -0.569175 1.137924 0.352396 -1.735968 -0.777995 0.938856 -1.054080 -0.582368 
fish -0.507442 0.517422 0.071890 -1.441370 1.409145 0.802670 0.481899 -0.319552 -1.515390 -1.148753 
cucumber -0.284409 1.604913 1.867372 -0.450752 0.302152 1.630672 0.365772 -0.804523 -0.215457 -0.200960 
olive -1.399786 -0.569820 1.720431 0.059238 0.745843 -0.992613 -0.113496 -0.327940 -0.494969 -0.165887 
coconut 0.759221 -0.301703 -1.146944 0.196759 -0.017446 1.951260 1.588392 -0.982053 -0.947120 1.552073 
orange 0.603198 -2.115736 -0.087263 0.201101 -0.676271 1.723009 -0.104544 0.310918 -0.446544 -0.900701 
tamarind -1.177667 -0.139803 -0.681791 -0.474825 0.167247 0.219005 -1.887864 -2.646653 1.116963 0.039129 
vegetable -1.153032 0.798533 -0.764869 -1.199695 0.368129 0.598433 -0.373486 1.118551 -0.982184 0.306681 
orange_juice 0.838358 -2.413553 -0.086179 0.130219 -0.463961 1.702100 -0.149844 0.186714 -0.438773 -0.392606 
buttermilk -0.569672 0.129531 0.433360 0.831373 -0.451288 0.381791 1.030798 0.251431 0.923701 0.268560 
pineapple 1.139764 -1.584360 -0.326937 0.601411 0.435295 2.085147 -0.101473 -0.936383 -0.321783 0.611429 
shrimp -0.561320 0.671667 -0.719631 -1.049599 2.096818 0.405587 0.432953 -1.425270 -1.047234 -1.578477 
coriander -0.815430 -0.167929 -0.165460 -0.570642 -1.276338 1.232819 1.008344 -1.275942 -3.880164 2.194941 
bay -1.753596 -0.174769 -2.032696 0.708893 -0.445165 -0.503980 -0.889453 -0.998679 -2.123702 -1.386855 
lime_juice 0.482330 -1.439430 0.915246 -1.794310 1.257252 1.452911 0.584616 -2.454997 -1.995311 0.489150 
red_wine -1.064693 -1.229590 0.463360 -0.307824 -0.277216 -0.092589 -1.408270 0.312982 -0.859488 -0.838697 
gelatin 1.204518 -1.029375 0.162041 1.124715 0.585989 2.343542 0.716024 0.059746 0.811810 0.250864 
pork_sausage -2.088689 -1.091746 -1.025843 0.387035 0.558135 -2.006851 -0.776458 -0.214981 0.168042 -0.701806 
sesame_oil 0.009005 0.641977 -1.161897 -3.749050 2.504091 2.867549 -0.965097 0.838058 -1.305882 0.322683 
chive -0.620360 1.567820 1.381579 1.193646 -0.197360 0.921884 0.533471 -0.408319 0.152849 -1.357404 
seed -0.966585 0.150411 1.288969 0.143119 -1.749576 1.340253 -0.640806 -0.338760 -0.365413 0.368836 
mozzarella_cheese -1.849779 -0.983398 0.910966 0.605013 1.871819 -2.546897 0.145039 0.598161 1.004556 -0.639339 
ham -1.070244 0.102661 0.221307 1.061978 0.449942 -0.238220 -1.277228 -0.240625 0.186230 -0.395067 
oat -0.389344 -0.635628 -0.507805 -0.118008 -1.011887 1.585155 1.095162 1.037785 1.633319 1.774270 
turmeric -0.448213 0.085180 -0.552809 -0.267493 -0.534086 1.362446 1.233989 -1.474934 -4.579729 2.411180 
nut -0.369869 -0.494871 0.360835 -0.298133 -0.217159 0.790998 -0.028005 1.520999 -0.409435 0.273569 
shallot -0.362433 -0.457100 0.089060 0.593318 0.294797 0.673610 -0.339819 0.264349 -2.023917 -2.141912 
lettuce -0.392016 -0.470274 2.356866 -0.562401 0.700957 0.857366 -0.920491 -0.418593 -0.533707 0.292107 
cider -0.643851 -0.530496 0.170924 -0.334008 -1.090295 1.324907 -2.018533 -1.092762 -0.084190 0.153034 
dill -1.006273 0.989287 1.593523 0.962062 0.160746 0.426696 -0.443684 -0.541563 -0.688446 -0.661944 
pea -0.957268 0.792530 -0.059580 0.175814 1.008395 0.238372 -0.433357 0.279698 -1.975241 0.814311 
zucchini -1.592399 -0.470886 0.312122 0.299136 0.203696 -1.314295 0.683532 1.086535 -1.178869 0.622831 
cherry 0.747904 -1.961376 -0.321004 0.671526 -0.588993 1.748514 1.117366 0.126008 0.683541 -0.352676 
lime 0.832083 -1.472338 0.428293 -0.868440 0.964181 1.625051 0.875107 -2.042907 -1.727829 -0.066644 
yogurt -0.018827 -0.766633 1.418061 -0.014842 -0.696045 1.257497 0.704768 0.274445 -1.514870 0.711384 
strawberry 1.616545 -2.012728 1.201385 1.115032 1.081221 2.320304 0.841516 0.827774 0.756105 -0.662084 
soybean -0.557183 0.783736 -0.905194 -2.701838 1.176868 1.920200 -0.672839 1.270454 -0.660086 0.291225 
celery_oil -1.162051 -0.652066 -0.698863 -1.160447 0.249273 0.358626 -2.688282 -3.051661 1.829056 0.345637 
peanut_butter 0.412542 0.979852 -0.272146 -0.293276 0.740062 2.261238 0.869353 0.587263 0.711286 2.429241 
banana 0.828103 -1.326248 -0.059420 0.422353 0.425996 1.618154 1.103443 0.271486 0.701944 0.901190 
meat -1.023765 -0.762038 -1.254172 0.137640 0.206213 -0.159683 -1.359205 -0.203164 -0.137401 -0.125325 
tabasco_pepper -0.963138 0.149783 -0.127124 -0.251313 0.623339 0.068521 -1.206049 -2.642098 0.376193 -0.258678 
milk_fat -0.421001 0.002622 -0.398374 1.088332 -0.345112 0.331264 1.514523 0.090338 0.306006 -1.232503 
cabbage -1.043916 0.943428 -0.378097 -0.334105 -0.144297 1.348977 -2.101264 0.077674 -0.821944 0.772683 
mint 0.143198 -1.235455 1.332730 -0.637955 -0.070219 1.016546 1.078413 -0.238237 -1.903901 -0.389380 
fennel -2.032479 -1.405439 -0.313506 0.204470 -0.167394 -1.669852 0.054813 0.609417 -0.938605 -1.450140 
sage -1.220770 -1.629769 -1.888175 2.052488 0.248236 -1.143245 -1.523306 0.846040 -0.837995 -0.440897 
broccoli -0.812829 0.679439 0.597372 0.878741 1.705755 -0.330453 -0.198244 0.932863 -0.723851 1.615429 
turkey -0.826801 -1.137269 -0.361648 0.820129 0.591775 -0.509802 -1.608519 -0.011223 -0.348610 0.413916 
fenugreek -0.843262 0.163212 -0.652464 -0.370701 -0.668634 1.122210 1.363282 -1.704441 -4.127199 2.531183 
cranberry 0.469825 -2.326620 -0.399370 1.194238 -0.836018 1.520456 -1.026749 0.499572 0.334864 -0.262121 
wine 0.055902 -0.638872 -0.149642 -0.530694 0.725610 0.993037 -0.558908 0.143741 -0.702182 -1.063981 
beef_broth -1.699478 0.012721 -1.785117 -0.560959 -0.105621 -0.053204 -1.934217 0.170017 -0.369679 -0.642228 
grape_juice -0.666852 -1.542320 1.155521 -0.001930 -0.120484 0.046586 -1.079110 0.713831 -0.680590 -0.948799 
pumpkin -0.524449 0.198730 -2.026217 -1.178096 -0.552513 0.924816 1.306615 1.090915 0.431278 -0.505765 
raspberry 1.339882 -1.608001 1.183012 0.936129 0.638401 2.244673 1.135783 1.183859 0.878869 -1.256270 
whole_grain_wheat_flour -0.967441 -0.563073 0.974065 -0.357345 -1.100302 0.590799 0.152090 1.129030 1.458832 0.783947 
lemon_peel -0.062741 -0.952522 0.534082 0.597225 -0.401376 0.459884 1.490541 1.107745 -0.759087 -1.166980 
coffee -0.212234 -0.117974 -0.975245 0.462224 -0.639113 1.168034 1.431980 -0.920872 1.618135 -0.216539 
sesame_seed 0.103349 0.598530 0.790576 -1.734119 0.362235 2.403642 -0.504520 1.020010 -0.568869 0.558183 
avocado -0.494671 -1.128891 2.433949 -1.625958 1.023595 0.350970 -0.098772 -2.234891 -0.405680 -0.095853 
sherry -0.316272 -0.204444 -0.459308 0.202374 0.222254 0.739881 -0.614963 0.065074 -1.080245 -1.288154 
sake -0.240683 0.526348 -1.177903 -3.364604 2.155688 2.544328 -1.489364 0.890555 -0.163090 -1.150864 
feta_cheese -1.048558 -1.254434 2.932034 -0.365511 0.299858 -0.583271 0.273787 0.388846 -0.582780 -0.399925 
apricot 0.026452 -1.700639 -0.949023 0.916185 -1.313559 1.154629 0.307461 0.419366 -0.428347 -0.046278 
roasted_sesame_seed -1.594525 1.881983 0.507277 -4.056785 1.196363 1.962924 0.050042 2.079271 -1.202675 -0.401121 
rum 0.981112 -2.043867 -0.652885 0.383433 -0.255256 1.837288 1.805245 -1.068744 0.259878 -0.562553 
orange_peel 0.306245 -2.101592 -0.340856 0.595785 -1.010450 1.415957 0.175316 1.343721 0.134900 -1.412687 
squash -1.483608 -0.643381 -0.977632 0.295110 -0.301638 -0.955319 0.385379 1.209190 -1.162240 0.906863 
crab -0.170562 1.169916 -0.090714 0.405991 1.668799 0.669254 0.387624 -2.351091 -0.423579 -1.814178 
marjoram -1.501068 -1.393928 -1.205316 1.744807 -0.215176 -1.032153 -1.997833 1.394061 -1.035881 -0.538822 
swiss_cheese -1.393995 1.212782 0.577268 2.143988 0.841481 -0.600572 -0.989729 -0.029966 1.127255 -0.011889 
sweet_potato -0.710213 -0.783651 -1.817423 -0.114893 -1.392400 0.811284 0.136012 0.247816 -1.336533 0.607747 
shiitake -0.408972 0.832205 -1.555433 -1.262992 2.617374 1.187338 -1.068667 2.251025 -0.505421 -1.813954 
radish -0.792992 1.242947 1.402912 -3.073311 1.195546 2.278011 -0.621673 0.816126 -0.794945 -1.170447 
peach 0.919435 -1.674293 -0.207299 0.369653 0.039932 1.719115 0.797973 0.017521 0.130812 -0.466706 
tarragon -0.643834 0.435904 0.986978 1.234412 0.288839 0.561800 -0.540243 0.219846 -1.173130 -1.833384 
black_bean -1.414656 -1.239143 0.368298 -2.354972 1.219832 -0.673170 -0.491884 -1.592525 -1.084170 2.269889 
lamb -1.532233 -1.512051 0.053695 -0.499620 -1.711401 -0.364224 0.361517 0.833625 -2.905958 -0.578143 
maple_syrup -0.298450 -0.591854 -1.011532 0.163967 -0.961619 1.284599 -0.383164 0.359464 0.412728 0.558405 
pear 0.453966 -1.063426 0.010377 -0.642258 -0.581397 2.155878 -0.353130 1.218406 -0.271225 -1.120496 
fruit 0.875562 -1.890216 -0.123256 0.735290 -0.318070 2.082267 0.698394 0.529186 0.363544 -0.088558 
blueberry 1.379163 -1.370478 1.439762 1.139979 0.580063 2.485969 1.740999 1.657981 0.891107 -0.788421 
clam -1.362211 1.202221 -1.266147 -1.169565 1.929043 -0.163140 0.893543 -0.553627 -1.717506 -3.400837 
smoke -1.406469 -0.286401 -0.249794 0.542837 -0.124414 -0.116816 -1.694884 -0.916214 -0.022141 -0.672914 
tuna -0.436414 0.647168 1.831440 -0.210013 1.492062 0.547144 -0.387327 -0.503229 -0.283203 0.179832 
kidney_bean -2.697376 -1.119794 -0.690304 -1.871076 0.111444 -1.197440 -2.121882 -0.969737 -0.395825 2.101325 
peanut 0.440306 1.006620 -0.153217 -1.111773 0.837104 2.537873 0.107390 -0.575695 -0.053004 2.289048 
asparagus -0.552389 0.468573 0.705756 1.230242 0.974627 0.090667 0.015857 0.760313 -1.281794 -0.675028 
salmon -0.213420 0.398276 1.092736 0.145235 0.329303 1.023448 0.040956 -0.783035 -1.237797 -1.092500 
leek -1.530818 0.784477 -0.936561 1.403190 -0.220495 -0.000721 -0.376948 1.181020 -2.601340 -1.509285 
chickpea -2.115888 -0.766408 0.571458 -1.342100 -1.146665 -0.616747 0.400736 0.399626 -2.599403 1.451400 
blue_cheese -0.347147 -0.668454 1.392670 1.153502 0.157238 0.424106 -1.248385 0.183179 0.206889 -0.883523 
brandy 0.338908 -1.663077 -1.261369 0.812627 -0.621861 1.602792 -0.079832 -0.496708 1.321831 -3.044466 
artichoke -1.259331 -0.397099 1.668864 0.568224 1.273056 -1.300388 0.596499 0.379890 -0.753961 -1.264421 
horseradish -0.889098 1.031769 0.824007 0.448393 0.025710 0.961245 -1.439578 -2.170786 0.687014 -0.888605 
mango 0.839633 -1.392247 0.921021 -0.692002 0.367344 1.931227 0.630067 -1.309779 -1.968336 0.491654 
date -0.310237 -1.812608 -0.922867 0.355421 -2.085345 1.388645 1.184677 1.027267 0.346584 0.420895 
cardamom -0.844328 -1.226835 -1.162129 -0.821516 -2.862250 1.249469 1.577590 0.103606 -2.132657 0.144833 
white_bread -0.766079 -0.523826 0.163939 1.326515 0.040323 -0.181905 -0.620756 0.171652 0.082100 -0.598999 
oyster -0.455265 0.921588 -1.920751 -1.028535 2.136329 0.955857 -0.456114 1.011421 -1.260993 -1.378062 
cottage_cheese -0.834943 -0.571048 1.549785 1.241479 1.017681 -1.199473 0.605476 -0.243276 1.192477 0.631041 
grape 1.091600 -1.600337 1.448148 1.120057 0.148887 2.362053 -0.709200 0.302972 -1.377361 0.690305 
brown_rice -0.376351 -0.689770 -0.554379 0.644702 1.070954 0.176224 -1.085968 0.680472 -1.692450 1.554697 
cauliflower -1.448609 1.421518 1.119634 1.088841 0.340439 0.164920 -0.299407 1.205150 -1.680229 1.219060 
cured_pork -1.833523 -1.551627 0.504150 0.765732 1.453356 -2.176276 -0.694242 1.311418 0.268629 -1.668180 
egg_noodle -0.816473 0.396969 -0.279362 1.209128 1.443498 -0.391794 -1.159209 -0.232758 0.001739 0.638573 
beer -1.447823 -0.326169 -1.438309 -0.535717 -0.698951 0.071666 -0.809206 -2.146765 0.055024 -0.209689 
hazelnut -0.058834 -0.548063 -0.336994 1.182378 -0.902725 1.232825 0.860296 1.149045 0.640338 -1.491577 
mandarin 1.660641 -1.626428 1.057756 0.611909 1.352317 2.528841 -0.760582 0.302460 -0.010734 0.822557 
romano_cheese -1.479390 -0.889661 0.706342 0.545863 1.230088 -1.710258 0.495776 0.545057 -0.190040 -1.456498 
plum -0.078273 -1.677587 -0.917335 0.013796 -1.510465 1.380271 -0.299007 0.323346 -0.830104 -0.516459 
pimento -1.029534 0.451946 1.405139 0.953090 1.197022 -0.570975 -0.256625 -1.241826 -0.614364 0.716107 
smoked_sausage -2.369342 0.341515 -1.401256 0.793455 -0.415403 -0.549777 -2.066543 -1.105396 -0.432108 0.491136 
scallop -0.974238 0.854198 0.231966 -0.098395 1.349475 0.012740 1.395846 -0.856428 -2.420266 -2.913780 
goat_cheese -1.173244 -0.993176 2.020267 0.434766 -0.614537 -0.237418 -0.446319 1.457825 -0.031356 -1.328932 
lentil -2.053799 -0.274555 -0.516188 -0.626757 -0.952837 -0.480333 0.008668 0.929744 -2.869777 1.710536 
currant -0.486156 -2.226537 -0.420421 0.482814 -2.082756 0.775476 0.312800 0.459403 -0.083850 -0.567584 
saffron -1.685698 -0.377236 -0.628920 -0.237021 -1.160449 -0.468698 1.905162 0.881448 -3.354977 -1.172439 
barley -0.929817 0.183205 -0.532321 -0.514688 0.359706 0.990530 -1.756575 2.125221 -0.664414 1.148351 
caraway -2.584838 1.126504 0.512065 1.328543 -3.617537 0.990605 -1.244685 -1.271629 -0.435931 -0.103992 
beet -0.934625 -0.291136 1.641771 0.227526 -1.592356 1.745842 -2.019945 0.336053 -1.082583 -0.981252 
squid -0.798493 1.343820 -1.387066 -3.315625 2.925324 0.992822 1.422062 0.791199 -1.182313 -2.131473 
corn_flake -0.185918 0.311915 -0.502056 1.178637 0.435064 0.516410 0.190905 -0.015714 0.503250 1.518839 
anise -0.792881 -0.506345 -0.615604 -0.505109 -1.565112 0.866861 1.435457 0.490472 -0.378726 -1.780852 
roasted_beef -1.350751 -0.122438 -0.332939 0.046661 0.012610 -0.135871 -1.786591 -0.566042 0.463449 -0.841747 
pistachio 0.178394 -1.054500 0.305156 0.915722 -1.277098 1.480557 1.348223 0.754434 -0.461406 -0.676326 
peanut_oil 0.572863 0.729199 -0.951221 -1.090407 2.153863 2.276426 -0.610629 -0.682622 -1.972557 0.983832 
cereal -0.795097 -0.238234 0.461332 -0.235374 -0.456209 1.195746 0.225780 2.208977 1.765426 2.928895 
cashew 0.422682 -0.259784 -0.069538 0.118599 0.159742 1.962141 -0.511953 0.632325 -1.945714 1.836926 
veal -1.328499 -0.949652 -1.045725 1.321227 0.118047 -0.841821 -1.109968 1.283000 -0.818057 -2.595970 
seaweed -0.877515 1.936156 1.287624 -3.768394 2.432252 2.198573 0.071392 1.224494 0.935968 -1.369790 
turnip -2.184889 0.529007 -1.461330 1.295980 -2.435757 0.983218 -1.571273 2.125359 -2.882190 -0.546990 
sauerkraut -2.214114 1.134996 -0.814516 1.713479 -1.387380 0.577442 -2.848984 -1.506682 1.907391 -1.388311 
berry 0.827202 -1.887550 0.675631 2.373844 -0.222740 1.581640 0.592185 1.424294 0.312201 -0.571810 
kelp -1.397936 2.162364 -0.478396 -5.158364 2.337408 2.422765 0.875211 1.903421 -0.460349 -1.674529 
tomato_juice -2.019170 0.096808 -0.347428 -0.366993 0.061435 -0.793449 -1.491761 -1.564182 0.109026 0.235946 
cod -1.141310 1.410925 -0.703414 -0.380062 0.601407 0.162526 0.889011 -0.774463 -1.893453 -1.107129 
provolone_cheese -1.646368 -1.527088 1.047181 0.738110 1.716842 -2.066280 -0.796800 0.226136 1.327690 -1.250835 
mussel -2.119237 0.989311 -1.612498 -1.780170 0.861039 -0.309633 1.593082 -0.407640 -3.354180 -3.810206 
blackberry 0.918550 -2.019387 0.763683 1.138102 0.538511 1.585801 1.392250 1.328770 2.339477 -1.770690 
roasted_peanut 0.456679 0.276444 -0.093782 -1.918752 0.645351 2.531933 0.470435 -0.344065 -1.375819 2.260639 
rhubarb 0.821421 -1.243737 -0.528217 0.912112 0.277052 1.720207 1.625716 1.304574 1.460316 -0.570280 
chinese_cabbage -1.371962 1.369921 -1.152679 -5.380783 2.185910 2.553309 -0.734613 2.147751 -1.668055 -2.318007 
corn_grit -1.437238 -0.596870 -0.771851 -0.301815 0.929471 -1.217108 0.092457 -1.830114 -0.462214 0.069809 
chicory -0.534444 -0.992176 2.677644 -0.113641 0.066455 1.302759 -1.746830 1.727493 -0.797999 -2.673193 
bourbon_whiskey 0.046819 -1.899246 -4.026183 0.508221 -0.062620 0.574918 0.632941 -2.560969 1.094829 -0.561921 
citrus 0.559829 -1.836266 -0.153285 0.322282 -1.423380 2.237923 1.404505 0.140753 -0.111236 -2.625370 
lima_bean -2.475637 -0.206039 -1.121366 0.122537 -0.450582 -0.779827 -2.008808 -1.444448 -1.148131 1.213494 
lovage -1.907564 2.235414 -3.105752 -0.929411 -0.714144 0.319591 0.974977 -4.557650 0.380224 -4.055838 
melon 1.442359 -2.885149 2.069621 -0.302007 0.715962 2.710316 0.503264 -0.492005 -1.518247 0.133108 
parsnip -1.805628 0.770128 -1.570993 1.646323 -1.877489 0.848127 -1.666755 1.968193 -2.813339 -0.145628 
fig -0.516168 -2.855405 0.291192 0.505632 -1.984982 0.559972 0.676379 1.119769 0.091362 -1.813098 
lemongrass 0.791564 0.005149 -0.896588 -2.406936 2.495169 2.114480 2.122661 -1.204592 -4.862265 0.439519 
whiskey -1.116743 -2.138241 0.255128 -0.695827 -2.950700 1.050984 0.270353 -2.364522 1.749654 -1.091476 
watercress -0.367658 -0.681928 1.769759 -0.295854 -0.590919 1.649157 -1.417883 0.087090 -1.368378 -1.252320 
tequila 0.973047 -2.608305 -0.235781 -1.911632 1.920036 1.077074 0.925033 -2.997993 0.222994 -1.036886 
rye_flour -2.398921 0.651732 1.706661 0.669485 -3.072070 1.031949 -1.262993 0.556405 2.293916 -0.292529 
peppermint 0.427458 1.194367 0.768746 0.608018 0.228764 2.109191 1.811265 0.106489 0.999063 -0.201823 
savory -1.716971 -1.038792 -0.936267 0.741068 -0.644397 -0.900535 -0.977848 0.938702 -1.381345 -1.115061 
lobster -0.625445 0.308805 -0.779697 0.296622 1.027910 -0.090198 1.631265 -1.191072 -1.737321 -3.072549 
roasted_pork -0.873556 -1.375673 -1.498095 0.054938 -0.963027 0.578898 -2.329776 -0.928391 -0.472961 -0.002049 
mace -0.710601 -1.381574 -1.942487 -0.062457 -2.109326 0.991846 0.640485 0.687207 -0.363756 -0.817750 
endive -1.629372 -1.275709 2.147774 0.226815 -1.321197 0.213631 -1.288431 1.342032 -1.370597 -1.998093 
brassica -1.950608 0.347574 -0.347130 -1.316756 -0.764619 0.875800 -1.660627 1.168858 -1.013106 -1.015640 
grapefruit 1.103706 -2.716820 1.317755 -0.363905 0.258859 2.288157 -0.741102 -0.914541 -0.883894 -0.923355 
enokidake -1.830044 1.903680 -2.192945 -4.765241 2.684258 2.023664 -1.111498 1.841985 1.489490 -2.913055 
porcini -1.682850 -0.210930 -1.521814 1.695989 0.898182 -1.180604 -0.755688 2.797256 -1.110905 -2.581393 
kiwi 1.867741 -2.008588 1.267831 0.204895 1.026859 3.138350 0.581552 0.331039 -0.107311 0.173993 
wasabi -0.628510 2.697418 1.658964 -2.494627 1.769423 2.939161 -1.133127 -0.292520 0.421571 -2.002778 
watermelon 1.253222 -2.312483 2.353203 -0.056628 0.324156 2.716489 0.841627 -1.123592 -1.638406 -1.551245 
lime_peel_oil 1.024927 -1.373725 1.403069 -0.665464 0.885857 2.012045 1.165717 -1.871341 -1.962733 -0.263378 
okra -1.392799 0.040221 -1.639391 -0.408723 0.483556 -0.197805 -0.428594 -1.556285 -2.021869 0.127050 
macadamia_nut 0.762111 -0.343699 0.006480 -0.100888 0.472745 1.806876 1.437934 -0.319411 0.406082 1.263311 
smoked_salmon -0.794148 1.939398 2.748846 1.350558 0.410533 0.986058 0.164103 -0.327888 -0.480203 -1.892847 
kale -2.070109 -0.167166 -0.677921 0.396890 -0.511512 -0.476813 -1.332490 1.461029 -1.670919 -0.595389 
popcorn -0.204822 0.306524 0.266724 0.277031 0.537706 0.911021 0.830072 -0.314657 0.529934 2.713164 
rye_bread -2.188105 0.720358 1.751171 2.415507 -1.160714 0.025576 -2.086295 -1.689582 1.336931 -0.755330 
star_anise 0.341536 -1.005411 -1.153736 -1.558050 -0.735084 2.315948 -0.103391 0.221043 -1.802308 -1.177982 
brussels_sprout -1.222741 0.306847 0.604094 1.571426 -0.541606 0.231457 -1.000513 1.277071 -0.661757 -0.251797 
tea 0.414903 -1.239397 -0.306845 0.249131 -1.134340 1.832114 0.828787 -0.599036 -0.885822 -0.345399 
thai_pepper 1.052935 -0.508717 -1.985666 -1.792026 3.473272 2.104051 0.506182 -2.316023 -2.976432 2.033642 
champagne_wine 0.479688 -0.797423 1.609743 0.582623 -0.152719 1.906507 -0.762998 0.189514 -0.418764 -2.256671 
anise_seed -0.434663 -1.010779 0.707910 -0.250127 -1.951369 1.596955 0.427524 0.105877 -0.848722 -0.096716 
yam -0.577212 -0.088117 -2.307128 0.508639 -1.366885 1.544602 0.180983 1.409833 -2.183536 0.626302 
bitter_orange 1.117635 -2.014930 -0.271347 3.027689 -0.420467 1.795417 2.727503 -1.128411 -1.306918 -3.421328 
wheat_bread -0.758180 -0.224389 1.429752 0.770133 0.376220 0.237095 -1.045125 -0.039623 0.632817 0.984135 
