249 10
</s> 0.040027 0.044194 -0.038303 -0.032780 0.013666 0.030211 0.009409 0.002113 -0.036035 0.022185 
egg -0.399122 -0.039036 -0.241516 0.400425 0.096421 0.713489 0.701152 -0.228651 0.512362 -0.535762 
butter -0.939307 0.069743 -0.151380 -0.039333 -0.305692 0.544254 0.395358 -0.814826 0.851202 -0.183279 
wheat -0.705956 -0.335573 -0.478933 -0.172687 -0.116019 0.575107 0.562262 -0.542859 0.678851 -0.466891 
onion -0.920518 0.353478 -0.406757 0.440240 0.618961 -0.444103 -0.499687 0.728038 -0.459104 0.885491 
garlic -0.457551 -0.196792 -0.801022 0.055490 0.650411 -0.170931 -1.444967 0.450367 -0.945666 1.019249 
milk -0.896996 -0.128586 -0.148558 0.251199 -0.233964 0.607229 0.894486 -0.971043 0.717103 -0.470457 
vegetable_oil -0.278004 1.001646 -0.176847 0.014559 0.480260 0.538904 0.211335 0.503936 -0.609608 0.220841 
cream -0.555154 0.561437 0.229741 0.698547 -0.213103 0.842360 0.395036 -1.090066 0.246455 -0.173029 
tomato -0.913814 -0.398611 -0.634860 1.025112 1.090867 -0.933812 -0.873498 0.782966 -1.216515 0.717945 
olive_oil -1.062739 -0.792072 0.037069 0.277440 -0.498504 -0.465355 -1.597888 0.654867 -1.158566 -0.086019 
black_pepper -0.665441 0.105955 -0.499127 -0.013542 0.014414 -0.064592 -1.412130 0.609267 -0.303791 0.875665 
pepper -1.230376 0.604916 -0.105254 0.181943 0.050976 -0.488432 -0.233525 0.347052 -1.069879 1.083456 
vanilla -0.156075 -1.319046 -0.840402 -0.045596 -0.440670 1.573564 1.956890 -1.076785 0.737256 -0.643227 
cayenne 0.216068 0.515634 -1.449223 0.197588 0.965579 0.200716 -0.603792 0.658243 -1.889890 1.377679 
vinegar 0.326378 0.946007 0.202761 0.943653 0.857181 0.676065 -0.259887 1.960853 -0.286107 0.793303 
cane_molasses -0.223332 -0.109177 -0.967641 0.283795 0.117757 0.599966 1.343713 0.840010 0.952920 0.791918 
bell_pepper -0.668932 0.025198 -0.573632 0.588435 0.517750 -0.432517 -0.955544 0.409357 -1.328605 0.902804 
cinnamon -0.563219 -1.041909 -1.863255 -0.728937 -1.567265 0.590711 1.306340 0.402754 -0.024943 -0.087244 
parsley -1.288914 0.334963 0.005984 0.521713 -0.006580 -0.289333 -1.463942 -0.270376 -0.014340 -0.288336 
chicken -0.808522 0.140703 0.290031 -0.441753 0.105599 -0.003513 -0.381759 0.189816 -1.215027 1.356095 
lemon_juice -0.259675 0.187909 0.152116 0.529127 -0.831886 0.667305 -0.480828 0.050205 -0.933584 -0.531450 
beef -0.535491 0.008195 -0.996795 0.162953 1.297294 -0.293907 -1.045727 1.322023 0.541753 1.278198 
cocoa -0.168417 -0.530702 -0.662848 0.368100 0.126907 1.517564 2.257881 -1.350939 0.584285 -0.634360 
corn -0.070976 0.072615 -0.882268 0.984830 1.310197 0.018094 0.572573 0.844505 -0.213096 1.101838 
bread -0.979324 -0.127376 0.207974 1.128863 0.482914 -0.325327 -0.643053 0.225654 0.277180 0.162830 
scallion 0.793186 0.976804 -0.492293 -0.648292 1.346056 1.412745 -1.251041 0.443252 -1.518774 0.671583 
mustard -0.211726 1.689837 0.213018 1.472319 0.255474 0.582288 0.185359 1.254426 0.423667 0.238547 
ginger 0.768923 0.934611 -1.471354 -1.507737 -0.837897 1.787798 -0.180195 0.477962 -1.222827 1.422908 
basil -1.415049 -1.527608 0.141017 0.894232 0.816518 -1.100331 -1.931341 -0.146097 -1.033277 0.231054 
celery -1.933284 0.261552 0.729138 -0.265620 -0.121833 -0.680775 -0.845267 0.551922 0.325385 1.430900 
carrot -1.493565 0.835524 -0.067116 -1.651896 -0.003871 -0.135823 -0.838206 0.776567 -0.261242 0.948182 
potato -1.908215 0.995144 -0.588981 -0.444833 0.273445 -0.735166 -0.869263 0.210556 0.164930 0.244265 
chicken_broth -1.843386 -0.051035 -0.090738 -0.991317 -1.023574 -0.522547 -1.389093 0.060388 -0.468541 1.035266 
yeast -0.750404 -0.452887 -0.379215 0.374799 0.369388 0.251879 0.722448 -0.029792 0.715142 -1.275934 
rice 0.032430 0.674824 -0.264101 -1.775728 0.485973 1.074267 -0.931386 0.493236 -1.547730 1.233744 
mushroom -1.368520 -0.011670 0.632369 -0.493229 0.758366 -0.152153 -1.629529 -0.568046 0.279551 1.293531 
cheese -0.940968 -0.574940 0.169169 1.252419 1.059598 -0.424336 -0.795278 -0.531467 -0.268717 -0.163386 
soy_sauce 1.435342 1.042290 -0.650902 -1.797882 1.316689 2.297901 -1.227183 1.536381 -0.835949 1.983935 
cumin -1.139254 0.956571 -1.345354 -0.367372 -0.621322 -0.842552 0.624608 1.105917 -3.555947 1.468484 
oregano -1.290956 -1.485028 -0.569623 1.024507 1.089809 -1.351597 -1.522987 0.457866 -1.042682 0.612976 
parmesan_cheese -1.654243 -0.917242 0.755380 0.624901 0.794887 -0.633188 -2.015687 -1.088018 -0.142495 -0.255500 
macaroni -1.460216 -0.916151 0.585756 0.474202 1.210186 -0.730734 -1.959505 -1.039245 -0.756348 0.257514 
thyme -2.203070 -1.094769 0.181514 -0.088569 -0.757492 -1.180540 -1.976257 0.743645 0.557564 1.208120 
cheddar_cheese -1.248040 0.448431 0.008491 0.930623 2.377143 -0.642101 0.120257 -0.412350 0.052212 0.427663 
lard -0.573785 -0.371201 -0.825383 -0.107878 -0.049363 0.681577 1.230220 -0.233148 0.636412 -0.949355 
lemon -0.128370 -0.233967 -0.174049 0.757127 -1.359156 0.809009 -0.521663 -0.216732 -0.549518 -0.095155 
cream_cheese -0.170205 0.155712 0.421984 1.261695 0.337332 1.017849 0.716260 -1.018966 0.319033 -0.607351 
walnut -0.523027 -1.050549 0.115790 -0.252509 -1.053662 1.086239 1.758780 0.555464 0.691232 -0.745089 
green_bell_pepper -1.164933 0.092391 -0.445318 0.977326 1.401393 -1.007522 -0.480957 0.486260 -0.743257 1.677292 
starch 0.307495 0.234564 0.297927 -0.693418 -0.336185 1.634241 -0.170154 -0.100328 0.532695 1.421041 
nutmeg -1.043273 -1.406383 -1.471451 -0.725828 -1.193530 0.194701 0.771645 -0.099772 0.645100 0.077918 
honey 0.251157 -0.571716 -0.032698 -0.655457 -0.483276 1.175149 0.599073 1.480666 -0.291926 -0.033827 
apple -0.826762 -0.498433 0.387667 -0.415595 -1.187852 0.583961 1.322476 1.206461 0.497096 -0.015284 
almond -0.421006 -0.174463 0.338264 -0.164573 -1.374784 1.228888 1.082479 -0.042049 -0.112254 -0.641073 
cilantro 0.348095 0.485162 -1.493002 0.306632 -0.147272 0.254190 -0.223359 0.766758 -3.721868 1.242707 
pecan -0.304482 -0.973631 -0.319632 0.158726 -0.657201 1.196148 1.631899 -0.075886 1.128096 -0.055409 
white_wine -1.002277 0.280163 0.130739 0.312999 -0.925173 0.130604 -2.344141 -0.297820 -0.138771 0.324317 
bacon -1.392459 0.328986 0.260093 0.237574 0.859775 -0.491302 -0.796033 0.952068 0.804354 0.204391 
pork -0.319534 -0.168799 -0.918446 -0.227443 0.367374 0.040288 -0.732406 1.833121 0.372801 1.555927 
raisin -0.931056 -1.275985 -0.706772 -0.951431 -1.070808 0.353866 1.759149 0.847185 -0.038445 -0.328519 
bean -0.978519 -0.057705 -0.485040 -0.244840 0.876200 -0.614565 -0.713136 1.226975 -0.800883 1.131654 
rosemary -2.626889 -1.865129 0.885821 0.293435 -0.816757 -1.551017 -1.961933 0.287282 0.415947 1.225883 
fish 0.784985 1.158807 -1.751551 -0.559866 0.192070 1.457112 -2.104370 -0.202470 -1.901855 0.235559 
cucumber 0.799894 2.143971 -0.213435 0.556147 0.977594 1.602764 -0.043849 0.513675 -1.222651 -1.398468 
olive -0.914699 -0.477910 0.240753 1.527718 0.663990 -0.691760 -1.475658 0.420307 -1.209753 -0.322366 
coconut -0.077121 0.602802 -0.669697 -0.654316 -1.472465 1.569775 2.020555 -1.163981 -1.465248 1.459896 
orange 0.397757 -1.214210 0.055858 0.401263 -2.017413 1.538400 0.070772 0.810735 0.028411 0.070352 
tamarind -0.089626 0.975897 -0.868864 1.825442 1.453178 -0.117912 0.244240 1.850743 0.809565 1.678838 
vegetable -0.520335 0.601449 -0.761332 -2.051632 0.786368 0.660822 -1.245778 0.489712 -0.381470 0.435053 
orange_juice 0.413038 -1.095430 0.584369 0.270661 -2.132406 1.512259 0.314913 0.828031 -0.500235 0.916773 
buttermilk -0.780977 -0.227172 -0.102720 0.316180 0.308225 0.404125 0.946719 -0.302913 0.274816 -1.150458 
pineapple 0.630806 -0.689633 0.929837 0.765157 -1.188681 1.878219 1.078951 0.078415 -0.267984 1.561997 
shrimp 0.635591 1.187846 -2.129668 0.433069 0.506180 1.092326 -2.504180 -0.709175 -0.803013 0.841219 
coriander -1.257398 1.720575 -0.983288 -1.480659 -1.716484 -0.088529 1.124830 0.253948 -3.924327 1.365121 
bay -1.809961 0.604470 -1.468803 0.386608 -1.670296 -0.948656 -1.609942 0.544860 0.271176 2.140244 
lime_juice 1.250044 0.246613 -0.780037 1.429679 -0.544026 1.137680 -0.027307 0.588828 -3.894762 1.459038 
red_wine -0.764002 -0.387213 0.048946 0.735674 -0.848268 -0.310804 -1.388833 1.686114 -0.361890 0.538016 
gelatin 0.629750 -1.218773 1.148560 0.407120 -0.480972 2.230794 1.163573 -0.638574 0.135373 0.057380 
pork_sausage -1.846785 -1.641623 -0.969637 0.760768 0.945652 -1.604362 -1.666986 0.821542 0.752362 0.198525 
sesame_oil 2.073980 0.394509 -0.830865 -2.638101 1.928584 2.917226 -2.095597 1.622016 -1.474033 1.794808 
chive -0.574979 1.923084 -0.179429 0.975152 -0.264945 0.786580 -0.533070 -0.464327 0.172791 -1.653755 
seed -0.777277 0.664657 -0.114258 -0.065549 -0.007826 -0.009662 0.750003 2.388790 -0.831899 -1.463292 
mozzarella_cheese -1.601124 -2.397648 0.372422 1.409701 2.000913 -1.343497 -1.906597 -0.483423 0.052203 -0.369896 
ham -1.323927 0.269836 0.565281 0.943806 0.581135 -0.366095 -1.099935 0.586407 0.952052 -0.219367 
oat -0.826850 -1.187991 -0.400340 -1.354962 -0.002678 0.990898 2.895336 0.508582 0.389270 -0.988829 
turmeric -1.327459 2.098481 -0.810547 -1.634888 -1.778732 0.096950 1.009874 -0.463668 -4.474948 1.684788 
nut -0.138288 -0.886153 0.614232 -1.267985 -0.006201 1.057480 -0.243021 0.628263 -0.125083 -0.248646 
shallot -0.517960 0.672641 0.180636 0.311140 -1.896295 0.796790 -2.350742 0.102737 -0.568373 0.127483 
lettuce 0.619780 0.672916 1.589409 1.362352 0.937429 1.065973 -0.623951 1.341284 -1.450144 -0.051886 
cider -0.146016 0.954370 0.407793 0.687330 -0.320287 0.556778 0.719730 2.678913 0.265102 0.978765 
dill -1.002522 2.201009 0.604919 1.086965 0.172776 0.128028 -0.456803 0.364760 -0.725399 -0.810251 
pea -1.294344 1.002256 0.371781 -1.015474 0.637613 -0.122974 -0.719052 0.186108 -1.209680 1.091326 
zucchini -2.106770 -0.808005 -0.248977 -0.571555 -0.110002 -1.176964 -0.566723 -0.292545 -1.263247 -0.168421 
cherry 0.154623 -1.371692 0.224429 0.546274 -1.538902 1.707882 1.316694 -0.010230 0.699997 0.433485 
lime 1.342317 -0.075980 -0.988896 1.422139 -0.929688 1.486877 -0.082783 -0.178524 -2.938337 1.093888 
yogurt -0.464300 0.234456 0.533918 -0.095796 -1.265506 0.678769 0.850465 0.475323 -2.528893 -0.657337 
strawberry 1.111166 -1.949513 1.243176 1.000546 -1.078610 2.768041 0.743204 -0.682422 -0.587005 -1.451440 
soybean 1.006169 0.708487 -0.765548 -2.655915 1.463858 2.162128 -1.514478 1.197356 -0.865054 0.963323 
celery_oil 0.401345 0.462468 -1.132465 1.980537 1.961890 -0.018612 0.504470 2.664237 0.903217 2.588216 
peanut_butter -0.080457 0.816044 0.490670 -1.631146 1.168318 1.786494 2.492158 -0.741752 -0.621977 0.429510 
banana 0.422456 -1.320188 0.394951 -0.044907 -0.627515 1.860291 1.782914 -0.599106 -0.562216 0.154557 
meat -0.822703 -0.332188 -0.502439 0.050230 0.148964 -0.252362 -0.920572 1.292774 0.693675 1.506018 
tabasco_pepper 0.018855 0.777536 -0.906610 2.069730 1.397733 -0.103846 -0.165058 1.154976 -0.069633 1.339782 
milk_fat -0.658101 -0.288264 -0.941502 0.404337 -1.182250 0.761997 -0.271516 -1.010593 0.947407 -1.004322 
cabbage -0.424468 1.353915 -0.144449 -0.918339 0.833334 0.396003 -0.294936 2.353266 -0.298142 0.453431 
mint 0.230091 0.062358 0.032405 0.288573 -1.622757 1.016744 -0.277729 0.217001 -2.867864 -0.453658 
fennel -2.102967 -1.347146 -0.383111 0.590011 -1.093283 -1.308911 -2.035093 0.080608 -0.368230 -0.106956 
sage -2.531027 -1.549199 1.523842 -0.395083 -1.082889 -0.890799 -1.562253 0.402371 1.838384 1.721901 
broccoli -1.463308 0.347745 1.528019 -0.839213 1.732987 -0.077657 -0.587386 -0.844907 -0.686648 0.263566 
turkey -1.341371 -0.752307 0.977069 0.154252 0.117776 -0.526426 -0.603690 1.246854 0.277047 1.044149 
fenugreek -1.544067 2.179201 -0.460506 -1.360825 -2.060288 0.020320 1.422940 -0.712884 -4.154052 2.816287 
cranberry -0.075338 -2.025291 0.713606 0.379816 -1.296297 1.075733 0.750039 1.627352 1.117908 -0.111424 
wine 0.323468 -0.199863 0.247015 -0.149054 -0.597850 1.190078 -1.378739 0.561148 -0.303915 1.034436 
beef_broth -1.010302 -0.149872 -1.154293 -1.100841 0.483113 -0.315505 -1.802989 1.547865 1.066059 1.386793 
grape_juice -0.414681 -0.738322 1.296604 0.301102 -0.785667 0.367298 -1.459925 1.690497 -0.725149 -0.185140 
pumpkin -0.207082 -0.645555 -2.621263 -2.150496 -0.086318 0.990428 0.274547 -0.474669 0.611793 0.092265 
raspberry 0.807609 -1.819001 1.044945 0.869913 -1.017857 2.372781 0.220473 -0.476790 0.194907 -1.851751 
whole_grain_wheat_flour -0.905780 -1.355954 -0.135425 -0.899192 0.931591 0.145397 1.411652 0.867555 0.262644 -1.693097 
lemon_peel -0.571229 -0.698023 0.324646 0.040395 -1.537090 0.905507 -0.652461 -0.619444 -0.180910 -1.355770 
coffee -0.172008 -0.184578 -1.788337 0.734612 -0.266941 1.150642 1.776410 -0.951497 1.199445 -0.053665 
sesame_seed 0.783344 1.109022 0.197383 -1.760331 1.027338 1.972128 -0.225628 1.056767 -1.142665 -0.331468 
avocado 1.326485 0.171910 -0.181321 2.040546 1.098858 0.925094 -0.404558 1.460473 -2.703283 -0.244677 
sherry -0.419424 0.347441 0.216598 -0.196531 -1.165770 0.745443 -1.522001 0.671386 0.280549 0.886818 
sake 2.121391 0.610387 -1.075602 -2.320186 1.721016 3.181072 -2.423582 1.438621 -0.012421 1.464549 
feta_cheese -0.828318 -0.904797 0.764888 0.932500 0.490675 -0.443243 -1.033448 0.587140 -2.247509 -1.561945 
apricot -0.744564 -1.140112 -0.009854 -0.277700 -2.232243 0.761139 0.855960 0.538474 0.144894 0.040273 
roasted_sesame_seed 1.073251 1.204480 -0.886717 -3.274696 2.149277 2.328908 -2.596252 1.262884 -1.495329 -0.022232 
rum 0.780565 -1.224705 -1.065432 1.148536 -1.794585 1.991933 1.259064 -0.835818 -0.125793 0.580265 
orange_peel 0.152341 -1.634342 -0.082582 -0.040260 -2.245940 1.475787 -0.161851 0.717126 0.422193 -0.747907 
squash -2.222379 -0.935001 -0.717058 -1.268122 0.016130 -1.325318 -0.486966 -0.021765 -0.956301 0.183521 
crab 0.121527 2.204582 -1.283376 1.812308 0.502107 0.847977 -1.272969 -1.053152 -0.176008 0.570165 
marjoram -2.765571 -1.114379 1.376023 -0.475919 -0.848444 -1.364104 -1.385572 1.073145 0.880606 1.192259 
swiss_cheese -2.029959 0.948388 1.070558 0.899900 1.753374 -0.554778 -0.079777 0.148463 1.870314 -0.888133 
sweet_potato -1.308679 -0.523734 -1.746091 -1.267700 -1.793203 -0.190083 0.803238 0.664688 -0.191279 1.098190 
shiitake 0.652911 0.060521 -0.558819 -2.697466 1.251933 2.147898 -3.419515 0.110887 0.440126 0.856684 
radish 1.557845 1.506038 -0.804773 -1.416154 1.450530 2.509138 -2.623701 1.352423 -1.340901 -1.150691 
peach 0.776234 -1.094465 -0.173966 0.688927 -1.367455 1.746582 0.808984 0.175785 -0.540239 0.103433 
tarragon -0.913378 1.188714 1.227128 0.745108 -1.136332 0.589308 -1.913156 -0.008201 -0.190619 -0.295091 
black_bean -0.151519 -0.467851 -1.397733 0.455397 1.752137 -0.708608 0.219757 1.347834 -3.137885 1.572382 
lamb -1.576723 -0.968679 -0.845487 -0.979389 -2.182363 -0.835150 -1.161082 1.638388 -2.076201 -0.238621 
maple_syrup -0.590593 -0.375754 -0.290629 -0.433426 -0.437751 0.611911 1.112936 1.068075 0.963929 0.575577 
pear 0.769947 -0.654300 -0.137118 -0.857416 -1.221719 1.932864 -0.656380 1.117293 0.045355 -0.767666 
fruit 0.408661 -1.605465 0.380853 -0.076069 -1.539375 1.967823 0.977898 0.044145 0.028421 -0.014070 
blueberry 1.123173 -2.183579 1.108773 0.305647 -0.738321 2.963886 0.854910 -0.705540 -0.282189 -2.500104 
clam 0.026446 1.146268 -2.558517 -0.275788 0.037310 0.940859 -4.452809 -1.150879 -0.383629 0.513931 
smoke -1.046588 0.375075 -0.105880 0.900725 0.154234 -0.443898 -0.978684 1.853359 0.794006 0.495683 
tuna 0.392917 1.148413 0.696169 0.813330 1.676204 1.002639 -0.933864 0.361544 -1.288396 -0.346646 
kidney_bean -1.497210 -0.467242 -1.413436 -0.176140 1.810943 -1.698608 -0.402420 2.460538 -1.037546 1.437127 
peanut 0.704329 1.308833 0.095397 -1.492114 1.012030 2.008011 1.788189 0.263823 -1.334980 1.336196 
asparagus -1.207457 0.765361 0.946039 0.058224 -0.058513 0.341306 -1.771125 -1.017037 -0.499645 -0.547350 
salmon 0.205376 1.157410 -0.445171 0.296046 -0.080075 1.021033 -1.153741 0.326243 -1.051081 -0.738173 
leek -2.251683 1.257039 -0.149300 -1.462729 -1.850708 -0.128555 -2.220819 -0.272522 0.359348 -0.415178 
chickpea -1.720555 -0.213410 -1.405273 -1.281850 -0.520942 -1.202821 -0.276592 1.127534 -3.339102 -0.713179 
blue_cheese -0.370254 -0.165174 1.238059 1.438445 -0.056144 0.521400 -0.729844 0.827415 0.498880 -0.483149 
brandy 0.132048 0.312894 -0.286012 1.532817 -2.975569 1.961725 -0.574635 0.704630 2.550228 0.139485 
artichoke -1.295474 -0.525279 0.680120 1.084128 -0.060453 -0.399533 -2.190214 -0.701680 -0.710824 -0.648277 
horseradish 0.159193 1.888208 -0.595913 1.968968 0.800648 0.712473 -0.141985 1.197447 0.667726 -0.367588 
mango 1.002462 0.382876 -0.071637 0.681199 -1.420019 1.594494 0.747437 0.652890 -3.339314 0.708248 
date -0.943330 -1.475499 -0.677641 -0.849947 -1.986790 0.934172 1.500105 0.372297 0.889957 -0.277508 
cardamom -0.743115 0.108593 -1.927664 -1.346676 -3.022618 0.679333 0.925108 0.938085 -1.323721 -0.092358 
white_bread -1.525522 0.026084 1.368039 0.790409 -0.389987 -0.215265 -0.608157 0.509987 0.937108 0.020572 
oyster 0.360032 0.576633 -0.053020 -1.914469 0.455863 1.845146 -2.591148 -0.146032 0.226317 2.031593 
cottage_cheese -1.132425 -0.907632 1.285790 1.747707 1.724937 -0.395491 0.215199 -0.940061 -0.245835 -0.406667 
grape 0.270734 -0.442746 2.797889 0.482594 -1.542588 1.697072 0.892133 1.003424 -1.761611 0.587719 
brown_rice -1.504772 -0.096569 1.154400 -1.244875 0.093113 -0.211358 -0.059385 0.154360 -0.874158 1.737419 
cauliflower -1.900135 1.718476 1.202311 -1.094998 0.432492 -0.204570 -0.382761 -0.176330 -1.040602 -0.342914 
cured_pork -1.924181 -2.222522 1.377912 0.872787 0.395713 -1.009226 -2.805552 0.072179 0.515611 -0.291595 
egg_noodle -1.332932 0.415761 0.648960 0.343090 1.570636 -0.409172 -0.370756 -0.003625 0.283450 0.877455 
beer -0.751757 0.713726 -2.045860 1.069632 0.227818 -0.580382 0.053843 1.401583 0.366327 1.102877 
hazelnut -0.589920 -0.365434 0.527117 -0.122635 -1.618804 1.443807 0.016893 -0.356532 1.560256 -0.799373 
mandarin 1.242950 -1.253035 2.558863 0.849899 -0.210101 2.413820 0.722164 0.387209 -0.916440 1.040136 
romano_cheese -1.506585 -1.277222 0.535685 0.941941 0.431199 -0.639644 -2.474068 -1.119007 -0.341194 -0.716011 
plum -0.519005 -0.650947 -0.049526 -0.464490 -2.539258 0.840427 0.171677 1.530825 0.316707 0.471265 
pimento -1.272350 1.127125 0.738331 1.632261 0.815411 -0.604158 -0.261615 0.006159 -1.111576 0.279764 
smoked_sausage -2.277120 0.619124 -1.468420 0.208622 0.703858 -1.666061 -0.404235 1.866849 0.678459 1.196058 
scallop -0.307285 1.344754 -1.368583 0.662720 -1.330178 0.855698 -3.263367 -1.575100 -0.916451 -0.176914 
goat_cheese -0.804630 -0.736562 0.856034 0.680484 -0.447507 0.129443 -1.623526 1.093336 -0.029611 -2.192254 
lentil -2.612915 -0.282035 -0.942607 -2.272137 -0.296914 -1.569748 -0.148051 0.766281 -2.066974 0.559831 
currant -0.678831 -1.972662 -0.894764 0.344159 -2.647436 0.294159 0.411446 1.475954 0.390352 -0.442349 
saffron -1.697601 0.066091 -1.796474 -1.425141 -2.490937 -0.332448 -2.186046 -0.634656 -1.832381 -0.632378 
barley -0.945076 -0.412585 0.823004 -2.859575 0.948079 0.466437 -0.781096 1.828777 -0.076846 0.405463 
caraway -2.601182 2.434840 -1.093935 0.580388 -1.450451 -1.337591 1.275549 3.478159 0.255940 -2.455259 
beet -0.349703 0.993798 0.739349 0.175526 -1.065092 0.724253 -0.900349 2.978165 -0.079937 -1.390940 
squid 1.436972 0.556988 -2.575294 -1.921029 1.470882 2.502577 -4.097348 -1.477599 -0.939652 0.362765 
corn_flake -1.259814 0.603908 0.977479 -0.128452 0.864899 0.378583 1.431316 -0.583108 0.682766 0.859239 
anise -0.034798 -0.679385 -1.998456 -0.336958 -1.391050 0.876284 -0.403086 0.501504 0.064753 -1.612810 
roasted_beef -0.715034 0.471026 -0.137190 0.502206 0.608603 -0.138894 -0.943151 1.755823 0.964472 0.996414 
pistachio -0.353179 -0.385595 0.195272 -0.438179 -2.324693 1.600084 0.338052 -0.273950 -0.131368 -0.811421 
peanut_oil 0.868512 1.794001 -0.102691 -1.236276 0.712317 1.873000 -0.403494 0.196439 -1.904051 2.703802 
cereal -0.807172 -0.953614 0.605481 -2.525048 1.860370 0.990667 2.488605 0.815014 0.073694 -1.152481 
cashew -0.427891 0.682295 1.276878 -1.597001 -0.608650 1.203850 0.777533 0.497295 -1.506839 1.510553 
veal -1.863474 -0.749088 0.422210 0.294622 -1.341755 -0.390200 -2.790572 0.067729 1.810843 0.321348 
seaweed 2.297559 0.927856 -0.981397 -1.465326 3.061123 3.170116 -2.621826 0.710817 -0.989848 -1.471377 
turnip -3.268087 1.543936 0.592659 -3.034241 -2.950223 -0.444350 -1.333981 2.084047 0.830339 0.413212 
sauerkraut -2.202194 1.944833 -0.075716 1.191931 0.359665 -0.735186 0.316107 3.009277 3.713564 -0.483895 
berry -0.535784 -1.598061 2.214466 0.458217 -1.801517 1.626006 0.658289 -0.307383 0.548026 -0.806606 
kelp 2.120222 0.907045 -1.114839 -3.457757 1.883875 4.091576 -3.587871 -0.868690 -0.622378 0.589019 
tomato_juice -1.179332 0.741953 -1.457304 1.027977 0.989271 -1.104905 -0.462473 1.252593 -0.413657 1.409125 
cod -0.655870 1.354953 -2.016645 -0.235545 -0.241908 0.170252 -1.773579 -0.650137 -0.809045 0.145962 
provolone_cheese -1.054342 -2.069886 1.031406 2.113081 1.533586 -0.659679 -2.269686 -0.021829 1.032827 -0.122264 
mussel -0.504858 1.171239 -3.932227 -0.690116 -1.775181 0.370453 -5.220591 -1.088908 -1.497488 0.381055 
blackberry 0.874255 -2.344625 0.684685 0.920044 -0.922809 2.529464 0.253280 -0.483758 0.702108 -2.479653 
roasted_peanut 1.191013 0.874481 0.135229 -1.617660 0.496119 2.167304 1.777002 0.963925 -2.454616 2.301840 
rhubarb 0.305301 -2.311628 -0.306325 -0.097755 -0.714788 1.974816 0.755626 -1.046804 0.944977 -1.645643 
chinese_cabbage 2.206163 0.718061 -1.138388 -3.347241 1.473260 3.592763 -4.509096 1.067897 -0.912735 1.537127 
corn_grit -1.020192 0.298370 -0.702362 1.137824 0.795368 -0.646316 -0.847084 -0.034382 -0.399295 1.294319 
chicory 0.194707 -0.053218 1.696785 0.553572 -0.629974 1.279559 -3.053475 2.451632 -0.043700 -2.429503 
bourbon_whiskey 0.436480 -1.505176 -4.092840 1.446580 -0.815278 0.724046 0.993948 0.082046 1.883869 1.822743 
citrus 0.851197 -0.842742 -0.887818 0.497816 -3.206553 2.389297 -0.212975 0.519545 0.524175 -0.483072 
lima_bean -2.297161 0.806618 -0.829611 0.109557 0.422474 -1.813383 -0.448968 2.358871 -0.313790 1.791282 
lovage -0.068015 2.372085 -5.996336 1.889016 0.078062 -0.023525 -1.741498 -0.745840 1.696668 0.658433 
melon 1.825213 -2.629626 0.897849 0.517790 -1.158082 2.424114 0.414891 1.077880 -3.282339 -0.286845 
parsnip -3.062693 1.043025 -0.818251 -2.763095 -2.034042 -0.932182 -1.320485 1.680280 0.221373 -0.794240 
fig -0.896133 -1.794598 -0.091610 0.463865 -2.783239 0.548140 -0.443575 1.367011 1.039652 -1.748517 
lemongrass 1.392213 1.546186 -0.652627 -1.350732 -1.840488 2.364322 -1.419250 -1.102854 -5.014429 4.108950 
whiskey -0.451878 0.860565 -0.660752 2.815538 -2.707441 0.855875 1.468730 1.481825 1.884348 1.765857 
watercress 0.424352 0.706303 1.249202 0.658603 -1.122774 1.377462 -1.508948 2.126770 -0.839245 -0.292296 
tequila 2.164104 -0.908237 -2.039960 2.968395 -0.794141 1.649286 -0.259796 0.316877 -1.744578 1.528007 
rye_flour -1.208884 -0.056684 -0.796227 0.053780 1.321718 -0.203179 1.290953 3.193313 1.689231 -4.258972 
peppermint 0.310839 0.871548 -0.283227 0.304059 0.238068 2.068447 1.381805 -1.262668 -0.083019 -2.072200 
savory -1.979785 -1.213475 -0.313731 -0.621339 -0.784132 -1.046431 -2.074937 1.180749 0.204433 -0.275248 
lobster 0.185852 0.180306 -2.098999 1.309925 -1.572294 0.833381 -3.208192 -1.286759 -0.256331 0.236616 
roasted_pork -0.665694 -0.708485 -1.145539 0.301270 -0.456652 -0.467596 -0.203009 2.944672 1.049373 1.250264 
mace -0.781763 -0.656196 -1.852625 -1.131932 -2.444045 0.679729 0.191053 0.898894 0.902787 -0.137621 
endive -1.052866 0.156354 1.686747 0.421938 -1.602897 0.372030 -2.547390 2.226438 0.140727 -1.258700 
brassica -0.599401 0.226935 -1.289239 -1.542460 0.279345 0.206847 -2.094136 2.431699 -0.223511 -1.666041 
grapefruit 1.349823 -1.016113 1.028896 1.622249 -1.545900 1.924330 0.029295 1.877436 -1.612001 0.355698 
enokidake 1.789169 0.903051 -2.630125 -3.223871 3.194978 3.288366 -4.158095 0.698564 1.387552 -0.162315 
porcini -2.441553 -1.174756 0.177527 -1.294334 -1.069883 -0.481567 -3.627893 -0.739549 1.910772 -0.191228 
kiwi 1.964761 -1.984223 1.660314 0.662509 -0.987647 3.128990 0.948490 0.200470 -1.952168 -0.084201 
wasabi 2.045990 3.263874 0.230092 -0.040261 2.473421 3.331080 -2.490312 0.891324 -0.327648 -0.875525 
watermelon 1.394892 -0.699584 0.315651 2.039612 -2.484273 2.243580 0.029331 0.686457 -3.281793 -1.338313 
lime_peel_oil 1.610330 -0.027652 -0.023505 1.920182 -1.195138 1.843037 0.052851 0.202594 -3.637266 0.302740 
okra -1.120649 0.439022 -1.707784 0.505196 -0.462466 -0.906674 -0.968567 1.066692 -0.936902 2.271993 
macadamia_nut 0.192611 0.213379 0.026607 -0.037575 -0.109454 1.663221 2.020899 -0.585387 -0.408749 0.510161 
smoked_salmon -0.202412 2.132750 0.230720 1.581891 0.336323 1.077023 -1.548005 -0.316185 -0.476584 -3.221496 
kale -2.147466 -0.099932 -0.323247 -1.199374 -0.555147 -0.924042 -2.357642 1.504762 0.390991 0.091761 
popcorn -0.495229 0.260290 0.232662 -0.372811 1.921861 0.761212 2.829190 -0.604558 -0.957347 0.547922 
rye_bread -2.105160 1.615232 0.020060 2.783227 0.763509 -1.124774 0.410404 1.833749 1.890023 -2.192120 
star_anise 0.895281 -0.083162 -1.293291 -1.555048 -2.349654 1.913910 -1.062176 1.355842 -1.170159 1.290669 
brussels_sprout -2.044172 0.488927 1.251475 -0.771961 -0.569576 -0.302829 -0.660995 0.984138 0.147258 -1.098435 
tea 0.256999 -0.562002 -0.984376 0.186046 -1.542774 1.230124 0.850875 0.323712 -0.813139 -0.330127 
thai_pepper 1.757692 1.092350 -2.136620 -0.712194 0.308164 2.099510 -0.200350 -1.150696 -3.934338 4.252161 
champagne_wine 0.885912 -0.132599 1.002227 1.243459 -1.511835 1.874403 -1.269700 1.414961 -0.122859 -0.891564 
anise_seed -0.271707 -0.149453 -0.991379 -0.059613 -1.839101 0.648786 1.133208 1.787825 -1.231179 -1.577375 
yam -1.351139 -0.238609 -0.732616 -2.966876 -2.456882 0.677715 0.030631 0.876966 0.213469 1.854727 
bitter_orange -0.111601 -2.041771 -0.484022 2.243291 -5.123220 2.241704 -1.392856 -2.654217 0.925708 0.801797 
wheat_bread -0.767692 0.340386 1.216600 0.566400 1.542857 0.152232 0.424842 1.027155 -0.097542 -0.537859 
