249 10
</s> 0.040027 0.044194 -0.038303 -0.032780 0.013666 0.030211 0.009409 0.002113 -0.036035 0.022185 
egg -0.065453 -0.078348 -0.412310 0.003981 0.032068 0.731075 0.466040 -0.200951 0.828684 -0.784687 
butter -0.625981 -0.111129 -0.339434 -0.289659 -0.616008 0.849910 0.494759 -0.179221 0.533422 -0.252995 
wheat -0.281502 -0.219972 -0.687216 -0.243651 -0.399487 0.858617 0.783593 -0.196014 0.470878 -0.397489 
onion -1.122471 0.520149 -0.365460 0.567669 0.398799 -0.181772 -0.789372 -0.210549 -0.546712 0.439276 
garlic -0.768483 1.081818 -0.264444 0.379889 0.922232 -0.247723 -0.521341 0.305353 -0.892915 0.911410 
milk -0.529227 -0.405198 -0.387988 -0.311544 -0.143220 0.746976 0.789084 -0.343945 1.078950 -0.511477 
vegetable_oil -0.026676 0.373314 -0.408546 0.039383 0.793441 0.274870 -0.945091 -0.330561 0.117895 -0.593897 
cream -0.271798 0.030654 0.068758 0.012497 -0.006385 0.656821 0.341242 -0.366719 1.334987 -0.322053 
tomato -1.028003 0.242363 -0.519441 1.496253 1.176964 -0.599157 -0.397227 -0.180877 -0.728545 1.091798 
olive_oil -0.979560 1.182560 1.083670 1.232087 0.073607 0.221708 0.155286 -0.133738 -0.744422 1.236611 
black_pepper -0.897610 1.189011 -0.329019 0.135337 0.026397 -0.013959 -0.778591 0.125160 -0.538522 0.817515 
pepper -1.116252 0.319701 -0.306932 0.538237 0.415914 -0.081000 -0.798450 -0.780089 -0.686476 0.592730 
vanilla 0.786106 -0.925113 -0.985529 -0.974278 -0.294030 1.886572 1.430433 -0.464135 1.207874 -0.201069 
cayenne 0.122918 1.129940 -1.095223 0.190700 1.800737 -0.479407 -0.708386 -0.143099 -0.712187 1.280524 
vinegar 0.276706 0.377588 -0.606865 1.224786 0.893707 0.081941 -1.901338 0.840906 -0.094016 0.111643 
cane_molasses 0.226765 -0.752906 -1.983958 -0.017913 -0.068399 0.700463 -0.814281 0.188490 0.277430 -0.456711 
bell_pepper -1.021438 0.658290 -0.151172 0.545790 1.042785 -0.384747 -0.505840 -0.405963 -0.498062 1.167668 
cinnamon 0.644608 0.317894 -1.898712 -0.635848 -1.182679 1.459613 1.058121 -1.206548 -0.424171 0.176859 
parsley -1.228279 1.409454 0.623846 0.990746 -0.357048 -0.021454 0.042379 -0.215014 0.422418 0.223584 
chicken -0.844053 0.004309 0.350084 -0.277588 0.705418 0.340424 -0.941839 -0.726778 -0.734158 0.880170 
lemon_juice 0.499263 0.925310 0.657086 0.934909 0.119270 0.778025 -0.057699 -0.591688 0.293216 0.015404 
beef -1.230067 0.664550 -1.261419 0.436232 0.459889 -0.455310 -0.982199 1.202099 -0.724870 0.382532 
cocoa 0.409437 -1.459366 -0.844087 -1.226273 0.188321 1.708974 0.893200 -0.427279 1.478026 -0.453688 
corn -0.370716 -0.903522 -1.471839 0.505702 1.304067 -0.241745 -0.817919 -0.000515 -0.093647 0.766812 
bread -1.011220 -0.059368 0.018310 1.294084 0.050251 0.037231 -0.094172 0.421389 0.447818 0.331960 
scallion 0.177955 1.696099 0.020338 -0.775661 2.032309 -0.047889 -0.966572 0.456387 -0.467660 0.246662 
mustard -0.067590 0.067454 -0.481452 1.315431 0.136294 0.336721 -2.028983 0.037047 0.901263 -0.861646 
ginger 0.933325 1.788604 -1.317041 -1.915709 0.621229 0.693155 -0.842426 -0.388005 -0.762737 0.866702 
basil -2.074626 0.558898 0.898534 1.379671 0.602034 -0.491345 0.934907 0.358008 -0.135675 1.697934 
celery -1.914197 0.147546 -0.067557 0.208812 -0.466230 0.192237 -1.110970 -0.245246 -0.761876 0.478175 
carrot -1.398708 1.190378 0.130297 -0.634952 -0.257144 0.526033 -1.001829 -0.039865 -1.788116 -0.344656 
potato -1.985727 0.921378 -0.292498 0.157466 -0.505287 -0.026967 -0.845639 -0.541076 -0.652457 -0.124367 
chicken_broth -1.778507 0.746301 0.239235 -0.504847 -0.544000 0.346359 -0.717815 -0.435660 -0.950180 1.314104 
yeast -0.434021 -0.412568 -0.538394 0.833938 -0.116978 0.540410 1.214164 0.303741 0.439818 -0.695709 
rice -0.231387 1.325147 0.041463 -1.291251 1.346170 0.371921 -0.813150 0.223616 -1.221319 -0.008976 
mushroom -2.422936 0.190452 0.779519 -0.612860 0.342198 -0.096810 -0.334805 0.714058 -0.020460 0.678131 
cheese -1.383934 0.007473 0.252175 0.972142 0.716668 -0.286291 0.650149 0.178864 0.498888 0.427223 
soy_sauce 0.546489 1.589769 -0.683108 -2.058890 2.203964 0.319436 -1.818387 1.696754 -0.824136 0.277456 
cumin -0.009365 0.487044 -0.545987 0.378843 1.396091 0.181722 -0.979462 -2.798366 -2.174906 1.400752 
oregano -1.646753 0.460231 -0.282896 1.608361 1.007410 -0.869497 0.879272 0.268065 -0.458366 1.634976 
parmesan_cheese -2.476018 0.256345 1.710059 0.716673 0.478403 -0.159703 1.121842 0.591269 0.349853 0.933538 
macaroni -2.194034 0.479604 1.337303 0.951826 0.974403 -0.454741 0.832074 0.268619 0.010467 0.882309 
thyme -2.546287 0.640890 0.268058 0.693236 -1.525109 0.240861 -0.141948 0.651218 -0.786491 1.637001 
cheddar_cheese -2.021511 -0.888362 -0.462991 0.767073 1.564218 -0.794304 -0.193044 -0.258356 0.508928 -0.496491 
lard -0.128186 -0.297937 -1.111925 -0.308632 -0.353279 0.932659 0.996229 -0.354545 0.392809 -0.798441 
lemon 0.753106 1.203368 0.178464 0.796071 -0.422016 0.871403 0.021090 -0.503064 0.579112 0.427709 
cream_cheese 0.114833 -0.595350 0.119629 0.678849 0.485486 0.674304 0.640051 -0.215060 1.744262 -0.514044 
walnut 0.940562 -0.823453 -0.410906 -0.017757 -0.725701 2.110626 0.907957 0.204367 -0.111645 -0.667289 
green_bell_pepper -1.589961 -0.022299 -0.762972 1.026699 1.140121 -0.794177 -1.005487 -0.075621 -0.540308 1.010397 
starch 0.231969 0.415256 -0.588606 -1.350700 0.192618 0.857446 -0.533564 0.675713 0.305778 0.150751 
nutmeg -0.328247 0.301700 -1.513461 -0.528144 -1.398539 1.084449 1.546246 -0.878913 -0.277479 0.111286 
honey 1.299109 -0.032645 -0.478240 0.179180 0.193405 1.428532 -0.629548 0.410685 -0.848192 -0.196128 
apple 0.771358 -0.855058 -0.854010 0.445941 -1.048303 1.832675 -0.227686 -0.194507 -0.775132 -0.142051 
almond 0.720246 -0.168316 0.512033 -0.198699 -0.518594 1.852191 0.269779 -0.656127 -0.042841 -0.297835 
cilantro 0.938703 1.220466 -0.508020 0.190089 2.135122 -0.043389 -0.875721 -1.899440 -0.992177 1.990556 
pecan 0.408097 -1.370866 -1.033340 -0.571781 -0.688594 1.825913 1.070060 0.177118 0.469076 0.322152 
white_wine -1.131771 1.875041 0.986166 0.363730 -0.726377 0.308079 -0.376115 0.076735 0.364262 0.957510 
bacon -1.697422 0.168192 -0.182324 0.959181 -0.217294 -0.071008 -0.609782 0.706946 -0.137944 -0.135505 
pork -0.577155 0.462801 -1.617221 -0.248973 0.091168 0.046699 -1.280457 1.252326 -0.838823 0.941125 
raisin 0.641267 -0.591720 -0.686692 -0.275447 -0.904873 1.975457 0.460025 -0.898825 -1.324713 -0.176202 
bean -1.188916 0.194108 -0.829876 0.490601 1.038946 -0.276481 -0.860156 0.023551 -1.670783 0.515194 
rosemary -2.765990 0.049460 0.387407 0.846384 -1.494799 0.271004 0.721078 0.871223 -1.054802 2.125118 
fish 0.437109 3.083999 -0.100179 -0.699829 1.571519 -0.207882 -0.561592 -0.124059 0.026594 0.759641 
cucumber 0.971245 1.240368 0.551118 0.546813 1.609590 0.387887 -1.022203 -0.299352 1.053805 -1.674762 
olive -0.892078 0.685572 0.723831 1.965268 0.908364 -0.244833 0.467760 -0.053665 -0.213753 0.581070 
coconut 1.196868 -0.645628 -0.425713 -1.540685 0.747868 1.690081 -0.667856 -2.401109 0.229702 0.462052 
orange 1.672036 0.074464 0.210403 0.058776 -0.852534 2.184716 -0.321864 0.237942 0.152379 1.170462 
tamarind -0.742465 -0.526336 -2.364630 1.130901 0.667116 -0.601136 -2.449072 0.503860 0.471333 0.116373 
vegetable -0.764226 1.856427 -0.277931 -1.131350 0.772302 0.206424 -0.137683 0.658176 -1.583981 -0.585549 
orange_juice 1.803361 -0.115359 -0.152919 0.101446 -0.645755 2.075482 -0.456734 0.054547 -0.430495 1.523286 
buttermilk -0.141315 -0.376284 -0.487154 0.461636 0.167330 0.684524 1.111264 -0.264213 0.559557 -1.047131 
pineapple 1.657016 -1.102431 -0.468123 0.026206 0.379743 1.658557 -0.875934 -0.286907 0.732846 1.130185 
shrimp -0.263613 2.878010 -0.701998 -0.763863 1.270707 -0.668473 -0.904498 -0.030400 0.886092 1.199693 
coriander 0.421885 0.826427 0.197454 -0.863624 0.889224 1.145638 -1.709675 -3.927166 -2.517255 1.015879 
bay -1.948029 1.853334 -1.563095 0.210499 -1.784247 -0.242277 -1.083685 -0.832045 -0.637599 1.923170 
lime_juice 1.823305 0.685510 -0.283580 0.211111 2.523980 0.290787 -1.457425 -1.427162 -0.038800 2.613435 
red_wine -0.382678 0.683185 0.282016 1.488413 -0.305954 0.480896 -1.087995 0.755843 -0.729754 0.924402 
gelatin 1.623826 -1.081659 -0.063467 0.011845 0.436066 1.923645 0.868572 0.268350 1.211342 0.435965 
pork_sausage -2.355960 0.400489 -1.298979 1.829294 -0.582321 -0.732588 1.004714 1.337229 -0.768740 1.308930 
sesame_oil 0.901814 2.568566 -0.437903 -2.922621 3.121711 0.438147 -1.360465 2.381441 -1.861980 0.414716 
chive -0.314393 1.180556 0.689926 0.696290 -0.312721 0.546180 -0.442847 -0.909068 1.859870 -1.699317 
seed 1.024404 0.537969 -0.647085 2.050912 -0.187866 1.000377 -0.474244 -0.309694 -1.203891 -1.211801 
mozzarella_cheese -2.527316 -0.118903 0.778861 2.118458 0.701888 -0.737942 1.974651 1.341127 0.321015 1.018064 
ham -1.517462 0.235107 0.109234 1.081829 -0.134049 -0.049473 -0.688073 0.886471 0.504130 -0.076886 
oat 1.036080 -1.237569 -1.403461 -0.557776 0.181809 2.012269 1.232175 0.031304 -0.855070 -1.668215 
turmeric 0.198296 1.481436 0.427655 -1.310553 1.229913 0.952023 -1.581057 -4.701784 -2.609958 0.548419 
nut 0.338572 0.393219 0.683895 -0.449852 0.294864 1.297274 0.226340 0.790178 -1.154985 -0.228401 
shallot -0.734110 1.531760 1.318990 -0.240862 -1.090006 0.996909 -1.414743 0.172511 0.401328 1.463086 
lettuce 0.802405 0.255445 1.149476 1.479976 1.822674 0.489508 -1.513502 0.496120 -0.042172 -0.013116 
cider 0.649468 -0.077437 -1.215788 1.182249 -0.150622 0.765801 -2.261899 0.709560 -0.705892 -0.127655 
dill -0.657982 1.097086 1.018229 1.369787 0.173760 0.362505 -1.174736 -0.612214 0.742494 -1.420595 
pea -1.389019 0.717217 0.821653 -0.562795 0.711187 0.320518 -1.291276 -0.811174 -1.005477 -0.003542 
zucchini -1.536895 0.467816 0.507660 0.882728 0.245351 0.115846 1.237863 -1.049149 -1.485841 0.292107 
cherry 1.418749 -1.021939 -0.463566 -0.231647 -0.809043 2.233778 0.398009 -0.160976 1.039892 0.714613 
lime 1.971030 0.545684 -0.241906 0.056289 1.567096 0.728513 -1.327815 -1.194704 0.785573 2.156836 
yogurt 1.370502 0.500503 0.806080 0.990292 0.451598 1.455021 -0.028839 -1.698635 -0.828633 -0.227946 
strawberry 2.708934 -0.241216 0.644312 0.691807 0.741838 2.239913 2.083844 0.768025 1.566088 0.983853 
soybean 0.688369 2.409892 -0.742787 -2.163785 2.038103 0.509735 -0.461990 1.507451 -1.726864 -0.585349 
celery_oil -0.076748 -0.826153 -3.201420 1.591098 1.440438 -0.866419 -2.446254 1.271910 0.142435 0.298878 
peanut_butter 0.579880 -1.481346 0.065185 -1.812823 1.840962 1.605839 -0.184353 -0.150309 -0.537153 -1.552010 
banana 1.950204 -0.885643 -0.400394 -0.362099 0.874607 1.805782 0.932302 -0.593208 0.591591 0.181465 
meat -1.476085 -0.101302 -0.819498 0.158594 -0.701702 0.230636 -0.985585 0.957634 -0.775995 0.977309 
tabasco_pepper -0.703473 -0.023229 -1.565797 1.202395 1.033368 -0.741354 -1.631392 0.262375 0.763449 0.369363 
milk_fat -0.637601 0.494819 0.169082 -0.434131 -1.094568 0.941755 1.123276 -0.184213 1.432983 0.123545 
cabbage -0.283289 0.837462 -0.583117 0.571464 0.234815 0.527675 -1.758138 0.586519 -1.905328 -0.906885 
mint 1.648706 1.407225 1.039400 0.676302 0.705713 1.195524 -0.082772 -1.358002 -0.309708 0.879766 
fennel -1.768854 1.212634 0.504605 1.093803 -1.323759 0.340475 0.829803 0.970215 -0.811090 1.990812 
sage -2.982834 -0.663104 0.162216 -0.090755 -2.310660 0.841866 -0.397052 0.845037 -1.083067 2.206723 
broccoli -1.570806 -0.207261 1.371513 -0.487249 1.472764 0.279467 -0.237329 -0.234372 -0.737623 -0.300613 
turkey -1.214796 -0.946728 -0.196060 0.960831 -0.016244 0.403794 -0.681761 0.692083 -1.158063 1.017356 
fenugreek 0.023596 0.293772 0.359435 -1.665650 1.133698 1.174916 -2.521068 -4.138957 -2.222516 1.375604 
cranberry 1.203975 -0.731428 -0.634200 0.956626 -1.245147 2.007288 0.149981 1.028268 -0.403999 0.757462 
wine 0.262928 1.111031 0.265749 -0.497947 0.356912 0.649863 -1.092384 0.961079 0.070855 1.102671 
beef_broth -1.662251 1.448896 -1.654617 -0.217933 -0.594664 -0.276185 -0.729288 1.344669 -1.285167 0.487511 
grape_juice -0.096114 0.391656 1.583389 1.279742 -0.224985 1.162578 -0.355179 0.654987 -1.068435 0.929018 
pumpkin 0.099185 1.823846 -2.084819 -1.808070 -0.082411 0.473529 1.432701 -0.007346 -0.369331 -0.882738 
raspberry 2.165797 0.284048 0.634247 0.684818 -0.169518 2.061225 1.834542 0.899092 1.474181 0.284787 
whole_grain_wheat_flour 0.153014 -0.723793 -0.614300 1.107782 0.241004 1.047383 1.401480 0.381380 -1.021817 -1.615188 
lemon_peel 0.286706 0.676239 1.127445 0.253200 -0.932910 1.549060 1.083129 -0.658866 0.433422 0.369310 
coffee 0.396299 -0.652311 -1.588382 -0.749519 -0.412625 1.227451 0.037697 -0.344017 1.503127 -0.638511 
sesame_seed 1.219590 1.145558 0.514974 -0.959525 1.860285 1.032619 -0.980868 0.660535 -0.918364 -1.385100 
avocado 1.417874 0.557359 0.092557 2.122591 2.767287 -0.218612 -1.112136 -0.450166 0.214573 1.268049 
sherry -0.551198 1.033934 0.654791 -0.333679 -0.726383 0.859717 -1.273834 0.284958 0.119359 0.609134 
sake 1.069816 3.043138 -1.116081 -2.411006 2.077809 0.416971 -1.089162 3.140343 -0.854793 -0.107876 
feta_cheese 0.247935 0.687631 1.771616 2.484112 1.231966 0.436714 0.889191 -0.267385 -0.701216 0.568500 
apricot 0.732912 -0.322991 -0.316707 -0.212398 -1.862973 2.303537 0.027937 -0.604178 -0.550657 0.656665 
roasted_sesame_seed 0.195508 3.694446 0.280140 -2.191848 2.785893 0.204473 -0.722163 1.853609 -2.024456 -1.243171 
rum 1.704628 -0.322140 -1.092726 -0.941138 -0.182425 1.743986 0.593412 -0.397269 1.677992 1.669663 
orange_peel 1.224638 0.129545 0.041955 0.242034 -1.869574 2.387941 0.416598 0.120052 -0.302469 0.895124 
squash -1.608436 0.545013 -0.083970 0.244087 -0.629031 0.467944 1.168418 -1.432676 -2.067946 0.430233 
crab -0.370776 2.111354 -0.786758 0.217324 0.966588 -0.861492 -1.309616 -0.868791 2.546972 0.343520 
marjoram -2.860255 -0.356044 0.268237 0.443046 -2.190200 0.827933 -0.133860 0.963106 -1.765478 1.242687 
swiss_cheese -2.002692 -0.571900 0.186978 1.192839 -0.085391 -0.028116 -0.812936 0.630995 1.270792 -1.267051 
sweet_potato -0.235315 0.259413 -1.405835 -1.028436 -1.121154 1.239003 -0.013490 -1.404299 -1.894188 0.872809 
shiitake -1.204873 3.227338 0.531184 -3.050580 1.135620 0.177089 -0.232902 3.219078 -0.467128 0.382127 
radish 1.117649 3.368525 0.790840 -0.535513 2.181385 0.504762 -0.597494 2.110806 -0.876391 -0.921621 
peach 1.833976 0.018550 -0.361543 0.046044 0.079673 1.598059 0.575315 -0.384257 0.627468 1.337334 
tarragon -0.614002 1.597032 1.871274 0.663861 -0.523921 0.716726 -1.256229 -0.185096 1.056361 0.128550 
black_bean -0.147892 -0.056176 -0.815639 0.997106 2.969610 -0.623061 -0.516104 -0.730758 -2.072786 1.967285 
lamb -0.003413 1.631551 0.598800 0.922867 -0.946338 1.185343 0.179341 -1.249922 -2.681836 1.255271 
maple_syrup 0.526224 -0.580825 -1.574238 -0.153053 -0.754140 1.403773 0.149283 0.069036 -0.823795 -0.128404 
pear 1.396426 1.306754 0.324570 -0.757804 -0.470865 1.836346 0.035826 1.132279 -0.663006 -0.098303 
fruit 1.704678 -0.630037 -0.040182 -0.177478 -0.503245 2.281948 0.529579 0.157291 0.419439 0.772925 
blueberry 2.665287 0.422164 0.590796 0.568333 0.342328 2.327290 2.671111 0.777135 1.328673 -0.299149 
clam -1.297021 4.934327 -0.217363 -1.046909 0.487082 -1.121864 0.146258 0.443835 1.290223 1.728902 
smoke -1.074794 0.290785 -0.405428 1.601096 -0.707496 0.250061 -1.563091 0.707486 -0.303905 0.473899 
tuna 0.086396 0.705575 0.971801 0.787676 1.986611 0.031777 -1.203666 0.123920 0.602391 -0.805335 
kidney_bean -1.544280 -0.070580 -1.879067 1.628481 1.465603 -0.833824 -0.372715 -0.168582 -2.950777 0.514668 
peanut 1.026120 -0.860376 -0.387608 -2.172500 2.516105 1.178643 -1.517259 -0.461605 -0.844889 -0.223352 
asparagus -1.354038 0.941005 1.963426 -0.100030 0.340962 0.410731 -0.395590 -0.449351 0.473735 0.152962 
salmon 0.569281 1.639353 0.706650 0.671772 0.574341 0.455702 -0.906530 -0.331586 0.787387 -0.213815 
leek -2.227509 1.982147 0.975921 -0.707167 -2.025336 0.892473 -0.512420 -0.332334 -0.916933 0.261983 
chickpea -0.448310 1.290787 -0.025887 1.205071 0.832765 0.304668 0.513855 -2.314609 -3.449527 0.139731 
blue_cheese -0.223450 -0.253371 1.197585 1.666565 -0.078848 0.839831 -0.441306 1.017489 0.483642 -0.029348 
brandy 0.591250 0.250650 -0.611073 -0.475842 -2.508053 2.001879 -0.774850 1.785497 2.285121 0.900132 
artichoke -1.573332 0.969043 1.742913 1.633168 0.297828 -0.102439 0.743036 -0.080791 0.673859 0.774710 
horseradish -0.059346 0.421907 -1.006367 1.818758 0.219032 -0.124417 -1.859671 0.731281 1.441932 -0.961970 
mango 2.404035 0.614528 0.502260 0.214825 1.715244 1.267904 -1.214235 -1.817193 0.052053 1.466191 
date 0.671750 -1.026627 -0.429235 -0.542705 -1.867583 2.696816 0.428447 -0.422015 -0.417493 0.172425 
cardamom 1.038985 1.440333 -1.020142 -0.751382 -1.440993 1.863030 0.007343 -2.203728 -1.667583 0.358433 
white_bread -1.509548 -0.655725 0.565266 0.550103 -0.832958 0.679132 -0.428273 0.690534 0.273111 0.674306 
oyster -1.089366 2.193703 0.197465 -2.688211 0.762941 0.202549 -0.801803 1.741709 -0.206816 1.026156 
cottage_cheese -1.533120 -1.590461 0.875535 1.550811 1.278026 -0.105998 0.973462 0.440043 1.085639 -0.146642 
grape 2.068902 -0.682574 0.966296 1.154317 0.309084 2.149740 -0.666538 -0.368605 -0.554515 0.913087 
brown_rice -1.184798 -0.458963 0.525010 -0.527251 0.404381 0.680336 -0.898854 -0.767746 -1.662473 0.947260 
cauliflower -1.447848 0.474016 1.616233 0.142575 0.701664 0.568731 -1.070430 -1.346458 -1.129117 -1.351132 
cured_pork -2.732733 0.215915 1.536623 1.584942 -0.379852 -0.066633 1.192065 2.582334 -0.157620 1.949486 
egg_noodle -2.178838 -0.603445 0.092722 0.105029 0.780061 -0.258943 -0.599460 0.445670 0.254533 -0.373923 
beer -0.919990 0.720528 -2.482397 0.990762 -0.472516 -0.493846 -1.089121 0.035921 -0.139256 0.959959 
hazelnut 0.077698 -0.336073 0.549953 -0.657950 -1.846916 2.234797 0.384509 0.695934 0.532117 -0.081669 
mandarin 2.138377 -1.227311 1.010968 0.513153 1.538864 1.846182 -0.036151 0.768374 0.385900 0.845308 
romano_cheese -2.088306 0.498216 1.423255 0.875359 0.097914 -0.107787 1.098174 0.748615 0.387464 1.550139 
plum 0.764127 -0.067544 -0.560487 -0.163338 -1.900962 2.117646 -0.806478 0.314291 -0.961196 0.997355 
pimento -1.365034 0.068640 0.852823 1.415141 0.981257 -0.269508 -1.269179 -0.964505 0.218691 0.122415 
smoked_sausage -2.218408 0.390459 -2.224683 1.285565 -0.777423 -0.525928 -1.280686 0.008817 -1.390874 -0.050802 
scallop -0.800373 3.424927 1.347507 -0.356203 0.165696 -0.194994 -0.261471 -0.678993 1.545874 1.947596 
goat_cheese -0.348007 0.183058 1.938714 1.965778 -0.601485 1.192736 0.280274 1.110074 -0.184749 0.041417 
lentil -1.531325 0.911001 0.222799 0.091855 -0.312856 0.682371 -0.125027 -1.904139 -3.365010 0.322505 
currant 0.916334 0.051608 -0.694416 0.930690 -2.265624 2.062087 0.354774 -0.125196 -0.513819 0.459349 
saffron -0.886218 3.192954 0.624104 -0.274182 -1.618787 0.796836 0.613908 -1.973176 -1.480236 1.451725 
barley -0.577160 0.616190 0.431563 -0.531334 0.233329 1.154104 -0.207211 1.333564 -2.802989 -0.661446 
caraway -0.357196 0.493237 -1.326886 3.267331 -2.412576 1.201213 -1.869913 -0.515466 -1.306085 -2.278452 
beet 0.976207 1.452357 0.739397 2.389488 -1.205172 1.648357 -2.006602 0.730119 -1.262203 -1.010416 
squid 0.042383 4.775016 -0.475346 -2.365915 2.285889 -0.706337 0.562113 1.626644 0.581022 0.678588 
corn_flake -0.885179 -1.213970 -0.584032 -0.610767 0.519132 0.588796 -0.334065 -0.674186 0.467467 -0.927197 
anise 0.659776 2.263514 -0.436491 -0.199211 -1.551987 1.287269 1.150449 -0.163183 -0.021997 -0.095806 
roasted_beef -1.225631 0.180116 -1.070514 0.824273 -0.289674 -0.119915 -1.410577 1.691818 -0.150820 0.414262 
pistachio 0.960991 -0.049013 1.102639 -0.735376 -1.161579 2.480726 -0.035249 -0.594553 0.354885 0.366700 
peanut_oil 0.199790 0.924330 -0.012226 -2.367875 2.009322 0.534956 -2.383735 0.024260 -0.793301 0.958170 
cereal 0.067416 -2.009106 -0.179749 -0.503576 1.141728 1.861191 1.430068 1.009621 -2.112329 -2.249113 
cashew 0.679363 -0.444007 1.293573 -1.409014 0.821987 1.953510 -1.855941 -0.749252 -1.546910 0.005431 
veal -2.269048 0.837515 0.659072 0.155986 -2.179968 0.654639 -0.257784 1.780217 0.076498 1.618595 
seaweed 1.046758 3.806987 0.073201 -0.839884 3.285071 -0.177591 -0.061140 2.407951 0.110229 -1.997561 
turnip -1.799813 1.993759 0.750475 -0.429373 -3.385363 2.098462 -1.421952 -0.571384 -2.973713 -0.684277 
sauerkraut -1.606511 0.440828 -3.294176 2.858689 -2.344714 -0.163840 -1.015675 2.244178 0.498784 -2.110225 
berry 1.417305 -0.704922 0.484344 1.316558 -0.939768 2.254992 1.914955 0.638418 0.769293 0.529081 
kelp 0.327988 4.456643 0.408662 -3.626965 2.846647 0.227140 0.244911 2.904887 0.180575 -0.373416 
tomato_juice -1.357342 0.499277 -1.758679 1.421061 0.551959 -0.785371 -1.223059 0.094104 -0.856338 0.260604 
cod -0.803904 2.787992 -0.260328 -0.566317 0.219413 -0.331153 -0.606654 -1.208451 0.137315 0.543888 
provolone_cheese -2.193531 -0.559762 0.814239 2.253546 0.437522 -0.421640 1.003388 2.398327 0.891408 1.392539 
mussel -0.921563 6.431835 -0.336470 -0.666073 -0.466725 -0.801424 0.356084 -0.953623 0.087613 2.031549 
blackberry 2.081491 0.407986 -0.286688 1.197722 -0.562035 1.996933 3.153185 1.495927 1.630005 -0.014705 
roasted_peanut 1.318376 -0.842706 0.024480 -2.656523 2.478974 1.555949 -1.785246 -0.240255 -1.503720 0.751266 
rhubarb 1.341491 0.041709 -0.618010 -0.136782 -0.589308 1.828092 1.983865 0.261456 1.536672 -0.311646 
chinese_cabbage 0.721615 5.094119 -0.307518 -2.864869 2.457771 0.205664 -0.874113 2.873200 -2.147716 0.412957 
corn_grit -1.443501 0.281969 -1.028963 0.594778 0.895256 -0.858529 -0.007117 -0.398103 0.079074 2.108013 
chicory 0.625182 1.807181 2.728909 2.022783 -0.509555 1.619268 -0.965021 2.463319 -0.413975 -0.053575 
bourbon_whiskey 0.380506 0.473261 -4.405637 -0.451272 -1.702324 0.324133 -0.396275 -1.245572 1.995070 1.373320 
citrus 1.757868 0.790592 -0.004706 -0.692663 -2.126049 2.756018 -0.426817 0.236949 1.339507 1.017726 
lima_bean -2.049908 0.222312 -1.751193 1.426545 -0.277446 -0.479061 -1.591050 -0.625979 -2.073693 0.610531 
lovage -0.567793 4.673583 -4.428641 0.538516 -1.022079 -1.926414 -1.190852 -1.959424 2.772732 -0.179960 
melon 3.926861 0.998046 0.825368 1.331701 1.514635 2.244240 0.476816 -0.676903 -0.446179 1.723446 
parsnip -1.706847 2.095033 -0.311230 0.139298 -2.919086 1.322992 -0.232896 -0.785710 -2.858190 -0.652758 
fig 0.623536 0.182563 0.433765 0.847924 -2.817579 2.507258 0.619933 0.753871 0.012960 0.870055 
lemongrass 1.035578 1.941184 1.115637 -3.805133 2.681545 1.017132 -2.886490 -1.998186 -0.824997 3.880768 
whiskey 0.282517 -2.611396 -1.404326 -0.276410 -1.081920 1.682660 -2.192742 1.436243 1.829926 2.350986 
watercress 1.024266 0.890057 1.491156 1.327256 -0.040346 1.448501 -2.088848 0.993295 -0.387803 0.644374 
tequila 2.569430 0.605119 -1.817932 0.498457 1.592109 0.320071 -0.880168 0.385388 1.796904 3.289742 
rye_flour -0.103685 0.274853 -1.408912 2.986280 -1.725703 1.146806 1.156166 1.653155 -0.860223 -3.422360 
peppermint 0.842533 0.130205 0.620178 -0.687990 0.679111 1.396050 0.447218 -0.517584 1.854563 -1.685596 
savory -1.863457 1.475716 0.213807 0.811152 -1.687012 0.510964 0.710985 0.531289 -1.802249 1.156095 
lobster -0.590982 3.616271 -0.040363 -0.135251 -0.697689 -0.311682 0.045521 -0.901961 2.042977 1.979583 
roasted_pork -0.232065 -0.038475 -2.169760 1.467375 -0.992965 0.411635 -1.230124 0.866192 -1.661600 0.947197 
mace 0.316348 0.936301 -1.475076 -0.767715 -2.201600 1.704834 0.423483 -0.521663 -0.768577 0.356488 
endive -0.537173 0.787756 2.823317 1.582679 -1.192341 1.760727 -1.309481 1.487790 -0.781783 0.732163 
brassica -0.209200 2.165209 0.080005 0.229825 -0.219349 0.759013 -0.685603 1.639578 -2.251886 -0.079163 
grapefruit 2.877569 0.616579 0.399362 1.381896 0.205293 1.920484 -1.049966 0.399302 0.223484 1.654873 
enokidake -0.183244 5.153723 -2.359088 -2.277245 1.683296 -0.613919 0.689326 4.530072 -0.527699 -1.220911 
porcini -3.169053 1.889888 1.127322 -0.386980 -2.482616 0.592263 0.777828 1.454946 -0.392725 1.097828 
kiwi 3.619786 0.287034 0.416119 0.746931 1.544860 2.090492 0.931282 0.233356 0.626255 0.740020 
wasabi 0.853479 3.812779 1.226539 -0.650162 2.235751 0.447404 -2.432263 2.185913 1.140516 -3.040683 
watermelon 3.407516 1.714782 0.968885 1.805355 1.010265 1.730033 0.396063 -0.606805 0.967952 2.107190 
lime_peel_oil 2.572912 0.695408 0.442453 1.033581 2.167228 0.861373 -0.424535 -1.324262 0.621477 2.433317 
okra -1.372005 0.822812 -1.391769 0.239286 0.177389 -0.467847 -1.201647 -1.053186 -1.035255 1.937082 
macadamia_nut 1.212875 -0.746796 -0.289378 -1.215498 1.175285 1.444279 0.140423 -0.740826 0.587906 -0.186367 
smoked_salmon -0.034221 1.807607 1.839485 1.739010 0.338559 0.490420 -0.687848 -0.217315 1.974665 -1.764759 
kale -2.059367 1.771878 0.281220 0.494147 -1.470027 0.469861 -0.316205 0.539962 -2.069653 0.416043 
popcorn -0.408447 -2.127452 -0.495874 -0.879381 2.025867 0.719278 0.177168 -0.779752 -0.438184 -0.428877 
rye_bread -1.603407 -0.644545 -0.918655 3.351965 -1.313592 0.151815 -2.007931 0.449649 1.438608 -2.047298 
star_anise 1.575279 1.722303 -0.273764 -1.429135 -0.377158 1.675961 -1.244121 0.063130 -1.085839 1.673059 
brussels_sprout -1.376908 0.139837 1.504347 0.902364 -1.144671 1.288598 -0.824488 0.123407 -0.979325 -1.050194 
tea 1.352634 0.408502 -0.567442 -0.301243 -0.891785 1.732809 -0.609172 -0.933373 0.391698 0.940347 
thai_pepper 0.999197 0.451084 -0.464378 -3.328520 3.932660 0.250945 -3.039272 -1.338627 -0.300443 2.924958 
champagne_wine 1.559801 1.544092 0.868968 1.456113 -0.682503 1.421206 -0.733095 0.856338 0.974292 0.438007 
anise_seed 1.692209 0.263147 -0.035370 1.019260 -0.952259 2.104815 -0.160824 -0.543488 -1.093675 -0.156983 
yam -0.402104 0.358290 -0.958766 -2.018179 -1.805874 1.950536 -0.182125 -0.940266 -2.470248 1.247860 
bitter_orange 0.840386 1.084670 0.842622 0.037234 -3.368874 2.794435 0.676834 -1.217572 3.128764 3.097188 
wheat_bread -0.621649 -0.879622 -0.093508 1.594298 0.981755 0.129669 -0.282817 0.254404 0.031053 -0.801365 
