249 10
</s> 0.040027 0.044194 -0.038303 -0.032780 0.013666 0.030211 0.009409 0.002113 -0.036035 0.022185 
egg -0.575377 0.204504 -0.134583 0.685879 -0.050290 0.497809 0.457414 0.644255 0.616782 -0.547801 
butter -0.571336 -0.140470 0.178464 0.638000 -0.358186 0.194717 0.088869 1.156951 0.489420 -0.646655 
wheat -0.554221 -0.181659 -0.217990 0.653365 -0.222409 0.326289 0.335515 1.060990 0.683975 -0.393059 
onion 0.137923 -0.501707 0.348531 0.695109 1.264441 -0.291105 -0.437724 -0.180502 -0.843916 0.161376 
garlic 0.324048 -0.194191 0.147286 -0.126077 1.371740 0.217328 -0.799565 0.028775 -1.148370 0.518112 
milk -0.890055 0.199783 -0.503861 0.932009 -0.193931 0.340618 0.242790 1.075426 0.844248 -0.534741 
vegetable_oil 0.003050 -0.168670 0.192917 0.557144 0.669769 0.414155 0.617985 -0.553652 -0.318716 -0.522282 
cream -0.668063 0.712459 -0.192027 0.922162 -0.255603 0.790891 0.283802 0.350841 0.574991 -0.342318 
tomato -0.248202 -0.047900 0.159508 0.597294 1.769057 -0.155592 -0.841014 -0.145723 -1.024116 1.230638 
olive_oil 0.150076 0.646399 1.440421 0.198601 0.693471 0.360366 -1.366344 0.533219 -0.893917 0.805377 
black_pepper 0.618163 -0.281110 0.401591 0.170887 0.710607 0.174741 -0.836765 0.333311 -0.991630 0.070260 
pepper -0.215791 -0.381457 0.826641 0.314823 1.220410 -0.036840 0.107612 -0.238690 -1.070457 0.474128 
vanilla -1.182843 -0.490987 -0.992242 0.182439 -1.636026 1.574018 1.205472 1.246622 0.806147 -0.514415 
cayenne 0.502999 -0.391653 -0.531476 -0.403751 1.557986 0.702804 0.464789 -0.588193 -1.847285 0.697827 
vinegar 0.843056 -0.828550 0.052790 1.347612 0.556679 0.368062 -0.272714 -1.716952 -0.727769 0.023587 
cane_molasses -0.146105 -1.479108 -0.669712 1.318666 -0.000184 -0.024348 1.229997 -0.109222 -0.205756 -0.193999 
bell_pepper 0.129610 0.038811 0.290515 0.269785 1.430922 0.186824 -0.434079 -0.113092 -1.138948 0.722686 
cinnamon -0.432262 -1.085164 -0.115457 0.197574 -1.209510 0.478571 1.275235 1.616367 -1.174250 -0.676780 
parsley 0.072004 0.933488 1.036492 0.877230 0.789968 0.035821 -1.141662 0.686702 -0.243253 -0.345867 
chicken -0.074508 -0.399370 0.974552 -0.546839 1.198398 0.242807 -0.018354 0.057269 -0.874720 0.419198 
lemon_juice 0.555359 0.707275 1.082644 1.106916 -0.188959 0.805388 0.100804 0.077151 -0.052631 0.229172 
beef 0.471076 -1.111956 -0.558358 0.400541 1.379795 -0.306209 -1.054924 -0.465352 -1.064302 -0.280625 
cocoa -1.736290 -0.229654 -1.007088 0.164421 -1.061571 1.510029 1.711900 0.666799 0.687249 -0.870323 
corn -0.504166 -0.891851 -0.997231 0.712452 1.039023 0.148629 0.314244 -0.923788 -0.538730 0.566112 
bread -0.508668 0.096224 0.155202 1.138485 0.620356 -0.068222 -1.328228 -0.114128 0.259772 0.354435 
scallion 1.130188 0.229624 -0.468742 -0.738357 1.405599 1.280172 0.012369 -0.738738 -0.548089 -0.479759 
mustard 0.004108 -0.134877 0.260746 1.950300 0.046416 0.183879 0.000136 -1.461316 -0.816844 -0.917773 
ginger 1.338200 -0.686627 -0.365287 -1.293454 -0.245578 1.690613 1.422784 0.270585 -2.136861 -0.459681 
basil -0.452202 0.625454 0.567377 0.414557 1.606744 -0.286382 -2.030518 1.293607 -0.172610 1.519544 
celery 0.327569 -1.176858 1.260054 0.421644 1.112690 -0.676588 -0.836031 0.323664 -0.341082 -0.339984 
carrot 0.731576 -0.955341 1.622638 -0.447921 1.162052 -0.245579 -0.182931 0.727635 -0.680161 -0.900738 
potato -0.251453 -0.312175 0.822383 0.197287 1.004535 -0.480319 -0.717963 0.463943 -0.846207 -1.418852 
chicken_broth 0.062331 -0.514419 1.269026 -0.646794 0.794882 -0.134560 -0.879031 1.061639 -1.601997 -0.192532 
yeast -1.543283 -0.231680 -0.362422 0.350078 -0.000070 0.172530 -0.313208 0.481644 0.508587 -0.424058 
rice 1.294900 -0.690221 0.322973 -1.336403 1.202009 0.934118 0.364292 -0.044149 -0.706255 -0.423282 
mushroom -0.045168 -0.324152 0.370172 -0.653354 1.534400 -0.135675 -1.636176 0.833026 -0.083590 -0.014882 
cheese -1.325819 0.895110 -0.474827 0.119518 1.154333 0.356253 -1.318525 0.365444 0.055857 0.600793 
soy_sauce 2.820983 -1.724331 -0.989482 -1.496367 0.980044 1.608326 0.137874 -0.952596 -0.603151 -0.602626 
cumin -0.478551 -0.381630 1.323303 -0.686657 1.663993 0.458269 2.266408 -0.186773 -3.061545 1.125916 
oregano -0.396226 -0.074323 0.245089 0.285703 1.841693 -0.417153 -1.567199 0.587531 -0.813870 1.545491 
parmesan_cheese -0.647250 1.154045 0.581520 0.111541 1.406347 0.073417 -2.368721 1.158088 0.587474 0.568242 
macaroni -0.525627 1.190159 0.601672 -0.029988 1.698686 0.174968 -1.801045 0.832375 0.089297 0.728743 
thyme 0.184553 -1.060604 1.726607 0.428641 0.483116 -0.922839 -2.208115 1.348633 -0.657925 0.375523 
cheddar_cheese -1.621754 -0.023078 -0.599203 0.357435 2.112977 -0.234866 -0.670788 -0.654792 0.283011 -0.072663 
lard -0.772410 -0.765690 -0.521749 0.444208 -0.490696 0.420841 0.667548 1.077503 0.681599 -0.447976 
lemon 0.762625 0.710810 0.635425 1.061051 -0.672430 1.007290 -0.144596 0.619460 -0.263070 0.452134 
cream_cheese -0.826371 0.532220 -0.460123 1.259785 0.019011 0.713669 0.408321 0.070715 1.262239 0.048440 
walnut -0.252093 -1.240116 0.545894 1.024867 -1.438263 0.532392 0.643438 0.883124 1.078356 -0.159616 
green_bell_pepper -0.326848 -0.589683 -0.128878 0.559982 2.257335 -0.538215 -0.398288 -0.306760 -1.004096 0.815981 
starch 0.770091 -1.109736 -0.484902 -0.086676 -0.174136 0.764897 0.238922 0.181763 0.209653 -0.065215 
nutmeg 0.063896 -1.015298 0.161920 0.917753 -0.701182 -0.268867 0.587832 2.334789 -0.111124 -0.224861 
honey 0.567945 -1.269063 0.629015 -0.095949 -0.757940 1.041271 0.470454 -0.444111 -0.252501 0.247014 
apple -0.222767 -1.792008 1.196104 0.754620 -1.252767 0.259637 0.609391 0.080323 0.040216 0.040863 
almond -0.460812 -0.241242 1.013700 0.229634 -1.294221 1.151783 0.776128 0.563056 0.484234 -0.308886 
cilantro 0.500502 0.421206 0.070359 -0.859666 1.386301 1.623046 1.167977 -0.840276 -2.697291 1.699031 
pecan -0.665956 -1.244168 -0.544982 1.056575 -1.435804 0.577545 0.606821 1.046123 0.822449 -0.019480 
white_wine 0.915852 0.763273 1.138191 0.491154 0.343051 0.391976 -1.553305 0.967934 -0.865944 0.210786 
bacon -0.288043 -0.726520 0.327004 0.593598 0.951734 -0.349354 -1.335852 -0.520267 -0.310309 -0.601458 
pork 0.667436 -1.778854 -0.561788 0.340856 0.412592 -0.165473 -0.775275 -0.366729 -1.284070 -0.075266 
raisin -0.525960 -1.602922 1.067774 0.004800 -0.895732 0.369598 1.444008 1.131133 -0.287462 0.139479 
bean -0.099511 -0.927661 0.222947 -0.413838 1.716850 -0.063538 -0.361287 -0.435498 -1.274025 0.432819 
rosemary -0.394375 -1.054226 1.571928 0.504614 0.620697 -1.102845 -2.607333 1.729987 -0.399975 1.336641 
fish 1.462199 1.304282 -0.453710 -0.807162 0.850099 1.826580 -0.170211 -0.120176 -1.886479 -0.739509 
cucumber 0.862608 1.427046 0.242697 0.748249 0.406148 1.679595 0.581621 -1.555283 0.233628 -1.483522 
olive -0.308469 0.738591 0.741071 0.920636 1.498083 0.113071 -1.352240 -0.485044 -0.273431 1.040118 
coconut -0.605548 -0.260167 0.061108 -0.510595 -0.312514 1.568444 2.807630 0.612633 -0.653177 0.532098 
orange 0.263324 -0.984817 0.460497 0.580389 -2.129946 1.424500 -0.028400 0.134606 -0.362790 1.143253 
tamarind -0.179006 -1.404556 -1.248053 2.036902 1.336947 -0.573831 0.117544 -1.851806 -1.156736 -0.170523 
vegetable 1.191046 -0.738712 0.334656 -1.040501 1.163447 0.428174 0.012089 0.608035 -0.155828 -1.264446 
orange_juice 0.574132 -1.206722 0.769970 0.686847 -1.751890 1.253882 0.666743 0.120004 -0.619616 1.418043 
buttermilk -1.106246 -0.190037 -0.248865 0.522086 -0.160684 0.427086 0.292895 0.390570 0.658128 -0.540943 
pineapple 0.267225 -0.924826 -0.085744 0.909715 -0.992448 1.376978 0.888613 -0.536447 0.312139 1.274874 
shrimp 1.279695 1.531396 -1.611655 -0.088810 1.285763 1.337895 -0.581799 0.369844 -2.358160 -0.861676 
coriander 0.215425 -0.511718 2.581879 -1.003295 1.316487 0.778834 3.124849 0.092260 -3.196059 1.061760 
bay 0.158679 -0.525405 0.772565 0.516885 0.609742 -0.785194 -1.026452 1.421126 -3.088024 -0.869708 
lime_juice 0.690201 0.742762 -0.268349 -0.329028 0.444376 2.516225 1.336654 -1.447499 -2.270142 2.276045 
red_wine 0.954875 -0.436319 1.263048 1.301980 0.266265 -0.108984 -1.317520 -0.006463 -0.467462 0.944201 
gelatin -0.403833 -0.389201 -0.344997 0.135409 -1.375211 2.093089 0.718444 -0.170208 1.520695 0.701065 
pork_sausage -1.793166 -0.802756 -0.523787 -0.305654 0.976106 -0.732861 -2.679569 0.801575 -1.631401 0.422662 
sesame_oil 3.902650 -1.469399 -1.196089 -2.607341 1.552105 2.442894 0.075412 -0.473554 -0.665856 -0.243628 
chive 0.069687 1.721839 0.671821 1.912483 0.031426 0.612382 0.194348 -0.125259 0.431311 -1.745225 
seed -0.804839 -0.924490 1.551114 0.348119 -0.607581 0.612952 0.186886 -1.581873 -0.809650 -0.966458 
mozzarella_cheese -1.664399 0.700157 -0.255278 -0.191028 1.683223 -0.082995 -3.020580 0.920663 0.660267 1.577865 
ham -0.768008 0.077647 0.295804 0.439982 0.548161 0.126004 -1.650699 -0.544713 -0.240217 -0.685703 
oat -0.943716 -2.122721 0.423945 0.168164 -0.775996 0.449700 1.881054 0.787823 1.555321 -0.960232 
turmeric 0.363109 -0.140624 3.094494 -1.386507 1.760301 0.827201 3.668391 0.516155 -3.058785 0.810106 
nut 0.610689 -0.709895 0.924962 -0.733887 0.058394 0.816214 0.008324 0.551016 0.694977 -0.045652 
shallot 1.207876 0.788955 1.355417 0.521897 -0.731914 0.928291 -1.469219 0.637990 -1.466525 -0.247774 
lettuce 0.575920 0.228872 0.839299 0.393272 0.600265 1.482309 -0.614956 -2.284521 0.338860 0.723484 
cider 0.775297 -1.763307 0.776177 1.741804 -0.215907 -0.021768 0.173732 -1.629575 -0.956068 -0.109534 
dill 0.179792 1.070439 1.256806 1.509536 0.750677 0.409370 -0.483779 -0.921431 0.235166 -0.924872 
pea 0.486998 -0.093122 1.359141 -0.825017 1.694377 0.335988 0.075614 0.110620 -0.435412 -0.551342 
zucchini -1.120542 0.339412 1.635508 -0.195383 1.515294 -0.478762 -0.030512 1.464419 -0.400616 0.386006 
cherry -0.138699 -0.911817 -0.099672 1.162060 -1.815282 1.180587 0.806414 1.060662 0.823157 1.156423 
lime 0.481249 0.598603 -0.657843 0.141813 -0.286638 2.326317 1.066666 -0.804514 -1.782950 2.205654 
yogurt 0.018577 0.299279 2.111147 0.040827 -0.193148 1.258154 1.343606 -0.266904 -0.063855 0.818384 
strawberry -0.118552 0.304776 0.103077 -0.182670 -2.337508 3.153446 -0.157282 -0.156931 1.868690 1.310448 
soybean 2.647391 -1.319729 -0.624963 -2.021580 1.268736 1.495009 0.232955 0.024453 -0.305442 -0.937045 
celery_oil 0.029757 -2.354860 -2.094350 2.160791 1.377292 -0.581612 -0.169783 -2.669329 -1.317170 0.401522 
peanut_butter -1.059042 -1.176228 -0.501940 -1.758442 0.514456 1.724752 2.331990 -0.654583 1.052832 -0.915293 
banana -0.137699 -0.643273 0.001091 0.081906 -1.014975 1.732987 1.450894 0.071798 1.061446 0.747845 
meat -0.154913 -1.419280 0.022272 0.173090 0.185134 -0.288666 -1.492635 0.160206 -0.932497 0.171650 
tabasco_pepper 0.027643 -0.437831 -1.145577 1.653174 1.405689 -0.087738 -0.201466 -1.500282 -1.187655 -0.144021 
milk_fat -0.696183 0.862175 -0.009694 0.503206 -1.000358 0.742933 -0.349239 1.628587 -0.153095 -0.895297 
cabbage 0.517517 -1.401155 0.816201 -0.164108 0.695757 0.248173 -0.326232 -1.489230 -1.115640 -1.355460 
mint 0.725759 1.062247 1.499840 -0.076162 -0.294578 1.849466 0.857235 -0.124734 -1.122795 1.180921 
fennel -0.748851 0.115825 1.179520 -0.128104 0.119726 -0.289069 -2.593884 1.818317 -1.794057 0.580765 
sage -0.714278 -2.217931 1.947012 0.151984 -0.008802 -1.344380 -2.647602 1.468059 -0.515578 0.381824 
broccoli -0.723306 0.076052 0.950692 -1.256297 2.091122 0.425042 -0.551794 -0.205596 1.001622 -0.133860 
turkey -0.478683 -1.496038 0.764339 0.132203 0.715852 -0.479632 -1.478792 -0.151281 -0.352065 0.596373 
fenugreek -0.231098 -0.293586 2.154029 -1.349388 1.753171 0.785954 3.298173 0.365389 -3.045511 1.227119 
cranberry 0.048538 -1.907488 0.984831 1.128403 -2.210156 0.771526 -0.440843 -0.200909 0.636806 0.761317 
wine 1.450934 -0.471832 0.276575 -0.002045 -0.248084 0.999923 -0.912115 0.017911 -0.627773 0.448832 
beef_broth 0.884590 -1.805831 -0.225025 0.015418 1.040426 -0.645085 -1.393655 0.493913 -1.246039 -0.741582 
grape_juice 0.874285 -0.163409 1.798983 0.657069 -0.121555 0.534697 -1.451840 -0.179969 0.200369 1.070633 
pumpkin 1.463144 -1.066365 -0.795067 0.154913 -0.129385 0.151046 1.285320 2.506383 -0.080216 -1.580248 
raspberry -0.073040 0.296948 -0.046149 -0.083006 -2.325051 2.613208 -0.686450 0.293011 1.510960 0.922365 
whole_grain_wheat_flour -1.286813 -1.578594 0.637009 -0.721097 -0.214080 0.433918 0.236204 0.099979 1.009477 -0.380681 
lemon_peel 0.029219 0.995638 1.341937 0.629583 -0.997712 0.934447 -0.172760 1.491328 0.459507 0.052925 
coffee -1.273975 -0.084008 -1.796259 1.269094 -1.004938 0.817561 1.154510 0.946861 -0.123016 -0.741187 
sesame_seed 1.544028 -0.343445 0.328701 -1.181933 0.493074 1.867192 0.792017 -1.054390 0.510678 -1.323424 
avocado 0.407879 1.239767 -0.603221 0.423759 0.967382 2.152301 0.131543 -2.312280 -1.150483 1.633277 
sherry 0.914082 -0.076936 0.883006 0.439678 -0.183965 0.476342 -0.735869 0.425959 -0.752064 -0.090915 
sake 4.064966 -2.316234 -1.680236 -1.302293 0.792567 1.805816 -0.705768 -0.596964 0.104092 -0.892647 
feta_cheese 0.165495 1.301435 1.973896 0.686373 0.920241 0.855708 -0.932781 -0.403100 0.514117 1.525372 
apricot -0.233511 -1.159360 1.078207 0.696688 -1.817130 0.567207 0.674351 1.191821 -0.545355 0.356088 
roasted_sesame_seed 3.423454 0.177563 -0.623004 -2.501283 2.195649 2.369467 -0.039684 -0.185286 -0.445258 -1.941267 
rum -0.569458 -0.552094 -1.093707 0.371633 -2.003178 1.893605 0.823903 0.794995 -0.401675 1.338284 
orange_peel 0.207354 -0.820396 0.990463 1.018905 -2.322848 0.930744 -0.167469 0.877020 -0.278165 0.205888 
squash -0.331490 -0.363149 1.792766 -0.075482 1.179110 -0.734170 0.119672 1.857966 -0.690169 0.014027 
crab 0.190679 1.944745 -1.375352 1.299655 0.873318 0.956464 -0.173740 -0.422653 -1.589693 -1.455666 
marjoram 0.217908 -2.153600 2.212190 1.042565 0.431741 -1.705650 -2.126580 1.317428 -0.293370 0.454214 
swiss_cheese -1.684200 -0.067920 0.160596 0.379877 0.740075 0.084056 -2.052012 -1.265327 1.178696 -1.413239 
sweet_potato 0.076792 -1.284914 1.070315 0.567751 -0.395377 -0.252865 1.548666 1.262281 -1.626883 -0.729179 
shiitake 3.503060 -0.808433 -0.811400 -1.748474 0.798312 1.327141 -2.278865 1.361566 0.043209 -0.988876 
radish 3.047676 0.334117 -0.278997 -1.055051 0.815583 2.209961 -0.962494 -0.885952 -0.347452 -1.779279 
peach 0.027149 -0.292977 0.058187 0.273409 -1.589845 1.765886 0.715583 0.115824 -0.213198 1.070975 
tarragon 1.023012 1.288898 1.631069 1.491807 -0.203405 0.662631 -1.331514 -0.106195 -0.403679 -0.709061 
black_bean -0.470645 -0.441196 -0.508415 -1.056527 2.336742 0.801041 0.398475 -1.334848 -2.248578 1.600492 
lamb 0.625763 -0.219602 2.695881 -0.004398 -0.093444 0.108464 -0.140883 1.349585 -2.148187 0.902292 
maple_syrup -0.137306 -1.863924 0.151583 0.576813 -0.668826 0.066108 0.873888 0.487744 -0.234021 -0.253094 
pear 2.014631 -0.663520 0.811018 0.304932 -1.646056 1.501093 0.182538 0.523890 0.125664 -0.431276 
fruit 0.089760 -0.806222 0.457773 0.296702 -2.011088 1.705942 0.585558 0.405736 0.790671 0.477918 
blueberry -0.254289 0.081264 0.028800 -0.390920 -2.580778 3.043715 -0.140710 0.253146 2.327552 0.475681 
clam 2.314611 1.883720 -1.139642 -0.017707 1.021732 1.212468 -1.914305 1.720215 -2.685176 -1.285564 
smoke -0.519661 -0.647978 0.068444 0.453002 0.296053 0.016334 -1.789185 -0.624962 -1.602667 -0.303663 
tuna 0.484779 1.110433 0.359444 0.491544 1.524773 1.145511 -0.312507 -1.548880 0.195351 -0.360654 
kidney_bean -0.129740 -1.802131 0.169223 0.332623 3.058772 -1.152197 -0.069089 -0.543301 -1.699114 1.088408 
peanut 0.339542 -1.320470 -0.564143 -1.414617 0.798020 1.826974 2.394615 -1.464251 0.139111 -0.478623 
asparagus -0.020980 1.551052 1.348520 -0.024259 0.619909 0.816144 -1.107236 0.350459 0.127903 -0.652056 
salmon 0.572442 1.292365 0.408390 0.651309 0.090693 1.367028 -0.081116 -0.857993 -0.750633 -0.779840 
leek 0.440449 0.184317 2.506541 -0.662004 0.040942 -0.030084 -1.602883 1.825607 -1.242195 -1.740085 
chickpea 0.256268 0.077203 2.174882 -0.395480 1.896711 0.012420 1.077901 0.629432 -2.104570 0.603861 
blue_cheese -0.063634 0.301709 0.825447 1.521361 -0.339082 0.447834 -1.530998 -0.747733 0.660188 0.132319 
brandy -0.558039 -0.712867 -1.384805 1.315019 -3.285259 1.269296 -1.538091 0.689440 -1.281661 -0.662249 
artichoke -0.540827 1.831907 1.169167 0.623582 0.877461 0.445463 -2.213693 0.622995 -0.382780 0.831718 
horseradish 0.177411 0.024195 -0.558180 2.391179 0.278077 0.300540 -0.669247 -2.152038 -0.483838 -1.174758 
mango 0.425808 0.542936 0.577953 -0.429334 -0.594722 2.639863 1.651114 -1.084504 -1.676465 1.667613 
date -0.653036 -1.732208 0.692310 0.813178 -2.117159 0.443403 1.008536 2.095925 -0.106851 -0.199590 
cardamom 0.159054 -0.782968 1.620712 -0.495343 -1.345246 0.835641 1.732075 1.626658 -2.429812 -0.131715 
white_bread -0.729182 -0.369206 1.024282 0.724618 0.030830 -0.167962 -1.537845 0.037481 0.311633 -0.052708 
oyster 2.205636 -0.767901 -0.728283 -1.819677 0.698542 1.250686 -1.515012 0.816654 -0.890332 -0.991070 
cottage_cheese -1.838356 0.886766 -0.356052 0.913424 1.482342 0.189534 -0.930683 -0.181237 1.646017 1.015761 
grape 0.547181 -0.683464 2.525898 0.637612 -1.346852 1.771212 0.959585 -1.259226 0.412526 1.692389 
brown_rice 0.036088 -1.377559 1.715309 -0.787557 1.115432 -0.072824 0.227880 0.197814 -0.228699 0.631771 
cauliflower -0.288255 0.468586 2.270149 -0.657553 1.717788 0.225720 0.069997 -0.172874 0.276186 -1.194818 
cured_pork -1.344599 -0.053063 0.346338 -0.892941 0.490412 0.097220 -4.549492 1.040008 -0.277214 1.139343 
egg_noodle -0.578761 -0.702080 0.093506 -0.042379 1.930604 -0.294891 -1.219616 -0.424869 0.690645 -0.089292 
beer -0.590327 -1.234188 -0.761339 0.583573 0.482713 -0.325992 -0.461472 -0.375363 -2.130596 -0.264972 
hazelnut -0.057421 -0.356361 0.561447 0.660185 -1.881029 0.731881 -0.432526 1.561437 0.554855 -0.787493 
mandarin 0.590242 -0.838472 0.786841 0.135628 -0.951205 2.267956 0.514989 -1.415771 1.946033 2.044624 
romano_cheese -0.793834 1.089694 0.465460 -0.033781 0.908329 0.135106 -2.639360 1.339992 0.094163 0.793483 
plum 0.219263 -1.691937 1.182814 0.243446 -2.162217 0.645407 -0.091299 0.656091 -1.471367 0.164315 
pimento -1.279861 0.875201 0.962331 0.201345 1.561320 0.417548 -0.584452 -1.226046 -0.429568 0.209892 
smoked_sausage -1.089540 -1.753491 0.239719 0.393941 1.141546 -1.144312 -1.249368 -0.324776 -2.380649 -1.140535 
scallop 1.012523 2.637054 0.140159 0.267284 0.494973 1.309428 -1.424966 1.335781 -2.283407 -0.668417 
goat_cheese -0.106167 0.970015 1.659786 0.589800 -0.713367 0.818004 -2.206004 0.167453 0.134671 -0.162611 
lentil 0.004711 -0.767028 2.815573 -1.171116 1.669602 -0.372190 0.755498 1.029131 -1.843573 -0.164518 
currant 0.083319 -1.176889 1.089654 1.782591 -2.135191 0.093322 -0.016168 1.279045 -0.787448 0.430212 
saffron 0.639986 1.070193 2.217144 -0.831565 0.110136 0.446271 -0.281169 2.982777 -2.805799 0.025583 
barley 1.457122 -2.334059 1.801046 -1.507931 1.160481 0.114795 -0.430197 0.166604 0.886072 -0.438527 
caraway -3.414969 -1.350912 1.878197 -1.537161 -1.207878 0.733260 -1.569793 -2.326505 -3.178204 -2.639895 
beet 0.912749 -0.293033 2.649419 1.542336 -1.180260 0.696430 -0.849779 -1.569228 -0.846029 -1.156847 
squid 3.694308 1.069214 -2.244892 -1.366924 1.455805 2.067924 -1.090230 2.010588 -1.120305 -0.616378 
corn_flake -0.961894 -1.033367 0.112245 0.201838 1.020217 -0.238540 0.755998 0.459543 1.147850 -0.157550 
anise 0.238408 0.162223 0.093644 0.083580 -1.807322 0.993425 -0.015530 1.791828 -1.464181 -1.189945 
roasted_beef 0.375793 -1.296645 0.102342 1.251069 0.593153 -0.514259 -1.680712 -0.785463 -0.646796 -0.252255 
pistachio -0.447208 0.126456 1.226619 0.305815 -2.037026 1.395751 0.479310 1.113567 -0.099288 -0.207094 
peanut_oil 1.617754 -0.758661 -0.126894 -1.950862 1.463302 1.737144 0.976918 -0.785150 -1.051365 0.206363 
cereal -1.129220 -2.642757 0.735074 -1.897379 0.203555 0.992992 1.172834 -0.392167 2.206940 -0.850516 
cashew 0.580441 -1.108460 1.991628 -1.245119 0.264060 1.171460 1.465079 -0.355742 0.018211 0.118639 
veal 0.155358 -0.495959 1.189728 0.496582 -0.745350 -0.525986 -3.498867 2.019145 -0.683549 -0.180733 
seaweed 4.016057 0.479281 -1.636302 -0.829832 1.862242 2.604487 -0.844985 -0.694910 2.268177 -1.303666 
turnip 0.599072 -1.632235 4.285959 -0.193615 -0.541371 -0.831937 -0.879765 1.586035 -1.716111 -2.673193 
sauerkraut -2.377890 -2.487234 -0.900325 0.765644 -0.844630 -0.451956 -3.101519 -2.369563 -1.125208 -2.717259 
berry -0.600301 -0.712436 0.836575 0.171587 -2.644563 1.897011 -0.948304 0.296028 1.832297 0.839829 
kelp 5.576489 -0.391100 -2.173973 -1.721582 1.766204 2.584185 -0.461300 1.971744 0.663576 -0.811852 
tomato_juice -0.010697 -0.851590 -0.265084 1.250568 1.787322 -0.793968 -0.356245 -0.512392 -1.449662 0.042311 
cod 0.526473 1.159340 0.276108 -0.342569 1.060239 0.701852 -0.245659 0.887344 -2.042122 -0.885762 
provolone_cheese -1.791188 0.635666 -0.553584 0.378838 0.641793 0.078304 -4.068503 0.409010 0.269172 1.085096 
mussel 2.533494 2.112518 -0.259984 -0.235204 0.819634 1.137686 -1.482758 2.563883 -4.138228 -0.914719 
blackberry 0.176622 -0.045703 -0.139921 0.709151 -2.456262 2.248082 -0.756811 1.099223 2.720479 0.780356 
roasted_peanut 0.471594 -1.284324 -0.070463 -2.432745 0.703044 2.386651 2.447845 -1.600345 -0.946034 0.211827 
rhubarb -0.193604 -0.077461 -0.643117 0.607788 -2.028010 1.720477 0.082198 1.608519 1.896373 -0.278602 
chinese_cabbage 6.992667 -1.705078 -0.504084 -1.663438 1.728141 2.104136 -1.059367 0.820691 -0.596547 -0.298772 
corn_grit -1.073236 -0.125781 -0.819703 -0.338184 1.346889 0.123595 -1.154354 -0.049548 -1.965948 0.667593 
chicory 1.509741 1.123681 2.265292 0.617966 -1.335295 1.780274 -2.984701 -1.123713 -0.119763 -1.126041 
bourbon_whiskey -0.375242 -1.558760 -3.225973 2.934443 -1.257533 -0.121892 0.906804 1.264845 -2.194760 0.549959 
citrus 0.289730 -0.323990 0.131814 0.584611 -3.486240 2.106886 -0.225459 0.882447 -1.023484 -0.258178 
lima_bean -0.527445 -1.753359 1.174746 0.909444 2.132903 -1.426594 -0.383530 -0.784165 -2.427615 -0.336866 
lovage 3.389686 0.875042 -1.580787 5.638106 1.745187 -1.667985 1.498059 2.169999 -1.692266 -1.149776 
melon 1.267059 0.015119 1.682740 0.311094 -1.246260 3.090988 1.132212 -1.122307 0.399398 3.283466 
parsnip 0.388604 -1.502695 4.087921 0.026384 -0.184035 -0.878296 -0.791951 0.980353 -1.216195 -2.480520 
fig -0.622354 -0.417347 1.417130 1.317048 -2.676103 0.462106 -1.076134 1.679173 -0.706931 0.428235 
lemongrass 1.385899 0.925499 0.483397 -3.578734 0.862544 3.289243 1.596732 -0.037759 -3.838201 1.012336 
whiskey -1.263014 -1.364911 -2.419669 2.031739 -1.750152 0.364266 0.265932 0.935330 -2.400363 1.305179 
watercress 1.277942 0.209921 1.350859 1.160572 -0.774877 1.331312 -0.836428 -1.459399 -0.897741 -0.061731 
tequila 0.677424 -0.004765 -2.806490 0.985420 -0.653182 2.352367 0.243666 -1.012218 -1.936668 3.152966 
rye_flour -2.548602 -1.843427 0.906188 0.247525 -1.384315 0.136881 -1.178531 -1.515237 0.517590 -2.933433 
peppermint -0.854603 1.316196 -0.756669 0.578800 -0.643734 1.967620 1.676523 0.114894 1.163320 -1.413106 
savory 0.125919 -0.696521 2.087828 0.087738 0.084121 -0.526032 -2.055161 1.225217 -1.428399 0.164993 
lobster 0.987194 2.480903 -0.563519 1.220986 -0.341102 1.141423 -1.166980 1.744890 -2.368989 -0.261927 
roasted_pork 0.420697 -2.664575 0.586190 1.127472 -0.350646 -0.719734 -0.635816 -0.535077 -1.606874 0.239847 
mace 0.225070 -1.624417 0.441400 0.288261 -1.653421 0.205110 0.658923 1.813151 -1.756904 -0.741371 
endive 0.784582 0.562388 2.324213 0.887204 -0.832659 0.812547 -2.547075 -0.283523 -1.107490 -0.037377 
brassica 0.897070 -0.922121 0.757139 -1.624403 -0.391880 1.110153 -1.737382 -0.584628 -2.218971 -2.191602 
grapefruit 1.119578 -0.430428 0.984371 1.004143 -1.894116 2.283126 0.090382 -1.448994 -0.758372 1.962267 
enokidake 4.800361 -1.401462 -3.405534 -1.647426 1.516383 1.758750 -2.523215 1.152302 0.636370 -2.813045 
porcini 0.552345 -0.355220 1.589599 -0.174929 -0.057005 -0.803302 -3.580582 2.942519 -0.286063 -1.090590 
kiwi 1.002712 -0.419823 0.347372 -0.146153 -1.557510 3.280970 0.927626 -1.114025 1.801371 2.118030 
wasabi 4.234113 0.791402 -0.571944 0.940242 1.080355 2.394191 -0.418939 -2.131931 0.952259 -2.492318 
watermelon 0.158300 1.478086 1.117718 0.315379 -2.237653 3.653973 0.409105 -1.579149 -1.449530 1.765141 
lime_peel_oil -0.009661 1.396251 0.020683 -0.218892 -0.774173 3.175653 1.043102 -1.539685 -1.941568 2.160415 
okra 0.486110 -0.726904 0.268527 0.354428 1.456650 -0.450358 -0.042215 0.237238 -3.016572 -0.097625 
macadamia_nut -0.302112 -0.235396 -0.219785 0.044099 -0.242347 1.559199 2.014004 -0.075064 0.874637 0.239918 
smoked_salmon -0.096935 2.917033 1.248962 1.225098 0.132885 1.742890 -1.058948 -1.401490 0.637061 -2.083986 
kale 0.509120 -0.614345 2.233520 -0.346059 0.639336 -0.495803 -1.900734 0.867348 -1.856419 -1.447383 
popcorn -1.228297 -0.380617 -0.161623 -0.227279 1.570194 0.849816 2.392743 -0.581451 1.139344 0.184381 
rye_bread -2.745746 -0.144330 0.448513 1.972501 -0.270937 -0.126734 -2.612696 -2.756605 -0.098145 -1.669849 
star_anise 2.714108 -1.155523 0.820056 -0.689585 -1.289560 1.613928 0.698252 0.818957 -2.098073 0.305012 
brussels_sprout -0.506339 -0.085241 2.589014 0.344222 0.153095 -0.127929 -0.924068 0.229119 0.145314 -1.174929 
tea -0.019019 -0.334791 0.073988 0.029914 -1.609507 1.664351 0.815685 0.315661 -1.070781 0.611054 
thai_pepper 2.181605 -0.334477 -1.062072 -2.144896 2.088070 2.645647 2.992435 -0.446659 -2.816181 1.918371 
champagne_wine 1.185098 0.281035 0.970523 1.541992 -1.733211 1.554916 -1.081402 -0.883366 -0.084394 0.207982 
anise_seed -1.320795 -0.233081 1.221619 -0.888036 -1.725445 1.598872 0.154113 -0.287540 -1.648287 -0.260443 
yam 0.080442 -2.221286 1.705809 -1.322135 -0.947057 0.162419 0.887918 1.466388 -2.043146 -1.155589 
bitter_orange -0.189507 0.665726 0.459992 2.272645 -3.335148 1.531692 -1.236398 3.083562 0.010203 3.298709 
wheat_bread -1.044441 -0.612706 0.469304 0.566219 1.096404 0.179775 -0.577582 -1.640593 1.090176 -0.037263 
