249 10
</s> 0.040027 0.044194 -0.038303 -0.032780 0.013666 0.030211 0.009409 0.002113 -0.036035 0.022185 
egg -0.541627 -0.090253 -0.562792 0.560356 -0.281806 0.751101 0.553227 0.411829 0.348678 -0.207133 
butter -0.691957 -0.246883 -0.653056 0.970836 -0.584791 0.448842 0.525307 0.042795 -0.332790 -0.570490 
wheat -0.506408 -0.346900 -0.543036 0.281671 -0.359903 0.658326 0.583740 0.080311 0.212416 -0.837149 
onion -1.000022 0.250798 0.567028 -0.059917 0.853302 -0.419693 -1.036495 -0.438947 -0.399232 -0.025107 
garlic -0.478971 -0.131579 0.430503 -0.458135 1.249080 -0.356696 -1.271713 0.042877 -0.863241 0.005333 
milk -0.749732 -0.432095 -0.911323 0.551594 -0.450919 0.586385 0.883953 0.143673 -0.042989 -0.421143 
vegetable_oil -0.414736 0.699132 0.282644 -0.401369 0.385040 0.964005 -0.140663 -0.007984 0.042900 0.345548 
cream -0.581677 -0.462826 -0.685515 0.814029 -0.286793 0.717477 0.669316 0.355437 -0.233606 0.532748 
tomato -1.442391 -0.522064 0.582994 -0.580710 1.171266 -0.911722 -1.231820 -0.609070 -0.418689 0.487908 
olive_oil -0.723771 -0.749062 0.804077 0.331872 0.029808 -0.737991 -1.725376 0.924831 -0.988033 0.024313 
black_pepper -0.253577 0.113775 0.423906 0.278890 1.073147 -0.187238 -1.404260 0.082055 -0.511336 -0.157358 
pepper -1.019024 0.293670 0.799000 -0.197053 0.388045 -0.166645 -0.918292 -0.669025 -0.913201 0.102508 
vanilla 0.264429 -1.612568 -0.931392 0.266574 -0.806421 1.770217 1.596958 -0.117228 0.156133 -1.306403 
cayenne -0.195513 0.028691 0.174927 -1.634992 1.747947 0.629412 -1.412078 -0.571599 -0.700713 0.605838 
vinegar -0.382377 0.784225 1.439521 -0.018458 1.231016 0.599746 -0.777324 -0.398355 1.220311 0.606095 
cane_molasses -0.545319 0.070922 0.025184 -0.132468 0.504289 0.940252 0.356857 -1.290658 1.320879 -0.760070 
bell_pepper -0.878787 -0.084868 0.388444 -0.723226 0.792223 -0.197883 -1.362716 -0.230337 -0.934731 0.307296 
cinnamon 0.150895 -0.961460 -0.738681 -0.418169 -1.128443 1.657192 -0.809596 -0.894844 0.212796 -1.997506 
parsley -0.963178 0.213179 0.091225 1.171610 0.116876 -0.620729 -1.070154 0.869639 -0.824427 0.032657 
chicken -0.598064 0.407565 1.072960 -0.203146 0.529618 -0.126932 -0.189623 -0.415351 -1.690128 0.064044 
lemon_juice -0.040761 -0.155492 0.601839 0.525306 -0.689591 1.016668 -0.719554 0.931617 -0.177153 0.589845 
beef -0.548816 0.647215 0.768149 0.026519 2.016797 -0.504484 -0.863171 -0.449426 0.160853 -0.326154 
cocoa -0.428717 -1.520954 -1.339054 -0.321194 -0.498893 1.655940 1.772314 -0.133746 0.497574 -0.429817 
corn -1.284950 -0.404314 0.074825 -1.092200 1.143868 0.081943 -0.144479 -0.974892 0.945968 0.457945 
bread -1.170126 -0.222938 0.243113 0.780937 0.419453 -0.583818 -0.323449 0.343844 0.306066 0.174508 
scallion 0.420414 0.915695 0.227747 -0.922311 2.050004 0.880722 -0.698366 0.840523 -0.841703 0.537517 
mustard -1.148538 1.004101 0.542404 0.585875 0.254557 0.670151 -0.841538 0.064509 1.448751 0.979411 
ginger 1.258671 0.903282 -0.126228 -1.590340 0.981613 2.419824 -1.321611 -0.432160 -0.793685 -0.837769 
basil -1.164163 -1.708327 0.181108 0.604783 0.852918 -1.716333 -1.022066 0.780597 -1.520757 0.381951 
celery -1.016304 0.900156 1.276656 1.022030 0.587408 -0.701362 -0.522821 -0.679486 -0.933180 -0.548715 
carrot -0.229747 1.623084 1.001201 0.316938 0.654953 -0.010666 -0.889181 -0.103322 -1.128256 -1.384333 
potato -1.321500 1.251419 -0.250100 0.805205 0.486129 -0.649856 -0.779373 -0.005968 -0.825425 -0.915768 
chicken_broth -0.423389 0.180938 0.756139 0.650978 0.220984 -0.412995 -1.373271 -0.643293 -1.769272 -0.962813 
yeast -1.309644 -0.817674 -0.686942 -0.115005 -0.379603 -0.014115 0.556987 0.753035 0.738435 -0.159862 
rice 0.661484 1.230770 0.675437 -1.202018 1.657784 0.942139 -0.503027 0.265009 -1.749554 -0.526985 
mushroom -0.558411 0.228434 0.366282 0.858853 1.613981 -1.182527 0.141474 0.408931 -1.628483 -0.350248 
cheese -1.437637 -1.267144 -0.485541 0.157756 0.544246 -0.946325 -0.119872 0.576640 -0.377941 0.653862 
soy_sauce 1.712220 1.361199 0.977739 -1.321600 3.288786 1.558355 -0.402240 0.245699 -0.622172 -0.527696 
cumin -1.401537 0.529732 0.725570 -2.422268 -0.628901 1.087650 -2.176528 -1.735593 -1.884222 0.400556 
oregano -1.487551 -1.398657 0.333228 -0.269165 1.054223 -1.626797 -1.343043 0.105536 -0.827939 0.292646 
parmesan_cheese -1.154809 -1.082080 -0.051302 1.094699 0.623065 -1.693908 -0.059563 1.486417 -1.597813 0.153023 
macaroni -1.231242 -1.215215 0.352412 0.472890 0.975671 -1.765114 -0.492325 1.285168 -1.805563 0.593610 
thyme -0.792116 -0.382182 0.910984 1.833213 0.553481 -1.759685 -1.297040 -0.306573 -1.159627 -1.716226 
cheddar_cheese -2.510301 0.374132 -0.182194 -0.600564 0.998455 -1.114186 0.881919 -0.107667 -0.390483 0.687182 
lard -0.619917 -0.560365 -0.846921 0.032771 -0.549205 0.772291 0.531971 0.031008 0.645862 -1.129283 
lemon 0.113736 -0.480775 0.104247 0.774830 -0.661233 1.119302 -1.103377 0.366282 -0.283865 0.399496 
cream_cheese -0.724709 -0.498635 -0.563568 0.716803 -0.295578 0.944459 1.250077 0.436664 0.225399 0.867662 
walnut -0.068008 -0.655427 0.317288 0.459609 -1.187184 1.334818 0.906225 0.009022 0.883413 -1.417233 
green_bell_pepper -1.758671 0.295429 0.546246 -0.246530 1.240358 -0.929782 -0.605871 -0.954458 -0.730303 0.439771 
starch 0.943539 0.308442 0.277657 0.399027 1.189025 1.152514 0.561454 -0.347630 -0.326889 -0.667814 
nutmeg -0.258840 -0.503277 -0.848471 0.739832 -0.860650 0.801801 -0.023277 -0.800737 -0.165138 -2.167852 
honey 0.330670 -0.194035 1.158018 -0.776134 -0.265640 1.359676 -0.180631 0.133294 0.847445 -0.793233 
apple -0.181832 -0.059684 1.459751 0.594590 -1.109380 1.114274 0.357000 -0.994194 0.780413 -1.373265 
almond 0.155055 -0.369124 0.500208 0.472246 -1.334700 1.574235 0.344935 0.227300 0.045405 -0.676032 
cilantro -0.426656 -0.251126 0.302156 -2.460062 0.647223 1.362143 -2.146696 -1.108086 -1.497081 1.173510 
pecan -0.090766 -0.866755 -0.290247 0.435983 -0.599806 1.356596 0.843794 -0.723657 0.826471 -1.116915 
white_wine -0.156848 -0.024155 0.310515 1.602908 0.289463 -0.286080 -1.509921 0.602193 -1.404886 0.006077 
bacon -1.432085 0.586823 0.513065 0.708240 0.883826 -0.898087 -0.353013 0.115665 0.238223 -0.184206 
pork 0.065136 0.287733 0.726515 0.070558 1.883869 0.013876 -0.883758 -1.154915 0.566163 -0.993226 
raisin -0.247436 -0.621311 0.506481 -0.516390 -1.585078 1.305261 0.073514 -0.724300 0.032815 -1.972118 
bean -1.027476 0.199102 0.790199 -1.034759 1.187777 -0.562289 -1.123036 -0.386799 -0.396680 -0.420706 
rosemary -1.111696 -1.197296 1.218502 1.687974 0.373315 -2.264714 -1.301973 -0.259099 -1.158342 -1.551817 
fish 0.878152 0.440403 -0.541307 -0.541155 1.786275 1.377905 -1.994750 0.948784 -1.165569 0.742919 
cucumber -0.228905 1.259918 0.303955 -0.595567 0.307020 1.800809 -0.447200 1.659207 0.442767 1.674962 
olive -1.506450 -0.780469 0.809835 -0.300105 0.300783 -0.868118 -1.236993 0.842286 -0.422159 1.087258 
coconut 0.327381 0.029072 -0.197123 -1.162261 -0.793823 2.957398 0.535575 -1.460145 -1.299423 0.143314 
orange 1.062114 -1.415184 1.138414 0.815553 -0.759599 1.697647 -0.520331 -0.345631 0.573878 -0.527546 
tamarind -1.348649 0.526392 0.361651 0.152255 2.142271 0.103534 -0.449547 -1.906258 1.768764 1.053530 
vegetable 0.234674 1.292936 -0.148726 -0.691462 1.436634 0.362751 -0.839974 1.060521 -0.848588 -1.305169 
orange_juice 1.167879 -1.197820 1.478606 0.535818 -0.503991 1.695780 -0.422975 -0.692177 0.259504 -0.554434 
buttermilk -1.023585 -0.329118 -0.619502 0.093470 -0.623040 0.454296 0.881389 0.562564 0.491119 -0.563988 
pineapple 0.858926 -0.638269 1.484294 0.596426 0.104911 2.177761 1.028819 -1.350402 0.338574 0.689853 
shrimp 0.785430 0.525614 -1.368163 0.272680 2.510763 1.133321 -1.819784 0.073435 -1.645617 0.899032 
coriander -0.561297 1.461152 1.419311 -2.272690 -1.279380 2.197610 -2.074234 -1.569209 -2.450280 -0.050421 
bay -0.778856 0.732003 -0.470851 1.616365 0.715009 -0.289938 -2.767914 -1.593901 -1.058141 -0.993498 
lime_juice 0.461599 -1.482840 1.059634 -2.088594 0.883431 2.016412 -1.589418 -0.883095 -1.063973 2.386231 
red_wine -0.157332 -0.358132 1.577335 0.924856 0.408020 -0.404442 -1.663835 0.198410 0.224514 -0.445251 
gelatin 0.685663 -1.219916 0.649844 0.678813 -0.445235 1.979482 1.724536 -0.052663 0.107470 0.252460 
pork_sausage -1.515146 -1.177417 -0.237702 1.206459 1.419374 -1.961576 -1.314819 -0.876090 -0.435288 -0.658948 
sesame_oil 2.595074 0.999680 1.063569 -2.240669 4.103847 1.792232 -0.614586 1.190917 -1.071296 -0.825963 
chive -0.917290 0.778008 -0.799090 1.456107 -0.635580 0.989467 -0.388149 1.191644 -0.002103 1.215160 
seed -1.128477 0.808047 1.041701 -0.746583 -0.997336 0.934190 -1.255033 0.456504 1.556449 -0.514559 
mozzarella_cheese -1.970109 -2.213604 -0.115234 0.552351 1.313095 -2.792663 -0.038767 1.235580 -0.697502 0.248580 
ham -1.117591 0.106001 0.291774 1.145856 0.755076 -0.775607 -0.223478 0.642211 0.181724 0.316766 
oat -0.311216 -0.328435 0.188471 -0.909615 -1.013850 1.501659 2.121048 0.167488 0.681907 -2.171533 
turmeric -0.486286 2.025483 1.882218 -2.009660 -1.277633 2.224121 -1.637778 -1.931094 -3.740289 0.149284 
nut 0.297597 -0.262287 0.980988 -0.786770 0.035269 0.331257 -0.147843 1.331059 -0.295396 -1.142231 
shallot 0.788757 -0.322409 0.586206 1.892481 0.121668 0.476077 -1.965558 0.363229 -1.255874 -0.187532 
lettuce -0.309039 0.166173 2.008510 -0.758868 0.800353 0.627570 -0.464168 1.308537 0.663576 1.740868 
cider -0.501269 0.860331 1.963223 0.178237 0.339783 0.781022 -0.751036 -0.840512 1.760960 -0.262731 
dill -1.158594 1.300336 0.684959 1.030642 -0.345007 0.468667 -0.880482 1.170594 0.279423 1.173041 
pea -0.631980 1.389638 0.670175 -0.178927 0.750828 -0.077573 -0.816882 0.178962 -1.902529 -0.290780 
zucchini -1.728377 -0.235516 0.166580 -0.630239 -0.679339 -0.992183 -0.857764 0.362762 -1.699352 -0.807406 
cherry 0.444990 -1.736121 0.238364 0.738171 -1.026138 1.792594 0.738517 -0.821593 0.597274 -0.835219 
lime 0.604610 -1.172542 0.497027 -0.887625 0.553196 2.220229 -1.065481 -1.126688 -0.950235 2.121337 
yogurt -0.407849 0.019362 1.757408 -0.874059 -1.721927 1.576404 -0.551026 0.453406 -0.496463 0.548687 
strawberry 1.530059 -2.313802 1.110476 1.149504 -0.527010 2.184203 1.725095 1.224426 0.050629 0.626249 
soybean 1.666315 1.325326 0.197721 -1.972297 2.872273 1.393436 -0.564380 1.500057 -0.781255 -1.415806 
celery_oil -1.266609 0.604379 1.269936 -0.357462 2.730478 0.122345 -0.127009 -2.432800 2.357062 0.928982 
peanut_butter -0.233427 0.882635 0.023888 -1.953492 0.288428 1.713666 2.523614 0.327697 -0.669474 -0.635293 
banana 0.656332 -1.192238 0.759449 -0.186633 -0.439134 1.866032 1.529453 -0.338997 -0.127827 -0.263753 
meat -0.683465 -0.119255 0.673958 0.684944 0.939248 -0.724865 -0.862679 -0.914008 0.137679 -1.084060 
tabasco_pepper -1.219625 0.493263 0.299007 0.373559 1.865819 0.201970 -0.571370 -1.412662 0.977146 1.531469 
milk_fat -0.409468 -0.827125 -1.629738 1.391634 -0.787699 0.671430 -0.169022 0.511559 -0.146800 -0.664891 
cabbage -0.784745 2.014931 1.259360 -0.423296 1.025115 0.188023 -0.862873 0.115684 0.617970 -0.725066 
mint 0.509924 -0.845283 0.995730 -0.774710 -1.045893 1.818881 -1.615913 0.637477 -0.914967 0.851480 
fennel -1.077962 -1.502645 -0.334738 0.909377 0.089136 -1.708926 -2.363161 0.689394 -1.107148 -1.507554 
sage -0.895423 -1.015835 1.280058 2.067413 0.465116 -2.064542 -0.405726 -1.332242 -1.117942 -2.333344 
broccoli -1.081686 0.690979 0.877351 -0.407006 0.714146 -0.741140 0.945167 1.097540 -2.039806 0.262566 
turkey -1.094668 -0.344855 1.610894 0.402955 0.596314 -1.115647 -0.016325 -0.580033 -0.396314 -0.339676 
fenugreek -0.709469 1.628069 0.646776 -2.284589 -1.310156 2.493884 -2.136246 -1.982718 -2.980310 0.224828 
cranberry 0.524974 -1.331484 2.003992 1.651448 -0.506317 0.638946 0.597290 -0.731658 1.258249 -1.359749 
wine 0.901959 -0.053149 1.190642 0.462933 1.280539 0.657769 -0.742269 0.219917 -0.408167 0.005157 
beef_broth -0.159706 0.916075 0.273917 0.695353 2.211581 -0.844971 -1.711948 -0.393686 0.149151 -1.898542 
grape_juice -0.101690 -0.874859 2.161062 0.454842 0.024164 -0.523603 -1.158405 0.917253 -0.111643 -0.185142 
pumpkin 0.831700 0.842248 -1.822252 -0.036897 0.907540 1.462580 0.101274 0.105486 -0.413874 -2.311857 
raspberry 1.350268 -2.083112 0.678717 1.301892 -0.720378 1.872645 1.161638 1.308507 0.508154 0.033981 
whole_grain_wheat_flour -1.043795 -0.544812 0.146671 -1.394049 -0.523538 0.159734 0.645002 1.094046 1.118828 -1.390678 
lemon_peel 0.423745 -1.221192 0.191633 1.096555 -1.369149 0.788198 -0.559611 1.133804 -1.030468 -0.570011 
coffee -0.558505 -1.029683 -1.658126 0.401252 -0.376654 1.622143 0.859610 -0.845243 0.712630 -0.273928 
sesame_seed 0.855258 1.285901 1.179855 -1.697374 0.874715 1.645505 0.016113 1.721060 -0.119696 -0.426053 
avocado -0.512835 -0.909549 1.222602 -1.685154 1.086774 1.082654 -1.393603 0.243868 0.532804 2.730669 
sherry 0.299857 0.242352 0.581278 0.982765 0.366167 0.354552 -0.897031 0.353426 -0.574911 -0.532442 
sake 2.524722 1.401260 0.314251 -0.925855 4.298561 1.884884 -0.823983 1.268529 0.437626 -0.878320 
feta_cheese -1.100447 -1.470333 1.524833 -0.598590 -0.620314 -0.717881 -1.034928 1.951935 -0.558024 1.024710 
apricot 0.353597 -0.846600 0.859204 0.536405 -1.350470 1.358914 -0.348122 -0.779382 0.143526 -1.601205 
roasted_sesame_seed 1.380528 1.810516 -0.124979 -2.424236 3.273719 1.185197 -1.341608 3.212052 -0.346156 -1.189118 
rum 0.859673 -2.248214 -0.544482 0.687895 -0.657296 2.347811 0.408095 -1.143569 -0.052634 0.043460 
orange_peel 0.983241 -1.631087 0.873600 1.191044 -1.154383 1.359285 -0.587930 -0.136672 0.650265 -1.446682 
squash -1.183781 -0.043828 0.270963 -0.304418 -0.562509 -0.759571 -0.857422 -0.393594 -1.811120 -1.606833 
crab -0.324522 0.952059 -1.485243 1.231892 1.520198 1.235707 -0.849938 -0.117045 -0.574361 2.095564 
marjoram -0.973633 -0.416715 2.035676 2.154023 0.159743 -1.990813 -0.633429 -1.065392 -0.945859 -1.967341 
swiss_cheese -2.084028 0.776973 0.116259 1.620304 0.529139 -1.074187 0.933129 0.922677 0.795297 0.383657 
sweet_potato -0.119604 0.651521 -0.217738 -0.170659 -0.574011 1.236345 -0.966393 -1.555026 -0.461408 -2.152800 
shiitake 2.342841 0.988032 0.425597 0.592788 3.547767 0.347659 -0.418709 1.999436 -1.478654 -1.524987 
radish 1.232062 1.325753 0.444575 -1.276226 2.466199 1.426000 -1.648944 3.172659 0.539334 0.160481 
peach 0.846196 -1.427899 0.795194 0.562936 -0.518708 1.994268 0.297466 -0.751144 0.328446 0.057898 
tarragon -0.233127 0.518326 0.747346 2.204801 -0.045226 0.175949 -1.321191 1.211433 -0.576801 0.811433 
black_bean -1.380025 -0.645682 0.923900 -2.861753 1.492095 -0.251958 -1.550846 -1.012319 -0.714732 0.778062 
lamb -0.253457 -0.173554 1.565189 -0.026321 -1.204055 0.013400 -2.745642 -0.094581 -1.396363 -1.494163 
maple_syrup -0.310942 -0.100478 0.370334 -0.226793 -0.268462 0.903616 0.238382 -0.914076 0.908969 -1.641333 
pear 1.659522 -0.134174 1.079279 0.162521 0.036421 1.743800 -0.619824 1.239023 0.720704 -1.269967 
fruit 1.004147 -1.455956 0.919672 0.509979 -0.928737 1.933890 0.768846 -0.090847 -0.028855 -0.636951 
blueberry 1.450037 -1.672601 0.801427 0.977973 -1.067232 2.291924 1.784576 1.952576 0.376405 -0.214730 
clam 0.972978 0.689662 -2.204310 1.858028 2.876086 0.414060 -2.858026 0.690188 -2.401356 0.181117 
smoke -1.272717 0.287912 0.629006 0.927215 0.773707 -0.662402 -1.266805 -0.383565 0.843186 -0.248837 
tuna -0.505128 0.790532 0.820504 -0.467255 0.921977 0.679127 -0.374223 1.658119 0.036883 1.736987 
kidney_bean -2.373092 0.193476 1.063133 -2.155728 1.571746 -1.425494 -1.429822 -0.992890 0.012149 -0.422459 
peanut 0.311868 1.085286 0.501977 -2.458961 0.975524 2.285495 1.433419 -0.297825 -0.503911 0.092323 
asparagus -0.545503 0.424491 0.559484 0.938236 0.027573 -0.238067 -0.172578 1.553888 -1.527122 0.442020 
salmon 0.030365 0.810165 0.447960 0.793283 0.121626 1.184586 -1.132233 0.949109 -0.087891 1.058422 
leek -0.122872 1.187915 0.019672 2.172946 -0.231945 -0.385372 -1.769618 0.814885 -1.761691 -2.008330 
chickpea -1.487907 0.600182 0.750704 -2.254712 -0.938904 0.147406 -2.402752 0.225612 -1.453548 -0.707338 
blue_cheese -0.680059 -0.779539 1.651594 1.171856 0.327991 -0.519424 -0.165304 0.922776 1.126839 0.797213 
brandy 0.618799 -2.451087 -1.179332 1.861890 -0.279934 1.279998 -1.330225 0.223485 2.543081 -0.921604 
artichoke -1.051553 -1.093215 0.251793 1.119129 0.021729 -0.990528 -0.954203 1.582728 -1.124045 1.021052 
horseradish -1.056712 1.020238 0.418416 1.060524 0.992063 0.642290 -0.503478 0.125330 2.164828 1.197499 
mango 0.895008 -0.540647 1.182230 -1.176281 -0.306893 2.860942 -1.098962 -0.592783 -1.025081 1.743954 
date 0.028739 -1.642953 0.506802 0.021781 -1.906636 1.394880 0.040969 -0.931050 0.294402 -2.254891 
cardamom 0.137016 0.077819 0.015553 -0.618207 -1.904916 2.305144 -2.138391 -1.234168 -0.398507 -1.578505 
white_bread -0.985869 -0.615418 0.557110 1.317625 -0.165241 -0.736097 -0.145042 0.198985 -0.080171 -0.433501 
oyster 1.802172 0.832587 0.297430 0.434736 3.103839 0.474503 -0.619661 0.532617 -1.706912 -1.103959 
cottage_cheese -2.044839 -1.485913 -0.216466 0.138149 0.120702 -1.226462 1.262340 0.930023 -0.272529 1.005925 
grape 0.931623 -0.666990 3.223985 0.488345 -1.085243 1.936033 0.467050 0.029507 -0.145890 0.774850 
brown_rice -0.530315 0.591933 2.011227 -0.206350 0.362464 -0.342226 0.393788 -0.787443 -1.878683 -0.780079 
cauliflower -1.571563 2.016727 0.978088 -0.306220 -0.546092 -0.189096 -0.125001 1.292855 -1.695321 -0.191775 
cured_pork -0.861923 -2.382477 0.702047 1.654302 1.502369 -2.927559 -0.630103 1.468153 -0.760361 -0.831386 
egg_noodle -1.320413 0.690858 0.776423 0.653190 1.207558 -0.892665 0.840943 -0.226478 -0.668692 0.139783 
beer -1.192606 0.094066 -0.369332 0.305129 1.245679 -0.022286 -1.367489 -1.654847 0.929647 -0.153903 
hazelnut 0.298694 -0.920108 -0.313527 1.953925 -1.129235 0.980426 0.181000 0.535716 0.509508 -1.356098 
mandarin 1.117909 -1.201470 2.787032 0.205123 -0.036282 1.832622 1.743651 0.127762 0.187873 1.094742 
romano_cheese -0.805910 -1.702318 0.028917 1.079806 0.703857 -1.649942 -0.665367 1.276929 -1.701150 0.170172 
plum 0.521150 -0.821631 1.057609 0.399358 -1.071952 1.182239 -1.382681 -0.814272 0.646084 -1.862860 
pimento -1.974600 0.396807 0.414171 0.319049 0.182828 -0.378049 -0.422625 -0.104973 -0.907928 1.685276 
smoked_sausage -2.240156 1.475624 0.143369 0.464779 1.298946 -1.080650 -1.518869 -1.448297 0.744606 -1.234662 
scallop 0.604133 -0.331265 -1.518253 1.649822 0.880283 0.828976 -2.447119 0.790605 -2.746161 1.189030 
goat_cheese -0.599312 -1.193653 0.932845 0.925378 -0.589647 -0.775384 -1.169242 2.346839 0.588105 -0.150455 
lentil -1.472508 1.111297 0.888459 -1.530414 -0.642278 -0.395619 -1.970998 -0.196707 -2.133874 -1.684922 
currant 0.077345 -1.288136 0.710864 0.766472 -1.660893 1.127236 -1.118558 -0.701653 0.891503 -1.670664 
saffron -0.166849 -0.278814 -0.836419 0.142890 -1.270029 0.417168 -3.289028 0.534292 -2.874198 -1.278901 
barley 0.133807 1.309561 2.085340 -0.574504 0.871391 -0.354105 0.049310 1.360277 -0.518568 -2.058363 
caraway -3.013280 1.624821 -0.075509 0.166987 -2.014044 0.148260 -3.062293 0.673460 3.065294 -1.409325 
beet -0.278194 1.011711 2.328609 1.012270 -0.894558 0.653208 -1.787813 1.479380 1.802129 -0.516512 
squid 2.465283 0.254408 -1.884391 -0.131361 3.780779 1.342254 -1.873019 2.018190 -1.962365 -0.324749 
corn_flake -1.294400 0.822931 -0.022706 -0.045777 0.022304 0.445958 1.729497 -0.446607 -0.330119 -0.258408 
anise 0.490462 -0.916000 -1.190611 0.451758 -0.720126 1.144059 -1.363736 0.490850 -0.066502 -1.540156 
roasted_beef -0.857416 0.578759 1.122782 1.207550 1.522452 -0.784815 -0.705251 -0.548197 0.899552 -0.387761 
pistachio 0.296467 -1.113825 0.320099 0.514385 -1.903998 1.644111 -0.283411 0.417882 -0.136235 -0.779250 
peanut_oil 1.291862 1.160851 1.270505 -1.576767 2.377076 1.651764 -0.416906 -0.696933 -1.824130 0.183361 
cereal -0.789030 -0.145815 1.075410 -2.024269 -0.395999 0.275383 2.561004 0.997306 0.240534 -2.339925 
cashew 0.188517 1.044325 2.233346 -1.108929 -0.415338 1.341200 0.551748 -0.233468 -1.391247 -0.606142 
veal 0.119544 -0.916928 0.677470 2.793895 0.810214 -1.502135 -1.440375 0.255636 -0.856109 -1.604083 
seaweed 1.302176 0.876457 -0.856353 -2.131215 3.303516 1.573092 -0.804879 4.247796 0.844397 0.395002 
turnip -0.550234 2.505168 1.193125 1.897829 -1.338211 -0.257884 -2.452888 0.722770 -0.947258 -3.902781 
sauerkraut -2.372443 1.084574 -0.297960 1.716103 0.968726 -0.824402 -1.281005 -0.294483 3.926897 -1.140277 
berry 0.483908 -2.039531 1.482984 1.714546 -1.423093 1.142556 1.724802 0.797472 0.551591 -0.371539 
kelp 3.226414 0.854205 -1.197981 -1.445587 4.381931 2.023730 -1.231111 3.501491 -1.411807 -1.042468 
tomato_juice -1.649523 0.670550 0.070585 -0.251642 1.710129 -0.671616 -1.473418 -1.186561 0.353420 0.253869 
cod -0.252933 1.081803 -1.062977 0.433051 0.778935 0.778632 -2.225293 0.085620 -1.756225 0.404377 
provolone_cheese -1.651494 -2.776024 0.109186 0.860941 1.591979 -2.678952 -0.383171 1.615738 0.690032 0.429707 
mussel 1.308202 0.387310 -2.161773 1.591347 1.894439 0.960425 -4.776860 0.534104 -2.883839 -0.093916 
blackberry 1.331084 -2.506335 0.436932 1.756586 -0.441868 1.501072 1.977387 1.401662 0.741719 -0.335878 
roasted_peanut 1.109690 0.003881 0.910505 -3.325905 1.221469 2.352706 0.317163 -0.606682 -1.156797 -0.124558 
rhubarb 0.808752 -1.743561 -0.412781 1.152356 -0.523768 1.444655 1.858501 0.636548 0.076624 -1.035217 
chinese_cabbage 3.404106 1.626681 0.530679 -0.879984 5.016731 1.516873 -2.151786 2.308368 -1.518248 -1.410767 
corn_grit -1.417103 -0.782178 -0.708185 -0.660215 1.490405 -0.619239 -1.606304 -1.170775 -0.312856 0.316410 
chicory 0.743099 -0.414515 2.323638 1.349375 -0.099801 -0.066365 -1.948059 3.472927 0.859739 -0.106804 
bourbon_whiskey 0.284831 -1.515107 -1.573023 1.687532 1.725294 1.245011 0.333041 -4.200244 0.753654 -1.432423 
citrus 1.350773 -1.706725 -0.000341 1.480900 -1.264355 2.434270 -1.162375 -0.135296 0.800250 -0.741999 
lima_bean -2.205765 1.438748 1.201208 -0.124909 0.743760 -0.933627 -1.789676 -1.902699 -0.286330 -0.744264 
lovage -0.297000 3.197223 -2.951779 3.924150 2.621867 2.108849 -1.583670 -3.393285 -0.307168 1.501861 
melon 1.677781 -2.248698 3.328735 -0.983890 -0.612032 2.521340 -0.137632 0.347715 -0.583126 1.389205 
parsnip -0.727109 2.867180 1.328387 2.007359 -1.198072 -0.032958 -1.893122 -0.055214 -0.907392 -3.309118 
fig 0.162669 -2.607016 0.498513 1.118770 -1.871420 0.565375 -1.423841 0.546495 1.037708 -1.537850 
lemongrass 1.953616 0.239547 0.050081 -2.421056 1.179471 3.304251 -2.567309 -1.119186 -4.255016 1.278344 
whiskey -0.958405 -2.190032 -1.440022 0.044289 -0.432970 1.713207 -2.032882 -2.149843 3.262119 -0.188627 
watercress 0.523125 -0.035124 1.903326 0.389195 -0.000285 1.009904 -2.077301 1.181113 0.609513 0.461870 
tequila 1.047807 -2.739269 -0.126370 -0.594211 1.666836 2.255025 -1.257558 -1.534989 0.784585 2.339420 
rye_flour -2.359694 0.471034 -0.306226 -0.304105 -1.076755 -0.198848 -0.682372 2.006250 3.793599 -1.674479 
peppermint -0.217422 0.052112 -1.295232 0.353802 -0.678746 2.259109 1.513211 1.171416 0.109705 0.831761 
savory -0.665827 -0.407148 0.890839 1.194796 0.113605 -1.430590 -1.991540 -0.026962 -1.215702 -1.941112 
lobster 0.875263 -0.566583 -1.733282 2.592138 0.789549 1.062988 -2.587788 -0.175342 -2.410312 1.008440 
roasted_pork -0.490438 0.335952 1.831331 0.806833 0.759921 -0.211082 -1.118466 -1.830331 1.189747 -1.406406 
mace 0.286324 -0.582454 -0.443365 0.476504 -1.156336 1.291407 -1.258980 -0.805864 0.155522 -2.417161 
endive -0.373522 -0.548398 1.967986 1.225414 -0.732968 -0.555309 -2.619867 2.145456 0.396039 -0.516905 
brassica 0.079186 0.549550 0.495266 -0.798077 1.225584 -0.191867 -2.853230 1.721004 0.980393 -2.107705 
grapefruit 1.321799 -1.488997 2.163047 0.503644 -0.065855 2.261609 -0.660171 -0.120157 0.954130 1.433133 
enokidake 2.869111 1.361436 -1.788972 -0.278399 6.131779 1.079238 -1.385058 3.319121 0.808411 -2.023360 
porcini 0.053744 -0.563810 0.181952 3.028992 0.582285 -1.895943 -1.254578 0.816448 -1.975368 -2.341061 
kiwi 1.933512 -1.838387 2.122647 -0.216671 -0.340961 2.785551 1.152293 1.041615 0.167541 0.914902 
wasabi 1.031549 3.247423 0.071984 0.213701 2.961044 2.459472 -0.474154 3.425560 0.984555 1.834441 
watermelon 1.413950 -2.088900 1.608134 0.203757 -1.061198 2.971890 -1.659478 0.701580 -0.161035 2.203443 
lime_peel_oil 0.858037 -1.886574 0.936501 -1.314669 -0.075339 2.693526 -1.563329 -0.470501 -0.769632 2.542897 
okra -0.757242 0.563794 -0.038257 -0.355039 1.141226 0.185200 -2.223563 -1.846807 -1.202592 -0.284651 
macadamia_nut 0.207413 -0.568654 0.030828 -0.786801 -0.215509 1.943127 1.512421 -0.248916 -0.167874 0.132097 
smoked_salmon -1.008783 1.295463 -0.398285 1.765398 -0.699803 0.950903 -0.942220 3.092378 0.630125 1.755434 
kale -0.896258 1.003122 1.043555 0.481281 0.342821 -1.165185 -2.493132 0.726734 -0.759921 -2.073822 
popcorn -1.151818 0.083903 0.320389 -1.741108 0.148981 0.957065 2.328738 -0.389533 -0.679339 0.365506 
rye_bread -3.196538 1.166601 0.451112 1.855696 -0.333968 -0.813704 -0.536107 0.736206 3.226727 0.653220 
star_anise 2.244148 -0.305925 0.992802 -0.207772 0.398108 2.298632 -2.089510 -0.536254 -0.656303 -1.215565 
brussels_sprout -1.315338 1.233203 1.230185 1.118278 -0.937286 -0.558959 -0.373777 1.182698 -0.421385 -0.929565 
tea 0.704616 -0.740504 0.141127 0.381213 -0.900848 2.195996 -0.600183 -0.672002 -0.173318 -0.194912 
thai_pepper 1.659967 0.221852 1.102675 -2.675567 2.711492 2.882174 -0.370195 -2.516644 -3.404375 1.426033 
champagne_wine 0.864145 -0.475024 1.531954 1.703965 -0.281746 1.421690 -0.997758 1.300261 1.166941 0.825284 
anise_seed -0.254540 -1.153451 0.453540 -1.202618 -1.912750 1.641873 -1.772174 0.369412 1.065638 -0.893711 
yam 0.494106 1.124818 0.865059 0.124244 -0.863414 1.224817 -0.904062 -1.314874 -1.111675 -3.414262 
bitter_orange 0.998147 -2.106429 0.573770 5.490811 -2.612092 2.533272 -0.638180 -1.750532 -1.709256 1.029469 
wheat_bread -1.589915 0.373491 0.949522 -0.140555 0.358982 -0.359619 0.607911 0.612186 0.755360 0.509165 
