249 10
</s> 0.040027 0.044194 -0.038303 -0.032780 0.013666 0.030211 0.009409 0.002113 -0.036035 0.022185 
egg -0.575626 -0.188438 -0.015828 0.685490 -0.445674 0.603813 0.604285 -0.131533 0.554025 -0.259972 
butter -0.486521 -0.261396 0.567068 0.424342 -0.408013 0.232832 0.575873 -0.230290 0.632592 -0.618049 
wheat -0.536146 -0.439461 -0.117449 0.525479 -0.427520 0.554262 0.560333 -0.239344 0.236521 -0.583457 
onion -0.423567 -0.135891 0.354592 0.058204 1.351493 -0.603273 -0.562107 -0.399711 0.124239 0.319528 
garlic -0.336277 -0.389586 0.296409 -0.600752 1.432412 -0.558601 -0.832860 0.254405 0.126216 -0.169860 
milk -0.859769 -0.284041 0.224499 0.474926 -0.773178 0.599180 0.807222 -0.484719 0.583390 -0.579728 
vegetable_oil 0.157326 0.355314 0.029463 0.178090 0.991419 0.390605 0.312285 -0.272475 0.471398 0.116937 
cream -0.594386 0.268495 0.599857 0.330954 -0.483318 0.694398 0.235726 0.002560 0.952567 -0.022256 
tomato -0.989166 -0.605704 0.346442 -0.672110 1.341232 -0.653226 -1.393858 -0.099364 0.008306 0.830158 
olive_oil -0.406314 -0.967237 1.266874 0.004167 0.800180 -0.391511 -0.945273 1.245842 -0.550178 -0.062266 
black_pepper -0.143367 -0.110481 0.627335 -0.019875 1.107330 -0.571682 -0.843680 0.255373 0.263840 -0.559164 
pepper -0.232827 -0.231074 1.063443 -0.221600 1.267649 -0.631691 -0.213878 -0.472845 0.371504 0.547461 
vanilla -0.618960 -1.263044 -0.246841 0.195302 -1.347839 2.044520 1.165014 -0.788571 0.854567 -0.735294 
cayenne 0.062636 -0.338093 -0.289588 -1.359307 1.840541 0.081058 -1.154426 -0.494807 0.078343 0.158207 
vinegar 0.363493 0.511258 -0.433945 0.857184 1.573308 0.267919 -1.200537 -0.207106 0.702480 0.621340 
cane_molasses 0.033184 -0.483093 -0.897738 0.732637 0.146705 0.365291 -0.394246 -1.544422 0.999710 -0.094323 
bell_pepper -0.369810 -0.495027 0.453071 -0.848369 1.521104 -0.456103 -0.821338 0.005275 -0.066802 0.274222 
cinnamon 0.715015 -2.041478 0.146652 -0.026280 -0.400030 0.291076 0.584748 -1.036186 1.435172 -1.083136 
parsley -0.793788 -0.051301 1.109879 0.393189 0.430809 -0.562188 -0.167064 0.910882 0.127830 -0.336126 
chicken 0.024236 -0.220913 0.874552 -0.671994 1.278722 -0.240635 0.021997 -0.249701 -0.025038 0.043574 
lemon_juice 0.476225 -0.012306 1.057946 0.399255 0.369523 0.766343 -0.120379 0.777440 0.344256 0.163534 
beef -0.602752 -0.250651 -0.788055 0.379812 1.362124 -0.912844 -1.102214 -0.402761 0.114901 -0.307245 
cocoa -0.905664 -0.621836 -0.322823 0.194338 -1.193196 1.824217 0.949738 -1.304909 0.708173 -0.595013 
corn -0.678614 0.176211 -0.380869 -0.325482 0.874246 0.143485 -0.843721 -1.462156 0.215978 0.609874 
bread -1.013729 -0.066025 0.758584 0.727902 0.244824 -0.282192 -0.651496 0.238084 0.022228 0.390636 
scallion 0.159900 0.683068 -0.560251 -1.035158 2.055938 0.683919 -0.275474 0.755134 0.397597 -0.394360 
mustard -0.035777 0.895096 0.009297 1.411396 1.004656 0.197237 -0.782864 -0.380849 1.106358 0.848906 
ginger 1.765466 -0.038340 -0.037575 -0.910463 1.517099 0.647059 -0.048856 -0.611033 1.247348 -1.738561 
basil -1.740092 -1.045571 1.142752 -0.655511 0.558947 -0.777290 -0.957477 1.340578 -0.921309 -0.118333 
celery -0.561636 -0.164156 1.126582 0.588264 1.169555 -1.401179 0.020788 -0.112468 0.566208 -0.215411 
carrot 0.383392 -0.339039 0.633387 0.394468 1.720398 -1.222225 0.544892 -0.079428 0.234851 -1.061100 
potato -0.716542 0.015980 0.965612 0.422062 0.958201 -1.347404 0.422587 -0.228802 0.565583 -0.517538 
chicken_broth 0.017090 -0.756295 1.867616 -0.348840 1.015314 -1.233018 -0.022467 -0.166059 -0.113593 -1.185416 
yeast -1.059194 -0.437488 -0.101819 0.810704 -0.558263 0.533923 0.192138 -0.448686 -0.795908 -0.382155 
rice 0.678321 0.412637 -0.064876 -0.882915 2.145063 0.264308 0.669004 -0.177944 -0.012631 -1.128258 
mushroom -1.466637 0.007259 0.613853 -0.163500 0.821556 -0.932141 -0.071586 0.455202 -0.317887 -0.819417 
cheese -1.844688 -0.277672 0.424295 -0.268721 -0.088725 0.092649 -0.837265 0.418208 -0.674194 0.401844 
soy_sauce 0.964180 0.886872 -1.604884 -0.699781 2.597863 0.781786 -0.099881 0.223021 0.293412 -1.654212 
cumin 1.093940 -1.039674 1.242091 -1.856968 2.506056 -0.145014 -0.071066 -1.442808 0.042448 0.898195 
oregano -1.581773 -1.244231 0.486630 -0.859086 0.929652 -0.939720 -1.421570 0.230622 -0.837371 0.294094 
parmesan_cheese -2.374836 -0.357534 1.543325 -0.205757 0.026524 -0.442159 -0.367096 1.326370 -1.264368 -0.007236 
macaroni -2.078473 -0.520478 1.090338 -0.537724 0.654237 -0.623894 -0.300547 1.486432 -0.975491 0.346466 
thyme -0.869086 -1.017156 1.705116 0.549543 0.527239 -1.810926 -0.910786 0.143586 -0.478829 -1.356975 
cheddar_cheese -2.286706 0.299503 -0.136582 -0.198074 0.889876 -0.546143 -0.028891 -0.810183 -0.394128 1.128287 
lard -0.565176 -0.762678 -0.414560 0.499637 -0.657771 0.752959 0.628989 -0.520157 0.284495 -0.365627 
lemon 0.581250 -0.235009 1.255458 0.132070 -0.014115 0.805764 -0.440529 0.717630 0.696243 -0.286478 
cream_cheese -1.125989 0.180680 0.038085 0.144012 -0.762963 1.255080 0.307782 0.083640 0.756981 0.281847 
walnut 0.414146 -1.672288 -0.230656 1.208854 -0.637080 1.152678 0.549189 -0.316527 0.393504 -0.053147 
green_bell_pepper -1.389073 -0.141977 0.350539 -0.776704 1.574290 -0.930159 -0.778811 -0.606392 -0.097933 0.837189 
starch 0.442776 0.497685 -0.385707 0.229296 0.489666 0.632994 0.246112 -0.166907 0.587280 -1.273687 
nutmeg 0.159440 -2.070068 0.017348 0.697531 -0.749003 -0.289138 0.370394 -0.528217 1.321850 -1.033590 
honey 1.313642 -0.690293 -0.395911 0.776897 0.845077 1.119965 -0.271385 -0.458152 -0.054739 -0.277908 
apple 1.063973 -1.253628 0.370587 1.476568 0.057399 0.534803 0.275218 -0.870915 0.588679 -0.018995 
almond 0.658058 -0.699646 0.609065 0.953460 -0.330996 1.294929 0.751424 -0.124068 0.306577 -0.536181 
cilantro 0.766217 -0.433889 0.932762 -2.383004 2.071095 0.874108 -1.004271 -0.536622 -0.029290 0.567307 
pecan 0.049448 -1.286129 -0.501785 0.883940 -0.863766 1.277244 0.285194 -0.845496 0.912408 -0.337148 
white_wine -0.171066 0.016776 1.659136 0.229298 0.566387 -0.409977 -0.716947 1.346829 0.212017 -0.816899 
bacon -1.116790 0.073941 0.130900 1.074430 0.805069 -0.827321 -0.510906 -0.027241 0.102359 0.167783 
pork 0.279710 -0.267920 -0.613964 0.466492 1.292921 -0.705171 -1.605578 -0.873592 0.050443 -1.229804 
raisin 0.906235 -2.033491 0.108561 0.556911 0.043423 0.661838 0.961326 -0.914891 0.301913 -0.304712 
bean -0.505498 -0.412986 -0.259537 -0.477836 1.709090 -0.735587 -0.748339 -0.431810 -0.064879 0.012742 
rosemary -1.050590 -1.763237 1.830842 0.636883 0.401103 -1.809143 -1.146106 0.424589 -0.805031 -0.702006 
fish 0.444111 0.577548 0.065413 -1.277454 1.567976 0.642685 -0.702661 1.181290 0.759759 -1.313020 
cucumber 0.310143 1.769183 -0.150899 0.708103 1.183941 1.767344 0.264954 0.843729 0.395414 0.579796 
olive -1.206867 -0.495564 0.810030 -0.066599 0.980374 -0.022582 -1.020251 0.843458 -0.545383 1.295882 
coconut 1.032235 -0.779070 0.511413 -1.536843 0.393991 1.525356 1.373230 -1.452494 1.681974 -0.101078 
orange 1.220436 -0.838583 0.752300 1.032605 -0.525387 1.658352 -1.040054 0.064747 0.614420 -0.464473 
tamarind -0.758529 0.696550 -0.951000 0.539782 1.168468 -0.633278 -1.800205 -1.626900 1.393897 0.672199 
vegetable 0.162236 -0.085470 -0.551751 -0.110119 1.677681 -0.430068 0.733999 0.713996 0.202751 -1.301375 
orange_juice 1.735366 -1.119890 0.698455 0.463697 0.137058 1.537743 -0.822399 -0.331771 0.597708 -0.055695 
buttermilk -0.810072 -0.454880 0.129497 0.730129 -0.631869 0.789621 0.516740 -0.358052 -0.125863 -0.084785 
pineapple 0.937167 -0.261258 0.092229 0.247913 0.062732 2.048595 -0.189104 -0.689778 1.282696 0.484103 
shrimp -0.480779 1.240838 0.321746 -1.639506 1.216665 0.218273 -1.324066 0.654655 1.195553 -1.842704 
coriander 2.323739 -1.324272 2.069249 -1.600262 2.714699 -0.096955 1.140902 -1.083906 0.933255 0.585385 
bay -0.098205 -0.279632 1.967025 -0.192137 1.084139 -2.012360 -1.426888 -1.023495 1.226784 -1.510597 
lime_juice 0.908329 0.469794 1.045079 -2.454054 1.859216 2.115814 -1.681749 -0.910994 -0.014133 0.616814 
red_wine 0.341333 -1.135099 0.446086 1.013801 0.990975 -0.740104 -1.440465 0.618567 0.096898 0.069375 
gelatin 0.291571 -0.293226 0.292728 0.479941 -0.810180 2.632466 0.698024 -0.148291 0.569829 -0.282427 
pork_sausage -1.971418 -0.935508 0.699593 0.065904 0.366886 -1.256654 -1.740059 -0.596998 -1.687900 -0.883273 
sesame_oil 1.165279 0.628551 -2.233375 -1.680418 3.543060 1.151722 -0.058601 0.929810 0.281645 -2.540080 
chive -0.594758 0.997292 0.868185 1.184060 -0.104381 0.487499 0.472487 1.060773 1.764292 0.611253 
seed 0.977034 -0.285861 0.481954 1.681031 1.290196 0.617381 -0.057034 -0.831934 -1.168195 0.409981 
mozzarella_cheese -3.090975 -1.145406 0.122236 -0.329716 0.181384 -0.537743 -1.108713 1.217149 -1.849525 0.479606 
ham -1.492820 0.476662 0.581705 0.864888 0.299349 -0.291260 -0.750015 0.321730 -0.315908 0.109826 
oat 0.108156 -1.789846 -1.042659 1.202701 -0.335789 1.404341 1.568749 -1.777101 -0.318446 -0.709036 
turmeric 2.095784 -0.726194 2.703208 -2.446861 2.804804 -0.057838 2.038489 -1.062478 1.308599 0.388134 
nut 0.455328 -0.836043 -0.309930 0.387790 0.697881 0.655661 0.738265 0.510425 -0.632287 -0.599251 
shallot 0.524859 -0.397751 1.847909 0.400922 0.503192 -0.412945 -1.326739 1.402288 0.988980 -1.082792 
lettuce 0.346954 0.154256 -0.140182 0.542501 1.646291 1.176779 -0.511077 1.138531 -0.239307 1.568549 
cider 1.146261 0.058762 -0.350569 1.959880 1.451396 0.299827 -1.180255 -0.879163 0.433479 0.682930 
dill -0.321530 1.046983 1.091029 1.263053 1.143642 0.111515 0.312483 0.903863 0.659984 0.758615 
pea -0.138238 0.161486 1.041482 -0.443992 1.965718 -0.829173 0.813227 0.244910 0.339465 -0.023039 
zucchini -0.437121 -1.699428 1.185452 -0.402175 0.970204 -0.754953 0.669132 0.188875 -0.926480 0.460997 
cherry 0.459227 -1.463053 -0.225825 0.809611 -1.147742 1.988028 0.000847 0.185211 1.538241 0.329391 
lime 0.893745 0.436222 1.063227 -1.829980 0.808153 2.253541 -1.623550 -0.708705 0.257378 0.185828 
yogurt 1.402026 -0.778674 1.406476 0.245143 0.817733 1.342640 0.873643 0.357659 -0.047105 0.771439 
strawberry 0.385080 -0.469380 0.722708 0.567461 -1.239895 3.996510 -0.129256 1.126733 -0.446846 -0.589572 
soybean 0.931079 0.271742 -1.712016 -0.907820 2.856791 0.752602 0.587362 0.943020 -0.200424 -2.209201 
celery_oil -0.762024 0.731971 -2.025800 0.821985 1.595904 -0.317519 -2.687146 -2.169290 0.918660 0.809925 
peanut_butter -0.180647 0.282641 -1.109746 -0.954641 0.962012 1.621033 2.325309 -1.798831 -0.331521 -0.541063 
banana 0.497918 -0.802220 0.201793 -0.101319 -0.579313 2.684091 0.984465 -0.495950 0.466895 -0.161985 
meat -0.404732 -0.623172 0.287827 0.565510 0.840181 -1.150769 -1.121426 -0.570257 -0.048122 -0.840817 
tabasco_pepper -0.978507 1.088724 -0.276482 -0.019142 1.213225 -0.173270 -1.484065 -1.114882 0.872115 0.763053 
milk_fat -0.855194 -0.373610 0.764895 0.516922 -1.312429 0.458329 0.103990 0.316980 0.800963 -0.997721 
cabbage 0.732746 0.304958 -0.309262 1.072509 2.321492 -0.493266 -0.040834 -0.463014 -0.169947 -0.398801 
mint 1.360143 -0.667036 1.534565 -0.692082 0.748957 1.556841 -0.345408 0.875284 -0.084196 0.141841 
fennel -0.821189 -1.679831 2.040561 0.120440 0.087582 -1.048011 -1.770010 0.661137 -1.097325 -1.223803 
sage -1.093352 -1.394655 2.125378 0.890768 -0.097952 -2.126195 -0.640879 -0.563129 -0.776919 -1.640493 
broccoli -1.149526 0.188440 0.581422 -0.376068 1.468265 -0.025971 1.439886 0.520726 -0.882328 0.663892 
turkey -0.550775 -0.548811 0.967763 0.802761 0.845700 -0.708667 -0.722320 -0.706408 -1.000171 0.060640 
fenugreek 2.159215 -0.621846 2.585869 -2.218615 2.840561 -0.099824 1.403964 -1.632582 1.180987 0.482147 
cranberry 0.895251 -1.286516 0.151965 1.898945 -0.510390 1.299118 -0.754435 -0.394638 0.057940 -0.054588 
wine 0.789967 0.152290 0.799014 0.054658 0.805847 0.468527 -1.024616 0.453627 0.111939 -1.153955 
beef_broth -0.270861 -0.601205 -0.325660 0.620671 1.364630 -1.519961 -1.222409 -0.285872 -0.033796 -1.669037 
grape_juice 0.402197 -1.134735 0.460556 1.086926 0.782140 0.070119 -1.106592 1.198947 -0.479076 0.304195 
pumpkin 0.445978 -1.023944 -1.214283 -0.013083 -0.000404 0.036733 1.187920 0.193247 1.447372 -2.182968 
raspberry 0.191076 -0.382985 0.574336 0.974784 -1.373574 3.008186 -0.126107 1.033850 -0.288821 -0.822236 
whole_grain_wheat_flour -0.294227 -1.148521 -0.810657 1.134090 0.142522 0.917136 0.874007 -0.555915 -1.546587 -0.095549 
lemon_peel 0.503765 -0.968288 1.347652 0.604982 -0.555249 0.779498 0.388256 1.153426 0.568475 -0.565290 
coffee -0.960336 -0.472288 -0.429351 0.144908 -1.311252 1.111093 -0.072446 -1.181503 1.127615 -0.726576 
sesame_seed 1.207236 0.570542 -0.886628 0.310085 2.101537 1.189563 1.086750 0.599420 -0.331576 -0.743818 
avocado 0.094715 0.265968 -0.008787 -0.965587 1.703340 1.828450 -2.094313 0.308884 -0.538416 1.685646 
sherry 0.498631 -0.111416 0.880835 0.643272 0.541938 -0.119833 -0.733135 0.656489 0.421298 -1.016338 
sake 0.743515 0.982227 -2.659729 -0.789552 2.579476 1.283921 -0.707835 1.080531 0.389712 -2.901261 
feta_cheese -0.389752 -1.274777 0.847153 0.207662 0.813554 0.669792 -0.556038 2.143492 -1.187833 1.604478 
apricot 1.224602 -1.579790 1.003408 0.817296 -0.409367 0.733422 -0.054661 -0.812348 0.553570 -0.887061 
roasted_sesame_seed 0.636320 0.521027 -2.324099 -0.798094 3.763013 0.859078 0.615813 2.783122 -0.544495 -2.006809 
rum 0.608802 -0.948318 0.346399 -0.332746 -1.236308 2.464394 -0.651814 -0.840042 1.196624 -0.791890 
orange_peel 1.335879 -1.606822 0.601470 1.211791 -0.624800 1.148696 -0.418816 0.237525 0.710341 -1.009813 
squash -0.222082 -2.174618 0.840729 -0.131336 0.911326 -1.501220 0.734738 0.249854 0.110680 -0.081524 
crab -0.959033 2.265093 1.077881 -0.880184 0.415090 0.428772 -0.900532 0.158593 1.768868 -0.737299 
marjoram -0.747526 -1.177278 2.363053 1.403016 0.537595 -2.208328 -0.294353 -0.239867 -1.094642 -0.894470 
swiss_cheese -2.145252 1.329280 0.589323 1.692004 0.268979 -0.235775 0.438997 -0.102012 -0.832039 0.322900 
sweet_potato 0.994753 -1.667374 0.458552 -0.106349 0.458477 -0.461108 0.333719 -1.310673 1.481193 -0.963476 
shiitake 0.047565 0.499600 -0.837978 -0.369108 1.903540 -0.218231 -0.044893 2.173123 -0.199593 -3.401958 
radish 0.540214 0.579134 -2.040097 0.104260 2.565212 1.287543 -0.357598 2.850274 0.224871 -1.189051 
peach 0.965040 -0.616911 0.447365 0.254602 -0.595981 2.135319 -0.398008 -0.051750 0.938285 -0.293437 
tarragon 0.007375 0.826065 1.881607 1.285016 0.772492 -0.065096 -0.484360 1.692364 0.564258 -0.221784 
black_bean -0.356397 -1.353182 -0.666039 -2.153471 2.504778 0.222077 -1.366729 -1.131538 -0.817947 1.397136 
lamb 1.736312 -2.217963 1.771753 0.214775 1.485173 -0.700963 -0.500134 0.374762 -0.682511 -0.667681 
maple_syrup 0.440457 -1.085676 -0.515946 1.097077 0.138842 0.225178 0.260703 -0.978116 0.809944 -0.418082 
pear 1.761586 -1.137590 -0.490723 1.044650 0.326112 1.181262 -0.108043 1.251665 0.785923 -1.049862 
fruit 0.964872 -0.973137 0.394427 0.677208 -0.558033 2.085177 0.389331 -0.342529 0.602404 -0.668623 
blueberry 0.523710 -0.602482 0.361754 1.124313 -1.082736 3.678880 1.260861 1.349553 -0.338076 -0.670692 
clam -0.955121 1.694945 1.119651 -1.403851 1.079752 -0.561519 -1.390911 1.857192 0.926100 -3.576112 
smoke -0.658334 0.275388 0.666840 0.924772 0.885606 -0.747914 -1.745322 -0.590774 0.201999 -0.184997 
tuna -0.556691 0.934303 -0.278481 0.120677 1.389106 0.862415 -0.162819 1.006456 0.001411 1.022398 
kidney_bean -0.952544 -1.850293 -1.156644 -0.414410 2.655941 -1.624201 -1.241427 -0.997472 -0.586076 1.085006 
peanut 0.631305 0.808038 -0.971158 -1.262191 1.643618 1.917102 1.146207 -1.657352 0.006698 -0.418898 
asparagus -0.490899 0.348746 1.401265 0.218017 0.560049 -0.116320 0.462421 1.602865 0.377195 -0.453554 
salmon 0.407076 0.935854 0.748073 0.158359 0.971624 1.063632 -0.457016 1.220472 0.356633 -0.067767 
leek 0.126895 0.006642 2.391861 0.820069 1.023036 -1.632502 0.373385 0.738258 0.509887 -2.241076 
chickpea 1.152669 -2.538813 0.859307 -0.787923 2.682841 -0.994226 0.532297 0.383692 -0.238652 0.992069 
blue_cheese -0.601160 -0.334467 0.114856 1.873421 0.088310 0.431662 -1.025111 1.311973 -0.080131 1.025980 
brandy 0.091606 0.032720 0.810312 2.044994 -1.532254 1.150095 -2.386395 -0.539926 1.008020 -1.890734 
artichoke -1.561172 -0.326034 1.408261 0.006688 0.312740 -0.171010 -0.760211 2.135793 -0.556113 0.323844 
horseradish -0.625128 1.894816 -0.158743 1.751819 0.922539 0.385350 -1.237008 -0.411516 1.297315 0.567840 
mango 1.967212 0.003003 1.283090 -1.506033 1.331548 2.605036 -0.748646 -0.330712 0.469088 0.654133 
date 0.754017 -2.757559 -0.304855 1.180030 -0.861017 1.027801 0.289549 -0.797846 0.952864 -0.556929 
cardamom 2.347928 -2.078014 1.420881 -0.141590 0.506995 0.117045 0.363546 -1.325988 0.738719 -1.649749 
white_bread -0.977875 -0.192006 1.238693 1.120305 -0.110855 -0.678195 -0.351428 -0.064708 -0.354223 -0.350519 
oyster -0.003113 1.017882 -0.184341 -1.004208 1.886202 -0.376308 -0.067688 0.768638 0.376641 -3.142828 
cottage_cheese -2.227319 -0.217442 0.297026 0.276316 -0.170522 0.608629 0.269958 0.321521 -1.063797 1.617362 
grape 1.983886 -0.447156 1.560639 0.928013 0.877052 2.360240 0.306216 0.299631 0.207852 1.294963 
brown_rice 0.284400 -0.791896 0.810028 -0.188217 1.625057 -0.777392 0.835522 -0.518445 -0.208428 0.041233 
cauliflower -0.312860 -0.041499 0.930484 0.520142 1.915247 -0.606496 1.845215 0.768798 0.010779 0.974245 
cured_pork -2.497495 -0.641232 1.643250 0.706140 0.118004 -0.759947 -1.737020 1.215599 -2.885996 -0.907817 
egg_noodle -1.658020 0.698642 0.643286 0.112473 0.889787 -0.637006 0.002022 -0.688372 -0.222538 0.224646 
beer -0.290832 0.419625 0.284323 -0.015132 0.964822 -0.471255 -1.939669 -1.885414 0.361865 -0.481803 
hazelnut 0.005410 -1.113685 0.304204 1.576958 -1.202166 0.774888 -0.002807 0.322158 0.336654 -1.052497 
mandarin 1.151658 -0.292371 -0.079445 0.567548 0.324523 3.053817 -0.057822 0.386728 0.014564 1.110327 
romano_cheese -1.981506 -0.780590 1.658378 -0.478694 -0.000337 -0.497106 -0.981189 1.657967 -1.304923 -0.613140 
plum 1.850302 -1.407519 0.713813 1.272583 0.195571 0.310473 -0.921480 -0.665502 0.544669 -1.120585 
pimento -1.185447 0.980674 1.542753 -0.215356 1.298857 -0.001177 -0.273432 -0.092227 -0.362096 1.394381 
smoked_sausage -1.020274 0.102886 0.702155 0.924069 1.740860 -1.997718 -1.055103 -2.001503 -0.050159 -0.530490 
scallop -0.228632 0.965502 2.541180 -1.440879 0.678919 -0.058391 -0.994891 1.593083 1.367579 -1.710665 
goat_cheese -0.489984 -1.091014 0.579804 1.408001 -0.069292 0.243007 -0.939362 1.890713 -0.582569 0.261855 
lentil 0.774377 -1.868297 1.487466 -0.774821 2.412888 -1.513932 1.017682 -0.517070 -1.019194 -0.381765 
currant 0.896735 -2.523612 0.529884 1.549812 -0.808165 0.378164 -0.665076 -0.369123 0.813227 -0.329796 
saffron 1.090925 -1.541926 3.073432 -1.007909 0.782557 -0.896016 0.243960 0.851685 0.276874 -1.975553 
barley 0.822278 -0.574461 -0.162658 0.812371 2.096062 -0.607245 1.253229 -0.050127 -1.082791 -1.332644 
caraway 0.898781 1.405551 2.500617 2.935097 1.430237 -0.052518 -0.338399 -2.589536 -2.500156 -1.429299 
beet 1.420447 -0.638611 0.441613 2.855013 1.469793 -0.140669 -0.528553 1.316306 0.715784 0.603897 
squid -0.349178 1.248158 -0.811398 -2.006208 1.847676 0.786742 -0.303079 2.778634 0.302098 -3.930709 
corn_flake -1.029615 0.325822 0.247976 0.317234 0.146759 0.106487 1.379862 -1.149473 0.713467 0.123083 
anise 0.861077 -0.970781 0.760937 0.320310 -0.517162 0.710595 -0.519913 -0.033589 -0.488709 -2.735565 
roasted_beef -0.641064 0.385219 -0.047460 1.476798 0.925487 -0.897910 -1.361630 -0.478060 -0.251151 -0.665119 
pistachio 0.895151 -1.089579 1.108789 0.624327 -0.706181 1.543898 0.246598 0.326828 0.669609 -0.595374 
peanut_oil 1.151999 0.915284 -0.007331 -1.842397 2.501599 0.650514 0.308539 -0.453242 0.672760 -1.301472 
cereal -0.357918 -1.425925 -1.352388 0.291619 0.778342 1.250261 2.117425 -1.967647 -2.223088 -0.688608 
cashew 1.617254 -0.163293 0.750841 -0.113069 1.631125 0.981440 1.833828 -0.318659 0.167500 -0.155437 
veal -0.661626 -0.439412 2.000096 1.349767 -0.333711 -1.434419 -1.353114 0.721176 -0.597549 -2.459343 
seaweed -0.790276 1.178967 -3.079823 -1.061093 2.849567 1.951689 0.414612 3.085144 0.150705 -1.562752 
turnip 1.345639 -1.731070 1.880750 2.427099 1.742980 -2.759441 0.821411 0.530003 1.864196 -1.306096 
sauerkraut -1.201924 2.436730 0.733274 3.258837 0.733179 -0.417742 -1.748139 -3.044877 -2.249940 -2.263105 
berry 0.480138 -1.091413 1.016678 1.746944 -1.127724 2.244792 0.219104 0.491584 -0.121143 -0.103259 
kelp 0.005720 1.069347 -2.535635 -2.107199 3.185931 1.571112 0.608884 3.285565 1.157268 -3.682502 
tomato_juice -0.874157 -0.129467 -0.495550 0.417556 1.594986 -1.381398 -1.376994 -1.017259 0.414020 0.323102 
cod 0.127859 0.753047 1.442645 -0.627926 1.326771 -0.480283 0.003373 0.472992 0.539507 -1.337266 
provolone_cheese -3.098894 -0.879439 0.335478 0.784025 -0.185710 -0.349878 -2.130472 1.488437 -1.687690 0.460638 
mussel 0.654431 0.214813 2.230127 -1.829157 1.441445 -0.766992 -1.603187 1.951607 0.818258 -3.675797 
blackberry -0.264043 -0.780561 0.327493 1.478740 -1.849334 3.279787 0.109301 1.133980 -0.707765 -1.042001 
roasted_peanut 1.335625 0.424938 -0.068950 -2.278948 2.003453 1.775235 0.722065 -2.054147 -0.836611 -1.427529 
rhubarb -0.340370 -0.992161 -0.350677 0.919003 -1.669786 2.228475 0.779611 0.644641 0.829905 -1.039270 
chinese_cabbage 0.883774 0.552759 -2.597208 -2.059947 4.055474 0.462907 -1.053217 3.173093 1.038055 -4.225518 
corn_grit -1.557303 -0.327841 0.675403 -1.663691 0.767149 -0.681090 -1.635873 -0.771894 0.126049 -0.103476 
chicory 0.497292 -0.293763 0.544723 2.315837 0.961052 0.819219 -1.721730 3.087936 -0.495554 -0.041254 
bourbon_whiskey -0.632428 -1.131780 -0.941822 -0.589822 -1.317835 0.048694 -2.112571 -1.804364 3.832146 -1.525427 
citrus 1.345038 -0.735906 0.943461 1.164380 -1.077031 2.256868 -1.276481 0.098426 0.670896 -1.798993 
lima_bean -0.552534 -0.638939 0.575189 0.491829 2.294074 -2.186401 -1.251307 -1.352727 0.972492 0.669591 
lovage -0.781908 2.241449 -0.043345 -0.240799 0.021392 -1.667211 -1.901716 -0.766687 5.676980 -1.898952 
melon 2.115259 -1.244589 0.662422 -0.670012 0.834175 4.033199 -0.951387 0.907808 0.229850 0.853404 
parsnip 1.298601 -1.028636 2.008648 2.623379 1.681645 -2.469600 0.979478 0.176696 0.869943 -1.647115 
fig 0.758616 -2.559429 0.716553 1.504349 -1.209790 0.904108 -1.520781 0.603095 0.066335 -0.609327 
lemongrass 2.359145 0.970562 2.549181 -4.449897 2.818302 1.633263 0.244529 -1.068306 -0.382032 -2.705286 
whiskey 0.252080 -1.153529 -0.591175 2.032171 -0.560510 1.239541 -3.001561 -2.503682 0.684226 0.676323 
watercress 1.308420 -0.560462 0.478483 0.982930 1.414770 0.837025 -1.640976 1.530275 0.752049 0.660576 
tequila 0.331314 0.144254 -0.353662 -1.971838 0.189687 3.028580 -3.516942 -0.526333 1.177865 0.360073 
rye_flour -0.871559 0.140576 -0.296485 3.286182 0.050918 0.730995 -0.628288 -2.137532 -3.530081 -1.031099 
peppermint -0.525185 0.652898 -0.397210 -0.088851 -0.853740 2.333570 1.156088 0.447097 0.825565 -0.545225 
savory 0.029992 -1.789768 1.589631 0.711437 0.662236 -1.579483 -0.900298 0.599298 -0.761592 -1.480647 
lobster -0.082660 0.552250 2.494150 -1.081113 -0.230837 -0.081144 -2.037502 1.201423 1.184892 -2.601794 
roasted_pork 0.865699 -0.958097 -0.016649 1.376552 1.005123 -1.034350 -1.696883 -1.583651 0.014129 -0.879993 
mace 1.141186 -2.237194 -0.014792 0.616687 -0.376004 -0.023260 -0.218238 -0.695815 1.203616 -1.820901 
endive 0.516103 -1.426112 1.405690 2.236139 1.085685 -0.199757 -1.429356 2.395079 -0.606103 0.481518 
brassica 0.320555 -0.678688 -0.904437 1.142372 2.039643 -0.744275 -1.058500 0.816078 -0.715312 -1.788975 
grapefruit 1.888619 -0.438857 0.590606 0.590383 0.501255 2.519472 -1.803809 0.471558 0.718959 0.717651 
enokidake -1.204170 1.283968 -4.052684 -0.327736 2.745311 0.801572 -0.800903 2.386723 -0.130860 -4.823053 
porcini -1.235833 -1.672119 1.793644 0.948571 0.084611 -2.576185 -0.434888 2.093467 0.150609 -2.433297 
kiwi 1.463614 -0.259612 0.427662 -0.080128 0.082073 4.168377 0.346204 0.915674 0.034672 0.139852 
wasabi 0.248557 3.144310 -1.548270 0.796675 3.151541 2.090328 -0.341584 2.291305 0.955660 -0.919309 
watermelon 1.812115 0.097118 2.271628 -0.518106 0.210094 3.737064 -2.009491 0.196069 -0.442260 -0.439536 
lime_peel_oil 1.460189 0.213714 1.564333 -2.121758 0.974299 3.241803 -1.713958 -0.103573 -0.267589 0.580398 
okra -0.044064 -0.376452 0.903560 -1.132225 1.908393 -1.534029 -1.146668 -1.374582 1.081715 -0.346631 
macadamia_nut 0.167310 -0.455790 -0.645802 -0.610845 -0.261916 2.012919 0.849311 -0.781328 0.794475 0.002222 
smoked_salmon -0.705128 1.877715 1.286796 1.605755 0.597893 1.171439 0.319240 1.922453 0.074772 0.679058 
kale -0.303292 -1.304284 0.777987 1.107573 1.583770 -2.267399 -0.449706 0.830240 0.388891 -0.938905 
popcorn -0.990679 -0.348214 -0.141996 -1.322238 0.541027 1.244624 1.809022 -1.953699 -0.462063 0.415928 
rye_bread -2.087985 1.933087 1.063365 3.228557 0.459056 0.033733 -1.482215 -1.442559 -0.755514 1.206271 
star_anise 2.510533 -0.939599 0.091510 -0.447011 1.149942 0.620012 -0.957470 0.273999 1.155009 -2.037373 
brussels_sprout -0.049091 -0.471564 1.238766 1.842530 0.797302 -0.599503 0.920484 0.792009 -0.014186 0.175089 
tea 1.156832 -0.379871 0.937520 0.268341 -0.315920 1.623432 -0.632176 -1.040559 0.439847 -1.111735 
thai_pepper 0.938019 0.519906 -0.155940 -4.469476 3.027545 1.569600 0.158453 -1.432923 1.843789 -0.740160 
champagne_wine 1.335188 0.376779 1.276654 1.935098 0.211040 1.542595 -1.672022 1.406184 0.711565 -0.129257 
anise_seed 1.616507 -1.089692 0.942191 0.588593 0.082082 1.420095 -0.739414 -1.276222 -0.830074 -0.917042 
yam 1.370094 -1.674884 0.672211 0.479453 0.997523 -0.905701 1.255663 -0.561637 2.257276 -0.921316 
bitter_orange 0.250709 -1.124699 3.522080 0.430163 -2.702343 1.703436 -1.742724 0.436379 2.989286 -1.202372 
wheat_bread -1.189068 0.266722 -0.156003 0.814179 0.939272 0.381180 0.447299 -0.375251 -0.549389 1.120718 
