249 10
</s> 0.040027 0.044194 -0.038303 -0.032780 0.013666 0.030211 0.009409 0.002113 -0.036035 0.022185 
egg -0.160706 -0.189651 -0.170245 0.218042 0.093184 0.621273 0.168160 0.523387 1.208830 0.075303 
butter -0.628780 -0.593460 0.163750 0.252531 -0.089856 0.441282 0.052286 0.054664 1.196892 0.011059 
wheat -0.352494 -0.531019 -0.358599 0.049633 -0.110915 0.573508 0.083425 0.479512 0.809462 0.288287 
onion -0.570999 0.054713 -0.313515 -0.121685 1.018121 -0.503678 -0.459320 0.107402 -0.751432 -0.539314 
garlic -0.536735 0.264759 -0.377928 -0.434735 1.001826 0.070700 -0.391162 -0.347769 -1.111038 -0.519240 
milk -0.637005 -0.513227 -0.155165 0.617514 -0.151881 0.630914 -0.005202 -0.056460 1.266800 0.576819 
vegetable_oil 0.166889 0.010940 -0.188460 -0.355866 0.891712 0.091022 0.448083 0.867035 0.064010 -0.560965 
cream -0.233218 0.005964 -0.080534 0.713489 0.290242 0.170626 0.725614 0.210512 0.781734 -0.018834 
tomato -1.001503 0.444991 -0.681159 0.436971 0.976955 -0.677237 -0.530119 -0.227673 -1.480105 0.105093 
olive_oil -1.015564 0.118945 1.164194 0.444110 0.649055 -0.034317 0.041143 -0.666962 -1.296221 -0.629962 
black_pepper -0.581982 -0.037396 0.069739 -0.181533 0.689081 0.025374 -0.833687 -0.246615 -0.672185 -0.975381 
pepper -0.968357 -0.086285 -0.017947 -0.356105 0.941327 -1.003039 0.187290 0.070180 -0.589069 -0.593975 
vanilla -0.733882 -1.468765 -1.056196 0.700411 -0.689495 1.593823 1.293635 0.507483 1.723170 0.617940 
cayenne -0.482309 0.405522 -1.376730 -0.487132 1.113677 -0.044251 0.033293 -0.461739 -1.477701 -0.707537 
vinegar 0.504109 0.410417 -0.597761 0.535456 1.225632 -0.098570 -0.294533 1.670106 -1.130255 -1.014964 
cane_molasses -0.405108 -0.824569 -1.342029 -0.012956 -0.199227 -0.081898 -0.252052 1.545471 0.307789 -0.409226 
bell_pepper -0.854513 0.328662 -0.096931 -0.138837 0.987127 -0.415055 -0.092349 -0.305125 -1.278568 -0.403100 
cinnamon -1.203975 -1.841065 -0.810706 -0.107134 -1.137262 0.473401 0.323322 0.013441 0.118310 -0.573085 
parsley -0.454362 0.011056 1.124320 0.470728 1.045779 -0.097377 -0.282729 -0.608801 0.210143 -0.480497 
chicken -1.015815 0.248979 0.161307 -0.810357 0.552889 -0.213260 0.302122 -0.158995 -0.482257 -0.366360 
lemon_juice 0.126967 0.107151 0.828594 0.624215 0.351562 0.292552 1.105824 0.281040 -0.344687 -0.903188 
beef -0.273578 -0.117304 -0.725026 -0.038011 0.930100 0.018757 -1.605726 0.452156 -1.100333 -0.274491 
cocoa -0.725963 -0.923743 -1.346651 0.492989 -0.472724 1.351677 0.991320 0.809206 2.138546 0.526435 
corn -0.485098 0.145052 -1.514222 0.303418 0.728191 -0.661782 -0.131953 0.709904 -0.760449 0.479835 
bread -0.699130 0.335883 0.450261 0.786456 0.767648 -0.419942 -0.415958 0.423565 0.216072 0.093011 
scallion 0.309339 0.851346 -0.687448 -0.911589 1.726930 1.268407 0.080891 -0.196707 -0.697241 -0.838948 
mustard 0.343990 0.119997 -0.207712 0.652236 1.046242 -0.574942 0.123694 1.475472 0.184972 -1.201298 
ginger -0.153810 -0.111167 -1.440451 -1.464314 0.130359 1.575410 0.591034 -0.274494 -0.931304 -2.091641 
basil -1.544276 0.668443 1.025413 0.875106 0.779860 0.156389 -0.889280 -1.406528 -0.850261 0.852516 
celery -1.156086 -0.616791 0.618443 -0.563346 1.157250 -0.833986 -0.722993 0.201459 -0.143611 -0.910996 
carrot -0.641192 -1.077628 0.669940 -1.408877 0.949432 0.178715 -0.628355 -0.160251 -0.602981 -1.048863 
potato -0.742567 -0.633620 0.745604 -0.474271 1.253779 -0.548741 -0.868228 -0.420521 0.296952 -0.832315 
chicken_broth -1.473884 -0.604183 0.701210 -0.810986 0.489090 -0.331283 -0.615613 -0.910113 -0.477125 -0.996331 
yeast -0.400014 -0.666569 -0.111226 0.913085 0.106720 0.359497 -0.237827 0.179623 0.838192 1.191480 
rice -0.101822 -0.218431 -0.362197 -1.653346 1.253714 0.992604 0.197581 0.079064 -0.850258 -0.894862 
mushroom -1.246634 0.625733 0.383522 -0.525747 1.028948 0.253247 -1.264822 -0.704024 0.339035 -0.145076 
cheese -0.981049 1.154936 -0.188970 0.836018 0.722293 -0.043212 -0.430194 -0.436997 -0.058458 0.880354 
soy_sauce 0.782391 0.277468 -1.303822 -1.584652 1.379982 2.052704 -0.240531 0.675134 -1.345138 -1.474908 
cumin -1.450791 -0.699054 -0.909616 -1.249775 0.947560 -1.559698 1.567427 -0.678600 -2.066883 -0.845914 
oregano -1.277680 0.185760 -0.128380 0.684172 0.747884 -0.570901 -1.178009 -0.765526 -1.858227 0.669979 
parmesan_cheese -1.331318 0.738739 1.332118 1.085278 1.169554 0.261441 -0.859716 -1.383509 0.340871 0.974348 
macaroni -1.624493 1.430613 0.777750 0.526273 1.129663 -0.057810 -0.686172 -1.276772 -0.076215 0.552142 
thyme -1.806452 -0.927346 1.564942 0.407903 0.193125 -0.116605 -1.859596 -1.116244 -0.683298 -0.487789 
cheddar_cheese -0.929410 0.616102 -0.622138 0.126838 1.755708 -1.030726 -0.550181 0.135593 0.519625 1.114733 
lard -0.435347 -0.845350 -0.388832 0.132621 -0.279578 0.633985 -0.035817 0.630507 0.853383 0.659668 
lemon -0.054521 -0.412285 0.649480 1.063196 -0.210336 0.666705 0.833216 -0.349807 -0.233198 -0.788050 
cream_cheese -0.345368 0.174363 -0.366140 1.057877 0.233355 0.192841 0.780476 0.590453 1.315495 0.352100 
walnut -0.875346 -0.868195 0.204909 0.460169 -1.195598 1.216778 0.776942 1.452317 0.562659 0.046426 
green_bell_pepper -0.920925 0.360482 -0.893466 0.042764 1.415849 -0.958350 -0.715154 -0.327105 -0.815593 0.119750 
starch 0.082027 -0.010792 -0.633364 -0.561431 -0.086264 1.270950 -0.082228 0.512599 0.084113 -0.756362 
nutmeg -1.490072 -1.728124 -0.195651 0.051062 -1.133601 0.409664 -0.161476 -0.300128 0.530817 -0.255015 
honey -0.178257 -0.558313 -0.383521 -0.137125 -0.400771 0.828326 0.499838 1.403103 -1.055076 -0.542368 
apple -0.508987 -1.634474 0.216939 0.317672 -0.599115 -0.002562 0.773940 1.398606 -0.068593 -0.805883 
almond -0.493966 -0.754559 0.395555 0.249041 -0.511106 0.745389 1.223789 0.956018 0.511368 -0.374924 
cilantro -0.693092 0.319444 -1.294895 -0.698681 1.124922 -0.367152 1.853562 -1.021185 -2.194948 -0.896989 
pecan -0.845650 -0.799481 -0.770445 0.835252 -1.092059 0.960211 0.374127 1.016880 0.853861 0.222751 
white_wine -0.565547 0.156899 1.304197 0.800515 0.690030 0.149545 -0.336459 -0.971498 -0.068242 -1.374864 
bacon -0.497248 -0.321973 0.340121 0.268015 1.208262 -0.543827 -1.069437 0.413293 0.202202 -0.126217 
pork -0.211759 -0.620408 -0.801701 -0.163735 0.233876 0.180466 -1.409645 0.701039 -1.371593 -1.200714 
raisin -1.424217 -1.609397 -0.154807 -0.328316 -1.262375 0.433874 0.929943 0.713153 -0.209871 -0.287810 
bean -0.962033 -0.236600 -0.700181 -0.719724 1.260961 -0.497002 -0.676387 -0.089852 -1.555908 0.051432 
rosemary -2.098769 -0.882252 1.662549 0.721694 -0.045850 -0.391596 -1.691764 -0.834500 -1.047568 0.544459 
fish 0.608643 0.512479 -0.439615 -0.459995 1.521082 1.466414 0.510473 -1.172050 -0.712911 -1.789975 
cucumber 1.316700 0.602740 0.328717 0.280660 1.580568 0.878040 1.206712 1.018334 -0.005191 -0.832374 
olive -1.080683 1.137710 0.524437 0.962881 1.281970 -0.647811 0.042779 -0.185538 -1.023762 0.213397 
coconut -1.029497 -0.229273 -1.333817 -1.080614 -0.497674 0.573601 2.296721 0.276061 0.683653 -0.920290 
orange -0.439668 -0.651315 0.275936 1.323486 -1.073479 1.081248 0.982373 0.814872 -0.902938 -1.239520 
tamarind -0.091725 -0.012426 -2.330240 0.620390 1.263474 -1.371547 -1.332316 1.382006 -0.281421 -1.143440 
vegetable -0.167819 -0.280446 0.302498 -1.609529 1.007971 1.448756 -0.453695 -0.263296 -0.485278 -0.764419 
orange_juice -0.389503 -0.678311 -0.242221 0.760831 -1.058023 0.703288 1.209156 0.725089 -0.982389 -1.401787 
buttermilk -0.287204 -0.617235 -0.136912 0.462669 -0.026946 0.496310 0.206493 0.232318 0.772329 0.664748 
pineapple 0.189384 -0.170370 -0.963495 0.949149 -0.283108 0.708096 1.507846 1.071725 -0.400376 -0.939770 
shrimp 0.274322 0.973122 -1.345656 0.155176 1.781084 0.782322 -0.043807 -1.895116 -0.222593 -1.936254 
coriander -1.712246 -0.861245 -0.146498 -2.200985 0.504114 -0.988110 2.609468 -0.579308 -1.280228 -1.897398 
bay -1.203733 -1.489636 -0.153940 0.472968 0.560688 -0.945144 -1.644103 -1.383526 -0.720566 -2.077891 
lime_juice -0.442756 0.997557 -1.811233 0.145294 0.961967 0.150134 2.640208 -0.619103 -2.189032 -1.369606 
red_wine -0.733484 0.018213 0.942850 0.683132 0.067719 0.013110 -0.800118 0.609361 -1.659068 -1.080443 
gelatin 0.064707 -1.065988 -0.519440 1.115993 -0.230149 1.387655 1.680769 0.853042 0.389147 0.267376 
pork_sausage -0.989052 -0.933384 -0.323061 1.552477 1.138813 -0.765218 -2.069645 -1.304144 -0.883080 0.857698 
sesame_oil 0.743264 0.523484 -1.769086 -2.431748 1.743500 3.770139 -0.525875 -0.203051 -2.304293 -1.572618 
chive 0.541999 0.416189 1.038980 0.916283 1.056767 0.108549 0.904755 0.848208 1.509067 -0.945648 
seed 0.354762 -2.005450 0.481820 0.288895 0.850628 -0.368363 0.821549 1.279997 -1.100942 -0.037282 
mozzarella_cheese -1.814412 1.649866 0.597077 1.692564 0.832167 0.302842 -1.666519 -0.943404 -0.489644 2.007919 
ham -0.254073 0.292539 0.595544 0.687245 1.330286 -0.243610 -0.789190 0.553282 0.225547 0.035328 
oat -0.699800 -2.378852 -0.708087 -0.530066 -0.534298 1.070667 0.494027 1.347787 0.694429 1.057431 
turmeric -1.528334 -1.249612 0.126571 -2.875148 1.213071 -0.939406 3.355095 -1.689691 -0.792372 -2.067737 
nut -0.646984 0.001681 0.410744 -0.706846 -0.269909 1.398104 -0.007367 0.767455 -0.659909 0.106274 
shallot -0.543253 -0.003697 1.502440 0.488593 0.289059 0.815097 -0.068165 -0.778696 -0.478439 -2.219954 
lettuce 0.095913 1.639643 0.483503 0.261909 1.455893 0.089664 1.307302 1.850839 -1.235271 -0.233196 
cider 0.204372 -0.577392 -0.082916 0.216061 0.535074 -0.579027 0.005486 1.958284 -1.144062 -1.192143 
dill 0.270610 -0.133184 1.369352 0.495231 2.039514 -0.390298 0.624103 0.203955 0.074279 -0.585956 
pea -1.047122 0.244493 0.479839 -1.337548 1.427621 -0.205200 -0.037465 -0.092684 0.023481 -0.927807 
zucchini -1.599346 -0.235078 0.843449 -0.414603 0.326025 -0.276439 0.232031 -1.001404 -0.535686 0.585486 
cherry -0.639709 -0.425142 -0.602103 1.335212 -1.200266 1.273002 1.183366 1.284449 0.420885 -0.510925 
lime -0.161317 0.260309 -1.467577 0.755863 0.459265 0.209161 2.050418 -0.727819 -1.417151 -1.257727 
yogurt -0.314539 -0.905021 0.934036 0.040335 0.187793 0.079786 2.214269 0.304554 -0.850991 -0.440571 
strawberry 0.338216 -1.422621 0.328885 2.223957 -0.294814 2.349167 2.340360 -0.027513 -0.269597 0.846359 
soybean 0.406459 0.178553 -0.718856 -2.270605 1.292254 2.836093 -0.267999 0.267865 -1.310556 -1.075815 
celery_oil 0.349695 0.066794 -2.828295 0.922031 1.100866 -0.986147 -1.785244 2.378222 -1.657265 -0.680678 
peanut_butter -0.107599 -0.435282 -1.673207 -2.167613 0.628876 1.880471 1.252048 0.793899 0.613201 1.487965 
banana -0.072627 -1.153647 -0.860605 0.556054 -0.569293 1.323033 1.979086 0.432771 0.153302 0.054216 
meat -0.843457 -0.387537 -0.121801 0.181531 0.324459 -0.302733 -1.685816 0.398342 -0.898347 -0.499191 
tabasco_pepper -0.055239 0.329094 -1.875658 0.730109 1.468490 -1.174140 -0.427624 0.505061 -0.582686 -0.783269 
milk_fat -0.563910 0.048924 0.599594 0.954574 -0.441669 1.179385 -0.188757 -0.438154 1.553299 -0.426038 
cabbage 0.266734 -0.808532 -0.236068 -1.028226 1.569414 -0.011409 -0.313029 1.149762 -1.181057 -0.965928 
mint -0.222167 -0.170248 0.596552 0.261556 0.190521 0.862988 2.115151 -0.813907 -1.536532 -0.639609 
fennel -2.164664 -0.398166 1.294862 0.662325 0.040084 0.006597 -1.688616 -1.452547 -0.777819 -0.334149 
sage -1.995916 -1.595608 1.619463 0.104487 -0.087453 -0.561675 -2.138681 -0.481019 -0.294477 -0.049913 
broccoli -1.025483 1.101584 0.838165 -1.121758 1.528913 0.205280 0.555797 0.318811 0.449863 1.031695 
turkey -1.323876 -0.468580 0.627316 0.052931 0.658510 -0.698128 -0.800449 0.230229 -0.984754 0.440063 
fenugreek -2.140771 -0.069317 -0.567591 -2.668867 0.754031 -1.083443 2.755015 -0.889891 -0.350762 -2.111062 
cranberry -0.469299 -1.615327 0.293017 1.538649 -1.098695 0.535438 0.530784 1.373680 -1.116099 -0.334941 
wine 0.160151 0.228842 0.191363 0.119934 0.248920 1.140423 -0.199405 0.203761 -0.928680 -1.367731 
beef_broth -0.394145 -1.076896 -0.165175 -0.492118 0.775489 0.456750 -2.468358 -0.256742 -1.237607 -0.884753 
grape_juice -1.011073 0.692400 1.316923 0.668330 -0.173731 0.601128 -0.398874 0.727145 -1.523360 -0.705014 
pumpkin -0.111034 -1.506736 -0.878475 -1.030068 -0.557535 1.820985 -0.800860 -0.896218 0.338392 -0.482285 
raspberry 0.782279 -1.028084 0.445965 2.497811 -0.545217 2.256103 1.440763 0.188457 -0.177388 0.375410 
whole_grain_wheat_flour -0.136510 -1.582730 0.294773 0.314868 0.285088 0.697920 0.145714 0.992783 -0.108861 1.650458 
lemon_peel -0.921346 -0.253393 1.542859 0.550803 -0.691698 0.963186 1.170241 -0.494345 0.622470 -0.854527 
coffee -0.527714 -0.571539 -1.934346 0.975639 -0.801632 1.143985 0.009725 0.396066 1.186297 0.250695 
sesame_seed 0.783838 0.239454 0.183174 -1.673853 1.076036 1.985262 0.889325 1.361645 -0.963488 -0.478037 
avocado 0.344836 1.094047 -1.070026 1.179024 1.601759 -0.108183 1.657556 0.283787 -2.319801 -0.141297 
sherry -0.770274 0.151098 0.556726 -0.018731 -0.070526 0.409686 -0.264354 0.055345 -0.257503 -1.651535 
sake 1.425812 0.478511 -1.475249 -1.397983 1.690264 3.746970 -1.081009 0.439038 -1.768435 -1.802504 
feta_cheese -0.322440 0.536165 1.921954 1.465347 1.069611 0.097072 1.076675 -0.024202 -1.821158 0.908981 
apricot -1.288477 -1.240484 -0.048063 0.301884 -1.454767 0.559651 0.645217 0.600369 -0.261064 -0.915056 
roasted_sesame_seed 1.042082 0.989419 0.041202 -2.441101 2.367015 4.006234 -0.590332 -0.054289 -1.561487 -0.667078 
rum -0.575066 -0.744390 -1.503858 1.780456 -1.417515 1.570895 1.588894 0.149265 0.148457 -0.701289 
orange_peel -0.873961 -0.598036 0.622048 1.048178 -1.676933 1.449778 0.480901 0.830915 -0.456062 -1.201782 
squash -1.786877 -0.849723 0.792922 -0.745036 0.097133 -0.446334 -0.069501 -0.797190 -0.544559 0.307225 
crab 0.804946 0.331824 -1.221462 0.709819 2.057878 -0.134848 0.365362 -1.413919 1.201483 -1.507915 
marjoram -1.530280 -1.619790 1.988500 -0.026290 0.237209 -0.565516 -1.704973 -0.530980 -0.673645 -0.172477 
swiss_cheese -0.404246 -0.132544 0.880915 0.929631 1.991791 -0.360849 -1.202985 0.536298 1.791681 0.805823 
sweet_potato -1.503696 -1.544605 -0.310836 -1.186463 -0.810238 -0.023976 0.298205 0.140938 -0.655650 -0.977788 
shiitake 0.572081 0.606288 0.252424 -1.363702 1.040851 3.770248 -1.810580 -0.887785 -0.621853 -1.599810 
radish 1.631819 0.595574 0.070288 -0.895482 2.445375 2.948985 -0.071101 0.287390 -1.261444 -1.080516 
peach -0.377052 -0.567866 -0.561355 1.130435 -0.989626 0.948992 1.508947 0.152758 -0.399765 -1.085772 
tarragon -0.128047 0.630914 1.926134 0.983380 1.067848 0.400118 -0.136066 -0.099689 0.282535 -1.901382 
black_bean -1.243969 0.665185 -2.019101 -0.574958 1.127432 -0.316441 0.142037 -0.300485 -2.832018 0.851195 
lamb -1.314801 -1.722137 1.576667 -0.174233 -0.467505 -0.076107 0.278819 -1.038889 -2.441462 -1.153514 
maple_syrup -0.688010 -1.083422 -0.463270 -0.107383 -0.664964 0.326272 0.204907 1.301896 0.184033 -0.454765 
pear 0.251463 -0.162305 0.653457 -0.252059 -0.758473 2.190711 0.456275 1.420640 -0.876981 -1.646214 
fruit -0.335898 -1.372985 -0.217790 0.848336 -0.869324 1.178941 1.140168 0.833141 -0.132298 -0.641897 
blueberry 0.360933 -1.545299 0.355220 1.731841 -0.443977 2.324044 2.442513 0.208635 0.212570 0.735627 
clam 0.503460 0.091506 -0.520221 0.611125 2.184691 1.565742 -1.575124 -3.791852 0.135259 -2.635324 
smoke -0.545534 -0.147763 -0.256396 0.842498 1.016836 -0.700602 -0.977840 0.519271 -0.611539 -1.109873 
tuna 0.522850 1.100150 0.045416 0.269494 1.948903 0.452463 0.586809 0.466936 -0.448501 -0.049561 
kidney_bean -1.944495 -0.331762 -1.354539 -0.541931 1.373248 -1.316202 -1.562631 0.336057 -2.642816 1.030200 
peanut 0.339076 -0.491981 -1.855756 -1.932690 0.878326 1.107559 1.683330 0.814550 -0.523543 0.025930 
asparagus -0.903553 1.171151 1.349236 -0.162623 0.812665 0.677129 0.271457 -0.251889 0.558413 -0.745614 
salmon 0.734283 0.270075 0.827617 0.392781 1.272839 0.532692 1.160457 -0.091339 -0.389141 -1.451118 
leek -1.205296 -1.510300 2.437675 -0.583369 0.854755 0.280760 -0.831174 -1.033461 0.248420 -1.616513 
chickpea -1.508923 -0.586023 0.698082 -1.258419 0.472185 -0.343835 0.984334 -0.355419 -2.539152 -0.126656 
blue_cheese -0.036021 0.796168 1.119095 1.661577 0.561794 0.236277 -0.060219 1.635533 -0.099544 -0.112495 
brandy -0.211364 -0.206333 -0.088731 2.473722 -1.281500 1.905312 -0.847529 1.131656 0.846204 -1.555454 
artichoke -1.179852 1.567739 1.514171 1.347781 0.726061 0.265672 -0.334694 -0.923583 0.009846 0.209536 
horseradish 1.157239 -0.351865 -0.364455 1.341437 2.094436 -0.765108 -0.330416 1.324093 0.106265 -1.110911 
mango 0.144182 -0.243066 -0.728039 0.235134 0.396197 0.530859 3.129762 -0.642099 -1.605863 -1.349451 
date -2.120130 -1.210706 -0.015513 -0.075006 -2.080785 1.236156 0.346552 1.501006 0.522530 -0.552751 
cardamom -1.430875 -2.305479 -0.160002 -1.038020 -1.192779 0.191216 1.124478 -0.463392 -0.670252 -1.977419 
white_bread -0.825151 -0.111881 0.643837 0.566562 0.501356 -0.240961 -0.538325 0.341341 0.400196 0.046489 
oyster 0.178769 0.195195 -0.278375 -1.619025 1.353382 2.438697 -1.434078 -0.905592 -0.615908 -2.046468 
cottage_cheese -1.259470 1.157230 0.247356 0.944461 0.577681 -0.249631 0.235337 0.220148 0.833697 1.840283 
grape -0.172408 -0.720799 1.028177 0.790056 0.019088 0.585968 2.470473 1.486509 -1.370652 -0.556096 
brown_rice -1.347589 -0.451431 0.563337 -1.161988 0.772532 -0.452766 0.182978 0.240221 -0.561701 0.199448 
cauliflower -0.888580 0.265211 1.825197 -1.507608 1.439315 -0.264319 0.658024 0.439167 0.608425 -0.431291 
cured_pork -1.528464 0.869303 1.822146 1.921687 0.871938 1.084847 -2.323079 -0.555723 -1.110223 1.528084 
egg_noodle -0.593382 -0.209638 -0.143946 -0.266309 1.630798 -0.749364 -0.693968 -0.198437 0.471749 0.414815 
beer -0.320613 -1.328861 -1.350893 0.620538 0.707708 -1.055834 -1.302889 -0.111790 -0.811172 -0.982461 
hazelnut -0.793637 -0.503494 0.875352 1.121522 -1.457697 1.787381 -0.271852 0.896632 0.995836 -0.647298 
mandarin 0.484595 0.171233 -0.156919 0.930652 0.106484 1.383984 2.567870 1.601159 -0.891284 0.176410 
romano_cheese -1.294299 0.951293 1.403136 1.446899 0.663678 0.422903 -0.921984 -1.173668 -0.366097 0.894996 
plum -1.180611 -0.862618 -0.003196 0.051350 -1.642059 0.498746 0.237015 1.226976 -1.169357 -1.666743 
pimento -0.629804 0.387245 0.527185 0.766939 1.659469 -1.324839 0.583247 -0.359883 -0.190156 0.047654 
smoked_sausage -0.913718 -1.651849 -0.823135 0.155706 1.765094 -1.403206 -2.035871 -0.340858 -0.834405 -0.659222 
scallop -0.272070 0.504464 0.912139 0.959994 1.449620 0.696443 0.297264 -2.690325 0.068107 -2.532795 
goat_cheese -0.679359 0.498522 2.085837 1.529085 0.006509 0.849857 -0.525725 0.745051 -0.824691 0.281156 
lentil -1.861967 -1.647327 1.334182 -2.044498 0.794717 -0.577350 0.522527 -1.046665 -1.439558 -0.295448 
currant -1.413847 -1.495490 0.657403 1.070661 -1.482768 0.305597 0.238779 0.994278 -0.501283 -0.782242 
saffron -1.493860 -1.440304 1.528411 -0.537339 -0.163586 0.409661 0.465399 -2.653670 -1.065575 -1.865530 
barley 0.085759 -1.461771 1.015185 -1.587815 1.154519 1.245654 -0.477362 0.348680 -1.592427 0.183742 
caraway 0.816193 -4.135810 0.796828 1.178945 2.227101 -1.630670 -0.060566 0.123448 -0.435105 -0.429636 
beet 0.073819 -0.558294 1.831260 0.460116 0.677786 0.148382 0.175771 2.514397 -1.234982 -1.623622 
squid 0.827938 0.723340 -0.893504 -0.930366 1.954077 3.585657 -0.680816 -2.962118 -0.664355 -2.120399 
corn_flake -0.639443 -0.282317 -0.499239 -0.754640 0.647477 0.009824 0.244037 0.761684 1.459339 0.518538 
anise 0.372233 -2.100949 0.131235 0.592107 -0.446148 1.527256 -0.354653 -1.124335 0.156824 -0.812325 
roasted_beef -0.296338 -0.355194 -0.158800 0.530078 0.610606 -0.383250 -1.716333 1.068643 -0.665391 -0.864416 
pistachio -0.783190 -0.508300 0.495430 0.400885 -1.138675 1.257992 1.138511 0.415381 0.248988 -0.744173 
peanut_oil -0.130380 0.682696 -1.292796 -1.970882 1.270168 0.815994 0.898967 0.075196 -0.799322 -1.779386 
cereal -0.345754 -2.454396 -0.764833 -1.155809 0.459736 1.354844 -0.055194 1.354452 -0.148364 2.656534 
cashew -0.895054 -0.334536 0.166319 -2.148803 0.110430 0.599556 1.378126 1.198829 -0.420020 -0.809423 
veal -1.080060 -0.715078 2.092928 0.963597 -0.385677 0.955495 -2.485095 -0.723931 -0.505091 -1.083568 
seaweed 2.020601 0.984968 -0.660747 -0.774163 3.179300 4.059104 0.081165 0.284386 -1.270029 -0.130423 
turnip -2.060441 -2.232524 2.812815 -1.521356 0.080565 0.047716 -1.166491 0.558723 -0.382807 -2.917723 
sauerkraut 1.057206 -3.062116 -0.990445 2.325011 2.521269 -1.493947 -2.605814 0.706039 0.312873 -0.716289 
berry -0.273249 -1.427797 0.817309 2.158420 -0.655202 1.179763 1.725493 0.539964 -0.031543 0.126292 
kelp 1.221120 1.440427 -0.867598 -2.192500 2.411049 5.410880 -0.496970 -1.031063 -0.409243 -1.970323 
tomato_juice -0.520972 -0.345201 -0.897509 0.278192 1.263901 -1.093754 -1.164423 0.249592 -1.047054 -0.395165 
cod 0.117478 -0.696283 0.209475 -0.460173 1.583702 0.099573 -0.006440 -1.673916 -0.104240 -1.661943 
provolone_cheese -1.514826 2.051432 0.371662 2.603376 0.864985 0.465457 -2.044779 0.164702 -0.309573 1.559216 
mussel 0.399371 -1.183107 0.251226 0.579958 1.825511 1.155912 -0.845252 -4.587304 -1.115838 -3.746795 
blackberry 0.275004 -1.917778 -0.630997 2.852073 -0.620794 2.088989 0.951681 -0.366784 -0.140112 1.402199 
roasted_peanut 0.341614 -0.563153 -2.112606 -2.138071 1.006557 1.339656 2.019912 0.550113 -1.180887 -0.173938 
rhubarb -0.266714 -1.173777 -0.300001 1.308540 -1.004511 1.902476 0.914985 0.142401 1.159398 0.095997 
chinese_cabbage 1.697029 0.828052 -0.537714 -2.343503 2.584884 5.168417 -1.296754 -1.005747 -2.033626 -2.750169 
corn_grit -1.194261 0.272913 -1.655933 0.689070 0.910701 -1.075062 -0.822451 -0.840374 -0.765514 -0.000540 
chicory 0.378208 0.796076 2.877181 1.736693 0.779971 1.908291 -0.231671 1.670823 -1.581317 -1.059178 
bourbon_whiskey -1.572571 -0.454787 -3.430429 0.983345 -1.338960 -0.135051 -0.544706 0.116242 1.372358 -2.396966 
citrus -0.285099 -0.965395 0.040842 2.038774 -1.388979 1.875026 0.572473 0.499076 0.499357 -2.245962 
lima_bean -1.416338 -1.381452 -0.336984 -0.418082 1.615740 -1.846512 -1.365416 -0.105714 -1.194561 -1.005500 
lovage 1.054738 -1.075045 -3.357913 1.600024 1.384450 -1.289669 -1.786858 -2.586342 2.122186 -4.658504 
melon 0.320502 -0.807357 -0.196507 1.314180 0.054428 1.751623 3.537115 0.103927 -2.319787 -0.614270 
parsnip -0.207328 -4.068711 2.660604 -1.085395 1.280243 -0.177544 -0.905203 -0.854176 -0.645118 -1.397491 
fig -1.572822 -0.594254 1.187713 1.856959 -2.122378 1.380206 -0.305049 0.889170 -0.304071 -0.704347 
lemongrass -0.038054 -0.297953 -1.251572 -2.677129 1.380872 1.739228 2.889918 -3.706995 -2.118646 -2.400480 
whiskey -1.950688 1.367668 -2.515596 1.614018 -2.115698 0.498360 -0.464974 1.989536 -0.774926 -1.243021 
watercress -0.007816 0.902646 1.132202 0.585974 0.336592 0.757509 0.501723 1.689976 -1.277900 -2.185794 
tequila 0.096030 0.727727 -2.884799 2.381297 -0.379646 1.014303 1.157766 -0.731257 -2.508892 -0.970226 
rye_flour 1.251184 -4.072452 0.306434 1.776667 1.500776 0.254984 -1.156176 0.925513 -0.155426 2.173383 
peppermint 0.565409 -0.031479 -0.455403 0.575214 0.073413 1.851667 1.018571 0.495267 1.634107 0.544213 
savory -0.951897 -1.672843 1.765677 0.370048 0.365543 0.137566 -1.414060 -1.335728 -1.202947 -0.431479 
lobster 0.049090 -0.233291 0.102059 1.760627 0.897742 0.321118 -0.229102 -3.163637 0.314471 -2.551192 
roasted_pork -0.487258 -1.815861 -0.555853 0.185883 -0.279609 -0.721648 -1.371457 0.971664 -1.915911 -1.098756 
mace -1.110747 -2.026359 -0.179249 -0.205186 -1.545165 0.981973 -0.552415 0.171878 0.024661 -1.643795 
endive -1.541791 1.312087 2.663242 0.987925 0.114674 0.770399 -0.956653 1.508209 -1.051090 -1.734450 
brassica -0.140680 -0.620808 0.692067 -0.849373 1.351758 1.133310 -1.221009 0.622285 -1.563540 -1.433315 
grapefruit 0.492601 0.209332 -0.100595 2.105212 -0.378888 1.005252 1.857616 0.881867 -1.990801 -1.586098 
enokidake 1.935334 0.011120 -1.475624 -1.156423 3.059077 5.057910 -2.732569 -0.901566 -1.002156 -1.583487 
porcini -1.634570 -0.744333 3.173516 0.671638 -0.149904 1.407556 -2.714718 -1.392843 -0.181023 -0.719675 
kiwi 0.660971 -0.618177 -0.555250 1.397146 -0.024161 2.198291 2.554899 0.578877 -1.013727 -0.131728 
wasabi 2.002630 1.543293 -0.443752 -0.219864 3.170641 2.914649 -0.295454 1.159206 -0.006486 -2.091376 
watermelon 0.675916 -0.775926 -0.373197 2.695118 0.444690 1.499351 2.848240 -0.800857 -1.951904 -1.273306 
lime_peel_oil 0.653539 -0.119620 -1.081331 1.356150 0.770056 0.778571 3.165462 -1.324286 -2.025423 -1.168563 
okra -1.142724 -0.640326 -1.330228 -0.448341 1.200814 -1.111756 -0.599701 -1.562722 -1.011433 -1.534653 
macadamia_nut -0.018154 -0.111447 -1.133514 -0.383567 -0.360159 1.294482 1.554849 0.710225 0.682846 -0.267061 
smoked_salmon 1.205792 0.409175 1.981181 1.637632 2.212409 0.586923 0.901396 0.461985 0.926990 -0.303692 
kale -1.307121 -0.591054 1.941582 -0.791923 1.126430 -0.168842 -1.596862 0.009351 -0.952005 -1.410057 
popcorn -0.579711 -0.417944 -1.212613 -0.832606 0.862866 0.379184 1.000022 0.488994 0.236164 1.773653 
rye_bread 0.421580 -1.751151 0.487179 2.838574 2.853966 -1.839093 -0.928324 1.415853 0.861234 0.444114 
star_anise -0.356650 -0.643134 -0.479286 -0.643015 -1.075920 1.826023 0.474216 -0.326653 -1.893657 -2.451272 
brussels_sprout -0.929822 -0.594544 2.265762 -0.268367 0.537114 0.156649 -0.610328 0.832336 0.086160 -0.498021 
tea 0.041151 -1.400922 -0.618024 0.869648 -0.563888 0.863633 1.298844 -0.283537 -0.242406 -1.316016 
thai_pepper -1.537585 2.232171 -3.470793 -2.634499 1.185279 1.417473 2.385041 -1.010141 -1.793864 -1.945219 
champagne_wine 0.679457 0.182866 1.069839 2.026513 0.138929 1.033829 0.889238 0.871724 -0.625902 -1.548320 
anise_seed -0.436969 -1.538010 0.298043 0.595315 -0.660285 0.548521 1.573218 0.459858 -0.951706 -0.347788 
yam -1.641176 -1.108799 0.858816 -1.849992 -0.677713 0.859742 0.350707 0.431179 0.169243 -2.021786 
bitter_orange -1.492168 -0.890137 0.573908 3.725182 -1.574657 0.916437 2.256145 -2.022887 1.050670 -2.210872 
wheat_bread -0.212305 -0.205503 -0.037983 0.438902 1.616782 -0.512858 0.058068 0.930895 -0.313183 1.049759 
